2
617 50
-245 88 -443 432 -598 982 -243 280 370 212 683 -188 68 484 308 -861 -399 -1316 99 33 -714 948 254 -930 -733 1319 550 913 -812 326 -1487 405 229 -1375 711 1126 -1706 -1028 66 -1388 58 1590 -748 -229 -721 959 185 35 -1398 -835
347 1388 1407 -152 -1841 -91 646 -565 -579 -244 -475 634 -1145 450 250 2068 -1043 130 1362 -188 392 806 1292 198 -346 3744 -126 1165 1748 -1044 -377 1128 145 1359 256 -1437 -20 -591 59 2288 476 1508 491 117 -2503 2892 537 -101 -711 524
1985 2244 -828 -457 -766 -39 867 -1250 195 -574 510 1737 -1064 1253 1371 2006 -170 1023 -1133 -466 360 -249 1790 -1815 -1455 19 -819 -1426 1105 360 890 597 -936 762 -995 -1359 1973 446 -1724 -385 2 -471 -857 -252 -517 849 309 -210 661 -965
1466 591 -554 -434 1368 253 -126 -1028 382 -1624 227 1704 -1233 167 453 885 392 -996 -264 -1334 -498 -740 639 -1089 827 530 -609 -2741 -289 -330 1305 802 -835 1693 -663 -258 2410 -92 -446 267 479 -100 -80 171 473 26 -1464 1024 465 -1501
20 -917 -802 -1308 8 1089 7 315 1520 457 135 626 -1292 -1084 512 -1139 1029 -1699 -283 1183 -744 -703 621 -652 348 -954 -55 -999 -696 -798 -780 1220 -34 844 -334 631 414 -283 -324 181 724 -752 -36 -93 -767 -1365 -589 -119 361 -368
-338 -807 -1178 396 669 1007 359 462 -311 337 -735 -28 507 -1239 -454 -1415 985 -1328 -101 615 -1434 935 -555 1180 -526 -759 -263 143 -879 126 -774 91 240 -1606 579 999 -2691 -1040 -140 1023 1112 -182 1385 -84 -904 -1100 564 1550 87 513
-1227 770 -580 240 70 314 596 -819 302 1481 -567 217 -282 -183 -1228 -1483 476 -952 360 563 -968 -303 -432 -235 -648 -535 683 1191 -427 747 -356 723 883 -801 8 -478 -1483 -1224 653 205 348 -252 1648 -61 439 -1044 158 384 -625 -586
-2041 126 -117 -345 81 -1075 -127 -614 605 356 -1734 759 1305 396 -457 -41 1396 696 -594 -874 647 -84 -223 1179 55 -1292 75 414 -240 -353 970 -213 555 363 -203 -744 -828 -268 461 -908 440 597 1204 -747 1319 -4 -1634 -656 -891 -582
-2011 -50 -271 745 166 -722 235 875 809 793 -1074 894 1207 -113 -1814 -772 1872 -143 -263 33 -275 619 -202 1349 339 -215 115 -677 -150 -860 1544 -804 209 -278 177 708 1752 986 -895 -2302 -846 -1701 1172 -1922 660 404 -1162 -1185 933 -787
-2478 499 -1192 97 213 -1909 853 157 1577 -54 -1431 1029 1089 472 -1146 -512 1135 1119 -1096 -1571 -326 -791 253 722 619 347 1561 -921 -711 665 509 -1609 -78 -873 -400 334 2392 1130 -560 -1244 -1076 -684 514 -115 1406 -848 -1098 -982 -601 81
-1992 534 898 492 -87 -1231 400 -704 124 -35 -1632 788 406 -241 -208 -791 958 -46 155 -1700 648 -877 881 -116 1492 1384 1271 -275 563 862 526 -209 -467 -648 -757 -300 2038 -428 346 -1038 -700 -791 1132 -1565 -201 857 -1321 -1913 474 263
-1397 1210 -83 -1087 328 478 -261 664 -167 -1992 -1492 -219 -1312 298 139 -535 1077 27 -699 -1089 -11 -391 -442 -548 -102 92 1170 960 -372 283 608 -718 -751 -232 -936 -57 716 -395 449 -483 -140 1458 -229 -1250 -1767 1101 -101 -67 -960 310
-1020 187 -246 657 -345 -123 120 342 66 -138 -1190 1065 -1566 -677 1901 100 393 -497 95 -702 -1022 -1777 105 362 317 1014 1983 -339 -1221 -721 -499 -792 70 -500 49 -678 916 -1077 13 -872 537 639 -2066 -1104 -726 898 -946 235 -1049 -809
-806 -252 -197 1011 -465 -58 608 266 -300 205 1202 -1151 -1277 -849 1172 2042 364 -1363 -108 -916 -1182 -1372 487 -1195 548 976 343 765 -761 791 -301 -104 -1196 668 -1506 126 -347 -1037 -465 -161 -122 -69 -1221 -2671 714 296 -601 -167 -1965 360
656 188 1107 1334 -529 932 513 565 705 -772 49 -1308 -940 17 -61 -173 820 363 186 -761 -132 -1127 -725 -1036 66 1307 122 -638 -1533 789 612 216 422 29 -442 37 158 -137 912 -824 750 480 -1237 -1867 -890 157 -17 88 -383 127
751 -764 202 1012 -599 581 -695 312 -328 500 1056 -171 -1273 604 -61 -938 1202 -754 610 -991 470 692 958 -1094 -719 748 1332 191 -36 607 -154 290 190 846 -1194 46 -1661 -417 187 511 250 -1005 33 -1800 -737 702 -435 1295 5 749
569 129 334 1285 226 1409 -810 -147 821 -580 194 667 -1548 -232 548 -467 1077 -426 1576 499 -251 -1832 498 -22 -547 1467 1210 -218 -391 2 -586 -793 -1142 407 468 100 -970 -2213 1268 -143 -914 -113 -585 -413 -922 490 876 671 -722 1051
-517 483 170 -200 -328 484 162 155 -527 165 -324 -708 -1058 3 -257 -41 1307 1193 1523 412 829 -958 -803 -412 -670 1860 1847 843 -1069 -493 -240 -438 -762 -778 778 343 275 -97 245 -156 230 1002 -774 -751 -306 554 575 160 -1212 -55
-774 -767 -691 361 -304 931 -246 794 -545 191 1116 463 -1193 569 501 -740 -178 649 1026 368 -226 -421 556 16 104 1245 411 -92 -1471 -824 -65 26 -1833 1091 -1394 1527 -1258 425 40 -939 680 357 -127 -1622 -163 -516 503 89 -425 342
-598 752 488 1056 831 1608 378 -168 -413 246 853 812 -810 -1024 -721 407 1073 -754 506 -470 -216 -439 -972 40 1289 1469 1588 914 -1096 -916 -153 -612 48 507 1305 427 -1128 -20 135 87 -112 -306 1009 -643 -969 -976 820 634 -765 1285
-1285 -396 997 1151 1014 2082 -594 -461 -720 -285 3 -190 -228 -415 -1102 -248 1158 -515 45 20 325 96 -90 692 1359 575 1222 1011 -12 432 -1001 -404 226 612 780 -176 220 858 907 -461 611 -617 -812 -1518 -752 193 -459 -206 242 -110
-1294 16 553 -181 930 1351 667 -261 -429 753 942 -291 -1275 823 -1002 -234 247 -102 357 387 -441 -189 -558 -767 -286 -718 1361 433 -387 -680 -301 261 -10 -1381 795 600 -817 -983 1011 30 984 -769 65 -1303 -469 -365 -738 36 -199 -708
711 -403 -689 -872 -1286 -93 179 380 -265 -696 868 -378 -685 -915 84 493 -111 -724 277 -276 86 -117 186 131 718 -335 1269 1022 -790 608 -835 -344 211 606 208 -761 -402 166 -563 519 453 258 -663 -368 -217 -623 -675 -419 309 -975
723 -120 423 -57 -600 1248 -659 806 -834 737 -390 295 -22 -1257 -631 233 486 -65 -592 -3 -234 866 701 -619 562 572 585 -144 16 -432 -478 -460 671 -478 -625 -1424 1046 599 -27 -339 199 1382 -701 -652 -2 -252 -159 219 642 -287
-941 -497 -503 386 -458 368 352 441 -1282 571 -979 -891 -820 230 -794 -299 1060 -806 606 -791 111 12 104 -966 1023 -121 -143 -168 838 640 -1010 -319 -1123 314 780 -325 155 920 713 469 621 471 474 -788 -1020 -289 164 -617 -1047 177
223 -291 59 281 -98 622 -798 -366 -9 -960 412 -455 -1290 145 397 615 1599 366 16 -90 829 221 -1304 -500 -60 608 853 1736 -720 -554 -549 -160 -1226 581 -669 527 421 -565 461 703 -920 -59 -108 -260 -1223 28 117 -513 -513 673
179 584 301 717 -876 485 -835 -122 -1151 867 362 -1242 -1052 -836 225 227 1415 -376 594 767 538 647 -502 -95 307 504 149 1294 883 -748 -399 -580 -935 -166 890 -1132 -868 -724 -22 -539 580 196 164 -635 -1619 -572 481 -320 -757 943
-7 180 770 735 38 -683 -1174 -14 -1493 -604 -305 -133 -586 -242 -780 513 391 -485 -320 227 1681 -74 -1196 -150 1296 362 425 133 -400 487 -183 179 559 -759 1454 -1292 673 945 128 1150 685 -731 356 -958 -505 -221 384 -943 737 256
1476 -260 -421 -224 422 440 -646 -1374 -824 -708 -100 -229 817 710 -544 598 238 -34 284 -1456 9 99 -755 458 22 116 895 286 -673 -677 69 589 -873 836 472 296 12 -177 622 1603 107 1100 430 -956 -331 157 630 -697 807 1207
1232 548 -949 85 45 -287 -482 279 -509 495 895 198 1206 31 -764 807 -346 -336 -416 -1361 1245 517 -45 -217 -612 -708 -529 871 784 -340 -441 -1411 -551 320 -623 -225 1090 588 -1483 352 -345 1720 1350 -24 -1041 1104 1027 -587 470 1821
-733 509 -197 -530 -1213 375 -880 -615 -522 299 -186 -224 290 -439 -672 -637 -31 -861 -80 -26 1170 -129 -750 -839 -89 -356 -774 490 -354 278 333 -616 -1310 193 381 1133 -671 1396 35 -172 -1130 988 -492 -1340 -1172 -600 238 -290 1070 346
88 -451 -894 1360 -243 -292 634 1003 -542 -578 45 810 -663 -109 -879 -407 793 -502 -583 -1098 1258 -165 -534 -820 282 -798 -569 1343 210 617 38 335 -489 1770 322 -1190 650 1805 516 -274 -1138 857 -1344 -888 -53 847 -513 -377 842 890
-189 139 393 729 -38 -126 391 652 -1139 1336 1266 601 1077 498 -806 458 -897 176 1195 -707 -956 44 874 -715 -356 683 730 778 -555 -101 378 36 976 -297 -1450 146 -1221 277 339 474 -245 -669 -372 -784 -1040 1200 -112 931 -1063 -439
-1226 815 2296 78 -1474 569 -406 1412 -863 -238 -143 582 -209 1347 769 3026 -1603 1019 1698 -262 223 -185 -62 598 -1092 3721 -768 1402 1113 -1124 223 -456 859 873 1128 -1045 761 306 1048 3159 -1121 1289 -451 -166 -1177 3315 -842 -2598 2540 2795
-797 -1597 -617 -675 1157 480 -626 482 -78 -860 -170 1733 -665 -1203 442 533 179 819 -754 541 1172 -143 -334 354 -634 1162 41 576 1120 -944 -58 1616 -44 -752 788 -540 838 1452 154 959 23 -565 -1110 -1094 -69 942 -279 -634 1593 1422
636 -767 -341 127 1303 -233 145 -1275 513 -2518 75 921 -986 -2075 311 -412 -100 339 -175 -121 944 -832 547 -927 1090 231 -637 -939 845 -520 -147 1189 178 131 853 -971 1506 -34 491 -206 799 -1532 278 744 536 -305 -470 36 -809 -3
203 13 -224 -1443 -282 183 448 -1133 2073 -900 -1133 294 67 -305 867 -1966 653 -998 782 507 211 -974 -415 -522 685 -372 1003 73 -666 -241 -98 265 951 623 174 1020 -745 -645 -510 889 455 -1429 -387 792 458 -1367 1491 215 -883 -1255
1613 155 -957 -303 173 -102 -1552 742 842 939 411 490 356 32 -91 -742 -771 -1206 459 855 414 184 -4 325 1031 -695 -1337 -743 -1294 638 6 707 -587 565 -214 2061 -1732 -1272 -1622 -836 903 -1322 -246 582 692 -1880 844 1767 -1258 -1081
411 773 75 -150 941 -465 468 373 854 1025 -591 605 387 563 -73 -1919 -441 377 -791 -293 -576 -389 -1020 109 582 -1973 -811 -738 -156 152 -568 686 -900 22 59 -135 -1475 -660 341 40 -363 -651 811 909 -759 -1709 -237 762 -1534 -1796
694 245 -1394 109 263 -646 189 -182 36 -594 -930 1890 -923 -408 925 -1966 143 -77 -109 -353 -805 -666 -416 -48 -161 -58 146 -1511 166 -162 -1190 71 -1214 -355 -429 844 -843 -575 807 -12 -408 876 658 -232 1017 6 -320 -355 -1046 -1544
-626 381 -627 -1821 1280 -1589 -166 -1301 703 742 -1612 1006 829 680 -184 -1296 -142 808 -145 582 559 928 -611 279 1107 234 -644 -619 974 -710 610 -888 -204 1112 170 -94 113 -783 300 -699 -728 -1967 491 366 644 -276 -1308 -507 897 -831
725 905 117 -288 349 -1085 -501 -31 1287 568 -400 41 880 814 922 459 541 -411 -1422 -297 -637 983 252 197 -538 -470 586 -375 -441 -316 662 -1076 198 -118 384 -671 1276 516 63 412 -94 -1327 -268 -203 1723 180 -978 531 928 -1512
209 34 205 -1343 -364 -362 -326 -155 1104 -1185 -287 960 -1066 -925 550 555 -157 -317 -677 -819 -295 901 -13 551 -278 -817 -769 -933 210 364 -577 223 -362 -85 -495 -1074 815 -651 -675 -1465 -178 986 -1010 505 248 -165 -1299 -560 27 -848
631 155 -840 -1630 -827 487 58 -920 516 -319 555 2025 -82 211 730 -671 -131 1142 -437 -460 1189 347 598 273 1075 603 383 -920 -548 979 186 133 466 812 -631 259 16 419 -555 -646 532 440 -1665 -542 -1797 374 -409 1225 -1426 329
-206 397 1070 81 -1401 596 -1346 485 6 -51 437 709 -532 -60 634 1135 174 80 1533 1127 -357 -103 -143 51 757 836 312 890 164 -787 357 -168 408 220 826 234 650 -456 1014 753 -289 710 -526 863 -1667 915 897 868 -144 -451
1253 -223 96 325 -2209 887 520 177 1833 -650 915 845 -952 364 954 -174 -895 600 1690 299 -698 -606 269 1214 -1203 -341 -975 -34 -990 740 959 127 -946 -114 -352 -666 -470 -469 -412 -605 280 568 222 -88 325 -396 2648 1452 -1389 294
-249 476 -724 -181 -1063 -2 495 815 1368 -1004 20 558 289 -1398 345 19 1045 406 892 605 -332 -209 -1186 -383 567 814 -1537 402 635 -210 75 551 -1244 -544 -1032 -526 70 -909 797 -169 251 644 364 857 -1185 -1024 1215 1699 -1307 1047
-628 101 -427 495 -696 1403 258 592 260 686 1567 -38 -1066 -1117 -583 162 1956 688 2129 -1020 1407 625 -778 -108 -1152 -1007 734 611 999 -863 -63 -349 -456 -1535 -10 -838 -287 -497 1481 -325 -591 -223 735 -786 -777 315 1490 414 -642 783
749 -1409 694 326 343 1162 -826 381 85 207 -112 -495 -936 -499 675 -55 53 -157 1935 -1290 1298 -960 -1188 -1269 -1126 -964 950 923 716 781 -983 -303 -348 271 354 148 -1252 -658 489 341 396 -881 -235 -422 -440 -290 1161 116 -1206 403
327 -1401 -309 -1020 -390 718 -458 203 -133 -337 672 -379 -60 -1071 220 -959 -625 999 732 354 -813 -833 335 -604 -1096 -430 202 1195 396 -376 368 994 -107 -1008 -260 958 -1361 -1093 618 958 671 545 -986 21 -1584 -539 -436 462 -622 265
-368 -438 261 903 -1258 -266 -1230 576 -661 -355 -125 33 352 -575 482 -631 475 -430 1000 670 -178 371 827 -597 -418 -240 632 772 -120 -670 -25 -83 -166 -10 283 404 -1203 1 41 -590 239 -433 56 420 -765 324 -124 213 326 428
450 -487 47 69 373 1059 -211 -932 428 -409 -388 635 -1023 -641 1018 -91 449 475 558 1071 -354 -378 1452 364 -816 74 -21 -242 103 -433 -543 -835 -195 -167 983 -418 -353 -593 -162 401 864 -163 -1010 -242 -117 125 -34 344 -966 -2
-1454 -897 671 141 139 1418 742 -247 409 800 -212 -427 -70 198 146 116 532 982 1062 -17 -80 181 18 -640 -535 276 817 753 -554 -619 364 -351 1099 -580 856 472 -1107 -702 315 -929 -467 443 260 -401 221 84 328 -296 -788 132
-269 269 559 104 -498 117 671 -89 619 290 755 -579 -264 455 101 -926 498 470 -232 584 -391 159 -819 493 -595 85 801 23 208 623 528 240 1234 -168 -599 9 -89 188 -193 314 -224 159 -856 363 -164 238 -153 238 333 -1317
-851 797 667 692 110 679 114 871 624 -518 289 -502 -749 -717 -779 724 79 681 227 559 -158 227 -754 498 -87 -109 -659 1200 -460 226 -58 1788 33 -394 -284 -22 406 94 -107 -849 134 803 -341 262 365 -313 -258 -1299 717 -1069
93 860 397 -1055 -811 424 -263 360 -139 -577 -914 -652 363 -145 -746 1148 -471 470 657 -406 65 535 -201 739 -1107 17 612 894 -96 818 892 -258 845 -590 436 73 435 285 -86 329 -121 -387 -333 1096 -938 33 -296 459 -390 -27
-340 213 163 -602 20 -18 687 1182 -784 -360 499 -3 -729 145 -545 -723 298 -941 -255 -481 -429 438 297 -168 -495 -152 798 -145 810 -999 982 -119 -878 459 642 390 496 267 -382 1251 -510 1145 464 -382 -474 -365 1123 -106 247 406
429 -469 486 248 -92 1709 -217 -82 491 765 193 -862 -1033 -572 83 455 284 -1222 -66 651 -916 -736 -587 28 690 -944 890 -470 33 293 152 -356 -682 -280 -422 -768 -471 -386 1086 -31 -30 -662 -227 668 -235 -694 -292 410 -782 -123
236 -383 1696 1172 394 975 56 1543 -152 30 -692 483 -1676 -289 662 -655 -136 -397 -525 329 -832 179 875 93 870 874 409 -104 28 -758 265 -739 208 692 1209 522 -1341 -1074 1190 540 775 -212 -1347 -605 369 271 -543 -300 421 -651
743 623 1092 372 219 156 -1093 692 -692 440 -708 -971 -68 449 1170 271 -567 -690 858 -548 -952 -354 -88 -367 -593 131 937 -66 -16 -418 152 720 608 -911 1563 343 -1087 -499 985 185 -465 -857 -245 -744 258 -420 225 -1431 1362 501
986 -238 73 -470 406 273 -289 -115 -73 887 75 -224 -768 399 -33 -343 838 -714 977 176 155 806 -85 -507 349 -1112 657 -294 -492 483 -791 730 424 -508 1544 -46 447 -1273 359 392 138 -108 -97 -427 -603 -54 -99 -1010 683 -314
470 398 -513 1078 -167 205 -750 -980 -460 -516 -217 799 -14 608 -724 -655 -598 95 64 -743 -165 -180 -404 -660 775 -204 300 578 625 694 -695 -1021 -838 -758 107 -604 470 -496 123 -354 -1336 65 271 485 -1450 385 30 -524 229 -49
-966 812 514 -242 -1281 -740 -4 294 -901 774 -893 686 547 479 -388 145 923 217 -72 42 519 -664 112 -83 -328 -192 819 242 1190 358 697 -235 -492 505 -336 380 385 -100 580 -430 -248 549 1152 336 -742 -411 482 -443 305 1007
79 472 879 229 -643 -318 458 688 -569 144 70 -489 -466 -714 37 895 -573 1021 133 -901 573 1733 554 -728 123 -476 422 819 173 718 615 -1413 773 1541 33 283 -875 -846 312 -443 -728 123 484 552 -1093 560 243 -725 42 -39
-414 28 1243 -72 -664 936 1012 481 -1214 396 665 -393 902 -515 -250 -454 556 -1174 -459 365 -1015 520 119 594 85 -601 -243 1676 302 -140 -115 -451 390 -651 -1397 721 368 381 -841 -641 725 491 179 275 -51 899 484 -50 -302 -157
-967 1395 2718 -1214 -1818 946 164 19 -1190 -2174 399 1094 -1477 390 710 2739 -760 160 552 672 -1238 -684 -894 930 -1533 2069 226 426 3146 -935 -1111 122 779 -720 1498 -1161 35 282 -622 2930 -820 854 926 1665 -517 2835 -2003 -2347 1426 2319
-1601 -1389 -171 1378 1675 -854 468 -745 189 -1203 -597 2003 -756 -1253 400 1119 476 1169 -419 765 830 -791 958 417 -986 600 369 388 2331 -70 131 1090 1002 -211 1509 -668 1350 1618 994 778 -56 -1246 -293 -526 471 1012 -88 -2118 851 -265
-264 -1131 285 1632 415 -242 820 -804 1506 -1291 -878 1245 -86 -799 384 177 -198 -752 -715 -1399 -262 -1089 173 -697 -114 -903 401 -1018 -85 -188 -876 -393 230 534 1735 -1012 1420 -259 422 -404 104 -1255 -1462 84 476 -543 -456 -392 508 -261
653 -1271 -980 -410 621 618 -263 132 3252 270 -277 680 -588 -1195 -589 -2076 342 -1578 709 511 -1023 -1297 757 -1939 278 -2552 766 -1150 -1690 -455 726 48 98 -450 571 1258 -492 -312 -696 -1146 -898 -2221 280 120 -200 -1965 -270 -98 -361 -1126
1138 -323 -990 -687 -254 330 -1203 -308 -276 613 756 -1347 428 294 -768 -895 -1209 -1606 368 -242 -578 687 -1055 -1225 2051 -1843 255 -11 -1560 793 1141 647 -971 451 -353 2222 -854 -1097 -1048 -1205 1009 -635 -269 2457 660 -2521 462 1419 -2286 -1532
1180 80 -817 10 436 1631 -170 -123 -192 595 158 -690 -23 860 -137 -1227 113 -567 -887 775 -283 -296 163 230 1036 -2408 935 151 -993 -1100 803 2 -1357 464 -1782 321 192 -833 -437 125 456 -540 57 906 585 -1111 -457 953 -1397 -1760
2309 238 -1001 -369 -85 367 24 454 -1811 985 1108 -679 -1004 248 716 -1023 -574 -366 -1278 -252 256 1507 -123 -134 748 -402 -9 -1120 291 -347 -108 -390 -1457 2247 -1224 86 -305 -533 397 -174 612 -3 1398 136 420 -470 -815 638 269 -261
1896 163 928 242 929 -296 -727 -1348 -1256 1238 482 86 -333 -309 1368 248 50 361 137 963 -87 644 -230 714 924 -828 -938 -1724 784 608 1060 -825 -213 853 480 -693 196 42 -715 702 -369 1106 1016 373 -1258 -1311 -1151 777 -56 -885
1608 1684 -74 -1217 -517 1300 -821 -231 -892 -68 -262 333 31 293 -188 -237 92 1357 -272 -418 -156 391 286 909 440 -950 -766 -1461 749 273 215 -441 649 1450 -1449 40 8 295 -527 772 161 -366 443 1037 116 333 878 -194 -343 -309
992 857 1009 -706 348 583 -146 -930 -1142 869 1374 -121 122 191 -586 -793 410 613 382 430 1673 1385 -115 1472 122 -637 283 -129 1175 252 -29 -67 708 -154 546 -564 477 -976 -561 27 -1050 1255 14 -39 -807 770 -630 -793 388 744
1443 -300 99 569 -1154 598 -1135 -508 -399 -13 1666 -56 -1234 -94 -15 1162 293 703 -910 725 911 -57 -261 1001 0 644 -126 768 353 -312 -1136 165 -527 787 276 196 -305 -98 -358 837 -266 -253 -880 1518 64 710 130 -391 -219 381
1292 -347 1 -41 -823 1263 -1177 -375 947 940 746 386 -316 -213 -28 837 241 -663 403 725 -608 -24 267 -998 604 -1104 -140 353 -786 -300 -175 822 -1407 629 -738 73 -457 -24 438 -610 507 549 375 2339 -320 -874 127 262 -538 -912
846 693 1231 447 -634 1474 335 -448 -187 -188 -65 355 -1534 -1012 890 329 77 -348 250 -187 103 -784 138 -1050 677 -1185 840 652 20 -490 -425 1170 -690 733 -105 824 -441 574 -407 -595 471 247 234 740 -154 -1410 355 60 -675 113
625 -96 1101 -161 -191 -387 -205 287 1746 -23 -198 960 -451 -287 893 -1152 -626 -1106 -11 731 -305 -1166 -1018 -455 -1149 299 -403 1253 202 160 151 108 -683 282 302 416 -566 47 14 454 289 -413 -20 1162 -246 -135 840 701 -918 -122
-180 -953 841 592 1293 711 632 692 736 445 1405 37 -1092 -1724 667 -129 331 -441 95 -447 263 781 -20 -1074 122 -616 600 1105 -398 512 491 -175 -288 157 -74 -1240 -183 -1044 -119 730 -261 19 -53 1978 -116 50 1283 625 -591 203
544 113 822 -159 -845 -366 -1058 734 -692 301 -1 1000 264 -1114 799 -303 -88 -374 742 -173 759 101 -1146 -1226 -829 918 63 -449 -310 -629 297 143 505 -930 1519 -234 -167 397 148 124 -405 293 -258 -432 643 116 414 -1063 596 -282
1278 -1766 -656 510 -1553 -1128 -953 -574 -79 190 -588 762 1561 117 884 231 796 792 1376 -510 407 -1378 -386 94 -150 -615 -617 488 -1333 -96 -591 -660 -815 -1202 901 705 -486 -73 -187 378 -466 -811 936 80 -1566 -1018 -1028 62 165 1076
-337 -251 -912 705 -1266 188 -376 -674 330 -444 1123 1006 789 212 636 1332 388 863 1651 -847 -366 -94 219 -665 -1670 462 -648 -26 -810 -435 -1212 -1258 -47 -83 933 -149 -121 834 884 -444 -181 1570 81 1295 -345 552 -714 884 -653 -601
952 -879 -888 1222 -660 -765 776 -384 839 -548 -135 1068 -830 -530 176 656 217 -863 1093 -907 -1128 607 1026 -68 167 -885 -916 556 53 374 326 -780 -788 -1137 737 1163 -1196 -226 329 -669 -177 1649 -468 1006 -202 27 1038 1258 -1080 -168
390 259 -125 185 106 796 976 197 194 -1085 0 -41 625 373 261 530 657 156 -158 249 -586 62 -40 -947 -836 1028 46 212 48 590 -245 556 234 1027 228 440 364 904 534 622 861 -313 -281 293 914 -339 -550 -802 455 -505
-1172 -1495 501 -228 -216 -252 -204 344 -573 655 -296 -260 -24 -351 -929 -440 211 124 -349 567 -1300 -324 -14 -496 -1270 656 -100 -634 -676 396 -411 -134 -21 1191 797 531 -762 1194 -664 63 -178 -475 -855 816 491 -308 -714 -395 -86 452
-1002 -90 841 -332 598 -998 559 412 186 394 -1511 45 -506 1095 177 -610 -556 580 -344 975 51 -649 99 2 397 761 -604 -324 -571 350 434 134 555 502 144 521 894 23 -30 88 680 -993 -373 84 276 1131 144 -872 -162 527
-229 64 -343 -858 -1538 -916 155 219 261 872 -476 -1345 -419 -834 -52 276 214 -411 -312 91 -1157 739 -315 752 -1049 -252 -941 1069 -318 -921 24 164 -669 501 -738 -723 613 -224 51 -815 247 -24 -95 -331 1486 711 375 -901 801 -732
693 -134 -547 -1060 -563 -916 584 71 137 -158 233 199 -260 490 194 1094 248 -129 1133 501 -1352 228 -939 -1001 -922 1040 -821 -538 -52 673 125 -380 -719 -609 404 184 505 198 1068 638 -906 -81 34 -434 36 1029 521 -499 472 -337
1063 -230 83 -321 -683 -908 -319 1151 1111 282 -358 607 -368 -376 1452 378 -809 -303 -450 -525 -904 269 -235 -547 755 420 776 469 -379 -5 1119 -464 -640 -154 -365 761 -112 994 218 -176 -168 -1211 -108 792 -1182 911 -559 -705 230 258
832 1220 -608 459 -541 732 -128 330 266 808 -232 -836 234 -166 -236 48 -237 -1617 1151 634 -788 -416 392 493 474 -351 -486 -908 444 588 630 155 -86 -831 -984 1118 -720 1150 49 -34 -410 -1004 -269 105 -447 54 41 -55 -541 -15
200 657 -494 -947 -952 50 577 38 887 894 319 -404 -1478 -102 1191 670 -67 459 513 974 -603 -508 279 -529 -1047 -324 552 -617 -124 -314 -31 860 386 -644 224 925 -298 986 150 -860 732 -1382 27 1143 1576 4 -265 328 -122 -1019
398 84 626 -513 504 120 255 779 132 -115 996 120 -1197 18 -308 1207 415 886 -46 375 -1285 -19 572 2 -1175 455 1204 -20 109 163 -51 395 -406 661 959 444 1292 -465 349 -477 450 -529 -500 -831 -187 507 -1779 298 -760 -591
-185 -63 238 802 -814 -64 1017 723 113 -473 441 857 -279 782 248 430 654 -221 -682 -521 -1300 -387 -694 319 -1114 863 956 434 -322 -295 318 -360 -998 1211 1072 320 382 -185 -685 594 -624 -632 254 -491 582 1048 -807 -126 -325 -1399
183 -123 1039 679 -236 -1275 -178 -454 -922 661 -119 504 -253 -240 -676 1443 -521 -1162 -602 892 -431 -535 46 809 114 -688 375 223 -312 -454 -375 -14 517 -287 -201 1263 1355 740 -34 -1218 812 -406 -1061 948 960 -810 320 -460 261 -641
-683 4 1787 608 740 -25 -765 1339 -612 -174 854 112 125 1201 -578 -794 808 -1132 1004 -1118 -1161 107 227 -759 -1402 29 -485 -63 191 -677 300 -186 -117 1287 -233 -809 -476 1254 714 121 -837 -4 -1364 762 456 -706 237 -1563 555 -352
-236 -56 1303 608 -1512 123 700 216 -63 1338 1424 -1276 1173 466 465 491 192 -647 1648 489 -1079 1578 662 129 907 728 124 980 577 148 489 -147 683 -495 -1357 508 -1675 183 -1249 946 932 -629 614 416 -986 1287 262 -122 -530 1052
-823 273 655 755 -882 -444 940 1282 -983 51 -413 74 -34 267 1241 1973 -1290 1857 699 1196 -1186 611 295 885 4 2277 -1772 1239 2265 -231 730 296 -512 1080 313 452 925 133 -124 2165 -266 -901 403 944 -746 2279 -840 -1413 2134 724
-337 -1610 371 341 -545 -20 -450 321 -85 -1388 -279 1216 792 -1572 488 431 279 1686 -61 -150 356 -810 37 439 -902 617 -294 517 1614 -256 -882 60 -229 23 1698 214 1230 487 217 440 -668 -950 -530 521 1046 -433 -582 -618 613 511
-1119 -1060 -426 550 -662 -18 978 -356 -44 -1138 -1655 984 714 -566 1402 448 236 1193 -315 502 607 -1493 1521 -1752 707 161 -235 -917 724 -512 686 396 -119 366 983 -888 553 536 5 195 -1342 264 -90 -251 838 -388 445 122 343 -1273
188 -517 -756 -1161 -523 -1701 14 -926 2324 -31 -931 -28 1245 -303 -1246 -776 442 -1910 -800 -984 96 -2706 -1385 -2578 536 -1496 798 -984 -1964 -452 570 -821 -474 -48 -713 2474 -543 -770 -1527 -795 -1267 -279 -734 -543 -98 -1584 1290 -86 -196 -851
689 1194 -1980 -370 -1083 -149 -888 -1038 492 1939 -188 -1419 -547 -980 -378 -633 279 -1363 -455 -1179 646 904 447 -666 1699 -1967 -402 -41 -2394 796 545 -487 -753 1194 -572 2202 -576 -542 -1013 -1050 -815 69 788 -514 246 -3534 1533 400 -1872 -694
967 268 -1325 564 -286 890 -233 313 -1082 1073 723 288 183 348 -1163 -1627 25 74 -106 -782 627 524 59 -553 767 -2130 583 -1446 -290 394 337 108 -798 650 -1998 -110 425 -2007 244 -767 -394 -99 2258 -1084 -265 -785 239 1133 -563 -1539
1471 430 -220 -263 -1048 245 -76 -443 -1460 1284 756 769 327 1329 374 -1317 -590 1206 1087 -38 989 1459 -341 265 78 -425 372 -905 64 -271 846 130 -558 1334 -98 -710 -1094 -1716 480 -801 -325 1960 1371 225 -1473 -956 -445 1074 -1550 -999
1033 117 -652 159 -180 -200 -1390 -52 -1624 1004 403 123 -1818 1076 1781 369 -966 981 904 679 934 1238 761 -686 -44 -1164 -595 -895 550 222 257 955 -23 -620 860 247 -422 -899 -180 69 558 2031 2836 496 -1368 53 -297 1189 -35 1145
238 607 867 355 -429 488 -889 137 -1288 948 767 1211 -12 31 476 -91 -558 758 615 391 1981 1665 1077 -305 -166 112 584 -926 716 419 -832 -251 659 -219 -307 1018 -1204 -834 857 103 176 -193 986 275 -877 -475 -440 -690 -356 1336
524 70 1184 309 -1198 966 -1040 -298 519 1207 629 557 -1432 1031 1811 1097 318 1354 -225 -61 1317 1955 -171 -1005 56 694 710 -762 822 853 -263 1294 901 -1028 -381 -1156 476 -486 344 36 -193 832 2046 1019 -96 112 402 -586 -733 1286
409 388 1393 501 114 859 -204 -379 589 1188 429 199 301 -126 788 -481 -848 330 -510 48 974 1015 451 -129 116 -779 965 -541 77 -73 -60 -59 855 -1452 -314 -876 -462 -369 -502 1039 -925 350 895 1500 -1423 -658 840 -621 1072 -198
-75 663 230 6 -677 1222 -190 928 -121 465 1068 -490 0 1424 498 1060 223 -291 -1051 104 -16 -390 1242 -1174 188 -684 133 160 -628 59 138 800 -795 762 1069 -608 170 1096 -442 1112 -302 3 1223 1293 -255 -338 583 -108 1359 617
1074 -956 844 -15 -9 1175 -685 90 918 78 299 505 -560 1162 -88 1208 -192 -1205 -1385 219 615 822 746 -484 962 -189 -462 -140 -1746 -17 -206 -1112 -626 717 782 1268 -1046 -151 845 -146 938 541 247 2212 311 -857 -342 -1330 1101 -1305
979 -641 -698 -6 -379 -862 368 -480 1828 144 -360 -1026 429 833 83 -34 -811 -619 -759 -1046 638 -1191 602 -50 659 -1061 741 -444 -1270 414 -1155 622 277 664 45 20 -1096 -318 -517 -74 -779 -22 -868 291 1245 -660 -132 -1298 1192 -1408
528 411 -52 343 520 -407 -57 -339 442 -190 -23 -823 1895 992 591 -991 -911 -1286 1150 -489 -764 794 150 859 1257 -1113 746 53 -1627 452 -719 -285 -442 -50 -223 718 -826 -625 -669 -546 382 -479 -801 -7 253 -649 -334 -687 335 -674
-344 -473 -1417 138 -698 -376 139 -451 740 -115 -1086 -222 1726 630 1062 251 -3 -287 401 -765 722 346 845 -525 372 -1118 -615 418 -266 -783 387 359 -719 -399 1030 752 478 932 -467 3 112 -1724 -879 617 1608 71 -928 289 332 -177
34 -2105 -434 261 -392 -188 -929 251 -310 -513 -1057 -583 1143 433 665 -599 540 229 501 676 61 181 -89 990 -228 -383 188 516 -220 -179 50 -299 721 -1161 189 76 -170 1816 -884 -39 -413 -237 -137 244 -32 -522 278 -911 379 -1154
571 -1097 -1488 415 -1329 -1791 -110 -446 765 -503 379 1102 262 -234 -558 -784 -69 728 -136 -720 -78 -301 612 -231 174 94 149 -1575 -346 -155 -860 -974 -365 -147 1269 253 -543 1954 -628 -1176 -562 83 -113 -71 -378 -817 540 -156 196 -1478
-841 303 -519 -1229 -905 -538 -402 -1009 799 -923 -1878 20 0 -801 757 343 -81 98 1316 206 172 -381 -532 -805 295 -194 9 826 1068 -476 -190 793 1094 -307 -300 1 -14 316 -630 681 -96 889 1239 531 -113 623 -307 130 383 423
-346 -866 -39 -380 -764 -169 769 -1187 -997 -196 -84 551 336 -71 295 -848 617 -502 222 -561 29 -357 -350 155 -559 -524 -530 792 -400 -704 335 -465 -216 -319 -64 -156 8 -714 103 -365 595 152 431 1012 687 -391 99 218 -33 735
272 -34 -223 -8 362 -1068 900 -78 811 568 -41 -1095 -62 -343 413 -762 512 -382 -1001 890 -34 -719 -929 364 -924 -812 229 -20 893 -963 -98 405 580 566 198 -712 705 -1019 -401 -818 -67 -803 -906 541 1057 -673 58 -131 357 -134
-921 428 -909 -736 484 -1733 928 -273 -420 123 -150 104 48 40 -600 -643 -246 -243 -545 -607 -1119 -604 -601 -462 -152 88 -942 -123 60 -813 1234 -529 -141 789 -1200 593 961 -71 -377 -692 1101 -926 -1348 976 1369 -98 -436 -690 482 -623
-695 -571 -196 -51 185 429 608 -313 951 208 -1143 -69 -840 721 -269 186 -228 317 -839 -19 115 -499 129 463 -231 -486 -888 -558 139 -279 276 234 -243 -541 -282 365 538 68 148 -427 58 255 -837 719 -640 712 -4 160 -784 37
257 364 5 -175 420 -905 118 -284 -47 -891 105 -103 285 -884 -369 1222 305 -434 -311 -351 431 -1100 -793 320 153 714 -939 -81 -326 -152 -81 -699 692 -68 458 104 214 49 435 -770 352 158 180 -664 722 1277 278 -243 -1078 506
649 -143 -160 182 -167 554 -216 1108 1257 465 448 13 638 220 672 202 434 217 -218 90 -600 -1558 -1101 971 -620 -259 127 299 -928 -478 -690 128 -576 663 -592 509 -130 422 90 -808 -821 371 -788 -449 157 160 -861 -1092 451 15
-705 514 -1079 -26 765 -382 -516 -505 584 171 -470 -865 129 591 -135 -613 811 312 404 506 45 110 194 548 261 -152 -335 30 -372 520 523 336 526 653 -103 332 -53 -166 -276 -322 339 345 -752 -356 538 -602 -88 520 417 -385
-207 -383 -446 -1451 -364 1118 -7 378 -765 -146 1312 319 -1101 -100 -229 68 570 1031 -423 535 -247 -894 -4 -34 -17 812 286 124 1106 -999 -1291 -78 679 -579 325 -652 333 829 -685 -670 -890 -43 159 -229 -157 1156 -1627 361 -248 1226
-503 -122 660 -161 1213 -607 -160 459 214 907 770 111 -1250 -341 976 -695 -517 -113 319 701 -394 -311 -68 487 22 1473 533 -859 582 57 386 805 980 -932 697 -587 35 571 303 548 -783 -584 -251 -910 -1067 422 -291 713 -790 -140
-1051 203 -526 528 1159 3 1243 -258 -92 219 1400 1079 -702 -593 684 672 472 1272 40 402 89 -398 -461 417 79 1240 1311 295 1120 821 251 697 -1 -410 -344 -113 -739 232 388 306 -487 50 916 -993 -1379 7 336 28 -373 221
342 265 1211 -622 -316 -274 -622 119 -780 -709 1073 220 1072 424 -582 -213 -548 84 -384 -928 817 660 -681 721 80 -351 123 -931 955 -562 -594 -518 150 167 263 -892 67 -605 -902 660 244 554 -125 4 -42 87 -187 643 258 -736
-917 218 1828 1632 1488 -555 302 -1146 -553 -781 -125 535 664 512 -691 322 -1137 1269 -553 -394 434 1282 -174 388 -345 -734 -329 978 658 812 618 -565 571 369 -840 -34 -92 631 66 -263 102 631 -39 -736 -954 525 -110 542 880 361
-12 216 1115 854 -977 201 194 1341 -1513 1199 1386 -587 1052 284 589 1257 -380 0 1704 952 -1180 1329 686 1764 1156 484 664 21 -686 403 602 -130 -453 -858 -1135 2271 -809 -41 -1105 624 -615 -419 1883 739 -299 227 629 -428 830 644
333 1975 948 967 -2283 1660 485 2385 -2769 1058 2240 -696 -26 1715 1404 2901 -2697 2190 1986 2389 -2115 1681 872 3016 331 737 -92 1026 1526 -786 2410 1143 -1320 1541 -1069 312 102 -676 -413 2898 -578 -2003 460 2005 -594 1367 -220 -2401 1396 2395
-778 -293 240 2009 -251 -727 -580 -381 -585 -183 447 26 899 -260 -109 915 1220 1387 1064 196 -28 14 -55 -771 669 -1274 710 -626 1173 -608 525 389 309 1319 942 935 856 -140 1196 63 -378 -417 -192 1068 1264 -869 -1300 -397 1682 192
-534 6 20 22 -1094 -175 551 -1543 -308 -1917 108 1387 190 -1660 874 132 1269 182 -740 -387 -250 -720 735 -1064 421 -348 -75 -537 493 -855 -487 -1079 155 -373 246 774 394 726 798 -289 -329 608 385 46 -775 -432 764 105 -450 155
-83 -1069 -2554 -482 1935 -1126 -626 -722 724 -168 -945 740 668 282 -1453 -447 395 -207 -1275 -1595 2317 -1154 -724 -2468 343 -1046 1796 -896 -1613 240 -313 -345 52 591 -808 318 937 -820 276 -1935 -1079 691 -314 -1184 16 -2462 688 -189 -1462 -3712
157 302 -1599 -814 907 1158 425 60 489 885 -185 375 -16 21 -2832 363 1361 -1506 -1087 -1033 318 -255 -880 -980 548 -1294 -423 -1441 -2103 -692 -116 -1447 -18 1306 -1406 -223 -431 -183 -242 -1952 -383 1479 -428 -277 114 -2714 808 750 -1138 -1467
374 1102 424 -971 251 699 -880 -2 -825 888 246 131 186 1196 -2189 90 -771 -475 -916 -1539 1021 1433 -211 -1622 -296 -784 -121 -1456 -893 -317 -522 -859 -936 -114 -1367 -1778 690 -873 -487 -488 -79 1124 6 -733 -497 -1023 889 1234 -14 -1104
2132 -259 -539 511 -182 -329 -1525 116 -47 483 40 656 682 -62 -666 412 134 -330 -123 -1341 1482 359 -22 -1575 -1017 528 200 -727 61 101 -256 -1340 -194 -11 449 -792 -771 -227 -50 -496 100 1589 192 -279 -58 -187 -327 1247 -988 -880
-185 395 -47 66 555 429 535 491 -403 563 1529 150 -27 -203 605 -526 341 1389 1162 -120 2132 1190 1505 119 -469 274 -829 -1017 1303 148 1177 -669 252 -212 352 -81 -622 -395 299 -98 -585 449 1673 -639 -2156 -409 94 927 -1009 736
1061 1276 -283 470 -1481 380 -1022 973 -900 472 1547 251 353 -378 1766 612 1459 5 223 -227 1023 385 1460 -1086 -649 432 312 -70 -124 -475 -522 -419 -620 95 715 -682 225 -193 701 281 -1172 101 1496 -295 -1475 -160 -353 384 -313 131
-806 -135 1256 -135 -493 31 -450 -646 -225 1337 978 504 834 577 1080 -505 758 857 1037 -619 647 176 1114 -317 -657 -813 -53 -1160 155 -658 900 -252 1150 558 607 -299 -142 295 44 1306 -1462 -1262 867 150 -1195 207 -718 364 1186 119
207 276 1185 -420 -485 -664 2 -2 747 219 864 -150 908 -77 217 -797 -441 1628 351 168 2427 652 413 93 546 323 -422 -695 844 -614 -236 31 394 -1575 1570 362 -1036 -31 72 1294 -786 1039 3637 1409 -3008 -62 -476 -368 458 775
258 1009 523 -450 -1558 425 -449 -167 -926 217 -79 -2 746 161 -153 694 295 -234 890 -271 152 893 1646 -647 1744 -314 522 -320 255 -403 77 -818 156 -51 105 800 -298 172 -364 1526 137 109 1449 989 -504 -996 502 -504 -263 72
1234 1011 -629 -55 -109 -553 -640 -362 -1117 -465 -832 -25 -236 879 224 517 -1621 -620 -389 137 761 938 1485 691 641 -806 -281 -511 -563 -154 -325 -1104 516 -79 1338 1462 -1187 1102 -470 45 329 1929 237 1736 -327 -1426 -141 -297 388 -217
1717 557 -309 -796 -25 564 -1243 287 -65 -714 -321 -822 448 1012 -615 105 -852 -573 -163 -1191 381 358 1389 -885 1523 -311 -197 -381 -1055 -514 -769 -411 1269 1025 -207 1726 -737 173 -6 -274 37 152 -1181 604 597 -259 150 328 1011 -985
895 179 490 -453 -1002 -840 352 -160 -544 -490 -205 642 627 634 -369 673 -285 -152 1349 436 -62 263 318 -832 876 -11 -24 329 -1165 729 -377 -189 1351 239 1396 13 -504 -774 -1380 90 -236 541 -200 1084 986 253 -31 -1241 848 -776
963 408 -272 -553 -732 -1251 -110 -1241 1686 -492 -727 222 1269 806 -100 -785 -742 -119 1076 1081 805 -938 871 1069 199 -1403 -1496 -736 -842 -777 -172 391 537 -188 -215 1143 -288 577 62 318 -373 -262 546 -55 665 -1597 -54 428 727 -655
404 -1047 -687 -1004 -813 -902 115 -52 1500 -227 -294 135 1221 -573 -277 -141 -1035 583 -512 766 197 309 -743 622 -322 -593 -822 -1112 737 -702 878 237 -437 235 239 1220 -927 723 -887 505 -176 -1254 -293 214 -120 -931 -193 303 211 -736
-380 -47 -550 -155 -593 218 854 -831 -279 61 -177 -170 96 638 553 -113 532 299 141 1404 61 393 365 86 627 -1465 -610 -129 1287 -855 -545 111 -499 69 648 -125 24 605 7 1169 -66 -79 1416 110 328 -412 -1101 298 -747 454
429 -473 379 -1208 74 -291 426 -907 226 -128 -1533 195 824 -772 2021 -237 -596 -505 131 618 329 15 -575 -225 892 6 -535 982 28 -274 575 92 -312 -158 -445 -407 710 291 587 625 -398 -774 1061 523 -112 -1265 -544 158 656 -687
-573 23 607 405 815 -544 -488 -277 -621 411 -1558 -256 -199 -960 -225 -475 -23 36 -761 -253 47 -304 -387 238 141 -92 -869 638 361 222 -467 254 733 -214 411 357 557 -1496 -478 -430 -712 -847 -145 -201 601 -114 421 -513 1113 -301
-755 894 1113 -126 610 -580 620 -202 761 71 226 -792 -562 -1092 -455 -911 -618 -617 957 697 872 254 41 -134 929 621 -527 526 -190 13 515 -257 314 1192 -684 435 -750 -399 -1069 185 -1419 -2232 -416 127 1571 441 110 117 1215 553
-877 -909 118 -568 709 -742 -215 109 -344 -69 -1064 -782 1630 -391 -508 -410 139 214 521 -3 1186 -118 -236 -522 509 1121 -561 -1089 1204 -516 919 -629 -632 1125 -472 -632 -28 165 -699 -318 -155 -1024 -18 805 -533 -104 576 -829 -1040 851
-1330 -439 233 143 -678 1149 -154 -1291 792 -687 -985 1139 339 -938 1645 -124 277 -404 806 398 385 -1488 14 -3 733 1183 634 571 1128 416 398 575 1006 -458 163 446 791 -1309 193 -538 -466 -285 251 -651 -1709 -390 724 830 378 -254
494 -17 -11 2 458 513 197 -944 -581 -1593 -216 -894 -1312 -430 -460 146 1224 -1259 -227 -826 -426 -1267 -159 -27 494 999 460 134 -437 -196 -166 89 -334 609 246 -953 460 205 504 47 50 601 -313 -856 -86 555 -2 922 411 -1056
525 207 -1183 -447 -278 -1102 -645 -358 -180 -1404 144 407 -187 827 -501 -1059 118 -1018 -1068 -534 -462 -910 205 -880 1214 -25 -629 -502 -165 -478 -699 140 -66 694 -1089 -53 -331 535 85 -911 -107 -146 -712 -502 838 -263 -347 482 301 -289
-376 -32 -363 -978 312 -621 797 411 511 -436 1340 -1014 -868 -34 682 584 237 -398 185 -1354 -471 -561 -706 -957 828 -345 265 -497 909 -657 -928 -1222 -5 935 -822 504 807 242 -1330 -1180 -832 288 -1065 -1291 485 -209 -719 -182 -517 -366
-322 35 -118 -1265 1094 -683 96 -1590 -178 -1207 490 -1039 -617 -683 552 689 802 -351 -271 -87 415 -916 -960 -640 -115 1000 -101 -821 648 59 -233 468 566 300 -462 -854 -144 481 -551 -585 -873 -764 -637 733 167 -560 -445 338 -572 -1282
-799 1081 -482 -670 -403 424 -423 -57 83 -471 -296 -522 -1058 346 758 -43 511 -209 -1170 -376 -132 -420 726 -332 -577 149 -568 -1395 676 270 -464 479 622 436 366 -1683 27 -538 492 688 58 -55 -298 -533 309 160 -136 441 -651 202
-818 -141 -1055 590 1086 1260 -211 -774 293 -225 -604 215 -70 391 1027 -298 858 495 651 -28 471 -693 -61 -574 191 874 1356 -375 458 738 -41 -165 1470 -1226 -352 92 865 85 561 -417 -164 -50 212 -1760 -1642 -232 -782 434 -1285 735
576 746 1260 -79 488 -283 1227 -251 -626 -591 -74 653 -686 -1310 1407 27 -631 1742 -503 722 908 897 681 -539 499 -930 79 -1024 11 -287 -614 807 1891 -955 443 -633 -563 378 -1278 321 165 685 1665 223 -906 315 1526 941 -942 800
-369 -197 420 -393 296 -835 103 -1397 -759 -107 -1070 668 829 125 1315 827 711 1426 -873 409 1057 -490 484 535 1161 349 -1295 -806 957 247 -444 1091 901 -364 -289 -717 -397 -155 129 568 51 -250 202 -727 -755 46 744 -639 160 -314
-298 987 835 537 -2008 1013 -1249 822 -1819 1165 733 -770 1017 1662 386 578 -776 923 867 1520 -846 662 -885 507 1391 -78 970 889 -445 1073 622 8 -389 -370 -1278 2516 -1754 -662 948 1428 160 -460 1291 1537 -1329 1324 1542 -988 720 1370
-18 -757 1411 2892 -2047 1872 -16 2160 -2328 566 1278 -1172 -1151 132 901 1790 -2119 1465 1432 1697 -970 2195 -391 2214 -174 809 -375 404 1105 541 1014 632 -339 124 174 1034 -1329 -851 -175 2560 -220 -1732 596 1188 -903 1319 425 -2500 1465 792
352 -226 1311 2194 -1175 -21 -57 264 -40 -99 -827 1121 -393 489 84 663 -856 316 465 766 -368 -151 986 66 -912 -1203 -231 -1123 816 604 1137 33 -37 136 -115 1065 -575 135 989 151 69 -1032 -303 764 -67 534 -955 -399 761 357
-993 100 -801 1715 -6 -497 1064 -116 1219 -497 631 403 360 -498 537 1041 1050 -750 -390 25 -720 159 1407 97 -967 -1310 878 -958 -719 -549 319 -358 -541 103 -1101 -1137 245 -30 1298 -2473 -1431 -83 -974 257 -85 -1677 -816 -1110 -1173 -884
-967 -993 -1449 -429 1665 -419 -146 -931 1406 -977 809 463 -209 538 -1896 -1355 1343 -1624 -1364 -2208 1173 -2104 -1603 -2350 -288 -2367 831 -2273 -1300 -992 -2221 -132 1044 1627 -580 -1424 -531 -578 -692 -3011 -2040 -183 -2140 -1353 287 -1604 -709 -124 -2103 -2153
1272 -529 -1382 -1039 504 705 -511 -790 26 1438 -141 -1008 85 526 -1560 644 -358 -1238 -1902 -2176 -550 -323 -1374 -1823 -1159 185 -606 -1032 -2289 -883 -2322 -1290 -2015 231 -643 -1119 627 -26 255 -1814 115 1840 -2348 704 1844 -289 804 -131 -1668 -1420
430 643 -521 -395 2032 577 -233 2145 -134 995 -9 117 13 826 -2002 436 -658 -465 -1519 -1973 -230 -360 -1547 -2465 -1296 -50 46 -524 -301 203 -186 -422 -1296 391 -1514 -2451 -48 -13 1006 70 -874 2649 -540 -802 796 468 -220 -46 -757 -394
1314 170 1148 244 -537 -1213 -961 1835 -1229 551 61 699 271 -856 -418 -837 10 152 356 -2151 449 707 867 -1720 -1222 320 -236 -484 330 242 -433 -1148 -578 -419 -203 -1835 -976 -212 815 -145 -10 1051 1785 116 -1552 204 618 641 411 -383
1483 269 -132 414 -1122 -1223 -1313 5 -368 -885 -626 1612 -502 -478 1005 462 -302 636 697 -820 1574 425 1534 469 1126 885 -98 -1895 490 -726 703 -764 -320 -383 525 -667 857 882 1458 809 111 1749 1587 -611 -2090 -299 -535 1145 -1004 186
-598 417 126 807 39 -1231 -1532 1405 -377 487 -147 1570 -590 1025 1942 -253 -990 -142 -282 -1144 355 -101 728 -144 47 -92 931 447 -107 -115 883 88 -211 -1304 900 191 -1 28 1359 1783 1159 707 738 742 -456 -403 -1126 -412 1106 1091
1234 -508 371 -443 -298 -446 39 -88 -1850 -407 515 -718 238 1552 838 -358 -943 -499 335 8 172 -252 1337 710 450 1339 424 -88 -994 -150 -70 -781 460 -604 -120 -603 -1810 -772 539 327 607 1319 1094 593 -1095 245 -1057 -1005 2104 231
-50 423 428 545 -167 -913 -740 350 -1185 334 -789 162 164 -17 819 599 496 -958 -163 -737 26 -32 1767 1314 900 601 -648 1145 198 -269 -1105 -435 1454 -873 1251 1692 1 -227 -624 1046 52 753 2118 -667 -1776 -1152 -1423 -6 1698 1122
248 97 23 -330 -1818 -974 -470 968 -1657 1122 422 -584 244 1706 345 -579 -219 -344 -347 871 -51 -217 1397 1349 2513 526 825 340 -733 -646 -122 -1321 465 -313 1043 239 -26 1357 -756 -133 1828 1171 1480 149 -260 55 -368 313 1250 108
-25 847 -629 -951 -1392 -700 -972 -368 -953 -516 -509 -928 -359 816 145 346 196 -324 -994 1207 452 -1065 908 457 1634 -481 294 530 -589 -381 47 -657 -81 -96 183 980 -109 1196 0 1066 338 399 863 365 385 629 -857 323 69 418
1164 -382 371 -467 171 -861 -849 -776 -1242 442 -1161 -39 380 683 -365 -326 7 129 -15 575 -1022 -321 1061 181 -242 -797 56 1411 507 74 -360 -227 4 36 876 956 -955 861 321 184 927 1645 -522 -874 351 -98 -500 -240 94 313
1406 678 -1098 -329 142 355 848 -1700 -992 308 -513 248 1125 -683 -95 -250 -395 323 -114 909 578 843 145 1532 131 -341 -2048 1169 -557 -733 -374 1696 -104 346 889 -434 -244 198 -1231 1232 497 290 412 772 875 -251 900 20 759 529
50 637 -757 94 17 -690 -368 -266 1032 -132 -847 381 832 1077 546 -606 -1315 -1105 -135 1494 144 1207 270 2054 291 -362 -1049 7 571 738 683 962 -598 849 -169 1261 -817 -403 -1222 376 1007 -1156 -197 618 2304 -715 -760 -202 347 -521
322 940 187 -1002 170 -1481 570 -1310 1147 115 617 -198 1681 -173 605 -2074 -893 -237 -923 2004 -489 -466 498 1606 1452 -1748 -826 -501 1281 -278 781 1425 951 -121 -113 -513 -324 810 -773 300 -15 -524 -787 1276 960 -94 595 -1543 864 84
114 115 913 -1031 434 608 405 -1322 832 -846 200 -23 1005 776 671 -574 -87 476 -1121 1622 340 48 -7 48 87 -450 587 517 282 -744 425 -422 952 440 -25 96 -400 328 -240 565 -1103 -2167 1049 1825 430 -169 -236 87 -807 773
-273 -346 -227 -64 280 1667 99 -789 376 -495 356 -1653 393 994 456 -541 -1794 1019 -203 1040 167 390 -1467 57 291 -456 -1385 328 1782 -140 -354 1410 1050 42 869 83 30 151 -161 964 125 -2143 1132 1717 849 930 -187 -185 -150 1295
-1154 936 373 -911 669 -58 749 -941 -331 537 973 -1300 1074 -39 397 -961 -150 -211 456 717 50 1446 -97 -31 241 805 -1351 830 -229 754 151 183 963 773 -809 -19 726 -1491 -1888 202 -132 -2402 930 -318 359 -17 3 -640 78 -734
-849 863 273 -755 1207 856 948 -1142 -523 85 -546 -862 598 624 22 -77 -1392 -146 -760 475 -1218 -640 -923 684 237 940 711 603 8 -146 933 633 -76 861 -1203 1347 -594 -490 122 1056 -268 -1916 -395 -585 1015 844 255 -146 -176 -934
4 398 -1182 -497 631 1324 203 -740 -347 -245 1016 -1745 511 -515 -46 -1019 -907 -305 1097 745 -231 -1008 212 -578 -26 344 -25 -472 770 -154 963 155 1136 1174 -600 1028 396 -1005 -769 240 -225 -766 -1587 -750 30 117 -524 1050 285 -1176
-22 151 -878 -29 242 1344 -244 -1101 242 82 1094 85 -415 -193 -38 337 853 490 287 339 -100 -137 -478 -151 693 1761 -24 589 244 727 747 98 1710 416 -111 -547 -513 -230 -1396 241 159 881 -514 -752 -241 610 -417 888 -272 -128
528 142 -606 -1206 408 184 743 -1027 -287 21 1025 641 -583 910 955 517 -671 748 583 -6 778 -1359 -58 124 -422 -27 -434 -157 -426 -366 -27 358 557 -284 901 -185 321 352 357 -651 58 -590 1045 -809 -377 715 352 745 -559 1219
849 -932 -47 486 12 922 -206 -549 708 408 50 209 -411 -75 45 -850 -610 645 -287 509 594 -140 252 17 95 -645 688 -49 -729 113 -206 1382 1361 321 -585 -279 -679 -555 36 -822 -476 -489 225 -404 -775 -8 293 -93 -388 -1340
-325 442 132 -516 -11 -612 -117 62 1830 -846 102 -699 883 427 -978 -164 -436 -760 909 -950 609 -100 -8 260 690 -184 1049 116 -326 327 -222 -1171 1148 -884 -1440 290 -639 -673 -710 797 -663 -224 292 166 0 -321 -492 1600 -215 -533
-39 1152 247 -494 416 -1123 246 33 -473 -257 477 -1138 615 95 -160 137 571 348 701 -910 -358 -1136 389 -188 -782 1018 -283 -589 -269 319 -808 337 309 -1099 -424 -26 807 -1577 -856 111 -823 177 145 1059 -314 -497 -294 912 -271 -788
-974 -203 -1046 -1166 49 -114 -126 178 209 -732 410 -293 -736 159 845 767 1483 1138 -313 1226 573 53 55 1215 537 745 757 -1254 -248 632 -800 201 677 -938 -648 66 692 -339 -298 -976 -1213 -205 990 -942 -413 -475 789 414 -303 -488
-597 -482 611 -68 1051 69 -540 60 858 -1291 -5 722 1086 -442 604 -550 431 1003 742 -74 646 -24 670 -2 844 564 -1000 -946 659 420 -928 -57 1151 -1139 422 153 314 -1511 -345 -307 -381 567 949 -1396 -140 1408 728 102 247 -44
88 -127 926 246 303 250 -253 -342 104 6 252 976 -177 -840 729 -100 989 456 -741 299 437 1131 1363 -361 913 -280 -42 -1124 -142 -845 -1073 1020 714 -450 1149 -932 -556 -971 -710 139 -47 826 2066 124 -644 355 -321 -402 -938 -677
400 869 1617 -461 -159 -931 1393 -538 795 -851 -992 -111 -29 -339 1459 -573 -568 326 130 237 579 636 346 -436 483 -1008 -1072 854 1382 -338 887 759 2005 -677 162 -1425 -872 -280 -2065 205 128 -395 1219 -319 -822 785 -747 1185 1235 -552
942 404 1055 424 -442 -1815 -1410 824 -941 1618 83 -1075 2116 90 734 -47 918 -236 1712 -839 -963 -150 -118 1010 422 1496 1424 -1159 329 -622 -605 -953 -393 -1130 -722 900 501 -758 351 497 248 -1629 951 910 -1552 707 1103 522 1250 890
133 -1064 295 2028 -382 -427 -2322 948 331 587 1825 139 1015 674 1270 159 -909 2933 2143 402 264 -1189 833 1790 -80 91 358 441 536 -776 1262 -273 -133 -10 651 2428 678 403 726 416 887 -1126 1507 1666 -1954 -48 291 500 -941 1540
793 -555 218 1246 -698 189 -731 1411 345 -526 -967 1524 -275 -364 406 -453 -151 2374 1903 53 -306 -46 442 502 -677 315 57 175 1815 -1250 1335 -435 -302 -1358 -187 -1346 1004 532 659 880 399 -189 380 707 -658 1221 -1638 -827 857 -133
-1217 -1291 -120 1571 431 -149 282 -659 147 -908 -380 489 -270 -2189 516 -50 1349 750 63 -665 1194 122 -538 -1335 132 390 1102 -755 55 528 -139 -437 435 519 548 -1328 -215 1056 137 275 -1121 -652 -363 -368 -626 -229 -456 -481 -241 -1613
-99 -372 -1635 -941 1818 865 -499 -398 -547 -611 -472 369 92 -212 -1302 -1026 1000 -12 -957 -437 -410 -1406 -481 -1455 -294 -1489 761 32 103 635 -2114 -1123 -1591 -19 -1049 -1032 -364 170 748 -909 -2209 593 -2633 -697 835 -1499 504 -527 -823 -1605
1480 1266 -880 194 989 -410 -5 -105 -663 1626 -453 1683 23 -351 -798 441 -127 -784 -773 -1320 -807 441 -563 -147 -1037 880 970 -748 -1048 -675 -1087 -1369 -2215 -80 -260 -2213 873 192 1187 -221 -160 2624 -741 -70 297 -857 1402 1175 -779 -187
381 339 362 149 851 -991 -636 1162 -1987 -148 -902 2186 58 -1432 -1103 -1417 -617 -547 -250 -1872 -584 462 -262 -1919 -108 1658 1695 -321 1412 575 547 -1387 -1631 182 830 -3803 613 -1576 838 785 -10 2267 -154 -1474 -1645 -783 -300 -830 361 -1074
2445 164 968 -94 -43 -1434 485 748 -1789 -524 732 2653 1447 -1045 -915 -415 -991 -594 -357 -2763 537 -91 1062 -2135 579 947 -587 -634 1787 361 709 -716 -743 -1676 1494 -2339 1016 85 735 1576 -862 1491 353 -1523 -2349 -82 65 605 963 50
721 -30 1638 1323 -203 -830 32 947 -1207 -12 603 2165 70 -1556 821 -1026 -909 276 -693 -2105 940 737 1264 -224 351 25 1153 -1128 1296 324 -328 237 317 -1103 564 -921 -1321 290 1655 1298 146 845 1601 298 -2757 -1274 621 472 684 1102
1594 -274 2171 -454 470 -69 -1874 1510 -606 -644 244 1539 -1306 -630 2560 -1165 -1075 318 -508 -1411 23 -905 1260 737 1279 482 1728 -1541 -236 197 92 -1155 1188 -1299 1078 414 -1587 -502 1424 1420 1740 1884 1446 161 -2751 -546 -694 -117 785 1571
1810 360 1264 -366 -544 -160 -1133 2808 -2292 -269 685 1017 276 566 1031 -820 -1787 -1400 704 -1911 -762 -186 1120 979 2072 -322 947 2 -549 1030 272 -1028 -967 -869 797 517 -2135 -761 816 2675 1740 891 301 -862 -1695 346 -1455 562 2157 1253
1993 753 489 -920 576 806 923 689 -2435 -498 229 -342 -1036 688 1906 -349 -2282 -922 -508 -445 -1163 535 2231 1154 2826 -204 1459 1412 129 -532 -268 -744 493 -1028 1974 816 -384 1068 -1155 431 2473 1499 1085 -73 -1864 -1573 -656 -428 1353 731
-284 1048 1248 627 -440 -364 831 -441 -1003 289 -47 -700 257 281 1193 -508 -2398 -860 173 1411 -1555 -862 641 2058 2956 141 1185 1375 -754 -72 -460 -1271 -1095 254 751 1354 -515 1532 -1353 800 1775 423 950 1127 304 -324 -912 -112 1579 1452
-430 1058 -564 -221 -654 -106 -678 -314 -1633 -27 233 -746 -492 855 281 295 -2056 395 -686 962 -891 -497 172 1162 1776 733 -1032 437 -1764 456 547 863 -1220 392 -517 1053 269 1865 -266 628 1190 -761 977 148 701 -566 818 -1648 -81 368
-78 854 -642 -843 -722 475 45 -985 -1527 -105 109 -728 -1421 -128 -270 -54 -130 314 -752 959 -329 -361 -293 165 -614 743 -116 1489 -474 749 -799 937 30 328 791 -777 -974 1168 -406 -786 -105 561 -850 -561 875 134 143 -563 119 -164
-190 1197 -448 -480 847 1328 208 -805 -1536 493 921 -1404 -569 1135 -1276 306 -361 543 -789 1181 619 -468 -370 -91 -796 350 -262 781 -1590 698 -331 2399 -95 1453 1214 -233 -209 863 -857 34 102 480 321 -297 2278 -1028 -470 -230 -90 -252
-624 110 -1473 -128 -545 705 879 -468 42 456 -83 -1509 -656 50 -666 261 -1325 -620 -1610 1327 269 374 -947 -288 -1201 -749 -924 930 -1208 -474 -403 1742 154 800 -1241 -600 -8 1577 -833 -820 -255 -260 -726 991 2138 -138 212 -41 -1038 -225
-866 925 -40 -550 30 -867 1013 428 621 -991 -801 32 -133 -150 22 -1630 -487 -13 -1404 -297 -123 -1012 -1103 344 -579 -234 -802 -775 950 -991 749 1009 1187 84 -824 -623 -56 -543 -267 -1691 -1103 -1977 360 -295 1689 285 -32 -1331 -1608 -233
-1472 1523 -434 61 806 -500 637 1130 774 -251 -100 -2035 1041 416 -616 -1163 -88 -1158 -920 617 -511 -364 -247 -486 1021 -1578 -1327 483 -436 -794 672 1506 790 -24 -1564 -432 -411 -2157 -619 53 -1399 -240 747 -928 16 609 -1182 684 -894 19
-1581 1943 6 -805 -43 472 1579 -1947 1164 -709 768 -1388 489 670 169 -1216 296 235 -144 -427 -765 847 -259 -77 -391 493 -1079 -604 55 209 341 94 2442 277 -122 379 -429 -799 -1580 592 -543 -859 852 948 548 588 791 851 177 897
-557 1235 -172 -1465 866 1955 677 -2595 4 -798 590 -2988 -26 -287 -294 262 -1135 483 -524 2070 -647 669 1261 -26 909 684 -1120 118 -177 -442 -447 155 2272 -576 22 351 39 -502 -2675 -139 -943 -1324 564 515 -1093 -889 256 1755 -628 1537
-271 1572 698 -54 116 1003 -370 -1683 1451 464 793 -1636 465 984 -716 -51 -1066 531 734 1495 -91 -832 66 -27 1398 -574 -1065 44 -1809 82 154 -91 930 904 -1022 1480 -157 -494 -382 -40 -308 -1601 -961 -340 536 -701 -322 255 -9 725
-746 1580 174 -911 672 443 169 -309 274 778 472 -2015 676 1274 -156 -285 -615 -46 -524 917 -482 -194 -42 -534 -229 249 -589 1822 -1053 516 -1007 323 997 1542 -483 937 -243 -378 -1619 -628 -1324 -1486 -1922 56 840 405 -585 862 1175 885
-339 1494 -659 -979 -1099 650 -308 -1010 1385 128 954 -814 -103 578 -448 142 596 202 -110 2105 -773 -603 -1214 -826 -289 1821 554 -218 -948 416 8 330 1187 502 -281 -560 -302 -299 -1081 -248 -915 -1710 -114 509 76 882 603 48 -641 -106
-1385 863 4 -926 -276 766 297 -114 846 827 -467 -50 -750 694 230 1051 -98 1224 -366 1672 -822 -183 813 288 46 289 -270 270 -254 240 641 417 474 774 -939 51 232 573 -403 -536 -477 -1259 559 233 525 405 -515 -44 -173 364
-1528 1230 -654 405 411 894 1137 559 1500 -29 149 -727 -331 700 491 -965 -822 487 251 284 -878 -806 -409 -1183 -73 49 583 1071 -301 -146 978 864 1983 4 -309 286 670 -1548 -201 -214 -394 88 912 -7 -474 972 713 -517 -183 278
-685 1130 -836 -706 315 -352 274 343 -190 631 41 -831 145 -220 -348 -1156 -889 619 1074 1349 652 -363 -583 -902 -676 67 -828 461 1265 187 -412 1173 1267 -604 -953 -314 -1483 -279 42 -433 -1317 -861 -614 204 -572 368 -558 264 884 -628
777 1048 -33 -1690 -1157 962 -1238 1299 1204 1108 975 -712 -443 -359 -232 -921 1148 588 470 1315 -1179 -1314 -89 -1015 -805 1388 -674 379 116 -615 -354 62 -189 1015 -679 286 -758 -1232 6 1857 307 702 -434 345 654 1966 -481 706 -140 346
1387 1219 -952 -324 -601 1099 -545 889 932 669 164 -302 -695 65 1102 -272 -180 -3 1343 326 -367 -211 239 397 -283 2036 416 -701 -962 747 442 -718 425 -187 -1113 1151 -1381 -649 -105 -388 -12 431 -516 -708 1183 1345 -643 386 -797 -680
-167 -521 -1515 -653 342 10 -1350 546 1762 634 -1104 -1213 -945 674 681 -664 -557 -280 -4 1248 16 -1250 -26 590 -1050 -619 -6 1057 -1220 632 1040 800 91 34 -656 803 -423 -1893 912 279 -292 380 879 -1205 186 614 648 798 -246 -741
-817 133 -342 566 941 1151 -160 -746 178 -1365 257 844 -1192 1120 0 1089 284 73 -587 -61 422 -675 482 -715 -133 460 124 -718 191 449 513 1433 136 -70 -730 105 -189 330 850 -737 -803 501 506 445 28 311 399 -624 -574 -2047
197 810 -369 -392 288 879 1500 18 1221 -403 -52 329 -370 -56 541 1988 172 521 -565 -97 -1275 1486 -877 -521 -1082 280 669 -846 658 -543 -656 391 369 1575 -685 -1407 1635 571 -554 -1122 -1437 805 -625 710 1705 1097 562 -141 -25 -1891
964 -2602 -855 -4679 -7 1127 -2057 -1985 1113 -137 -2080 1120 -2530 -2059 2319 174 -1204 -798 363 678 -45 -1155 -1102 -405 338 -543 1238 -243 1936 453 -2546 1247 2416 -1862 3952 -911 -577 642 2435 -347 -179 562 -628 3132 -2203 756 656 27 -1199 195
1000 723 174 -2365 459 -160 807 -1698 -146 -579 -296 1462 -2304 -475 1764 1392 -788 464 60 1610 836 -111 139 -1414 -417 709 -226 955 -154 333 -488 667 575 -860 2333 -3169 -666 1819 1533 1353 38 1700 -1190 2154 -1363 2479 788 -931 299 349
2387 1232 35 -1514 -347 -81 -34 -1341 -64 -1657 -881 723 -1282 595 1425 1357 -273 -626 -841 632 -123 1042 1927 -1808 -1706 672 -483 -1035 311 155 640 1464 147 291 -328 -743 676 2329 -1270 710 390 -717 -1508 682 116 1797 749 476 38 -24
1760 -152 182 358 383 -675 47 -31 -42 -862 456 19 957 -312 -499 -229 -588 -210 -501 -1061 -1091 -514 887 -616 -145 -980 -897 -2587 1112 644 30 -1017 -512 960 -419 598 1015 174 -912 -531 833 98 -21 19 -230 488 -961 1226 -169 -478
329 -975 472 -750 464 1198 1370 766 1062 668 1915 392 750 -947 -689 -1046 -563 400 -479 294 -1269 -756 -86 -1526 -254 354 780 -339 -1191 -282 -468 1063 54 243 -861 -936 -93 -167 -909 155 796 -230 951 -1447 -406 -404 390 1815 176 545
-1513 -2050 -111 504 158 904 169 30 1082 16 149 -421 1240 -300 -1737 -1377 -76 -22 -83 1111 -365 117 -2599 149 -906 -1196 362 972 -332 131 -1319 812 507 -1498 943 743 -1454 -1959 1200 69 -247 463 1658 -379 -1071 -2187 1343 581 -316 572
-2470 -1184 -979 -1119 963 -1476 -1101 -427 116 1553 251 -1396 2889 852 -888 -514 -960 794 -426 909 250 -1005 -1747 1202 -414 165 -498 956 366 -1056 -732 -390 -241 268 -82 1896 -834 1317 1644 -952 -756 -242 443 307 1306 -467 -98 788 -457 407
-1528 -1628 221 -30 1291 -1018 -244 -440 400 1032 -1275 204 2604 1378 -415 -418 -1961 1719 -1761 -475 544 -965 637 1041 -519 -458 -1391 1124 -221 93 936 411 -1027 -348 -290 -469 -397 1748 260 -1634 -80 -285 2905 441 1550 -310 231 -666 60 -592
-2552 378 -657 1074 -198 -390 743 -675 109 737 -871 702 617 788 -811 -1499 480 2068 -642 709 -762 -293 1071 714 -143 -971 -182 -624 649 -511 1376 -1973 -698 -699 -652 1644 308 1193 -1235 -1370 -568 -2021 2451 364 372 -272 -1141 -1877 251 233
-1912 194 -524 97 20 -1319 -512 -248 868 863 -1871 -492 2351 1069 -232 -328 1380 1867 -1162 78 -1738 491 -355 1913 1372 108 783 -1181 542 -140 1750 -1 -308 3 362 366 1469 410 -1350 -994 -1190 -2596 2794 -425 85 469 -2229 -2219 1022 -700
-1763 554 -791 398 239 -2050 336 -306 44 122 -1157 161 987 -275 118 -1168 1240 623 -205 11 404 -622 -929 1272 -10 -453 -256 -2072 1021 -929 -719 -1702 1176 -156 -355 -162 1863 774 -2227 -210 -1802 -1489 495 83 778 -321 -997 -1277 424 291
-568 -232 310 -580 260 -259 354 1323 913 -1059 -311 820 -496 309 1239 -677 1668 -746 -1155 174 -929 750 -350 -179 -431 -114 89 64 1065 -441 116 741 473 -676 72 -1330 -977 -140 870 -1745 -903 426 1392 685 -1769 214 -664 -1278 1347 -1026
-1481 -296 -93 -803 -542 1383 1309 281 -403 -1788 1348 -640 -1641 -511 1042 -102 819 -467 -1736 -1152 -1787 692 -1096 -1292 -464 253 1180 -241 294 -330 -2400 -676 1959 -345 1613 -1059 719 773 964 275 -1311 468 54 -1598 -795 635 -653 -785 71 513
-154 1734 320 1729 -1099 564 425 596 608 -295 1597 -1486 -1011 -1304 179 622 1354 -682 154 -1532 -2586 149 637 -264 -441 1289 626 161 194 3 -380 -726 -447 1018 -675 541 1674 -895 -1626 -838 715 -897 -491 -1931 -154 980 -1101 801 -1230 1025
343 294 441 984 328 518 432 51 83 -492 127 -1153 -821 814 -264 1221 -524 -859 93 -1011 -258 18 875 -1220 331 -214 376 -797 -398 -469 608 1178 904 1769 -464 -660 1720 -202 -1208 315 -216 -746 -512 -1809 -374 438 -1179 10 -769 -1083
724 1239 324 2256 -64 483 418 1911 -365 933 262 419 -186 -22 328 217 76 -80 700 -1161 -1138 381 825 -1721 1072 685 497 -1036 223 -895 1347 305 -403 248 -2813 68 192 -2090 -206 -237 64 -1801 653 -1536 -400 508 -933 657 -900 -532
1344 785 81 1356 -14 1264 -490 608 251 287 827 -672 -2344 314 160 -191 1607 -788 1863 267 -2095 -1084 1495 -37 -160 201 1099 -929 -1053 -570 510 543 -631 238 -2751 880 -874 -1366 580 -629 -347 -834 726 -419 -1723 -547 258 427 -475 19
-634 1418 -346 770 -263 -302 1087 924 901 34 1239 709 -35 -92 908 395 653 -668 1865 -186 110 -1465 751 551 911 1009 1217 0 492 566 942 -617 -502 485 -404 896 -411 -1024 1117 -1158 -798 -792 -549 -437 -1363 -178 -968 1774 -1409 -263
-316 1038 -433 917 76 267 -1552 1151 -1309 -86 541 -610 -1657 -175 -213 -969 375 369 1809 611 -769 -496 -64 -158 138 -259 297 685 -213 423 613 432 -853 790 -388 364 -646 -503 1045 -621 -174 240 -1218 -1896 -434 187 236 868 -131 -146
325 -163 -793 735 -362 1697 -985 1273 -303 224 453 -102 -2029 316 -103 836 776 -402 761 616 -1108 -1424 593 480 1053 810 1383 147 129 -937 254 271 124 -866 -115 1411 359 864 503 85 58 -58 -570 -404 -4 275 -133 154 639 -359
121 -736 -598 400 1108 1123 -519 -17 -601 -755 -621 951 -336 632 -506 736 268 89 -256 1734 -656 -769 1067 658 14 812 1516 1052 -246 -6 -49 1300 -1161 127 -699 340 -543 85 1768 -327 -541 845 -810 85 161 371 230 289 645 244
-588 -584 -164 395 -146 268 -53 435 -320 -424 1006 -339 581 755 -929 -589 -586 -252 -610 542 -1635 89 1290 13 563 -574 934 -726 -693 294 -78 768 58 730 -983 -308 -733 102 -416 -138 1220 -180 -148 64 -407 -1011 -80 5 430 -814
752 -18 -329 -427 78 804 327 956 -711 323 1422 1035 -770 219 -138 397 1027 -275 -781 774 -716 446 -722 90 -879 -350 679 292 -1179 130 -454 1183 -277 294 -320 -1237 -21 -220 -1461 535 403 635 -1008 -281 -543 -625 107 -1048 -1070 -964
38 2034 1228 693 -1310 -49 945 694 296 -378 -552 -297 967 -616 71 1179 -360 -640 115 -246 -396 197 310 269 308 -907 103 241 261 -875 57 648 -405 958 -1518 -382 714 -1067 -1046 668 979 283 1430 287 -766 -411 130 837 519 -264
1147 474 1040 644 -1457 -92 412 -32 -717 -622 -1106 -169 7 690 298 207 -1141 -272 -1074 -794 507 -533 -1016 428 -334 151 -1366 -326 667 545 -294 -660 -718 36 -406 681 -131 -638 -1150 694 -376 359 -935 1363 858 168 65 505 -1384 45
-342 205 725 259 -624 1820 1213 47 -576 480 194 -218 -1050 68 1535 -459 -705 -270 -216 -1025 -226 1367 -892 -1374 -133 -1567 616 758 -387 -381 -98 -41 -658 683 1162 -183 165 -512 -2056 1224 552 8 387 762 -184 -802 771 -64 312 -348
855 206 1484 816 -1305 231 -414 -160 -984 -960 -228 972 -536 209 779 606 72 191 1013 -573 -224 691 1136 718 448 737 -659 -732 1242 -646 443 1435 761 -134 -30 -1637 1433 -607 -665 868 1117 -507 -473 428 -893 -226 872 -765 471 686
-523 -281 772 1405 31 -973 302 208 -884 -136 684 -346 707 -455 -749 283 -717 197 186 -554 1082 576 37 1093 740 231 -515 23 604 -366 434 314 133 502 -1024 -603 1072 -336 -272 -566 -8 767 6 1462 534 -804 -87 -1288 31 333
664 -728 933 75 -359 -392 256 258 303 433 -639 159 830 1146 -839 -415 -1362 -160 -163 -837 379 387 -466 715 733 -386 -653 220 991 -525 -184 1486 220 -973 329 -427 -25 434 -549 1273 559 489 237 -174 514 -183 -134 -35 -675 -676
138 -731 61 32 -182 -1745 380 -35 1219 176 -524 -60 587 390 341 229 -1417 463 228 153 710 967 -752 748 -974 -130 -781 -161 99 -660 462 -488 -197 138 174 705 524 160 -766 346 1665 907 -19 1030 653 -275 -418 -568 -1099 -708
6 -1338 33 -183 321 -290 -280 0 -1092 -81 300 -59 353 68 892 -912 352 -814 -1145 -228 -506 -488 433 764 375 -81 286 -566 537 -370 -330 -575 271 583 -80 269 955 282 -280 187 -1030 178 -991 536 -549 -1079 -497 776 -222 -279
-400 484 162 1417 -1067 -470 608 1362 -207 -985 434 161 1413 368 -801 490 185 -410 -56 -804 -642 -567 -927 889 -918 -914 -1198 874 -160 -230 494 73 286 269 -1675 1117 -469 896 537 -1738 275 466 -1048 468 751 304 -758 1340 -535 -471
1353 349 -699 0 -680 86 795 -812 -1690 -302 2189 190 -696 282 811 147 67 -183 121 -440 594 80 -278 -476 -773 -214 -668 890 568 858 -2582 474 1052 -1018 1330 -67 -862 418 -118 286 -212 745 970 -56 -27 380 1464 2089 -674 493
-113 1009 991 -1195 -1613 -392 -191 -1072 151 -1339 19 -1052 -535 261 1537 1181 -2026 393 1734 707 -509 227 409 -508 -1724 994 -2251 2298 1235 -252 -963 520 1403 -1112 1358 -854 -990 938 1314 923 916 1200 -5 1631 -2299 2451 1708 587 -74 1520
2606 1127 -1187 -1642 -263 -1486 1274 -568 493 -1575 -594 1224 -700 -46 818 552 -1455 -398 -713 380 -1335 718 1735 -1430 -2354 -85 -2108 -1520 559 216 -691 -17 495 940 783 -1453 1210 1308 -1488 1051 1497 62 -1192 1218 -78 415 -146 -336 1109 733
2497 1386 -221 78 767 -968 1073 -394 961 -791 828 620 -107 -175 1452 65 -579 -1195 -432 -1194 -1575 -1256 1010 -403 -642 1033 -1129 -1076 288 86 840 104 264 1940 -282 -1227 1244 -64 -1861 -473 812 265 178 -157 698 -33 -1630 2163 -850 -70
186 -572 13 -1743 248 539 472 865 735 110 -764 475 557 -355 20 80 -680 -1339 -1119 552 -2893 -266 34 -367 -1643 -181 -680 176 -674 -56 -748 1329 1421 -230 1437 -485 -28 -821 -27 55 861 9 384 258 602 -604 1098 -555 587 937
-920 -411 -434 -802 2077 6 -356 -371 1482 1417 681 -1049 653 -1632 -1532 -2751 643 -1452 -23 307 -683 -284 -1368 -26 -275 -795 1215 1315 -226 648 -1268 1036 1284 -1802 670 504 -2627 -1547 800 -316 1404 -939 929 -1068 -808 -1638 214 594 -413 1110
-1515 -347 -1421 -994 1131 -196 902 -656 1190 70 -920 238 -229 -1454 196 -2178 364 320 -1542 981 -522 869 -338 917 115 -703 0 1667 -379 272 -1176 880 1114 -1453 1481 1039 -585 -1089 -470 -222 -1078 523 1490 -369 20 351 -50 -306 -31 900
-2147 -85 -825 356 1306 -58 325 1038 340 -251 -1329 1242 276 124 233 -95 -280 755 -2013 -308 847 -556 -965 1221 -70 -1370 651 2529 683 -149 -65 480 -630 -560 38 477 44 -189 721 -479 131 -619 1053 -1128 96 -311 -2682 -808 -305 -158
-1889 1519 -731 -3 1135 -757 598 980 -487 -572 -1026 820 2341 187 -1455 -1519 299 699 -668 94 749 402 -393 483 1190 -25 374 201 -855 383 752 -1053 -1016 -313 195 1338 93 858 -658 -1507 -1249 -288 1117 -335 1814 -142 -1935 -1454 485 -590
-2410 1797 1292 1185 733 -1420 201 -548 1231 -809 -1972 90 838 932 -287 -824 734 235 -638 -718 -1280 -92 128 1452 528 -420 1008 -345 -108 475 313 -796 735 17 -1068 520 2543 -220 668 -1364 -691 -55 1100 -1753 563 1985 -2375 -1131 494 -975
-1399 158 1231 -156 870 14 932 -544 1357 -946 -2206 385 992 256 806 371 365 1482 -1036 -979 1129 -444 872 893 -297 1302 223 61 1420 188 1667 -1110 517 -407 95 158 1578 -409 161 -310 -735 -440 902 -447 737 1040 -877 -2628 828 157
-1746 188 443 854 873 -109 355 -122 1233 -616 -831 777 -378 223 1990 982 781 -414 -779 -2179 -187 -1429 109 -112 -609 889 1075 338 1186 -496 -154 -2195 482 -343 -700 18 983 910 883 -272 -54 -138 424 282 -749 1383 -228 -425 196 566
-979 1139 1039 727 -86 -596 1500 459 -1355 -1747 -77 -722 -692 -110 1316 -64 147 -296 -930 -1038 -102 1351 -181 -9 504 -938 755 -1062 42 336 693 -485 1091 545 379 -891 316 -647 -654 -227 -187 1106 -452 1465 -737 501 156 658 -313 482
-885 1071 -596 -990 269 728 -821 1377 -392 -556 147 -165 -706 1042 424 244 -254 611 686 413 -1457 -270 13 -634 -433 914 799 -837 757 520 574 296 -607 547 -505 1006 575 445 -611 213 -123 1130 -1483 -1158 -992 1466 -15 209 -776 1106
126 84 357 548 72 1518 -386 894 -98 755 296 -1024 -2297 -770 950 1771 -407 -1220 1164 -1245 -595 -584 -537 -1104 -712 -66 -309 -707 -637 16 -478 -712 -937 1034 -190 -74 372 -522 947 -506 380 -163 321 -143 -814 -197 241 1172 -420 -380
422 561 516 615 24 521 815 1788 -236 -292 518 -668 -1446 -643 129 530 612 -2150 191 -248 -1054 671 1251 -287 -95 574 28 -396 414 -581 291 -41 -307 30 -1137 -276 -711 -524 -221 996 296 -628 -981 -1184 -269 -720 -397 1230 -1315 -430
756 1863 -152 751 -1138 474 -32 844 715 391 -331 82 -1820 -191 -33 115 141 -473 1962 -1716 -651 -284 89 481 -599 1102 1481 -452 -17 745 -318 -1497 -989 414 220 1284 -979 -1381 191 -156 -448 144 97 242 -561 772 -456 2046 -312 -96
228 -33 820 341 -277 -340 -164 -437 -401 -520 631 372 -567 147 79 298 -580 699 1137 812 -101 -39 -534 602 -515 1543 -533 567 -862 657 -67 -442 -475 3 466 914 -724 -357 840 271 -112 372 -481 153 -1857 1398 1613 -135 175 414
215 254 493 1138 98 1711 77 1263 -351 359 454 -67 31 159 119 312 -480 119 1198 -63 173 833 -224 -225 -401 745 470 977 -1032 -128 232 118 -1266 366 -288 970 -1313 780 180 -14 359 -427 -1196 -441 342 1007 824 372 -1207 33
-758 352 1138 647 -896 881 -149 47 -634 -694 343 313 -230 -483 -659 302 -129 -390 -93 -216 -550 688 309 784 -518 869 1089 1214 -216 245 -833 318 -1220 642 63 645 323 -497 853 -950 -558 -73 -43 173 -288 1320 -472 -274 -138 663
-1061 -623 894 412 472 1133 454 -138 -812 47 1088 563 -910 -288 0 748 624 788 -319 346 -1096 -1009 18 -330 423 210 840 26 281 -971 -221 247 -695 -518 289 -340 -1174 -514 753 64 282 -586 -667 124 -828 -263 10 -932 -210 -911
-962 171 18 667 612 467 406 -361 -653 -276 1001 723 -1064 549 184 39 -914 428 147 909 206 482 312 1399 178 125 1025 28 -459 -588 543 1415 -671 -980 683 -124 -1157 711 -541 -385 390 808 508 190 -272 151 194 -2 508 925
-578 -168 495 845 -182 641 -97 -41 742 595 -583 425 -282 -56 -358 402 252 569 -807 263 277 1209 155 -333 -612 -840 376 136 -859 -971 212 -138 -106 470 -1257 -242 -592 -311 356 17 0 -417 -1175 -422 616 -905 -5 -134 303 -514
355 -329 1046 -722 525 35 810 361 -263 -846 -70 1014 -549 -1083 293 1120 34 -712 -309 -33 -577 -187 -249 -681 883 535 449 13 145 -62 776 67 630 -526 437 -564 545 -144 -867 872 75 1274 -28 -571 515 -620 -651 304 -1215 -317
544 -676 -1152 -198 -268 1061 865 -123 105 -204 -745 46 -396 402 1596 -324 -298 179 -224 545 -227 45 542 398 -348 301 -254 -684 -326 -1021 -519 681 40 203 -472 -1193 979 -608 491 231 764 149 -1099 -431 535 -159 546 -629 -377 -774
525 -911 -270 0 323 84 -340 883 -449 -14 -243 -180 -95 -687 1611 681 -829 781 -379 427 857 281 285 61 838 -42 -374 -721 153 -89 -381 -986 -351 -83 -744 531 198 -593 -132 -761 -61 1081 354 1200 160 1084 1120 996 -325 433
1333 -824 163 -157 -61 441 -430 747 -319 1308 820 -457 1215 363 288 1745 192 -555 -54 82 -214 -886 642 -593 928 -277 804 459 -189 123 754 -70 -16 -477 64 497 -901 258 -393 -717 -427 1053 953 -239 -314 894 -208 -570 -652 115
-763 -1063 966 766 -321 -1433 171 614 543 105 -21 -754 415 1058 -716 844 -886 611 1088 -634 496 5 877 577 587 33 779 748 896 -146 169 168 357 -852 -403 -953 905 -77 -523 468 595 -481 684 -983 -676 -466 784 -990 1084 608
1189 102 748 -1177 -571 -594 619 -556 -388 294 -417 631 672 -713 -819 722 -965 -506 172 -372 100 -1000 -15 338 -478 -381 642 -418 915 -789 13 908 412 -709 199 404 -28 229 676 428 -308 -228 236 552 -170 -221 1113 -350 1220 -186
762 -82 34 500 -385 -212 -556 -699 -100 287 683 558 1337 486 -491 -596 -993 753 254 -303 -478 654 190 -640 -130 -1126 -748 -136 -390 -211 333 -629 180 -198 426 419 -684 -739 -305 -248 1278 -251 -639 1013 536 -85 -283 -293 -1062 727
600 -113 -1107 404 -162 -1303 -140 1311 170 884 242 304 273 -376 -207 590 185 -1029 1486 441 -109 -585 -769 -302 822 -380 -1253 378 -659 -32 1116 -633 533 385 -242 1135 -273 814 443 293 -974 824 -827 1066 -1036 -11 91 759 -721 142
-79 540 -1147 -41 239 -223 -19 722 607 -248 211 -92 -157 -425 -130 -109 -787 507 98 711 550 412 832 126 -1473 -100 -745 50 -106 358 -54 453 -372 532 335 67 -395 -102 527 715 -137 1113 -917 -156 -541 525 -183 -798 -580 480
566 1408 1100 1442 -116 -251 -941 990 -770 114 709 394 1166 1022 -1639 170 -93 -417 77 -716 -500 487 186 812 1565 14 127 -129 -1330 -147 -285 598 -654 499 -1258 1223 -131 328 -1535 572 1207 -1517 -1125 161 365 -772 256 208 578 905
942 983 1307 -328 -2100 -939 -809 1056 -770 608 835 -1184 437 1380 -573 2940 -22 413 1515 -313 -1674 510 -194 1738 -410 720 -2000 692 771 -879 500 282 123 434 -1618 -479 1490 840 -538 2467 1283 -225 -158 543 1478 865 -1304 -462 1284 896
6 -1251 -1405 1249 -485 -1572 361 750 676 -802 -163 672 305 -862 -382 383 173 65 959 -685 -1256 -650 -322 -601 124 -842 -300 -631 851 -401 676 -279 -610 784 -243 -72 1153 810 472 1222 -599 410 -1991 464 605 -530 -1694 -1519 -103 860
-677 743 943 1253 -294 -232 -648 -1143 984 -1969 -574 1248 -399 -1530 1954 -355 428 331 -30 890 593 -1041 719 -39 1495 -898 768 -271 154 318 822 699 -276 -1313 -454 986 -437 752 442 -846 225 -1358 -74 -483 -421 -1740 660 916 -936 438
-541 -25 653 177 -241 147 510 -768 -301 910 -54 -98 -75 -632 -164 -2590 -366 -229 439 1016 998 1002 1994 -620 2034 -2609 747 -1151 -226 -351 805 342 409 -1500 -424 1093 -863 -726 -161 -301 -1189 46 2436 226 -2210 -2392 1809 -480 -1471 -175
277 1135 -320 -351 328 713 181 441 -1135 1646 1226 1071 83 650 469 -291 -51 -453 385 -251 1062 1105 157 659 2392 -660 -1530 -1292 1081 505 1071 -27 -687 -1256 -1159 536 -1054 -830 -36 403 1061 1515 3401 681 -2535 -618 444 1318 -1132 1565
1280 583 1226 -1702 179 52 -1994 665 -1031 1586 -304 296 -1117 -1084 486 -1002 230 -59 -947 -47 10 -117 698 -1043 2135 -567 106 -1311 1779 765 -79 421 37 61 452 -1805 -1186 -2350 310 1888 879 2232 2893 -1566 -3210 -226 526 -129 -549 2076
1897 1750 300 -1350 128 -590 -925 210 -958 1166 783 2112 -679 -773 457 -1797 925 175 -961 78 -1168 1049 1803 141 828 -608 -387 -1112 1260 -952 -1026 9 6 -1727 757 -324 1018 -817 -169 2368 1839 865 3036 -1400 -3170 -574 -491 -162 773 221
794 1505 -118 208 -2247 -852 -1474 358 -793 730 392 1798 -929 -1324 3599 423 1070 505 181 -182 -149 -684 1350 1220 892 -658 -867 -2397 2857 760 835 1042 -570 -1600 1318 -252 1054 -321 392 545 -930 547 3285 -685 -3541 -1018 -623 95 -1076 2614
1266 -81 1744 481 -1665 -1286 -950 631 -1808 138 430 2835 406 -213 1556 -144 18 1450 298 802 357 -605 265 1736 1138 -629 -94 -241 1953 255 217 894 243 -1968 497 -271 -609 1453 233 996 479 -435 2257 1005 -3054 -302 -600 778 566 1815
1093 914 2019 947 617 -851 -175 -52 443 396 1295 -179 203 1114 780 588 -496 562 212 -508 -289 48 -157 330 -107 -152 -248 144 591 202 -574 -846 38 -1016 -277 574 -1105 -96 909 1410 533 -271 929 913 -661 135 -1117 -454 1481 290
859 -179 822 -437 -994 1110 -1003 1096 -1163 -22 455 -439 -37 1161 124 540 -817 -395 193 173 423 -459 -211 -518 -402 -389 1626 590 -354 208 -1260 -217 -74 1909 -592 144 -315 2189 738 -206 799 929 -1447 1302 1071 273 -744 -1616 2290 -1
865 165 1328 -892 -612 626 -321 1007 -1320 1550 1265 258 -127 894 -690 1165 -82 -376 -177 -1140 -1194 -572 48 -1016 -154 -1078 228 -83 -1477 510 -1085 -489 234 1085 78 776 -596 1252 -179 263 -11 1384 -500 1933 -355 172 289 -1287 767 -1401
319 -15 915 419 -692 1293 -786 626 -509 872 1088 337 670 538 288 -171 -1584 -388 -61 -106 -1253 -279 -96 -125 3 177 1538 914 -1032 110 -874 -1297 -203 774 853 388 202 514 -161 -701 1400 285 687 652 -133 1003 -1100 -817 -745 193
-399 50 167 -610 630 261 205 539 498 974 62 -868 -45 727 -108 -308 -777 -471 -1191 -1764 698 -61 -546 279 -279 -277 -5 465 2 -452 91 -883 775 1294 -617 -324 -446 913 -1121 310 656 708 -1362 -323 1137 -440 -1283 599 427 43
-193 457 520 -274 -643 -887 -5 -244 612 668 435 -248 1089 570 -224 244 -709 -1148 -128 -467 -593 960 -644 -188 687 -774 -1411 -985 -1228 -73 982 -135 391 490 -93 -896 -316 -157 -357 -290 1040 -522 133 789 512 -685 -161 615 -890 -1037
-655 -844 -1108 358 -384 24 -170 119 862 -1011 -350 570 570 -233 -436 -1264 -346 2 -1736 -377 91 1427 361 942 1840 -1161 110 -45 510 -95 -928 616 815 -323 22 576 -94 1359 252 -594 -193 -814 382 719 -878 -1881 -441 187 35 -932
308 680 -399 -1117 -771 -803 203 -342 62 -128 -1124 -716 24 -120 198 111 154 -1391 -356 72 -927 -1116 1071 -605 1481 -97 183 -869 51 416 -1272 -359 719 -471 -474 210 -89 1498 626 -870 -679 194 73 656 971 -1400 -792 201 1055 578
-186 -655 127 -704 331 -1746 531 1396 856 -528 -642 761 125 -489 1155 -316 -244 -798 -480 208 398 178 -62 256 1208 -79 235 -917 -23 363 -313 -279 -426 -345 1079 523 -913 875 -542 -700 687 2207 -784 -840 21 -1248 -47 627 354 567
473 686 1760 651 946 -210 573 78 916 -196 -224 912 -668 -516 954 -569 582 -398 -66 -1440 33 -213 1763 -289 -816 -463 -871 -288 179 -631 -537 -273 -18 -1536 1225 98 877 -1352 -716 380 794 2195 1407 819 -69 175 -1087 51 4 -73
-1003 -790 243 530 900 244 393 34 1401 -1217 -1512 -587 782 -48 533 -797 600 -1755 -456 -1644 -248 598 -275 -1112 434 386 420 904 -536 -311 -710 -75 -195 -394 1182 -476 349 -53 -672 22 -244 541 14 -883 554 -713 139 313 -402 493
-1335 -540 373 310 720 38 -482 -101 -285 -195 -390 827 -228 -27 295 324 593 -40 -74 -635 -281 -927 683 -1026 18 -263 -377 170 -266 -845 258 -321 1371 -613 -216 -370 477 -547 722 -526 -693 445 1343 148 -275 -347 177 465 -364 -582
1 84 -738 269 -713 -653 109 -1201 40 -464 -557 172 637 244 43 567 -226 1293 45 -1203 43 -586 -501 -1190 685 -249 -67 -1080 -296 661 881 -358 1164 -714 522 -738 844 760 -604 -746 -1548 90 1617 -502 -1511 244 419 -51 -779 446
-130 -605 -312 -782 340 -756 1363 -856 852 220 -11 -125 -68 322 568 405 -211 576 -452 -860 1330 -601 453 165 244 532 -774 7 384 -239 -300 163 1194 -1151 437 -908 1067 -650 4 -868 -715 1428 1094 -1298 -1451 823 -787 1279 -628 432
-1062 -995 1026 38 -929 1341 -469 -487 923 -786 -469 -1243 -1225 539 875 -85 -219 -601 744 312 -741 554 574 648 -359 309 -809 57 789 162 363 525 204 -86 -204 -49 201 128 338 -1133 567 503 1287 -9 -199 261 365 809 28 -842
-747 -536 404 -528 -426 329 -118 -447 556 529 -263 -1014 -705 -729 1860 -414 462 -616 854 -160 -383 -921 -247 529 583 -185 207 -662 469 -1022 1038 -716 -242 -666 524 607 1003 374 -816 750 1112 1120 -374 -376 -161 -146 950 930 -1130 486
-522 -303 -740 66 5 120 462 -105 522 -152 -1007 -626 -33 -348 731 967 -175 -325 1134 -111 -104 58 801 -22 -504 -430 716 -1136 296 -1101 637 -763 740 -611 -151 298 -618 780 146 124 -266 -363 -697 256 -1687 -686 -177 -182 -605 588
34 -223 -242 678 807 588 1128 618 870 -152 1014 -287 -411 -238 14 753 417 179 808 -236 -1015 453 -676 -793 233 199 976 -46 825 -184 -1237 -135 -133 -629 364 460 921 11 -124 204 1104 -1086 -176 1303 -462 539 -1679 -464 150 446
-238 68 -748 -874 974 1273 375 -698 454 -580 543 -146 510 13 -1301 -131 -376 -648 1003 -993 -735 360 -5 -401 -909 263 -428 -119 68 -139 -16 -640 666 -584 -876 -220 -146 -478 -1348 -87 308 -723 -1032 54 -416 -75 -723 151 665 251
-5 -11 -330 189 -136 1087 -1184 68 129 -710 259 -1281 -293 257 -63 761 93 -1631 -630 -202 -213 207 -1124 -983 -84 839 674 1077 -159 100 -30 -280 -1513 229 -673 823 -838 -835 -104 1270 -13 869 -166 566 -344 839 -106 -41 -132 306
69 -373 -46 -1358 993 199 -1224 631 -409 913 -498 -234 -774 858 -205 1119 -594 -70 56 -552 -928 -532 209 -657 -1407 831 921 -93 -1145 -308 -640 101 -160 -241 -309 723 814 -178 915 -1089 1177 462 -753 1454 746 819 80 -41 -415 -773
1156 779 -461 646 468 -319 -731 -84 -93 -798 626 77 -552 821 -382 1176 158 -411 -1171 58 -1473 143 -37 -588 -1504 -745 721 2 -1669 -548 -90 -1258 -1517 933 -1515 -279 506 1069 272 821 1085 -38 -1486 595 1790 581 -1035 -488 -79 -64
-979 -80 -369 -11 1009 994 723 291 640 -659 -465 -222 -1471 -1525 -138 423 727 187 -906 -915 -452 553 -968 -1253 -671 -1122 -173 -729 651 719 -320 329 334 709 -916 -829 582 -1860 -1110 662 195 146 768 508 -144 -583 -44 427 -41 -501
-894 -469 -443 234 1144 -158 -364 160 -779 -1050 -408 -852 -70 -1055 -322 -1002 1097 -422 -568 -1446 532 -488 498 -920 1051 189 466 -27 722 674 547 57 1523 517 -79 86 -115 -128 -906 -581 1224 -377 -222 72 -961 -746 -134 -47 -542 -271
-862 392 1296 757 614 -856 -584 485 227 560 -766 216 -579 -1983 354 -1302 -503 -1112 -1041 -297 -75 -1189 749 -785 594 -747 92 -1046 -203 24 -344 12 1074 -851 124 -740 -78 -380 -643 409 -50 460 804 664 397 -891 -264 -814 309 -1650
-791 737 -352 273 284 -905 476 593 -237 -636 482 -283 188 -1583 -13 139 -867 -1330 -792 -973 -683 -539 -427 5 1346 -120 523 -1242 479 48 895 196 1717 -690 -798 -264 1208 -977 -1203 430 394 -516 474 120 285 -713 -1114 -1120 -1399 -663
-704 633 670 177 -448 -810 -566 418 698 -155 263 538 -1092 -184 -67 344 -4 -939 -64 -157 384 -99 -439 -771 1073 -1184 1798 -866 1111 1027 -46 333 831 -905 265 -710 204 -144 128 -736 -164 -1125 596 279 670 87 -530 -644 301 -229
-493 356 226 471 995 322 -85 -686 -29 -916 -1216 1576 -1430 -539 1226 -88 -325 -1022 -1451 321 -864 -1059 1482 295 -50 -260 1408 45 1267 715 -216 103 548 662 936 -714 -257 -421 365 17 1 -1002 -600 289 40 84 -1190 -228 48 -230
-899 51 1232 -1577 -137 -849 -58 289 387 412 -125 92 -597 -1639 1339 106 117 -983 -1743 -185 -929 -416 664 -70 122 -1562 1799 239 22 -212 -919 1066 1117 -568 947 -263 1095 -209 328 -639 1245 393 745 -1256 -180 -873 -1411 -1543 176 -1307
230 285 1035 -1706 961 -800 -1200 -558 -367 -985 -1251 738 -1912 -777 1535 -423 226 -1212 -994 635 -600 -2066 -159 -663 -381 -1701 1659 -174 729 141 -108 2018 1944 -1687 1071 -1510 -301 -1042 1431 828 905 -508 763 36 -159 -409 -243 -1641 233 -1291
-1307 293 -589 -1977 1194 419 -797 -644 -995 -1119 649 602 -2079 -2072 513 -1060 -774 -1146 -503 -134 -524 211 -736 -862 -79 -487 1526 291 202 907 -1553 1680 1578 -1270 957 -384 440 -1436 -240 672 689 -612 150 460 -871 -590 -539 -311 -796 -1136
-739 603 97 -1339 971 1334 836 -983 870 232 -303 -190 -540 -693 184 288 541 -1074 -561 -719 -795 647 -154 112 -959 -1123 706 395 552 947 358 596 1664 -818 1622 -622 -291 -1153 1092 1119 568 247 664 670 671 1056 -271 -614 -798 -1408
-165 942 2048 1683 22 803 326 356 -443 1560 -292 68 458 -278 504 536 -220 -1055 1280 -2092 911 762 1745 323 416 544 -203 610 -376 -222 1813 -834 295 948 -954 -1002 1451 -1046 -582 186 -504 1306 -358 635 392 330 -79 732 -1899 -604
1 -219 -1728 -3379 1042 1628 529 -714 -1523 -363 -215 734 -2051 -1278 -153 50 1265 -1053 -1364 1346 -1019 -937 -257 -1321 -506 -1307 1489 -246 231 -955 -2298 3066 195 -500 2170 -2058 -1161 -269 -260 1192 1627 1430 -413 -470 545 -1110 688 -1422 -48 -96
-415 573 566 -1047 635 487 1089 -637 -1173 171 -348 -173 -727 78 -809 -224 -1457 -658 -86 -480 -973 -282 1399 81 -268 -173 31 -456 -47 -368 -537 1047 -900 -423 673 -804 -35 387 -1408 -938 991 898 -374 1118 553 881 21 -657 373 -1247
-520 -950 969 779 -91 642 1501 -264 438 1330 221 -679 437 699 -1277 563 -629 196 -142 -740 901 416 -1146 2156 278 717 -705 -76 328 280 1035 -939 -833 330 -979 269 -769 -301 128 666 515 -1838 478 -15 806 -836 261 869 242 766
-2374 -156 304 1499 -846 -1343 1155 -879 -21 352 403 -2541 1010 725 -810 291 -1314 333 102 183 1043 256 -9 2243 1606 1118 -1250 1506 -1077 -512 1560 -1610 -550 -960 -301 2068 976 750 -1117 -199 188 -666 -234 599 527 -165 721 936 -860 1979
-2288 -1151 187 3285 1048 -228 623 537 -302 1336 1346 -1630 1616 665 -709 449 655 272 654 769 1797 -732 -1564 2091 336 384 -1071 669 271 -291 800 -268 56 216 -726 539 264 621 -93 382 -549 -856 605 -1022 -813 668 75 -78 -1250 705
-2562 -860 5 2815 299 -588 968 1145 -97 832 967 -1037 317 477 -1589 71 -469 1195 -52 313 1099 -275 -263 1942 287 830 -171 176 -1198 -360 -197 -1264 -1520 -525 -371 549 -465 1139 -242 -1050 697 770 383 -25 -413 889 167 -258 188 501
-1667 118 345 1975 -516 98 534 -189 1176 -460 -196 87 1668 -152 -511 783 284 -336 131 -758 790 -694 -383 1193 -710 1179 -839 1232 -90 -700 -213 -834 -136 -742 -368 -535 -30 553 -445 67 1430 958 272 -1640 -174 1321 -69 575 -905 231
-486 -139 -543 104 134 830 1073 886 -475 -402 629 -207 362 188 -885 799 519 -795 626 -623 745 -299 -897 1813 -1349 1280 -1741 133 8 -475 -670 -1786 69 -495 -298 1558 112 541 -193 -754 1416 958 830 -1958 358 -159 -169 380 642 1237
-1251 -381 633 741 -133 -1110 -311 297 -216 474 -203 757 951 276 -577 -460 65 -1139 -603 146 -1446 -468 -859 2192 528 629 -364 -255 -342 -677 -1068 199 908 61 -316 841 554 -446 -697 813 2827 1034 14 -1621 -571 -29 16 1452 761 97
-894 -180 9 1083 1008 1260 689 -447 -427 1378 117 -351 1735 424 -947 187 -1014 485 1598 223 -72 648 771 2072 38 2346 -546 1202 -147 723 -240 740 155 -397 -742 1618 -1384 -834 590 -577 966 -288 829 -669 -1472 -423 1311 1251 5 1338
-499 -682 1357 758 -246 636 -147 396 23 1683 449 -680 131 139 314 -1454 215 415 1425 -492 -1134 883 -53 17 -414 872 1307 1187 -363 -595 -749 509 -549 -610 -15 1435 -1230 -1375 1468 -510 -767 -1658 -7 -104 112 818 -75 -701 802 -612
279 91 -678 -256 26 652 -797 -924 128 316 683 -61 941 -411 548 -557 999 -490 128 158 476 44 -1044 325 596 337 344 -560 -324 -658 646 613 -434 -379 -1375 363 -1220 -875 423 -609 -74 -219 221 -960 -698 599 902 796 -628 -1252
-1011 -917 -37 -435 493 471 -1130 -729 319 588 749 -1004 1242 -661 300 -545 1083 -658 -118 -718 771 -133 -660 744 -1103 -561 -494 747 166 -67 114 482 857 159 263 -59 -1052 -1089 326 609 174 -44 -828 452 357 510 1279 -543 101 679
383 594 -492 835 -435 -768 -444 -450 243 564 -149 503 931 -40 78 -488 766 313 -164 -694 344 348 -198 -240 794 -148 1140 -22 632 339 -601 391 1028 -837 353 604 -737 -1220 1086 1357 28 -1140 -737 -436 -626 -818 337 469 -313 225
-20 -122 1100 -659 142 815 -950 500 -224 -695 -202 1112 514 600 -890 -576 -135 57 258 -174 108 -437 -932 -307 572 662 -357 504 458 136 -189 261 279 -734 19 822 -892 -217 586 -445 256 -967 -389 586 -903 -111 -296 -378 402 -647
-419 508 -717 -643 35 -549 663 315 -698 -602 665 864 721 -101 1023 -702 1001 -1046 -63 425 195 410 699 -340 551 -982 -535 -458 623 680 585 1016 -828 -551 -436 -969 872 -1534 -59 526 302 367 -603 -309 -40 -62 482 -1024 1054 -798
-441 877 -605 -301 983 -788 68 -1170 308 -466 -704 -475 346 457 629 -289 1115 -970 -73 307 880 -451 -269 392 -230 -949 209 -152 446 1165 -395 676 807 64 -59 -555 -209 -1188 467 977 527 517 -936 128 869 845 -737 -593 1300 -1138
-779 140 125 -569 67 -312 47 688 -900 -453 -797 -271 -984 291 239 -386 -45 -215 -458 508 -165 442 311 412 -542 -187 865 -240 -594 61 -1193 -346 -285 -668 -620 813 633 -273 589 1175 318 -436 230 -606 844 -827 162 -756 1259 120
152 -830 536 264 193 -753 -997 -344 651 269 -66 361 -229 416 522 412 500 -76 762 952 -131 -102 -567 283 -411 525 29 -256 -676 870 -875 -256 -767 597 -651 -475 -1015 -882 1045 -311 -219 -984 -314 -1352 -573 -229 -223 -1002 983 -397
599 -911 698 81 13 557 -600 605 423 -530 -573 -370 397 343 -907 -305 636 -1139 330 -802 -638 290 -812 513 -420 -56 895 889 503 373 28 780 578 291 -370 617 -332 108 -480 887 522 -974 -913 -363 -393 159 129 708 198 696
-720 567 -293 545 0 87 756 -295 88 326 -627 737 -192 372 682 196 317 -546 8 610 -46 -422 538 -973 -483 -717 -753 1025 -916 1015 660 901 -243 351 680 987 -249 -594 -502 -182 635 257 617 -1262 683 514 541 671 817 -214
-4 850 -154 -448 -10 512 451 -25 324 -1009 173 -798 -569 -432 -912 350 213 367 553 497 798 658 603 -973 -212 11 -462 40 497 922 -856 1406 -906 -185 -102 -379 -814 -956 281 -152 291 282 -948 -683 83 -881 -416 -83 -101 352
306 -742 -521 76 1232 404 948 -35 -409 -230 -1168 -1207 173 -2085 417 -416 -79 287 -313 -526 -994 -36 -158 38 -492 640 -246 -685 -233 -531 -191 754 -111 -1096 -216 -749 -1104 -51 274 -625 146 546 -19 -353 -497 -863 1779 -669 -345 522
-885 698 -89 -606 1372 713 1167 -805 -648 974 -951 320 -595 -1700 1055 -597 -452 231 115 363 -920 145 -169 134 264 -762 1206 529 -489 964 -372 208 130 451 99 97 -186 52 -415 -587 860 606 948 -10 -1369 -335 38 56 1272 -72
-810 -235 -1376 -14 1833 220 616 -915 -553 808 -508 -18 -406 -741 761 -1860 528 -652 -846 -762 -176 680 -581 101 62 17 279 -851 -654 267 267 -491 375 -331 404 -867 -700 591 -489 914 1225 -516 480 -334 -1007 165 428 386 -58 -258
872 353 -1518 -1371 675 854 -537 490 673 -723 -42 -463 -1188 -1386 106 -615 -595 -732 -1396 -606 -165 -1423 -204 -1309 65 -338 732 -873 216 -540 341 276 1217 -116 908 -498 -48 -868 749 584 488 -576 -601 -1196 78 101 1064 435 997 -120
426 554 -915 -240 470 518 169 215 413 -1037 -870 1107 -1053 -2051 612 -1425 -4 85 -224 428 -896 -1567 -929 293 682 584 -271 -405 336 85 -1519 -67 334 -877 672 -957 -1272 620 -335 -104 667 -252 719 -424 142 -1052 1183 -1086 801 656
44 464 -1428 -611 -269 523 -1322 -980 -278 267 20 132 -632 -1111 77 -1201 734 -292 -249 906 -1224 -915 -1068 -268 884 -1327 -307 -1681 -1 248 -1912 -610 340 -1103 1501 -867 -105 621 740 610 227 -337 -160 431 -924 -807 -525 -444 619 -885
1101 873 350 -1389 -1052 421 -951 177 630 104 -325 433 -1085 -1522 732 -465 831 -1805 -499 1109 -624 -1508 -479 -18 412 -1083 113 -850 -152 144 -1368 -539 163 -1105 1013 581 -1142 1253 1036 1416 1305 -495 250 649 270 -464 685 645 1108 63
312 -434 -576 -1801 19 -315 -508 871 829 -546 189 -199 -443 -1298 1246 136 1234 -865 -119 665 -1022 -1845 -1586 900 -251 294 297 -569 1218 723 -1878 -1076 1164 -5 1613 1398 -124 -670 240 1516 -158 -1663 -733 139 -1107 635 231 -213 -631 696
2010 166 -616 -638 -918 -136 -483 846 1743 -505 -1239 -998 -311 -569 1269 -350 323 -615 199 42 62 -415 -1476 -75 739 984 -1107 -1152 563 959 232 -1688 -1097 1477 416 552 -684 -917 380 942 408 314 -51 1153 864 659 912 2476 -680 -273
829 683 -942 1877 -834 1394 1132 462 18 -789 -1931 -505 -1425 -1062 850 -878 476 -1025 -982 -2409 -162 1176 48 -1829 1449 -249 -491 -201 -460 94 1720 -1932 -2455 2712 -1227 989 767 -2455 -270 0 -15 955 434 24 1132 565 1256 3065 -1165 -1955
-287 1386 1583 3133 440 937 1140 492 2210 -350 -610 -1027 -181 -1712 -55 -339 -584 -1763 -163 -3395 473 705 822 79 2560 194 -810 350 423 296 3789 -42 -1025 1067 -1392 -680 1179 -1419 -1237 -660 564 783 898 389 65 840 -258 2024 -510 -336
-1082 1391 231 591 1347 -634 1167 1453 53 -305 178 -1363 -820 -558 -1665 362 1409 517 -526 -720 415 254 -1264 -1362 -1380 1409 1225 968 -609 740 805 1403 -532 648 -8 -1375 494 -424 -1753 -711 -1646 617 -259 -1277 1033 -1185 -1100 -1753 2007 -93
150 -244 -435 143 820 -335 1400 -1732 516 -1375 -506 226 -49 -378 -791 557 663 385 -562 331 -414 1489 -20 51 638 -394 491 -385 -248 525 405 594 -268 -838 646 -1305 1377 -487 -547 -442 1104 -749 -684 929 -723 -20 -408 267 225 290
-633 1616 1242 374 -277 -436 179 -130 650 651 319 -1120 633 117 -259 -91 -784 -447 775 -445 1505 1180 446 418 -4 -147 -341 -382 -247 405 877 -783 -985 -326 46 876 -43 162 -1167 370 1412 -1537 421 697 -797 378 905 1248 -436 -197
-1048 626 182 480 -934 -430 1084 -165 -1103 446 -558 -1147 1027 234 -1271 1124 599 -89 496 -659 1863 1917 -478 915 722 -200 -759 545 -203 -344 836 -386 114 918 -864 70 -699 -123 -295 -1125 -134 -956 -474 591 777 663 904 1527 -781 528
-563 186 53 1227 -858 953 -637 -970 -1151 471 1362 -1451 -653 1083 -1153 1422 -862 1570 -350 717 440 1989 -471 554 337 351 -640 1031 -325 674 737 989 260 298 -297 298 77 -48 96 -640 -176 228 1036 1276 230 470 1393 984 -892 -32
-1259 -273 673 665 1155 628 685 870 -829 375 999 -16 -218 1119 -585 -658 194 -456 1033 -1118 1209 29 1259 128 -354 248 926 266 -312 514 -121 -295 -209 817 -373 -205 229 392 -241 -1173 -616 1088 895 706 261 1828 346 134 -1220 484
-457 -415 692 828 1180 -280 188 -1100 986 -884 81 -354 295 -545 35 1053 60 -37 -43 -1223 629 -928 -254 -147 29 221 443 -627 782 -627 534 -425 502 21 -521 -1233 371 -564 -353 449 92 -89 182 -697 -749 -98 -21 -264 -1155 -22
486 -1132 691 -100 733 -1036 674 670 761 -140 -68 -281 -1171 60 863 94 557 -1069 -346 -293 540 -995 547 -1942 -550 -703 -40 848 -626 -36 149 1013 122 506 -126 -1384 -224 -80 27 -493 1400 2142 143 -403 402 -184 -723 -118 46 38
652 200 412 27 502 257 -617 1168 -191 -1102 -1400 -378 611 354 -832 11 -977 -921 -391 -86 -978 -1049 1321 -770 440 747 -641 1867 357 -199 207 1606 373 -325 1693 -1155 262 182 -566 1294 1909 1767 826 -907 -1021 1263 -194 76 128 -614
-646 1104 1180 416 -452 759 -153 1336 495 974 -319 -271 605 887 85 -487 -237 -57 501 1053 -83 -719 -1118 273 560 557 710 1567 597 819 -537 1180 -564 276 33 167 -1153 -440 532 -332 -433 731 -518 85 569 1679 -482 39 -791 17
355 -507 1123 -494 197 1372 -1221 -247 -804 497 158 -161 152 799 107 -1364 554 513 58 1273 -924 -632 -471 53 -112 -115 912 1221 -45 941 26 1125 5 1071 -770 826 -48 -1336 -149 -178 -60 -91 -286 -215 -273 -87 1261 121 -75 -637
-355 -17 -862 951 -956 477 -570 -943 -53 1268 1124 -435 583 -911 557 -1389 1156 800 1057 719 -1012 487 -439 572 -1040 224 570 -629 -1051 844 222 -430 70 -749 -416 604 -614 -19 989 -249 -270 382 -496 -1102 -443 432 277 -685 791 -489
353 -454 -459 -189 -391 696 -1103 -750 359 883 566 491 361 313 -9 -33 -199 999 1217 410 521 265 652 897 277 858 194 741 -533 -242 565 752 -972 490 -362 1254 564 -1057 185 -218 477 -472 313 304 -798 484 887 -331 -826 -97
-402 -920 203 -201 -1027 897 -307 -1067 -30 -495 191 -343 -669 -773 -346 -492 -584 -10 1311 1395 467 585 633 -300 -940 894 -190 -883 -499 701 -1047 -87 -966 -708 464 -292 -624 727 726 -205 -561 -396 -100 -418 648 -121 830 -60 307 -246
599 -497 506 -670 -66 149 -485 -317 408 -258 -325 1325 498 275 -577 126 -771 148 764 -98 2 819 1038 936 31 31 -44 140 363 705 -182 276 -162 -1067 -332 213 729 551 773 594 -765 148 319 -88 -493 -722 28 757 -358 -127
-557 -945 -498 -225 197 52 686 -879 -398 -405 542 1252 242 -1096 621 388 499 -195 863 742 465 462 518 1534 -381 135 -442 271 139 -6 332 1042 228 875 -831 -926 967 -425 411 -780 353 -347 -227 -1133 -642 -942 -319 455 18 -590
-194 -981 -1207 -6 -487 1043 724 -345 -658 -435 334 -323 36 -1003 -203 575 633 1412 918 1582 698 -1121 -563 92 -955 1254 -549 -753 670 1104 -871 1124 -491 -118 600 83 400 722 -72 -1308 976 -999 -753 -839 -52 49 -334 -243 -1114 -560
-455 -466 -861 -556 -558 405 406 -382 -329 433 -166 397 512 -185 117 1539 -804 326 378 580 -442 -25 -449 834 -707 961 -513 1039 -252 664 680 1084 -457 -634 450 -461 1098 663 28 -1198 -520 -1136 730 -1153 -123 -509 1289 185 -697 119
811 -750 -414 764 -797 440 995 -1233 981 -214 -458 -319 -1114 -821 247 1667 432 898 -86 1130 -355 -1336 -584 148 289 132 -763 395 -641 -112 363 552 476 -812 823 -209 1414 959 267 -475 -280 -1074 77 -146 557 -220 -509 -456 -60 1027
589 -747 -708 1293 -368 -170 998 -583 266 479 -452 1226 -230 -1456 11 1088 -1001 1712 -730 1553 745 358 274 1396 591 719 -729 370 -1205 -633 629 1141 565 -63 -410 473 547 -5 431 204 782 -417 843 -1420 225 -43 47 1016 -709 383
306 -772 -832 286 34 -38 689 -675 438 -637 -533 -563 -1133 61 -849 806 380 875 410 410 -24 357 233 809 -277 89 -962 -444 -1485 -4 187 432 -249 882 1006 -508 1598 1372 -1000 36 221 -941 248 -1070 390 -315 -111 128 -925 1178
691 -99 -1536 -117 -516 755 -554 -658 939 -1049 -590 581 -823 -243 128 253 5 871 37 224 -767 -325 -635 1228 506 187 249 644 -303 622 -135 1437 -299 590 -45 329 348 -168 -1004 187 417 -166 31 286 328 139 845 735 -377 436
-1539 297 -1215 -1338 411 2277 941 511 -41 431 -4 -941 -689 1155 -753 -1099 691 -43 85 223 130 393 -1922 -2185 -1889 -422 -442 441 -972 -243 1402 -825 -1083 -929 238 56 -1095 161 32 -1219 -217 299 -947 -397 244 -399 2122 240 -251 107
-1171 -276 -1061 -1175 2060 819 1675 533 -55 1272 -1027 95 328 741 -797 -672 -531 -1122 -56 174 402 678 -1149 -916 -395 -37 -1251 -31 -279 168 1270 -61 -837 -834 169 334 -2436 533 1206 167 -1598 286 629 -484 -156 -412 1140 -302 1666 941
-622 -216 -1490 -374 2313 1283 1094 -337 48 367 -444 -561 -698 934 -288 -1660 362 -689 488 887 -552 -275 -517 -2140 -730 -303 -479 -417 -147 -553 862 -1254 -1120 -209 -394 750 -2417 214 809 114 -34 138 -69 -588 -1100 35 1938 379 1459 -133
-369 -593 -574 -266 1302 1460 503 954 -557 712 548 58 396 555 934 -620 56 -134 37 -709 -27 -674 -198 -1020 -1135 603 -1337 -375 -1095 -362 497 -1259 -1782 -8 112 131 -2146 676 295 -168 -1012 142 -409 -280 -101 983 406 51 441 670
-472 -964 -926 -1909 1539 1821 1477 41 463 -41 -614 -354 -114 551 912 -1607 1423 -702 729 539 334 286 -1651 -1229 -552 453 -320 -1934 -227 -736 218 -1582 -1253 -527 303 -232 -947 1493 1162 520 -421 -1061 289 1640 -1623 -451 411 297 -529 1387
-1110 303 -1405 -1354 128 1485 588 606 981 -205 -356 480 -72 71 -16 501 1060 -242 1303 824 465 -1075 -114 -828 -55 183 -850 -666 -785 797 343 -1107 -7 -420 550 991 -2202 1377 71 -831 -1663 -854 350 1100 88 198 -66 306 450 996
-723 1082 130 -904 -986 71 -393 1348 1365 -390 1013 45 -899 168 1014 -62 839 -918 1655 1067 -240 -923 -702 -1000 -190 486 88 -1813 -237 -816 -809 -123 -643 -172 -264 1966 -750 1193 976 195 -2319 -2082 251 1334 -1720 49 153 949 -469 1837
579 -346 -994 398 484 -1651 -810 -68 1341 -1831 238 409 329 379 654 -199 1743 -833 1492 -1411 -488 -993 -1132 269 825 1874 -459 -1130 -1182 451 -1535 -2160 -2099 -482 50 1660 -1147 361 408 293 -1893 -1039 -832 1108 -1598 -345 383 759 -318 1139
625 176 -1560 -2081 -1586 -2473 -1994 542 1646 -459 299 -1262 -888 698 1934 442 2425 -174 423 -1776 -168 -2482 -2074 -1587 933 999 -696 -2347 -81 595 -2527 -3444 -1210 242 1059 3710 -1046 374 159 -337 -1600 -1467 -1161 591 -189 1035 -346 2228 -1192 1574
606 -609 -532 -2868 -3013 -1199 -1423 689 2932 -587 -551 96 -1239 526 1524 149 1147 486 71 -1534 784 -3209 -370 -798 960 -56 -152 -1797 -744 859 -223 -1462 -1728 -897 652 2005 -604 907 880 381 -1319 -122 -104 1333 -1074 376 -354 575 -1436 673
-866 -1201 -285 -977 963 517 943 4 3323 -621 -3786 632 -820 -2635 3578 -1512 435 -3224 137 323 -1236 610 831 665 689 433 -761 -1277 -318 215 863 -195 -158 -3231 623 -403 -1496 -2346 2677 194 2786 39 -830 2825 -2652 -329 869 1762 58 340
-1089 -466 -316 1440 987 -522 1234 1228 -1237 686 891 -826 464 531 -323 729 -391 -802 11 -970 395 1187 -163 -295 836 -1163 429 828 -527 1078 1243 122 -1191 484 -1627 1163 -233 -929 373 483 282 328 102 443 762 -788 451 -222 588 -155
-338 -1271 -354 1400 460 515 967 268 -1381 -255 1479 70 -226 -30 -209 -250 -612 -136 1689 209 -223 -17 -1727 193 27 -639 278 145 429 -206 -514 28 316 -624 593 0 -1251 351 -362 1110 -454 553 271 -53 196 -664 271 -953 976 1007
304 65 601 323 -1234 -69 319 -135 266 868 959 -458 143 -926 258 175 -1125 287 1320 914 -1213 96 -1356 -301 -558 -683 -938 1211 -101 -160 168 1318 -450 -310 896 103 -1091 204 -371 1348 306 133 -1106 942 936 -715 350 -439 1368 932
340 235 1056 381 624 53 531 1179 -753 979 -132 48 -728 1096 218 -362 104 -322 1092 190 560 316 -388 -47 -1145 -46 -854 978 -588 2 -516 331 -30 786 -1171 -547 -171 -697 -243 1055 -1204 -251 -1095 172 -165 846 1029 260 967 772
-21 -673 108 339 130 -827 -363 317 -1202 -67 1123 270 -108 314 -243 856 -86 967 1154 -503 -397 238 453 -310 -1171 -103 -527 177 415 533 434 945 995 -427 -266 188 324 527 372 554 553 858 -127 136 85 629 132 -1095 -28 606
-863 7 1468 -456 -10 421 -652 -126 -393 -306 1103 363 1231 -428 -918 645 50 -450 1408 517 898 -199 -814 -735 -1143 426 -153 194 1146 -334 -1013 801 -72 230 1024 -96 291 229 933 226 -797 275 -2 -455 -126 7 799 93 -379 1187
-3 -1188 653 1124 -102 -491 -490 -648 76 71 -395 250 952 622 339 375 -107 -212 1217 -22 108 281 262 -587 -731 448 518 1498 -422 -251 391 168 182 -108 421 419 -1217 -774 831 836 294 895 633 169 396 295 858 89 -832 -326
-703 -92 1190 502 -27 -762 399 -693 -116 1199 102 -581 805 18 -728 -698 282 -770 731 -48 -537 419 216 775 -34 294 8 1828 -232 448 -281 258 701 288 586 -687 -12 403 1061 53 -851 -24 -703 64 -848 -143 1004 532 446 1019
-65 0 840 -331 -189 188 -92 -128 367 -720 -133 -162 219 -707 -1397 -533 -30 -32 123 692 40 408 467 -1121 350 728 -796 -270 331 611 -1257 1491 -431 -1040 1097 -767 -648 27 130 -745 608 445 -209 -6 314 -783 1288 939 -440 444
378 -273 814 -247 -57 -826 95 -216 87 -883 -41 -52 521 126 -1030 -932 -268 -859 633 418 -984 -432 -422 -780 566 651 435 669 -1031 352 -335 818 -520 138 188 -841 -442 -545 521 680 -733 -86 14 173 561 282 897 -888 -51 192
-113 616 343 178 -970 -470 524 619 65 1051 370 -653 -63 832 -355 -458 191 504 15 73 693 659 360 -603 -141 -24 537 686 -219 -474 -873 1064 -892 -419 -152 -271 489 -1206 71 567 -196 -75 145 -1258 119 -563 -43 -100 353 -265
-451 358 723 138 320 135 744 -183 -972 1131 740 -482 608 476 297 464 -712 940 1097 518 467 431 -716 -591 -799 252 624 626 -253 784 -142 344 -536 -613 43 -192 8 274 -426 -210 508 378 -307 -415 -570 713 1865 -175 612 790
-475 -1284 649 -1255 -1205 45 -542 -2758 -1256 1321 2112 -971 928 -417 -1297 1197 144 1251 1978 731 -934 519 617 1314 705 2560 579 419 -764 993 -216 -901 -372 -439 -1082 924 1148 1115 52 -750 221 -422 687 -826 -1662 -611 2806 145 -608 278
425 -648 -635 -377 -1028 -881 -92 -1673 -2473 2392 1299 -1286 1378 -813 -1268 813 167 2369 2954 1386 -530 160 987 1922 26 1989 1921 869 325 177 -26 -2094 23 -2186 -1111 678 878 484 -991 208 204 -1086 215 -1219 -1857 74 2556 453 469 1163
3 -1351 -281 -870 -29 130 -609 -2343 -869 863 1953 -502 2718 40 -1302 1641 328 2136 3075 902 -386 470 -233 1579 727 1563 961 150 -1068 -243 -48 -2208 -488 -1030 -655 1314 1932 181 -528 -414 -898 -1713 1359 -952 -2771 -185 597 646 -554 1664
462 -635 277 -49 -432 570 -765 -2731 -409 1086 538 -1053 2212 -488 -241 620 -383 1178 2580 726 811 -1026 76 999 708 2614 -408 293 -425 -377 -767 -1053 1055 -481 638 -464 1639 91 42 539 -514 -358 202 -464 -939 -764 1866 696 282 1759
750 -216 -55 -418 -371 -370 -579 -418 -845 214 987 -1438 1903 -1024 -1318 555 -1164 1043 1114 -564 -474 -126 1049 1188 -122 1498 15 1392 -553 -389 -376 -1430 336 -928 1739 -796 464 54 227 359 -130 62 1101 -272 -1888 656 1576 2238 -823 749
1921 -993 16 -566 -1830 -130 1005 -1958 310 130 95 -420 540 -535 -1620 1915 -957 668 1558 -452 229 -711 236 314 -130 2119 -1032 1322 -2053 854 -96 -2171 298 -1317 113 86 1311 630 -70 -422 298 -247 -113 -208 -1357 433 21 1423 -169 2075
1814 413 373 -703 -1508 600 298 -1558 468 520 356 -546 1078 -1432 -1563 2055 -606 1011 782 -40 -1324 -691 -31 444 965 2476 -45 1740 -828 -217 -268 -1023 -34 520 1057 27 865 1273 -1319 -1231 1717 1303 696 -1117 136 -1085 895 1820 -974 786
132 -814 74 -1082 -1015 509 1234 -660 -939 142 39 -788 -126 -784 -1110 2022 -730 504 1088 1209 -720 -637 -259 458 436 980 -154 1443 -479 914 210 -481 -116 -95 1598 -1141 778 645 -633 173 -183 620 14 -879 -1492 -1228 -788 1911 -162 708
1186 436 -605 -840 -2271 147 69 -1382 494 420 180 -670 -628 -211 -1605 3296 -871 1841 314 1121 -200 -2369 -168 1423 1444 1982 -500 770 -1566 -273 -493 -249 -1480 142 1550 -1321 1804 2306 -113 -1635 877 492 1277 -420 34 -1053 421 550 -420 2017
1761 169 -999 -1010 -2798 -274 1729 -1326 374 585 -745 -1099 -481 -583 -1492 2700 -505 1771 -893 495 -1172 -635 890 -31 1065 2054 -1315 508 -909 360 524 -803 -1168 657 366 -2014 2707 1464 -1571 -1310 1169 1053 1027 -1506 -940 446 412 1267 -1989 1450
-1043 975 854 285 1662 510 1453 512 879 711 483 299 -1132 -313 968 -471 -675 24 32 -43 -1165 -526 723 -447 -484 -308 906 -2023 -475 746 -605 -1318 -634 -309 -97 276 -1365 659 -763 -270 621 -578 -186 1335 -301 -1469 -1229 -85 227 604
-179 -938 1099 -1022 1461 56 430 -375 1110 201 -186 450 -463 697 796 -810 -701 -1588 -974 -799 377 25 -64 0 200 -439 798 -1440 -137 89 292 -250 555 -1162 556 584 131 1276 73 -203 261 -436 -1376 639 26 419 -1287 929 -307 -512
-788 320 294 -288 1848 -906 787 174 1491 -1486 370 394 -871 178 948 -502 -595 -1202 -1763 -856 368 -1241 -83 1323 177 -755 543 -1721 216 680 -1268 -45 1203 25 573 150 -19 423 336 90 1697 -185 -363 1429 -1167 -830 -1190 365 -61 -293
937 60 -198 -438 49 -120 -886 -138 1021 -600 1044 517 -1557 -855 847 -271 -176 -230 192 -1024 -131 -692 158 186 1364 -288 471 -1094 -560 669 -1284 -1380 -338 -502 1053 -826 -533 1248 150 367 -428 -1063 385 372 -984 -459 -932 53 -468 826
546 188 85 411 -482 -1693 -2061 359 2198 -992 50 732 -380 -922 778 1259 1277 -440 -616 -253 1350 -728 134 713 1303 336 1544 -1275 -54 -230 -915 -228 -416 -1065 1246 -328 6 -718 558 782 -1916 -1362 -389 -363 -763 -407 -664 -185 -656 -656
-568 -271 1596 -650 -287 -1931 -2460 -128 1970 -798 -555 1034 -363 113 207 210 -1034 -738 -348 -943 1110 -2810 1282 1243 1505 -826 546 526 -162 312 -20 -292 -879 260 1553 1064 1015 -963 2023 538 -1143 -1949 -1128 1419 -537 -1260 11 926 -1553 939
-570 -620 257 -739 -1026 -1623 -3394 -1493 2204 -1383 -1250 1377 -1529 608 1491 821 -217 1006 -150 -1063 2969 -2805 -588 551 3000 -1019 866 -119 452 209 -103 -1132 -550 1045 2095 526 973 -300 1603 943 -1269 -447 151 1513 -167 611 148 -126 -888 1460
161 -947 -992 -1228 -1236 -1561 -4044 -1881 2106 -492 -2550 226 -513 -1499 780 410 -743 -886 -993 -802 1685 -2046 153 813 2739 -783 -455 492 479 -687 -314 -148 -1133 1126 999 266 850 -1163 1746 1301 -446 1184 -254 1358 662 1240 647 -223 -1383 -277
499 -2342 837 -966 -1070 -177 -2765 -1725 2035 -473 -1986 466 -62 -33 1168 -1764 -2124 -2219 829 -267 633 -1834 -137 2186 891 -39 152 561 -953 -211 729 -402 -424 -1916 1061 -290 687 -1785 3274 690 2288 1478 -379 -260 643 593 563 3 133 -416
2079 2779 -1990 -675 -2035 1036 38 398 878 952 -2478 224 9 -1837 636 490 1142 -1361 -509 1990 -2758 -566 213 463 -1142 775 -1108 -2293 -452 -851 366 -598 -1726 -2248 -1460 1371 1252 506 538 -75 2449 -1059 793 -319 871 -1361 14 -121 2845 1058
493 1285 42 163 -1235 237 965 74 -894 -389 968 -1108 671 578 -123 318 1354 -19 1566 402 279 1404 692 1196 1857 331 -1154 -1535 -460 135 -547 -1110 -1513 -120 -1399 181 -222 1798 -1462 -255 246 -1305 -535 -1267 305 -621 -344 -498 970 796
1494 -407 302 -1422 -5 180 1137 -418 431 329 -1109 -579 -719 622 -309 1124 107 -655 826 -978 -24 1273 -433 1035 1593 331 635 -1828 327 -326 -906 -574 -908 -7 -630 211 61 1117 -979 -235 521 -1793 -610 983 246 -1044 1430 -503 -34 394
-328 -1445 -1068 -1272 359 -142 185 58 -717 -2486 -548 -180 -2441 -1138 2273 231 -155 -95 -52 -1425 91 -2929 -754 -1404 624 1897 -148 -402 2075 -163 -2962 -1546 58 -64 4220 -853 128 1231 2107 1395 663 800 31 417 -694 2130 -472 561 -1380 1588
