3
23 90
0.0 0.0 -0.0 0.43595165 0.0 0.0 -0.0 -0.0 -0.0 0.0 0.0 -0.0 -0.0 0.0 -0.0 0.0 -0.0 -0.0 -0.0 -0.0 -0.0 -0.0 -0.0 0.0 0.0 -0.0 0.0 -0.0 0.0 -0.0 -0.0 0.40469232 -0.0 -0.0 0.0 0.0 0.0 -0.0 0.0 -0.0 0.0 -0.0 0.53555334 -0.0 0.0 -0.0 0.0 -0.0 -0.0 0.0 0.0 -0.0 0.0 0.0 0.0 0.0 -0.0 0.53363717 -0.0 -0.0 0.0 0.0 -0.43752772 -0.0 -0.0 0.0 -0.0 0.0 0.0 -0.0 -0.0 0.0 -0.0 0.5501061 -0.0 -0.0 -0.0 -0.0 -0.0 0.0 -0.0 0.0 -0.0 0.0 0.45464638 0.0 0.0 0.0 -0.0 -0.0
0.0 -0.0 0.0 -0.0 0.0 0.0 -0.0 0.0 -0.0 0.0 -0.5922321 0.0 0.0 0.0 0.0 -0.0 0.0 0.0 0.0 -0.0 0.0 0.0 0.0 -0.0 0.0 0.0 0.0 0.0 -0.0 0.0 0.0 -0.42237908 0.0 0.0 -0.51219213 -0.0 0.47512725 -0.0 -0.46913278 0.0 -0.0 0.0 -0.0 0.0 -0.0 0.0 -0.0 0.0 0.0 -0.0 0.0 0.0 -0.0 0.0 -0.0 0.0 -0.0 0.0 0.0 0.0 0.0 -0.0 0.0 0.0 0.0 -0.0 0.51154137 0.0 0.0 -0.0 0.0 -0.0 -0.0 -0.0 -0.0 -0.0 -0.0 0.0 0.0 -0.0 0.0 0.0 0.0 0.0 0.48424524 -0.0 0.0 -0.0 -0.0 0.0
-0.0 -0.0 -0.0 -0.0 0.0 0.0 0.0 -0.0 0.0 0.0 0.0 -0.0 0.0 0.0 -0.0 0.0 0.0 0.0 0.0 -0.42923766 -0.0 -0.0 0.0 0.0 0.43959275 -0.0 -0.0 -0.0 0.0 0.0 -0.0 -0.0 -0.0 0.4023674 0.455849 0.0 0.0 0.42911234 0.0 0.0 0.0 -0.0 0.6537786 -0.0 -0.43366915 -0.0 0.0 -0.0 0.0 -0.0 -0.40978146 -0.0 -0.45605874 0.0 0.49554476 0.0 -0.0 0.4818933 -0.0 -0.0 -0.0 0.0 -0.0 0.6071201 -0.0 -0.0 -0.51372164 -0.0 -0.52227026 0.0 0.5166981 -0.0 0.0 0.49076113 -0.0 0.0 0.0 0.0 0.5665175 0.0 0.0 -0.0 0.5230243 0.47489342 0.0 -0.5139619 -0.0 -0.0 0.0 -0.41154036
0.0 0.0 0.5177252 0.49241284 -0.0 -0.0 -0.0 -0.0 0.0 -0.0 -0.0 0.0 -0.56784344 -0.0 -0.0 0.4183976 -0.0 -0.0 -0.0 -0.0 -0.0 -0.0 0.0 0.0 0.6156669 0.0 -0.0 0.0 0.5351581 -0.60838795 -0.57790345 -0.0 -0.0 -0.5657264 0.56953377 -0.0 0.5258059 0.5427078 0.0 -0.0 0.0 -0.0 0.0 0.0 0.0 -0.0 0.43676195 -0.0 0.0 0.0 -0.0 -0.46689564 0.0 -0.0 0.0 -0.0 -0.0 0.0 0.0 0.0 0.0 -0.0 -0.0 -0.0 -0.0 0.0 -0.0 0.0 -0.48209956 0.0 -0.4819242 0.0 0.4813907 0.0 0.0 0.56844956 0.37749544 -0.0 -0.0 -0.0 0.4219297 0.0 -0.6525748 0.0 -0.0 0.0 -0.0 0.0 0.5361679 -0.4702045
0.0 -0.0 -0.0 -0.0 0.0 -0.0 0.0 0.0 -0.0 -0.0 0.0 -0.0 0.0 0.41749135 0.0 -0.0 0.4262746 0.4017231 0.0 0.49973634 0.0 -0.0 0.0 -0.0 -0.5223755 0.0 0.0 0.48376313 -0.0 0.4250503 0.0 -0.0 -0.0 0.0 -0.0 -0.0 -0.0 -0.0 -0.0 -0.0 0.5051703 -0.0 -0.0 -0.0 0.0 -0.55218697 -0.0 0.0 -0.0 -0.0 0.0 0.4768488 0.0 -0.0 0.0 0.0 0.0 -0.0 0.0 -0.0 0.0 0.0 -0.0 -0.0 -0.0 -0.0 0.0 0.0 0.0 -0.0 -0.0 0.0 -0.0 -0.0 -0.0 -0.0 -0.0 -0.0 0.0 0.0 -0.51062727 0.0 0.0 -0.0 0.5283843 0.0 -0.0 0.0 -0.0 0.0
-0.42816073 0.0 -0.0 0.0 0.0 0.0 0.0 0.0 -0.0 0.0 -0.5016529 -0.0 -0.0 0.0 0.0 0.0 -0.0 -0.0 0.0 0.0 0.0 0.6257081 -0.0 -0.0 -0.0 0.0 0.0 0.0 0.0 0.0 0.0 0.0 0.0 0.0 -0.0 0.0 0.4658197 0.0 -0.40415493 -0.0 0.4203566 0.5513264 -0.0 -0.0 -0.0 -0.0 0.0 0.0 -0.0 -0.0 -0.0 -0.0 0.0 0.0 -0.40132254 0.0 0.0 -0.0 -0.0 -0.0 -0.42344654 -0.0 -0.0 0.0 -0.0 -0.0 0.0 -0.50895137 -0.0 -0.0 0.0 -0.0 -0.0 -0.0 -0.0 -0.0 -0.0 0.48734543 0.48727962 -0.4707873 0.41764066 -0.0 0.0 -0.0 0.0 -0.43978107 -0.0 -0.0 -0.0 -0.0
-0.0 -0.0 0.0 0.0 0.0 0.0 -0.0 0.48201197 0.0 -0.0 -0.0 -0.0 -0.0 0.0 -0.0 0.0 0.0 -0.0 0.0 -0.0 0.4471152 -0.0 0.0 -0.0 0.0 0.0 -0.0 0.0 0.0 0.0 -0.0 -0.0 -0.0 0.0 0.0 -0.0 -0.0 0.0 -0.0 0.0 0.0 -0.0 -0.0 0.0 -0.40177655 -0.0 0.0 0.0 0.0 0.0 0.0 0.0 -0.0 -0.0 -0.0 0.0 -0.0 0.0 0.0 0.0 -0.0 -0.0 0.0 0.0 -0.0 0.0 0.0 0.0 0.0 -0.0 -0.0 0.0 -0.0 -0.0 0.0 -0.0 0.0 -0.0 0.0 -0.0 -0.0 0.0 0.0 -0.43954268 0.0 0.0 0.0 -0.5611922 -0.0 -0.0
0.0 0.0 0.4334915 -0.0 0.39120084 -0.0 -0.4912631 -0.0 -0.0 0.0 -0.0 -0.0 0.0 -0.0 0.0 0.0 -0.0 -0.0 -0.0 0.0 -0.0 -0.0 -0.0 0.0 -0.0 -0.0 0.0 0.50267375 0.0 -0.0 -0.55399007 -0.0 -0.0 -0.0 0.0 0.0 0.0 -0.0 -0.0 -0.0 0.0 -0.0 0.52564204 0.48597425 -0.0 -0.0 -0.0 0.0 -0.0 -0.0 0.0 0.0 0.0 0.4655291 -0.0 -0.0 -0.0 0.0 0.5026772 0.5283568 0.47239143 0.0 0.0 -0.0 0.42098477 -0.0 -0.0 0.0 0.0 -0.44425315 -0.0 0.0 -0.4962087 0.0 -0.0 -0.0 -0.0 -0.0 -0.0 -0.0 0.0 -0.0 -0.0 0.0 0.0 0.0 0.55583143 -0.0 -0.57674605 0.0
0.0 -0.0 0.0 0.0 -0.0 -0.0 0.0 -0.0 -0.42798606 0.0 0.0 -0.48339307 0.0 0.50431174 0.0 -0.0 0.0 0.0 0.43002364 0.0 -0.0 0.44061616 -0.0 0.0 -0.0 -0.0 0.0 0.4444034 0.0 -0.0 -0.0 -0.0 0.5964532 -0.0 -0.0 0.0 0.43853357 -0.0 0.0 0.0 0.0 0.45796633 -0.0 0.0 0.0 0.0 -0.0 0.47466618 -0.0 0.0 -0.0 -0.0 -0.49582896 0.5362026 -0.0 -0.0 0.0 -0.0 0.0 0.0 0.0 0.47191232 -0.0 0.0 0.58034235 -0.0 0.0 -0.0 0.0 0.0 0.0 -0.0 -0.46973398 -0.0 -0.0 -0.0 -0.0 0.0 -0.0 -0.47258756 0.0 -0.0 0.0 0.0 0.0 0.0 -0.0 0.0 -0.5794366 0.0
-0.0 0.0 0.0 0.0 -0.0 -0.0 0.0 0.5094345 -0.0 -0.0 -0.0 0.0 0.0 -0.0 0.0 -0.0 -0.517124 -0.5533794 0.0 -0.44525325 0.0 0.0 0.0 -0.6178314 0.0 0.49857715 0.0 -0.0 -0.0 -0.0 0.0 0.0 -0.0 0.0 0.0 0.0 -0.0 -0.0 -0.0 0.0 -0.0 -0.44158617 0.0 0.0 -0.0 0.0 0.47505513 -0.0 -0.0 -0.0 0.0 -0.0 -0.0 -0.0 0.0 0.38288444 0.0 0.0 -0.0 0.0 0.0 -0.0 -0.0 -0.0 -0.4400756 -0.0 -0.0 0.0 0.0 -0.0 0.0 0.0 -0.0 0.0 0.0 -0.0 -0.0 -0.5231928 -0.0 -0.0 0.0 0.42917302 -0.0 -0.0 -0.0 0.0 -0.0 -0.0 -0.0 0.0
0.0 -0.0 0.0 0.0 -0.0 -0.0 0.0 0.0 -0.0 0.0 -0.0 -0.0 0.0 0.0 0.0 0.0 0.0 -0.0 0.5247895 0.0 -0.0 -0.0 -0.0 -0.5626353 -0.0 -0.0 0.0 0.0 0.0 0.0 -0.0 0.0 0.0 -0.0 0.0 0.0 0.0 -0.0 -0.0 -0.0 0.0 -0.0 0.0 0.0 -0.0 -0.0 -0.0 0.0 -0.0 -0.0 -0.0 0.0 0.0 0.0 0.0 -0.0 0.0 -0.0 0.0 0.0 0.0 0.0 -0.0 0.0 0.0 -0.0 -0.0 0.0 -0.0 0.0 0.0 0.0 0.0 0.0 -0.0 0.0 -0.0 -0.0 0.4276639 -0.0 -0.0 -0.0 -0.0 0.0 0.0 0.0 -0.0 -0.40962765 0.0 0.0
-0.0 0.0 -0.0 -0.0 0.0 0.0 -0.52900565 0.0 0.0 0.0 0.47311786 -0.0 -0.0 0.0 -0.49193364 0.0 0.0 0.57620955 0.0 0.0 -0.0 0.0 -0.0 -0.0 0.0 0.0 -0.43555638 0.43085012 0.0 0.0 0.0 0.0 -0.0 0.0 0.0 -0.0 0.0 0.0 -0.0 0.7155837 -0.0 0.0 -0.0 -0.0 -0.0 -0.0 -0.0 0.0 0.0 -0.0 -0.0 0.0 -0.0 0.0 0.0 0.0 -0.0 -0.0 0.0 0.0 -0.0 0.0 -0.0 0.0 0.0 -0.0 -0.0 -0.0 -0.0 -0.0 0.0 -0.0 0.0 -0.0 -0.0 -0.0 0.0 0.584053 0.0 -0.0 -0.0 -0.0 0.0 0.0 0.0 -0.0 0.66806656 -0.0 -0.0 -0.0
0.0 0.0 -0.0 0.0 -0.0 -0.43992162 0.0 0.0 -0.0 -0.42503875 0.0 0.0 -0.0 0.0 -0.0 0.0 -0.0 -0.0 0.58679616 0.0 0.58047587 -0.0 0.42402574 -0.47167644 -0.0 0.57146096 0.0 0.0 0.0 -0.71196413 -0.0 -0.49759352 -0.0 0.0 0.0 -0.42438602 0.0 0.0 0.0 0.0 -0.0 -0.0 -0.0 0.5212879 -0.0 0.5440547 0.0 0.0 -0.0 0.0 0.0 0.0 0.0 -0.0 0.0 0.0 -0.0 0.0 -0.0 0.44570005 0.0 -0.0 0.38564077 -0.0 -0.0 0.0 -0.0 0.0 0.0 0.65276366 0.0 0.0 0.0 0.0 0.48270845 0.54875284 0.0 -0.0 -0.0 -0.0 -0.0 0.0 -0.46765798 -0.4310894 0.0 0.0 -0.53026867 0.0 0.0 -0.0
0.0 0.4522922 -0.0 -0.0 -0.0 -0.0 -0.0 0.0 -0.0 -0.0 -0.0 0.0 0.0 -0.0 0.439394 -0.0 -0.0 0.0 0.0 -0.0 0.0 -0.0 0.0 -0.0 0.0 -0.0 0.0 -0.0 -0.0 0.0 0.0 -0.0 -0.4867087 0.0 -0.0 -0.0 -0.0 -0.0 0.0 -0.0 -0.0 -0.0 0.0 0.0 -0.0 0.0 -0.0 -0.0 0.0 0.0 0.0 0.0 -0.5002706 -0.0 0.0 -0.5915278 -0.415125 0.0 -0.0 -0.0 0.0 -0.0 0.0 0.518771 0.0 -0.0 -0.0 0.0 0.0 0.0 0.0 0.0 -0.0 0.0 0.45848596 -0.0 -0.0 -0.0 0.0 0.0 -0.0 0.0 0.0 0.0 -0.0 -0.0 0.0 -0.0 -0.0 0.0
0.0 0.44603235 -0.48815802 0.0 -0.66600513 -0.0 0.0 0.0 0.0 0.0 0.0 0.0 0.0 -0.0 -0.0 -0.5515919 0.0 0.0 -0.0 -0.0 -0.0 -0.0 0.57379454 0.0 0.55342394 -0.0 -0.55427027 -0.0 0.0 0.0 0.0 0.0 -0.0 0.54208654 0.0 -0.5306761 0.0 -0.0 0.0 -0.0 0.0 0.0 -0.0 -0.54921913 0.0 -0.0 0.0 0.0 0.57518816 0.0 0.0 0.0 0.0 -0.0 -0.0 0.0 -0.0 -0.0 -0.0 -0.48777065 0.0 -0.0 -0.0 -0.0 -0.0 0.0 -0.0 -0.0 0.0 0.0 -0.0 -0.0 0.56559575 -0.0 -0.0 -0.0 0.0 -0.0 -0.0 0.0 -0.0 0.0 0.0 -0.0 -0.0 0.0 0.0 0.0 0.0 -0.0
0.0 0.0 -0.0 0.0 -0.0 -0.0 -0.4115929 0.0 0.0 -0.5743672 0.0 0.5282517 0.0 -0.0 -0.0 0.0 0.0 -0.0 -0.0 0.0 -0.0 0.0 0.0 0.0 -0.0 0.46503878 -0.0 -0.0 0.0 -0.0 0.0 0.0 -0.4394414 -0.0 0.0 -0.5007979 0.0 0.0 0.0 0.5709435 0.0 -0.0 0.0 -0.0 -0.0 -0.0 0.0 0.0 0.0 0.6170284 -0.0 -0.0 0.0 -0.0 0.0 0.0 -0.0 -0.0 -0.0 -0.0 0.0 0.0 0.466212 0.0 -0.0 0.6076987 -0.0 0.0 -0.0 0.0 -0.0 -0.40922442 0.0 -0.0 0.49610236 0.0 0.0 0.5959115 0.0 -0.0 0.0 -0.0 -0.0 0.0 0.0 -0.0 -0.0 -0.0 0.0 -0.5246955
-0.46038225 0.0 -0.0 0.0 -0.0 -0.0 0.0 -0.0 0.57769984 -0.0 0.0 0.0 -0.0 -0.0 -0.55693924 -0.0 0.616861 -0.0 0.0 -0.0 -0.0 0.0 0.5645573 -0.0 0.0 0.0 -0.4652859 -0.0 0.0 -0.0 -0.0 0.0 -0.0 0.0 0.0 -0.0 0.0 -0.0 0.0 0.48588607 0.0 -0.0 0.0 -0.0 0.0 0.0 0.0 -0.0 0.5362152 0.0 -0.0 -0.0 -0.0 -0.0 0.0 0.0 -0.48107725 -0.0 0.41773075 -0.0 -0.43996117 -0.0 -0.0 -0.0 -0.0 0.0 -0.0 -0.40596637 -0.0 0.0 -0.0 -0.6232627 0.0 -0.46949813 0.0 0.0 0.0 0.43043235 -0.0 -0.0 0.0 -0.0 -0.0 0.0 -0.0 -0.46571955 -0.0 0.0 0.0 -0.0
-0.0 0.0 -0.0 -0.0 -0.0 0.0 0.0 -0.0 0.0 0.0 -0.0 -0.0 0.0 0.0 -0.0 -0.0 0.0 0.0 -0.0 0.0 -0.0 0.0 -0.0 0.0 -0.0 -0.0 -0.0 0.0 0.0 0.0 0.0 0.0 -0.0 0.0 -0.0 0.0 0.0 0.0 0.0 -0.0 0.0 0.0 -0.0 -0.0 -0.50258845 -0.0 -0.0 0.0 -0.0 -0.0 -0.0 0.0 -0.0 0.0 0.0 0.0 0.0 -0.0 -0.0 -0.0 -0.0 0.0 0.0 0.0 0.0 -0.44308612 -0.0 -0.0 -0.0 0.0 0.0 -0.0 0.0 -0.0 -0.0 0.0 0.0 0.0 -0.0 -0.0 -0.0 -0.4877862 0.0 -0.45731175 0.0 -0.0 -0.0 -0.0 -0.0 0.0
0.0 -0.0 -0.0 0.56609005 -0.0 -0.90847754 -0.0 -0.41276482 0.0 -0.0 0.0 0.0 0.43618393 0.0 0.0 -0.0 0.0 0.0 0.0 0.5076755 0.0 0.0 0.0 -0.0 -0.0 0.0 0.0 0.0 -0.0 -0.4153439 0.0 0.0 0.52395844 0.0 0.0 -0.0 -0.0 0.0 -0.42665026 0.0 -0.0 0.0 -0.0 0.0 -0.0 0.4954337 -0.5038515 0.0 0.0 -0.0 -0.5149562 0.0 -0.0 0.0 0.0 0.0 -0.0 -0.0 0.0 0.0 -0.0 0.0 0.0 0.0 0.0 -0.43357998 -0.0 0.0 -0.0 0.44687212 0.0 -0.0 0.0 -0.0 0.0 0.0 -0.0 0.0 0.0 -0.0 -0.0 -0.42313367 0.0 0.0 -0.0 -0.0 0.0 -0.0 -0.0 0.0
0.55469704 0.42561367 0.0 0.0 -0.0 0.0 -0.0 -0.0 -0.44311264 0.0 -0.0 -0.0 -0.0 0.0 0.723598 -0.0 -0.0 -0.0 0.0 -0.0 0.0 -0.0 -0.0 0.0 -0.44474906 -0.0 0.0 -0.0 -0.0 -0.0 -0.45210937 0.0 0.0 -0.0 0.0 0.0 0.0 -0.0 0.0 -0.53202134 0.0 -0.0 0.0 -0.0 0.0 -0.0 0.0 0.0 -0.0 0.0 -0.0 0.0 0.0 0.0 0.0 0.0 -0.0 -0.0 0.0 0.0 0.51350284 -0.0 0.0 -0.0 -0.0 0.0 0.0 0.44350097 -0.51130825 -0.0 -0.0 0.0 -0.0 0.0 -0.0 0.5172393 0.46918675 -0.0 -0.0 0.0 0.0 -0.0 0.0 0.0 -0.0 0.0 0.0 0.0 -0.0 -0.0
0.0 0.0 -0.0 0.0 -0.48685676 -0.37790865 -0.0 0.0 0.0 0.0 -0.0 -0.0 -0.0 -0.5049509 -0.0 -0.5805014 0.0 -0.0 -0.0 -0.0 0.49343643 -0.0 0.0 0.0 0.0 -0.0 -0.0 -0.0 -0.46197078 -0.0 -0.0 0.0 -0.0 0.0 -0.0 0.0 -0.0 -0.4118713 0.0 0.0 -0.0 -0.0 -0.0 -0.0 -0.0 -0.0 0.0 0.0 0.0 0.0 0.0 0.0 0.0 -0.0 -0.0 0.0 0.0 -0.0 0.0 -0.0 0.0 -0.0 0.0 -0.0 -0.0 -0.0 0.0 0.0 0.0 -0.0 -0.0 0.47536802 0.0 0.0 -0.0 -0.0 -0.53449845 -0.0 -0.0 0.0 -0.0 0.0 -0.0 0.0 -0.0 0.0 0.0 0.0 -0.0 -0.0
-0.0 0.0 0.0 -0.0 0.0 0.0 -0.0 -0.0 0.0 0.0 -0.0 -0.0 -0.0 -0.0 -0.0 0.0 0.0 0.0 -0.0 -0.0 -0.0 0.0 0.0 0.0 0.43222567 -0.0 -0.0 0.0 -0.5229082 0.0 0.0 0.0 0.0 0.0 0.0 0.0 0.0 0.0 -0.0 0.0 0.0 0.0 0.0 0.0 -0.0 -0.0 0.0 -0.5520806 0.0 -0.0 -0.0 -0.0 -0.0 0.0 0.0 -0.0 -0.0 0.0 0.0 0.0 -0.0 -0.0 -0.0 0.0 0.0 0.0 -0.0 -0.0 0.0 -0.0 0.0 -0.0 -0.0 0.0 -0.0 -0.0 0.0 0.0 0.0 -0.0 0.0 -0.0 -0.0 0.0 0.0 -0.0 0.0 -0.0 -0.0 0.0
-0.0 -0.0 0.0 -0.0 0.0 0.0 -0.0 0.0 -0.0 0.48504627 -0.0 -0.0 0.5414143 0.0 0.0 0.0 0.0 0.0 0.0 -0.0 -0.0 0.5751757 0.0 0.0 -0.0 0.0 0.0 0.0 0.0 0.0 -0.0 0.0 -0.0 -0.0 0.0 -0.0 -0.0 -0.0 -0.0 -0.0 0.50328565 0.0 -0.41311383 0.0 -0.0 -0.0 0.0 0.0 0.0 -0.5529129 0.0 0.0 -0.0 0.0 -0.0 0.0 0.0 0.0 0.0 0.0 -0.0 0.5375801 0.0 0.0 0.0 -0.5021924 0.0 0.0 0.0 -0.0 0.54614604 -0.0 -0.0 -0.0 0.0 -0.0 -0.0 -0.0 0.0 -0.429534 -0.0 -0.47689757 0.0 -0.0 0.0 -0.0 -0.0 -0.57115537 -0.0 0.0
-0.18105888 -0.2576675 0.07217464 -0.35990238 -0.2025833 -0.008890694 -0.0014207306 -0.20072836 0.20483665 0.10152813 -0.29695868 0.13201745 0.113163084 -0.5255622 -0.3748851 -0.1669252 0.059632245 0.28439915 -0.06158866 -0.24209781 -0.07928408 -0.12594187 0.10229381 -0.013986964 -0.082767226 -0.17557962 0.10200128 -0.36276734 0.026490366 0.12541138 -0.0029705532 0.43291837 -0.38161048 0.026948243 -0.38418084 0.00624096 0.03446421 -0.16107637 -0.18620877 0.22326419 -0.06904977 -0.12701613 0.18583426 -0.07198791 0.22794162 0.075619645 -0.12280975 -0.11348529 0.05981263 0.049993783 0.11010003 -0.087813534 0.19903639 -0.07814478 0.23074697 -0.18875466 -0.041799076 0.12951538 0.025214465 -0.056312483 -0.17907712 -0.044695493 -0.16759437 -0.3415693 -0.0055057886 -0.18932705 -0.009380875 -0.49215823 0.45267993 0.5070036 -0.17394802 0.032331973 0.48066908 0.38816294 0.2820859 -0.16906759 0.044086803 -0.018516479 -0.047323115 0.20582575 0.20983179 -0.034261797 0.10084328 -0.005203506 0.6398684 -0.04582077 0.16304657 0.446887 0.13005699 -0.015246746
2
90 30
-0.39754403 0.31736216 0.0 0.0 0.0 -0.0 0.0 -0.0 0.0 -0.0 -0.0 0.0 0.0 -0.0 -0.0 -0.0 -0.0 0.0 -0.0 -0.0 0.0 -0.0 -0.0 -0.0 0.0 -0.0 -0.0 -0.0 0.0 0.0
0.0 0.0 -0.30174607 0.0 0.0 0.0 0.0 -0.0 0.0 -0.0 -0.0 0.0 -0.0 0.0 -0.0 -0.0 -0.0 -0.3210261 -0.0 -0.37653968 0.40146565 -0.0 -0.0 -0.0 -0.0 -0.0 -0.0 -0.0 0.0 0.0
-0.0 -0.32216957 0.0 -0.0 -0.0 -0.0 0.0 0.0 0.0 -0.0 0.0 -0.0 0.0 -0.0 0.3868018 0.0 -0.0 0.35136566 -0.0 0.0 -0.4891425 0.0 -0.0 0.0 -0.0 -0.0 -0.0 -0.0 0.0 0.0
-0.0 0.0 -0.0 -0.0 0.0 0.5391169 0.0 0.0 -0.0 0.46622998 -0.0 0.0 -0.0 0.0 -0.0 -0.0 -0.6408048 0.6885219 -0.0 -0.0 0.0 0.5198427 -0.0 -0.0 -0.0 -0.0 -0.0 -0.0 0.0 0.0
-0.0 0.0 0.0 -0.0 -0.0 -0.44185412 -0.0 0.0 0.0 -0.0 0.0 -0.0 0.0 -0.0 0.36390916 0.0 -0.0 -0.0 0.0 0.0 -0.0 0.0 -0.0 0.38217282 -0.0 -0.0 -0.0 -0.0 0.0 0.0
0.52661157 0.0 0.0 0.6259656 0.48138705 -0.0 0.0 -0.0 0.0 -0.0 -0.0 -0.0 0.0 -0.4996966 -0.0 -0.0 -0.0 0.0 -0.0 0.0 0.43571177 0.0 -0.0 -0.0 -0.0 -0.0 -0.0 -0.0 0.0 0.0
0.0 0.0 -0.29618832 -0.0 0.0 -0.0 0.0 0.0 0.0 -0.0 -0.0 0.0 -0.0 0.0 -0.0 0.0 -0.0 0.0 -0.0 0.0 -0.0 -0.0 -0.0 -0.0 0.0 -0.0 -0.0 -0.0 0.0 0.0
0.0 0.0 0.0 0.0 0.0 -0.0 0.50521886 0.0 -0.5537182 -0.0 -0.0 0.0 -0.4179859 -0.0 -0.0 -0.0 0.33204302 -0.0 -0.0 0.33323166 0.0 -0.412705 -0.0 -0.0 0.0 -0.0 -0.0 -0.0 0.0 0.0
0.0 0.0 0.0 -0.0 0.37318602 -0.0 0.0 -0.0 0.0 -0.0 -0.41854572 -0.0 0.0 0.0 -0.0 0.3507213 -0.0 -0.0 -0.36236304 -0.0 0.0 -0.0 -0.0 0.0 -0.0 -0.0 -0.0 -0.0 0.0 -0.0
0.0 -0.33907777 0.0 0.0 0.0 -0.0 0.0 -0.30221334 0.0 -0.0 -0.0 0.0 0.0 -0.39571792 -0.0 0.0 -0.0 -0.0 -0.0 0.0 -0.0 -0.0 -0.0 -0.0 0.0 -0.0 -0.0 -0.0 0.0 0.53659767
-0.0 0.0 0.0 -0.0 0.0 0.0 0.0 -0.0 0.0 0.0 -0.0 -0.0 0.0 0.0 -0.0 -0.37503055 -0.0 -0.39143056 -0.0 -0.0 0.51222926 -0.0 0.0 -0.0 -0.0 0.32648042 -0.0 -0.0 0.47569022 -0.0
0.0 0.0 0.0 -0.0 0.0 -0.0 0.0 -0.0 0.0 -0.0 -0.36163098 -0.0 0.0 0.0 -0.0 0.0 -0.0 -0.0 -0.0 -0.29749146 0.0 -0.0 -0.0 0.0 -0.0 -0.0 -0.0 -0.0 0.0 -0.0
-0.0 0.0 0.0 0.0 -0.4414095 -0.0 -0.4765657 -0.0 0.0 -0.0 -0.0 -0.0 0.0 -0.0 -0.0 0.0 -0.0 -0.0 0.0 -0.0 -0.0 -0.0 -0.0 -0.34070274 -0.0 0.5018024 -0.0 0.0 0.0 0.0
-0.0 0.0 0.0 -0.0 -0.0 -0.4081137 -0.0 0.0 0.3508384 -0.0 -0.0 0.0 0.0 0.0 0.53217155 -0.0 -0.0 -0.0 0.0 0.0 0.0 -0.0 -0.0 0.0 -0.31764406 0.0 -0.0 -0.0 0.0 -0.0
-0.0 0.0 0.0 -0.0 0.0 -0.0 -0.47754592 -0.0 -0.0 -0.0 -0.0 0.0 0.0 -0.0 -0.0 -0.0 -0.0 -0.0 0.42957497 0.0 0.0 -0.3427657 -0.0 -0.0 -0.0 -0.0 -0.0 -0.0 0.0 0.0
-0.0 0.0 0.0 -0.0 -0.0 -0.0 0.0 0.0 0.0 -0.0 -0.0 -0.0 0.0 0.0 0.38725087 0.0 -0.0 -0.0 -0.0 -0.0 -0.0 -0.0 -0.0 0.0 -0.3374202 -0.0 -0.0 -0.0 0.0 -0.0
-0.0 0.0 0.0 0.44354355 0.0 -0.0 0.0 -0.38827172 0.0 -0.0 -0.0 0.0 0.0 0.0 -0.0 -0.0 -0.0 -0.0 -0.0 -0.0 0.0 -0.0 -0.0 -0.0 -0.0 0.0 -0.0 -0.0 0.0 -0.0
0.0 0.0 0.33897677 0.45966828 0.0 -0.0 0.0 -0.40188935 0.0 -0.0 -0.0 0.0 0.4791973 -0.0 -0.0 -0.0 -0.0 -0.0 0.0 0.0 0.0 -0.0 -0.0 -0.0 0.0 0.0 -0.0 -0.0 0.0 0.0
-0.0 0.0 0.46282533 0.0 0.0 0.0 0.0 -0.0 0.3178288 -0.43118557 -0.0 -0.0 0.0 -0.0 -0.0 0.40478995 -0.0 0.0 0.0 -0.0 0.0 -0.0 -0.0 0.37207437 -0.0 -0.0 -0.0 0.3923258 0.0 -0.3334555
-0.5166189 0.0 0.0 -0.0 -0.0 -0.0 -0.5279624 -0.0 0.0 -0.0 -0.0 0.0 0.0 -0.0 -0.0 -0.0 -0.0 -0.0 0.0 0.0 0.0 -0.0 -0.0 -0.0 0.0 0.0 -0.0 0.39526233 0.0 0.0
0.0 0.0 -0.0 -0.43927243 0.0 -0.0 0.0 0.34862313 -0.0 0.0 -0.0 0.0 -0.36182073 -0.0 -0.0 -0.0 -0.0 -0.0 -0.0 -0.0 0.0 -0.0 -0.0 -0.0 -0.0 -0.0 -0.0 -0.0 0.0 0.0
0.0 0.0 0.46486777 0.0 0.0 -0.0 0.0 -0.28244275 0.45422444 -0.0 -0.0 -0.0 -0.0 -0.0 -0.0 0.45649096 -0.0 -0.0 -0.0 0.0 -0.51997197 -0.0 -0.0 0.0 -0.0 -0.0 -0.0 0.38966927 0.0 0.0
0.32285178 0.33492333 0.37064213 0.0 0.0 0.0 0.31762132 -0.0 0.0 0.0 -0.0 -0.0 0.0 -0.0 -0.0 0.33974195 -0.0 0.0 -0.0 -0.0 0.0 -0.0 -0.0 -0.0 -0.0 -0.0 -0.0 -0.0 0.0 -0.0
0.0 0.0 0.0 0.36580947 0.0 -0.0 0.0 -0.0 0.0 -0.0 -0.0 -0.0 -0.0 0.0 -0.0 0.0 -0.0 0.0 -0.0 -0.0 0.0 0.0 0.33235124 0.0 -0.0 -0.0 -0.3950044 -0.0 0.0 0.0
0.7485808 0.31545922 0.0 0.0 0.80970824 0.0 0.7587214 -0.0 -0.47454336 0.0 -0.49757797 -0.0 -0.47040802 0.38961512 -0.0 0.0 -0.0 0.0 -0.0 -0.0 0.0 0.0 0.0 -0.0 -0.0 -0.7343132 -0.0 -0.5275914 0.0 0.0
0.0 0.0 -0.0 -0.0 0.0 -0.0 0.3139774 -0.0 -0.0 0.0 -0.0 -0.0 -0.0 -0.0 -0.0 -0.0 -0.0 -0.0 -0.0 -0.0 0.0 -0.0 -0.0 0.54938644 -0.0 -0.0 -0.0 0.0 0.0 -0.34249413
-0.39812616 0.0 -0.34934902 -0.0 -0.0 -0.0 0.0 0.0 0.0 -0.0 -0.0 0.0 0.0 -0.0 -0.0 0.0 -0.0 -0.0 -0.0 0.0 -0.0 -0.0 -0.0 -0.0 0.0 -0.0 -0.0 -0.0 0.0 0.0
-0.0 0.0 0.0 0.0 -0.0 -0.5477468 0.0 -0.0 0.0 -0.0 0.0 0.0 0.0 -0.0 -0.0 -0.0 -0.0 -0.0 0.0 -0.0 0.0 -0.0 -0.0 -0.0 0.0 0.0 -0.0 -0.0 0.0 0.0
-0.0 0.0 0.0 -0.0 -0.0 0.0 0.0 0.0 0.0 -0.0 -0.0 -0.0 0.0 0.0 -0.0 0.0 -0.0 -0.0 -0.0 -0.0 0.0 -0.0 -0.0 0.45293307 -0.0 -0.0 -0.0 -0.0 0.0 -0.0
-0.0 0.0 0.0 0.48839194 0.0 -0.0 0.0 -0.3446706 0.0 -0.0 -0.0 0.0 0.0 -0.0 -0.0 -0.0 -0.0 -0.36977154 -0.0 0.0 0.31873682 -0.0 -0.0 -0.0 0.0 -0.0 -0.0 -0.0 0.0 0.0
0.0 0.0 0.0 0.0 0.0 -0.0 0.0 -0.0 0.0 -0.0 -0.0 -0.0 0.0 -0.0 -0.4218829 0.0 -0.0 -0.0 -0.0 -0.0 0.0 -0.0 -0.0 -0.0 0.39843878 -0.0 -0.0 -0.0 0.44072276 0.0
-0.0 0.0 -0.0 -0.0 0.0 0.0 0.0 0.0 -0.0 0.61655766 -0.0 -0.0 -0.0 -0.30104983 -0.0 -0.0 -0.0 0.0 -0.0 -0.0 0.63731754 0.0 -0.0 -0.0 0.0 -0.36301494 -0.0 -0.0 0.57973933 0.56369835
-0.0 -0.5452077 0.0 0.0 -0.3303919 -0.4240885 0.0 -0.0 0.34461972 -0.43315762 -0.0 0.0 -0.0 -0.0 0.0 -0.0 -0.0 0.0 0.3968382 0.0 -0.71646774 0.0 -0.4856246 -0.0 0.0 0.0 0.3969806 0.0 0.0 0.0
0.0 0.34890163 0.0 0.0 0.0 -0.0 0.0 -0.0 0.0 0.0 -0.0 -0.0 0.0 -0.0 -0.43429464 -0.0 -0.0 -0.0 0.0 -0.0 0.0 -0.0 -0.0 -0.3723556 -0.0 -0.0 -0.0 0.0 0.0 0.0
0.5573641 0.48690417 -0.0 -0.0 0.0 0.0 0.4761847 -0.0 0.0 0.0 -0.0 -0.559888 0.0 0.0 -0.0 0.0 -0.0 0.0 -0.0 -0.38288102 0.0 -0.0 -0.0 0.0 -0.58429825 -0.0 -0.0 -0.0 0.35045972 -0.0
-0.34741697 0.0 0.0 -0.0 -0.29289645 -0.0 0.0 0.0 0.0 -0.0 -0.0 0.0 0.0 -0.0 0.0 -0.307755 -0.0 -0.0 -0.0 0.0 -0.0 -0.0 -0.0 0.0 0.0 -0.0 -0.0 -0.0 0.0 0.0
0.0 0.0 0.0 0.3221003 0.0 -0.0 0.0 -0.0 0.0 -0.0 0.35383287 -0.4219155 -0.0 -0.0 0.0 -0.0 -0.0 -0.0 -0.0 0.0 -0.0 0.62508047 -0.0 0.0 -0.0 -0.0 -0.0 -0.0 0.0 0.0
-0.0 0.0 0.0 -0.0 0.0 0.0 0.31787515 -0.0 0.0 -0.0 -0.0 -0.5085972 0.0 0.0 -0.0 0.0 -0.0 -0.29582202 -0.33663982 -0.36364314 0.36146274 -0.0 -0.0 0.0 -0.4984132 -0.0 -0.0 -0.0 0.0 -0.0
-0.0 0.0 -0.0 -0.0 0.0 0.3601779 0.0 -0.0 0.0 0.42829967 -0.0 -0.0 0.0 0.0 -0.0 -0.0 -0.0 0.0 -0.0 -0.0 0.0 0.0 0.0 -0.0 -0.0 -0.0 -0.0 -0.0 0.0 -0.0
0.5021313 0.0 0.43256083 0.0 0.65686905 -0.0 0.5835941 -0.0 0.0 -0.0 -0.0 -0.0 0.0 0.0 -0.0 0.0 -0.0 -0.0 -0.0 -0.0 0.0 -0.0 -0.0 -0.0 -0.0 -0.42383015 -0.31012973 -0.0 0.0 0.38808423
-0.0 -0.3585653 0.0 -0.0 0.0 -0.0 0.0 0.0 -0.0 0.29922742 0.0 -0.32432935 0.0 -0.0 0.47639066 -0.0 -0.0 0.39072615 0.0 0.0 0.0 0.38830978 -0.43534797 0.0 0.0 0.0 0.0 0.39916775 0.0 0.0
-0.0 0.0 0.0 0.0 0.0 -0.0 0.0 -0.30430877 0.5371551 -0.3827664 -0.0 0.0 -0.0 -0.0 -0.0 -0.0 -0.0 -0.0 0.0 0.0 -0.44988516 -0.0 -0.0 -0.0 -0.0 0.0 -0.0 0.36050242 0.0 0.0
-0.0 0.0 0.0 0.0 0.0 0.0 0.0 -0.0 0.0 0.0 -0.0 0.0 0.0 0.0 -0.0 -0.0 -0.68173397 0.0 -0.0 -0.0 0.0 0.0 -0.0 -0.0 -0.0 -0.0 -0.0 -0.0 0.0 0.0
-0.0 0.0 0.0 -0.0 0.0 -0.0 0.0 0.39392442 0.0 -0.0 0.0 -0.0 0.0 -0.0 0.338989 -0.0 -0.0 -0.0 0.0 -0.0 0.0 -0.0 -0.0 0.43767044 -0.0 -0.0 -0.0 0.0 -0.35555127 0.0
-0.0 0.37993148 0.0 -0.0 -0.0 0.0 0.0 0.0 0.0 -0.0 -0.0 0.0 0.0 0.0 -0.0 -0.0 -0.0 -0.0 -0.0 -0.0 0.0 -0.0 -0.0 -0.0 0.38137165 -0.0 -0.38246828 -0.0 -0.47772655 0.0
0.0 0.0 0.0 0.0 0.0 -0.0 0.0 -0.0 0.0 -0.0 -0.0 -0.0 0.0 0.37730065 -0.0 0.0 -0.0 0.0 -0.0 -0.0 -0.28792897 0.0 -0.0 -0.0 -0.0 -0.0 -0.0 -0.0 0.0 0.0
0.554507 0.0 -0.0 -0.0 0.0 0.0 0.4847671 -0.0 -0.36218506 0.0 -0.0 -0.0 -0.38312402 -0.0 -0.0 -0.0 -0.0 0.0 -0.0 0.0 0.0 0.0 -0.0 -0.0 -0.0 -0.49120715 -0.0 -0.0 0.0 0.0
-0.2945624 0.0 0.0 0.0 0.0 -0.36618093 0.0 -0.0 0.0 -0.0 -0.0 0.0 -0.0 -0.0 0.34415343 -0.0 -0.0 0.0 0.0 0.0 0.0 -0.0 -0.0 -0.0 0.0 0.0 -0.0 0.35918683 0.0 0.0
0.43594235 0.0 0.0 0.0 0.0 0.0 0.0 -0.0 0.0 -0.3020117 -0.3284527 -0.0 0.0 0.0 -0.0 -0.0 -0.0 0.0 -0.0 -0.0 0.0 0.0 -0.0 -0.0 -0.0 -0.0 -0.0 -0.0 0.0 0.0
-0.0 0.0 0.0 -0.0 0.3625062 0.0 0.0 -0.0 0.0 -0.0 -0.34446865 -0.0 0.0 0.0 -0.0 0.0 -0.0 0.0 -0.0 -0.0 0.0 0.0 -0.0 -0.0 -0.0 -0.0 -0.0 -0.5809452 0.0 -0.0
0.0 0.0 -0.0 0.0 0.0 0.0 0.0 -0.0 -0.37130904 0.0 -0.0 0.42361012 -0.0 -0.0 -0.35733333 -0.0 -0.0 0.0 -0.0 0.0 0.0 -0.0 -0.0 -0.0 0.46862084 -0.0 -0.0 -0.0 0.0 0.0
-0.0 0.0 0.0 0.0 0.0 -0.4951763 0.0 -0.0 0.0 -0.0 -0.0 0.0 0.0 -0.49086532 -0.0 -0.0 -0.0 -0.0 0.0 0.0 0.0 -0.45410126 -0.0 -0.0 0.0 0.0 -0.0 0.0 0.3456515 0.0
0.0 0.0 0.0 0.0 0.0 0.34886867 0.0 0.0 -0.42804947 0.4759628 -0.0 0.3843927 -0.0 -0.0 -0.3148276 -0.0 -0.0 -0.0 -0.0 -0.0 0.0 -0.0 0.45924857 -0.31704366 -0.0 -0.0 -0.0 -0.0 0.0 0.0
-0.0 0.0 0.0 0.0 -0.32401 0.0 0.0 -0.0 0.0 -0.0 -0.0 0.0 0.32923937 -0.38444814 0.3771744 -0.0 -0.0 0.0 0.40293872 -0.0 0.0 0.3127814 -0.0 -0.0 -0.0 0.0 -0.0 -0.0 0.0 0.0
-0.0 0.43245867 0.0 0.0 0.0 0.0 0.0 -0.0 0.0 -0.0 -0.0 -0.0 0.43257535 0.0 -0.0 0.0 -0.0 0.0 -0.0 -0.0 0.0 0.0 -0.0 -0.35812587 -0.30228364 -0.0 -0.0 -0.0 0.0 -0.0
0.0 0.0 0.0 0.0 0.0 -0.0 0.0 -0.0 0.0 0.0 -0.0 -0.0 -0.0 -0.0 0.0 -0.0 -0.0 0.0 -0.0 -0.0 0.0 0.0 -0.0 0.0 -0.0 -0.0 0.39404982 -0.0 0.0 0.0
0.0 0.0 0.0 -0.3470802 0.0 -0.0 0.0 -0.0 0.0 0.0 -0.0 0.33301997 -0.0 -0.0 -0.0 -0.0 -0.0 -0.0 -0.0 -0.0 0.0 -0.0 -0.0 -0.0 0.0 0.3594784 -0.0 -0.0 0.0 0.0
-0.0 0.0 0.0 0.0 0.0 0.0 0.0 -0.0 0.3441439 0.0 0.38581944 -0.0 -0.0 0.0 -0.0 -0.0 -0.0 0.0 -0.0 0.36320022 0.0 0.0 -0.6427447 -0.0 -0.33409154 -0.0 -0.46944964 -0.0 0.46221736 0.40139464
-0.0 0.0 0.0 0.0 -0.2815411 -0.38727486 0.0 -0.0 0.0 -0.37617123 -0.0 -0.0 0.4299353 -0.3270163 -0.0 -0.0 -0.0 0.0 0.0 -0.0 -0.42097455 0.0 -0.0 -0.0 -0.0 -0.0 -0.0 -0.0 0.0 0.0
-0.0 0.0 0.0 -0.0 0.0 -0.0 0.0 -0.0 0.0 -0.0 0.0 -0.0 0.0 -0.0 -0.0 -0.0 -0.0 -0.0 0.0 -0.0 -0.505335 -0.0 -0.0 0.48788244 -0.0 -0.0 -0.0 0.0 -0.3458315 0.0
-0.0 0.0 0.0 0.0 0.0 -0.0 0.0 -0.0 0.0 -0.0 0.3412546 0.0 0.44890586 -0.0 -0.0 -0.33987787 -0.0 0.0 -0.0 -0.0 0.0 0.0 -0.0 -0.0 -0.0 -0.0 -0.0 -0.0 0.0 0.0
0.0 0.0 0.0 0.0 0.0 -0.0 0.0 -0.0 0.0 -0.0 -0.0 0.0 0.0 -0.0 0.3755328 -0.0 -0.0 0.0 0.46268263 0.0 0.0 -0.0 -0.0 -0.0 0.0 -0.0 -0.0 -0.0 0.0 0.0
0.0 0.0 0.0 0.0 0.0 -0.505562 0.0 -0.0 0.0 -0.41329512 -0.0 -0.0 0.0 -0.0 -0.0 0.4443933 0.0 -0.36694574 -0.0 -0.0 -0.0 -0.0 0.40147227 0.0 -0.0 -0.0 0.43678114 0.0 0.0 -0.3696686
-0.0 0.0 0.0 0.0 0.0 -0.0 0.0 -0.42475215 0.0 -0.0 -0.0 0.0 0.0 -0.5840177 -0.0 0.0 -0.0 -0.44763437 0.0 0.0 -0.0 -0.0 -0.0 -0.0 -0.0 -0.0 -0.32094896 0.3677717 0.40760946 -0.0
-0.36922875 0.0 0.0 0.31076288 -0.0 0.0 0.0 -0.0 0.4333055 -0.0 0.4210316 0.0 0.0 -0.0 -0.0 -0.0 -0.0 0.0 0.40708548 -0.0 -0.38184294 0.0 -0.0 -0.0 0.0 0.0 -0.3946136 -0.0 0.0 0.0
0.0 0.0 0.0 0.0 0.0 0.0 0.0 -0.0 0.0 0.0 -0.404649 -0.0 -0.0 0.31015316 -0.0 -0.0 -0.0 0.0 -0.5457734 -0.35162482 0.0 -0.0 0.38899514 -0.0 -0.0 -0.53770745 -0.0 -0.0 -0.33709994 -0.0
0.0 0.0 0.0 0.0 0.0 -0.0 0.0 0.48597303 0.0 -0.0 -0.0 0.5337675 -0.0 -0.0 -0.0 -0.0 -0.0 -0.0 -0.0 0.34352258 -0.29163763 -0.0 -0.0 -0.0 0.6005129 -0.0 -0.0 -0.43915385 -0.41533393 0.0
0.0 0.0 0.0 0.0 0.0 -0.0 0.0 -0.0 0.0 -0.0 0.3369187 0.0 0.39308974 -0.0 -0.0 -0.4607959 -0.0 0.0 -0.0 -0.0 0.0 -0.0 -0.0 -0.0 0.0 -0.0 -0.34568104 -0.28062448 0.0 0.0
-0.0 0.0 0.0 -0.0 -0.0 -0.0 0.0 -0.0 0.0 -0.0 -0.0 0.71412224 0.0 -0.0 -0.0 -0.0 -0.0 -0.0 0.0 0.0 0.0 -0.0 -0.0 -0.0 0.0 0.35521248 -0.0 0.0 0.0 0.37803462
0.0 0.0 0.0 -0.0 0.0 0.3030813 0.0 -0.0 0.0 -0.0 -0.46707648 -0.0 0.0 0.48328024 -0.0 0.0 -0.0 0.35321054 -0.0 -0.0 0.0 -0.0 -0.0 -0.0 -0.0 -0.0 -0.0 -0.0 0.0 -0.5326482
0.0 0.0 0.0 0.35391277 0.0 -0.0 0.0 -0.3530945 0.0 -0.0 -0.0 -0.0 0.0 -0.7326024 -0.0 0.0 -0.0 -0.0 0.54058886 -0.0 0.0 -0.0 -0.0 -0.0 -0.0 -0.0 -0.30029038 0.54280293 0.47001043 0.44718984
0.0 0.0 0.0 -0.38372067 0.0 -0.0 0.0 -0.0 -0.0 -0.0 -0.0 0.0 0.0 -0.0 -0.0 -0.0 0.0 -0.0 -0.0 0.0 0.0 -0.0 -0.0 -0.0 0.0 -0.0 -0.0 -0.0 0.0 0.0
0.0 0.0 0.0 -0.0 0.0 0.0 0.0 -0.0 0.0 -0.0 -0.0 -0.0 -0.0 0.0 -0.0 0.0 -0.0 0.0 -0.3612223 -0.0 0.0 -0.0 0.0 -0.0 -0.0 -0.0 -0.0 -0.0 0.0 -0.0
-0.0 0.0 0.0 0.0 0.3716411 0.4241783 0.0 -0.0 0.0 0.0 -0.0 0.0 -0.0 -0.0 -0.0 -0.0 -0.690926 0.0 -0.0 -0.0 0.0 0.0 -0.7065503 -0.0 -0.0 -0.0 -0.6510178 -0.0 0.0 0.46496996
0.0 0.0 0.0 -0.0 0.0 -0.0 0.0 -0.0 0.0 -0.0 -0.38490233 -0.0 0.0 0.34946793 -0.0 0.4415244 -0.0 -0.0 -0.0 -0.0 0.0 -0.0 -0.0 0.35274696 -0.0 -0.0 -0.0 -0.0 0.0 -0.0
0.0 0.0 0.0 -0.0 0.0 0.0 0.0 -0.0 0.35533595 -0.0 -0.0 -0.0 -0.0 -0.0 0.3846875 -0.0 -0.0 0.0 -0.0 -0.0 0.0 -0.0 -0.0 0.4540134 -0.0 -0.0 -0.0 -0.0 -0.42029005 -0.45396227
-0.0 0.0 0.0 -0.0 0.0 0.0 0.0 -0.0 0.33977222 -0.0 -0.0 -0.0 0.0 0.0 0.0 0.0 -0.0 0.0 -0.0 -0.36258906 -0.0 0.0 0.37905708 0.0 -0.0 -0.0 -0.0 -0.0 0.0 -0.36985123
0.0 0.0 0.679669 0.5312822 0.0 -0.0 0.0 -0.3865369 0.0 -0.0 -0.0 -0.0 0.0 0.0 -0.0 0.0 -0.0 -0.0 -0.0 -0.0 0.0 -0.0 -0.0 -0.0 -0.0 -0.0 -0.0 -0.0 0.0 0.0
0.45103544 0.0 0.44007653 0.0 0.505541 -0.39753827 0.0 -0.4103468 0.0 0.0 -0.0 -0.0 0.0 -0.0 -0.0 0.0 -0.0 -0.0 0.0 -0.0 0.0 -0.0 -0.0 -0.0 -0.0 -0.40481654 -0.0 0.0 0.0 0.47069728
-0.0 0.0 0.0 -0.0 0.0 -0.0 0.0 -0.0 0.0 -0.0 -0.0 -0.0 0.0 0.0 -0.5120273 0.0 -0.0 -0.0 -0.0 -0.0 0.0 -0.0 -0.0 -0.3934123 -0.0 -0.0 -0.0 -0.33525535 0.0 -0.0
0.0 -0.33278772 0.4431452 -0.0 0.0 0.0 0.0 -0.0 0.0 -0.0 -0.0 -0.0 -0.0 0.0 -0.0 0.0 -0.3580837 0.6826223 -0.0 -0.0 0.0 0.65606767 -0.0 0.41185665 -0.0 -0.0 -0.0 -0.0 -0.3603224 -0.0
0.0 0.0 -0.0 -0.0 0.3728211 0.0 0.0 0.0 -0.3326265 0.0 -0.0 0.0 -0.0 0.0 -0.0 -0.0 -0.0 0.0 -0.4609452 -0.0 0.0 0.0 -0.0 -0.0 0.29843986 -0.0 -0.0 -0.5902097 0.0 0.0
-0.0 0.0 0.0 0.0 0.0 -0.0 0.0 -0.0 0.0 -0.0 -0.0 -0.0 0.0 0.0 -0.0 0.0 -0.0 -0.4327384 0.47015512 -0.0 0.0 -0.3487522 -0.0 -0.0 -0.0 -0.0 -0.0 -0.0 0.58801216 -0.0
-0.0 0.0 0.0 0.0 0.0 0.0 0.0 -0.0 0.0 -0.0 -0.0 -0.0 0.0 0.0 -0.0 0.0 -0.0 0.0 -0.0 -0.0 -0.0 0.0 -0.0 -0.29864755 -0.29186118 -0.0 -0.5672933 -0.0 0.0 -0.0
0.0 -0.3766718 0.0 0.42371395 0.0 -0.0 0.0 -0.0 0.0 -0.0 0.5472589 0.0 0.0 -0.0 0.0 -0.0 -0.0 0.0 0.0 0.0 -0.4652257 0.0 -0.0 -0.0 0.0 -0.32000086 -0.0 -0.0 0.0 0.0
-0.0 0.0 0.0 -0.0 -0.0 -0.0 0.0 0.0 0.0 -0.0 -0.0 -0.0 0.0 -0.0 -0.0 -0.38044277 -0.0 0.0 -0.0 0.0 -0.0 -0.0 -0.0 -0.0 -0.0 -0.0 -0.0 -0.0 0.0 0.0
-0.0 0.0 0.0 0.37313494 0.0 -0.0 0.0 -0.0 0.0 -0.0 -0.0 -0.0 0.0 -0.0 -0.0 0.0 -0.0 0.0 0.0 -0.0 -0.0 0.0 -0.0 -0.0 -0.34340167 -0.0 -0.0 -0.0 0.0 0.0
-0.0 0.0 -0.34546268 -0.0 -0.0 0.0 -0.0 -0.0 0.0 -0.0 -0.0 -0.0 0.0 0.0 -0.0 -0.42660984 -0.0 0.0 -0.0 -0.0 0.3469864 0.0 0.44514534 -0.0 0.48170248 -0.0 -0.0 -0.0 0.0 -0.0
0.0 0.38670346 0.0 -0.0 0.0 -0.0 0.0 0.0 0.0 0.32736498 -0.5309457 -0.0 -0.0 0.4790416 -0.0 0.0 -0.0 -0.0 -0.39087942 -0.41730428 0.0 -0.0 0.51092875 0.0 -0.0 -0.0 -0.0 -0.39159223 0.0 -0.4587904
-0.5035876 0.0 0.0 0.0 0.0 -0.0 -0.42523324 -0.0 0.0 -0.0 -0.0 0.0 0.0 -0.0 -0.0 -0.0 -0.0 -0.0 0.0 0.41798314 -0.0 -0.0 -0.0 -0.0 0.0 -0.0 -0.0 -0.0 0.0 0.0
0.01472907 0.031548075 0.020484596 -0.04799559 0.016410183 -0.029817175 0.012425934 0.027937707 -0.017095255 -0.0015405378 0.0048820297 -0.02537178 0.0051954137 -0.030663997 -0.009904964 0.011823596 0.03558732 -0.046164602 0.04548421 0.051879793 0.03139527 -0.007965003 -0.015536314 -0.012107421 -0.028814837 -0.027570931 0.067333214 -0.010236546 0.02506122 0.054268207
2
30 10
-0.46912694 0.0 -0.0 0.0 0.55459684 -0.0 0.0 -0.0 0.0 -0.82060707
0.0 0.0 -0.5486303 -0.0 -0.0 -0.0 0.5747361 -0.9160338 0.0 -0.6825198
0.0 0.0 -0.0 0.61097604 -0.0 -0.77998644 0.0 -0.0 0.0 -0.0
0.0 0.0 -0.0 0.0 -0.0 -0.0 0.0 0.53596246 0.46885926 -0.5950527
0.0 0.0 -0.0 -0.0 0.6186017 -0.0 0.0 -0.0 0.0 -0.77565867
0.0 -0.67168576 -0.0 -0.55309016 0.0 -0.0 0.0 -0.697053 0.0 -0.0
0.0 0.0 -0.0 -0.0 0.6199468 -0.0 0.53867453 -0.0 0.0 -0.84975344
0.0 -0.63668954 -0.6063884 0.0 0.46525618 -0.0 0.0 0.0 -0.6757235 0.48758063
0.0 0.0 -0.0 0.0 -0.63255495 -0.7082014 0.0 -0.0 0.0 -0.0
0.0 -0.0 -0.0 -0.78426445 -0.0 0.49828976 0.0 -0.0 -0.0 -0.0
0.5416573 -0.0 0.5246013 0.0 -0.7396194 -0.0 -0.59582186 0.6350476 -0.6582703 -0.0
0.0 -0.69107515 -0.7286403 0.0 -0.0 -0.0 -0.65372354 -0.0 0.0 -0.0
0.0 0.0 -0.0 0.0 -0.78681767 -0.0 0.0 -0.0 0.0 -0.0
0.0 -0.0 -0.0 0.0 0.51096666 -0.0 0.6042896 -0.6546449 -0.0 0.5720741
0.0 0.0 0.5337989 0.0 -0.0 -0.76097786 0.0 0.56312615 -0.7504307 -0.0
-0.7266038 0.0 -0.0 0.0 -0.0 -0.69375134 0.0 -0.5003238 0.0 -0.0
-0.8987139 0.0 -0.7093225 0.0 -0.0 0.0 -0.6966247 0.0 0.0 -0.0
0.53752786 -0.7154081 -0.0 -0.631714 -0.0 -0.5945228 0.0 -0.0 -0.0 -0.0
0.0 0.0 -0.0 0.0 -0.83694726 -0.0 -0.79155815 -0.0 0.0 -0.0
0.0 -0.7766153 -0.0 0.5852862 -0.0 -0.0 -0.7039805 -0.0 0.0 -0.0
0.0 0.49835673 -0.5083791 -0.830228 -0.0 0.5577921 0.0 -0.5786557 0.0 -0.61874557
0.0 -0.74361235 0.50165915 -0.47093907 -0.0 -0.74685085 0.0 -0.0 0.0 -0.0
-0.7331973 0.0 -0.763973 -0.6599529 -0.0 -0.0 0.0 -0.0 0.0 -0.0
0.0 0.0 -0.0 0.0 0.5083801 -0.65126055 0.0 0.0 -0.7229843 -0.0
0.0 -0.7472822 -0.70768577 0.0 -0.0 -0.0 -0.5877499 -0.0 0.0 -0.0
0.0 0.0 -0.5842707 0.0 -0.5199024 -0.0 -0.5995202 -0.0 0.0 0.47173852
-0.76242745 0.0 -0.0 0.0 0.5491939 0.0 -0.630211 0.0 -0.61686796 -0.0
0.0 0.49182367 0.5268328 0.0 -0.5557531 -0.0 -0.6209063 -0.0 -0.0 -0.0
0.0 0.48077777 -0.0 0.0 -0.67685 -0.0 -0.6594022 -0.6920316 0.0 -0.68995166
0.0 -0.6173144 -0.0 0.0 -0.0 -0.0 -0.6864993 -0.0 0.0 -0.6785587
-0.0026372815 -0.013770249 -0.003663619 0.06868659 -0.00069685566 -0.060488474 -0.0084437365 0.011701755 0.031163028 0.009688197
0
