3
784 300
-0.023771137 -0.058213614 -0.0145322345 0.074198574 0.055628866 0.00077812374 -0.04863487 0.00019016862 -0.049055595 0.06528251 0.03558813 -0.06915028 -0.063721165 -0.024752662 0.05312188 0.001603663 0.038861506 -0.028490398 -0.06657125 -0.04777444 0.05340755 0.06689671 -0.03066013 0.04383313 0.0467109 -0.071377784 -0.048664562 -0.067124635 0.04698669 -0.0039265603 0.056495458 -0.00985866 0.007774517 -0.02263914 0.033777893 -0.032355905 -0.031680074 -0.007099502 -0.010571353 0.03493634 0.04159174 0.046406142 0.020547882 -0.04450259 -0.035105873 -0.01623895 0.05962053 0.008187331 -0.057421867 -0.04515939 -0.007368095 -0.0036408901 0.023496322 0.0490171 0.07096863 0.06642352 0.0116755515 -0.01428926 0.031375088 -0.056111783 -0.051162355 0.003331788 0.013444424 0.04448343 0.022793517 -0.072598234 -0.042704858 0.030655697 0.024018086 0.021450631 0.062156245 0.073726505 -0.051396444 -0.039169297 -0.048401885 0.0026587993 0.05461152 0.03638222 -0.02859129 0.018874906 0.024533868 -0.048000548 -0.01926526 0.0008238703 -0.03899848 0.008168407 -0.02610911 0.0018857643 0.053870738 -0.020692501 0.06499815 -0.04689245 -0.015096847 -0.02998437 0.04597082 0.051168934 -0.04624129 0.008307539 -0.04789985 -0.01885461 -0.04015373 -0.07000643 0.039985985 0.022982776 -0.073650144 -0.042336993 -0.055317305 -0.051294327 0.002848573 0.0427436 -0.02905104 0.055846646 -0.04404034 0.07102357 0.020258121 0.012657806 -0.02287126 0.04024815 0.07177615 0.00086534023 0.00018257648 -0.026496291 0.013416328 0.0088786855 -0.048455775 -0.00022140145 0.018672355 0.018317722 0.06831393 0.014865458 -0.05447756 -0.024479426 -0.026653022 0.022171304 -0.020101637 -0.0035188347 0.067313865 0.008767627 -0.048212994 0.051939845 -0.007385619 -0.0066012815 0.012123235 0.007584758 0.061802596 -0.0015469864 0.058357254 -0.019646358 -0.052581206 0.009341553 0.01496429 -0.051493257 0.03801412 0.035014294 0.0021236464 0.02921173 -0.050966084 -0.03855954 -0.03264613 0.034848355 0.057719603 -0.025647197 -0.058876496 0.005469501 0.0253817 -0.027139504 0.07275657 0.07345298 0.06901699 0.006779924 0.003712371 0.0031415 0.037072435 -0.029401433 0.03038977 0.07290311 0.026138075 0.030805595 0.02846399 -0.012403246 0.056353316 0.053434312 -0.048665043 -0.008623987 0.052209333 -0.026129454 0.062735945 -0.042247664 0.039090343 0.032060675 0.034913912 -0.048013035 0.062206835 -0.045858026 0.055061236 -0.0037171096 -0.03109932 -0.058329035 0.031674325 -0.06753892 0.018471353 0.049515612 0.013949528 -0.01838234 -0.04872345 0.070403114 0.01495982 -0.046876058 0.05100034 0.07313728 0.053646028 -0.07301846 0.025889128 -0.038472626 0.0044984594 0.025099985 0.024734765 -0.0370026 -0.011899281 -0.044310577 0.002026759 -0.024390828 0.024499647 -0.046525754 -0.046006083 -0.073176555 -0.04302219 -0.039262775 -0.042743668 -0.03777118 0.028095074 0.009405144 0.01349017 0.024075568 0.03615597 0.053086445 0.05650273 -0.052698933 -0.0011520386 -0.03311682 0.03742166 0.011044472 0.06876935 -0.050247297 0.054559365 0.06752896 0.006421581 -0.01159969 -0.014173768 0.07231827 -0.046458364 -0.07115889 0.05442831 0.009410962 0.0088009015 -0.055656753 -0.03648788 -0.04888393 0.01987546 -0.04250623 -0.074307024 -0.047264073 0.01710163 0.04411576 -0.026665546 -0.023972586 0.033189178 -0.056323007 0.043661654 -0.035047356 0.004904479 -0.07137179 0.046336472 -0.009221859 0.049172185 -0.01814171 -0.008881129 -0.057667695 -0.024512488 0.0599961 0.0061216354 0.043013 0.046364605 -0.023898017 0.055142567 -0.023867346 0.06759715 -0.07312746 -0.009552151 0.05480273 -0.025135815 -0.015453111 -0.05577615 0.020918146 0.010525338 -0.014654111 0.07406998 -0.059120923 -0.008246385 0.013004154
0.016156137 0.025187701 -0.029836915 0.022288255 0.036927678 -0.0529346 0.058128804 -0.07091163 -0.026841488 -0.015717816 0.022657752 0.044273667 0.010512799 0.0021292865 -0.0633508 -0.06849215 -0.0035872683 -0.04541827 -0.05242515 -0.00063896924 0.018939503 -0.015891023 0.07317972 0.01244612 -0.026330799 -0.044601016 -0.040399663 0.009586863 -0.016136568 0.033060998 -0.030186493 -0.057733893 -0.0023589954 -0.05760842 0.051805615 -0.016373318 0.07413855 -0.028299432 -0.029964432 0.06851265 0.059358403 0.003979169 -0.046108574 -0.0009208396 0.06826167 0.030810013 -0.009041183 0.04952109 -0.0044346377 0.04650961 -0.025129057 -0.020537563 -0.037081674 0.06971587 0.07409708 0.013996072 0.052657768 0.058703333 -0.06359217 -0.017491404 -0.03897058 0.018553987 0.03944397 -0.002795361 -0.07025135 -0.019823771 -0.01587928 -0.019317836 -0.026211385 0.016911626 -0.02837028 -0.0030205622 -0.025634516 0.06909029 0.00021544099 0.06193331 -0.03643779 -0.044651233 -0.02465693 0.07017796 -0.060105287 -0.03215857 -0.03582252 0.03836625 -0.013875172 -0.07330196 0.035294212 -0.05703667 -0.028556082 -0.002374053 0.040639892 0.04024838 0.070224196 -0.048931308 -0.004847154 0.07003398 -0.07031855 -0.025576372 -0.003708668 -0.027688257 0.0396344 -0.063281745 -0.04821108 -0.008974753 -0.06613981 0.026167504 -0.064453825 0.049640574 -0.059869584 -0.05496578 0.05047755 -0.02711261 -0.059375055 0.06897093 0.027514905 -0.023439545 -0.042918652 -0.032692835 -0.022075381 -0.030888949 0.027189754 0.004453443 0.066267565 -0.048946932 -0.07367492 -0.005828038 0.043345623 0.04553218 -0.009499013 0.000480555 0.06500116 0.062678635 -0.044857845 0.07392983 5.1915646e-05 -0.07305454 -0.038127553 -0.026667532 -0.036135502 0.048828907 0.06680311 -0.06551384 0.06449199 0.048371196 0.017597832 -0.007343255 -0.048274793 0.039922267 0.061325878 0.0077940673 -0.05727546 -0.04266213 -0.06638464 -0.01605877 0.046751484 -0.00450854 0.058374494 -0.018759325 0.04839243 -0.026729617 0.07200219 -0.06108053 -0.062773466 -0.018183537 -0.003802836 -0.06399816 0.0081527755 -0.022867393 -0.03215293 -0.0058248267 -0.029914998 -0.052183047 -0.042761125 0.023930632 -0.04845407 0.004623972 -0.040727176 -0.045376267 -0.018968932 0.008116841 -0.020594377 -0.058613352 -0.003333211 -0.006236963 0.017061688 -0.004486613 0.013742298 -0.013455421 0.012518913 -0.0065544024 0.06779134 0.0047033727 0.05701083 -0.050311826 -0.04954635 -0.055908084 0.056866333 -0.012271527 -0.058087602 -0.050572522 -0.025403712 -0.0015608594 -0.05516311 -0.017560989 -0.06970661 0.0188552 -0.07293099 0.0007541254 -0.022883818 -0.030456569 -0.06569645 0.029296085 -0.057373427 0.069520876 -0.06594066 0.06798905 -0.025113165 0.06468701 -0.0110476315 0.033177838 -0.04435437 0.054976806 0.028613217 -0.062114913 0.059426814 0.055298805 0.07415314 0.033322543 0.008781925 0.041315705 -0.0069325417 0.07131122 -0.07205721 0.045952663 0.06738843 0.010889411 -0.0049214736 0.055635378 -0.020679623 -0.04748381 0.026420712 0.05171697 -0.012504529 0.06162168 0.047857724 -0.0025210604 -0.06820089 0.060794592 0.07146099 -0.00782074 -0.05190087 -0.047951486 0.030122869 0.058226883 0.024555095 -0.02883939 0.07386768 -0.030385457 0.0014455467 0.05635789 -0.024040628 0.06093079 0.024909623 0.05041831 -0.066698216 0.04291282 0.0033374503 -0.004365891 0.0208456 0.05034388 -0.014132742 -0.046764787 0.01808697 0.035391472 -0.066282704 -0.06747107 0.06953706 -0.04776559 -0.040047444 0.053361714 0.053052425 0.00020235032 0.03564798 -0.0010145009 -0.032735404 -0.06084845 -0.019724883 -0.010561012 -0.04574924 -0.033280257 0.06159675 0.022904396 -0.055469 -0.04972007 -0.062419366 -0.051796198 0.06209308 0.005891323 0.0035157874 0.021447457
-0.014367484 0.045275785 -0.03042769 -0.0426404 -0.063181505 -0.0021365583 -0.045287102 0.0038323551 0.03050226 -0.035711017 0.029230155 -0.041901458 -0.0489949 -0.07350652 -0.04408084 0.06706424 0.05872397 0.059197396 0.0064599663 -0.06224713 0.012917608 -0.0601806 0.0066832528 -0.026218392 0.0633585 0.0036229417 -0.053690672 -0.02334376 -0.049249753 -0.024686411 -0.019918315 -0.047746204 0.054241583 0.03335332 0.0074977577 0.022439435 0.0040522143 -0.033896614 0.013583384 -0.03656875 -0.01429655 -0.041065525 -0.018153027 -0.012492523 0.059993148 0.0069649443 0.019224003 0.04404708 -0.06640815 -0.022961386 -0.013223853 0.030896485 0.018351227 0.044734582 0.03664116 0.01500681 0.0095142275 0.037404947 -0.016312174 -0.03879925 0.011934169 0.07061122 0.07101424 -0.03138564 -0.03363067 0.04032027 0.050041005 -0.070465595 -0.019935928 0.050345495 -0.05428154 -0.04049231 0.070359364 -0.014431145 -0.06295581 0.0012075752 0.013459891 -0.06641929 -0.05131462 -0.028155472 0.023810819 0.06176521 0.0019616112 0.051874816 0.04457351 -0.0003894493 -0.064734206 0.039225332 -0.01549368 0.038758896 -0.06871281 -0.031950273 -0.029685255 0.024158992 -0.004986748 -0.012767531 -0.0030714124 -0.05206202 -0.02111736 0.037498884 -0.025233623 0.05940175 0.039558783 -0.012127105 -0.05090562 -0.008023135 0.05761254 0.021589294 -0.05819334 -0.07213565 -0.042413957 0.04255324 0.0678343 -0.047028303 0.073067024 0.05007284 -0.010943778 -0.011812434 -0.05589682 0.032886475 -0.055261306 0.0010669678 -0.032318264 -0.060315743 -0.051186748 0.037345134 0.038465902 -0.07361316 -0.05355537 -0.04004505 0.054788202 0.00054132193 -0.017344091 -0.0031104237 0.040827185 0.025803223 -0.0060900226 0.0016823113 0.021598957 -0.04614561 -0.046623595 0.01433669 -0.00066277385 0.043234423 -0.022481594 0.058729053 0.043987766 -0.015578855 0.054000124 0.02512297 0.031344578 0.047140315 -0.07182224 -0.05451197 0.004552968 0.07157749 -0.06509631 0.038695753 -0.054176778 -0.05532621 0.07301122 -0.06657811 -0.04289533 -0.07384971 0.039887823 -0.038848754 -0.0069064796 -0.027278107 0.01915621 0.049063988 -0.07384715 -0.0020036697 -0.010722391 0.0057177246 -0.0022401288 -0.0505559 0.057768628 -0.038499035 -0.018798772 -0.027267233 0.04440161 0.03752984 0.039807327 -0.024647191 0.037781686 -0.04435368 0.015613228 0.06335309 0.03485506 -0.026093837 -0.023342378 0.057552233 -0.01593874 0.046509005 -0.04307432 -0.016774386 0.040834524 0.006337099 -0.0317023 0.054011464 0.04694339 0.04635763 0.053325146 -0.05965297 -0.0034221634 -0.018687114 -0.01141832 -0.022548396 0.029069997 -0.025462318 -0.013575472 -0.045636214 -0.010969833 -0.049241666 -0.03650461 0.005869776 -0.024930235 -0.012710042 0.002872415 -0.023979362 -0.054129653 0.031749092 0.022620432 -0.011098467 0.054656044 0.06858675 -0.049162395 0.06257388 0.07021734 -0.012529381 0.045207992 0.007069193 -0.002767317 0.016233824 0.06004992 0.058107898 0.046028256 0.029003091 -0.016025335 0.06598516 -0.040167652 0.06314048 -0.013267774 -0.027755432 -0.01375315 0.07269272 0.062060416 0.03059762 0.0103413835 0.060122952 -0.0709451 -0.010955714 -0.020645797 0.012489982 -0.07298357 -0.039465502 0.06943308 0.06586237 -0.023534372 -0.03476912 0.05678016 -0.0738435 -0.008385658 0.068550944 0.034621753 -0.00023766607 0.04789242 -0.03491372 0.060424536 -0.0062734857 0.035548486 -0.010700345 -0.025347713 -0.06155424 -0.06309601 -0.07018225 -0.025885738 -0.05518619 -0.03062946 0.046058305 0.042802878 0.013802022 0.011516176 0.07287878 -0.06740784 0.044044703 0.059422463 -0.064439386 -0.032262955 0.071602836 -0.0678899 -0.015560836 -0.039471123 0.07395436 -0.00608781 0.06901327 -0.013197299 0.026392154 0.010684043 -0.0073672608
-0.05718881 -0.07175251 0.06925933 0.059588194 -0.07038884 -0.039441183 -0.0062958226 0.021416172 0.021793522 -0.07027427 -0.009834342 -0.026150689 -0.009697974 0.0010817274 0.006245762 -0.055928305 0.06688477 -0.0052110255 -0.03522094 0.0043635294 0.05558972 0.039966345 -0.035849303 0.03452847 0.021345146 -0.037120502 0.044649564 -0.06665596 0.018243082 -0.04002905 0.06378725 -0.039723143 0.020112917 0.04894963 0.06379244 0.04193438 -0.038718507 -0.06400043 -0.019163001 0.013791285 -0.06411255 0.0008244887 0.007947974 0.0197834 0.044852912 0.0668349 -0.016865984 -0.054080978 -0.07117062 0.030175298 0.07219276 -0.05436562 -0.02796353 0.06772293 -0.003654711 -0.06400234 0.04159285 0.061592564 0.028186813 -0.011904936 0.036826193 -0.0544376 -0.029509775 -4.3459237e-05 -0.031681065 0.0027417392 -0.054299083 0.04482934 0.054133505 -0.066318735 -0.023168229 0.0156018585 -0.05477843 0.02988229 -0.06000764 -0.04935146 0.06444433 0.055129066 0.038581483 0.07333115 -0.0356384 -0.015869208 -0.004279062 -0.013361853 -0.02669815 0.028261423 -0.054673865 -0.008117035 -0.003448449 0.023110703 -0.01899866 -0.011727877 0.011019833 0.028568588 0.03108406 0.02906768 -0.039292485 -0.052215204 -0.06811123 -0.054845676 0.052268222 -0.010186829 -0.021045238 -0.05205255 0.05836405 -0.024506565 0.073259205 0.06605965 0.03945195 -0.056867737 -0.05246277 -0.037819125 0.06562738 0.056756377 -0.048845757 0.055471554 -0.055519465 0.04662741 -0.015362047 -0.051735148 -0.050542258 0.049816214 0.03483253 -0.039911855 -0.03113199 -0.05037288 -0.013844714 0.002435103 0.058532327 0.0026172176 0.06117381 0.070356324 0.017001875 -0.043959085 0.013158351 0.06714524 0.0051749498 0.029112764 0.016227603 0.06417343 -0.06931132 -0.003239356 0.009643897 -0.056420512 -0.06453599 0.00076536834 -0.046060115 0.054256603 -0.05941961 0.06356774 0.05893612 0.06914525 -0.05160887 -0.072184816 -0.02797978 -0.029783223 -0.06541893 -0.050366 -0.06546953 -0.052924223 0.06409268 0.002305247 0.00024279207 0.008174948 0.004266061 -0.030301504 -0.042082347 0.06634505 -0.05413857 -0.07304721 -0.03204093 0.020855635 -0.04239145 -0.008753173 0.0734961 0.0723048 -0.052679136 -0.020274527 -0.07018239 -0.0073982105 -0.06281921 -0.035445943 -0.0023587272 0.041999407 0.0455774 -0.061050694 -0.021704108 -0.037512474 -0.031011198 0.004499316 -0.027428575 -0.0071718767 0.034244895 -0.038856134 0.06634092 -0.033858635 -0.04880072 -0.03198158 0.03291738 0.0210331 -0.0073065087 -0.00024421513 -0.04817298 0.0649512 0.07046284 -0.054713864 0.003418602 0.015500665 0.025993243 -0.06122875 0.05680619 0.031257503 0.050732553 -0.002486527 0.034470595 0.0099608 -0.038136527 -0.04387384 -0.045679744 0.06723246 -0.040590256 0.04672209 0.017369315 -0.019571308 0.054425508 -0.0614046 0.044101782 -0.072694406 0.045199707 -0.020014241 -0.060469177 0.069050744 0.024549477 0.029532373 -0.06806252 -0.03827222 0.018737242 -0.016370442 0.027349338 0.050534688 -0.005314812 0.017461747 0.0061563104 -0.0112179145 0.065073 -0.052860916 -0.015273213 -0.01753087 -0.008042075 -0.040697962 -0.055465646 0.021186322 0.03214702 -0.030155115 0.018072248 0.01226709 -0.053673983 -0.025569577 -0.0108612105 0.03364986 0.049466103 0.04221306 0.04076664 -0.049093872 0.070858344 0.07360014 -0.010891542 0.06872749 0.00972648 -0.045821898 0.008915149 -0.042548604 -0.04593407 0.035780177 0.004583515 -0.03499118 -0.018984433 -0.024539985 -0.02272994 -0.049663045 0.05039677 0.067803815 -0.010816067 -0.04661352 -0.07377892 -0.07378383 -0.07099285 -0.05606272 0.04328879 0.05908209 -0.030918073 0.04992892 0.047099218 -0.03834289 0.034533456 0.068599895 -0.047398135 0.027224682 -0.07179836 0.052771434
0.03175778 0.016053304 0.028518267 0.055436984 -0.065602764 0.0022033453 -0.06084742 -0.028461397 -0.05261711 -0.067496665 0.033200175 0.048079893 -0.05489687 0.06740259 0.033260122 0.030345283 -0.051233467 -0.0524798 0.008874409 0.05259216 0.0741196 0.0025912672 0.013580665 0.040689096 0.06222424 -0.05422659 0.06845422 0.0012776032 0.013539039 0.005580485 -0.056510605 -0.0070354566 -0.02366801 0.06982708 -0.07263981 -0.0054812655 0.048451997 0.03536646 -0.00094819814 0.04307031 -0.06489082 -0.07340394 0.045301415 -0.021170769 0.008710779 -0.039609373 0.022326723 -0.063666426 0.016603164 -0.059088286 0.024577089 0.07079272 -0.020689398 -0.029917035 0.007542774 -0.04675817 -0.020267501 0.018039294 -0.041883685 0.039630286 -0.0043393523 0.020428494 -0.07392765 -0.02686742 -0.039209526 -0.051555514 0.07428634 -0.002212368 -0.0058262646 -0.050562605 0.0035793558 0.02288089 -0.011426121 0.062070474 -0.023902096 -0.010042161 0.036604352 0.059072927 -0.004980631 0.04351736 -0.0052932575 0.06926669 0.044489816 -0.03581881 -0.055510916 0.012505703 -0.009205148 -0.067623794 -0.03303512 -0.0056655034 -0.00530798 0.06220506 -0.03397494 -0.03693429 0.026732557 -0.06226503 -0.06253439 0.0070584044 0.06555365 0.014525652 0.074163646 0.05613564 0.036130928 0.01806029 -0.053446814 -0.034309283 0.024049036 0.0019279644 0.06557836 -0.029368352 -0.06654313 -0.032730386 -0.05333799 -0.008239165 0.04894214 -0.0140778795 0.055437908 -0.046028756 0.008305058 0.05229336 -0.05306524 0.048164286 0.01228334 0.023027621 0.070972115 -0.034296036 -0.04403901 -0.028516296 -0.06064863 -0.026202109 0.016005807 -0.06305296 -0.03361373 -0.060421977 0.009445623 0.04918959 -0.022423893 0.023969159 -0.019349374 -0.053071372 -0.069862224 -0.06887208 -0.042281438 -0.02674283 0.0020194203 -0.066880085 -0.06014986 0.043237776 0.0018794313 -0.038932495 -0.0611253 -0.00967022 0.035530128 0.01723247 0.030170456 -0.046493188 -0.036027834 -0.041504983 0.030391313 -0.022848308 -0.044935305 -0.071842924 -0.040087514 0.06501618 -0.055935577 -0.028090376 0.035136543 -0.064730644 0.030120865 0.044223666 -0.06440512 -0.061152015 -0.029217917 0.04864732 -0.06199928 -0.056271814 -0.008111946 0.06251846 0.06035848 -0.022453532 0.06680511 -0.05414893 -0.01453422 0.02973982 -0.062355634 0.043414444 0.051086113 0.06007567 -0.055113144 -0.0041455105 0.031323664 0.001128532 -0.06987632 -0.019146312 0.021055683 -0.02815533 -0.0356083 -0.0052801 0.011816002 0.03513246 -0.074392095 -0.037846178 0.051612332 -0.054628048 0.0614516 0.0622786 0.0651419 -0.022657517 0.033422656 0.011784695 -0.01787128 0.05417353 -0.055833586 0.0449526 0.045876317 -0.0057013184 -0.059586436 -0.006238386 0.041886203 -0.061627105 0.004879132 0.015653357 0.0009388849 -0.0012001991 -0.020311352 -0.05940494 -0.026278809 -0.055657007 0.03004817 0.0059969947 0.021239556 -0.021781463 0.03848493 0.06296636 0.043736264 -0.0446366 -0.006984137 -0.06343658 0.022574238 0.04496956 0.0102598965 -0.010298774 0.022662945 -0.052151896 0.061467797 0.035171613 0.030271366 0.0025141314 -0.018861156 -0.023841858 0.06651594 0.03136368 0.028473616 -0.004359752 -0.0037304312 -0.064299576 -0.03533989 -0.014379263 -0.009131752 0.012944341 0.0067482963 -0.05079914 0.018075958 0.015434153 0.03145633 -0.04570699 -0.011436075 0.04091154 -0.0017828643 0.020892158 -0.036823962 -0.025345672 -0.034649957 -0.0047440752 -0.056866333 -0.033238433 0.046873063 0.06184216 0.028010696 0.019651875 -0.050159723 -0.01560979 0.014676794 0.027071722 -0.015581109 -0.013596348 0.053239927 -0.019787125 0.04775832 -0.061528854 0.03588941 0.061288998 0.0016135797 0.047269054 0.06812982 0.06274645 0.015201978 0.048021674 -0.028210264 0.0061530992
0.056604177 -0.04605937 0.04039135 -0.0044842362 -0.056678988 0.0144838765 -0.056887355 -0.04110221 0.008109197 0.03716167 0.0376686 -0.06777875 -0.008225165 0.027249195 -0.038360804 0.03210433 0.00034739822 -0.057039827 -0.031297166 -0.05221288 -0.0184962 0.07051234 -0.041843634 0.028460562 0.0133950785 0.02355814 0.038964212 -0.06647919 -0.014589526 -0.008435629 -0.02287823 -0.024689354 0.06526908 -0.040646683 -0.035629053 0.056964904 0.04749672 -0.018955931 0.029094093 -0.066953994 0.0496402 -0.049679827 -0.033251237 -0.0089745 0.006640926 0.056132436 -0.014459368 -0.027284525 0.047935076 -0.042281047 0.017743245 0.019868433 0.016182706 -0.06465102 0.017255008 0.0021811873 0.063091815 -0.06444437 0.0038485676 -0.039988536 0.06733455 0.058222413 -0.05014289 0.05426964 -0.04922077 -0.029079013 -0.06724099 0.029070728 -0.057452396 0.062208876 0.037425347 -0.061023273 0.002508983 0.021401398 -0.05671812 0.005877435 0.062501416 0.034083694 -0.034151223 -0.014876615 0.043438196 0.022767209 -0.03191471 -0.02649315 0.067213625 0.043587618 0.068096265 -0.0070803314 0.0660577 0.018997438 0.024778381 -0.063909456 -0.06274745 -0.06295869 0.007869966 0.0093500465 -0.00028143078 0.062130854 0.055167064 -0.058390673 0.059428677 0.070075855 -0.06078936 0.0015726388 0.0062314346 0.037230834 -0.019776996 0.031328224 0.0017093793 0.0022342578 0.016809635 -0.002883412 0.020439953 0.050135016 -0.017699983 0.015243381 0.015408732 0.06616734 -0.004802756 0.063864276 -0.042826947 0.052957892 0.07250664 0.035384357 0.050359756 0.053513348 -0.04962805 -0.017417863 0.0012442544 -0.011628881 -0.009185441 -0.06800304 -0.04554206 0.046911903 -0.04167562 -0.004968263 0.073177785 -0.05836559 -0.007917628 -0.036266584 0.021077983 0.016353205 0.06583376 -0.011801615 -0.016979456 -0.00033714622 -0.07298958 0.027504668 -0.0266143 -0.038420137 -0.061069142 -0.025172852 0.0022777915 0.04570172 0.049355842 -0.021619447 -0.016242411 0.067354664 -0.05934605 -0.07291897 -0.04913992 0.010503538 0.021731429 0.06266731 -0.03598558 0.03475921 -0.06604688 -0.07104837 0.057955876 0.07009952 -0.05425369 0.06279403 0.044609956 0.0012078062 0.058587328 0.035366848 0.04932335 -0.041296046 -0.06978116 0.032055333 -0.041002557 0.053823054 -0.048284493 0.06174794 -0.035100285 0.06917718 -0.03780341 -0.06595636 0.03347601 -0.06702496 -0.067811936 0.04326289 0.018373363 -0.04366584 0.047307953 0.0068917945 -0.01252798 -0.00026723742 -0.03935228 -0.045468505 -0.003447175 -0.051537015 0.02940961 -0.04938183 0.0050523803 0.06602366 0.06781319 0.015838854 0.06899235 0.030778281 -0.025588062 -0.0485868 0.06711368 0.0501547 0.03133078 -0.05173087 0.049868755 -0.00041336566 -0.063099615 -0.03651408 0.00498084 -0.06786097 0.046915807 0.058699265 -0.011500359 -0.035918605 -0.04116725 -0.024190124 0.039452538 0.05866933 -0.06663427 -0.070194274 -0.022260793 0.028914064 0.019073889 0.02217102 -0.033475835 -0.06085056 0.031484954 0.050552137 0.07210235 -0.046753578 -0.028501272 0.050716788 -0.055601697 -0.007962875 0.014307797 0.016317777 0.033361636 -0.007337831 0.03256177 0.03083229 0.005270466 -0.06656344 -0.04105912 -0.0709186 -0.007718347 -0.015248895 0.033917278 0.04106441 -0.0098535195 0.030617803 0.06496231 0.034227192 0.06361708 -0.06077418 -0.038581997 0.06443937 0.010824777 0.008525342 -0.033345763 0.03789045 0.016953148 -0.011961859 -0.034409434 0.03640686 0.033397473 -0.062574625 -0.016448721 0.038816385 -0.041175466 0.0036438704 -0.07362621 -0.0186488 0.046743378 -0.06978201 0.06655376 0.05272661 0.06670256 0.055096135 0.064814225 0.0059272796 0.069163114 0.04527857 0.029925957 0.0020259619 -0.0095549375 0.029443137 -0.016803619 0.07406856
0.06343284 -0.06838991 0.027725682 0.011993803 -0.02650452 0.028373793 -0.055102006 -0.07230322 -0.01655589 0.019969314 0.05289018 0.04120218 -0.068451636 -0.013301048 -0.016916823 1.2099743e-05 -0.010431722 -0.042977046 -0.013456963 -0.029563807 0.051803976 -0.067803286 0.058730662 -0.073404096 0.006026864 0.00066877156 -0.0715048 -0.06394883 -0.018408787 0.049954675 0.05222948 0.016175732 0.013339721 -0.034275565 0.0043074414 -0.0075738505 0.041038938 0.014856957 0.0019590557 -0.061253812 0.06751071 -0.031513374 -0.0006018281 -0.013380498 0.015098855 0.027173527 0.050762653 0.05438289 0.007082373 -0.05314114 -0.03920009 -0.07038932 0.0053856 0.06090054 0.05549456 0.017176986 0.07024719 0.01758501 -0.060875304 -0.0066139325 -0.010488875 -0.03206314 -0.022212617 -0.012026459 0.047042422 0.035979673 0.031132326 0.031169616 -0.009285748 -0.045629546 0.056994513 -0.021296777 -0.04053937 0.046917684 -0.014083695 -0.06325622 0.04668399 0.018397614 -0.06045066 -0.040316828 -0.07276621 0.045033127 -0.03926221 0.029708862 -0.025810812 -0.027553964 -0.04639467 -0.0035602003 0.06343341 0.038993374 0.027558573 -0.009280518 -0.020781368 0.02729506 0.034411207 -0.04754121 0.060594484 0.0504442 0.011954233 -0.055044215 0.06839895 -0.037089676 -0.049376316 0.032909587 -0.044737317 0.07424867 0.04421366 -0.0727078 0.037237644 0.06627089 0.056770504 -0.024948008 0.031431653 0.059420586 0.0012548119 0.056723 0.051782772 -0.042552598 0.05218993 0.06564526 -0.0053366125 -0.04661815 0.01301983 0.04880008 -0.036120426 0.06784667 0.01896751 0.039238103 -0.022803184 0.055316433 -0.04002953 -0.052343734 0.047552593 -0.03149175 0.034950085 0.0139886215 -0.030153073 0.031405173 -0.033336382 0.003659159 0.045558326 0.031963453 0.025763609 0.040690355 -0.053274386 -0.013120674 0.07003924 -0.057361346 -0.025476187 -0.020133406 0.054624557 0.044995204 0.024876647 -0.013170216 -0.051673543 0.040863723 -0.016367268 0.04777904 -0.019312285 0.0456125 -0.052951414 -0.04386628 -0.018095803 -0.02810295 0.058037058 0.044532746 -0.065803856 -0.02626694 -0.0010347739 0.010921299 -0.07101334 0.06894159 0.020041257 0.07019372 -0.051363185 0.023321502 0.012115911 0.04087323 -0.061435446 0.00713294 0.020232119 0.030976929 0.00046409667 0.066838965 -0.06993621 -0.011165038 -0.053385355 -0.0140248425 -0.05341444 0.0020665675 -0.06654152 0.06451674 -0.07334748 -0.0010749847 0.0033637881 -0.020268619 0.039229803 -0.030388206 -0.058755346 -0.005190715 0.008668847 -0.07115918 -0.0013647303 -0.024123784 0.058434784 0.040222958 -0.02045501 -0.022372771 -0.0394691 0.011854246 -0.014216214 -0.074275665 0.048216544 -0.07228777 -0.0031209737 -0.072278365 0.07428923 -0.031536467 0.002629973 0.07342735 0.0024867058 -0.06882924 0.061791092 0.03834702 -0.03150823 -0.057660583 0.032235302 0.0021000057 0.029798053 0.052921012 0.040445395 -0.04476474 0.047226347 -0.042611044 -0.042258024 0.06600791 -0.036159787 0.0020854548 -0.011207804 -0.052496187 -0.0016297176 0.041527577 -0.0667253 0.064537376 0.040756606 -0.013473019 -0.060380045 0.022001803 -0.050132282 -0.021929841 -0.06110964 0.016094409 -0.07284119 0.014594726 0.061668754 -0.06488349 0.005308263 0.05945626 0.03177201 0.008893102 0.033030033 -0.04612495 0.010332264 -0.05505766 0.043906063 0.036660522 0.052247778 -0.04616752 -0.052030534 -0.05375469 -0.04180264 -0.033112068 0.02051922 0.05077049 -0.0032295808 0.011107072 0.006999783 -0.060754348 -0.029039387 0.009570032 0.015866332 -0.06937069 -0.023318466 0.026461825 -0.07354316 0.074017614 0.006646499 0.006971754 -0.007630378 -0.055974513 0.016649105 -0.03786248 -0.063206375 0.058081463 -0.018544786 -0.049649067 0.0643014 0.07386108 0.06279443 0.0157374
-0.05746983 0.056669712 0.028504469 -0.051812805 0.06613514 -0.0001097098 0.031859174 -0.04697734 0.0742161 -0.015635937 -0.026473872 0.04849247 -0.05102684 0.0726088 0.006159149 0.0042635426 0.0405659 -0.05267369 -0.029618226 -0.050267376 0.0695447 0.0026807562 0.062794164 -0.06918189 0.028001934 -0.02652609 0.04196304 -0.057040364 -0.02959992 0.02769544 0.024780385 -0.051478177 0.049087718 -0.061007272 0.04478787 -0.047575086 0.052203298 -0.054045983 0.003883101 -0.02505165 -0.008629926 -0.0053124726 0.007616952 0.012742303 -0.05558896 0.028064601 0.011060528 0.033354223 -0.045170456 0.0581574 0.037813023 0.008546345 -0.0461222 -0.05880542 -0.0018096864 -0.04813493 -0.0144172385 0.0026661977 0.01226154 0.05716923 0.025275305 -0.045787767 0.018143184 -0.021531343 0.024175681 -0.056279052 -0.024211515 -0.063691735 0.0510996 0.0593684 0.058252737 0.011210769 -0.038877793 0.028350323 0.030860357 0.036501862 -0.018707052 0.067418456 -0.012984391 -0.019073602 0.06558545 0.013150811 -0.036774244 0.047007546 0.005356036 -0.07240079 -0.021859068 -0.010864772 -0.009749398 -0.013520468 -0.022325251 -0.023359157 0.0014677569 -0.010669388 0.0098885 0.023306191 0.01794517 -0.073638916 -0.03840932 0.025277913 0.020342141 -0.070473485 -0.013216883 0.0073585287 0.06396918 0.027198762 -0.018416964 -0.032718215 0.021299452 0.040144756 0.010744952 -0.04752544 0.0702135 -0.07342113 0.0022495836 -0.008571923 0.03981749 0.048670664 0.041036084 0.008131266 0.027160838 0.045971125 0.035013676 -0.04613252 0.07260698 0.044586435 0.030316994 0.01713498 0.041465588 0.04473996 0.049338497 -0.0558377 0.0020153075 0.060624674 -0.014838353 0.036350556 -0.040201604 -0.00992474 -0.026044633 0.023329288 -0.06748661 0.05844164 -0.015079197 0.06889132 0.0703249 -0.020542014 0.03685057 -0.053988155 0.029733695 0.05980286 -0.00036619604 0.070442766 -0.06557578 0.020725846 0.02036538 0.00900542 -0.011038654 0.03917767 0.055700734 0.004396081 0.019289613 0.026763953 0.06684698 0.06807488 -0.0028043538 -0.07089595 0.053378224 0.052861363 -0.0017240644 -0.06369019 0.057574183 -0.031030174 -0.048320007 0.013541095 -0.062354587 0.057377562 -0.021174919 -0.046823002 -0.06662086 0.0045374483 0.0492417 0.030435406 0.04664424 -0.038566317 0.007823601 0.010749333 0.032013334 -0.024589863 0.056293428 0.030539155 0.051324964 -0.019433558 0.035582878 -0.0024662912 0.020799056 0.027788296 -0.013535667 -0.036507677 0.026176587 -0.008103184 -0.041558407 -0.07418425 0.05956447 0.027843483 -0.014670856 -0.06649817 -0.035322648 -0.027887985 0.062653646 0.05129817 0.0045772344 -0.060240928 -0.020089716 0.05540034 -0.05748897 0.041106835 -0.04804578 0.02717723 0.006020032 -0.005197011 -0.025114868 -0.06999226 -0.04809124 0.015579917 -0.007409245 0.058975443 0.055499494 -0.023885403 -0.054273896 -0.07315772 0.06412493 -0.003560394 0.030384392 -0.022148248 0.06904262 0.032970257 0.046391174 -0.03560876 0.048031837 0.057074443 -0.0032960102 0.024071723 0.016503513 0.057027236 -0.019431729 0.05944462 0.038900375 0.017320432 -0.059449233 0.028250657 -0.019575566 0.0070693716 -0.021505393 0.05530417 0.02335006 0.05870433 0.010744654 -0.04750921 0.015749142 -0.019167434 -0.07155679 -0.0032545626 -0.01342782 -0.07396729 -0.041264314 0.03991945 0.0035267323 -0.04797098 0.006798193 0.06286645 -0.045514658 -0.0086796805 -0.011946835 -0.020965576 0.02794306 0.066839814 -0.015030153 0.057031766 0.029378317 -0.07003902 0.07226975 -0.020613283 -0.03639648 -0.07033272 0.062210947 0.036469415 -0.008820623 0.019726835 -0.01970319 -0.028273802 0.00014002621 0.05987461 0.04988222 -0.01395921 0.0452286 0.014271274 -0.020305622 0.055693105 0.06313592 -0.01712047
0.02167818 0.021215342 0.026983902 0.009851992 -0.07361958 -0.004872605 0.06933339 -0.03286464 0.014568754 0.068787575 -0.020494726 -0.03929472 0.046256885 0.0055234283 0.019862264 -0.033519134 0.017283395 0.06367269 0.035321616 0.004441254 0.04333505 -0.019837715 -0.0027933717 0.048009716 0.050207034 0.015143231 0.0059135184 -0.011974398 -0.07304514 -0.022463184 -0.06497539 0.018248953 0.045830354 -0.02332618 -0.040394522 0.05033744 0.065409735 -0.019186735 -0.00901363 -0.06229701 0.020663463 0.047456987 0.031154767 -0.07383073 -0.047265936 -0.03371874 0.03689935 0.047624595 -0.024430204 -0.037885625 -0.012580536 0.06991716 -0.060977384 0.058523223 -0.04047326 -0.04828687 -0.03690708 0.06319967 0.053441882 -0.02921547 0.01000154 -0.02585661 0.06797607 -0.07202897 0.016440079 0.032232948 -0.039544772 -0.031611834 0.054167658 0.032240093 0.00711219 0.014053471 0.04541137 -0.04167452 0.052297384 -0.027374636 0.022176325 0.0035310239 0.010694079 -0.03718972 0.026947826 -0.0077270716 0.067205414 0.005326286 -0.0695511 0.012507848 -0.057496596 -0.058910232 0.0367233 -0.03730354 0.0255123 -0.05563932 -0.017381482 0.049857028 -0.015752759 0.05448112 0.04903555 0.018373735 0.06065698 0.056239724 -0.0061440542 -0.04186719 -0.015563227 -0.016201437 0.056155935 0.057598963 0.050563954 0.06322321 0.07382585 0.059241623 0.072378084 -0.031040605 -0.0015484765 0.017186098 0.07051778 0.012224875 0.038079575 0.07175772 0.05353397 0.037646376 0.0009117946 -0.02994416 0.06973453 -0.0718815 -0.010696068 0.008686848 0.06305301 0.06007208 -0.042508572 -0.06557014 0.055645883 0.009203389 0.04193619 -0.07289334 -0.01526197 0.04501 0.02340927 -0.021122467 0.0070420876 -0.03418122 0.042143986 -0.0037222207 -0.019570991 0.031244397 -0.057325408 -0.02945264 -0.06572755 -0.0577566 -0.06764738 -0.036199182 0.038769096 0.04752519 0.035007745 -0.045619667 -0.031944722 0.024844758 -0.0036654398 0.022886142 -0.023064211 -0.054083638 -0.045620322 -0.003468208 -0.053323377 -0.04999139 0.033745788 -0.04536043 0.02279742 0.06288263 -0.06551961 0.011804417 0.045615144 -0.056635585 -0.051683173 0.03836043 -0.055387564 0.018032871 0.029627375 0.022549741 -0.058674816 0.0010700747 -0.06587067 -0.07274863 -0.05924571 0.038346082 0.06007263 -0.0066727847 -0.05126997 0.033172943 0.03149744 0.058837846 -0.026497517 -0.060137 0.02608493 -0.06477093 -0.008377798 -0.017331302 0.032343484 0.035091467 -0.07379836 -0.063621834 0.018514313 -0.06410549 -0.01977517 0.063001454 0.048654824 0.021444552 0.025086023 -0.010585703 -0.06026952 0.000773564 -0.0581913 -0.044141233 -0.0318911 -0.005328767 0.041058272 -0.06238992 -0.0059834197 0.022381678 0.010884814 -0.046202056 -0.0497175 0.06574209 -0.03134497 -0.013733551 0.069590956 0.014286727 0.059675917 -0.021561392 -0.036931843 -0.03723151 -0.0009949133 0.051844567 0.017040096 0.04994192 -0.006333925 -0.022458162 0.03594581 -0.019771446 -0.05888678 0.06863527 -0.0549783 0.07193789 0.05186507 0.040434428 0.058434427 0.022958547 -0.04267396 0.023583047 -0.07305596 0.048305303 -0.0063124597 0.015200734 0.037533954 -0.043167606 -0.004356876 0.046386756 -0.03723864 0.039932698 -0.057516 -0.020871032 0.066937834 0.01677531 0.00034003705 0.07114266 -0.03978716 -0.031963773 0.0033384562 0.0034937188 -0.0050087795 0.026942544 0.0010566786 0.027348131 -0.06655179 -0.0683177 0.0014515743 -0.01744179 0.02066034 -0.05643291 0.052764952 -0.07167899 0.0673724 0.039471976 0.0054524764 -0.023887765 0.01696138 -0.071733 -0.029581614 0.0051061437 -0.038380407 0.02688282 -0.042720273 0.026921555 -0.06948159 -0.06207323 0.014906026 0.007211186 0.014314659 0.0057079867 0.031696588 -0.03907206
0.02204299 0.006811954 0.053371325 0.038802706 0.064302236 0.06981619 -0.070993155 0.047084585 -0.061799727 0.035952434 -0.012649734 0.038294233 0.059213087 -0.06524314 -0.038213227 0.0023839846 -0.004098013 0.007594198 -0.037541974 -0.020259857 -0.031437915 -0.020469803 -0.039824728 -0.06649297 0.0077717155 -0.019243285 0.014027908 0.046721652 -0.038633134 -0.014824819 -0.033390854 -0.012170173 -0.030302748 -0.044228487 0.043562204 0.010955162 0.013355419 0.05121149 -0.031380214 0.02113153 0.046444833 0.0019096956 0.063769504 0.032769494 -0.047529396 0.017101683 -0.048435748 -0.065449044 0.06450775 -0.067263626 0.05027894 0.033502795 0.07339738 -0.04367732 0.03881126 -0.055724107 -0.03854333 0.06960751 0.021535404 -0.012166023 -0.029633764 0.00704702 -0.0007686317 -0.06979122 0.049492285 0.05759898 -0.0718401 -0.02534702 0.0711364 0.068847194 0.06783952 -0.012677953 -0.035767302 0.04431037 -0.055775367 0.07394494 0.0047593117 0.042099252 0.02958206 0.022432618 -0.028970614 0.07373634 0.008736528 0.02805584 -0.019217331 0.02932743 -0.046619654 0.017682262 0.021849096 0.016327627 -0.06424211 -0.043273162 0.03615044 0.027866684 -0.030549835 -0.00095021725 -0.019721974 -0.058863655 -0.071852036 -0.058049306 0.05064653 -0.04218984 -0.068464175 0.0073586404 0.057423875 0.025362544 -0.042452503 0.027741149 0.06051232 0.05333364 0.066982195 -0.068797864 0.030081943 0.0015004426 0.003435962 -0.017268136 0.011945471 0.03928764 0.03827139 -0.049652353 -0.049745847 -0.07239407 -0.05950225 -0.06808287 0.07375708 -0.04036992 -0.068016104 0.0023516864 -0.017252937 -0.009645224 0.00412634 0.009356894 0.027904958 -0.027295437 -0.060651347 0.06827034 -0.06771965 0.0019411594 -0.018165246 -0.027555667 0.06290048 -0.01627205 -0.036550816 0.01072599 -0.0024704933 -0.027541067 0.06402168 0.043146268 0.0022744164 0.06438255 -0.050388753 -0.06882718 -0.001117751 0.04284878 -0.014914926 -0.048680246 0.06858404 -0.02503604 0.07335374 -0.067977965 -0.016953982 -0.061291967 -0.071786724 -0.008254416 -0.025474768 -0.037773788 0.04737234 -0.04838663 -0.062883615 -0.029456243 0.05398555 -0.07365765 -0.01539848 0.059760466 0.049907736 -0.05675918 0.012244903 -0.058933806 -0.033372194 -0.03918826 -0.02052958 -0.06455782 -0.030116215 -0.019831825 -0.04292667 0.063838944 0.03584549 0.057677492 -0.00052411854 0.06289962 -0.006855488 -0.056010325 0.061089903 -0.07297287 -0.04902521 -0.0005603954 0.07397203 0.00041928887 -0.028270025 -0.05413875 -0.0019414052 -0.029953755 -0.04095241 -0.00093049556 -0.046854064 -0.0005637482 -0.020774662 -0.0597909 -0.03169531 -0.06900169 -0.0311349 -0.03251033 -0.04134713 0.007605657 -0.07056517 -0.028043173 0.026431315 0.037458673 -0.019573156 0.028971963 -0.06999985 0.036660418 0.07092409 0.023559399 0.0022627115 -0.020000227 -0.039109007 -0.006167397 -0.03286945 -0.028820004 0.06366353 -0.01320608 -0.070922166 0.0093449205 -0.040157437 0.011590324 0.07213326 0.06615588 0.07249819 0.0411219 0.071976095 0.014488459 0.07065965 -0.02565245 0.05354345 0.043030612 0.07288915 -0.023857519 -0.063173294 0.025051683 0.007551767 0.026901409 -0.008863695 -0.026844699 0.023360223 -0.035181206 0.038730726 0.03274399 0.06991163 -0.021423567 -0.0083383545 0.038582936 -0.007391721 -0.0034391582 0.055897012 0.003864333 -0.066724434 -0.008438125 0.034339935 0.017254584 0.044994265 0.050348222 0.07416698 -0.023522664 -0.041589823 0.012238726 -0.020292975 -0.06974982 -0.065464266 -0.0725762 0.056736782 -0.0144661255 0.0008224845 -0.06429631 -0.034138806 0.03261388 0.0065701753 0.043267377 -0.009781718 0.007721871 -0.045330256 0.014785491 -0.012073144 -0.04560546 -0.06923333 0.0029562265 0.030790433 0.0013669133 -0.06260334 -0.044998556
0.016313732 0.060540125 0.012934528 -0.04316592 -0.015035227 0.028917544 -0.048246697 0.017445661 -0.05224275 -0.031894878 -0.024091218 -0.0021074489 0.023547217 0.025781795 -0.049867176 -0.0053027347 0.041824207 -0.05850966 -0.036677536 -0.031669784 0.045313686 0.0026278421 0.049174033 -0.056409672 -0.046350148 -0.04333576 -0.07095805 -0.010739788 0.04530771 0.053626552 -0.014709879 -0.037233442 -0.01184009 0.052250177 -0.016560115 -0.034654763 0.03401327 -0.039547022 -0.03595995 0.04405255 0.0010280684 0.063280046 -0.06644417 -0.0021400526 0.068028346 0.05953768 -0.0016119257 -0.022563685 0.06992814 0.04161583 0.026058272 -0.07005526 -0.054302238 -0.04953739 -0.0005015582 0.009194769 0.037872322 0.04392934 0.06972076 0.010571107 0.060110316 0.007990211 0.06940867 0.0713409 -0.04446513 0.058066905 0.05759433 0.006102495 0.054590404 -0.03473244 -0.06366518 -0.07138158 0.00909812 -0.023702916 0.056472763 0.06573805 -0.06492028 0.035246372 -0.045997113 1.2822449e-05 0.004448727 -0.018376648 -0.021832779 -0.0032386333 0.0060076714 0.03907264 0.010077976 -0.0070069134 0.03628067 -0.06945567 0.07401213 -0.014601234 0.063819915 -0.015639734 0.012328468 0.057608783 0.022406064 -0.018689364 0.052157924 0.044779867 -0.0659014 -0.060510702 0.041574247 0.04072296 0.06443027 0.058086783 0.05102031 0.015597336 -0.06151564 -0.02817665 0.048668467 0.015536159 0.053858086 -0.057316877 -0.043109387 -0.0034887716 -0.033176437 -0.03082566 -0.04485607 0.015532024 0.017854445 0.01728978 0.018011391 -0.011358455 0.059229717 -0.06746275 -0.022976905 0.06586504 -0.01871897 0.049244963 -0.0677324 0.01847341 -0.010416642 -0.031750314 0.013579711 0.037768535 0.014280885 -0.033749603 0.07425094 0.06131512 -0.04973568 -0.040280767 0.012584671 0.019508235 -0.0068562105 -0.06244872 -0.0030001625 -0.05681949 0.065528214 -0.03788348 0.05269687 0.038438447 -0.061799057 -0.04537572 -0.042167403 -0.005036205 -0.0362505 -0.031257167 -0.024087314 -0.05751382 0.072857514 -0.02844045 -0.057009943 -0.03338752 0.017023943 0.056141526 0.05173409 -0.03061213 0.0073704123 -0.067294404 0.04856442 -0.06738774 -0.03201743 -0.05335463 -0.051357985 0.001702711 -0.061643317 0.011068955 0.052473888 0.036157817 -0.03363984 -0.049976937 0.061814874 -0.056021463 0.0111534 0.034532093 -0.019949801 -0.051784247 0.029467843 -0.05540768 -0.03584769 -0.043659046 0.040673397 0.017039016 -0.052288584 0.060623616 0.06756517 -0.025920361 -0.007210754 -0.036227845 -0.04076657 -0.0040198043 -0.011833347 0.026723482 0.06560671 0.06432964 0.06736706 0.016714469 -0.04370054 -0.062976316 0.058767408 0.04818944 -0.038459465 0.05476311 0.046158507 0.02048827 -0.02790599 -0.060194686 -0.05223901 0.044894174 0.016368955 0.059715793 0.04200031 -0.018011317 -0.058289763 -0.030687321 0.031127997 -0.008742936 -0.013923097 -0.043925382 -0.03168935 0.06910963 0.05221291 -0.010111608 0.047999978 0.023312166 0.056659356 0.0020445213 -0.062608115 -0.027285147 -0.0072654784 0.037559927 -0.00085918605 0.07259002 0.03310767 -0.056768317 0.009411283 0.06200169 -0.02290003 0.048732355 -0.041117374 -0.043172535 -0.007309377 -0.03577333 0.025144167 0.061867714 -0.056553084 -0.003491573 -0.06772144 0.0663116 -0.072479635 -0.007961065 -0.03993169 0.030755222 0.07210024 -0.06425096 0.045071796 0.03326396 -0.016432207 0.04751925 0.0253914 -0.032701418 0.053565025 0.024088435 -0.017239653 0.055932626 -0.022979036 0.021250889 -0.05008521 -0.016800761 -0.054664038 0.05570963 -0.05273877 0.018204711 -0.0043770447 -0.057873085 -0.0046921447 -0.011884786 -0.034409326 -0.03526688 -0.05856839 -0.0485843 -0.033252463 -0.067721546 0.015112154 0.034202218 -0.07044166 -0.0015865117 -0.0013010502 0.03192152
-0.0017989576 0.0032675415 0.052493423 0.021734245 0.01625128 -0.03691712 0.009061933 0.061861575 0.07436061 0.0046276674 -0.058800437 0.010525644 0.009852618 0.06253229 -0.06501787 0.035677083 0.07195814 -0.005225338 0.004988879 0.016761757 -0.06570995 0.0438639 0.02454681 -0.05031257 0.05497831 0.06326741 0.0066608265 0.0053908676 0.009681411 -0.05600823 -0.019728184 -0.03133855 0.047464333 -0.036558285 0.0053310916 -0.04414991 -0.049901247 0.0315276 0.03068152 0.0053741634 -0.01475637 -0.043839958 -0.058841623 -0.03673726 -0.056398183 -0.00807026 -0.034447215 0.0437126 -0.059285477 0.050885126 0.0018188953 -0.06407968 -0.0139152035 0.004301131 0.060816124 -0.01586816 -0.03427166 -0.058256857 0.007509619 0.05385968 0.07084037 0.013840973 0.040807053 -0.04936867 -0.06747341 0.02574832 -0.0052069128 -0.025029816 -0.03595619 0.0128735155 0.059986472 -0.0683535 -0.00883054 -0.018698644 -0.04612131 -0.0014380962 0.055824205 0.00813742 0.05795665 -0.067098804 0.0054386407 -0.06102831 0.03515611 0.062581435 0.039721794 0.027096935 0.03752979 -0.0018776581 -0.037969045 -0.020464268 -0.040173702 0.0736566 0.069153115 -0.066626236 0.035365783 0.05598153 -0.01586197 8.811802e-05 0.031687967 0.051681846 -0.0077712014 0.024281278 -0.014707342 -0.068173386 0.06789763 0.043804213 0.028198838 -0.020837773 -0.017498516 -0.029979866 0.055234313 -0.011875935 -0.05184899 -0.0098237395 -0.06287917 0.013945378 -0.011298977 0.0014882088 -0.005088441 0.019332804 0.022688061 -0.06694635 -0.07229896 -0.066735074 -0.018067867 -0.061388034 -0.0584811 0.04487993 -0.020123437 -0.050389923 0.022419743 0.009975471 -0.061480306 0.00037810206 0.062557936 -0.033359367 -0.043482006 0.016392067 -0.050280076 0.032216482 0.030580714 -0.009429783 0.014012709 0.06999226 -0.012058087 -0.04189919 -0.023678191 0.070585296 -0.01258992 0.034609534 0.06898667 0.004866503 -0.006628759 0.060971737 0.07117626 0.027081005 -0.00091626495 0.028454512 0.044802397 -0.02157411 -0.05561938 0.07015778 0.0597872 0.051958367 0.028321907 0.060520917 -0.04474292 0.051921844 -0.016686603 0.044288337 -0.027583871 -0.06282054 -0.037423644 -0.009283178 -0.0010493323 -0.04328437 -0.02919541 -0.072047755 -0.033896416 0.03759008 0.044948556 -0.0024556965 -0.030598331 -0.021145187 -0.046481088 -0.06274333 0.06432116 0.040325984 0.045387194 0.07067527 0.006612122 -0.05705528 -0.06154856 0.070161805 -0.047210097 0.048873946 0.05867751 -0.044989247 -0.0005251318 0.058858007 -0.045087516 -0.052503727 0.065632984 -0.06882344 0.06268877 0.06087917 -0.011832021 0.04515025 -0.024889864 -0.06652963 -0.033971343 -0.035672225 -0.05964419 0.05508679 -0.0119176395 0.015946932 0.0525617 -0.041997775 0.039988786 0.04512638 0.061827436 -0.024812914 0.02777677 0.019494295 -0.010253526 -0.07111379 0.057953224 0.061191663 0.050265387 -0.024764597 0.028034821 0.071498126 -0.06703263 -0.0070022866 -0.025737058 -0.056490205 -0.010203615 -0.0066049397 -0.03680502 0.055548057 -0.024248373 0.056628063 -0.06413894 -0.0729476 -0.05041767 0.053951845 0.06913608 -0.0070954263 -0.0054544806 -0.04034182 0.036732346 0.04943545 0.044459507 -0.054322317 -0.003084965 0.030781828 -0.0039231703 -0.024003662 0.04397746 -0.04281054 -0.01805256 0.0191724 0.05790469 0.073539734 0.00289198 -0.037316505 0.0258274 0.016223595 0.069216445 -0.027279135 -0.02551929 0.0101288855 -0.070094496 -0.0062824637 -0.008509666 0.047762133 0.030917242 0.021597221 0.060830593 -0.0554094 -0.029964272 -0.03620285 0.06194809 0.062106982 0.050959468 0.033046156 -0.051690713 0.034901306 0.006313592 0.013661556 0.017286919 0.02516675 0.07091433 -0.014262281 0.009716123 0.024696589 0.043037795 -0.039939564 0.05717604 -0.062100545
-0.077241756 0.09103325 0.052022435 0.04144528 -0.10069107 -0.06912526 -0.00933514 -0.11209416 0.07479324 0.05703378 -0.0877085 0.08963109 0.056476276 -0.13548839 -0.13693593 -0.027023183 0.012614472 -0.04501336 -0.09825831 0.032279562 -0.13096853 0.0123890415 -0.08420313 0.0121291885 0.061802916 0.012955943 -0.060029466 -0.12702344 0.039290026 0.09632368 -0.07435358 0.041961603 0.07329399 0.15634234 -0.043454606 -0.056509327 -0.03270611 0.051504318 -0.038646847 0.0026475997 0.046804342 0.08066253 0.080843896 0.042820018 0.066162355 0.0055101006 -0.012803712 -0.01829083 -0.1423846 0.13314913 -0.09207305 -0.05567724 -0.021971105 0.0646502 0.11848437 0.10037363 -0.10259471 0.043340817 -0.019350085 -0.01849761 -0.03059545 -0.0035395464 -0.03969901 -0.039570488 -0.076435246 -0.11609994 -0.0011939479 0.016971782 -0.046723723 0.0009261866 0.036978796 0.025099223 -0.058037702 -0.05942878 0.010084796 -0.027410341 0.04739947 -0.05766963 0.018681316 -0.015627902 -0.109809294 -0.057365384 0.06846304 -0.13058726 0.08974477 0.13038869 0.023219338 -0.083680764 -0.0029041737 0.0017389957 -0.036693953 -0.084471114 0.07284055 0.16900276 -0.09840109 -0.07822405 0.034826197 0.098473534 0.014804299 -0.0007306388 -0.06271151 0.105517544 0.11009786 0.013622477 -0.104843155 0.001738355 -0.005214874 -0.03139427 -0.031071577 0.03960441 -0.01400991 0.04646764 -0.06062146 0.03917299 -0.11130008 0.08457392 0.08871677 0.081621625 -0.08840744 0.044338252 -0.017697029 0.03556995 0.11356778 -0.029226597 0.04037232 -0.014308048 0.022688732 0.12812294 0.15979575 -0.04820216 -0.038535565 -0.07347873 0.03911494 0.04528906 -0.038334694 -0.043786354 0.06102543 -0.041022483 -0.094411075 -0.0691768 -0.059637215 0.046893585 -0.040530436 -0.01851756 -0.01680714 -0.109563 -0.019389834 -0.018185781 0.08672149 -0.05721501 -0.09204648 -0.11779573 -0.01208165 -0.0055155004 0.087533295 -0.04209431 -0.0057553174 0.033222683 -0.15641458 -0.14670226 0.10709265 0.0068592927 -0.045342904 0.06355939 0.12767194 0.018125283 -0.011967388 0.045558672 0.08409031 -0.023596851 0.07456353 -0.06807041 -0.06633636 0.020622011 -0.033004716 0.00029626876 0.02991697 -0.017715558 0.0827706 0.079633385 -0.04389189 -0.026999706 0.036551684 -0.02443652 0.041534796 0.01526339 0.024486585 -0.092170745 -0.046192296 0.10797374 -0.041683957 -0.006352524 0.07094049 -0.02657277 0.05814053 0.060248103 -0.14130005 -0.0534788 0.051159147 0.059975572 0.013641941 -0.010453781 -0.028245753 -0.0385265 0.042918656 -0.060305364 0.08297475 0.025788933 -0.067363895 0.09020072 -0.08518737 0.019796804 -0.017537687 -0.106282644 -0.019839348 0.048045363 -0.034769867 -0.14087355 0.04981472 0.12964146 -0.010722387 -0.08232985 0.06794541 0.045728456 -0.015833952 -0.11652417 0.00861673 -0.06814337 0.018739894 -0.10424003 -0.09954504 -0.008600422 0.12130399 -0.11092811 -0.086576276 -0.019648308 -0.10284291 0.015183586 0.08013003 -0.0064036897 -0.006042848 0.005998656 -0.0014150457 0.08571873 0.09202975 -0.11858613 0.06186515 0.02829611 -0.011098448 0.054602362 0.044008926 0.12703368 -0.06609714 0.034343228 -0.09642778 -0.0011078017 0.10416492 -0.039847698 -0.016829995 -0.032961216 0.032675255 -0.03476081 -0.0584525 -0.005002511 0.01944453 0.00795043 -0.072950505 0.0022993423 -0.009159815 0.11642705 0.080698416 -0.061456267 0.057631828 -0.08956365 -0.014659324 0.08556767 0.018357413 0.029670818 -0.1024445 0.02526452 -0.01611832 0.008364575 0.035794362 -0.04273239 0.04833797 0.050183848 0.00174844 0.02989426 -0.044365015 0.051701084 -0.06633319 0.0013558196 -0.044037495 -0.053422317 0.056966543 -0.02142709 0.014450423 0.007191598 -0.07482467 -0.16441718
0.004569096 0.11875377 0.118062854 -0.014050092 -0.13127348 -0.06897186 0.046272706 -0.09551425 0.06844026 0.11144143 -0.06532272 0.10376994 0.031046262 -0.109218866 -0.054842625 -0.098757215 0.028439498 -0.035847288 -0.124969885 0.037838683 -0.047726974 0.011578187 -0.09370966 -0.035713293 -0.034835573 0.08021015 -0.043953057 -0.1022692 0.0009306357 0.049396593 -0.04835976 0.014027315 0.027271222 0.036757126 0.039990515 -0.01602588 -0.027544832 0.05477846 -0.014123715 -0.064760946 0.025843058 0.10993961 0.075827755 0.03785314 0.03893037 -0.031840626 -0.046360046 0.00415878 -0.053820726 0.045675825 -0.102309704 -0.066360906 0.119718686 0.11453891 0.009012084 0.07957094 -0.02128793 -0.076651014 0.02460558 0.11827312 -0.06593123 -0.022209492 -0.02223837 -0.0013570412 -0.029000426 -0.0327476 0.0347192 -0.048311118 -0.122903064 -0.072444074 0.026167512 -0.05689456 -0.036767043 -0.0008216197 0.069375366 -0.06222221 0.09340251 0.06824835 0.04065967 -9.145086e-05 -0.14507313 -0.10397278 0.067734756 -0.14810383 0.048146024 0.020934068 -0.017078066 -0.039995786 -0.01791301 -0.032900024 0.028242663 -0.10163608 -0.0247394 0.14598684 -0.048679274 -0.0976953 0.036872286 0.13708645 -0.06426168 -0.040387765 -0.10381646 0.15297206 0.017288854 -0.064354956 -0.11358204 0.018899584 0.1002559 0.008998122 -0.12395511 0.037434798 0.039283648 -0.08158626 -0.048072416 0.017008541 -0.04313474 0.04961221 0.084162384 0.086219676 -0.11407996 0.13386844 -0.109523386 0.10578073 0.15469302 0.041415717 -0.019870693 -0.015582306 0.12165175 0.14264564 0.06772045 -0.107051186 0.016103582 -0.0362355 -0.017889079 0.06746227 -0.016853502 -0.017469037 -0.03723992 -0.03972318 -0.026208395 -0.13128206 -0.16713995 0.14596716 -0.05444623 -0.018180776 0.038916405 -0.048717704 0.1500004 -0.11720265 0.042894974 -0.029123908 -0.016747512 -0.18608975 -0.027969519 0.073778294 0.09514373 -0.10555894 -0.028143343 0.04279977 -0.1013426 -0.057896387 0.18480302 0.029442575 0.0010254824 -0.00482145 0.14781596 -0.024177432 -0.053913318 -0.024856862 0.052699804 -0.14719573 0.050508015 -0.047456853 -0.025993852 -0.057859298 0.06579962 0.0011165092 -0.01539268 0.082287095 -0.010252517 -0.025380973 -0.036743604 -0.101221934 -0.056017097 -0.13188025 0.09293349 0.08084331 -0.012350336 -0.072726876 -0.09170303 -0.018855868 -0.08615632 0.027668284 0.038008902 -0.03406605 0.03343639 -0.028668156 -0.04286032 0.019424759 -0.0510751 0.017250111 0.03890864 -0.10064345 -0.092317164 -0.05239083 -0.05812651 -0.015465476 0.071419336 0.09249017 0.06948252 0.107229814 0.08347122 -0.00076826214 -0.008098627 -0.11243775 -0.02634944 0.07127774 0.050685942 -0.12332134 0.091948606 0.08936946 -0.029984482 -0.027823454 0.054345675 -0.0011898868 0.092153095 -0.17087086 -0.009782355 0.014408053 0.031861134 -0.08723824 -0.033332147 -0.10762023 0.095716536 -0.07829885 -0.08266637 -0.057709854 -0.069227636 -0.004296149 0.113345504 0.023485849 0.04105773 -0.12581748 -0.021293724 0.10713095 0.1289036 -0.046272278 0.16289648 0.0005478921 0.006533204 0.09855734 0.17683421 0.08403468 0.064181685 0.07204333 -0.08411463 0.0026531399 0.12603946 -0.0071653537 -0.050451297 0.037525333 0.08554564 -0.13850237 0.0464175 -0.0064321076 -0.019648856 0.12404278 -0.01670929 0.028033089 0.057191163 0.038820494 0.17523913 -0.0150654735 -0.011817551 -0.05572084 -0.0035845155 0.08565526 0.05050164 0.07397316 -0.063765995 -0.1252805 -0.034700695 0.062847786 0.10205032 -0.044492766 -0.054152567 0.022588989 0.12272575 -0.020463152 -0.114879936 -0.04538603 -0.0662466 -0.044832326 -0.072918564 -0.044270623 -0.025086235 -0.08061571 0.1324329 -0.07493377 -0.13888538 -0.12390691
0.096501544 0.042191885 -0.07002172 -0.0016470888 0.046192687 -0.0807752 -0.045947075 -0.050377853 0.061028607 0.031255644 0.013655738 -0.030309044 0.027511766 -0.0124874795 0.05234358 -0.008892597 -0.08149232 -0.01859149 -0.024161205 -0.032262906 0.044384744 0.042224173 -0.027342487 -0.049618207 -0.022778854 -0.033025045 -0.06195114 -0.036675863 -0.07018013 0.061102066 0.086964004 0.0056338552 -0.09547991 -0.12127877 0.015651967 0.010097933 -0.06899059 -0.066287935 0.069230385 0.07661181 -0.086335346 0.0041632545 -0.009797903 0.025781335 -0.0093645295 -0.0367334 0.022157982 0.019507326 -0.0015155593 -0.04871996 -0.03677466 -0.06323623 -0.055622432 -0.026539981 -0.021968873 0.012274633 0.051230956 0.025436908 0.033458207 0.024451548 -0.010207306 0.065818466 0.0405587 0.052541617 0.0068364297 -0.025789276 0.06644604 -0.059546884 -0.0026601464 0.06512556 0.015294858 0.024695711 0.067951106 0.07234762 0.049264446 0.078742 0.009363731 -0.050334636 0.054359462 0.07938779 0.002932977 0.048097093 0.014771013 -0.035768002 -0.037299808 0.055052485 -0.01178716 0.022085128 -0.008850296 0.010796181 -0.026055284 0.04695063 -0.03868659 -0.062647566 -0.042320818 -0.09465798 -0.12907785 0.042449832 0.020765167 -0.012393948 -0.041400135 -0.03584553 -0.017385837 -0.049893364 0.009348454 -0.053088866 0.06750055 -0.0054729963 -0.035413995 0.048738148 0.03485402 0.028846724 0.048006866 0.031672724 -0.0799467 0.040658206 -0.08421493 0.024579167 -0.022511376 0.08488828 0.04591513 -0.029068165 -0.01912259 0.09241249 0.056571793 -0.0042434884 -0.022228517 0.072615184 -0.07019377 0.034223422 0.02186265 -0.056191303 0.023603233 0.03446402 -0.011758632 -0.014849909 -0.016797328 0.018898183 -0.08842963 -0.040393837 -0.1354973 0.044630334 -0.008261078 0.004527868 -0.0329119 -0.060693372 0.11685557 -0.14679047 -0.00070772687 0.031800028 0.16076194 -0.03837009 0.05240465 -0.074219674 -0.02833215 -0.017319586 0.042495705 -0.004661295 -0.0047922386 -0.045015384 0.10482569 -0.02543918 0.027197044 -0.029723562 -0.070685655 -0.04677133 -0.012474909 -0.064462215 -0.068292186 -0.05451291 0.039981306 0.06669688 -0.04038756 0.01759009 -0.0447817 -0.04530296 -0.017170005 0.0016405977 -0.054261383 -0.06999839 0.05942094 0.049258776 -0.0289257 -0.025971424 0.06164072 -0.019055206 -0.057089984 -0.06193638 0.062516145 -0.021975445 0.04388633 -0.014147332 -0.021069694 -0.00434619 -0.05795851 -0.044137098 -0.030187165 0.055766147 0.039227918 0.09100756 -0.058094393 -0.0082041845 0.0658197 0.05812057 -0.09453632 0.026362302 0.041417677 -0.06281743 -0.011120408 0.051882155 0.0065429416 -0.042225555 0.061053824 0.04948102 0.10200587 0.012352525 0.026911356 -0.0673926 -0.05209344 0.022046434 0.0021204536 0.058378637 0.16090268 -0.08104454 -0.06992549 0.03761266 -0.046783015 0.017094987 0.061041422 -0.04173641 0.020143135 -0.0053176917 0.0057406262 -0.03983491 -0.053924013 0.028281149 0.075995386 -0.06524178 -0.037327312 0.060245182 -0.048883524 -0.050717533 0.08094817 0.06305146 0.01250322 0.026970383 -0.04820351 0.015422322 -0.07036322 -0.07783067 -0.060928587 -0.045367662 0.058891676 0.007768945 0.040833745 0.08288984 -0.021036647 0.10686879 -0.050207805 0.021025607 0.03130721 0.0019332878 -0.048368935 0.035475764 0.02073885 0.06257193 -0.029851643 0.061905567 0.034731857 0.0003098284 0.12035035 -0.039700475 -0.016674109 -0.06417397 0.011098327 0.033002183 -0.07074634 -0.038328137 0.05124841 -0.004838 0.064998314 0.015958175 -0.058801014 -0.016288975 -0.023185804 -0.026628325 -0.07746647 -0.06522152 -0.010042084 -0.08082998 -0.029742917 -0.011003254 -0.04170285 0.03844116 0.026555408 -0.032067787 -0.06518187 0.008518837 -0.058159795 0.07781327
-0.0034652567 -0.014611843 -0.040820394 0.039273378 0.068665616 -0.06031852 -0.04942952 0.028681338 -0.029601866 -0.06296599 -0.06994875 0.05664948 0.007846563 -0.03998131 0.039450333 0.056744 0.01814713 -0.057088554 0.007185274 -0.06289867 0.06901664 -0.04618679 0.04363189 0.007145382 0.053886186 -0.014465135 0.035683304 0.008242064 -0.05688851 -0.072092354 -0.06697916 -0.026649516 0.0005617552 -0.0459732 -0.027022572 0.054563362 0.06322034 -0.06653097 0.019188995 -0.06507294 0.03970761 -0.034348175 0.02160356 0.04339817 0.025718309 -0.021009155 0.057699084 -0.07085953 -0.05507845 0.028594688 -0.020785179 0.03142086 0.018541105 0.038012017 0.023502914 -0.016483216 0.038697857 0.048083607 0.04922197 -0.04488041 -0.025055448 0.058579184 -0.03137648 -0.06909693 0.03883144 -0.008366414 0.003542226 0.033674903 -0.06104365 0.04782723 0.0041312957 -0.0039712633 0.0037854721 -0.03251708 -0.06836895 0.024248846 0.06828434 -0.07080351 -0.04062717 0.03407729 0.0669706 0.0058703637 0.056923904 -0.06201724 -0.032360036 -0.06574309 0.037938662 -0.012338278 0.0665485 -0.0015721478 -0.00066114444 0.008131829 -0.024177967 -0.005037065 -0.022127856 -0.064518504 0.045473274 0.05319801 0.006043179 0.06451437 0.015330557 0.024479713 -0.06913785 0.026641505 0.036019076 -0.027110256 0.051388882 0.024644915 0.031197065 0.017962592 0.064111434 -0.0012941873 -0.067397274 0.03131004 -0.0052058217 -0.024091313 -0.06462212 -0.0024221214 0.064506404 0.033054586 -0.068415806 -0.00044768676 0.04076637 0.045402467 0.060111575 0.055354517 -0.0655506 0.0616475 0.010585601 0.035372075 0.038702533 -0.0215518 0.067985736 0.029697495 -0.04216153 0.021457998 0.06995286 -0.0014026971 -0.07094431 -0.043572903 -0.041547686 0.039405085 0.018550152 0.044451717 0.07228532 -0.055360414 0.058598902 -0.0069905696 -0.036125995 0.06857666 -0.04592837 -0.057220355 0.0056602447 0.051927857 0.020931983 -0.0008710311 0.04382797 0.0036611792 -0.067192815 -0.034944586 0.062200647 -0.03618657 -0.07321218 0.0062381816 0.06559371 -0.024313278 0.024327798 -0.07371039 -0.03129603 0.03816446 -0.041488923 -0.06862275 0.026584966 0.009658552 -0.04733897 -0.06408022 0.037163008 -0.07129048 -0.059462875 -0.02278772 0.07147012 -0.06337616 0.03673587 0.044877797 0.020772679 0.011090487 -0.012846367 -0.064199716 -0.052515056 -0.032950718 0.065438725 0.004311754 -0.05295394 0.025580805 0.06463136 0.0029645036 0.031094415 -0.038340572 -0.02643384 -0.04034298 -0.0058051106 0.027330726 0.041145366 0.020768441 -0.045951124 -0.030999625 0.047710188 0.018070418 0.06029131 0.045999456 -0.007754039 -0.067568265 0.028414141 -0.012082513 0.035609487 -0.05629991 0.03994445 0.012456248 -0.055977482 0.068460435 -0.038077593 -0.018455576 0.07751982 0.0633075 -0.016835775 0.07225913 0.014397359 -0.04836534 -0.013304477 -0.0149301225 0.04589938 0.013705539 -0.05143233 0.021986082 0.044607956 0.053502806 -0.046685144 -0.032594986 0.072620004 0.023476835 -0.05097778 0.03834659 0.073127784 -0.06281971 -0.051385768 -0.031570304 -0.059711613 0.051104177 -0.0052964645 0.032926224 -0.052064132 0.036375567 -0.016765507 0.06705819 0.03439953 0.053570148 0.049898382 0.059130847 0.03780324 -0.064524375 -0.009578919 -0.014055565 -0.020534378 0.043449834 -0.020358477 -0.018270826 0.040900137 -0.034806382 -0.02191844 -0.061814073 0.05634858 -0.07240121 0.011731571 -0.02982603 -0.022180887 -0.05739445 -0.010860788 -0.04072346 0.028599788 -0.03625813 0.051563498 -0.051378973 -0.0016117163 -0.0060095736 0.024677325 0.015551777 -0.02652976 0.008553808 -0.04156026 -0.063896604 -0.064886056 -0.017560037 -0.013559292 -0.037901044 0.036647722 -0.029240463 -0.061022356 -0.066760324 0.06359438 0.04994396
0.02845081 0.055401683 -0.017852724 -0.0007835552 -0.027505592 0.03568439 0.030103944 0.068434134 0.05491361 -0.006954655 0.043677904 -0.041310538 -0.02132434 -0.013477381 0.043466277 -0.050622877 0.024844773 -0.07062294 0.0016167909 0.035283215 -0.0026234612 -0.045645617 0.0045375004 0.034938112 -0.00947547 -0.0062489063 -0.0532263 -0.04179049 0.06422834 -0.031603444 -0.06152852 -0.035394806 -0.013028186 0.0651589 -0.0718809 0.037564553 -0.051304758 -0.06118325 0.0647217 0.0071095824 0.044297986 -0.033191532 0.017999895 -0.04646445 0.012765132 -0.014431588 -0.052435063 0.034241192 0.054709062 0.0712865 0.019403577 -0.035484117 -0.020556629 0.065433785 0.012864731 0.071428865 -0.014026243 -0.0071659163 -0.014379494 0.026902273 -0.06889792 -0.009421796 0.02348882 -0.0046633705 -0.04944065 0.0090506 -0.030520707 0.07183997 0.0026378334 -0.05846961 0.037025265 -0.06784942 0.015978202 0.04419998 -0.042733915 0.030361585 -0.0010219142 0.061689883 0.032970518 0.0007666275 0.046860486 0.016656019 0.061291173 -0.013774738 0.0013041422 0.064530775 0.06870273 0.019547187 0.058399707 -0.04940081 -0.064057246 -0.056355964 -0.011804685 -0.006055616 -0.0004358515 -0.005372174 0.022176735 -0.037200216 -0.0046610087 -0.009578653 0.064115 -0.036830686 0.03576553 -0.02891561 0.064215586 0.031978726 0.055640206 0.02263318 -0.020862732 0.054910183 -0.046880297 -0.06883527 -0.027561788 -0.049356766 -0.036524724 -0.044156205 -0.018545918 -0.01496445 0.06291129 -0.06452873 0.05826074 0.009035945 -0.0666434 0.025064886 -0.07245394 -0.021504007 0.056753978 0.014886282 0.060899988 0.04490281 0.018910557 0.010138586 -0.046277955 -0.01872399 -0.020323236 0.07059865 0.0099764615 -0.05518711 -0.01631606 0.04890766 -0.012257211 0.04780566 -0.030751977 -0.073749386 0.029856622 0.018010683 0.06120108 0.0058213323 0.010205336 0.06297146 0.005892001 -0.02589693 -0.05704563 -0.00687404 0.06992343 0.023422234 -0.05996551 -0.025074497 -0.025377441 -0.014079262 -0.061359156 -0.037379034 -0.051204767 -0.05592233 0.01356706 -0.017538674 0.06373173 0.05249454 -0.0008276999 -0.05755068 0.060101464 -0.04838399 0.06887345 -0.06466925 -0.03638433 0.0075839087 -0.05971972 -0.040903386 -0.071552604 -0.03909675 -0.048755527 -0.033565678 0.0045826137 0.045566402 0.015448213 0.038207248 -0.06735721 0.06382024 0.0037120208 -0.03076173 -0.07100321 -0.009513766 0.03125672 0.063612804 0.04868997 -0.043291982 0.014382616 0.023430802 0.037629984 0.0033207014 0.05815506 -0.014618296 0.036670335 0.04352545 0.01405514 0.032549284 -0.033451643 0.0065014586 -0.035072297 -0.02674535 -0.063211076 0.05997257 0.066370964 0.03577424 0.042988665 -0.039672997 0.055687234 0.009262279 -0.06446793 -0.04861103 -0.030469839 -0.046270344 0.070870906 0.0199401 -0.05230423 0.0710714 -0.046672214 0.06821743 -0.027520884 -0.06732248 0.07397063 -0.07123077 -0.02273425 0.06842899 -0.057117417 -0.026873771 0.04330945 0.072474435 -0.037262887 -0.018085107 0.056890354 -0.017058335 -0.0074845552 -0.039312493 0.017762564 0.0070534945 -0.06505591 0.037078783 0.04139258 -0.064282924 -0.051249325 0.074077785 -0.02340407 -0.004076779 0.031191498 -0.008540086 -0.033224314 0.009619981 -0.059617724 0.0184832 0.06400004 0.061570898 -0.040220123 -0.036692027 -0.06655409 0.05472228 -0.02015829 -0.06027901 -0.04776834 0.009793103 0.034035273 0.04023304 -0.0075155273 -0.06304241 -0.06393491 -0.0055580884 -0.0595334 0.06789015 0.05817032 0.046531163 0.04651983 -0.055018283 -0.055857565 -0.061707493 0.04537928 0.06806561 0.03411422 -0.06577995 -0.036565665 0.010181367 0.014665477 -0.033042304 -0.06743707 0.06934893 -0.009795427 0.016897455 -0.017573848 -0.05066951 0.011103846 0.004018195
-0.041339114 0.06959969 0.042897157 0.020338982 0.042867906 0.033353463 -0.0027086735 -0.0007726997 0.027570441 0.051278293 -0.07053561 0.050858825 0.011487246 0.037666954 -0.018419415 -0.0600862 0.036145173 -0.037763588 0.01507093 0.00053305924 -0.01431828 -0.03449005 0.066820964 -0.04846879 -0.025269985 0.019239329 0.042168804 -0.0151213445 0.01624947 0.054100767 0.0034571588 -0.05687219 -0.013955131 -0.058994614 -0.027714971 -0.031316094 0.03710083 -0.06370359 -0.044366486 0.040485874 0.019053683 0.06847459 0.04494813 -0.040430315 0.04044786 -0.0155231245 -0.0010590777 0.040613018 -0.03785501 0.0041376725 0.029296957 0.010822505 -0.05731432 0.058357134 0.0071632713 0.027234912 0.013036579 -0.023657687 0.06867908 -0.04403211 -0.004747607 -0.036550675 -0.0069160983 -0.014160287 0.03220313 -0.022057004 0.020396724 -0.04300956 -0.058557622 -0.04956586 0.059851542 0.057155877 -0.058509484 0.042383395 0.054701135 -0.011518344 -0.058860354 0.0073726326 -0.050118856 -0.036688957 -0.031476993 -0.04268393 -0.055664614 -0.021592379 0.0184623 0.019186787 -0.032274663 -0.026517455 0.015142396 0.013812378 -0.028788786 0.0563318 0.00540027 -0.04675668 -0.07108012 -0.06342824 -0.0054527074 -0.05681415 0.031483978 -0.047870122 0.055244267 0.001729101 -0.043168828 0.047760434 -0.015090853 -0.06799822 -0.04434737 0.022795998 -0.07093265 0.052907407 0.037345648 -0.028220251 -0.0139938 0.047721796 -0.01886804 -0.045003936 -0.025714763 0.06878731 0.06190774 0.024637207 -0.042452823 0.047834843 0.047302425 0.06642556 0.04909478 0.010184653 0.066395685 0.050874203 0.003098771 0.00829757 -0.068592034 -0.027540963 -0.04232089 0.034743153 -0.05963415 -0.016485542 -0.04628267 0.0524005 0.044844612 -0.041755654 0.030972563 0.06735426 -0.030072652 0.011398435 0.005903177 -0.030297052 0.072405174 -0.04827275 0.038890034 0.01339481 0.011871748 -0.008704461 0.0056897923 0.026978545 0.033825375 0.018702418 0.047101595 0.049826197 -0.015565358 -0.03592215 -0.0049634203 -0.015668627 0.05183214 0.058694735 -0.0442957 0.06250732 0.034031846 0.04087779 -0.068671376 0.023239411 -0.054360278 0.05716437 0.06768222 0.061834306 -0.039255947 0.05575782 0.053306952 0.023237564 0.0024420246 -0.015564788 0.049103543 0.053518534 -0.06366591 -0.019355193 -0.022943754 0.039442867 -0.011211619 0.04979179 -0.06125486 0.03087873 0.023189835 -0.046605237 -0.07357461 0.04775422 -0.066275395 0.047261484 -0.055078715 0.0512079 0.06592822 0.0077118874 -0.063599646 0.027715929 0.020280257 0.03339176 -0.0049417466 -0.069321536 -0.03489962 -0.0728323 0.054712802 0.0068890452 -0.051514808 0.0031533316 0.02504392 -0.037428964 -0.030070294 -0.05922389 0.00071540475 0.04212717 -0.03673256 0.029062904 0.0368085 0.04336077 0.0011330247 -0.0058635846 -0.05518502 -0.056387253 0.0165442 0.024656594 0.051587448 0.050081663 -0.011027515 -0.013225079 0.008625492 0.066391364 0.051048428 -0.05991565 0.064667955 -0.041657064 -0.03416449 0.038538948 -0.015967581 0.04646553 -0.056723706 0.031035706 -0.020552922 0.050192736 0.056610912 -0.022915427 0.057811916 0.041611552 0.06319229 -0.014128875 -0.049828433 -0.03410175 -0.004524857 -0.059204184 0.030592881 -0.025810406 -0.0735788 -0.06922141 0.025706 -0.022062272 0.0070658177 -0.03604981 -0.068229556 0.0659682 0.046115354 0.029176995 0.020472728 0.02093698 0.022268258 0.04089173 0.0433428 0.031372003 -0.025102485 -0.0027553663 0.029917106 -0.013499729 -0.031048872 0.06122154 -0.027343683 0.058341995 -0.06874119 -0.028770108 -0.03173414 -0.018428795 -0.033173457 0.067504734 0.015480235 0.061785907 0.024795517 -0.023457054 0.07008459 -0.069875345 0.05259484 0.003088832 -0.07199696 -0.021713015 0.040666886 0.01454483
-0.031467255 0.019062445 -0.06231106 -0.034105726 0.05678533 -0.043867078 0.044287555 0.01031144 0.07086161 0.047286585 0.023087539 0.028193519 -0.023478977 -0.05346851 -0.027447235 0.053461626 0.038191356 0.027420789 -0.03170262 -0.021355756 0.022293009 0.016477488 -0.068345584 0.0032830983 -0.073701456 -0.032400034 0.011190899 0.023195043 -0.014604498 0.04810036 -0.0041956976 0.06653586 0.040905707 -0.06752945 -0.045811042 -0.057412855 -0.027066901 -0.047666367 0.020152315 -0.02487477 0.01936569 -0.05067797 -0.034616504 -0.0039016902 -0.07228892 0.04264015 0.05789949 -0.01771506 0.045758657 0.02251283 -0.06734547 0.018226393 -0.0629661 0.050608426 0.061354876 0.026952103 -0.0518881 0.03608969 0.059207454 0.03081216 -0.009601302 -0.025534384 0.07337688 -0.018278327 -0.02798285 0.01166296 0.0001283139 -0.010385849 -0.045269914 0.064082116 -0.018485859 -0.012948953 0.03265392 -0.05119691 -0.015907235 2.8714538e-05 -0.044878367 -0.010680653 -0.032463677 -0.010034747 -0.0323346 -0.03453117 0.021708049 0.066279605 -0.007337086 -0.06669674 0.019683696 -0.027846072 -0.07192553 -0.042889405 0.019947462 0.044631884 0.05741504 0.038586803 -0.07230412 0.0071442723 -0.02468462 0.041642293 -0.017874505 0.04264693 0.025552563 0.057888508 0.064948246 0.025435127 -0.062368527 -0.050473243 0.047158763 0.04215023 0.05832538 0.03106913 -0.039718337 -0.00925082 -0.028872598 -0.009736843 0.059475943 -0.043063022 0.02812823 -0.043659564 0.0071976334 -0.06498217 0.041334733 -0.050028816 -0.05959704 0.025021493 -0.006634295 0.03218624 -0.050288446 -0.060718626 -0.041846488 -0.0187901 -0.021380447 -0.01296426 0.042578757 0.05146259 -0.04699295 -0.06660725 0.06795761 -0.012859695 -0.024911236 -0.065046415 -0.073739044 0.058490083 -0.05056929 0.041483432 0.06310655 -0.069653824 0.02467557 -0.043330222 -0.0611289 0.039766476 0.027612783 -0.067545265 0.052970797 -0.0050395727 0.0068127885 0.010507144 -0.01860236 0.00555443 0.043918803 -0.06469297 -0.07036057 -0.059122376 0.017023675 -0.031050753 -0.01658899 0.044824265 0.07120672 -0.005211644 -0.025622968 -0.0038940832 -0.032763164 -0.032227535 -0.052955814 -0.066098765 -0.026268803 0.07212092 0.055161774 -0.06854679 0.006435558 0.03697128 0.06398408 -0.041640304 -0.0172631 -0.026821427 -0.045087107 0.024535991 0.03576439 -0.06616544 -0.016774211 -0.02048653 -0.06040963 0.012713835 0.047448248 0.0016113222 -0.008940093 -0.008726224 -0.025560282 0.06474246 -0.071374804 0.070285946 -0.053261027 -0.06512333 0.033058643 0.001747109 -0.0006596893 0.06310971 0.025735214 0.050375998 0.040483564 -0.060141187 -0.051587567 0.007941134 0.02092778 -0.005005993 -0.0076253936 -0.03606024 0.03265021 -0.008057296 0.023836605 0.034346357 0.063578025 0.06328814 -0.043057486 0.07237907 -0.027203307 -0.06965687 -0.037855577 0.0064109415 0.07356222 0.0038367137 -0.011967447 0.020864509 -0.006288722 0.03875684 -0.033938367 -0.07275188 0.0012995452 -0.042621154 -0.018200278 -0.040734876 0.019262351 0.04149755 -0.038844924 0.060012057 -5.953014e-05 0.060642898 -0.0060305 -0.061387964 -0.0020553544 0.053873807 0.064955786 0.06286755 0.011521265 -0.019673213 -0.039006144 -0.013967123 -0.0348364 0.0025149807 0.062218964 -0.036120195 0.0346556 -0.00024560094 -0.011996146 -0.027432762 -0.0023492575 0.06818795 0.06759201 -0.051619407 0.07410298 0.032642208 0.0034924224 -0.0006137863 0.053026974 0.0099450275 -0.071559824 -0.04030195 -0.07244109 0.065194026 0.012774214 0.070034474 0.07067773 0.0041532815 0.03370098 0.022357836 -0.06959853 0.0024455339 -0.039917924 -0.023515463 -0.008468725 -0.0534176 -0.016064111 -0.060051434 0.06339079 0.017515354 -0.05087731 0.068969935 0.0027328879 0.06475869 -0.0007488355 0.05580111
-0.0639597 0.008844465 -0.052774407 -0.047507737 -0.025769323 -0.0057576373 0.06952682 0.045097925 -0.026083477 -0.06306692 -0.06237351 -0.055914257 -0.040249992 -0.05635362 -0.055483744 -0.004824735 0.04190261 -0.042096928 -0.066446744 -0.004830979 0.0088652 0.057060093 -0.01636365 0.02103135 -0.049146716 -0.04351349 0.00046054274 -0.0089361 -0.034596 0.02165196 0.0659108 0.07311319 -0.04739088 -0.05920264 0.06263304 0.073308125 -0.0026604459 0.044120036 0.026850715 -0.06324151 0.009322628 -0.0727994 -0.05024898 -0.06563681 -0.02266385 0.03791961 0.02325213 0.014358476 0.059521005 0.03330896 0.066144764 -0.0280254 -0.060129356 0.067996785 -0.0018294081 -0.06329116 0.053553328 0.0004493147 0.00564225 -0.050713748 0.047066987 0.026294112 0.060508534 0.019655101 0.06607276 -0.069254935 0.062417626 0.007327348 0.010208204 0.0060574785 0.042692333 0.06647812 0.062341377 0.03470745 0.036169544 -0.0067283064 -0.05430034 -0.06573803 0.026965208 -0.03661022 -0.007655531 0.031018361 -0.011590414 0.07200594 -0.04092664 0.013078637 -0.059985023 -0.056046277 0.0009208396 -0.036168035 0.017479606 -0.06719498 -0.060695637 0.07065812 -0.006239541 -0.050982527 0.049234055 0.06416945 -0.02131771 -0.065113746 0.016572565 0.06327246 0.057487562 0.053237796 -0.0073767155 0.052002847 0.04962305 -0.012217779 -0.050134234 0.007972635 0.012418769 0.032816164 -0.06824001 -0.057275638 0.058663502 -0.024420306 -0.065516 0.028765284 -0.0706895 0.07056071 0.06905837 0.049534835 0.07114577 -0.029142566 0.02059757 0.0721695 -0.053782113 -0.012918886 0.046650022 0.028586343 -0.066379055 0.069694996 -0.018594645 -0.05797967 0.04848616 -0.060555793 0.026831463 0.010754906 -0.068329155 0.0077745914 -0.00048402697 -0.04025718 0.009598769 -0.051665667 -0.059048783 0.05642073 0.04072029 0.016526945 -0.05349531 0.032565616 -0.010090247 -0.06427035 -0.0064794794 0.07101396 -0.025995854 0.011772454 -0.045279577 -0.06755609 0.013572261 0.023793876 0.037300967 -0.06680641 0.0147352815 -0.073923126 0.024436824 0.030246377 -0.013517752 -0.046798684 -0.02273567 0.0741746 -0.016277283 -0.012372259 0.01618819 -0.057710305 -0.055997483 0.07122238 0.07007761 0.046471864 0.06498355 0.017278127 -0.06810648 -0.07227361 -0.07029391 0.0638943 -0.059001386 0.034248777 0.021464951 0.013014048 0.032348722 -0.05200845 0.022624545 -0.018833168 0.045604892 0.014739379 -0.010175742 0.009411067 -0.06660685 -0.034207325 -0.035704385 0.00045857579 -0.0046167895 0.0640554 0.025990352 -0.046284214 0.035177395 -0.009635873 -0.062619984 0.05304773 0.07316941 -0.005235508 -0.0528957 -0.02081069 -0.0657717 0.0039958805 -0.014376566 -0.068463735 -0.041798756 0.06758122 -0.06904185 0.04537964 -0.013193913 0.07299411 -0.0561366 -0.053310446 0.055355847 0.012386717 0.04109157 0.036307722 -0.06438511 -0.03625305 0.044367217 0.04727766 -0.06577301 -0.03195311 -0.045066975 -0.06375689 -0.043002144 -0.0079346 -0.04071116 -0.003953576 0.06672464 -0.06521134 -0.028058268 0.0358195 0.020063609 0.051834315 -0.0018331558 0.010789916 -0.07151007 0.0606059 -0.02602072 -0.057551317 -0.026050929 0.043781742 -0.029869925 -0.015299592 0.049157374 0.04344543 0.03831868 0.06179458 -0.054424915 0.017377011 0.06910004 -0.020913817 -0.062082097 -0.004016757 0.01753816 0.030203365 0.04272224 -0.061617278 -0.0057457536 -0.04581134 -0.026130252 -0.014956612 0.04970695 0.033989325 0.070400715 0.057185262 -0.028280135 -0.044836115 0.050835148 -0.039862297 -0.07399988 0.053147182 -0.012765046 -0.038100094 0.012387387 0.06644976 0.021591865 0.06254181 -0.011328563 -0.03167266 -0.054274872 0.056003764 -0.06395142 0.018648371 0.061822876 -0.0109124705 0.010734133 0.07059634
-0.0086665 -0.05918833 -0.0011911318 -0.029573988 0.035129517 0.059800223 0.019997053 0.017244615 -0.061176933 -0.07138303 0.074279085 0.038428493 0.014153354 0.0045029297 0.007450007 0.04556761 0.05285783 -0.036119875 -0.059719894 -0.06541626 -0.020254005 -0.01615686 0.064561814 0.02166076 0.030260779 0.023783267 0.03861364 -0.03292151 0.029181786 0.043226495 0.034607403 0.038408168 0.03188523 0.006253995 0.06068735 -0.047857367 -0.050725028 0.0038181096 -0.06897005 0.03397221 -0.051309228 -0.022854693 -0.017185356 0.036947846 -0.029442336 -0.031067159 0.024841867 -0.062534824 0.013721734 -0.0155499615 -0.036151964 0.005131617 0.014183223 -0.04732986 0.06555499 0.043792278 0.045351826 -0.04776077 0.068487376 -0.022512406 0.016382433 0.053265974 -0.07177683 -0.033712424 0.029648945 0.027162753 -0.023054793 -0.0029625073 0.047462754 0.0029812902 -0.03335884 -0.004929632 -0.03619157 -0.024861306 -0.055153087 0.024627663 0.030416518 0.0549071 0.0464848 -0.053465508 -0.0036141798 0.056074217 -0.016112164 -0.0019455776 -0.062260434 0.0019140765 -0.0037836954 -0.04693094 0.06363827 0.022096008 -0.05090764 0.07045944 -0.070911646 -0.0390656 -0.06672464 -0.060131714 0.021109268 0.07061458 0.031280562 -0.058406815 -0.0021682903 0.06730522 -0.014320336 0.060205996 -0.026250977 -0.03550267 0.014611982 -0.0069096386 0.054610312 0.049643904 -0.027699593 -0.026474528 0.022775248 0.018312953 -0.0373749 0.025336593 -0.037286032 0.061233655 0.033773832 -0.039250057 -0.026537407 -0.047575176 -0.070921846 0.05805467 -0.06857978 -0.0031870678 -0.06820372 -0.028353035 -0.074259914 -0.06739767 -0.041613024 0.037772655 0.03657838 -0.05469843 -0.014810417 0.07028857 0.061745644 0.022966728 0.026858337 0.006443627 0.03671147 -0.018010255 0.03381133 0.044912882 -0.04215371 0.008265607 0.023629427 0.012400821 -0.01123482 0.021000803 0.027842201 0.022996739 0.018585972 0.0024218708 0.038981132 0.003420569 -0.058476985 -0.05850691 0.07109442 -0.026272263 -0.0730945 0.0051270053 -0.00524994 0.019984089 0.046805516 0.0016518235 0.01727181 0.00032096356 0.019050919 -0.028871424 -0.025925416 0.06918113 -0.07332758 0.03152167 -0.022413302 -0.0669778 -0.038063128 0.015097164 0.05067502 0.051583096 -0.009532891 -0.057223912 -0.037230264 0.038650908 0.024137758 -0.02088932 -0.06383563 0.04655186 0.045886748 0.070808485 -0.0010253862 0.03289412 -0.041965615 -0.037510134 -0.06781111 0.06414923 0.0050707012 -0.01868023 0.05617106 0.048526525 -0.057665497 0.03425002 0.00043301284 -0.043174505 0.028970897 -0.040470846 0.031639576 0.018754624 0.008839287 -0.0073435083 -0.034636814 0.037802257 0.046281397 0.026100367 0.060211852 0.064183116 0.006553076 -0.015961267 -0.07237096 -0.051350076 0.05491796 -0.06366509 0.053033277 0.009506978 0.06976208 0.05218123 0.0635571 0.05473374 0.06445961 0.052367017 -0.06680248 -0.039412215 -0.0025794357 -0.040833283 0.07258578 0.06886327 0.06518039 -0.036581185 -0.022071991 0.06481205 0.05706352 0.05161935 0.05332288 0.037563473 -0.025545258 -0.010712422 0.061700836 0.021516174 0.046805903 -0.045587204 -0.06729777 -0.034004282 -0.071196996 -0.03307998 0.0077784583 0.06007719 -0.013324019 0.05032096 0.04823277 0.04482898 0.015786 0.065515324 -0.029958915 0.06784956 -0.03997497 0.060668558 0.048547603 -0.06523656 0.058481187 0.033668272 -0.064083405 0.06344381 -0.05809745 0.03214418 0.03414257 0.035451226 0.07005899 0.07365607 -0.0026908517 -0.0650545 0.028702013 0.05615644 -0.030486424 0.0025600493 -0.019058704 -0.033458773 0.071427435 -0.052536312 -0.024392832 -0.038963217 -0.0072133616 -0.04470794 0.0359914 0.048795827 0.07170847 0.0066202134 0.04261379 0.06415266 -0.062222496 -0.06887063
-0.05139114 -0.006285943 -0.050428964 0.009673588 -0.0015037656 -0.046831325 -0.045963906 -0.060323816 0.055096343 -0.06644994 0.022979356 -0.059991248 0.0013626367 0.021573544 -0.07379245 -0.07127157 0.034052 -0.05757363 0.0060388893 0.039493814 0.03932315 -0.03832432 0.0547228 0.053721666 -0.02838704 -0.06137113 -0.06457728 -0.07393677 -0.040320802 -0.047226343 -0.03575774 -0.026735932 -0.07001519 -0.009096697 -0.044021152 -0.010404833 -0.06388301 -0.037521504 -0.027294744 0.0043261573 -0.06183964 -0.053246696 -0.015538625 -0.016831096 -0.013910431 -0.0009920225 0.06139466 0.013062879 -0.066529885 -0.03532144 -0.0741454 0.014559902 -0.026107512 -0.03904114 -0.047572657 -0.039670587 0.03267666 0.032638595 -0.071841605 0.038300566 -0.040458377 0.061015084 0.0486558 0.05059588 -0.010907665 -0.039249633 -0.044651516 -0.0014747232 0.063571975 -0.039289773 -0.046059176 -0.07203027 -0.06977281 -0.02782803 0.016253553 -0.01410234 -0.0023841783 -0.01155293 0.004585147 -0.050219536 0.052224293 -0.016422238 -0.00032579154 -0.011698544 -0.06971455 -0.05966785 0.070724696 -0.048338898 -0.06005051 0.03977909 0.0050468966 0.033960253 -0.01238253 0.018936202 -0.029531684 -0.045155644 0.067277014 -0.024214156 0.018023804 0.010350354 0.03079731 0.043021567 -0.039752252 -0.06143385 0.028278843 -0.06555577 0.07049473 -0.006628692 -0.00078541785 -0.051842194 -0.016565576 0.008554257 -0.05756934 -0.033385266 -0.048048496 0.04825262 0.020915091 0.04789426 0.069573745 -0.024096359 0.07228275 -0.048713148 0.0079775825 0.035241053 -0.029479977 -0.009438455 0.07231815 0.050624773 0.053915814 -0.023929927 0.012967095 -0.028100237 0.056483954 0.027550824 -0.025667332 0.029310033 0.04152093 -0.06346033 0.036574654 -0.021696553 -0.04823765 0.022265196 -0.06252013 0.02541969 0.05795735 -0.045853008 0.042851657 0.06806937 0.012848169 -0.06828008 -0.07210542 -0.04983633 0.056688607 0.027357161 -0.0047196522 -0.057586916 0.06376378 -0.02610645 0.043958075 0.053475544 -0.052020214 -0.050762154 -0.061931133 0.058594465 0.04336641 -0.039791204 0.029065534 0.05771412 0.0036731213 -0.07342934 0.010856949 -0.047258377 -0.005641438 0.054842323 0.016013518 0.010641471 0.07291822 0.0027886778 0.045684695 0.06922977 -0.01973904 0.048244245 -0.042072736 -0.06699779 -0.02690538 -0.041089527 -0.0030157566 0.05381748 -0.036048178 -0.048893616 0.00018785894 -0.046921697 0.064726695 -0.0003207028 0.04988388 0.028993323 -0.047124088 0.034547843 0.036595374 0.05870436 0.065355614 -0.069669485 -0.032634545 -0.01669478 -0.024123605 -0.031180967 0.056389377 0.07183795 -0.034204878 -0.005269192 -0.038780306 0.022526063 0.00026138872 -0.024612442 0.06397872 -0.018413026 -0.06224135 0.022917077 -0.039305434 0.059213057 0.044478305 -0.038818832 -0.0027828738 0.038883045 -0.057113566 0.009896815 -0.07368026 -0.042165734 0.008017577 -0.028448679 -0.05366125 0.00896854 0.05625324 0.0018148646 0.02864816 0.05900857 0.02484981 -0.04167138 -0.008678898 0.04586172 -0.050392322 0.07200833 -0.03035305 0.07077178 0.051294997 -0.064761594 0.024431534 -0.07232858 0.06396788 -0.06110169 -0.07212517 -0.04463974 -0.054556563 -0.06203933 -0.011228628 -0.06822521 0.032583177 0.003746979 -0.06698837 0.06790215 -0.026329946 0.04202807 0.030635774 0.013550937 0.005101405 -0.019528579 0.058588162 -0.025987498 -0.06024366 -0.046593934 -0.036075316 -0.028797902 -0.07217148 -0.030774947 0.028812073 -0.030464232 0.002876334 0.059290335 -0.051168192 -0.045178667 0.0013771281 0.07144123 0.023538113 -0.05223358 0.0059789345 -0.008748703 -0.041551296 0.06348267 0.06480168 -7.815659e-05 0.024447694 0.0050361827 0.034231238 -0.019169386 -0.017447643 0.064612836 0.047109857 0.0064224675 -0.01962974 0.032478772
0.038655445 0.05589485 -0.034678623 0.014218681 0.023184046 -0.035567343 -0.023129787 0.072457045 0.059017614 0.031960346 0.04253014 -0.03352403 0.01567822 0.036784388 0.0111251995 -0.038813174 -0.06565026 0.03943123 0.04867372 -0.030766502 -0.065890856 0.03234054 0.066967204 -0.061847463 0.05270712 0.055040106 -0.027057253 0.042324558 0.057273343 -0.07212098 0.06923005 0.0045853406 0.016521305 0.02407892 0.018281147 0.043332763 0.025958389 0.017570496 0.07319312 0.027073465 -0.020094682 -0.0074355155 -0.070253074 0.06336266 -0.030109316 0.020543754 0.060069844 -0.060221486 0.02086316 0.015018888 -0.06876432 -0.0127077885 0.024157539 -0.06739959 -0.06885521 0.05052927 -0.03627588 0.050496563 0.067645535 0.026948057 0.03161084 0.0059378147 -0.034819353 -0.014212489 0.035460137 -0.040821843 0.069275334 -0.04533242 -0.05712286 0.061189815 -0.049318135 -0.05028128 -0.047165997 -0.023627639 0.018921748 -0.021525685 0.020108461 -0.071963824 -0.0361396 -0.06640291 0.05831772 0.05195272 -0.024794362 0.008793578 0.06883025 0.058886304 0.025882512 0.053887367 0.059861228 0.036310665 0.031683706 -0.067422345 0.052639216 0.007966019 -0.043769486 0.07308863 0.03823735 -0.05831981 0.055246264 0.066584334 -0.024478149 -0.047412574 -0.013086934 0.021037169 0.01612509 0.013529763 0.052951977 -0.053667013 0.026303448 0.054842025 -0.027719885 0.073562235 0.011025265 -0.0278573 -0.044675075 0.05983022 0.050770506 0.002938278 0.040783532 -0.073284104 0.031495333 0.038244233 -0.018246911 0.020285591 -0.023385286 -0.031440523 -0.048138496 -0.03023946 0.069327265 -0.019512173 -0.053430248 -0.054269515 -0.06666763 0.045253538 0.071530744 0.042023934 -0.015063889 -0.025009666 0.037711866 -0.053155754 -0.0672747 -0.009988666 -0.01731981 0.010080509 -0.021303162 -0.048467107 -0.0057431087 -0.00021658093 -0.0056430176 -0.053007644 -0.0084186345 -0.0451295 0.03079325 -0.048827894 0.03802962 0.0017835945 0.044251688 0.0015545636 0.04610941 0.021329433 0.0008598566 0.017486736 -0.04700716 0.07044937 0.052762166 0.04221794 0.050695375 0.007973358 -0.053193767 -0.0033005327 -0.028546274 0.02246914 -0.004592724 -0.030559823 -0.013485808 0.05648659 -0.03140313 -0.045117155 0.026472613 -0.018489245 -0.059116896 0.035019025 -0.005496785 -0.003659375 -0.059504576 0.03650154 0.020484969 -0.055809975 0.020564005 0.043693267 0.023440517 0.043715984 0.016024731 -0.017160524 0.043288454 0.030192912 0.00603351 -0.01202951 0.05313693 0.056037992 0.025631078 -0.051579446 0.040170684 -0.021968529 -0.019088093 -0.028530609 0.059137896 -0.062049728 0.051552683 -0.027108531 -0.06299601 0.07424082 -0.021110564 -0.07307464 0.035837434 0.045188457 0.055551574 0.07065952 -0.04405272 -0.04632677 0.022524059 -0.06715268 0.07389277 -0.05781295 -0.04085801 0.07062665 -0.0043286607 -0.006406307 -0.029809598 -0.06434417 -0.041648217 0.07051526 0.06773563 -0.0036761537 -0.02996961 0.019830048 -0.010671981 -0.044807874 -0.04294446 -0.0025090724 0.0457654 -0.026394654 0.025408 0.023973115 0.019121565 0.0510699 0.06420861 -0.07228445 0.0038782433 0.000687398 -0.06256498 -0.0412986 0.043498345 -0.0037773848 0.070756495 0.017544068 0.028741375 0.029466018 -0.039993875 0.03833741 0.062882945 0.011560075 -0.012998283 -0.045830958 -0.0004979372 0.051221132 0.043860637 0.04103452 -0.048844196 -0.06712105 -0.073969014 0.031663917 -0.04717391 0.00031866133 0.031179368 0.0385037 0.008908674 0.023585066 -0.05319898 -0.016670264 0.028398745 -0.046346158 -0.07298519 0.01920268 0.017075717 0.05961734 0.040418163 -0.040505648 -0.049611624 0.05332434 -0.021760125 -0.065939724 0.044604048 0.048405573 -0.05951456 -0.070112735 0.06932327 -0.0040202662 0.06709769 0.06946419
-0.022506978 -0.00526195 -0.06624383 -0.022900634 0.05313538 0.0052699894 0.00047835708 -0.06037107 0.036039203 0.035425738 -0.04015389 -0.020984095 0.05484198 -0.0091028735 0.041483834 -0.033005215 -0.06993906 0.00859566 -0.072253995 -0.009941094 -0.07008324 -0.07196634 0.055582732 -0.034407888 0.058525637 0.013479635 0.0014606938 0.06974973 0.024894543 -0.028326556 0.05118352 -0.0705162 0.0028274134 -0.016246155 -0.037449505 0.007968694 0.029623687 -0.027535696 -0.07085851 0.020896398 0.0074701384 -0.013596259 -0.05511254 -0.018568411 0.01675567 -0.05443302 -0.02874859 0.034722805 0.05338326 -0.003958449 -0.06822926 -0.03092084 0.073701546 0.011027627 0.0379244 0.012025557 -0.040769376 -0.046499375 0.009869769 0.067871824 0.03794916 0.031232089 -0.034928016 0.007896237 -0.027298417 -0.04725343 -0.015609596 0.066322654 0.058983788 -0.045460008 -0.018033277 -0.009273045 -0.009444363 -0.066641256 0.07048845 0.05823259 0.07144642 -0.036043037 0.013342217 0.02167099 0.03141532 -0.04158317 -0.031714626 -0.008016624 0.056167588 -0.06590911 -0.055785194 0.017395936 0.0020749718 0.01895696 0.014754437 -0.06852665 0.04783848 -0.04809768 0.022914022 0.005852394 0.066873625 -0.010765016 -0.003905557 -0.05571985 0.051679432 -0.06609032 0.033849977 0.0031757653 0.04609029 -0.00014018267 -0.024347492 -0.0021580234 -0.016809829 -0.05162455 -0.07334748 0.007369213 -0.0613171 0.047132634 -0.016579822 -0.048053585 -0.056030065 -0.036487013 -0.005739972 -0.054208424 0.06098084 -0.03286136 0.028393038 0.04104252 -0.060771715 0.011683978 0.033815302 0.018861473 -0.068030365 -0.025869828 0.02096545 -0.0052217245 -0.05505865 -0.018010184 -0.05658409 -0.05122777 0.05311358 -0.049709696 0.009290718 -0.008002274 0.074067086 -0.01697236 -0.06905969 -0.06587516 0.0677045 -0.043140963 0.05230497 0.0469808 -0.027060889 0.048617244 -0.069187954 -0.0025903508 0.032868102 0.0118867755 0.009805962 -0.069126084 -0.0032204837 0.005598724 0.013479382 -0.051195562 0.0024983957 0.0059211254 0.003456451 0.045271635 -0.05177591 0.011129104 -0.043710753 0.043402895 -0.03223692 0.0077392906 -0.041279748 -0.035633307 -0.024966631 0.038093388 0.0311291 -0.04821729 0.051731974 0.040990673 0.019166745 -0.014707662 0.070925966 -0.036914427 -0.043825254 -0.057953045 -0.0576887 0.030394964 0.023787014 0.039033942 0.057952583 -0.023356762 0.019974649 0.04217492 0.021529123 0.029544719 0.028908215 0.015555687 0.051782414 0.01980614 0.018180273 -0.011107482 0.023811668 0.034435935 0.05742055 0.008190721 0.030031271 -0.007529013 0.028943352 -0.026781976 0.0072303712 0.030257374 0.0022605136 -0.051193714 -0.040875766 -0.014481112 -0.061578345 0.051983625 0.057565615 -0.043858476 0.044267118 0.0061977506 0.07066585 0.03769899 0.06198053 -0.03517207 -0.0014486313 -0.0054380894 -0.054317355 0.0029272437 0.030588701 0.04528939 0.028101392 -0.0301154 0.07055543 0.047867656 -0.04024045 0.026246578 -0.056970723 -0.015260495 0.007956117 -0.029925108 0.07418567 -0.06685083 -0.072634734 -0.05841178 -0.05621965 -0.06439378 0.06853378 -0.006320052 -0.06337689 0.057545766 0.02661097 0.002114229 -0.047963478 0.05780299 -0.03962225 -0.035579883 -0.056936048 0.009835005 -0.010844372 0.050175034 -0.035973947 0.011049069 0.04036612 0.01241453 0.016707659 0.07363169 0.03165829 0.049580514 0.0028772578 0.05865088 -0.062499683 -0.04475163 -0.029689744 0.059323937 0.05325821 -0.016323205 0.024841316 -0.005939275 -0.025576264 0.055907533 0.05648969 0.038905285 0.02963788 0.05117631 -0.032183986 0.048585862 -0.06048133 -0.060861114 -0.02205209 -0.060617466 -0.030069299 0.03750524 -0.05671808 -0.0061817095 0.059697717 0.06150122 0.0115601495 0.0010004342 0.06177582 0.016356483
-0.02865662 0.014375895 0.048608847 -0.008881897 0.02945032 -0.056718014 -0.013597574 -0.042290077 0.02504111 -0.0048796833 0.034102514 0.05738604 0.030636609 0.034046978 -0.03854863 0.00557559 -0.07154448 0.032142177 0.017316736 0.037739873 0.065731734 -0.032436345 0.053413734 -0.003596969 0.06916687 -0.008147389 -0.008285634 -0.023922049 0.028579228 0.061929002 0.028416239 0.0035318732 0.02231431 0.007060483 0.024947919 0.047809213 -0.061115544 -0.0058008805 -0.0016714185 0.06870884 -0.06488031 0.0032824427 -0.055992924 0.028174028 -0.018583186 -0.012403071 -0.04369247 -0.0065870583 -0.064661324 -0.003027089 0.0031876713 -0.074092396 -0.050298594 -0.060628287 0.00609196 -0.013541326 0.05887781 0.058942705 -0.037210755 -0.041569777 -0.040700056 -0.01677506 0.05708976 0.032419704 -0.012058724 0.02016452 0.03758493 -0.030805472 -0.012942638 0.04593599 0.0552717 -0.04827868 -0.038458522 0.05890447 0.06772539 0.013370797 0.04850652 0.05953881 0.06506695 -0.016445827 0.046902575 -0.03922574 0.033025794 -0.052161723 -0.073051415 0.05123119 0.070536196 0.07345638 -0.027006395 0.05103305 -0.0014785007 -0.053937744 -0.05857341 -0.07294593 -0.03337638 0.027138151 -0.020402879 -0.05224149 0.04153095 -0.060510665 0.06510326 -0.012050245 -0.039724067 -0.02537414 0.028340138 0.052170604 0.016394213 -0.037027698 0.004731521 0.01157973 -0.06477373 -0.06259541 -0.025287759 0.05340323 -0.06865596 0.021533221 -0.052834433 -0.027366493 0.053493753 -0.055345334 -0.04484156 0.039342776 0.02606842 0.0645016 0.033273235 0.045721695 0.01593583 -0.02281487 -0.015325826 0.03221625 0.037737533 -0.018745575 -0.048133653 -0.0077424124 0.063026056 -0.019902013 -0.024917215 -0.048769023 -0.064420626 0.052655533 0.009091698 -0.011216834 0.022481523 -0.028125212 0.06058389 -0.06992711 -0.019905545 0.028253704 0.030955732 0.043569155 -0.061379872 0.039083377 -0.026403628 -0.019103315 -0.02391256 -0.026643444 -0.0057459474 -0.0037718117 -0.021605417 -0.016632076 0.028143272 0.0043769926 -0.018995717 -0.011238828 -0.0015813634 -0.029550359 -0.034149855 -0.06961157 0.018123709 -0.043067865 -0.0035026744 0.051294625 -0.029432103 0.024332821 -0.0039027333 0.053397045 0.04202965 -0.043411534 0.03263758 -0.043273587 0.021400422 -0.0030502528 0.038847037 -0.020243824 -0.017907802 -0.028531019 -0.049006745 -0.06709822 0.050531507 -0.02168756 -0.038393974 -0.024095811 -0.035532825 -0.0073323324 0.03776788 0.03405659 0.034194805 -0.04692576 0.016971134 -0.06173399 0.048960663 0.054722786 -0.033680726 0.045744896 -0.05786308 -0.00930728 0.026884079 -0.06967711 -0.04077869 -0.02804149 0.038979024 0.06410186 0.048527576 0.016227156 -0.07196984 -0.027609944 -0.015513916 -0.03908923 -0.010412015 0.014375113 0.048486337 -0.037120964 -0.03831598 0.070577234 0.026049085 -0.010481104 -0.03172323 0.013073914 0.06094788 0.06463203 0.021163285 -0.057265863 0.025973946 -0.021146733 -0.033257782 0.060032845 0.03346335 0.062050194 -0.060237806 0.055835098 0.011532977 -0.02436101 0.015430056 -0.021249983 0.04676459 0.024810396 -0.038899682 0.043846913 -0.06440014 0.07322492 -0.03169391 -0.021624837 -0.011823662 0.071514845 0.040427566 0.009168893 0.009209603 0.020221949 -0.009570688 0.055004492 -0.0032308623 -0.03595424 0.06404124 -0.01179491 0.067556605 -0.05287995 -0.054825578 0.015789472 -0.023335937 0.0028948337 0.00092137605 -0.06431446 0.021980911 0.019377574 0.011997141 0.00733985 0.033485144 -0.042087387 0.0628254 0.04388728 -0.0065219253 -0.06179817 -0.03685999 -0.005935706 0.008674309 0.032346398 0.048516773 -0.07146069 -0.008195542 0.050719738 -0.02115003 -0.012187503 -0.04591202 -0.05963197 0.0056747124 -0.03484053 -0.02764808 -0.06883233 0.016307898 -0.03774832
-0.04957081 0.0633184 -0.034984708 0.04787585 -0.0050632507 -0.065037616 0.051783517 0.039489694 0.0111256465 -0.02154399 0.06616233 0.006603487 -0.012666479 0.0011416078 -0.005978033 -0.059499893 -0.06388857 -0.006689675 -0.013476014 0.015596025 -0.01829851 -0.029061504 0.019449927 0.05405405 -0.017736044 0.06831619 -0.040084444 0.025792256 0.014628358 -0.0020011812 -0.07147135 -0.03370597 -0.06362715 0.027696297 -0.04213061 -0.048201926 0.010555245 0.00031013042 0.014835373 0.027275957 0.034667216 0.0006974861 -0.058135495 -0.025672741 0.01628887 -0.062356327 0.07174671 0.044043303 0.017869323 -0.029668212 0.01900597 -0.012702927 -0.051387325 0.009536564 0.028640531 -0.021772522 -0.03211676 0.023126952 0.010999188 -0.026114184 0.0092950985 0.05751595 0.03941495 0.008952454 -0.05905517 0.0021763295 -0.045441456 0.05285023 -0.022354823 -0.012271315 0.00066554546 -0.048809715 0.05623412 -0.0038522184 -0.06659727 -0.014607176 0.032168612 -0.06278814 -0.063956365 -0.033801805 -0.050167456 -0.06949405 -0.0014775097 -0.019177705 0.02463334 0.06726001 0.031805143 0.0041370913 0.052756384 -0.071642324 0.05017425 -0.051815696 0.0008697957 -0.04504003 -0.03407981 0.053655416 -0.00043717027 0.016696677 -0.049977023 -0.012549214 -0.039146043 -0.019300506 0.06651172 0.005920276 -0.04394972 -0.03866886 -0.04677637 -0.03884262 0.067493364 -0.04855067 0.03680723 -0.04869981 -0.027791865 0.003615439 0.059325725 -0.0020717978 0.003647685 0.05071278 0.0075067505 -0.05124361 -0.06947558 0.007959187 0.05550708 -0.06259476 0.049151555 -0.059765607 -0.00042343885 -0.0008965209 -0.00026214868 -0.028695945 -0.027659487 0.058891714 0.04830321 -0.0606685 0.04489713 -0.03671262 -0.0055166706 0.039706945 0.012545094 -0.036025617 0.0050689653 0.024500765 -0.032436807 0.02711749 0.005902782 -0.049363703 0.01633697 0.03238038 -0.033610467 -0.030731842 -0.026678797 0.01255592 -0.05211488 -0.0697871 0.06419566 -0.07408392 0.02023004 -0.056112405 0.026090927 -0.05765707 -0.0362558 -0.07192563 -0.058246482 0.022876956 -0.027323604 -0.022024773 0.008767344 -0.006683603 -0.02248431 -0.031160515 -0.04564409 -0.0653279 -0.056351565 -0.0106316805 0.06222038 0.031813763 0.015795968 0.06970678 0.040097557 -0.010694936 -0.035710026 0.015739545 -0.0678411 -0.07204258 -0.050962843 -0.06885745 -0.030928183 0.05602105 0.04597882 0.051042944 -0.04945539 0.014119349 0.0252942 0.037758857 -0.015429378 -0.004784435 -0.051080406 -0.04906913 0.029234268 -0.010152683 0.054731503 0.0629811 -0.0045281723 0.068084285 -0.014447253 -0.060201213 0.01590018 0.070215106 -0.008775823 0.044215895 0.06771074 0.02716875 0.057749346 0.048374943 0.03163202 0.033273906 0.014969349 -0.074333474 -0.072233245 -0.0006637871 -0.07075506 0.011181019 0.0078393 0.054777965 -0.0041613877 0.05603826 0.042495497 -0.0014958158 -0.06590658 0.01932779 0.04988592 0.03166514 -0.0070405826 0.07376833 -0.022928499 0.0025914833 -0.02465608 -0.0037414655 -0.0696279 -0.042936496 0.01135017 -0.028694652 0.056877404 -0.030775018 -0.065149896 -0.05572503 -0.026163567 0.0011732727 -0.0716182 -0.03160474 -0.05030104 -0.008453101 -0.065031014 0.0067590624 0.00933446 -0.067467414 0.049737863 0.0067608505 0.0718081 -0.041666377 0.00970839 -0.06652506 0.03800685 -0.016209062 -0.034633107 0.0284153 0.027490534 0.030020788 0.05902569 -0.056459196 -0.040149048 -0.053926572 -0.018662669 -0.05182304 0.007158555 0.044406436 0.022407062 0.06822862 -0.03411319 -0.057645753 0.070470065 -0.04418189 -0.023157798 -0.06955486 -0.063633695 0.028089084 -0.035463415 -0.017158393 0.028768443 -0.025750734 -0.061326075 0.06089048 0.07386321 0.06838101 -0.070546776 0.02310808 -0.001058504 -0.073641166 0.0013178661 -0.0132426545
-0.017445303 -0.058155682 0.023709267 0.027724072 -0.008499339 0.019704185 -0.0078023523 0.016777955 -0.008234762 0.044575334 0.0038451254 0.036074094 -0.02072239 -0.059013326 -0.02881337 0.04865332 0.04060319 0.035745427 -0.029568985 0.021799505 -0.051576093 0.019778222 0.045938224 -0.07335177 0.026415847 -0.061336648 0.035806946 -0.0028439462 0.06379269 0.0555501 0.06849535 0.046466507 -0.033563 -0.062259726 -0.026387025 0.025264822 -0.026515484 0.044087753 0.070949286 0.045666516 0.0011837035 -0.026050132 -0.013642963 -0.06554745 -0.020061426 -0.0050894544 0.07023141 -0.060970806 0.039369345 -0.011114754 -0.022292156 0.058870763 0.03905361 -0.024799366 0.003920205 0.031975232 0.07093464 0.069942966 0.0287463 0.060859054 -0.033505972 0.06865975 -0.059699193 -0.015284356 0.013684474 0.0020685494 -0.0027245507 0.049657866 -0.009182692 0.06958912 -0.06527668 -0.046843242 -0.06811228 0.06908283 -0.053273994 -0.01668623 0.003902875 0.038153984 0.07346535 -0.036261316 0.014498457 0.07287817 -0.018720336 0.050397396 -0.04514463 0.019211411 0.03644675 -0.0035168827 0.07409057 0.07089329 -0.073425636 -0.067013875 0.068425894 0.023827188 0.049031295 -0.020703837 -0.0042605475 -0.05811799 -0.007272519 0.046204768 0.0143208355 -0.039489552 0.036914304 -0.002199158 0.054455057 -0.03467887 -0.027611151 0.021415919 -0.014698189 -0.06477932 -0.05410432 0.017308988 -0.035366725 0.054008916 0.0012145787 -0.026869852 -0.07121589 0.03268013 0.043970652 -0.06372264 -0.015681539 -0.045147114 -0.061006777 0.020317793 -0.073629834 -0.0076222196 -0.014606237 0.043099545 -0.0665462 0.07024732 0.057561234 -0.0064346194 0.043082997 0.05782321 0.0007345453 0.011492267 0.043688633 -0.014065497 -0.048415933 0.0709967 -0.05183329 0.044230334 0.038715295 0.05618255 -0.019190159 -0.022989608 -0.055959683 0.022773929 -0.0652311 -0.051053517 0.03173898 -0.010494389 -0.051967457 0.060765848 0.042770065 -0.03136808 -0.06400763 0.05724424 -0.06439041 -0.04754772 -0.027692355 0.059561625 0.058588043 -0.04146388 0.007344149 0.035496995 -0.06357659 -0.051938742 0.053104267 0.02458658 -0.04129218 -0.0681477 0.053975955 -0.03567618 -0.02290019 -0.055896714 0.046539783 0.05894266 -0.04790744 0.040873088 0.03687615 0.043870978 -0.063999504 -0.065816045 -0.0311995 -0.057873435 -0.07341643 0.06342465 -0.018844396 -0.04509651 0.054521725 0.06404483 0.055602342 0.015292108 -0.028834071 -0.03915404 0.058179736 -0.023595672 0.04463999 -0.0563069 0.017637901 0.057351306 0.04136402 0.02472341 -0.04795764 0.022597 -0.031391 -0.030366495 -0.050594233 0.026327886 0.024769016 -0.05050813 -0.0077309012 0.008599952 -0.027163554 0.07149623 -0.040821027 -0.02171335 -0.025913924 -0.025006223 0.002068676 -0.0405843 0.044483736 -0.072212435 0.05408953 -0.007253118 -0.0004362464 -0.023804732 0.053643286 -0.029769849 0.015580751 -0.036623612 0.004620746 0.042143613 0.07257447 0.010936558 0.02759742 0.07357325 -0.019514423 -0.06432274 -0.0030083433 -0.056023717 -0.07312388 -0.019478932 0.020381771 0.0730813 0.048886396 -0.053863138 -0.036504112 0.023851082 0.012156017 0.052549794 -0.07159528 0.030771151 0.03951671 -0.025755167 0.05853398 0.069434315 0.040788904 0.07051556 -0.053988192 -0.059470676 -0.03246721 -0.040234864 -0.01673602 0.035372242 0.005611494 -0.072032556 0.015669338 0.07083322 -0.006772369 0.026110224 0.012168735 0.06679244 -0.0690538 -0.0015025213 -0.05978792 -0.0029481575 0.052828982 -0.038064033 -0.025205012 -0.056793734 -0.0042103827 0.07231049 -0.027371265 -0.002131842 0.056502208 -0.025749687 0.070920184 -0.05443258 0.031197459 0.0647562 -0.003006637 0.0630347 -0.014646839 0.014041498 0.015011691 -0.012391418 -0.05221208 -0.05053337
