2
38 32
-0.008017812 0.37029925 0.2056845 -0.15823025 -0.015781289 -0.13249436 0.2401804 -0.17347494 -0.11811987 0.3562961 0.15768646 -0.1185826 0.09999435 -0.014888561 -0.041011486 0.14251596 -0.11715149 -0.3694797 -0.20970106 0.00038553297 0.14632322 -0.011783224 0.14689082 -0.09724077 0.28854302 -0.022925813 -0.090232275 0.11622978 -0.08387027 0.42314303 0.35411352 0.0866047
-0.2765748 -0.04551374 -0.0025778753 0.13182516 -0.11694846 -0.12277577 -0.021994535 -0.031181252 0.044856593 -0.28125414 0.23989774 -0.21895587 0.22587945 -0.18148416 0.27510557 -0.4377426 -0.23165707 0.24028262 0.1161734 0.16588715 0.14326495 0.2142314 0.08628667 0.20158425 0.03164724 -0.15220393 -0.25041255 0.24131544 -0.25874674 0.11972112 -0.14319235 -0.22547746
0.02003392 -0.075242236 -0.09006604 -0.07865253 0.3300936 -0.065847114 -0.36363602 -0.007949163 -0.17208177 -0.18752876 0.21166125 0.21563852 -0.2155343 0.29510298 0.17157917 -0.3053243 -0.09288226 -0.07656402 -0.42353413 0.08682077 -0.027082076 -0.18620263 0.29782954 -0.20216714 0.21253482 0.2558738 -0.18111129 0.013872354 -0.21421026 -0.12353197 0.001054687 0.35845226
0.46258473 0.043859128 -0.33228204 0.39318514 0.041716363 0.2567484 0.04602782 0.04921848 0.24674213 -0.20364313 0.3315083 0.21173935 0.37910327 -0.11737181 -0.07525752 -0.3849525 0.2687063 0.021693168 0.24875352 -0.07237652 0.023930859 0.1712856 0.2258384 0.29117846 -0.14719638 -0.3141415 -0.0217184 -0.122791745 -0.21226752 -0.32583478 -0.111814946 -0.012969113
0.01019871 -0.12607357 -0.091574736 -0.43120775 -0.2207451 0.2526276 -0.06428695 0.1404359 0.07917657 -0.04655006 0.1972118 0.14659546 0.2717463 -0.1961218 -0.005843989 -0.28347307 -0.1408524 -0.13681956 0.11623202 0.37925676 -0.115002535 -0.28423598 -0.22057539 0.03210777 -0.14415327 -0.18584414 -0.14417632 -0.12345105 -0.26729366 -0.20645104 0.16301747 0.30399296
-0.16938186 -0.028403174 -0.04792941 0.07127883 -0.109800935 -0.108937725 -0.043862373 -0.159212 -0.1969754 -0.2564441 -0.008142504 0.34500912 0.050413683 -0.308785 0.07346043 -0.082600854 0.0023939796 -0.14260666 0.44599992 -0.11372634 0.16316016 -0.026234157 0.09342157 0.1936793 0.06375353 -0.13058522 -0.011534379 -0.34207416 -0.049749292 0.23524022 -0.16009247 0.19079347
0.2486078 -0.075962365 -0.2013104 0.4270774 -0.050835144 0.42982262 0.18849634 -0.47510013 0.32297632 -0.058461145 0.29015407 0.16422328 0.06971405 0.029733477 -0.23208322 -0.23168406 0.23692346 0.057010967 0.047765233 -0.18866552 0.095140345 -0.032984372 0.40440363 -0.08510465 -0.054494053 -0.41461498 0.130027 0.17163281 0.09965091 -0.39011282 -0.28742218 0.09659277
0.120110966 -0.23414773 -0.040965892 0.07360694 -0.029451152 -0.065635346 -0.008987761 0.009302794 -0.14536622 0.022406982 -0.0140390815 -0.17512058 -0.058545668 0.39064616 0.14455399 -0.0024315256 0.073720984 -0.26452002 0.0030261958 -0.0085993325 -0.0042482857 0.040758036 -0.17252819 -0.040722184 -0.18445675 0.009499286 -0.08689936 -0.22354195 0.015692728 0.31777328 -0.16054316 0.24157004
0.10063607 0.15244883 0.13915499 -0.29308653 0.32629982 0.021198345 0.30382454 0.01762156 -0.12509513 -0.014873467 0.16527532 0.33734488 0.091579154 0.34771475 0.25469536 -0.055872474 0.15935598 0.23312657 0.0271058 -0.355756 0.42598763 -0.29311806 -0.05569284 -0.21223542 -0.39942637 0.38302323 0.5127236 -0.2571671 -0.18223128 0.02436382 0.039412357 0.44723794
-0.08959189 -0.06527323 -0.15376733 -0.06828301 -0.031240389 -0.32394832 -0.03163322 0.11595647 -0.13529885 0.007331261 0.226615 -0.15476555 -0.0029711437 -0.5515564 0.22289506 0.020659935 0.018672481 0.2234162 -0.065127306 0.06606465 -0.10647913 -0.01171318 -0.0063719843 0.07633496 -0.073576294 -0.001502764 0.3181782 -0.0055096676 -0.112740785 0.25152582 0.2886676 0.20975111
0.30010575 0.05703705 0.033939637 0.22213677 0.030840078 -0.30686042 0.33459064 -0.19651078 0.11123924 0.09156619 0.057352085 0.21563168 -0.07001726 0.07014788 -0.30553353 -0.042496327 0.38121969 -0.0820266 -0.15118945 0.3980426 0.2176911 0.3715139 0.19071263 -0.4159406 0.37917504 0.0070138075 0.09730979 -0.37915763 -0.3735987 0.014865346 -0.0022668508 0.026757553
-0.22438732 0.17344472 -0.05556153 0.05849201 -0.10585942 -0.08510712 0.10367668 -0.27774173 -0.22912738 -0.21819103 -0.27071562 -0.060657285 -0.21469095 -0.03556207 0.20968752 0.24108599 0.37834293 -0.038310826 -0.054054085 0.09597888 0.12918685 0.2531782 -0.020303376 0.06369202 -0.21508773 -0.28301406 -0.03792118 0.10828235 -0.025741272 0.06532137 -0.23106991 -0.13224193
0.035617914 -0.0077181365 -0.027852247 -0.0119028045 0.021695329 -0.016303247 -0.051413115 -0.15946895 0.02987781 -0.07428344 0.11652478 0.009141597 -0.022141682 -0.11369219 -0.03638511 -0.14515434 0.111549415 0.053251997 0.012797044 0.01869586 -0.014091712 -0.010426583 0.030220179 0.22417043 0.09929396 0.18438421 0.08448717 -0.03267361 0.008787967 0.07226678 0.08134193 0.057293523
0.0108925225 -0.29767272 -0.03249219 -0.012236606 0.00045389368 -0.045533802 0.13803932 -0.28767034 0.075317845 -0.1568537 0.04092645 -0.035370186 0.08694658 0.08761899 0.025560169 0.1961667 -0.00020639464 -0.04614956 -0.093097314 0.04814509 0.036417596 0.056977034 -0.072020724 -0.19735995 0.15747832 0.05145561 -0.18072346 0.10904151 -0.058107782 0.101673715 -0.08121781 -0.024581896
-0.13698572 -0.18059987 0.054500088 -0.06933474 -0.1902102 -0.38226432 -0.110560864 0.3702523 0.024809856 0.113298856 0.08646541 -0.119295605 0.063640654 0.16000254 0.28643614 0.12051907 -0.09031953 -0.06904434 -0.103944875 -0.046447016 -0.20934147 0.0032896327 0.16084345 0.2478066 -0.15646486 0.15048245 -0.019298444 0.025638053 -0.008673545 0.1588778 0.14597128 0.11947449
0.044381324 0.10523171 0.1235853 0.118200555 -0.08517104 0.07635045 -0.045716494 -0.18871553 0.23860379 0.0047112484 -0.0051804334 0.31866518 -0.12165863 0.12670596 -0.19416648 -0.027018605 -0.011267514 -0.14606926 0.06370433 0.0731323 0.44286466 -0.0069985073 0.02576652 0.36880013 0.097697705 0.01976028 0.06466573 -0.055795822 0.1861072 -0.22901818 -0.25476786 0.19886325
-0.0035602006 0.071906134 -0.31953737 0.09505177 -0.04090313 0.012329073 0.22788565 -0.51999414 -0.1449771 -0.023432394 0.22526528 -0.17670092 -0.226756 -0.0944332 0.40515262 -0.15077044 0.06329126 0.19469759 0.20438588 0.19771299 -0.17889453 0.1355004 0.12078424 -0.014969838 0.23329535 -0.11474772 0.30205625 0.14311302 -0.16157259 -0.124420814 -0.4241664 0.31147793
0.07184407 0.11067704 -0.036218744 -0.09839073 0.29838607 0.24450994 -0.15869285 0.03936774 0.08869448 0.10566552 0.1437165 -0.047934283 0.08189287 0.25969937 -0.17091836 0.12092429 -0.005333073 -0.19501705 -0.12600043 0.011608705 0.16781066 -0.15438369 -0.4336042 -0.13934894 0.1260835 -0.27633822 0.091081575 0.038354043 -0.20661965 -0.05159838 0.09562789 -0.022662038
-0.08238239 0.11057533 -0.14564814 0.17432053 -0.09974276 0.09872926 0.08346934 0.12708443 -0.33370227 0.10268157 0.017887933 -0.10491248 0.321518 -0.1012668 -0.14602552 -0.13660853 0.11445193 -0.40357533 0.17790921 -0.19644575 0.3508217 -0.15855834 -0.18331888 -0.020559996 -0.22709025 -0.2522554 -0.2801662 0.26184198 0.13205539 0.26520643 0.1624418 0.20905434
0.13173589 -0.10155668 -0.04938526 -0.0698665 -0.084018834 -0.20006317 -0.033088434 0.013544421 -0.30721682 0.045930672 -0.019518262 0.06412436 -0.14981155 0.17169975 0.08778215 -0.046117265 -0.3327311 0.12864964 -0.04122055 0.11535251 0.023883846 0.17008121 -0.05385384 -0.06844596 0.15243582 -0.081809655 -0.031007072 -0.33744097 -0.12272476 -0.2014934 -0.18018726 -0.09280291
-0.18339857 -0.28138363 -0.027929025 0.076665856 0.074271314 0.10012121 0.026620049 0.0061048805 0.060318068 -0.12108803 -0.027843526 -0.10684426 0.039709236 -0.079676785 0.074534975 -0.010450818 0.21575958 -0.008731756 -0.023081617 -0.013941431 -0.09711237 -0.1415708 0.07681991 -0.06749736 0.051645774 -0.23938943 -0.01749 0.2258598 -0.10753756 0.13383096 0.08418618 0.014934002
-0.10408989 -0.13056083 0.047737133 0.060332462 -0.025999604 0.10606458 0.025463544 0.073978074 0.067076 0.017769272 0.115243316 -0.0106750885 0.04281592 -0.092952274 0.06355098 -0.08580861 0.035130747 -0.037870094 -0.0048196046 -0.015952297 -0.0132541 -0.06996481 0.22678337 -0.041514814 0.046432458 0.099557966 -0.11915775 -0.00029497372 -0.0133443475 0.054680392 0.18088686 0.07471328
0.0814821 0.03737526 0.0043835286 -0.044042718 0.08299069 0.05040673 0.12420003 -0.09300162 -0.09522061 -0.14307758 -0.182494 -0.022129288 -0.051694635 -0.057549097 0.24642284 -0.14109673 -0.0900561 0.11743021 -0.018108739 -0.04831027 0.004562158 -0.02691964 -0.09903604 0.0360335 -0.07853793 -0.09518402 -0.08616477 0.047476165 -0.25403377 -0.20442483 0.20762625 0.03712891
-0.40612024 -0.25315583 -0.3560294 0.02559279 0.13889875 -0.06459992 -0.013267773 0.054456465 -0.061913364 0.029219495 -0.10864625 0.044757795 0.23447195 0.25452632 0.0544026 -0.060210604 0.04815875 -0.07490937 -0.038551312 -0.23769167 -0.14343046 0.13991615 0.042325377 -0.06939551 0.15139711 0.040440712 -0.030842226 0.2254702 0.26100868 0.01318999 0.12526782 -0.0134158665
-0.05716715 -0.21495965 -0.03570077 -0.012394152 0.00088951364 -0.04174195 0.02775451 0.04494705 -0.18556277 0.057385672 0.010024335 0.07431719 0.08114977 0.031157874 -0.05365157 0.06998396 0.06886541 -0.039455235 0.036266822 -0.06414125 0.13705806 -0.0099233 0.37182605 0.15829103 0.31650597 0.09014424 -0.04321928 0.13713561 -0.09395929 0.21131893 -0.06309124 -0.11947104
0.03516145 0.19671902 -0.18269153 0.16963057 0.28436252 -0.00030830683 0.028141007 0.07563577 -0.035073925 -0.057773933 -0.23536049 -0.105441436 0.17690195 0.14043032 0.29229692 0.07275487 -0.0758237 0.07333292 -0.05139723 -0.2868507 -0.18257333 -0.082419485 -0.19353238 0.24257827 -0.031061308 0.24702087 -0.0013518924 -0.06596003 0.012598967 -0.13204673 -0.19949572 0.088413164
-0.050359126 -0.17668405 0.11552846 -0.23227173 -0.22002105 0.012356412 -0.22292852 0.021898067 0.06411229 0.22521438 0.14206237 -0.094024904 -0.35066742 0.12833026 -0.11608767 0.060115952 -0.027563784 0.022458527 0.071560025 0.2912111 0.015827818 -0.07220692 -0.25034884 -0.0003138085 -0.16520864 -0.099919386 -0.08677722 0.02074733 0.1472307 0.15726328 0.25550494 0.014174905
-0.0020413636 -0.34977925 0.33076963 0.13332886 -0.17537378 -0.06804919 0.036563292 0.044546925 -0.078963436 0.1949914 0.05517866 -0.33080634 -0.16799308 0.18445899 -0.18800259 0.11977756 0.14136037 -0.2631622 -0.118365385 0.06163763 -0.24784069 -0.23055623 0.029752467 -0.11568765 -0.23022902 -0.25182918 -0.15409401 -0.26609138 -0.010184504 -0.17854145 0.13953629 -0.12441901
-0.42644954 -0.19044912 0.19739465 -0.046536118 -0.41949764 0.02437056 -0.15063354 0.07737944 -0.5098764 -0.06336336 -0.21637078 -0.18432711 -0.039039593 -0.18729645 -0.51549816 0.10323257 0.062287625 -0.3032973 -0.26841 -0.17758642 -0.3301289 0.016741129 -0.21933548 0.43868718 -0.2626525 -0.23863304 -0.10648178 0.2455494 0.35930735 0.023607874 0.27690944 -0.3242532
-0.07702844 0.023114469 0.06443704 0.07765881 0.03829634 0.009388896 0.00250033 -0.015927395 0.20639229 0.19660033 -0.03976295 -0.3651097 -0.029742654 0.044324916 0.13352324 0.10473786 -0.11867629 -0.09572069 -0.12564425 0.047813535 0.1359813 -0.15414795 0.08435008 0.1029569 -0.06020334 -0.014431368 0.059190232 0.14569804 -0.08279792 -0.013932128 -0.12980376 0.1231505
-0.2120166 -0.02266011 -0.03555192 0.0076127225 0.15558709 -0.060053527 -0.15657125 -0.028061595 -0.18711537 0.2157657 -0.044486318 0.011029103 -0.19681947 -0.16141573 -0.0620429 0.1569203 0.05982883 0.12644187 -0.07373226 0.17170778 -0.0026095777 -0.07133746 0.034665827 0.018160561 -0.17855832 -0.18765758 0.007304673 -0.03273849 -0.18818377 0.104985155 -0.32500705 -0.04148468
0.097748935 -0.17103437 0.036187384 0.022182137 -0.13613869 -0.2755834 0.17598662 0.06161245 -0.2895015 -0.1665687 -0.101358876 -0.092088774 -0.06924484 -0.05040903 0.3377567 -0.13651012 0.026816899 -0.015533617 0.09525683 -0.109192975 -0.0659347 0.049479358 -0.13272631 0.29492643 -0.081796 0.06747036 0.07174129 -0.19088618 0.090049684 -0.25592768 0.22791903 -0.09365675
-0.25122318 0.20604423 0.069886066 0.0594275 0.043817922 0.28915104 0.12326413 -0.0040453686 0.11814235 -0.009412301 -0.07973471 0.03064885 -0.18194073 -0.2223567 0.0038804112 -0.040656175 0.14688039 0.051620837 0.022843976 0.28338304 -0.1570415 0.17853972 0.1250138 -0.02987315 -0.38352227 -0.024602989 -0.20319052 -0.33217385 -0.31653538 -0.04579628 -0.43493783 -0.19363222
-0.3446692 -0.1250505 -0.10024903 -0.31624714 -0.07553918 -0.097604364 0.18155462 -0.0050861426 0.44039172 -0.22750174 -0.19425851 -0.101991385 0.26583716 0.0034273916 -0.13375184 -0.05976416 -0.12701507 -0.09068421 -0.1346205 -0.29988492 0.27005684 -0.12600575 0.36441532 -0.06780673 0.3928898 0.072441936 0.35829765 -0.116187364 -0.1667775 -0.12554845 0.2008059 -0.5554508
-0.056824695 0.25189307 0.17419273 -0.060943298 -0.20770054 0.3263922 -0.20857199 0.1190262 0.094996996 0.24227065 -0.07800775 -0.2794641 0.064846896 0.2870967 -0.07194282 -0.2508681 -0.41069725 -0.20201094 -0.39077392 -0.35399207 0.450495 -0.4277429 -0.3235518 0.009570696 0.17151654 0.0792228 0.12646298 0.31293792 -0.36488244 0.23468 0.09023845 0.043215595
0.03551325 -0.20488544 -0.08545478 0.084694885 -0.30252162 0.14276402 0.07752195 -0.20065534 -0.044279184 -0.19358654 0.13082007 -0.009016518 -0.05706901 0.022412283 -0.19192572 -0.007997585 0.23960052 -0.36088145 0.08928765 0.1459116 -0.23783526 0.24958478 -0.025262976 -0.09410671 0.17503656 0.25307432 0.019420974 -0.29310346 -0.08287254 -0.33932874 0.0475414 -0.025103388
-0.09367166 -0.030643547 -0.010206285 0.066440545 0.085675135 -0.19949657 -0.25866547 0.071405314 -0.057918552 -0.09769385 0.17318286 -0.17338602 0.10087797 0.044943262 -0.21291879 0.17674118 0.06229906 -0.082953885 -0.094368905 0.05807313 -0.1885114 0.038093932 -0.007708183 -0.09933408 0.13603055 0.40967655 0.07105282 0.11734641 -0.2814953 -0.2559367 0.18980022 -0.09084325
0.1732888 -0.30703312 -0.001225518 -0.2430469 0.08021368 -0.13949683 0.26800194 0.07690613 -0.37164676 -0.25915906 0.017036708 0.17698956 -0.044619266 -0.15358022 -0.05669786 0.07923647 -0.015634002 -0.17819783 -0.15335058 -0.21958455 0.038677752 -0.0013299909 0.03792791 0.045256834 0.08313754 0.25344706 -0.04302605 0.18766072 0.33487615 0.034255367 0.15368743 0.056665555
0.054149076 -0.2052325 -0.08592191 -0.23845445 -0.10204051 0.20440353 -0.081430115 -0.11321283 0.19304751 -0.15798473 -0.09820774 0.4033694 0.09425244 0.2737847 0.13658935 -0.08250646 0.04136605 0.268836 0.12129437 -0.0062716394 0.07928436 -0.20339574 -0.019763486 -0.11639716 0.09124146 0.058485843 0.1663575 0.08383606 0.021983355 -0.033527307 0.21292447 0.09430796
3
32 19
0.7239107 0.060491044 0.27219638 -0.2770399 -0.21866147 0.48204985 -0.041306715 0.25143445 -0.3416096 -0.4793493 0.17885214 0.24686475 0.045532025 0.25846568 -0.61948055 -0.65765315 -0.6263035 -0.29794085 0.40431038
0.5659164 -0.6310246 0.11797399 -0.24127032 -0.24265432 -0.23203655 -0.5873903 -0.45629042 0.10956857 -0.35098684 -0.21472533 0.0993511 0.3610789 0.66708845 -0.13681033 0.40836373 0.28932038 -0.26070073 -0.10746663
0.19536641 0.49032503 0.0036971923 -0.5039147 0.5179975 -0.2491114 -0.42874354 -0.4548892 -0.57878023 0.69465995 0.8096077 -0.06092165 -0.54701793 -0.119148426 0.37799972 -0.010427993 0.3339023 0.027017353 -0.7559001
-0.7703684 -0.8331653 -0.4922696 0.6525406 -0.54748124 0.35147694 -0.44908026 0.09229187 0.22236645 -0.39332548 0.26141945 0.119339585 -0.045963295 0.27403912 -0.21208575 0.022288807 -0.081463195 0.25167778 0.7951291
0.55674595 0.2736217 -0.65928656 -0.17160785 0.11397499 0.06285338 -0.040329773 0.34136224 -0.29522106 -0.27228966 -0.44668984 -0.44440275 0.122487746 0.7234462 0.6352277 -0.4182371 0.38110486 0.023032377 -0.19753486
-0.59249943 0.33844066 0.43310407 -0.53059787 -0.5637369 0.3468821 0.4571772 0.49729538 0.7409294 0.8179571 -0.21405327 -0.49519637 0.019445462 0.39629006 -0.17099255 -0.23840953 -0.2665962 -0.1638299 0.12781087
-0.1265657 -0.4695683 -0.063294165 -0.10099593 0.69378674 -0.27859938 -0.21467465 -0.5309279 -0.28640297 0.15801619 0.29584077 0.64330256 0.34682706 0.43537304 -0.6575657 0.4617211 0.16320318 -0.17610155 0.3539201
0.11058161 0.31529316 -0.26991367 -0.41437778 0.34870178 0.16948447 0.24828756 -0.4677544 0.1639848 -0.34418777 -0.28068066 0.18966949 -0.46830732 0.16497967 -0.32435995 0.065645985 -0.6345609 1.0358871 -0.3701817
-0.26662904 0.5577729 0.24565345 0.12569702 -0.24050595 -0.6740915 0.28605735 0.29577574 0.4378968 -0.4314694 0.0019868792 0.08782843 0.5207101 0.18312143 -0.60744834 0.14372502 -0.016025044 0.0963259 -0.18870758
0.48729882 -0.6040393 0.22561759 -0.48522 -0.22791936 -0.27135128 0.14183523 -0.14773448 -0.24195231 0.27537027 0.34987202 0.3879087 0.6123884 0.33598673 0.080133066 0.4389648 0.085247844 -0.1445966 -0.5273326
0.04639158 -0.092596106 0.3760126 0.52310157 0.10216357 0.10264932 0.7428824 0.7831133 -0.2998842 0.00424564 -0.3183932 0.22375216 0.23078977 0.061514113 -0.3420159 -0.39903283 0.3014893 -0.6029525 -0.40618193
0.5760676 -0.2779694 -0.23951104 -0.57007426 0.116544195 -0.1779196 0.5099626 0.49321508 0.4494784 -0.52137905 -0.2965496 0.31422403 0.38763905 -0.0046626823 -0.58806986 -0.19619071 0.70681983 0.451364 0.30237877
0.039054 -0.536845 0.23497504 0.009437485 0.55528635 -0.09919626 -0.22295083 0.1828561 0.25758347 0.1803411 0.3517623 0.5120576 -0.53806853 0.4930486 -0.29078892 -0.56983966 -0.41630557 0.02375482 -0.026482955
0.3951161 -0.36856234 -0.59577125 -0.23039487 -0.29951215 0.1379482 0.09072472 0.5492422 0.23993494 -0.49583924 -0.63741916 0.19577141 -0.30571696 0.8130202 0.2912358 0.37527284 0.46271503 0.058332674 -0.16019747
-0.960573 0.08917272 0.19272664 0.07285906 0.15300183 0.24173991 0.398612 0.023744283 -0.061270095 -0.7992581 -0.5834024 0.073471256 0.0033405225 -0.19002125 0.10867796 -0.052362796 0.72994334 0.6954373 0.07074121
0.22744557 -0.335402 -0.38968354 -0.2786611 -0.68998 -0.47761095 -0.24396138 -0.35649168 0.3787045 -0.03200271 0.18691099 0.83174723 0.43025616 0.0993603 0.3300319 -0.0009647414 0.31752327 -1.0192537 0.009378781
0.45017767 -0.45876628 -0.16893275 -0.60450494 -0.4917854 0.4424666 0.3456631 0.22168621 0.13916275 0.052360144 -0.0043138447 0.75526166 0.047914285 0.13435733 -0.37318823 -0.68607813 -0.2209318 -0.3907497 0.40523747
0.25145608 -0.50356245 -0.65111977 0.4019701 0.55348915 0.48231712 0.48846292 0.3557272 0.71819055 -0.1831299 -0.32967445 0.29952332 -0.2912862 -0.40514928 -0.4332737 0.65029186 -0.011594836 0.43970183 0.49338567
-0.23045205 -0.03974967 -0.7721259 -0.09580058 0.36692742 -0.81297386 0.45044902 0.26043397 -0.47983974 0.3296757 0.35070688 0.6339691 0.45661443 -0.5427828 -0.25667715 -0.44757232 -0.027901204 0.55532455 0.44674754
0.21483973 -0.53503966 0.47859877 0.32241106 0.7167392 -0.25420946 0.7090932 -0.31819174 -0.012735584 0.038489554 0.13349147 -0.7033402 0.44005668 -0.21002185 0.62174475 -0.44384784 -0.51842666 -0.12125121 -0.589815
-0.19289778 -0.15620618 0.05624889 0.31011558 0.72630215 -0.29862002 0.09074302 0.84056705 -0.10949518 -0.66006666 0.24285546 -0.15042605 0.03404859 0.044015594 -0.39682075 0.3344508 0.37303916 -0.5691642 -0.09571517
0.018403482 0.12292191 -0.030135887 0.5131473 0.027987719 -0.45467582 -0.6968874 -0.26305836 -0.591143 0.26397482 -0.14393164 0.40012726 -0.082733385 -0.49267843 -0.09440314 0.39333174 -0.49242294 0.39924717 0.59810424
-0.2816372 -0.45544636 0.028790299 0.67774826 -0.2798935 0.81570053 0.065847725 -0.022431076 -0.6716585 0.06670607 -0.2510182 -0.22161737 0.33239827 -0.071976624 -0.059701804 0.078712754 0.1341333 0.34078774 0.27322617
-0.634369 0.33637702 -0.23651624 0.58468777 0.08385222 -0.039423365 -0.2831631 -0.36620367 0.07775885 0.44084853 -0.19414352 -0.07414002 -0.68644285 0.53054756 -0.50424767 -0.6752987 -0.07352387 0.41075453 0.13374427
0.4302117 -0.25854203 0.36694366 0.35096756 -0.26162887 -0.2369372 0.06217527 -0.11527473 -0.25122216 -0.50006324 0.21831523 -0.12236467 0.3704589 -0.110320404 -0.062752955 0.32407162 0.39631182 0.056660604 0.1295069
-0.08111314 -0.26358077 -0.23204616 -0.25713128 0.19477943 0.2987737 0.5073451 -0.10570962 0.11185402 -0.42601997 -0.059874404 -0.72790533 -0.5146885 0.03653749 0.29149327 0.3795142 0.20115604 0.7018619 0.07971809
-0.71096116 0.41410473 -0.67412895 -0.56510085 0.14135183 -0.8133527 0.6489735 0.4025229 0.18586807 -0.093667746 0.3596106 -0.2528759 0.57593185 0.55042773 -0.046316892 0.4459602 -0.0950902 -0.2940994 0.77370816
-0.22019452 -0.63888115 0.044119976 0.22635424 -0.10134422 -0.36077484 -0.40210053 -0.0064603877 -0.14331679 0.080219984 -0.5033909 -0.45369908 -0.47260225 0.52753025 0.34863245 0.37874413 -0.19462588 0.09419458 -0.3412082
-0.2037484 0.66884595 -0.57865363 -0.044741176 -0.18203458 0.15057012 -0.56447023 -0.3081845 0.36566025 0.5859625 0.031762034 0.32197183 0.2503422 0.19530962 -0.028203519 -0.16711317 -0.6382785 -0.084354945 0.24426095
0.30814067 -0.3298227 0.08247345 0.03777947 0.49444714 -0.09163951 -0.4575699 -0.5961136 0.4142895 0.15923375 0.91244006 -0.41978186 -0.18790667 -0.0032082573 0.35831743 0.38533583 0.566259 -0.35280553 -0.5688473
0.5529327 -0.6530332 0.503676 -0.17532721 0.07308699 -0.2547663 0.43293306 -0.25814942 -0.5066166 0.1863864 0.6357349 0.5501596 -0.21310085 0.5492979 0.06508905 -0.10613246 0.14448898 0.030978 -0.2575014
0.17438218 0.33718204 0.15206808 -0.027057147 0.3301762 0.2909054 0.37138417 0.08397732 -0.9858936 -0.28784028 -0.5647168 0.032938678 0.79950494 -0.33197227 0.50592786 -0.6789637 -0.014992275 0.37444642 0.035380054
-0.09509291 -0.25105903 -0.03084742 -0.42713115 -0.14539067 -0.30373362 -0.23015936 0.070986286 0.19186068 -0.17162764 0.23714592 0.3495238 -0.2832581 -0.10500773 -0.16320112 -0.12134645 -0.18817613 0.5920142 0.26759556
0
