2
38 32
0.006305631250143051 0.005683766677975655 0.00767763564363122 -0.00916649866849184 -0.00923991296440363 0.0010920814238488674 -0.00550625566393137 -0.00373645662330091 -0.0035836573224514723 -0.006998695898801088 -0.002174226799979806 0.0034928268287330866 0.007610342465341091 -0.00544008007273078 0.008753582835197449 -0.010894346982240677 0.0018619237234815955 0.008617617189884186 0.004494538996368647 0.0073911212384700775 0.0045025949366390705 0.0057167112827301025 -0.004656495060771704 0.00667617516592145 0.005173044744879007 0.001008285558782518 -0.008658159524202347 -0.003924556076526642 0.013851964846253395 0.003126016817986965 -0.0038785208016633987 0.0015696889022365212
0.007550523616373539 0.008394554257392883 0.0020241462625563145 -0.00038759480230510235 0.0030718750786036253 0.010434084571897984 -0.0043935696594417095 -0.002813951577991247 -0.005402914714068174 0.0019414536654949188 -0.002783802803605795 0.0024297384079545736 0.005661314353346825 0.0032996786758303642 -0.009968746453523636 -0.0035079459194093943 -0.00603497726842761 -0.002906565787270665 -0.004034646786749363 -0.005460169166326523 -0.006588047835975885 -0.010396437719464302 -0.002827793825417757 0.00786951556801796 -0.0023579387925565243 -0.004293493460863829 0.010250893421471119 -0.005920433904975653 -0.006230395287275314 0.007114135194569826 0.0023080792743712664 -0.003356988076120615
0.003944298718124628 0.004892838653177023 0.0034221825189888477 0.0019906405359506607 0.008127344772219658 0.007467506919056177 -0.0065604206174612045 -0.006475759204477072 0.0071760849095880985 0.0010075622703880072 -0.008122766390442848 -0.00189072429202497 -0.009416360408067703 -0.0113142104819417 -0.007786016911268234 0.004369796719402075 -0.0030088303610682487 -0.00012524169869720936 -0.005352194886654615 0.007465410977602005 -0.009366768412292004 -0.00938322488218546 -0.0019749938510358334 -0.003581563476473093 0.004102163016796112 0.0022796201519668102 7.638390525244176e-05 -0.011948059312999249 -0.009760972112417221 0.008157153613865376 -0.00895940326154232 0.003964810166507959
-0.006398440338671207 0.009848590940237045 0.0028193097095936537 0.006291081663221121 -0.005284920334815979 -0.005562132690101862 0.003105417126789689 0.0034046233631670475 0.0007696788525208831 0.00788145512342453 -0.005172370932996273 -0.010399681515991688 0.004722235258668661 0.005310744978487492 -0.006695892196148634 0.006696490570902824 0.0033535961993038654 -0.01133453007787466 0.00515365693718195 -0.007097074296325445 0.007693080697208643 0.0037032202817499638 -0.002336733276024461 0.006650704890489578 -0.011345534585416317 -0.006875254679471254 0.012473966926336288 -0.004691995680332184 0.0022966573014855385 0.006269815377891064 -0.008038818836212158 0.00659958366304636
0.008262094110250473 0.007408753503113985 -0.0005301032797433436 -0.0014051039470359683 -0.0055473316460847855 0.006549136247485876 0.005594825372099876 0.0019259183900430799 -0.000602184736635536 0.003632290055975318 0.012424176558852196 -0.007251456845551729 -0.002498174784705043 0.003700016066431999 -0.002424841048195958 9.622529614716768e-05 -0.008859786204993725 0.0063429842703044415 0.006270351819694042 0.0018977507716044784 0.003928512800484896 -0.01783192716538906 -0.00615654094144702 -0.0016016359440982342 0.011657271534204483 -0.0048019844107329845 0.009288283064961433 -0.0035270689986646175 0.004555032588541508 0.0038166921585798264 0.0032233025413006544 0.00986162107437849
0.005669739563018084 -0.004957921337336302 0.006270275916904211 0.01181501429527998 -0.007003766018897295 0.003647040342912078 0.015307364985346794 0.0031567716505378485 0.0014862586976960301 0.00939250085502863 0.0009993368294090033 0.009062725119292736 0.003016965463757515 0.013626765459775925 -0.010766776278614998 0.0002483541320543736 -0.00013709488848689944 -0.004882844164967537 -0.004959541372954845 0.002741095144301653 0.003390492871403694 0.0009726712014526129 0.0016584701370447874 0.002855866216123104 -0.015133404172956944 0.0026249869260936975 -0.006016070954501629 0.01671677455306053 0.004130462650209665 0.008156310766935349 9.037296695169061e-05 -0.009814660996198654
-0.0078694187104702 -0.002425591228529811 0.007348235230892897 0.007560293190181255 0.004262201488018036 -0.004477405920624733 0.0017912029288709164 -0.00165439338888973 0.003052065847441554 -0.0030276149045675993 0.006670146249234676 -0.007077437359839678 -0.009104616940021515 0.005734773352742195 0.0021149010863155127 8.958374382928014e-05 0.005185216665267944 -0.005249238107353449 -0.0002659983583725989 -0.0009762042318470776 -0.0008108488982543349 0.009268417954444885 -0.014110743999481201 -0.010629960335791111 0.0006368418107740581 0.009632169269025326 0.0005111214704811573 0.0013148605357855558 -0.002969874767586589 -0.0009067432256415486 0.0025421823374927044 0.001128785079345107
0.0012650750577449799 0.007103615440428257 -0.006205250974744558 0.0010128291323781013 -0.0005889097228646278 0.009116199798882008 0.0011546052992343903 0.00293711107224226 -0.0003958806919399649 0.005505754146724939 -0.0014202361926436424 -0.00457614054903388 0.0009111376130022109 0.0025395292323082685 -0.001234197523444891 -0.001180764869786799 0.0035112351179122925 0.001324305310845375 0.0009282465325668454 -0.0015299542574211955 -0.00040636889752931893 -0.0008300655172206461 -0.008164037950336933 0.013090306892991066 0.0031614250037819147 0.007755201309919357 -0.004541948437690735 0.004512330982834101 0.0015969406813383102 0.008059030398726463 0.001763922511599958 0.0005266159423626959
-0.004726261366158724 0.0030852491036057472 0.003949904348701239 -0.008349199779331684 -0.009277050383388996 -0.005921271163970232 0.006081650964915752 -0.008194416761398315 0.010565166361629963 -0.003222815925255418 -0.0023967705201357603 -0.0044348943047225475 -0.008884626440703869 -0.0006706527783535421 -0.0007490611169487238 0.0019690317567437887 0.00834893062710762 -0.000549095100723207 -0.01417294330894947 0.004481237847357988 -0.012048584409058094 0.006043023429811001 -0.0050228857435286045 -0.00891999714076519 -0.002505472395569086 -0.004091484937816858 0.008600318804383278 -0.0010922650108113885 0.005111866630613804 0.004128367640078068 0.011317531578242779 0.0009634554153308272
-0.002718911273404956 0.0037196879275143147 0.01196764875203371 -0.0008009785087779164 0.00023071689065545797 0.009786874987185001 0.0006099084275774658 -0.0003805760061368346 0.004553808365017176 0.01415720209479332 -0.001138479565270245 -0.0025275524239987135 -0.001592547632753849 -0.004101409576833248 0.0012476174160838127 0.0015989441890269518 0.00029522317345254123 0.00801917351782322 -0.0036427380982786417 -0.0015976374270394444 0.001035391353070736 0.0038924955297261477 0.0029969627503305674 0.005631399806588888 0.0034381321165710688 -0.003912708722054958 0.0037991153076291084 0.009122203104197979 -0.004331780597567558 0.006907688453793526 -0.006814246531575918 -0.005667353514581919
-0.0048844823613762856 0.0003050926316063851 0.001431492855772376 -0.0014121988788247108 -0.007261318154633045 -0.013517796993255615 0.006193458568304777 -0.003016914939507842 -0.013875768519937992 0.00809645839035511 -0.0063432203605771065 -0.009549213573336601 -0.006851088721305132 0.0006699447985738516 -0.003496322548016906 -0.01016208902001381 -0.00659833662211895 0.0106641361489892 -0.0025094232987612486 -0.002360626822337508 0.006519221235066652 0.0048833973705768585 -0.0052291760221123695 -0.010495167225599289 -0.0017361517529934645 0.010130218230187893 0.006062577478587627 0.006356889382004738 0.0030765454284846783 -0.008641444146633148 -0.002096225507557392 0.010952699929475784
0.0015798029489815235 -0.0069655501283705235 0.004964238964021206 0.0015586615772917867 0.00625016912817955 -0.00032965163700282574 -0.015556558035314083 0.00518622575327754 0.00572389829903841 -0.004153920337557793 -0.0015071093803271651 -0.0013192066689953208 -0.0022661592811346054 -0.0018845148151740432 0.001910515478812158 -0.002824851544573903 0.011652255430817604 0.004758736118674278 -0.0024627067614346743 0.003882030490785837 -0.004230972845107317 0.00030098037677817047 0.0014095299411565065 -0.0004886856768280268 0.007893548347055912 0.005952437408268452 -0.0006823462899774313 -0.003167879069224 -0.002031071111559868 -0.010590357705950737 -0.001974548678845167 0.0021699974313378334
0.012754217721521854 0.0012353559723123908 0.004113187547773123 0.0015336693031713367 -9.866091568255797e-05 0.004168548155575991 0.002867874689400196 -0.0003890414081979543 0.00389860849827528 -0.011945496313273907 0.001814650953747332 -0.0011109951883554459 0.0017222078749909997 -7.765665941406041e-05 -8.221315511036664e-05 0.0013419943861663342 0.004429551772773266 0.0010932462755590677 -0.006690661422908306 0.0003948607190977782 -0.0010256291134282947 0.0018291511805728078 -0.004541260190308094 0.005518642719835043 -0.003037662710994482 -0.0007913893205113709 -7.352627289947122e-05 0.0015610316768288612 -0.0030600621830672026 0.0031537769827991724 -0.0003942056791856885 -0.0006691179587505758
0.004624818451702595 0.001081497990526259 0.0029509058222174644 0.00014376649050973356 0.0016867221565917134 -0.004097517114132643 -0.0052601732313632965 0.002827960764989257 -0.004148428328335285 0.005763956345617771 -0.0010009139077737927 -0.0030535461846739054 0.004085463006049395 -0.0011492675403133035 0.0027928322087973356 -0.0016129162395372987 -0.00043499955791048706 0.0010410300455987453 0.005316076334565878 0.00032617218676023185 0.0007535025360994041 0.001537506002932787 -0.0019414121052250266 0.008264532312750816 0.00044553304906003177 0.007562302518635988 -0.0007122228853404522 0.002639708574861288 0.006407770793884993 -0.0013711925130337477 -0.0002998175914399326 -0.0009191645658574998
0.0024398271925747395 0.005869998596608639 -0.006856590509414673 -0.0054188990034163 -0.004852180369198322 0.004108302760869265 -0.002756958594545722 0.008392319083213806 -0.0014750594273209572 -0.008419674821197987 0.0019278411054983735 0.0005713087157346308 0.0014137298567220569 0.0011752151185646653 8.958992111729458e-05 -0.006260712165385485 0.007116371765732765 0.0015466312179341912 -0.011600217781960964 -0.0009182280628010631 -0.00014224104234017432 -0.009846712462604046 0.006349826231598854 -0.003006530925631523 0.0020015304908156395 0.006436454132199287 -0.002865113317966461 0.004049904178828001 -0.0021710782311856747 0.00763738015666604 -0.010512285865843296 -0.011100340634584427
-0.0015221161302179098 0.0021017231047153473 -0.0016330336220562458 0.005048385355621576 0.002231084043160081 0.0012382478453218937 0.0010324229951947927 -0.0029494205955415964 0.00406757602468133 -0.005062825046479702 0.004336987622082233 -0.006192282307893038 -0.001106616691686213 -0.003814583644270897 0.0008352429140359163 -0.006290472578257322 -0.0010107940761372447 -0.0038192078936845064 0.0029225063044577837 0.0020437920466065407 -0.001009749947115779 0.004420447628945112 -0.007939264178276062 0.005307191517204046 -0.0049903979524970055 -0.002542544389143586 -0.0022626814898103476 0.012094169855117798 0.0015581409679725766 0.008767015300691128 -0.0050414325669407845 0.0038941078819334507
-0.00031990211573429406 0.002187322825193405 0.00034940880141220987 -4.0026396163739264e-05 0.0046065011993050575 0.0019290550844743848 0.00978231243789196 -0.012938386760652065 -0.003677668049931526 -0.0028169136494398117 0.007632799446582794 -0.00952097773551941 -0.005972525104880333 0.003188144415616989 0.0006735444767400622 0.007493449840694666 -0.009061421267688274 0.005477221217006445 0.0008618241408839822 -0.004934875760227442 -0.003995105158537626 0.01291716005653143 -0.006432662717998028 0.0008490885375067592 -0.007673343643546104 0.006110211834311485 0.009136006236076355 -0.00033501896541565657 -0.0036975685507059097 -0.005876823328435421 -0.007696105167269707 0.01369862537831068
-0.0018148304661735892 0.006652529817074537 0.007821532897651196 -0.0025692381896078587 0.006545215379446745 -0.014493858441710472 -0.005651508457958698 0.003303701290860772 0.006050217431038618 0.00032852854928933084 0.0028426276985555887 -0.004542109556496143 0.007010698318481445 -0.009186556562781334 4.533958053798415e-05 0.002018871484324336 -0.007176916114985943 0.0013748713536188006 -0.0049882796593010426 0.006405604537576437 0.01230457704514265 -0.0009130993857979774 -0.007580859120935202 -0.0018840520642697811 -0.001615057117305696 -0.004590707831084728 -0.009379187598824501 -0.005631847772747278 -0.0025210296735167503 -0.0003095167048741132 -0.0002540287678129971 -0.008738003671169281
-0.0028375040274113417 0.0067306035198271275 -0.006534098647534847 0.002545079914852977 -0.001418024068698287 -0.0035078106448054314 -0.009454794228076935 0.006903423462063074 -0.008890151977539062 -0.008482257835566998 -0.0011935420334339142 0.007136473897844553 0.006402709521353245 0.003991674166172743 -0.004001549445092678 0.001940591144375503 0.001632778556086123 0.009474888443946838 -0.00032760537578724325 0.012460215948522091 0.010780084878206253 0.00928804837167263 -0.0016419930616393685 -0.00031270700856111944 0.003860796568915248 -0.0037959928158670664 -0.010057950392365456 0.0002354869939154014 0.006083772983402014 0.008938546292483807 0.004175886511802673 -0.005709381774067879
0.010014011524617672 0.0034444513730704784 -0.0023518730886280537 -0.0009160437621176243 -0.004999815486371517 0.004953101277351379 0.0008990973583422601 0.0021948704961687326 0.000981051940470934 0.004086360335350037 0.0039551449008286 0.0062490953132510185 -0.006377275101840496 0.005110598169267178 -0.0006566827069036663 -0.004006016068160534 -0.010637111961841583 -0.0021135909482836723 0.003778632264584303 -0.006818519439548254 -0.004687023814767599 -2.2911954147275537e-05 -0.0010275158565491438 -0.001833603368140757 0.00271363602951169 0.003381872782483697 -0.004543623421341181 0.002552164951339364 0.0012233243323862553 -0.008230200037360191 -0.009747015312314034 0.000984890735708177
-0.0029863750096410513 -0.002296256134286523 0.005865987855941057 -0.000452558568213135 0.004464620258659124 0.004260771907866001 0.0015937491552904248 0.003435262944549322 -0.003673889208585024 0.0057810405269265175 -0.00306122237816453 -0.006935213692486286 -0.0060912808403372765 -0.003074652748182416 0.0008468349114991724 0.0024625896476209164 -0.0029001811053603888 0.00019619711383711547 -0.004904859699308872 0.003952160011976957 0.0023604154121130705 0.0016641938127577305 0.0006024951580911875 0.011019059456884861 0.007197314407676458 -0.006244136951863766 0.0027849553152918816 0.005185987334698439 -0.0007264636224135756 0.004109594505280256 0.0068717473186552525 -0.0009049373329617083
-0.005683389957994223 -0.0027858514804393053 -0.003945428412407637 -0.0012528341030701995 0.00011226500646444038 0.0006735631031915545 0.00020137235696893185 0.0021679317578673363 -0.006814909633249044 0.0067669241689145565 -0.0020960113033652306 0.0005810518050566316 -0.005057829432189465 -0.0016529106069356203 0.006032124627381563 0.002812181133776903 -0.004920697771012783 -0.00016618706285953522 0.0012285950360819697 0.00580982118844986 -0.00031162804225459695 -0.004193925764411688 0.0008386484696529806 -0.005749846808612347 -0.0034773715306073427 0.009824810549616814 0.0016767821507528424 -0.0005632985848933458 0.011875085532665253 0.0023792681749910116 0.0027455321978777647 0.001473046955652535
-0.004493033979088068 0.005402631592005491 -0.006476100999861956 -0.0016144431428983808 -0.0032313219271600246 0.00588684156537056 -0.00042900373227894306 0.002020654734224081 0.003972865175455809 0.0010984500404447317 -0.0016457372112199664 -0.0015610120026394725 -0.0002489727921783924 0.0004667267785407603 -0.0050464412197470665 0.004688693210482597 0.000701525597833097 0.0009155729785561562 0.0037986235693097115 0.005190248601138592 0.0018428834155201912 0.0021672442089766264 0.006814680527895689 0.001942498260177672 -0.00562435295432806 -0.006537270732223988 0.0011876201024278998 -0.003044665092602372 0.006053665652871132 -0.005527873057872057 -0.002755788154900074 -0.001571941189467907
0.004855767823755741 -0.002781057730317116 0.0077809556387364864 -0.0012186327949166298 0.006348686758428812 0.0030736858025193214 -0.001380661502480507 0.002470536855980754 0.0008783621015027165 -0.0016553185414522886 -0.006164172664284706 0.006531274877488613 -0.0017463222611695528 -0.00043505002395249903 0.0019885029178112745 -0.005565385799854994 0.010698487982153893 -0.00229412573389709 -0.0012150153052061796 0.004159931093454361 -0.006264726165682077 -0.0013189645251259208 0.004101223312318325 0.00592744629830122 -0.004008027259260416 -0.0027451771311461926 -0.006243775133043528 0.003640248905867338 0.0024281011428683996 -0.004286146257072687 0.009977538138628006 -0.0003025906626135111
0.002295062644407153 -0.0011565116001293063 0.0027883900329470634 -0.0022266912274062634 0.00234664767049253 0.003810647875070572 -0.00015475180407520384 0.002205174881964922 0.001609943457879126 -0.0014742623316124082 0.00034963691723532975 0.0022221871186047792 -0.003487585810944438 -0.0002501201524864882 -0.0013990201987326145 0.001503828912973404 0.0056932903826236725 -0.002559190383180976 -0.0005989312776364386 0.002382604405283928 -0.002774710301309824 0.00036085370811633766 -0.0031035784631967545 0.003546100575476885 -0.0008891785982996225 0.0016718553379178047 -0.006126606371253729 0.00026811525458469987 0.00011363612429704517 -0.003955335821956396 0.001658648601733148 0.0005314294248819351
0.0007506657857447863 -0.006077697966247797 0.009480814449489117 -0.007390663959085941 -0.003572230925783515 0.0046265339478850365 -0.005646122619509697 0.0045189689844846725 0.00452605914324522 0.0033541545271873474 -0.01573692262172699 -0.009819872677326202 -0.008213899098336697 0.0014112830394878983 -0.0017937745433300734 0.004616321995854378 -0.003333796514198184 -0.006713095121085644 -0.00026793015422299504 -0.0007960247457958758 -0.0010503468802198768 -0.0013690455816686153 0.0004378934681881219 0.007277788128703833 -0.002848008181899786 0.0005058717215433717 -0.0034867096692323685 -0.0034525245428085327 0.0010466809617355466 -0.00404996145516634 -0.003997755236923695 -0.0035412770230323076
-0.002890444127842784 0.00788892712444067 0.008961358107626438 0.003423415357246995 -0.001998631516471505 -0.009873817674815655 0.0040658568032085896 -0.005284951068460941 -0.0071732718497514725 -0.0017557726241648197 0.011428531259298325 0.0006209543789736927 0.009788447991013527 -0.0038983093108981848 -0.0004780325398314744 -0.006823582109063864 -0.007542766164988279 0.00870305672287941 -0.004296561237424612 0.0028343067970126867 0.0015834267251193523 -0.004028991796076298 0.0020162947475910187 -0.002632569056004286 0.006152364891022444 0.0023650045040994883 -0.0005001095705665648 -0.006050081457942724 0.0035533136688172817 0.002822872484102845 0.006235118489712477 -0.0017665073974058032
-0.0014487742446362972 -0.013590436428785324 -0.000878623453900218 0.004427106585353613 0.0025883703492581844 0.0006631594733335078 0.0009347322629764676 0.00709894672036171 -0.0024189925752580166 -0.006656965706497431 -0.004479339811950922 0.0016187663422897458 0.008635913021862507 0.004809790290892124 0.0019570477306842804 -0.004975339863449335 -0.003798570018261671 0.007525881752371788 0.008907675743103027 -0.0038421552162617445 0.01160320732742548 -0.0014108677860349417 0.0070181069895625114 0.0013972382294014096 0.00619316753000021 -0.006744354031980038 0.00014912955521140248 0.007814777083694935 -4.033688310300931e-05 0.004032846540212631 0.0016547942068427801 -0.004699560347944498
0.0038549164310097694 -0.001144261215813458 -0.010645881295204163 0.00535635557025671 0.001128398347645998 -0.007802203763276339 -0.003920696210116148 0.014768405817449093 -0.0028228946030139923 -0.006180131807923317 -0.004709672182798386 0.010128196328878403 -0.003099424298852682 -0.006613287143409252 -0.008173057809472084 0.0007655984372831881 -0.00806004274636507 0.00315459119156003 -0.0013164946576580405 -0.005735661368817091 0.003575736889615655 -0.0007570033194497228 0.009830961003899574 0.004527352750301361 0.007896782830357552 -0.004243028350174427 -0.0035389221739023924 -0.005764113739132881 0.00534092029556632 0.0009335313807241619 0.0003008839557878673 -0.008397337980568409
-0.0016415357822552323 -0.0055401078425347805 0.003774564014747739 -0.002396967029199004 0.0003837570548057556 -0.0038932031020522118 -0.000168683982337825 -0.003580805379897356 -0.0007041077478788793 -0.00755331851541996 -0.001522617880254984 0.002960176207125187 -0.0008523138822056353 0.0006706636631861329 -0.0037072759587317705 -0.005804556421935558 -0.006147378124296665 -0.0006539350724779069 -0.0055978503078222275 0.004507259465754032 0.0009722203831188381 -0.006504820194095373 -0.0031196873169392347 -0.003973482642322779 0.0032922413665801287 0.0011262232437729836 -0.002211430575698614 -0.0009006867767311633 -0.0034622922539711 0.0011282499181106687 0.0009080363670364022 -0.002448584884405136
-0.00157738639973104 -0.005990609526634216 0.011303843930363655 0.006004317197948694 3.9042301978042815e-06 -0.001116827130317688 -0.00019758587586693466 -0.003621133044362068 -0.006651000585407019 -0.0026887624990195036 0.0023994750808924437 -0.00021692617156077176 0.0027066629845649004 0.0025906702503561974 -0.005539111327379942 -0.006827293895184994 -0.007275050971657038 -0.004012994933873415 -0.0034116413444280624 0.011478226631879807 -0.0007750914082862437 0.004845964256674051 0.00391149939969182 0.0036173956468701363 0.0023269334342330694 0.0018863562727347016 0.0038767773658037186 0.002213168190792203 0.006634545978158712 0.005462798289954662 0.0030193713027983904 -0.003710368415340781
0.002849473850801587 0.010373773984611034 -0.013904031366109848 0.00021477705740835518 0.0002885092981159687 0.005510232876986265 -0.004254763014614582 0.003743803361430764 0.01342032477259636 -0.0048508476465940475 0.002357151359319687 0.0024858075194060802 -0.007107623852789402 -0.0021056742407381535 0.004898470360785723 0.004136804025620222 -0.0008699766476638615 0.007774666883051395 0.006315902806818485 -0.01532051246613264 0.0008423343533650041 0.002429289510473609 -0.0008196102571673691 -0.001576080801896751 -0.001563979429192841 -0.008897298946976662 0.0034684983547776937 0.0005266545922495425 -0.0020175250247120857 -0.0012508982326835394 -0.006741099525243044 0.002472890540957451
-0.010226557962596416 -0.009744381532073021 -0.003936957102268934 -0.0037847375497221947 0.002073858631774783 0.007521563675254583 -0.0008967603207565844 0.00210383883677423 0.0001477277692174539 -0.004037282895296812 0.0055066728964447975 0.0053954049944877625 2.8951103558938485e-06 0.005419047083705664 -0.006151204463094473 -0.005938671063631773 0.004086263012140989 0.0009741997928358614 0.0024046804755926132 0.009405944496393204 -0.004327301401644945 0.0005389667931012809 -0.0006421483121812344 0.002086344175040722 -0.0014994520461186767 -0.0007663384894840419 0.00045264323125593364 -0.00552754569798708 -0.0011003308463841677 -0.005524016916751862 0.00302859116345644 0.0019248699536547065
0.005840048659592867 0.0042494204826653 -0.011660562828183174 0.0003031937521882355 0.0005312634748406708 0.0035011903382837772 0.0001917485787998885 -0.006604286376386881 -0.0004566541756503284 -0.002811511280015111 -0.0035557965748012066 0.0068455711007118225 0.0064223879016935825 0.006140976212918758 0.0005682036862708628 0.012689088471233845 0.0114156324416399 0.0008857586653903127 -0.0016395507846027613 -0.005286794621497393 0.004084583837538958 0.0008092474308796227 -0.007502974476665258 -0.004590547177940607 0.0002477659145370126 0.0033206974621862173 -0.004767541773617268 0.0036390351597219706 -0.0009828661568462849 -0.005844955798238516 -0.0016388891963288188 -0.004113145172595978
0.0027552342507988214 0.004575342871248722 0.011704953387379646 -0.009171145968139172 -0.0013012411072850227 -0.01230279728770256 0.0009579497273080051 0.0060228025540709496 0.005831638816744089 -0.009739190340042114 0.0043884641490876675 0.0021297610364854336 -0.013126135803759098 -0.0022646156139671803 -0.005377421621233225 -0.0099513353779912 -0.0008783229277469218 -0.007578888442367315 -0.00035685987677425146 0.00586557574570179 -0.00037937742308713496 0.0016230613691732287 -0.009982554242014885 0.0015945504419505596 -0.004716514144092798 -0.017174845561385155 0.0015772507758811116 -0.006631878204643726 -0.006086481735110283 -0.0036480107810348272 0.0009267154964618385 -0.012856721878051758
-0.0065827276557683945 -0.005885404534637928 0.0003974143764935434 0.00891255121678114 -0.004465857055038214 0.0015608235262334347 -0.0008840936934575438 0.01044567208737135 -0.002569206291809678 0.0007727033807896078 0.00026192024233751 -0.009737659245729446 -0.0010338779538869858 0.004081212915480137 -0.002153875306248665 -0.0003404823655728251 -0.006187251303344965 0.006255613639950752 -0.0007287592743523419 0.0024487697519361973 0.001591548672877252 0.006918859668076038 0.007801182568073273 -0.006790271494537592 0.0015312667237594724 0.003333233529701829 -0.0021987028885632753 -0.0013761891750618815 0.003398452652618289 0.007222332525998354 -0.0017305463552474976 -0.0006279000081121922
0.0017684974009171128 0.006941778585314751 0.005951723549515009 0.004849141463637352 0.004150195978581905 -0.00438148807734251 -0.003165440633893013 0.010481528006494045 -0.002273925580084324 -0.0016848922241479158 0.0012591523118317127 -0.0020839001517742872 -0.008827109821140766 -0.00014371656288858503 -0.004238802939653397 0.003998784348368645 -0.004184492863714695 0.0003812730428762734 -0.0011276182485744357 -0.002455661306157708 0.0015746771823614836 -0.002342026447877288 -0.002784464508295059 -0.010291951708495617 0.0010876990854740143 -0.0009689010912552476 -0.004920640494674444 -0.004099115263670683 -0.004703120794147253 -0.001295785536058247 9.048741776496172e-05 -0.0024808242451399565
-0.0016564958496019244 -0.007158519700169563 0.0004774464759975672 0.0066260346211493015 0.007130067329853773 -0.0020271562971174717 -0.007655552588403225 0.006655546370893717 -0.0030990312807261944 -0.0036457523237913847 0.0036001477856189013 0.0021998505108058453 0.003394253086298704 0.0020095976069569588 -0.0039559295400977135 0.0014642832102254033 0.003482377389445901 -0.00577189214527607 0.002362221945077181 -0.0004360813181847334 -0.0030133137479424477 -0.0005839199875481427 0.007146968971937895 -0.004883673507720232 -0.0023452548775821924 0.009854510426521301 -9.462575690122321e-05 -9.076507922145538e-06 -0.007612064480781555 -0.0032817127648741007 -0.0012306655989959836 -0.003597347531467676
-0.0022008740343153477 -0.0028145809192210436 0.0007549624424427748 0.002950445283204317 0.011941070668399334 -0.0019254024373367429 -0.00019408529624342918 -0.017282379791140556 0.008630075491964817 0.0029630674980580807 -0.0011961900163441896 0.006808084435760975 -0.008362055756151676 -0.0006812778883613646 -0.004139978438615799 0.002059672027826309 0.016358353197574615 -0.00023554175277240574 -0.005355142988264561 0.000861350679770112 -0.015384677797555923 0.006059903651475906 -0.0037679821252822876 -0.002567008137702942 0.002836712170392275 0.00922212190926075 0.009431029669940472 0.0019951360300183296 -0.0113781513646245 0.0020382050424814224 1.1541228559508454e-05 0.002580750035122037
2
32 19
-0.005496739949050702 0.003819715427724939 0.0285958773211429 0.02673610574320743 0.03806761064027485 -0.015784527126111482 -0.00734102725982666 -0.01859474966400548 0.012194926017209104 0.014302584685777364 0.007156501475133394 -0.026978549204374615 -0.020859625778700177 -0.007820042340379012 0.04268770468862433 -0.0025803078162042717 0.008927130385449058 0.02719805742564954 -0.01103206449433377
0.00983171400270964 -0.0260574409836217 0.011621049360225075 0.02859245789678473 0.012627243211394861 -0.022740549162814493 0.015216869743246781 0.027215549820347837 -0.039784196176027 -0.01288868016318271 -0.02365040465405113 0.026478588581085205 0.0013727210462093353 -0.003995954990386963 -0.006296435076939433 -0.01521679445316917 0.038461540874681975 -0.0012508319984925421 -0.009874521117461356
0.006857838285596747 -0.02147850707957619 0.01956432116659064 0.00506699202876342 -0.006801904816376536 -0.01694329631956 -0.0370280805386995 0.029464828340630782 -0.03145324556451095 -0.02634436205813759 0.012475591741110148 0.0032025387412623354 0.03579530904167577 0.008262452326322856 -0.01623378929338957 -0.02651483447928178 0.003060264218794672 -0.0004842907288356831 0.008407128484625565
-0.001161385327577591 0.024498125440195986 -0.019780328399256655 0.03617899041426809 -0.04458714786328768 0.005253670246977555 0.01175252073689511 0.011087612101906225 0.025073680438493427 0.029703717482717412 -0.015339307094875135 0.016882654867674176 0.031648375486072744 -0.02328187070394817 -0.0027437008133060054 -0.034157015775379385 0.0034558765198055065 0.008260936329239294 0.007863912927476983
0.005332416609713906 0.04360459666503103 0.00713538574545007 0.034861859522367776 -0.030173260914651973 0.01444470254998458 0.008627042958610937 0.03340904963643927 -0.008389646285458616 -0.010445241081087213 -0.01896699165043078 -0.023086185518063997 -0.0022173270975288594 -0.010569855570793152 0.027965078228398374 0.029784525695600007 -0.02866021896663465 0.003986270412018425 0.016396222930205494
-0.006751633004138344 0.017468529312234176 0.017043730146006533 0.008284397815403185 0.029992379640278063 0.031114838625255384 0.01571115537693626 -0.006166645178669377 0.0008639623656084663 -0.017682329604500217 -0.029767892862621107 0.004149881240568663 -0.0032024497264309935 -0.02650170263491179 0.010408347374514529 -0.012585886999180442 0.019436577433033994 0.03218063868974384 -0.008856025181318583
-0.041785089593184624 0.015836213764391448 -0.0003823209799041874 -0.04129102355555484 0.025460033040297658 -0.027125612685554905 0.028568239588486522 0.016582893697839034 -0.020787897862886127 -0.016724352773867156 -0.010051816701889038 0.046130054875424036 0.03317879689367194 -0.018796465898814955 -0.03207184139050936 -0.0109010974043294 -0.021740522823835675 0.02665534458662334 0.00919618967332338
-0.0010582292942624342 0.01171127510698218 0.002043688179630982 -0.005100545914549576 -0.02842422221836291 0.014997247018312154 -0.019263805527436107 -0.008798958439575998 0.02760727468289827 0.029567006387208637 0.03721963418157477 0.041213186163651314 -0.028138599897685804 0.0036289652711466737 -0.006082250883704738 -0.018803787858862626 -0.014980734963166086 0.03002943804389552 0.017751524322911313
0.00807687404908632 0.007575892304119311 -0.028708523825595255 -0.026924374856446918 -0.027207186347559878 0.01859669152059053 0.009930691436717385 0.02222799313695807 0.003650791550937452 -0.021024743193074277 -0.0027334639116337427 -0.019913714183004277 -0.022599937100159496 0.035001673196491445 -0.0050438658187263894 -0.035533628965678965 0.03513881093577335 0.016747964055914628 0.01708876145513434
0.0177417444555383 0.020375996828079224 -0.027060919686367636 -0.0037438806734587018 0.00906186354787726 0.010644415491505674 0.01064730631677728 -0.0038044907544788563 -0.01196161461503882 -0.028008737062153063 -0.002551429757946416 -0.025755077600479126 0.004034614876696938 -0.017286255171424465 -0.029353759790721693 -0.014802444922296624 -0.0039933774816362485 0.013875203697304977 0.0218786989387713
-0.006641636553563569 0.031913318132099355 0.020638536465795415 -0.023387999911057323 0.0031894067008244363 -0.0146074326414811 0.02133260588896902 -0.01224192506388614 0.027802630474692898 0.028651121415589984 0.011618778893822118 -0.028227498656825015 0.009521828670250742 -0.023402091703916852 -0.025117210651698866 -0.004048278849375875 -0.02768342745931525 -0.030842567745007966 -0.001469889753743222
0.008192928213822214 0.012307558404771905 -0.03298507866106535 0.01641075391518442 0.015044406840675756 -0.011547247045918516 -0.014535279650437204 -0.02722162635702836 -0.030063927173614502 0.012733047730044314 0.04170351279409308 0.009829669406539515 -0.01247631876092208 0.023808410293177554 0.03007626219799644 0.013364432673705252 0.0216817087248752 0.015814028288188734 -0.016954999220998662
0.026889114003432423 0.01898288883660969 0.008529736807471827 0.02216923236846924 0.013328210303657934 -0.006961295479222348 -0.014661156817486412 -0.028685779947983592 0.007124663967835276 0.0345358691717449 0.0026229935649194217 0.024227570546300786 -0.00575646836506693 -0.011031868426423324 -0.0269356275859632 -0.012387038061493322 0.023285947347942152 -0.027795584578263133 -0.029965278349424664
-0.028584141480295283 0.01364243187402424 -0.03696572780609131 0.02509424090385437 0.011176194015302156 -0.02180281595179909 -0.0043426469752663064 0.009550656927259345 -0.02635948281539114 0.03292713667217054 0.018703233254583257 0.013868259756188644 0.02704497073826037 -0.032506970982802544 -0.024955548738178453 -0.019696688965747233 -0.009707953584821601 -0.004563440617762114 0.03604280007512946
0.00331467037138186 0.014924521508969758 0.009430524549986186 -0.006356725567265561 -0.022103722158231233 -0.020555792670500905 -0.028798689967707583 -0.022977228227414583 -0.007068030144038953 0.01088043733646995 -0.0018600919529011375 0.0160510053760127 0.03022092580795288 0.0101793729945233 0.032853433960362485 0.018301609315370258 -0.0031799556393372385 -0.0047936694402443735 0.0003225672009744142
-0.013751680913724397 0.018927498867637234 -0.01183161453196877 -0.01220543368866569 -0.022756659670879965 0.00361397784007223 0.021908289507815714 0.011099390293422499 0.024536648863240293 -0.013821912439245927 -0.043469990554608796 -0.005002053552552273 0.012568794583019457 0.009908836138875861 0.0030300883870375784 -0.031779734711898 -0.017349092583907277 -0.007260015920588845 0.010767370462417603
0.022906135571630376 -0.02166340853038587 -0.04166370316555625 -0.020309962724384508 -0.013339367352033915 0.0041435729516179935 -0.023755498622593126 0.0034961696518094917 0.005262708193377445 -0.010623889534096969 -0.013884522412952623 0.014101641742806686 -0.010755186802462527 0.001376396535258544 -0.024879348905462968 0.023849186144377057 -0.002375877021174682 0.0036643508233522113 0.030862328253294293
0.02855612416016428 -0.02750119723771748 0.01436783608637358 -0.004868499542537488 -0.0009329489579326228 -0.007600251781313043 0.008698530887302599 -0.022664192475770648 -0.036527508183529504 0.0299192980716103 -0.001626376454767428 0.003400176763534546 0.02088192105293274 -0.046913937518471165 0.027652084827423096 0.028136002390008224 0.023372102724878413 -0.045604203876696135 -0.01748835569933841
0.036568983605033474 0.008125946709984228 0.035908899809184824 -0.02580454475001285 -0.02617960540871871 -0.020234503244098864 -0.008709703621111418 -0.00564539981515784 0.008106241884984468 0.02440391402495535 -0.006020604387709969 -0.0016592199865140412 0.012740110880450198 0.024748366130025762 0.01035777283342261 -0.010981702490856773 -0.033798352668159885 0.005164340138435364 0.0017166447482611005
0.020172355990660817 0.008205005212834007 0.02151974408250106 -0.009266507468725505 -0.014142232505898727 0.03298507552397879 -0.01621082581971821 0.01781842583104184 -0.02806740371804488 0.011269585866677133 -0.0054161552535860165 -0.02649914590935958 0.04138683959057456 0.009592558992536445 0.01755291694088986 -0.0020082263570082816 0.03334327747947291 0.010417614328233819 -0.02987712307980186
0.04658950316278558 -0.02147228153128373 -0.004707761501011096 -0.022374264503780165 -0.028671650510085255 -0.013127695573003669 -0.00879853179580287 -0.005160163107671235 0.023610667178505344 0.010367882879156815 0.03931599541714317 0.03157082043196026 0.014265898026918111 0.018984868338233547 -0.03934173521242643 -0.031231205714376348 -0.02694157550209447 -0.004246634480200316 -0.02339812485795272
-0.010129040009097048 -0.01979059137796101 -0.017291279215561717 -0.0017364025115966797 -0.007225664038407176 -0.030570952515853077 -0.013736600938596223 -0.009066508788811533 -0.03274965286254883 -0.008155394541589837 -0.0036540470625224864 0.029419710761622378 0.003682370640729603 0.008657664844864294 -0.00741960578843167 0.011362836549156591 0.018514002624310945 -0.031749066553617776 0.046882958788620796
0.018418777930109126 0.01586616039276123 -0.011737532521549025 -0.007535828571570547 0.003624626680424339 -0.0011547119601776725 -0.017889113802658885 -0.05254139711982325 0.020528655303151983 0.02205394286858408 0.009569593166050158 0.004655199223443081 -0.02057991059202897 -0.023203856066653605 0.010533456739626433 -0.01870824788746081 -0.03332415066267315 0.013558783029255114 0.012731167046647323
0.021166183446582994 -0.02753388567974693 0.01683234697894046 0.034611131015576814 0.008735510079484237 -0.0070167709338037594 -0.021247222235328274 -0.024759369461159957 0.023879650392030414 0.003763060428594288 -0.002095339917822888 0.003033784463217384 -0.029698958522395083 0.0233405844161385 -0.0018180673451800096 -0.015387031592820821 0.0011589753588563518 0.003257187181397488 0.001515824151666541
0.03265668530213205 -0.012395686224887245 0.027532850441179778 -0.01127296529318157 -0.014732778072357178 0.026515794427771317 0.010177205267705415 -0.019441336393356323 0.014112204313278198 0.04090946599056846 -0.00498757276095842 -0.0034414333732504594 0.012082807327571669 0.00040551691659187014 0.01656488525240045 0.02581463048332616 0.02636828861738506 -0.056253715565330105 -0.016539609745929117
0.04219012825112594 -0.04791564690439325 0.003976004688363326 -0.019672285569341558 -0.0028419771084659978 0.02588149905204773 0.008688978458705702 1.7822263639812407e-05 0.008765955504618193 -0.009143630140706113 0.021202077991084048 -0.018830671122199612 0.014128818323737696 -0.019482297332663285 0.010166665441111514 0.022679023052516737 -0.005977721982880642 0.02004470323261462 0.018991633465415554
-0.007661395951321251 -0.027344920133289537 0.03350637147301122 0.023428182852895635 -0.0011355871040570108 0.016668144025300678 0.006182982733375148 0.02295353381257308 0.018726124575263577 0.0185756432382684 -0.03377982189780787 -0.0004746107090460627 -0.02006656245181435 -0.005108852919779326 -0.007440397613926938 -0.006211400424179278 -0.021512055083325033 0.02846601134852359 0.008022515397322806
-0.0291493064478824 0.02363384867969312 -0.008351095412906847 -0.020901752145666825 0.023475501098130878 -0.02053607137579667 -0.00816385683260466 -0.007953595173986335 0.004068339341565182 0.0053393331013227765 0.03152890581833689 -0.009232441061421445 0.014666318893432617 -0.012549689725825661 -0.02380655000084325 -0.0025656674253313164 -0.0037662739816464877 0.014029504437195627 0.030581728408211155
0.012820029729291013 0.00028890886000896757 0.014187296754435488 0.0011868755284108613 0.004817263860451548 0.0011616208051380358 -0.005713618115374916 -0.028288508716382478 0.010435334945979872 0.025502990735204595 0.0026703012224874997 0.03327294399863795 0.0019490452189194528 0.0238804628974513 -0.011984477701940034 -0.013338459165472733 0.01393555340014006 -0.03677180566285786 -0.008208107007177253
0.00122068773366903 0.029235968464299253 0.024559770759783293 0.012819278397058187 0.016721132554506 0.02004111597412511 0.04550376377607647 -0.008815083064531026 -0.03844262110559564 -0.0004130847457992403 0.0001404548897162864 0.016193487142261705 -0.028769314289093018 -0.03780847787857056 -0.020725686299173457 -0.025049015095359402 0.008640738694291366 0.007144810337769358 -0.03240311145782471
-0.025196564824957596 -0.015921649179960553 0.015511242966902884 -0.007518335392600612 0.02670345808330335 -0.04138087598901046 0.005302510371333675 0.006497093721439964 0.020208264652051423 0.017496391346580105 0.04200369433352822 0.003041826384632211 -0.026112057660755358 -0.021384016463631077 -0.017855052885256316 0.04095556861475894 -0.009514880023504558 0.015759218680231196 0.005906799121906883
0.03696016261452123 -0.024722384779076827 0.005058167796385915 -0.007132954503360547 0.003870244873197455 0.028358619464071172 0.040664032885902805 -0.003664376312180569 -0.02859415192353098 -0.04309712585649992 -0.014458394364306801 -0.013989683828855815 0.007555652605859857 -0.028734225975839717 0.0429277357302214 -0.01748368771452653 -0.010944302144803499 -0.033034255630091616 0.019389303107010692
[-0.00549674  0.00381972  0.02859588  0.02673611  0.03806761 -0.01578453
 -0.00734103 -0.01859475  0.01219493  0.01430258  0.0071565  -0.02697855
 -0.02085963 -0.00782004  0.0426877  -0.00258031  0.00892713  0.02719806
 -0.01103206] [ 0.00983171 -0.02605744  0.01162105  0.02859246  0.01262724 -0.02274055
  0.01521687  0.02721555 -0.0397842  -0.01288868 -0.0236504   0.02647859
  0.00137272 -0.00399595 -0.00629644 -0.01521679  0.03846154 -0.00125083
 -0.00987452] [ 0.00685784 -0.02147851  0.01956432  0.00506699 -0.0068019  -0.0169433
 -0.03702808  0.02946483 -0.03145325 -0.02634436  0.01247559  0.00320254
  0.03579531  0.00826245 -0.01623379 -0.02651483  0.00306026 -0.00048429
  0.00840713] [-0.00116139  0.02449813 -0.01978033  0.03617899 -0.04458715  0.00525367
  0.01175252  0.01108761  0.02507368  0.02970372 -0.01533931  0.01688265
  0.03164838 -0.02328187 -0.0027437  -0.03415702  0.00345588  0.00826094
  0.00786391] [ 0.00533242  0.0436046   0.00713539  0.03486186 -0.03017326  0.0144447
  0.00862704  0.03340905 -0.00838965 -0.01044524 -0.01896699 -0.02308619
 -0.00221733 -0.01056986  0.02796508  0.02978453 -0.02866022  0.00398627
  0.01639622] [-0.00675163  0.01746853  0.01704373  0.0082844   0.02999238  0.03111484
  0.01571116 -0.00616665  0.00086396 -0.01768233 -0.02976789  0.00414988
 -0.00320245 -0.0265017   0.01040835 -0.01258589  0.01943658  0.03218064
 -0.00885603] [-0.04178509  0.01583621 -0.00038232 -0.04129102  0.02546003 -0.02712561
  0.02856824  0.01658289 -0.0207879  -0.01672435 -0.01005182  0.04613005
  0.0331788  -0.01879647 -0.03207184 -0.0109011  -0.02174052  0.02665534
  0.00919619] [-0.00105823  0.01171128  0.00204369 -0.00510055 -0.02842422  0.01499725
 -0.01926381 -0.00879896  0.02760727  0.02956701  0.03721963  0.04121319
 -0.0281386   0.00362897 -0.00608225 -0.01880379 -0.01498073  0.03002944
  0.01775152] [ 0.00807687  0.00757589 -0.02870852 -0.02692437 -0.02720719  0.01859669
  0.00993069  0.02222799  0.00365079 -0.02102474 -0.00273346 -0.01991371
 -0.02259994  0.03500167 -0.00504387 -0.03553363  0.03513881  0.01674796
  0.01708876] [ 0.01774174  0.020376   -0.02706092 -0.00374388  0.00906186  0.01064442
  0.01064731 -0.00380449 -0.01196161 -0.02800874 -0.00255143 -0.02575508
  0.00403461 -0.01728626 -0.02935376 -0.01480244 -0.00399338  0.0138752
  0.0218787 ] [-0.00664164  0.03191332  0.02063854 -0.023388    0.00318941 -0.01460743
  0.02133261 -0.01224193  0.02780263  0.02865112  0.01161878 -0.0282275
  0.00952183 -0.02340209 -0.02511721 -0.00404828 -0.02768343 -0.03084257
 -0.00146989] [ 0.00819293  0.01230756 -0.03298508  0.01641075  0.01504441 -0.01154725
 -0.01453528 -0.02722163 -0.03006393  0.01273305  0.04170351  0.00982967
 -0.01247632  0.02380841  0.03007626  0.01336443  0.02168171  0.01581403
 -0.016955  ] [ 0.02688911  0.01898289  0.00852974  0.02216923  0.01332821 -0.0069613
 -0.01466116 -0.02868578  0.00712466  0.03453587  0.00262299  0.02422757
 -0.00575647 -0.01103187 -0.02693563 -0.01238704  0.02328595 -0.02779558
 -0.02996528] [-0.02858414  0.01364243 -0.03696573  0.02509424  0.01117619 -0.02180282
 -0.00434265  0.00955066 -0.02635948  0.03292714  0.01870323  0.01386826
  0.02704497 -0.03250697 -0.02495555 -0.01969669 -0.00970795 -0.00456344
  0.0360428 ] [ 0.00331467  0.01492452  0.00943052 -0.00635673 -0.02210372 -0.02055579
 -0.02879869 -0.02297723 -0.00706803  0.01088044 -0.00186009  0.01605101
  0.03022093  0.01017937  0.03285343  0.01830161 -0.00317996 -0.00479367
  0.00032257] [-0.01375168  0.0189275  -0.01183161 -0.01220543 -0.02275666  0.00361398
  0.02190829  0.01109939  0.02453665 -0.01382191 -0.04346999 -0.00500205
  0.01256879  0.00990884  0.00303009 -0.03177973 -0.01734909 -0.00726002
  0.01076737] [ 0.02290614 -0.02166341 -0.0416637  -0.02030996 -0.01333937  0.00414357
 -0.0237555   0.00349617  0.00526271 -0.01062389 -0.01388452  0.01410164
 -0.01075519  0.0013764  -0.02487935  0.02384919 -0.00237588  0.00366435
  0.03086233] [ 0.02855612 -0.0275012   0.01436784 -0.0048685  -0.00093295 -0.00760025
  0.00869853 -0.02266419 -0.03652751  0.0299193  -0.00162638  0.00340018
  0.02088192 -0.04691394  0.02765208  0.028136    0.0233721  -0.0456042
 -0.01748836] [ 0.03656898  0.00812595  0.0359089  -0.02580454 -0.02617961 -0.0202345
 -0.0087097  -0.0056454   0.00810624  0.02440391 -0.0060206  -0.00165922
  0.01274011  0.02474837  0.01035777 -0.0109817  -0.03379835  0.00516434
  0.00171664] [ 0.02017236  0.00820501  0.02151974 -0.00926651 -0.01414223  0.03298508
 -0.01621083  0.01781843 -0.0280674   0.01126959 -0.00541616 -0.02649915
  0.04138684  0.00959256  0.01755292 -0.00200823  0.03334328  0.01041761
 -0.02987712] [ 0.0465895  -0.02147228 -0.00470776 -0.02237426 -0.02867165 -0.0131277
 -0.00879853 -0.00516016  0.02361067  0.01036788  0.039316    0.03157082
  0.0142659   0.01898487 -0.03934174 -0.03123121 -0.02694158 -0.00424663
 -0.02339812] [-0.01012904 -0.01979059 -0.01729128 -0.0017364  -0.00722566 -0.03057095
 -0.0137366  -0.00906651 -0.03274965 -0.00815539 -0.00365405  0.02941971
  0.00368237  0.00865766 -0.00741961  0.01136284  0.018514   -0.03174907
  0.04688296] [ 0.01841878  0.01586616 -0.01173753 -0.00753583  0.00362463 -0.00115471
 -0.01788911 -0.0525414   0.02052866  0.02205394  0.00956959  0.0046552
 -0.02057991 -0.02320386  0.01053346 -0.01870825 -0.03332415  0.01355878
  0.01273117] [ 0.02116618 -0.02753389  0.01683235  0.03461113  0.00873551 -0.00701677
 -0.02124722 -0.02475937  0.02387965  0.00376306 -0.00209534  0.00303378
 -0.02969896  0.02334058 -0.00181807 -0.01538703  0.00115898  0.00325719
  0.00151582] [ 0.03265669 -0.01239569  0.02753285 -0.01127297 -0.01473278  0.02651579
  0.01017721 -0.01944134  0.0141122   0.04090947 -0.00498757 -0.00344143
  0.01208281  0.00040552  0.01656489  0.02581463  0.02636829 -0.05625372
 -0.01653961] [ 4.21901283e-02 -4.79156469e-02  3.97600469e-03 -1.96722856e-02
 -2.84197711e-03  2.58814991e-02  8.68897846e-03  1.78222636e-05
  8.76595550e-03 -9.14363014e-03  2.12020780e-02 -1.88306711e-02
  1.41288183e-02 -1.94822973e-02  1.01666654e-02  2.26790231e-02
 -5.97772198e-03  2.00447032e-02  1.89916335e-02] [-0.0076614  -0.02734492  0.03350637  0.02342818 -0.00113559  0.01666814
  0.00618298  0.02295353  0.01872612  0.01857564 -0.03377982 -0.00047461
 -0.02006656 -0.00510885 -0.0074404  -0.0062114  -0.02151206  0.02846601
  0.00802252] [-0.02914931  0.02363385 -0.0083511  -0.02090175  0.0234755  -0.02053607
 -0.00816386 -0.0079536   0.00406834  0.00533933  0.03152891 -0.00923244
  0.01466632 -0.01254969 -0.02380655 -0.00256567 -0.00376627  0.0140295
  0.03058173] [ 0.01282003  0.00028891  0.0141873   0.00118688  0.00481726  0.00116162
 -0.00571362 -0.02828851  0.01043533  0.02550299  0.0026703   0.03327294
  0.00194905  0.02388046 -0.01198448 -0.01333846  0.01393555 -0.03677181
 -0.00820811] [ 0.00122069  0.02923597  0.02455977  0.01281928  0.01672113  0.02004112
  0.04550376 -0.00881508 -0.03844262 -0.00041308  0.00014045  0.01619349
 -0.02876931 -0.03780848 -0.02072569 -0.02504902  0.00864074  0.00714481
 -0.03240311] [-0.02519656 -0.01592165  0.01551124 -0.00751834  0.02670346 -0.04138088
  0.00530251  0.00649709  0.02020826  0.01749639  0.04200369  0.00304183
 -0.02611206 -0.02138402 -0.01785505  0.04095557 -0.00951488  0.01575922
  0.0059068 ] [ 0.03696016 -0.02472238  0.00505817 -0.00713295  0.00387024  0.02835862
  0.04066403 -0.00366438 -0.02859415 -0.04309713 -0.01445839 -0.01398968
  0.00755565 -0.02873423  0.04292774 -0.01748369 -0.0109443  -0.03303426
  0.0193893 ]
0
