2
38 32
-195 1585 -382 1644 264 549 -3032 3397 2130 -457 -1929 1823 -865 -3102 -1345 -1472 2841 -2238 -2842 -531 -1683 1135 1086 -3178 841 -374 3883 -3001 1676 1876 2843 2535
-16 -2608 -933 -804 2427 259 -2239 3432 288 2841 -501 1593 -1696 358 2159 -2281 2978 -2023 1524 2335 2854 1691 2413 245 1665 -4135 -1094 -531 -1705 -1046 -1376 -3085
1015 -1668 -2729 1300 1310 2353 2903 -1810 -2286 2215 402 4472 -3523 875 2442 -1132 1874 -3245 513 1252 15 -1965 -586 1071 -1341 -26 -1104 -2866 -795 2122 -1782 1738
-1135 3386 -937 -1878 -544 -2762 171 2033 2452 -1186 658 1310 -745 2680 259 1443 -1476 1025 2724 26 616 3335 -3804 -2551 -3370 -446 -2042 -716 -2855 500 -1534 41
3294 -2080 -65 -4218 325 -2336 -17 29 1204 83 2617 -1256 2199 -1427 -1580 -2369 2637 305 496 4844 4366 -638 1572 -1012 -2068 2453 2150 1950 1944 2632 -2118 244
-1162 3229 -2651 918 2448 2667 3314 4308 3057 639 79 -1447 3550 3003 2164 -2822 -3142 3193 436 587 -337 4591 842 -3517 2028 -1677 -616 -35 -395 -1611 35 258
-2953 609 1682 -313 2192 -2063 548 -1215 -1829 -3678 -2785 -1493 -2184 590 924 309 829 -1135 1281 1790 979 4122 990 -1657 -1215 -1761 -2520 2674 -1503 2794 -3613 -1563
709 1395 -1889 -147 -214 783 1995 268 4304 -29 2665 665 -14 2445 977 -385 1177 3268 1255 -175 -1038 -529 -1739 2241 3814 2241 3932 1034 815 -778 270 124
-1699 1118 -1054 1036 -114 -2305 560 -119 -2223 -810 2625 -2520 -689 -3070 3549 -2681 -2761 -1419 -2471 4015 2064 2208 1638 2571 996 -473 -653 -3367 -683 4202 -135 -3530
1706 -799 2951 389 -140 420 -87 30 -743 -80 -2639 187 -290 2178 1188 -797 1013 -3147 2401 -85 -3664 489 -1922 1282 -1721 -1418 -518 -1537 1452 953 377 -486
421 1775 -35 4259 1574 1605 -235 -328 -273 -5117 874 265 2502 -1300 -399 -1772 -2848 -1781 -3560 -3595 1205 373 -13 1930 1496 580 3027 582 -2245 -339 -796 -822
-1844 3252 339 658 -2759 2151 -1390 1981 336 -362 -1413 2378 1559 1215 2011 1873 -108 -2533 -937 -1150 39 -1807 288 255 -432 1981 1176 1663 242 654 -3225 1451
728 1531 576 -71 881 -225 226 -548 -280 -2421 1902 -505 295 269 70 -795 601 1101 578 -1255 -694 -1415 -1319 112 -84 -532 -37 -432 91 241 99 -1972
-23 -1541 -239 690 -943 435 1639 842 338 -12 -2608 886 55 605 310 -945 272 -280 123 -2616 155 1649 678 457 -24 284 223 446 366 277 -836 1123
1969 -263 -2006 -1679 -901 1743 -779 986 -999 1402 -1241 30 -861 780 -382 -307 -1741 -1543 3486 1413 -3127 -1473 232 972 -1349 -1647 -220 910 2464 1236 1630 894
64 -626 2004 705 1179 -687 908 -236 -1115 -1022 -1559 -1701 -32 2722 -669 633 1377 2480 618 156 -2258 397 -491 -2017 -1714 -1223 -1263 259 -348 2288 -139 -1926
-1629 296 -444 -3462 1893 -1387 2679 222 -634 -1941 -2911 -914 1068 -2172 950 2022 3005 524 -1506 -1779 -989 4096 -3633 1144 -820 2070 2877 2838 -2045 2423 -3678 -984
386 -1590 -2387 2307 -830 -379 2751 -2268 1436 -992 -2817 3323 -816 2298 -3536 -966 1096 2140 515 443 -700 -1010 1644 -4275 -400 -3137 76 -3213 886 1782 1261 1522
-1070 2776 -2132 -3332 -2428 812 -1902 3876 -23 -2141 663 534 894 -604 -4307 -3431 1764 -2277 1094 226 2225 -1276 311 -2184 -1632 474 -1231 1918 1551 1482 3675 4277
-2305 443 -759 -2622 1896 -153 -399 2165 -2684 1402 1910 197 140 -973 2011 -516 2210 -289 -242 1956 -1087 3247 150 -1632 1738 -1857 -3 3142 1197 1783 754 2453
607 855 937 1703 -607 -655 974 -2279 1552 2458 1036 -259 -262 357 -1345 -561 -549 -1137 129 -2762 1780 -1834 623 1554 -986 1219 154 -1695 -1554 -1171 642 -2114
678 571 226 221 -113 -544 323 -1403 1223 -1193 1029 480 442 -502 -1383 1101 -2212 -528 295 -603 -24 1036 -908 391 271 1211 733 -814 515 -808 242 -801
-1448 1722 927 -442 -2346 1123 1022 -161 -1835 -662 -315 929 -857 -2224 78 1784 1270 1041 326 -1447 625 1801 1979 912 -468 -234 -133 683 1365 1229 607 -535
-175 1897 -1222 -2573 -1891 1143 290 592 851 495 1531 -537 -704 78 -1172 -273 211 255 86 2547 567 1005 -1203 3229 1379 -1630 -588 2581 -299 -1784 -1853 1940
-844 165 -925 1927 -1584 -1909 -1315 23 -933 264 1032 88 187 1850 311 -272 -317 2180 -2089 49 1442 1522 1068 1720 545 1848 224 781 349 -1246 -1892 216
-2380 716 293 -1081 -67 -507 1143 735 -852 2236 3110 3119 -1528 -1412 1694 2094 -35 1185 -296 -1974 2820 823 -629 365 -539 -2089 172 1947 1203 183 -492 1817
655 1100 -177 274 2399 977 -1609 -837 -160 -3181 -3400 -2743 805 1338 -2973 -946 -1415 -3868 1207 327 2362 -2489 1827 442 -434 -1018 -17 2115 -772 3738 745 2228
3269 123 4021 -836 -3240 1667 340 -720 -3894 -1550 -1384 597 1500 -2017 -2500 -947 1445 -1749 2379 -230 2005 -1343 4040 -1151 1089 4203 -1222 -2652 1320 -3047 2387 -298
-620 16 -1842 -726 -4706 -525 830 1009 785 1699 -2998 2234 1087 -5414 -3524 -2423 -577 1396 2161 344 235 -526 1337 62 3835 2445 -4142 301 5893 -1715 3039 2364
1406 -1186 1384 492 -293 -819 -26 322 48 1389 1754 1399 903 1618 212 1407 -1617 1157 -2060 205 -1062 649 -712 -370 894 407 1578 445 1116 -580 1150 -185
-869 274 23 2494 2968 2867 202 2921 875 -699 -1297 614 1968 1484 -725 -1657 -1749 -3347 -499 1839 -2034 -430 1789 -913 776 -23 1131 2648 -71 656 253 -1204
2196 1984 1900 -3229 -3918 -529 -1425 -2462 -3538 34 1614 1008 -617 -245 1366 832 2079 1650 1993 -1410 2649 -296 1833 2626 -1216 2233 -1643 -2538 548 -500 202 1262
3101 482 1021 -1215 761 27 1707 -2881 -1845 -612 -120 -616 -2803 850 849 -2713 1029 249 -56 -1412 -559 1153 -607 3497 2133 -573 220 -1947 214 -2066 -1748 -1554
-3491 -296 -2296 1078 1774 -2859 -1570 546 -2170 -62 -900 129 -509 -2544 89 -639 675 526 -766 209 -579 -2489 3293 -2237 640 -2721 -763 136 4943 -1261 -98 -265
-29 -2146 859 2327 4510 -3954 -647 71 1089 -1102 1569 2135 -2222 -3426 -1514 1631 -658 713 -2987 157 -875 -394 417 -1572 2501 -1757 -1261 -1739 2772 707 1637 -3730
-21 2804 189 2102 -2092 1652 2760 -61 -1491 1011 -226 -514 3955 1484 217 -515 220 1094 1912 823 275 -1524 839 2124 -1568 993 -2057 1274 -2037 -1415 96 2042
694 -454 -465 2022 807 -2869 1703 831 -1325 -669 -2656 -335 1622 -2064 -1320 669 1786 1732 -1038 608 2074 768 677 2213 1028 72 -2938 -108 -459 -416 887 1002
175 1362 245 -936 -237 1579 549 -1682 1371 -728 -539 548 1852 229 608 -805 -3092 424 -808 106 690 472 -719 1686 -552 -2830 -1337 787 -441 -2621 -1404 2593
-295 -1176 -3639 -1147 726 -1424 1569 -3856 -832 -2564 383 -2796 -1290 -1977 3546 -1774 -2382 -266 -1054 1974 793 1674 3340 3393 -5575 -1390 -787 -670 -2285 5963 -4128 -2474
2
32 19
6452 4575 4078 -3585 4704 975 8198 -3664 491 -897 1283 395 -5417 -1519 4955 -1682 -4493 -3356 -8847
2074 -393 -2889 -2820 -4167 -3841 -1998 -557 -3237 2192 1676 7261 437 4534 -3003 -4111 5078 -469 5673
-2313 5901 5382 -4626 -1094 -5292 -8514 -6135 7754 5422 1556 -4545 4564 2857 -4526 6484 -2239 -429 3559
7335 -6483 -5758 -3124 -3568 -4367 -56 1975 -1723 -6842 2320 685 5642 2860 411 2071 2117 3469 -2841
-1499 -1722 1722 2505 866 -2389 5090 2550 25 -4676 -1387 -7445 3040 -5328 -2716 4500 -263 3929 -2375
7252 -5008 -6609 3568 -959 5990 -3412 -4909 -1742 -3343 185 -2744 7188 -5084 2979 1773 1159 6595 -2244
-1771 -1600 -2124 -6668 -2167 -16 3918 6652 2350 -1932 32 -1563 2141 -3843 525 -5694 -161 6526 3254
7 -8408 1288 1288 4728 -3569 -3193 -2905 3685 4798 677 8775 -5097 -3657 -5823 -490 3140 -1240 -2088
5456 -2710 1051 3907 4861 -1070 -4316 -4097 1281 5322 3865 -3421 5152 3422 -6293 -1354 3283 973 537
-4448 1854 -1836 3025 -1177 1544 3732 -6374 -2303 -1779 -3830 -6252 -1780 600 6318 -1495 7148 8438 -5758
-3060 6343 -1609 -6650 2824 3287 3416 1316 743 -3890 -1783 2428 -1307 1882 1731 -2373 -1093 7461 -875
7802 2006 6414 7506 754 6698 -5727 1071 -1556 -3702 -6539 -3499 -4785 5056 5477 -2211 5257 -3701 -2900
-178 2008 -5099 -1224 6807 -4161 857 -1504 -5261 1589 6549 5700 4658 -7290 -4240 -3128 -90 2413 598
-1574 7283 -1936 5951 -5426 582 -872 1311 6482 -4220 -5895 5655 2463 -5026 -6045 -4845 -3459 2903 457
-6291 -3086 -3454 4233 6268 5305 1747 3161 -370 -264 -5476 -3060 -789 -672 -790 -1311 4757 1721 8006
-156 -1127 -5663 -775 -655 -1404 -2654 -518 8877 -3266 -4063 3302 801 4547 -964 5445 -5368 374 5621
1231 -144 5198 4749 -2809 -1576 2331 -4265 -3676 -368 -4499 -1904 2355 1330 5082 5350 4386 -338 -4076
-3759 5259 -5908 -1480 -1596 -625 406 553 651 1238 4159 -3212 -3969 5618 -4719 -5061 -3837 6988 4540
-7729 3029 -3564 2772 -5506 -576 2859 157 2376 3737 -5053 6273 -5954 -5497 -1980 -4362 -1635 8171 483
-191 -324 5990 -549 4127 706 -1215 1392 4614 1008 473 -7043 1869 -1393 -7359 -3551 4090 1113 -2266
-5586 -1343 1034 4274 3636 5873 1140 4703 676 -1701 -3109 2110 -377 796 845 -3270 -4628 4554 -2477
-5945 -7223 -2535 5081 4896 -736 -937 2943 -2886 -3358 379 5045 4777 1688 -2703 -5541 1177 2579 1835
-1705 1434 2349 813 649 -6086 -1073 -1410 1845 6138 1674 2408 -6119 -4231 1664 3001 4396 -4708 -4649
3077 -4315 -2038 -2849 5758 3280 4878 493 -1084 -6281 -2609 1200 -2054 -2029 2642 5525 -325 -378 4833
-9025 4241 -2677 -559 3851 -4325 -5268 -4476 -6663 2456 2911 5463 -2821 -4724 3088 2457 6416 2500 -930
-2773 -2165 2698 204 -4257 5676 2333 -5053 7736 3840 -4971 804 4346 -2948 3055 -872 -598 -896 -2428
5612 -5676 1868 -4382 3943 -97 -4773 -2967 3520 1636 6479 -2050 5426 -5399 5084 4349 2558 -9610 -735
-2000 2998 -4912 1172 280 5847 -2147 -4544 5756 4242 3120 -1870 4061 -3546 -4110 999 -4457 -3685 4335
-2057 6167 2142 -2589 -3545 -2456 -4359 -6414 -2010 5730 4074 -59 -6296 7119 4053 1903 1732 2819 -7095
-1857 1689 5412 -4213 -485 5536 8231 6707 -9565 -5768 1351 -595 4853 2217 4526 -5927 598 -2814 -3258
-984 -7623 -1183 -1949 -571 294 -491 -5818 583 2447 5773 6804 -3666 -653 3967 1891 3710 -1467 -8006
5053 4162 -2206 -1115 195 4120 -2034 -1441 -5682 -505 3292 3217 6387 3742 4997 -3280 4615 98 -1563
-249 150 -1211 -2739 -2318 -2509 -203 2085 -166 -1795 1171 2107 -1354 -1680 -588 -1460 -2883 5802 726
0
