3
8 50
-1474 1194 -1304 4480 1272 -2719 2161 -3228 -1832 1342 1413 -933 -2920 -3533 2021 -1681 958 2898 270 373 1577 2728 2840 -2215 -3203 -405 -80 -716 712 981 -1864 1098 -389 280 3846 -1194 808 -2061 1004 1720 -112 -705 -88 379 -4867 -248 -1082 39 1743 3506
4761 525 -837 -2163 126 -458 561 2319 284 3576 -576 1511 -2540 -1157 84 646 2766 2008 10 1548 -393 -199 3417 -2351 -421 2394 2607 3193 -2282 -493 584 1873 -2785 64 -142 2752 3767 -1347 -2052 1111 -2343 -364 2489 4585 -154 964 -996 -1593 2991 -996
2959 -1944 2554 -292 1237 1325 -651 3274 2664 -1631 3052 1542 -521 -1076 3191 -530 -204 2153 4032 -1293 1781 -438 1511 3266 3398 -289 -4211 1696 3613 1480 3465 -1045 1976 2586 -2692 -1636 3172 -1631 -3113 2446 -1149 1480 -2864 756 1204 -2135 -24 2590 -2282 -2673
-1028 396 2023 -278 -463 -2011 -1001 -133 -4058 2437 -1447 -262 -3245 3537 -3069 1118 3734 -1993 -3297 -2155 101 -2235 -1950 768 782 2449 -1202 257 -329 -1994 -1739 3331 -1171 3493 3232 321 110 119 -1205 242 -3593 777 448 1630 1942 -2340 -3835 -2284 1576 392
-1338 -3262 1782 -436 1912 877 3656 798 2804 2619 52 -1316 1531 1030 -3685 2707 1384 2594 -1653 985 -3903 1048 -1766 1302 -1591 -4201 18 3256 1761 139 -602 -2017 691 988 -407 51 1991 -2723 -3937 -3577 1890 -2815 -192 -2160 26 -3209 -1508 3597 -572 879
-239 2387 3053 1251 -3596 -1100 -3651 -1651 3254 3402 -38 -1781 3252 -2479 -127 1686 -2463 -2388 -858 -2316 3313 -602 -2569 1936 -4325 -4223 1776 1088 -2822 -906 1504 4838 3336 3313 -647 631 589 170 2440 -280 2325 -3962 -3476 1346 -1078 3384 -2265 3265 -2850 -2096
-3132 -378 3093 -3859 -1189 1604 -1490 -2288 -1739 -1069 -3858 -4450 3092 813 5245 -4067 1011 2235 -569 3741 -783 -2490 -227 -167 280 3068 -250 -2157 1271 -1991 -202 -1748 -1124 3266 -1062 1750 -215 2879 3084 -2112 -2875 -3193 -1564 -1594 -1009 -926 1367 1457 215 3856
-790 1110 1662 1896 1677 953 866 -561 765 -266 1935 -1807 -874 -2790 -622 -2709 -1222 -3185 2974 -3699 3356 1263 2380 -4180 1907 720 651 -2509 1131 3742 2836 -1561 -294 647 -1470 -269 353 3521 57 -2175 863 -2073 3105 1475 -1329 1741 -4043 21 -584 -1783
1980 -2899 -760 -2323 1723 735 -166 2058 981 849 2373 -2326 -436 1408 1772 -56 684 -32 -828 454 -30 -2423 1908 1103 2312 -2915 -1024 -6922 664 2191 2609 2352 459 2953 -432 3399 1273 2194 -2884 2023 -604 -805 1727 1400 2554 1060 -838 598 -2666 -3143
2
50 50
-1801 478 344 3016 -1629 -905 2669 2923 -1983 -2687 -3299 2451 -1003 -1569 -692 385 -1622 23 2184 2132 -520 -3098 1383 -1333 455 403 97 -2209 -4046 -63 -1050 565 -1799 2429 1748 1213 -619 -284 800 990 1020 -2149 -2708 -686 -446 -1774 -620 3570 -2543 1281
-1634 -3085 2856 4531 -1130 -182 370 1416 440 -108 -2543 2556 -2250 1094 -1069 -3707 3680 411 2062 -582 -737 1722 -422 -2779 171 -1544 918 42 -60 331 -119 -690 -1884 1137 2642 49 -361 -1918 1427 -695 -152 -2271 -2348 -3833 3141 2093 175 2772 -575 1030
1337 281 2033 1495 -803 3099 -3587 2314 3327 1069 -501 4536 3544 -339 -1446 -2581 794 114 799 613 -134 843 2297 -961 1347 251 -365 1858 1723 -390 -93 -2225 3629 -4158 -2252 -1452 3798 2558 -881 1466 1051 -2814 -1490 2306 -105 -1805 -833 -1218 -1297 3705
1469 2613 692 -979 520 1672 268 -1324 3471 4107 -2057 1458 -1532 1699 1664 3862 3870 2001 847 -1022 2527 1186 2703 -1501 -2420 -622 2201 987 -1134 -4059 -254 164 -3546 -2990 -1731 3793 -4736 -2982 2415 710 2137 1295 -1766 5118 -4475 330 -2146 -580 -2176 -1635
-1939 3289 -2869 -200 -3936 4404 669 -700 1094 348 487 -1396 2823 274 1901 1511 3441 -1147 -2459 -441 -714 -3096 -1965 -19 2870 3709 -446 2095 -411 125 -1234 278 2345 292 -2659 3842 -1282 1444 1304 -3250 245 2849 -285 -517 -2339 -3859 -1156 -3794 -3557 -2429
1400 -735 1221 1799 453 -1156 -2699 1318 1425 1777 -131 -417 2829 -1802 665 1028 831 1105 -1968 346 -90 2152 -300 1696 -1322 -1258 -267 -3752 -2517 1547 1205 -2529 2201 648 3543 -1239 277 3317 -1744 1932 -1925 -872 1192 -1917 -1321 -3030 -3548 -821 1042 1831
-1063 -3950 -3542 750 -2522 143 1399 -2558 -3744 -245 2417 -1684 907 1670 -2081 -1410 383 2440 -2285 3745 1150 -350 -1557 -2746 4231 -77 -142 186 -3922 -3169 2311 4123 -666 -1188 -246 -604 -1387 -1967 2311 -4352 -2447 -441 283 1496 -1424 2400 -2437 -3853 -1137 -3070
-2010 -381 854 -330 -778 -395 -800 84 -721 82 -2192 1623 -1259 1550 1751 -402 -330 2252 1451 1933 1243 -916 -1306 1552 -1131 2113 1341 -2380 -1471 1355 -632 -612 -298 -355 -492 -990 -1950 532 2143 -732 -1475 -1237 -78 -2419 -1174 -827 -47 2447 -1805 -1077
3388 -1198 -817 3143 1178 -3219 2745 1029 -3684 1030 3538 462 2373 184 -2724 2879 170 -661 3492 3136 654 -805 -172 -642 -1428 -3971 -1938 -1732 -829 -1448 1347 -452 -1975 1984 2893 2053 1108 879 -1315 -2025 218 335 2504 -1928 -1167 -3624 -4501 -530 -2424 330
4230 -4573 -2485 -674 2074 67 -501 -2138 223 -3040 -942 786 -3640 3289 1395 2840 -3866 974 499 -1584 5206 1029 2935 -42 1929 258 -307 -285 2618 5009 -1853 -287 -1550 935 3354 -894 638 1405 61 2176 -888 -1089 -24 -839 -801 -2169 -2269 4102 -937 2200
-1839 -2741 -1846 2122 -3126 1175 -308 -2811 -76 -2780 1547 -2714 -3507 -1997 -280 323 -1046 -1159 -175 -1990 -1194 -3349 -927 1166 3695 -405 1730 750 -1078 1784 -2429 -5305 1717 -277 -3799 2613 2342 -3776 3103 -1585 612 -1216 -1943 1546 165 -4252 -1285 188 -4747 -3039
1891 -2111 2708 -4438 -4107 -2478 3016 3418 -2069 -4621 3 1725 217 1650 846 -777 -905 1027 -1668 -3304 -327 1900 -113 1535 -610 -2926 1975 -1265 1525 -2999 -415 1822 1707 2861 -3325 -1228 -2242 -2677 2330 -2579 -2301 693 -4156 -1354 1076 -9 3763 1382 -3633 174
71 -977 -678 2960 135 3070 -426 -5 2586 -1693 877 2889 813 -481 723 -3691 -86 -574 2086 849 1647 2215 1257 -2111 -115 270 -2167 2024 574 1632 -473 -3564 -2015 -22 -1029 -871 -2064 1321 654 -861 717 -1554 -9 3802 2770 -1431 3708 -2118 -1086 -2000
1196 -225 -2178 1853 53 -583 -1912 -197 1985 959 2366 -993 -1102 57 -793 -3008 -2991 758 -3560 140 422 88 3357 1740 1546 -524 2836 99 1030 2717 501 2527 1458 -2260 1620 971 -982 3708 -2210 -2622 -3768 -1539 2357 39 351 -174 4448 -3604 2659 -195
-844 2717 392 1207 -356 -186 4830 401 -663 601 218 -647 794 -768 741 -147 3823 221 -1375 -236 -2989 -1914 3420 -2582 -219 -1169 -229 -983 -1233 233 -2217 2248 2135 -2775 667 927 -71 1445 1488 1795 -1525 -910 -1874 -1570 3208 1696 -769 -1431 -1949 2487
-3320 -191 -137 2665 400 -456 1235 -798 49 -3697 511 399 -2250 -1712 87 -1501 1256 1261 -2004 -1048 -1279 101 -3838 2322 810 255 -558 2961 3885 1403 -3307 -366 -967 2747 1381 1432 1751 -1104 789 -1198 1750 1292 -2931 154 2527 -248 1643 -1816 -1451 -1480
-1006 946 2757 3597 -1683 1115 -1595 420 2321 948 -2054 -1597 475 -5083 2158 -593 1083 -3201 3562 -1134 -420 -137 -455 1766 2175 5447 -2674 1908 -800 -482 -1793 -3628 1675 -3345 522 517 -1425 -313 393 1352 431 -667 64 -1088 1764 -948 -3399 -2131 2203 -2959
-847 -2121 3004 3310 1154 -808 2273 -1683 1509 -789 2283 2261 -2170 -1135 1112 -1942 2489 -1766 -135 1636 -3155 -272 365 -2245 -4478 -515 414 -3078 619 -2966 -3100 -1530 -468 161 2174 -1987 -1192 -1709 4094 1046 -224 1085 -2741 2944 -1183 1522 1468 2655 -4229 1713
-2565 -3426 805 2271 -1665 1199 614 -483 681 -6 -1346 1008 -3136 -1109 -37 170 361 1156 -172 1036 -225 -168 332 -2582 4655 2297 1174 101 3098 1442 -1460 -9 1190 2163 -302 2464 3059 905 3132 -940 -4170 -1028 -11 -3973 2131 479 477 402 1768 384
-793 -381 -3121 -1943 -1652 -2832 303 -573 -3132 -802 1981 -2998 172 2417 565 -1299 -2077 -2438 -513 -42 -3070 776 1830 1092 -1086 -2764 4316 225 547 -76 -939 2733 892 -3046 2498 385 -705 2592 -458 -2225 -1725 131 2419 -3251 -526 1326 -731 -1647 753 -1087
3517 -59 -4277 -861 4388 1632 -1139 996 -2694 -2332 470 2443 717 1068 3761 -508 -3185 -1429 1611 -2947 -489 -1051 1382 2405 -3706 -2671 -1130 -1338 581 1549 1452 991 -581 -813 -1930 -1041 2381 602 -1604 -379 -1987 3175 4210 -3758 2008 -896 -789 -743 899 -469
-175 -1969 -172 1135 689 -3833 4229 -1520 -1096 2388 -2431 -3056 -5811 -765 -2452 1329 2957 -809 -3778 3907 1729 3524 1036 -3192 3790 1653 4428 -4032 -3256 1294 -1205 2685 -4016 1157 1426 -1071 -2902 -5952 -711 1612 -2493 -4234 -2772 -859 1469 2757 339 -1379 -94 -2240
-2764 754 -2821 -1500 -3568 -1638 -203 4113 -625 657 -811 656 246 89 -134 1367 -1460 -1447 57 -526 -2223 -1946 -3287 -2344 -2891 -1884 4117 -1135 -1467 1745 -146 -1354 2377 -2856 -1314 -1589 2592 -1488 19 -1213 2327 2007 2068 -1072 192 -4093 -1907 205 76 -1455
80 2060 -2908 -1798 185 -2010 -55 -768 888 -61 -319 1996 -1146 588 252 -472 -2078 2824 -986 2267 1118 1982 -1169 -990 -1578 2320 -674 -1684 2144 1104 -121 1581 -1059 -357 -997 -1323 5163 2234 -55 1796 -1864 2672 966 -1837 -2162 -300 553 258 3133 -820
1251 1654 2144 -2928 2209 -1519 308 -812 -2198 -1234 3332 1312 2905 -738 -265 567 -494 1182 -1656 -2165 445 -1430 -1034 248 -2255 2755 -1540 294 499 11 3947 1295 -80 -951 2062 -803 2184 2556 -1082 -317 -4246 -2250 -1167 -1455 3124 -599 -1959 -275 -857 3226
4219 -1757 105 1072 326 369 -3573 25 1706 2948 1816 -2424 2356 2112 -2075 3588 -1930 -4002 2427 -1279 -1857 965 1655 -499 1970 -3807 820 -3928 996 2140 191 -1460 -5232 -4550 1601 -849 -3214 -1072 843 3936 -605 351 3540 3724 -2555 1952 1357 895 4521 1252
-552 -1725 1511 -1579 -991 -601 -1103 -1408 -3112 -2563 2233 363 -3550 -1336 867 127 -614 408 755 600 4353 1104 1401 -2610 -746 326 -2212 -904 -3688 -1480 -3492 -2010 4159 -441 -628 2061 -1491 -170 2199 -1158 -782 1662 -2111 -2801 -180 -2250 -678 2568 97 -1558
-420 4580 -4000 -630 -4774 -3408 3481 69 -2429 -3139 40 -2165 542 2568 -4241 1355 -2929 2869 -112 4610 1475 911 -1472 -3224 1127 -4214 -3641 2337 1160 1070 -2527 -761 1324 -1241 -2374 410 -344 1553 -300 -1267 4008 1367 -599 237 -4107 -2129 303 -4716 115 2955
-875 -1112 1300 -788 -150 80 -372 -3411 1375 857 -76 1106 495 3166 292 1835 -1826 -3350 -1669 1877 309 -723 2556 -2180 297 -653 2062 -1703 669 1342 5 858 -2438 19 -3536 2004 2708 1715 -536 -171 609 -1086 1512 -570 -1772 2145 512 -3376 -1976 2010
35 -643 -3898 -1613 -308 2107 -1424 -989 3960 -2526 2618 -1082 1200 -5446 372 -910 -851 -1688 -4504 -328 -1177 -337 -3807 256 772 1653 1063 4491 2732 876 1002 -2259 2558 -3240 -2500 1291 -2778 1676 3222 -1989 285 2681 -2048 -2128 868 -4976 1292 -244 -1599 -4175
-2479 629 -3242 -296 -2057 167 -220 -1183 2754 4110 886 4310 -3329 974 1939 -2591 229 -3558 1637 -484 1084 493 -2249 -866 1381 472 439 813 -1704 2814 2172 -113 290 1591 -189 914 1560 -295 411 2839 1151 -3286 3639 154 1298 -1408 629 43 -334 1443
-218 683 -552 2237 4660 163 1598 -2022 -2222 -3338 -3244 -644 -4380 -174 3530 1071 -2676 -12 -1612 634 971 -2469 3084 -1635 -2839 717 -3368 3373 -1449 -365 -2514 1882 3278 1886 2359 1585 2034 480 -49 -111 -2883 -893 919 -4238 3045 410 4391 -196 1396 -671
-115 -2010 984 -1838 941 751 696 3024 1623 -314 1398 1136 1789 1814 389 1328 1552 2078 2637 3172 482 -668 -2174 1618 -262 -1594 1392 -1224 163 -179 2912 3741 -919 1611 -1284 -2069 3104 96 648 3763 -1401 968 -1686 -2172 252 1713 -239 788 -591 1862
-937 1037 1870 1359 1325 -1611 -1467 1485 1421 2348 -2301 1910 -19 -2522 -1352 -746 -498 34 3335 890 -613 -2613 2103 854 -1196 2373 2426 5205 -3227 -313 -1390 -5682 5142 -2803 -151 -727 380 -840 -464 -564 3648 -1280 -1512 518 3046 -3215 437 740 1608 3167
-2261 1397 -1721 205 1466 -502 1072 -1695 1213 526 1354 1333 -817 591 -1823 -2032 -896 -815 -35 -218 2369 -1249 -1045 2334 -1030 1895 1019 3792 1399 401 811 2448 2375 356 -3933 2778 1796 1881 3108 1086 3112 3869 32 -1253 1937 953 2729 -2043 -1068 -3344
565 -1322 1569 -2594 1632 -617 1035 4733 1415 26 -1425 786 369 1333 -2761 1030 -1421 556 -2436 2370 -350 216 194 1579 1153 2933 2291 -216 -1892 2347 2707 -2693 1457 -1195 834 -4881 321 -907 -2928 1562 -1865 -3476 3301 -3957 954 3201 -1600 1122 4425 -1580
-2454 4719 435 1552 -2043 -503 511 -656 364 3528 -1082 1115 291 1318 -1061 -1646 2240 -29 -1886 3518 -872 -2470 -1048 -2758 -2250 -919 -2390 711 -977 -2682 -173 1549 2665 -1550 1966 -167 -1881 1521 -140 -1907 707 -345 2180 -3126 -116 1071 -2610 -1278 2495 58
1511 2063 280 -630 -2040 -2663 1053 4564 1069 1832 630 1376 1953 -4524 1025 -437 218 -522 585 -1953 1968 467 -301 -2304 1698 1269 -450 1051 -5384 416 -97 -2259 -736 -312 3828 1382 614 -245 -3217 -1857 -937 -1994 -3626 4491 -1851 50 -2485 -466 5697 -573
247 -4966 3954 1012 634 2663 242 -1681 2138 1982 3638 -2089 1160 -3486 -2204 -1762 2632 -1896 2159 -1852 2578 3815 -1411 861 3674 314 3189 -2217 2601 2223 1265 1012 -1396 110 1211 -2049 278 3548 1411 2561 -809 592 -2413 479 2998 683 1174 -1960 -2372 -1198
-388 2559 -315 -77 -2269 -448 392 177 2966 3263 777 -804 1309 -718 -3701 3068 -396 -4942 -2281 1766 -4816 -4800 2087 2663 3983 -928 1710 4055 -1005 -1678 929 666 3595 -1619 -4011 -303 -20 -3828 2221 7 -640 -1116 -1251 -4112 -883 -624 2091 423 -175 546
1038 -3026 -486 -4297 1480 -509 -3450 204 284 -841 -357 -433 283 178 -3315 -61 -970 -481 870 -1203 4980 3381 45 -465 2542 -5718 492 -3218 -965 2702 786 2172 -3432 129 -3660 -2075 -688 -1855 1982 325 -683 2770 1919 1553 -3262 -3311 -2035 615 -2982 926
1813 -845 2181 2720 218 2774 3424 1832 -2626 -1913 3453 874 3921 -445 -63 626 595 -4525 645 -2673 -3429 637 -1755 -2937 -2178 -770 1530 -2283 1783 -857 -2783 809 -308 -1928 1240 2646 -1025 -343 505 588 1383 1286 -355 2279 1587 745 965 -938 -4872 -3948
-1459 523 -95 1747 -1493 1038 507 -2864 1872 1730 2029 -1019 -3501 2271 -1596 -2179 118 -22 -651 963 -1851 285 -1875 -173 -256 1005 -1814 1490 1656 -897 -2155 -1294 -550 -348 1976 5475 -2540 -1481 1861 2486 -1592 -3520 -1620 528 -2722 2662 -39 -2379 -2257 -2251
824 1848 -933 -1384 -28 2824 -3571 2524 4503 1192 489 3347 -182 -4254 -71 -2466 -3196 -5361 1188 2675 3406 780 2020 1054 -353 -1871 592 1650 -1605 1791 -2571 -1426 3879 -795 -1757 -453 1404 800 1622 410 3095 1584 1978 691 2710 143 -1828 2319 3276 -215
991 814 -3360 -1834 520 3720 -909 -2253 1789 2685 1208 -1369 758 -3469 3407 101 -1333 -1764 -413 -1916 393 -1407 -3938 -733 -271 3245 -1624 2501 1462 1172 776 -3882 -1751 -2238 2315 155 2703 2585 -2639 2632 693 3452 291 -280 5188 60 511 186 1865 3006
1705 -1148 1044 -156 3036 982 1263 488 1752 -789 -2824 -769 1573 -1648 -2231 1470 -439 3373 995 -3588 4299 4051 1857 -2363 -72 -4791 -3064 317 -1412 -732 -1786 866 105 -1723 -1384 -1733 -2177 -1439 3428 -699 1061 2081 -1158 2528 2129 -2114 2194 3410 -4256 2912
1473 1043 -708 -520 -2706 2544 -1404 3012 -2323 -767 -1477 -2222 544 2318 996 -1431 2729 -2163 -2071 -3746 -2185 -600 1961 -2954 2625 -2018 -2754 3338 -116 -5088 -4749 1023 461 -251 -3346 4280 -900 -2517 1478 -3261 -597 -2054 -3921 -764 555 -467 2162 -3086 -2527 733
-2982 2137 1045 615 2751 775 -963 -1302 3414 3971 358 2100 162 -492 -3929 -825 -890 -3299 -1677 2080 2319 2592 1567 1295 1373 -1155 -513 1305 -2265 -720 1881 1709 480 836 -937 1732 -570 -2059 -162 403 1462 212 -1983 2943 -1470 1714 84 -1522 52 264
1913 911 890 811 -3606 1062 -694 6 -3257 -1526 1072 -1958 1236 2994 -144 -1068 -1958 -1025 -83 147 -2592 -757 1503 2020 1167 394 3677 -717 2295 -362 229 -3157 -1636 184 621 -501 902 -448 1396 -1300 -562 957 1007 4516 -57 -1295 2338 -1375 -167 -4357
-1019 832 -571 -369 2569 873 -1694 -2177 2298 -1067 -2296 -2276 -1654 -1093 1271 1641 1570 1356 1278 -2180 3262 -224 2239 -2838 658 -983 -573 1288 2724 -1970 -1288 -383 -1659 -2722 -3774 4368 -2646 -438 -1412 529 492 1394 -3085 2019 616 175 1388 166 1667 -2070
713 -1351 -1069 -548 1138 -1578 792 3051 542 267 -384 488 2157 -1658 726 1330 -132 -1415 -2395 -2347 305 490 -781 1415 835 1361 -155 670 -1262 657 440 361 1190 -1052 -514 833 2315 -1015 -82 940 -1668 -2037 802 -674 1355 -392 -947 -652 1834 1011
2
50 19
-4760 5124 -2730 -3367 -2819 -5442 -3533 2653 1912 -1222 4535 537 -438 3412 -3780 4794 924 4173 2488
-3391 -1986 5293 2772 -4268 2522 2545 4404 248 -3411 -2712 -5169 4974 5467 2290 -4307 -2189 1682 -5785
-1485 -899 -3257 2492 454 1051 -4372 -656 -456 -1186 4843 2282 3388 1599 -2505 3142 -3598 -6258 4863
2440 -4263 -3539 4130 5263 6542 -167 2605 -3513 2932 -2981 1948 -986 6151 -973 -786 5008 -5891 -3069
1182 -5121 -6897 -4260 -5416 -4203 -3694 1542 -2025 3082 5662 -1271 2059 3543 -1269 -6200 2523 2345 3246
5004 -512 -3969 -956 -2181 -2217 -808 -177 -257 -376 -5409 3955 4329 4278 -5463 2460 1487 -3205 -294
1890 -3917 4503 5491 3493 7820 -6360 -2791 2466 3577 3948 199 -2357 186 1370 3018 486 -975 -1601
-6178 651 -5178 1859 3131 852 1650 2460 -2942 -5066 686 -1949 2465 1952 -490 5754 -4609 3493 4167
1059 -2043 4181 -1786 -2949 -1969 6581 1871 -1823 -2143 -3773 5725 6347 1887 -2256 -329 3728 -7755 2571
-3352 -2889 2370 -3088 -4249 -1798 4456 4867 -341 -1123 4367 1745 2218 3988 4421 -1421 4135 -6327 628
-422 4469 1239 -3303 -5081 4046 3077 666 3109 -836 -3350 754 -2189 1434 4640 3603 -561 1108 2873
-2868 -1510 -3319 3972 -1077 1191 1829 1596 -580 -1758 -764 -2925 5936 -5088 1888 -4074 3899 -1234 4571
-998 5828 -2388 -4765 -5982 3989 1666 -123 -415 -3665 13 -6877 6517 6923 274 4446 -3669 -350 1347
-1701 2347 4505 4605 -1772 -2298 -4893 -5959 6418 3532 4236 -4984 226 3314 4695 -4837 -409 661 -2548
4628 -3558 -2305 -3896 -3988 5223 -4104 4105 1179 -1038 -3805 6191 -591 -1423 1456 -4446 -2498 3856 1617
3835 1341 3421 -620 -1044 -407 -901 473 3639 -5310 7928 2100 -367 1175 5313 5220 5802 -201 -6518
2276 -4717 -3335 -2826 -4588 3636 -708 -2592 -3355 -879 4809 1606 5928 5324 5065 -1752 4973 -2711 795
-3004 3909 -1886 -2963 1649 3840 -2214 -710 2206 4300 3938 1486 5208 -2031 -1464 -3885 -3269 3654 -857
-3788 4679 -3948 3552 1628 -2696 -4297 5294 -206 -3375 1070 4200 1573 2339 434 -5336 2920 -3287 450
-2164 -692 4436 -36 3292 1924 3316 2764 5489 717 1392 -1896 2329 -1520 5322 -3950 1230 -889 -7143
-3482 5683 -1832 -4981 2557 -3530 653 -1068 -4400 4039 2462 3865 4973 -7611 -2994 -4669 5800 1248 -137
-3814 5462 -4822 -5830 3194 -3774 -2161 -3563 3520 1323 3691 4725 1709 -3025 657 1692 -4087 -1194 5403
-4288 -3280 4540 1158 -5317 -1391 -4279 -2007 -1104 6209 720 -944 1618 -663 -4005 1221 3989 477 931
3219 3349 2727 4174 -3465 -1943 3481 -402 -443 -5263 -239 -2473 1941 269 -5413 -3840 -1349 2281 5593
4598 3658 -1506 -5122 3243 -3098 4877 -3441 -475 2506 2884 606 -2401 -5493 -3946 3186 4697 -6373 -2983
5857 -6746 2886 1587 891 2679 1548 4131 -1682 -649 30 3227 -2976 -3861 -4703 -5352 -4324 -4499 2618
3295 -432 4565 353 475 -1921 884 -571 -2447 -5629 3826 -3160 113 2716 5475 4800 2255 -1936 2513
1739 -1789 1248 2491 -991 -529 5452 1972 -6212 3685 -7039 4109 2892 745 -5328 -3229 1346 4435 -4353
4392 2928 -1736 -45 -3766 -217 -644 -4523 5308 -1681 -6644 2408 -2547 4548 -1945 -1868 -2562 268 573
-107 4269 -3963 1282 5710 562 3161 4360 4356 -1301 -401 -3332 -6246 -3178 -4239 -4523 2616 3461 4771
-806 2406 -5605 -5615 -2821 -1628 2186 1267 4909 -1845 823 -4324 1181 1013 3487 -4089 -1478 -1203 2064
3837 -3651 270 -2323 -2542 -2174 -3240 -4179 4070 3276 5568 -5033 5067 1809 3093 -1573 3044 -1015 1088
-1226 -3502 2777 3935 -3020 5247 5544 3504 -4543 1062 -3539 -4636 1991 -4440 -4152 5581 2582 4852 -2852
-3386 366 -60 1332 4028 3510 -2135 -3100 3745 2207 -615 168 -3848 -3933 2879 -4269 503 -39 3036
-4892 -3541 -5697 3040 882 4296 205 3994 7398 -3732 2906 2655 -6512 3857 479 566 -712 1418 5953
966 -3740 2804 -3832 -485 3791 -30 -2601 988 5653 -3669 4512 -3799 6384 2258 2655 2167 -1661 -7336
3497 1948 128 804 904 2965 -296 3927 1625 -4205 -1272 -3704 1745 -5874 2235 -4716 4676 1572 677
-3729 5512 -3288 -2871 -6466 2008 581 4641 3480 -763 -4983 -922 1310 -681 -516 -3039 -2191 3809 2799
4180 -645 613 6458 4337 -2946 -2688 -3504 -842 1386 -2188 1775 -1785 -978 5316 6062 2729 -3747 -2924
189 921 1908 3620 -4474 -3853 -1983 4562 5753 -6554 2800 4837 2532 634 -2366 -5938 3609 -5303 3711
-1573 3185 5376 4863 4915 528 434 -3196 -5607 -4318 -3151 779 3898 4342 -3938 -4027 521 -2330 -3104
2496 2078 -1233 -758 533 -2324 -4262 -4634 2492 -3747 -6458 4322 6217 -639 4650 -118 -1809 -1082 -3597
-6174 -2482 2811 1254 1018 -6274 -374 3628 8868 -5983 -3710 -2635 -4493 469 41 -1868 -537 4864 327
-4649 11610 2786 -3622 -154 1987 -2447 490 -2329 5499 -1264 3538 4556 2123 -4229 2090 -4952 -9220 3349
3703 -5634 -6293 1561 -1780 2269 -1282 3255 -2593 -1100 -5590 6155 -1635 1332 -5976 -1755 1989 4616 6009
1328 -4979 -1052 1786 -940 -863 -4568 -3075 9180 2766 3213 -190 3431 3858 -4187 854 -5202 -3494 1165
2928 -1363 -4363 3556 -6042 1043 1217 -4364 4762 3988 -4116 2215 -85 1000 -3666 -1522 -4947 -700 2453
-6274 -1213 -479 4102 5197 -325 -5070 -1833 -3571 -5262 4250 3336 -653 -3560 -1546 816 2821 1797 4344
-6035 -3785 3296 2582 -1898 -3217 5210 4450 7746 3742 2065 2171 2780 -74 -3287 -2054 -2403 306 2935
-6250 3608 -4653 2367 -5149 2609 913 4167 -1154 -2235 2408 -2552 5443 -3403 610 -3024 5170 1642 -15
[-4760  5124 -2730 -3367 -2819 -5442 -3533  2653  1912 -1222  4535   537
  -438  3412 -3780  4794   924  4173  2488] [-3391 -1986  5293  2772 -4268  2522  2545  4404   248 -3411 -2712 -5169
  4974  5467  2290 -4307 -2189  1682 -5785] [-1485  -899 -3257  2492   454  1051 -4372  -656  -456 -1186  4843  2282
  3388  1599 -2505  3142 -3598 -6258  4863] [ 2440 -4263 -3539  4130  5263  6542  -167  2605 -3513  2932 -2981  1948
  -986  6151  -973  -786  5008 -5891 -3069] [ 1182 -5121 -6897 -4260 -5416 -4203 -3694  1542 -2025  3082  5662 -1271
  2059  3543 -1269 -6200  2523  2345  3246] [ 5004  -512 -3969  -956 -2181 -2217  -808  -177  -257  -376 -5409  3955
  4329  4278 -5463  2460  1487 -3205  -294] [ 1890 -3917  4503  5491  3493  7820 -6360 -2791  2466  3577  3948   199
 -2357   186  1370  3018   486  -975 -1601] [-6178   651 -5178  1859  3131   852  1650  2460 -2942 -5066   686 -1949
  2465  1952  -490  5754 -4609  3493  4167] [ 1059 -2043  4181 -1786 -2949 -1969  6581  1871 -1823 -2143 -3773  5725
  6347  1887 -2256  -329  3728 -7755  2571] [-3352 -2889  2370 -3088 -4249 -1798  4456  4867  -341 -1123  4367  1745
  2218  3988  4421 -1421  4135 -6327   628] [ -422  4469  1239 -3303 -5081  4046  3077   666  3109  -836 -3350   754
 -2189  1434  4640  3603  -561  1108  2873] [-2868 -1510 -3319  3972 -1077  1191  1829  1596  -580 -1758  -764 -2925
  5936 -5088  1888 -4074  3899 -1234  4571] [ -998  5828 -2388 -4765 -5982  3989  1666  -123  -415 -3665    13 -6877
  6517  6923   274  4446 -3669  -350  1347] [-1701  2347  4505  4605 -1772 -2298 -4893 -5959  6418  3532  4236 -4984
   226  3314  4695 -4837  -409   661 -2548] [ 4628 -3558 -2305 -3896 -3988  5223 -4104  4105  1179 -1038 -3805  6191
  -591 -1423  1456 -4446 -2498  3856  1617] [ 3835  1341  3421  -620 -1044  -407  -901   473  3639 -5310  7928  2100
  -367  1175  5313  5220  5802  -201 -6518] [ 2276 -4717 -3335 -2826 -4588  3636  -708 -2592 -3355  -879  4809  1606
  5928  5324  5065 -1752  4973 -2711   795] [-3004  3909 -1886 -2963  1649  3840 -2214  -710  2206  4300  3938  1486
  5208 -2031 -1464 -3885 -3269  3654  -857] [-3788  4679 -3948  3552  1628 -2696 -4297  5294  -206 -3375  1070  4200
  1573  2339   434 -5336  2920 -3287   450] [-2164  -692  4436   -36  3292  1924  3316  2764  5489   717  1392 -1896
  2329 -1520  5322 -3950  1230  -889 -7143] [-3482  5683 -1832 -4981  2557 -3530   653 -1068 -4400  4039  2462  3865
  4973 -7611 -2994 -4669  5800  1248  -137] [-3814  5462 -4822 -5830  3194 -3774 -2161 -3563  3520  1323  3691  4725
  1709 -3025   657  1692 -4087 -1194  5403] [-4288 -3280  4540  1158 -5317 -1391 -4279 -2007 -1104  6209   720  -944
  1618  -663 -4005  1221  3989   477   931] [ 3219  3349  2727  4174 -3465 -1943  3481  -402  -443 -5263  -239 -2473
  1941   269 -5413 -3840 -1349  2281  5593] [ 4598  3658 -1506 -5122  3243 -3098  4877 -3441  -475  2506  2884   606
 -2401 -5493 -3946  3186  4697 -6373 -2983] [ 5857 -6746  2886  1587   891  2679  1548  4131 -1682  -649    30  3227
 -2976 -3861 -4703 -5352 -4324 -4499  2618] [ 3295  -432  4565   353   475 -1921   884  -571 -2447 -5629  3826 -3160
   113  2716  5475  4800  2255 -1936  2513] [ 1739 -1789  1248  2491  -991  -529  5452  1972 -6212  3685 -7039  4109
  2892   745 -5328 -3229  1346  4435 -4353] [ 4392  2928 -1736   -45 -3766  -217  -644 -4523  5308 -1681 -6644  2408
 -2547  4548 -1945 -1868 -2562   268   573] [ -107  4269 -3963  1282  5710   562  3161  4360  4356 -1301  -401 -3332
 -6246 -3178 -4239 -4523  2616  3461  4771] [ -806  2406 -5605 -5615 -2821 -1628  2186  1267  4909 -1845   823 -4324
  1181  1013  3487 -4089 -1478 -1203  2064] [ 3837 -3651   270 -2323 -2542 -2174 -3240 -4179  4070  3276  5568 -5033
  5067  1809  3093 -1573  3044 -1015  1088] [-1226 -3502  2777  3935 -3020  5247  5544  3504 -4543  1062 -3539 -4636
  1991 -4440 -4152  5581  2582  4852 -2852] [-3386   366   -60  1332  4028  3510 -2135 -3100  3745  2207  -615   168
 -3848 -3933  2879 -4269   503   -39  3036] [-4892 -3541 -5697  3040   882  4296   205  3994  7398 -3732  2906  2655
 -6512  3857   479   566  -712  1418  5953] [  966 -3740  2804 -3832  -485  3791   -30 -2601   988  5653 -3669  4512
 -3799  6384  2258  2655  2167 -1661 -7336] [ 3497  1948   128   804   904  2965  -296  3927  1625 -4205 -1272 -3704
  1745 -5874  2235 -4716  4676  1572   677] [-3729  5512 -3288 -2871 -6466  2008   581  4641  3480  -763 -4983  -922
  1310  -681  -516 -3039 -2191  3809  2799] [ 4180  -645   613  6458  4337 -2946 -2688 -3504  -842  1386 -2188  1775
 -1785  -978  5316  6062  2729 -3747 -2924] [  189   921  1908  3620 -4474 -3853 -1983  4562  5753 -6554  2800  4837
  2532   634 -2366 -5938  3609 -5303  3711] [-1573  3185  5376  4863  4915   528   434 -3196 -5607 -4318 -3151   779
  3898  4342 -3938 -4027   521 -2330 -3104] [ 2496  2078 -1233  -758   533 -2324 -4262 -4634  2492 -3747 -6458  4322
  6217  -639  4650  -118 -1809 -1082 -3597] [-6174 -2482  2811  1254  1018 -6274  -374  3628  8868 -5983 -3710 -2635
 -4493   469    41 -1868  -537  4864   327] [-4649 11610  2786 -3622  -154  1987 -2447   490 -2329  5499 -1264  3538
  4556  2123 -4229  2090 -4952 -9220  3349] [ 3703 -5634 -6293  1561 -1780  2269 -1282  3255 -2593 -1100 -5590  6155
 -1635  1332 -5976 -1755  1989  4616  6009] [ 1328 -4979 -1052  1786  -940  -863 -4568 -3075  9180  2766  3213  -190
  3431  3858 -4187   854 -5202 -3494  1165] [ 2928 -1363 -4363  3556 -6042  1043  1217 -4364  4762  3988 -4116  2215
   -85  1000 -3666 -1522 -4947  -700  2453] [-6274 -1213  -479  4102  5197  -325 -5070 -1833 -3571 -5262  4250  3336
  -653 -3560 -1546   816  2821  1797  4344] [-6035 -3785  3296  2582 -1898 -3217  5210  4450  7746  3742  2065  2171
  2780   -74 -3287 -2054 -2403   306  2935] [-6250  3608 -4653  2367 -5149  2609   913  4167 -1154 -2235  2408 -2552
  5443 -3403   610 -3024  5170  1642   -15]
0
