2
39 64
-1387 -2112 -4068 4739 -492 805 6162 -2423 -1147 1343 750 -2234 -395 -5264 3090 -785 3524 1407 6381 -7761 -5699 2663 -1606 3265 2047 2597 5648 201 882 -3792 -3020 -1661 -5371 -2489 5360 671 -2276 1167 -3727 -4267 3211 -7255 3486 3320 -3449 -2849 272 -2595 -4341 2024 -2227 -80 -5241 3814 2140 5132 4700 -848 -691 -3160 5502 110 -1755 -1315
8403 -6221 -5063 2978 -927 -2961 -3188 55 2191 656 7637 -37 -808 4206 -6753 -2599 -3805 -4946 -2607 -6937 3658 5482 2727 722 -1620 596 -2060 2632 -1527 1898 4392 -1278 -3966 -2099 3661 -680 5373 -1258 4415 1983 999 3659 688 3400 -3245 4336 -1888 -2949 2670 -1548 -1343 18 -1324 -702 3655 3594 218 -5832 2287 -5441 -5883 -1520 -10 -340
-5509 -1901 3026 -2574 399 4139 -4635 -4834 2258 -4953 606 6183 4028 -7330 6487 7422 -2400 -100 -1322 -4806 2280 4912 1454 5625 -4359 5932 -6817 5255 3586 1414 -9948 -595 -1892 3619 -3304 1141 -1512 141 -6720 -6716 -221 -1948 5537 -5596 3340 -1842 7071 -212 -2051 -525 4776 -5891 -1661 -837 -3897 -1902 -5813 3919 4717 -912 -3027 2436 -5157 2414
-2287 2076 -837 -2368 3088 -556 296 2696 -1402 1995 -3112 -9401 -4971 1465 6644 4285 2878 -2167 5189 -2204 -3859 3987 -4693 394 -8306 -11327 -293 -8551 -4961 278 -2356 6724 -5072 -874 -1872 -9298 2576 -5764 1094 -5626 -4675 5068 3012 793 4261 8214 7287 571 -5565 -501 -4056 5551 -926 12329 -1743 -302 1993 6264 -1059 -2214 1054 -4600 5805 -6971
2491 -1565 1807 -962 1233 5330 1356 -1680 -3049 711 1129 -2000 -1564 -756 -106 -1947 -2688 3735 -4278 -5033 -107 -5838 -2588 -4582 2006 -4026 4238 -3299 3609 816 -1871 -1714 -3660 1958 1253 1120 446 4575 3093 89 2898 -3744 -79 -1894 2896 2148 -3771 -2501 -1584 396 -27 -2273 2663 1253 -3309 -2442 1712 -970 -4506 -1232 1424 3309 -4923 -218
5870 -3970 68 -3255 -2816 502 -5359 -2121 -806 -2731 2863 271 1706 3314 -1998 2796 467 2339 1822 -1569 -7232 3792 220 -2232 -2619 -2969 -3108 2324 901 -445 1157 2917 -4725 8484 -1165 614 -2480 -3957 178 4154 3552 1993 -1613 -4253 2610 2093 -848 4836 -3200 4496 -3242 5690 1675 2011 -5929 -6224 207 1471 -1019 99 -4340 3448 -2117 -3585
-1658 -2572 1404 549 -1304 1377 32 4669 -2010 -2830 -1251 392 1642 2822 -1248 659 -3311 423 1113 -2576 545 306 -3117 2313 -3426 -1609 2259 -688 -320 -2592 805 1287 24 796 2137 -1212 -1105 -670 48 175 4064 -4440 -1635 -3431 -212 210 2908 6235 -620 1557 -2081 -1658 194 389 -1212 -1723 -1630 -400 5974 4115 102 1546 2419 -1731
-71 -5099 2789 1696 -7447 1133 -479 1825 -2792 4925 4468 2060 5640 -4343 7464 1675 -277 -1913 -4809 4715 1622 -5170 5499 -1464 5786 -2717 843 1157 1141 -364 -5156 -2648 4170 -3568 -2371 6846 5122 4588 -1030 -4151 2003 1624 2314 -3120 -3102 -2508 -473 -1051 577 -5535 1236 1149 1583 8064 -4206 5921 -1167 727 2374 -3771 -2554 5017 4277 -5973
718 -725 -6200 -1033 -5850 3971 -4577 -2397 3927 1192 5227 -106 7260 -505 2875 4035 -1494 6263 -889 743 -4388 -682 3716 915 2213 2013 -3035 7535 5389 -2665 -2846 -8254 -137 4217 -1908 2616 1337 224 -1457 1514 5017 866 -3905 1016 -4139 -934 -931 -1664 -4184 -3827 -838 3723 -6434 -365 -4371 -1605 274 2390 2150 -6551 -1885 5342 -1903 -5628
1435 723 -3182 1148 -1729 -2191 6682 2600 -6902 -5476 6123 3467 -2148 -2691 -1111 -1444 1480 -5272 406 761 100 1258 1582 5997 -933 -1417 4318 -2291 -390 2724 -446 -2095 976 -3647 1376 599 -1148 -2161 2849 227 3300 -823 1604 5267 -2564 344 2902 2657 -3568 1774 1927 3608 335 1 2609 3201 3685 1416 -1629 1802 530 -1125 4483 1793
-500 2869 1097 538 2160 3101 959 -4089 -492 -2103 262 1029 4635 -957 3889 3637 -809 -758 -775 2023 3128 -399 -2913 -411 -15 -2711 -638 -867 3714 -2375 187 1971 3910 2069 181 959 751 129 -1256 -788 124 -3098 1302 -4070 -2251 55 663 2714 -7180 -2250 425 -1337 2159 2628 -2179 -1520 370 3195 3823 -788 -3382 286 728 149
-2176 880 -1509 868 1690 3242 -131 2429 -3211 685 1830 -1292 -225 -2705 4177 2413 -2514 2325 -889 2981 -957 -3232 -4707 -988 3311 -2781 -457 -1237 38 852 -1674 4659 2310 7483 -1208 1627 -3195 3441 1062 1684 -222 1875 128 -1288 -1663 1179 1613 -4687 -5003 -3090 2862 754 4056 -467 -2020 -4257 -1293 -1263 1606 -1933 592 532 1195 -1568
1073 1626 1491 3245 -2407 -2596 -7118 6372 -3082 2205 478 -1048 -2176 -1579 1668 2004 -4400 -4285 -2361 1004 2137 -5298 1864 613 706 -6455 1309 -3851 -918 5494 4737 584 1949 -1361 4478 -8890 6876 -6493 3689 -596 -2150 2605 -4884 2318 -1312 -401 2634 4448 -2443 -4419 3158 267 5113 -1734 3555 -1522 491 -281 -3299 -1995 -3599 4607 10885 -7426
4655 1220 2477 -4652 2817 1860 5557 -6559 2718 2029 -1124 1662 2286 1712 -730 5132 -1358 -2518 -2017 -1762 3393 1014 3750 -507 -846 2422 2018 3761 3008 5476 3278 -1546 1450 -20 -98 154 1283 -5484 1764 425 -4604 4124 1747 -3007 2173 144 -643 -2185 3114 1126 543 3172 1748 -3661 104 3760 -846 -3268 3945 -1843 5471 1575 -2786 5178
-2397 -3011 473 1347 1609 -590 -557 4984 865 -3058 568 4854 3310 -2890 1285 -1639 -749 4892 646 1907 2884 -310 -2197 1735 -4525 1540 -4886 -2207 -6540 2122 -3126 2005 469 -2635 -344 1502 2171 3269 -4245 2430 -2678 2410 -1553 841 3495 170 5998 577 -2415 1119 1361 -108 1825 -1157 -1183 -435 1720 -371 1476 3059 2285 -2549 -2001 5217
1597 84 1129 535 1611 -3128 310 -983 2650 115 2049 240 -4878 -3647 482 2049 3253 -5493 945 -1774 -3882 -165 1487 5005 -887 3051 1444 653 872 4166 -263 2142 -1281 4531 -2585 -3966 -3378 -5633 3570 4592 1198 -1369 -2096 -499 3605 -588 4779 -3010 -1070 -1482 3873 3433 -4116 -3461 3847 1932 -3852 945 -2140 4871 -3135 -5423 510 -821
1980 -2135 305 -1646 -3644 -1293 -1357 -723 -4517 -2374 1631 -2551 -100 3731 -4210 3316 1958 2885 -1020 1013 -163 1146 -3533 3125 -1086 -2084 -315 1330 -1301 -995 -2687 1124 3424 4474 2344 -2448 3542 255 -2695 -3059 3853 1196 1720 -2382 292 3420 4064 208 5135 944 -5243 4878 -1177 -770 -2450 -1800 891 829 801 473 377 -2370 -4507 3001
-1661 3962 -27 2129 -573 101 -1062 1703 -1516 -786 -5128 762 1308 3236 -727 -930 -3564 3606 -94 493 1545 -1090 -4065 -3095 -17 -985 -1352 -2381 916 1332 307 610 2364 3565 2407 1378 -30 1663 1598 1384 5813 -4803 1508 4798 3742 -1946 -96 -537 -3107 4419 1229 -1013 5844 576 663 -1800 -3245 5510 2061 -1754 -5661 3634 -3113 -1722
2186 2283 1805 -4113 -2622 2446 -3079 2291 1374 2292 -2164 -2175 -616 -431 -1934 1972 4079 5341 2534 454 -3069 -1981 -3465 -2868 1310 -1117 -1275 2771 -1063 403 3129 -1275 -673 -2908 -2462 -1912 420 -3272 2793 64 -1770 -149 -1552 2856 -1181 -3198 -3645 2910 120 4706 -4054 511 -2955 2777 3731 -897 -4097 1340 -2385 -5264 -2605 2087 3321 -2666
1910 -823 -638 -3418 3622 -3955 1834 911 7937 1709 -116 5019 4646 3531 2069 -1681 -3232 -1233 -120 -1239 1183 186 6110 -3236 656 1554 -1193 4669 5076 -6259 -871 -5646 540 -6492 2691 4488 2468 1147 -727 -4816 2617 1283 -176 608 1888 2854 -2491 -3487 394 -2907 1989 -206 -2376 1565 2670 1113 -2401 8235 6527 610 -2817 2047 -3777 -1014
2821 1633 1675 119 -4139 2322 4322 -140 -3434 -1812 -3299 503 299 -2618 2272 -648 -2093 -1182 727 -1934 -588 3442 -174 1378 229 -453 2231 -3428 -2618 1005 -582 2948 3217 -3192 3687 -2017 -2219 -2306 3309 1495 1430 -1709 7037 2533 136 -5264 1556 1136 2034 999 319 2163 6427 590 141 458 -2366 -1785 424 -366 -1563 3929 727 3075
792 980 -1878 -1164 4526 2300 3454 -3794 -2289 -2464 1516 3488 1354 109 3283 7 -1758 429 -717 -2045 -1672 -1614 3020 550 -3595 2101 1693 961 -2506 214 -2435 -826 205 -3075 -2375 847 34 207 -3658 1188 2728 3240 1094 5176 -1142 1085 3622 -2472 -3705 -2557 296 1458 1447 -201 1419 2594 -1381 -1090 2507 2995 -1886 -5477 1962 5147
687 1492 946 -5343 -6196 -1394 -1047 -4537 1718 -1640 -415 -3837 130 1539 -2314 5272 1381 1157 3676 -1390 -1951 161 1471 -3332 -189 -467 -1673 6746 6461 -926 -1462 46 -3297 1955 2215 1885 3592 -1178 2585 -2580 -2877 474 205 -3975 236 -74 -2671 1333 -897 -573 -1980 5445 -2055 -972 -709 98 878 -1692 3992 -3089 -1046 562 -1142 -1093
214 5455 1278 2236 4212 -2678 684 2160 2307 7547 -116 6979 -2517 2883 -2223 -3918 -2350 1248 971 -3281 2337 191 -2675 311 -798 5497 -7391 10 696 3389 104 840 27 -2498 -3151 8304 -1283 6734 -2687 4217 -1609 -1588 49 -765 905 -959 3754 -5667 388 1636 1755 196 1386 -1778 -2948 1132 -1207 6088 -4561 4193 167 -2059 -6598 4418
1616 2593 -539 1837 408 -896 2136 -2199 3139 5999 -2834 -540 5135 -1033 503 2472 1488 -3287 -1609 1447 -776 -1444 -2903 -3244 1575 2603 366 1446 1506 -2939 -2619 -4321 1697 -1005 4057 3525 -8507 -12 -455 -4232 3021 -1396 2899 403 -98 -2058 -4280 -3536 -3700 402 -37 -1650 -673 4131 -1972 -2335 -1647 -1531 -3343 2050 4501 814 -2126 4083
612 2839 -755 602 4530 1665 260 -898 -303 2689 1887 4657 1343 -2874 -1647 4087 -28 2003 -632 2481 1364 1867 -772 2594 -1380 948 5185 2589 -1150 7915 1619 961 -1778 2393 2034 -290 477 -4993 -1156 2534 -783 -3512 -1704 -1234 2052 -890 2025 2700 -1743 -3220 1772 3447 -2122 -4523 -1633 432 2418 2082 -687 3042 339 -3658 2541 2079
-826 6318 -940 635 357 494 -804 3711 -171 -2135 512 -4541 2163 4914 -3197 -774 -2393 9 -3039 2550 1103 -1486 86 -2722 -2019 -945 -659 1204 1155 342 -3625 2261 537 -2095 -1059 2878 2539 1748 1917 -1357 -5671 3337 -199 1062 3867 1366 -2143 -3380 8382 771 -5282 -743 -1612 1331 2201 13 1449 -1406 3603 1070 1044 3443 -614 2625
-701 -3109 -2784 -390 3317 -5692 195 -1250 -550 2011 -435 -1222 1991 -1656 -588 814 -771 2506 1943 1062 -1104 2353 1272 4229 453 2148 2617 3428 169 -4799 4840 -3049 -3130 -2435 1563 118 4509 -3339 -922 -617 4418 -1627 3619 -1378 48 645 -1583 2071 -4096 1754 -2709 -3213 -1173 425 -3674 1772 4668 -1177 -1670 2668 2152 -3185 -1024 -3180
-2352 4582 -3454 1996 1057 2121 -2219 5872 -3323 1059 -1885 -3060 86 1494 -217 -1061 1034 -1549 -4184 1840 2790 1326 -2138 -478 -1249 -1319 -375 -1263 -193 -2300 -1538 -734 -1974 1989 -4891 1569 149 2244 6012 1426 166 734 -2586 1069 6 4528 1793 -2731 -935 -4013 -2599 -1366 -1765 4564 -2982 -1057 2753 -4580 -2560 -437 -1673 -1069 778 -2024
1917 -2749 -2141 1421 2758 731 1804 3207 -236 -2794 318 1151 1432 -415 1038 -43 -6215 3482 -1913 68 -1185 -1323 -4206 -679 -3364 -6027 1370 2954 -6298 9355 -1957 2539 2648 464 -4421 -2855 -942 -3094 -1 2728 -871 -1073 -3273 -957 157 -3628 176 7611 4496 -3433 1121 3545 4013 -3398 -3199 -3498 601 -1066 -563 4583 -813 1260 3678 -1267
1736 -1094 299 -487 512 -1583 158 -237 -630 -2236 3332 3851 1082 481 -2814 -3202 -2023 -717 -214 2057 -1096 445 3467 3085 -2692 -1775 2758 961 761 -1259 795 2669 217 -852 -1551 -586 765 -1937 113 -228 197 4677 -1063 -1779 2214 2343 1940 1130 -1971 1745 1956 1975 650 -1657 -5374 1644 3673 -4322 3177 1829 -3013 1282 4320 -710
-314 -504 -1989 171 -5490 85 -428 -5188 -3925 -3740 2796 4427 3836 -4361 3071 4516 -1791 1372 3032 -1414 -1076 255 6131 2336 -4489 71 -15 408 4322 2383 3053 -5786 -3547 1813 -781 -1496 608 -2975 -1213 1458 3824 -2341 -4155 -3066 1567 -1867 2202 -335 -4004 2378 4711 223 -547 -1962 -5157 1708 2050 2130 1104 6684 -164 -3822 1467 -2021
-3089 -2734 -1199 -1102 -551 -3030 -482 -3532 -2043 832 -3790 -793 138 2807 1700 2427 3431 -925 2367 1836 1181 391 -3042 -251 461 1291 3764 -1546 1816 2045 1663 3453 -2420 3263 1460 -603 -560 -683 7059 2803 1770 -2566 -130 -1850 2792 542 -1518 3598 -775 897 -392 -2697 2390 452 -884 -2471 294 1635 3248 -56 -1159 2223 -3483 -2394
-564 1288 1467 4147 -1346 1517 301 -2431 -3487 -4990 616 2547 -779 -1662 -816 3258 230 2233 102 1998 -741 -2862 -1776 327 -2908 -4713 1266 -372 -1803 -880 216 4511 3232 2271 1488 -3636 3343 -4608 -1164 -2083 -2812 -4586 41 -2510 4763 -1729 1216 4685 4217 1586 1136 -2904 4302 402 -269 -958 -67 -3234 494 -2618 -4191 3149 2540 660
-365 2293 -2847 831 -2557 -494 -940 1778 -4244 -904 2385 -783 -2437 -4815 1700 -2907 2934 -1403 -2135 -580 1677 2242 -1340 -191 -2558 -2169 1932 -5026 -3866 -2008 1478 3715 -435 2584 -3426 1387 -645 1709 -2213 -2176 2294 -6035 1233 187 521 -1434 1875 1384 -1205 1682 -20 -6445 2469 2308 4007 -1379 1510 -4087 1331 -3715 -1222 -1557 2195 947
973 627 1476 -4690 -966 -4200 324 -3298 892 2676 -1435 218 1300 1052 925 3947 2756 2504 2843 -1149 -3542 -3160 1031 -2117 704 4335 -2092 7303 5279 3239 1753 -5359 2665 -1195 -797 1163 3700 -3026 3055 1700 -2800 -1651 -1130 -2905 398 -3789 -3705 4509 740 -196 502 519 -699 -3019 -1608 1475 -1801 327 -3132 4359 -204 2863 -3847 753
-2161 -3620 1777 151 4558 109 3757 394 -1912 -5751 1883 3914 75 -426 13 -53 420 -3411 -4456 2827 140 -2030 92 -2314 638 -583 -682 -1761 -1256 144 -625 3625 4171 220 1570 -2910 -839 -58 4868 -1110 611 1011 -5658 2720 2752 -1676 -275 414 1212 -4321 854 -852 3530 1813 435 1510 -1900 699 3613 3129 -5470 1741 3024 294
3118 2182 3980 2370 -3101 1594 -2548 -2451 4864 2045 -7103 229 1167 202 -207 4290 -1504 390 963 -774 -947 -3539 -395 836 2259 813 -4611 1551 4219 -665 -92 1176 326 2347 2404 -980 -542 -1462 -3791 -3031 -3772 -237 -835 -5620 -1734 -4648 -2330 3576 940 1454 4355 -356 -1418 -2339 -2300 -7987 727 3642 -1765 125 5599 655 -1496 2340
-7925 3118 2486 -4494 541 -4188 -2609 -1100 -1738 -370 216 653 -2682 -399 -1099 2304 1720 -1530 1955 -1787 -1290 -1789 1836 -3228 4462 1299 524 -3601 4584 -5353 100 105 1515 -738 1686 72 -691 2125 1968 -2971 -1086 -5284 -2127 -3921 -1056 -882 -3065 -539 -1618 799 23 -7234 -1353 2569 -989 3670 -4641 2641 3566 1968 -3872 4159 -2783 -93
-2826 -6961 15577 -3111 4878 6595 1962 -5314 -3039 869 3730 -5298 -8739 -1159 -1524 -12010 8227 678 -5794 -2089 6499 774 -14133 10416 4948 8366 1999 15 -8468 3220 -8996 6700 -3506 -227 -4620 3516 -9276 3180 -13005 6238 -7538 -8693 7973 -3034 -5468 -114 3388 3675 8753 3670 -8031 3151 12063 -406 14266 -7844 4216 -8125 -805 -1581 3367 9712 -699 1090
2
64 10
-5449 -9866 119 3586 -2522 -7501 1630 3740 -1315 5831
6777 379 -2043 -11936 2716 1498 5189 -8637 -2288 2558
-8159 3984 4669 11654 -2951 -4863 -5987 -2481 3929 -4216
7764 -9514 -12186 3706 3636 1847 -3317 3017 2770 383
-3966 6211 -1636 -10027 1092 5205 6188 -5127 704 -3599
7438 -272 9735 -1709 -8323 -3011 -6172 -5605 2060 3061
-5009 8829 -1827 -2969 -4421 10773 3607 7450 -4772 -8885
895 6151 -3177 1186 7473 -1342 -1589 -5319 -9335 6704
1744 2957 575 -6225 -12519 4762 4203 -4828 -1116 6006
7441 2075 -3723 1841 -11828 -5502 4297 1993 -2105 -1755
-6525 -480 -3338 10091 6054 -10014 -2497 6622 -4738 -1171
-12939 -6156 3556 1382 2285 3773 1659 -17673 6513 1976
-1444 -2731 8021 4534 -3286 3125 -20068 1208 -1714 3530
-14508 6378 3341 -4733 7797 -7480 -9613 6156 -225 -703
5022 -5513 6458 -1344 -10567 770 7640 -19448 -1273 -8304
-7464 6737 4030 5857 -8576 3138 9154 7669 -5683 -18887
7297 -15476 5157 -6344 2290 -6499 8328 -3473 5532 -6312
3416 8100 4064 1179 -11945 -6237 -9851 -2966 4440 4926
6615 -9631 -97 -5323 6857 -9701 3544 -14741 2222 5144
1455 -12164 -23175 1504 2812 6563 3855 6200 2145 1539
-8969 2914 -566 -583 -80 14490 -4418 3352 -4328 -6559
2256 -5763 9068 -7365 6291 -2870 454 -12300 -605 739
-4925 8794 -3661 7429 -8206 9345 -14055 2002 -13105 -4058
1880 -8323 -2677 7203 2736 -8491 10549 -1388 500 -7406
5018 -8014 -3211 1910 -11248 -3158 -9758 6942 927 8614
7963 -5550 3505 6468 -22064 -3154 2503 -12912 6283 -6831
-4519 -10007 985 -939 4826 9624 -3674 3861 -7743 -6139
-775 -4665 4598 -496 -24232 2396 -10008 3956 7968 5757
3944 8250 3621 4879 -4076 -791 -593 4108 -7212 -15805
-16825 2735 -3179 490 -6403 1452 1605 -1382 6965 6012
-11961 -13890 -5173 4194 3515 1939 -19324 5722 -2677 4868
-5161 3291 -6419 -9821 8085 -6463 4461 -1067 10047 -8182
3465 -3769 -18323 6036 1933 2417 -2344 -2909 707 -985
-9019 -7088 4610 6348 -296 -11984 -2295 4132 8991 -8026
2222 -9879 -8891 7135 -7079 631 -6614 -4561 8891 3057
6407 -3024 3488 -1415 -6379 1297 -6917 531 8534 -11961
-6340 5415 2223 6569 1051 -14670 5963 931 -3624 6423
9962 3191 -1831 -5405 -13890 1468 -682 2690 4158 -6705
-4159 7274 -2282 2550 6200 280 -11381 2945 -10751 -104
-7354 -6217 -1090 -2057 -901 6780 -13748 6435 6921 3889
3039 6865 5481 5777 3614 -783 -7747 9278 -12837 -9463
875 -21 1023 -5964 8117 -19554 -511 2847 1741 3061
1114 -3207 6617 -2528 -4716 6021 1840 -12313 -1942 -7557
3600 -2108 -10066 -10334 1277 2908 4178 -4507 -9225 8439
-8096 4616 6316 -8635 695 -4145 4598 3491 -1026 -4538
-4097 5507 -1504 -13463 1930 271 3601 7747 3883 -536
-2453 6822 -2577 2365 6018 -2232 4377 -3228 1017 -15824
-898 2993 -5503 3858 3551 2453 -4301 -6958 -7938 9828
-2275 -6120 -5334 -4916 -5116 546 3737 6166 -575 5517
6014 -4141 5703 -313 720 3799 -8638 -9048 -92 -200
-11690 5624 -3782 1024 2522 4552 4407 -7137 171 5078
-4996 -14193 7649 -113 851 -8866 -2600 5336 9270 4728
45 3679 -889 6041 -3710 -8418 -8238 6496 8479 -2930
51 -11104 7894 984 -7947 5237 3639 4923 -7439 -346
4762 -5651 -6688 -208 3383 -5866 -444 -8709 9258 5561
1220 10336 -6648 -6722 2248 -2522 2244 7415 -6930 -8745
4330 -15835 1114 -12357 3196 7891 -4470 1045 3719 -158
-7055 5998 440 -3590 -5237 -5909 6947 -10811 -4827 10926
-17618 -4548 6292 6205 3499 1589 -3093 -2025 -1146 3294
-770 9858 -8041 -3177 2945 5504 -8 -5692 -5731 -346
4103 -1889 -4630 -3028 -6307 11355 7688 -6417 -4124 -4041
1736 9341 4221 5291 -3111 -3084 -19487 6480 -7632 467
6391 -17015 7314 -5362 6942 -4294 -495 5155 -16123 8027
-196 -9141 -1643 860 2185 3630 -1298 -15572 4639 -4611
1047 229 693 -678 -598 372 243 -697 1 -157
0
