3
23 25
-0.0 -0.0 0.0 -0.41182578 0.0 0.0 0.0 0.44341552 0.47374377 -0.5729442 -0.0 0.45805326 0.0 -0.519025 0.5009375 0.0 -0.0 -0.44919202 0.47324345 -0.0 0.44398245 -0.4141412 -0.0 0.48614407 0.38901934
-0.0 0.0 -0.0 0.0 0.0 0.47123128 -0.0 -0.0 -0.0 -0.0 0.0 -0.0 -0.5133168 0.0 -0.0 -0.50430006 -0.0 0.0 -0.0 0.55091757 -0.0 0.0 -0.0 0.0 0.0
-0.0 0.0 0.0 0.0 0.0 0.0 -0.0 -0.0 0.4676975 -0.49921867 0.0 0.41545135 0.3962158 -0.55196744 0.48086518 0.0 -0.0 0.0 0.48074475 -0.45966852 0.43909138 -0.0 0.0 0.0 0.0
-0.0 0.45284855 -0.6794906 -0.47117442 0.42253944 0.5224543 -0.0 0.62968355 0.0 -0.0 -0.0 0.0 0.0 -0.0 0.0 0.5622378 -0.4548823 -0.0 0.0 -0.0 -0.0 -0.49297747 -0.5482118 0.0 0.476597
0.49459356 -0.5032918 0.0 0.0 -0.0 -0.0 -0.0 0.0 0.0 -0.0 -0.0 0.0 0.0 0.0 0.0 0.0 -0.0 0.0 0.0 -0.0 0.0 -0.0 0.0 0.0 0.0
0.0 0.41961616 -0.0 -0.0 -0.0 0.5523017 -0.49457806 0.0 -0.0 0.0 0.5653546 -0.0 -0.0 0.0 -0.0 0.0 -0.0 -0.0 -0.0 -0.0 -0.0 -0.0 -0.0 0.0 0.0
0.0 -0.0 -0.5925509 -0.0 -0.0 -0.0 -0.0 0.0 0.0 -0.0 -0.0 -0.0 0.0 -0.0 0.0 -0.0 0.4660127 -0.0 0.0 -0.0 -0.0 -0.0 -0.47122815 -0.0 0.0
0.0 -0.0 0.0 0.0 -0.48964906 -0.0 0.0 -0.0 0.0 -0.0 0.0 0.0 -0.0 -0.4960834 0.0 -0.0 0.0 0.41895115 0.45564067 0.0 0.0 -0.4746471 0.0 -0.0 -0.0
-0.0 0.0 0.0 0.0 0.0 0.0 -0.0 -0.0 0.0 0.0 0.4301123 0.0 0.0 -0.0 0.0 -0.0 -0.37628302 0.0 0.0 0.0 0.0 0.0 -0.0 -0.0 0.0
-0.0 0.0 -0.0 0.0 0.0 -0.0 0.0 0.0 0.0 -0.0 0.0 0.0 0.0 -0.0 0.0 -0.0 0.0 0.0 0.0 -0.0 0.0 0.0 0.0 -0.0 0.0
-0.0 -0.0 0.0 0.0 -0.0 -0.0 0.0 -0.0 -0.0 0.0 -0.0 0.0 -0.0 0.0 -0.0 0.0 -0.0 -0.0 -0.0 -0.0 0.0 -0.0 -0.0 -0.0 -0.0
-0.0 -0.0 -0.0 0.0 0.0 -0.0 -0.5676695 -0.0 -0.0 0.0 0.0 -0.0 0.0 0.0 -0.0 0.0 0.0 -0.0 -0.0 0.0 -0.0 0.0 -0.0 -0.0 -0.0
-0.0 -0.0 -0.5256114 0.0 -0.0 -0.0 -0.0 0.0 -0.0 0.0 0.0 -0.0 -0.0 0.0 -0.0 0.0 0.5136738 0.5670118 -0.0 0.0 -0.0 0.0 -0.0 0.0 -0.0
0.0 -0.0 -0.0 0.0 -0.0 -0.0 -0.0 -0.0 -0.0 0.0 -0.66732764 -0.0 0.0 0.0 -0.0 0.0 0.0 0.0 -0.0 -0.0 -0.0 0.0 0.0 -0.0 -0.0
-0.0 -0.0 -0.714903 -0.0 -0.0 -0.0 -0.0 0.0 0.0 0.0 0.0 0.0 0.0 0.0 0.0 0.0 -0.0 -0.0 0.0 0.0 0.0 0.0 0.0 -0.0 0.0
-0.0 0.0 0.0 -0.0 0.0 0.0 -0.5212619 -0.0 0.0 -0.0 0.0 0.0 0.0 -0.0 0.0 0.0 -0.0 0.0 0.0 -0.0 0.0 -0.0 -0.53608227 0.0 0.0
-0.0 -0.0 -0.0 0.0 0.0 -0.0 -0.0 0.0 -0.0 0.0 0.0 0.0 0.0 0.0 -0.41816714 -0.0 -0.0 -0.0 0.0 -0.0 0.0 0.0 -0.0 0.0 -0.0
0.44634634 -0.0 -0.0 0.0 0.0 -0.0 0.0 -0.0 -0.0 0.0 0.0 -0.0 -0.0 0.0 -0.0 -0.0 0.0 0.0 -0.0 0.0 -0.0 0.0 -0.0 -0.0 -0.0
-0.0 0.0 0.0 -0.0 -0.0 0.0 -0.0 -0.0 -0.0 -0.0 0.4162315 -0.0 0.0 0.0 -0.0 -0.0 0.0 0.0 0.0 -0.0 0.4185516 -0.0 0.0 0.0 0.0
0.0 0.0 0.0 0.0 -0.0 0.0 0.0 -0.0 0.0 -0.0 0.0 0.0 -0.0 -0.0 0.0 -0.0 0.0 0.0 -0.54231936 0.0 -0.50412303 0.0 0.0 0.0 0.0
0.0 -0.0 0.0 0.0 0.0 -0.0 0.0 -0.0 0.47708756 -0.0 -0.0 0.44562006 0.0 -0.0 0.0 -0.0 0.0 0.0 0.0 -0.0 0.48538813 0.0 0.0 -0.0 -0.0
-0.63171023 -0.0 0.0 0.0 -0.0 -0.0 0.0 -0.0 0.0 0.0 -0.0 0.0 0.0 0.0 0.0 0.0 0.0 -0.0 -0.0 -0.0 -0.0 -0.0 0.0 -0.0 -0.0
0.0 0.0 0.0 0.0 -0.0 0.0 -0.0 -0.0 -0.0 0.0 0.0 -0.0 -0.0 0.0 -0.0 -0.0 -0.0 0.0 -0.0 -0.0 0.0 0.0 0.0 0.40322974 -0.0
-0.27509975 0.1780975 -0.082050726 -0.11505605 0.07080421 0.09371372 -0.26212263 -0.09767466 0.27134204 -0.11762585 0.014408324 0.34726188 0.044776533 -0.3964419 0.101375274 -0.030905025 -0.019199593 -0.46812412 0.11272338 -0.0128480205 0.030961744 -0.011002027 0.40228707 0.37924194 0.00044514996
2
25 43
0.0 -0.53463733 -0.0 0.0 0.0 -0.4350387 -0.0 -0.0 -0.0 -0.40909144 -0.0 -0.48571348 0.0 -0.0 0.0 -0.0 0.0 -0.0 -0.0 -0.3589596 -0.0 -0.0 -0.0 -0.0 -0.44767046 0.0 -0.38930655 0.0 -0.0 0.6453259 0.0 -0.0 -0.31692567 0.0 0.0 -0.0 -0.0 0.0 -0.0 0.0 -0.0 0.0 0.0
0.0 0.0 0.6011105 0.0 -0.0 -0.0 0.0 -0.0 0.0 0.0 -0.0 -0.0 -0.0 -0.0 -0.0 0.0 -0.3676127 0.40893832 -0.0 0.0 0.0 -0.0 -0.44162518 0.34937543 -0.0 0.0 0.0 0.0 0.0 -0.0 -0.0 -0.0 -0.0 0.0 -0.0 0.0 0.0 -0.0 -0.0 -0.0 -0.0 0.0 -0.0
0.0 -0.83361083 -0.0 0.0 0.0 0.0 0.0 -0.48283604 -0.0 0.0 -0.0 -0.0 -0.0 -0.0 -0.0 -0.0 0.5171519 -0.0 0.60370827 -0.0 -0.0 -0.0 -0.0 -0.0 0.0 0.0 -0.35323077 0.0 -0.46200278 0.55280554 0.0 0.0 0.0 0.0 0.6781279 -0.0 -0.0 0.6055344 -0.0 0.0 0.0 -0.5493687 0.60682696
0.49955985 0.0 0.0 -0.0 -0.0 0.5351518 0.0 0.46747127 0.5003534 -0.3653688 0.57228285 -0.0 -0.0 -0.0 -0.0 -0.0 -0.0 -0.0 -0.0 -0.0 0.0 0.3244992 0.60003763 -0.0 0.0 0.0 0.0 0.0 -0.0 -0.0 0.0 0.33365282 -0.0 -0.0 -0.0 -0.0 -0.0 -0.0 0.0 0.0 0.0 -0.0 -0.0
0.0 0.33385193 0.0 0.0 0.0 -0.0 0.0 -0.0 0.0 0.0 -0.0 -0.0 -0.0 -0.0 0.0 0.32135797 -0.0 0.38117546 -0.0 -0.0 0.0 -0.0 -0.0 -0.0 0.31633022 0.0 0.0 0.3915375 0.0 -0.0 -0.0 -0.0 -0.0 0.6107402 -0.0 0.0 0.36957988 -0.0 -0.0 -0.0 -0.0 0.0 -0.47983763
0.0 0.0 0.0 0.0 -0.0 -0.0 0.0 -0.0 0.0 0.0 -0.0 -0.0 0.0 -0.0 0.0 0.0 -0.0 0.3973002 0.33812568 0.0 0.0 -0.6354801 -0.0 -0.0 0.0 -0.0 0.0 -0.0 0.0 -0.0 -0.0 -0.0 -0.0 0.0 -0.0 0.0 0.0 -0.0 0.0 -0.0 -0.0 0.0 -0.0
0.0 -0.0 -0.0 0.0 0.0 0.0 0.0 -0.0 0.0 0.0 -0.0 -0.0 -0.0 -0.0 -0.0 -0.0 0.3156276 -0.0 0.0 -0.0 0.0 0.0 0.0 -0.0 0.0 0.0 -0.0 0.0 0.0 0.0 0.6595047 -0.0 0.0 0.0 0.0 -0.0 0.0 0.0 -0.0 0.0 0.0 -0.0 0.0
-0.40026215 -0.0 -0.0 0.0 0.0 -0.0 0.0 -0.62230414 0.0 0.44946745 -0.0 0.46238187 -0.0 0.38982958 -0.0 0.0 0.0 0.46685383 0.47379574 0.36996385 0.0 -0.0 -0.0 -0.43660456 0.6264346 0.0 -0.0 0.0 -0.52217335 -0.0 0.40896666 -0.0 0.0 0.0 -0.0 0.0 0.0 -0.0 -0.0 0.0 -0.0 0.0 -0.0
0.0 -0.0 -0.0 0.0 -0.37165877 -0.0 -0.45870903 -0.63509715 -0.47581455 0.5097558 -0.6404312 0.5995516 -0.0 -0.0 -0.0 -0.0 0.0 -0.0 0.0 0.0 0.0 -0.0 -0.0 -0.31405514 0.59637356 0.0 -0.0 0.0 -0.54576874 0.0 0.0 -0.0 0.0 0.0 0.0 0.0 0.0 -0.0 -0.0 0.0 -0.0 0.0 -0.0
0.0 0.0 0.0 0.0 0.0 0.0 0.0 0.57878065 0.605944 -0.39655 0.5645525 -0.3765223 -0.60271347 -0.0 -0.0 0.0 0.0 -0.0 -0.0 -0.0 0.0 0.0 0.65653455 -0.0 0.0 0.0 0.0 0.0 0.0 0.0 -0.0 -0.0 -0.0 0.0 -0.0 -0.0 0.0 -0.0 -0.0 -0.0 -0.0 0.0 0.0
0.0 0.0 0.0 -0.35993198 -0.0 -0.0 -0.0 -0.0 -0.0 0.0 -0.0 -0.0 0.0 -0.0 0.0 -0.0 0.0 -0.0 -0.0 0.0 0.0 -0.0 -0.0 0.59739906 0.0 -0.72765976 0.0 0.0 -0.0 -0.0 0.0 0.0 0.0 0.0 -0.0 0.0 -0.0 -0.0 0.0 -0.0 -0.0 0.0 -0.0
0.0 -0.0 -0.0 0.0 -0.0 -0.0 0.0 -0.65209746 -0.0 0.0 -0.0 0.5842332 -0.0 -0.0 -0.0 -0.0 0.0 -0.0 0.439912 0.634925 0.0 -0.0 -0.0 -0.3155969 0.6001023 0.0 -0.0 0.0 0.0 0.0 0.36916742 -0.0 0.0 0.0 -0.0 0.0 0.0 -0.0 -0.0 0.0 -0.52537763 0.0 -0.0
0.0 -0.0 -0.0 0.0 0.0 0.0 0.0 -0.0 -0.0 0.0 -0.6335894 0.0 -0.0 -0.0 -0.0 -0.0 0.0 -0.0 -0.0 -0.0 0.0 -0.0 0.0 -0.37948984 -0.0 0.0 -0.0 -0.0 -0.0 0.0 -0.0 -0.0 -0.0 -0.0 0.0 0.4672317 -0.0 0.0 -0.0 -0.0 -0.0 0.4151804 0.0
0.44184425 0.0 0.0 0.0 0.0 0.0 0.0 0.630706 0.5951006 -0.0 -0.0 -0.0 -0.5818695 -0.0 -0.0 -0.0 0.0 -0.0 -0.0 -0.0 0.0 -0.0 0.7191214 -0.0 0.0 0.0 0.40475744 0.0 0.3743987 0.0 -0.0 -0.0 -0.0 0.0 -0.0 -0.0 -0.0 -0.0 -0.0 -0.0 0.36816174 0.0 0.0
0.0 -0.0 -0.0 0.60090095 -0.38246962 -0.0 0.0 -0.60155404 -0.0 0.43692976 -0.0 0.0 0.0 -0.0 -0.0 -0.0 -0.0 -0.0 0.0 0.0 0.0 -0.0 -0.0 -0.0 0.56775606 0.0 -0.0 0.0 -0.49808344 -0.0 0.42088524 -0.0 0.0 0.0 0.40057263 0.0 0.0 -0.0 -0.34959835 0.0 -0.5412103 0.0 -0.0
0.0 0.5221392 -0.0 0.0 0.0 0.0 0.0 -0.0 0.0 0.0 -0.6420436 -0.0 -0.0 -0.0 -0.0 0.0 0.0 -0.0 -0.0 0.0 0.0 0.0 0.0 -0.0 0.0 0.0 -0.0 0.0 0.42301983 -0.33323106 -0.0 -0.0 0.0 0.0 -0.52092314 -0.0 0.0 -0.0 -0.0 -0.0 -0.0 0.0 0.0
0.0 0.0 -0.0 -0.0 0.0 0.64569056 0.0 0.44590315 0.0 -0.0 0.43971586 0.0 -0.0 -0.0 -0.44532806 -0.0 -0.0 -0.0 -0.34716037 0.0 0.0 0.0 0.0 -0.0 -0.0 0.0 -0.0 0.47689897 0.39593896 -0.0 -0.0 0.0 -0.0 -0.0 0.0 0.0 -0.0 -0.0 -0.0 0.0 0.0 0.0 -0.0
0.0 0.0 0.7957817 -0.0 0.0 0.0 0.0 -0.0 0.45518586 0.0 0.0 -0.0 -0.0 -0.0 -0.0 -0.33348656 0.0 -0.44136715 0.0 -0.39765224 0.0 -0.0 0.0 0.5657401 0.0 -0.49877664 0.0 0.0 -0.0 0.0 -0.0 0.58872813 -0.0 -0.0 0.0 -0.0 -0.0 0.0 0.709399 0.0 0.43941617 -0.0 0.0
-0.0 0.0 -0.0 0.61823124 -0.2869869 -0.0 -0.5062871 -0.0 0.0 0.0 -0.0 0.5960764 -0.0 -0.0 -0.0 0.0 -0.0 0.0 0.0 0.0 0.0 -0.0 -0.0 -0.0 0.5854458 0.0 -0.0 0.0 -0.6192842 -0.0 0.0 -0.0 -0.0 0.0 0.0 0.0 0.0 0.0 -0.0 0.0 -0.0 0.0 -0.0
0.0 -0.0 0.0 -0.4316817 -0.0 -0.0 0.0 -0.0 0.0 0.0 0.5771731 -0.0 0.0 0.0 0.0 0.0 -0.0 0.0 0.0 0.0 -0.48390535 0.0 -0.0 0.37465838 0.0 0.0 0.0 0.0 0.0 -0.0 0.0 -0.0 0.0 0.0 -0.0 -0.3877051 0.0 -0.0 0.0 0.60938495 0.4889183 0.0 -0.0
0.0 0.0 -0.0 0.45770136 0.0 -0.0 -0.49747342 -0.0 -0.42782685 0.43974477 -0.0 0.0 -0.0 -0.0 -0.0 -0.0 -0.0 -0.0 0.5757217 0.48704118 0.0 -0.0 -0.54033387 -0.31814957 0.0 0.0 -0.0 0.0 -0.70607406 -0.0 0.0 -0.0 0.0 0.0 0.40460762 0.0 -0.34622425 0.5086434 -0.0 0.0 -0.0 0.0 0.33491087
0.60556024 0.0 0.0 -0.0 -0.0 0.47861132 0.0 0.5679534 0.0 0.0 0.5038628 -0.0 -0.0 -0.0 -0.0 -0.0 -0.0 -0.0 -0.35006174 -0.0 0.0 0.35238835 0.0 -0.0 0.0 0.0 0.0 0.0 0.0 -0.0 0.0 -0.0 0.0 0.0 -0.0 -0.0 -0.0 -0.0 0.0 0.0 0.0 0.0 -0.0
0.0 -0.52699274 -0.0 -0.0 -0.0 -0.0 0.0 0.0 -0.0 0.0 0.0 -0.0 -0.0 -0.0 -0.0 -0.0 0.4830561 0.0 0.0 -0.0 -0.0 0.0 0.0 -0.0 0.0 0.0 0.0 0.0 -0.0 0.51784337 0.0 -0.0 -0.0 0.0 0.53564227 -0.0 0.0 0.6402204 -0.0 0.0 0.0 -0.0 0.60413265
-0.5478498 0.0 -0.0 0.0 0.0 -0.69632304 0.0 0.0 0.0 -0.0 -0.0 0.0 0.6019627 -0.0 -0.0 0.0 -0.0 0.0 0.5385878 0.0 0.0 -0.5503003 -0.59203607 -0.0 0.0 0.0 -0.0 0.0 0.0 -0.0 0.0 -0.0 -0.0 0.0 0.0 0.0 0.0 0.30431306 -0.0 0.0 -0.0 0.0 -0.0
0.0 -0.0 -0.0 0.0 0.0 -0.0 0.0 -0.5570837 0.0 0.0 -0.6595882 0.0 -0.0 -0.0 -0.0 0.0 -0.0 0.0 -0.0 0.0 0.0 -0.34558877 -0.7277319 -0.0 0.0 0.0 -0.0 0.0 -0.3355268 -0.0 -0.0 -0.39772847 0.0 0.0 -0.0 0.39213654 0.0 -0.0 -0.0 0.0 -0.0 0.0 -0.0
0.0043763407 0.016674621 0.0046691815 -0.010398857 0.005498042 -0.00061317976 0.05128057 -0.00072104495 -0.03023708 -0.031528205 -0.0043560322 -0.027682588 0.031369038 -0.012529177 -0.0004409588 -0.037973356 0.0063401638 -0.0024758298 -0.029537704 -0.02853744 -0.00078054314 0.014172776 -0.046505902 -0.0056169876 -0.009666847 0.022706384 -0.029170457 0.025734106 -0.006543174 0.029217098 0.0017592912 0.0030658252 -0.0024884578 0.0038102365 -0.00828439 -0.018102814 -0.0027923572 0.0011094486 0.03342705 0.086129434 0.03865258 0.020305024 0.007042441
2
43 10
-0.7837066 0.0 -0.0 -0.0 -0.0 0.0 0.0 -0.50213367 -0.0 0.0
-0.0 0.0 -0.0 -0.0 0.7894849 0.0 0.56414384 -0.0 -0.63811624 -0.7033994
-0.6207374 0.0 0.564261 -0.0 -0.0 -0.8257445 0.0 -0.0 0.0 0.0
0.0 0.0 -0.0 0.0 -0.7033463 0.0 0.51514256 -0.6852929 -0.0 -0.0
-0.0 0.0 0.0 -0.0 -0.703258 0.0 0.0 0.5064612 -0.0 0.0
-0.84818226 0.0 -0.63320714 0.4654611 0.0 0.0 0.0 -0.6089451 0.0 0.0
-0.7545664 0.0 0.0 -0.55587626 -0.0 0.0 0.0 -0.0 -0.0 0.0
-0.8676414 0.5455931 -0.7039134 -0.0 0.0 0.0 -0.7354972 0.0 -0.0 0.0
-0.7163177 0.0 -0.60959685 -0.0 -0.0 0.0 0.49699476 -0.0 -0.0 0.0
-0.0 -0.71291935 -0.0 -0.0 -0.0 0.0 0.0 -0.67466944 -0.0 0.0
-0.6598317 -0.5560322 -0.711628 -0.0 0.51647776 0.0 -0.74258703 0.49645048 0.0 0.0
-0.0 -0.6496173 0.0 -0.0 -0.0 0.0 0.0 -0.49892384 -0.0 -0.8136692
0.6384166 -0.0 0.57821614 -0.0 -0.0 -0.7601403 0.0 0.0 -0.0 -0.0
-0.0 -0.9531584 0.0 -0.0 -0.0 -0.789109 0.0 -0.0 0.0 0.0
-0.0 0.0 0.5216434 -0.0 -0.5054299 -0.72413063 0.0 0.0 0.0 -0.0
-0.0 0.0 -0.5626513 -0.70856947 -0.0 0.0 0.0 -0.0 -0.0 0.0
0.0 0.0 -0.0 0.0 -0.6800593 0.0 -0.72679275 -0.0 -0.0 0.0
-0.0 -0.69877166 0.0 -0.76599246 -0.0 0.0 0.0 -0.0 -0.0 0.0
-0.0 -0.7789055 -0.0 -0.0 -0.0 0.0 0.0 -0.0 -0.0 0.0
-0.0 0.0 -0.0 -0.0 -0.0 0.0 0.0 -0.77125585 -0.0 -0.7719159
-0.7671229 0.0 -0.0 0.0 -0.55329186 0.0 0.0 0.0 -0.0 -0.56748265
-0.0 0.0 -0.7210063 -0.0 0.0 0.0 0.0 -0.6138668 -0.0 0.0
-0.7762997 0.544022 -0.55556446 0.0 -0.0 0.0 -0.6011683 0.0 -0.0 0.0
-0.0 -0.0 0.0 -0.0 0.0 -0.779055 -0.58688545 0.47200075 -0.0 0.0
-0.0 -0.7500855 -0.0 -0.0 -0.0 0.0 0.0 -0.6857563 -0.0 0.0
-0.0 0.0 -0.0 -0.0 -0.0 0.7322348 -0.0 -0.0 -0.5679609 0.0
-0.7921157 0.0 -0.0 -0.0 -0.0 -0.58188987 0.0 -0.47815827 0.0 -0.0
-0.0 -0.0 -0.51709235 -0.0 -0.0 0.0 0.0 -0.7103269 -0.0 0.48510736
-0.8150575 0.6158875 -0.53197163 -0.8017028 0.0 0.0 0.0 -0.58512706 -0.0 -0.0
0.0 -0.0 -0.0 0.0 -0.6441299 0.0 -0.8454749 -0.0 -0.0 0.0
0.47133848 0.0 0.0 -0.0 -0.0 0.0 0.0 -0.0 -0.78299505 0.5280381
-0.0 0.47766066 -0.0 0.5825002 0.0 -0.83930486 0.0 0.508322 -0.64444566 0.0
-0.0 0.0 -0.0 -0.0 -0.0 0.0 0.0 -0.7571124 0.0 0.0
-0.0 0.0 0.0 -0.7393623 -0.0 0.0 0.0 -0.6060961 -0.0 -0.0
0.0 -0.7570362 -0.0 0.0 -0.7838156 0.0 -0.7263935 0.4896011 -0.0 0.0
-0.0 0.0 -0.0 -0.0 -0.0 0.0 0.0 -0.6106996 -0.0 -0.821645
-0.0 0.0 -0.46696284 -0.71215004 -0.0 0.0 0.0 -0.0 0.0 0.0
-0.0 -0.54774064 0.0 0.0 -0.49944836 0.0 -0.763616 -0.0 -0.0 0.0
-0.5753534 0.0 0.0 -0.0 0.4940897 -0.7439643 0.0 0.0 -0.6426381 0.0
-0.0 -0.88171405 -0.5364116 -0.0 -0.0 0.0 0.0 -0.0 -0.0 0.0
-0.8309857 -0.67332757 -0.46637195 -0.0 0.68604714 -0.0 0.0 -0.0 -0.5706486 0.0
-0.0 0.6217972 -0.0 -0.0 -0.0 0.0 0.7828007 -0.0 0.0 -0.67689204
0.0 0.0 -0.0 0.0 -0.6891876 0.0 -0.7821723 -0.0 -0.0 0.0
0.0008634012 -0.028246578 0.06633505 -0.0030332531 0.03731679 -0.04957197 0.04006759 -0.02766664 0.0030132283 0.008663196
0
