3
23 300
-0.34075248 0.013244916 0.4749043 0.022739453 0.028653061 -0.06869489 0.20694835 0.22316684 0.28654546 -0.3735423 -0.5094479 0.5787985 0.46470484 0.13880226 -0.28043947 -0.037391208 -0.016573198 0.051836662 0.2898088 0.15081194 0.41990077 -0.32638252 -0.06150959 -0.021963272 0.44601414 0.07433324 0.09122037 -0.43190765 -0.122581825 0.031201826 0.025425423 0.4053495 0.06940069 0.7242504 0.088620245 0.043020617 0.086710244 -0.2946679 0.054481447 0.16168126 -0.12746824 0.285134 0.092558354 0.18631653 0.12219801 -0.19952363 0.25771612 -0.068234 0.30301052 0.11995999 0.030184753 -0.29148978 0.30032292 -0.0027403366 0.064305685 0.033713937 0.18009363 0.18038863 0.21355581 -0.36507 0.09419519 0.16780843 0.66559726 -0.3639979 -0.08074747 -0.0722758 0.654191 -0.07406219 0.07579731 0.2562925 0.3302163 0.2097148 -0.37415978 -0.24643646 0.40303123 -0.054551553 -0.05895095 -0.11564614 -0.2877248 0.06451227 -0.05187267 -0.24788289 -0.13330923 0.31808224 0.086893566 0.1285119 -0.44482863 0.060748495 -0.2150134 -0.05404589 0.07810205 0.13218178 0.33829162 0.23618914 -0.119752906 -0.020767737 -0.13889183 -0.038480885 -0.6170261 -0.13122566 0.11112258 -0.13809913 0.13742715 0.17779118 0.31182256 -0.07868907 0.06998604 -0.07594543 0.37947816 0.10908528 0.21666507 0.45841444 0.14714748 -0.10440202 0.32900465 0.15826799 0.12669158 -0.21420178 -0.008456904 -0.2415274 0.322791 -0.38159472 0.009136178 0.045959555 0.11186427 0.08303627 -0.23515163 0.11597057 -0.05135815 0.2670494 -0.09623541 -0.3200345 -0.19900016 0.013563994 -0.31059247 -0.18823928 0.40555125 0.08485842 0.030084206 -0.39912271 0.020528523 0.1182714 -0.18088819 0.31355137 0.12666324 0.18052152 0.361748 -0.59889203 0.2955453 -0.14865693 0.18106917 0.26104814 -0.23355179 -0.014345457 -0.017964939 -0.14292555 0.46501943 -0.14989798 -0.00051745237 0.19092603 0.033822205 0.14332524 0.2775704 0.19566277 0.20081243 -0.015924247 -0.17569767 0.14417885 0.11204162 -0.20857291 0.074708216 -0.062296506 0.22258596 0.5478588 0.3920662 0.18803693 -0.120371506 0.2576945 0.008945652 0.012819649 -0.1495252 -0.45444497 -0.23859426 -0.15930198 0.055974904 -0.4708542 0.200321 -0.11674889 -0.038727522 0.047521994 -0.08933431 0.53792787 -0.22125895 -0.6804669 0.5057617 0.114249974 0.13360685 0.31405112 0.4591038 -0.16007194 0.27472293 0.084117346 -0.37489757 -0.015320459 0.07458381 -0.28286785 0.043166988 -0.16546236 0.043367464 -0.28660724 0.4614704 -0.059051 -0.072764166 -0.19463022 -0.061157793 -0.31436974 0.40961748 0.267729 0.08245187 0.04702651 0.30349082 -0.060645767 -0.16863738 -0.30478308 0.12660487 -0.24521542 0.24908291 0.13666505 -0.17495894 -0.23564196 -0.17734814 0.6507678 -0.15318549 0.19152261 0.29994714 -0.42961398 0.11633582 -0.40905085 -0.14725597 -0.383994 -0.33532405 -0.04791709 -0.22194612 0.2527788 0.17774694 -0.16245799 -0.18099481 -0.032841712 -0.10525941 -0.056012582 0.19934927 -0.32676405 0.114245996 -0.0830321 0.0776823 0.20594203 0.7067391 0.24052283 0.42110837 -0.215585 0.3051355 0.3966797 0.041634917 0.05900076 -0.29807243 -0.20151086 -0.264058 0.40144566 0.06812168 0.28130156 0.18042858 -0.2911447 -0.015357182 0.30562595 -0.12272199 -0.39982632 -0.21853293 -0.07888306 0.028509183 -0.32471693 0.10781633 -0.3962988 0.18199427 0.019128548 -0.3096559 0.08087978 0.44497865 0.191394 0.30316505 -0.3965939 0.32810456 -0.02464118 0.21430895 0.17216377 0.24558489 0.32539135 0.05050108 0.1546011 -0.22149251 -0.5015055
-0.14120124 -0.103108175 0.09683054 -0.04979428 -0.34991556 -0.14086756 0.18383537 -0.19400692 -0.0075346897 -0.07896406 0.36843735 0.2707191 -0.27640304 -0.15584208 -0.61845547 0.051616617 -0.16689216 -0.24778418 -0.15276897 0.005100085 0.09002268 0.11374259 0.12878007 -0.2671403 -0.08824648 0.2523167 -0.3312056 -0.3708806 0.3335509 -0.266556 0.014033242 0.16637881 0.24661036 0.41599613 0.22588773 0.27652293 -0.11311388 -0.209731 -0.1318128 -0.3849148 0.1128303 0.32565862 -0.06917446 0.033058546 -0.51840764 -0.0941515 0.14512491 0.009460549 0.40687174 -0.20083976 -0.2904868 0.40831405 0.107954584 -0.11710186 0.067787744 -0.43279424 -0.19226223 -0.117175 0.079019696 0.06626772 0.010690113 0.08767756 0.59245944 -0.06416819 0.03560583 0.36809555 -0.1728584 -0.11100819 -0.4147312 -0.6247873 -0.3631566 0.13752806 0.35973325 0.3063216 -0.2910975 -0.058795385 -0.14196269 0.114322856 0.045928597 0.030008215 0.11986473 -0.32169524 -0.28121334 -0.125422 0.090511784 0.10531261 0.26292405 0.25833094 0.19153778 -0.05474298 -0.025992323 -0.22737917 -0.09682139 -0.43982664 -0.04078754 0.28421092 -0.25630853 0.512903 0.36386165 0.35540003 -0.15281658 -0.22548734 0.3468687 0.10507955 0.5607765 0.03244755 0.046999365 0.14874136 -0.132406 0.040561266 -0.27020955 -0.62528145 -0.14746486 0.11203101 -0.31987467 0.25175127 -0.27684698 0.30907643 -0.39005673 -0.21005045 0.24725214 0.3436591 -0.044653907 -0.3128728 0.06367683 0.07987911 -0.51807535 -0.09666082 0.06648332 0.26544058 0.04468675 0.116143614 -0.10932039 0.481422 -0.103042826 -0.11895942 0.56376594 0.42611194 -0.3008539 0.05060096 0.1725449 -0.15671875 0.28901234 -0.130642 -0.046134286 -0.3140512 -0.40583563 -0.17072776 -0.15245557 0.19782141 -0.67100483 0.13769612 0.068183 -0.05374502 0.6354197 0.2876783 0.14157322 -0.09809363 0.019846125 -0.013279639 -0.15030864 -0.0810048 -0.14628574 -0.23344247 0.048221808 0.4635561 -0.4512891 -0.15359183 -0.20442364 -0.0036769535 0.35940474 -0.22789097 0.05413558 -0.097867474 0.0745049 0.062099017 0.01767207 -0.06414653 0.11464182 -0.018572956 -0.13536662 -0.08962284 0.5285856 0.018067438 0.26382893 0.29260367 0.07677513 -0.2379626 0.036096994 0.32718554 -0.16506152 -0.25207198 0.08418637 0.3991517 0.24888937 0.38214442 0.38293257 -0.50260574 0.021002678 0.0038770863 -0.35516497 0.2871721 0.12994105 -0.21732903 0.008859334 -0.3806169 0.13671975 -0.05108747 -0.24447386 -0.2238352 -0.17009048 0.24241526 0.18893586 -0.048301402 -0.045604963 -0.20352177 0.16680957 0.33471817 -0.4350066 -0.15643382 -0.39951152 -0.03148812 0.06882527 0.33620796 -0.31938723 0.12878239 0.6762035 -0.07655022 -0.055092 0.353171 -0.123037174 -0.28342786 0.22421364 0.12030601 0.008091037 -0.023798944 -0.1132454 -0.17579694 0.036364537 0.28638673 0.1668591 0.43709654 0.082640626 0.22638865 -0.2813376 0.12678698 -0.5939556 0.0739591 0.18989164 -0.11915501 -0.17696658 0.43436712 0.20287849 -0.3905274 0.52463436 -0.12380446 -0.29590225 0.034634333 0.21921627 0.018979503 -0.442006 -0.31510308 0.3076557 -0.25382882 -0.14629523 0.12080506 0.2953824 -0.018061146 -0.024884474 -0.06538908 -0.024075005 -0.21781547 0.23742013 0.28458413 0.25510475 -0.40453985 0.4789082 -0.06376613 0.17305294 -0.57676435 0.28110376 -0.036681857 0.4807174 -0.38645372 -0.34276703 0.29646617 -0.34622806 -0.07366557 -0.14000565 -0.16790642 -0.025282301 -0.1940142 0.4205945 -0.031399444 0.3862881 -0.14178753 0.32529888 0.010352338 0.4393535 -0.39567193
0.055940047 -0.21944273 0.30998835 -0.217581 -0.005191829 0.22644997 0.08429536 0.54975706 0.50200725 0.0556484 0.3930968 0.2408765 -0.04944747 -0.43915755 -0.33434606 0.3269713 -0.65264285 0.27345398 0.23453748 -0.7078018 -0.30430686 0.066211 -0.111195914 -0.43082702 -0.014106273 0.10396532 0.31791824 -0.4757183 -0.55980796 -0.2787364 0.0017400143 -0.08631185 -0.031884443 0.39541978 0.19682252 -0.3670627 0.27710554 0.2111418 0.27886283 -0.24207087 -0.45651174 -0.15338199 0.025835486 -0.33043733 0.211076 0.49238536 0.20850165 -0.003629075 -0.19133227 0.089811936 0.12565628 0.2764485 -0.42643535 0.48386374 0.12299702 0.10776469 0.08490501 -0.09598411 -0.061853036 -0.4264422 0.18268114 0.32659164 0.32385287 0.08938314 0.043227702 -0.33525223 -0.35426742 0.4122943 0.034124438 0.28306577 0.28628644 -0.3976086 -0.5705211 -0.2776953 0.4086392 0.26635966 -0.021081742 0.068051346 -0.39735696 -0.2509749 0.15793014 0.34160727 0.15367238 0.3620465 -0.4278068 -0.18925573 0.3623641 -0.2356646 0.0055639646 0.0042193914 0.12673967 0.39101794 0.068290874 0.39349163 -0.13007669 -0.22959673 0.18081056 -0.45835295 -0.0019782605 0.3303954 -0.21031964 -0.065262266 -0.34760448 0.33427957 -0.13091831 -0.1288553 -0.57870173 0.05666851 -0.18304236 -0.06233064 -0.07836617 -0.3281069 0.24082752 -0.09588164 -0.14626762 -0.22345267 -0.16751316 0.22300383 -0.16219267 0.10686523 -0.14982538 0.458257 -0.23977421 -0.6021665 -0.42230165 0.5204923 -0.4154817 0.61790663 0.047601685 0.08395694 0.41638723 0.06412554 -0.22130147 -0.42365924 0.029855207 0.47706246 0.26188985 0.4445252 0.60487336 -0.51490664 -0.11146603 -0.23441842 0.16866164 0.41664946 -0.18801554 0.35568035 0.26104343 -0.13852784 -0.26150253 0.13186339 0.034765404 0.53652817 -0.51883525 -0.25940403 0.3744796 0.2751515 0.2642413 -0.18503882 -0.075937085 -0.2708027 0.24622676 0.18877529 -0.09345725 0.09713763 -0.38009268 -0.16875565 0.35731313 0.039519273 -0.23332351 -0.001257691 0.63890904 -0.13468648 0.061421953 0.0018310777 -0.11495621 -0.03452473 -0.12028018 -0.21621053 0.2557732 -0.12212144 0.3780811 -0.006902505 0.30695692 -0.10512403 0.22687842 0.12396132 -0.10943754 0.42224792 0.26060078 -0.0041564717 0.2719166 0.02353246 -0.5186132 0.19420409 0.35314047 -0.21849166 0.15185116 0.47743192 -0.2907406 -0.07241059 -0.012546416 -0.35618484 0.24698874 -0.5420623 0.1454354 0.24877253 -0.2726834 -0.099449486 0.4580755 0.2065531 0.3125498 0.20690376 0.20086278 0.63359153 0.2564401 -0.38101485 0.1068814 -0.3356959 0.12577242 0.2019508 0.115916565 0.3234316 0.051241733 0.21886754 -0.10445575 0.36662602 0.3425193 -0.22893861 -0.16191782 0.038430016 -0.104915366 -0.034493275 0.32222027 -0.43837425 0.00014633487 0.11254974 -0.24842381 0.13930899 -0.3929847 0.37499422 -0.6047744 0.3394196 -0.16761881 -0.358695 0.091657385 0.107953936 -0.51736027 0.33200786 0.11826624 0.16115206 -0.17083713 -0.45675394 -0.08645449 -0.3010515 -0.28713614 -0.18330686 -0.18328914 0.022785652 -0.20326458 0.26588613 0.4974874 -0.27541673 0.36928585 -0.011608824 -0.041324273 -0.19241576 -0.40566695 -0.0039984905 0.16964546 0.46794942 -0.19762991 0.2646126 -0.027265806 -0.17956442 0.31427988 -0.21853834 -0.7094208 0.08035783 0.09351311 -0.12734847 0.21545048 0.28292271 0.34554285 0.09304856 -0.4424073 0.4513844 0.55213267 0.07655998 0.042021457 -0.31768817 -0.28906083 0.36657393 0.46235222 -0.07527723 0.36628968 -0.12058455 0.44050696 -0.07234809 -0.2532023 0.17800793
0.43611735 0.12213114 0.594467 0.44792923 0.29998857 0.6639208 -0.04800607 0.09144795 0.16666152 0.12904036 0.043479405 0.26019043 -0.45602173 0.36252233 -0.057201415 -0.6027701 -0.13391 -0.1998826 -0.027933275 -0.108816646 0.24354148 0.2745393 0.16968909 -0.0555265 0.3000657 -0.5933447 0.06560348 0.039456997 -0.04308016 -0.44388387 -0.46131307 0.049114306 -0.7150097 0.2992276 0.50123245 0.32030478 0.035856474 -0.25626415 0.06300663 -0.19237116 0.28333405 -0.34958377 0.5196427 0.010389274 -0.4017318 -0.47970158 0.10970367 -0.1892288 0.10854569 -0.45425233 0.4544975 0.27618968 0.44279534 -0.0014473825 0.27971077 -0.18789871 -0.28008243 0.49272504 -0.40197054 -0.441118 0.30829883 -1.0198978 0.28976527 -0.1355624 0.5394015 0.31145996 -0.08713284 -0.4277386 -0.20147242 -0.07262298 0.8216172 -0.26329997 -0.0669867 0.22775128 0.28604165 0.38556024 0.122952856 0.27342847 0.42126316 0.046163917 0.4343961 0.059631366 -0.0071953502 0.5878592 0.12901798 0.10541566 -0.25679642 -0.2674657 -0.046735454 0.432218 -0.9061453 -0.3387243 -0.45340666 -0.059325974 0.33716828 0.09452041 0.23066707 -0.2667489 0.26027355 0.59956396 0.06148859 -0.3211043 0.1125773 -0.86407804 -0.01483205 0.5403074 -0.3374997 0.012655532 0.2574742 0.055092294 -0.23561841 -0.077024475 -1.1214312 0.3180165 0.010444872 0.15740335 0.1446836 -0.1703037 -0.4455008 -0.130965 -0.32982668 0.0030049623 0.23731993 0.32536948 0.023580363 0.0072171935 0.054901086 0.2606788 0.4131181 0.28814518 -0.10807644 0.2658435 0.0614687 -0.2533974 -0.06391488 -0.40554762 0.13059257 0.08152613 0.1528129 0.115403436 -0.18128541 -0.46371233 0.37364793 0.68393236 0.60866255 0.40088117 0.33544308 -0.37364295 -0.1900534 0.06372243 0.2618447 -1.0484208 0.2509224 0.12987742 0.063421465 -0.08110858 0.14309557 -0.3762285 -0.14334738 0.6604477 -0.7522804 0.36634353 -0.32010433 -0.39774972 -0.29214296 -0.28377125 -0.0121390065 0.38107708 -0.28390825 0.21813864 0.18808742 0.6510782 -0.43468636 0.1536328 -0.10058343 -0.6821902 0.8435324 -0.44227132 -0.043649644 -0.12735754 -0.009297017 -0.37861702 -0.12020151 -0.16035542 -0.6643548 -0.25084022 -0.35222617 -0.13302465 0.7101431 0.081065364 0.43173325 0.27077103 0.34183383 0.04340348 0.19018431 0.16968703 -0.011599699 0.10939776 0.18960118 -0.048151158 -0.37717497 0.20401622 0.24331605 -0.2930774 0.11713918 0.29679 0.9115594 -0.06699879 0.16397016 -0.015984664 0.06874162 -0.13618536 -0.5265356 -0.5633234 0.4224673 0.005229743 0.10754344 -0.08637162 -0.6693856 -1.0443996 0.26142752 0.11068503 -0.3088156 -0.25779927 -0.040950514 -0.36265048 0.050618347 -0.05497234 -0.14333548 0.08670709 0.3423809 -0.29377937 -0.29269195 -0.10068245 0.25158608 -0.19121596 0.113329254 0.32553652 0.6540425 0.18329374 0.12461301 0.4747977 0.27806023 -0.0034195124 0.40612686 0.32538873 -0.19808164 0.29696295 -0.23151082 0.19889985 0.653947 -0.20991412 0.4414295 0.24261345 0.2906963 0.10369751 0.0007210685 0.35145766 0.10793981 0.39844292 0.28025028 0.027348211 0.040560823 0.02069347 0.20395358 -0.09904416 0.017778121 0.199064 -0.23068842 -0.23390609 0.5577138 -0.16793405 0.87787145 0.03551034 0.19384363 -0.3064881 -0.008239247 -0.043149754 -0.012981337 0.13372345 0.41532007 -0.14732862 0.34757975 -0.19300486 -0.58176225 -0.026943242 -0.110902935 0.26265946 0.085765615 0.011308803 0.100593254 0.47847542 0.14937943 -0.42095053 -0.0991508 -0.39369205 -0.4254752 0.12577367 -0.28640014 0.07704768
0.096074045 -0.24162087 0.115789585 -0.238011 0.013958463 -0.23761751 0.061845597 -0.049028054 0.035487995 0.24369335 3.864738e-05 0.1895933 0.08467408 0.5569458 -0.5627439 -0.1517926 0.17728771 0.0019653193 0.07825658 0.21648026 -0.23718129 -0.023062423 -0.29192713 0.38111869 0.042266577 0.244975 -0.12751158 -0.01629586 -0.28815678 0.5414358 0.2513524 -0.31326815 0.012290469 0.22822851 -0.2461186 0.2518711 0.014615241 -0.19656156 0.3263473 0.2589744 -0.1499486 -0.15541773 -0.0342584 0.17650321 0.21508437 -0.05477293 -0.29831088 0.538625 -0.28229538 -0.0020520445 0.08245625 -0.19542833 -0.05745145 -0.33911958 -0.10630054 -0.09253425 0.0553531 0.016751261 -0.026428152 -0.2965852 -0.40380898 -0.20995419 0.15670504 0.023348155 0.063672215 -0.1890307 0.19040477 0.040600285 0.24967714 0.011029509 -0.3342236 0.1163431 -0.05090545 -0.50127363 -0.08301082 0.13648649 -0.1725066 -0.2222064 -0.44292784 0.12666194 -0.32752898 0.07807789 0.112269185 -0.13705708 0.14615583 0.3117028 0.0004225508 -0.27996212 -0.29106292 0.0041448837 -0.32375497 -0.087939546 0.14923932 0.113282494 -0.11252582 0.046850413 0.13175018 -0.01675466 -0.36620027 -0.3519974 0.29324612 -0.2995925 -0.033667285 -0.22177513 -0.641004 -0.012536535 0.11673798 0.001940185 0.015729165 0.004417806 0.122531354 -0.01975939 0.016515508 0.17676038 0.027604159 0.20713794 -0.06773652 -0.3143164 -0.29015285 0.12978789 0.2017183 0.01581327 -0.120674424 -0.04664706 0.029769199 -0.028474094 -0.38502988 -0.14117034 -0.60153073 0.6382086 -0.2136695 0.08510902 -0.19578451 -0.06530916 0.18068369 -0.0881396 0.23783982 -0.33728704 0.12530775 -0.5293881 0.3106271 0.21508747 -0.100889206 0.087744094 -0.2826529 -0.23249738 -0.09924609 -0.550509 -0.16992207 0.16740659 -0.075128615 -0.13796118 0.21188457 -0.35533717 0.09314237 0.0739733 0.2373869 0.3106136 0.51411164 0.05845471 -0.05760132 -0.28122184 -0.04316333 0.14414467 0.4479849 -0.37989968 -0.030972479 0.027892703 -0.007962812 0.07280105 -0.04703645 0.13748312 0.10944935 -0.042921625 -0.08200154 0.062446177 -0.09987358 -0.004838473 0.23186173 -0.18426001 0.39402407 -0.47661808 0.055779554 0.034482107 0.070526354 0.1339221 0.06456128 -0.08832571 -0.1743853 -0.5049373 -0.24758615 -0.23593958 -0.1109886 -0.18142806 0.23367415 -0.49542087 0.14068927 0.03336114 -0.09081154 0.14594315 0.12779644 0.055206705 -0.12942116 0.41723135 -0.16833907 -0.10248607 -0.25010002 -0.20516242 -0.27676633 0.21126029 -0.20320374 -0.15194109 -0.34057966 -0.024019757 0.39955193 -0.10794308 -0.057705853 -0.023408253 0.28545368 0.23475878 0.11271087 -0.12855437 -0.32034463 -0.117159925 0.28109443 -0.06999636 0.25609693 -0.13531218 -0.13741823 -0.2630033 -0.016239788 0.52986455 -0.048382755 0.029143834 0.28470913 0.2836419 0.20482518 0.2024495 -0.2761565 -0.14694275 0.07479815 -0.004821159 -0.01225048 0.150392 0.26108527 0.03783908 -0.10248325 -0.28102797 0.051709227 -0.18800132 -0.46191487 0.02010903 0.045685798 -0.28430358 -0.08979107 0.28683 0.27177227 -0.20193104 -0.41860488 0.024846459 -0.071023606 -0.2773983 -0.5433126 -0.2752181 0.020764897 0.19817986 0.06201464 0.21250111 0.09352692 -0.07980736 0.013294478 0.2864258 -0.007884565 -0.20553969 -0.21975428 0.08244199 -0.09378964 -0.034663342 0.56707364 -0.28529185 -0.14016879 0.2837167 0.32615185 0.2086402 0.03655519 -0.5661127 -0.123697646 -0.17205709 -0.15465197 -0.33468986 0.09116965 0.11414297 -0.29289737 0.097665526 0.15219907 0.07934035 -0.22471417 -0.100604236 -0.18377115 0.3146586
0.027055943 -0.051641636 0.13421752 0.39530644 0.17155115 0.11260735 -0.09220524 -0.3145265 -0.39054528 0.070268594 0.14053924 0.3733868 -0.027773537 0.11218731 -0.33369863 0.38877434 0.29906932 0.28310004 -0.14356613 0.050223347 -0.05036922 0.38797414 0.5532709 -0.10959836 0.14768845 0.09531327 0.08134179 -0.012277214 -0.029699856 0.28146785 -0.5834532 -0.59716904 0.07339533 0.03837381 -0.18372247 0.33156276 0.22839993 -0.4885157 -0.6652716 -0.06994498 0.32284373 -0.32201934 -0.2554051 0.17601651 -0.59014225 -0.13119261 0.028134357 0.048637126 -0.3962262 0.12635423 0.19577405 0.10715329 -0.048061542 -0.053817693 -0.063941635 0.21355288 0.0058357855 -0.14498745 -0.015616147 -0.056247164 0.20109938 -0.42282656 0.13268225 0.6996805 0.47006845 -0.11357053 0.08905723 0.36154804 0.5578676 -0.10653739 -0.0864779 -0.08027347 0.1835132 0.3558164 -0.1287046 -0.072473146 -0.11319935 -0.15726206 0.2526194 -0.24637635 -0.06432046 0.11720576 0.0501241 -0.1979753 0.14943676 0.139251 -0.54561126 -0.21694736 -0.490263 -0.08791973 -0.3328799 -0.24955156 -0.14314806 -0.39690042 0.087076254 0.061941758 0.21298945 0.11142838 0.47806418 -0.12466794 0.1478432 -0.2999736 0.004240759 -0.29402673 -0.32099137 0.06289395 0.19491252 0.45160812 0.089151435 0.3850012 0.021291653 -0.028440682 -0.07433323 -0.06768688 0.5208411 0.03054316 -0.1135798 0.17980753 -0.22959533 0.27990028 -0.13141534 0.091540724 0.8407512 0.05286409 -0.17621379 0.19715787 -0.16557017 -0.027083952 0.057219222 0.40205893 0.21291639 0.404233 0.025967522 -0.063643806 0.07407506 -0.2324696 0.14496434 0.22072458 -0.23618375 -0.08467893 -0.13064052 0.16084617 -0.082109205 -0.14327502 0.0570238 0.23773877 -0.14426371 -0.108193874 -0.069797955 -0.005945563 -0.19022347 -0.1141433 0.29411298 0.3457775 0.24790801 0.13903393 0.23791395 -0.33373848 0.327296 -0.51803607 -0.18722418 0.31220657 -0.11687831 0.021901442 0.036308784 -0.24511869 0.062135953 -0.019774886 -0.19787022 0.3467472 0.16328126 0.25184214 0.18068129 -0.009406931 -0.2458382 0.004845124 0.20690614 -0.031404383 -0.32102737 0.049129087 0.28646678 -0.21625105 -0.12666573 0.21387376 -0.010348326 -0.42155972 -0.31985325 0.12769663 0.06943423 -0.26231536 -0.03645534 0.31506914 0.37647745 0.24197336 0.09554537 -0.32050276 0.24771947 -0.12281819 -0.21591899 0.0015790414 -0.25454715 -0.18502465 0.02229195 0.0353362 0.052362785 0.17590871 0.18790017 0.5358348 0.37707952 0.39810187 -0.31616306 0.12648012 0.07319693 -0.15105565 0.27123126 -0.07010442 0.20731579 -0.18706161 -0.2541868 -0.15762837 -0.178275 -0.13749075 -0.2904316 -0.28848264 0.004809372 -0.3702603 0.19531725 0.7481223 0.04991768 0.19918133 -0.09613922 -0.42318562 0.25165537 -0.44020003 0.2379001 0.09917297 0.025657354 0.44006148 0.072053395 0.086142845 0.18063016 -0.28380373 0.018784843 0.14280418 0.07474149 -0.3250048 -0.07243927 -0.26073936 0.26243877 0.07448472 -0.14570262 0.1991943 0.0025159006 -0.15544067 -0.019321868 0.3783303 -0.6156796 -0.043180414 -0.43787807 0.22644769 -0.42450047 -0.07864448 0.05884132 0.18448935 0.22433011 0.26917928 0.27334622 0.18756133 -0.7724486 -0.5292106 -0.039882626 0.48741668 0.076849766 -0.093104355 0.12218278 0.0064543765 0.09506666 0.5273027 -0.1186774 -0.27533793 0.17849998 0.15598369 0.45787185 0.15516753 0.045304928 -0.10385702 -0.26460174 -0.19314492 -0.49021307 -0.1297719 -0.07329672 0.42242736 0.17824358 -0.19051708 0.021838969 -0.3714815 -0.054090656 -0.6035622 -0.074115425 0.30854177
-0.067355454 0.2190141 -0.036491998 0.046339653 0.18666744 0.009860196 -0.123415954 -0.2129679 -0.17364068 -0.26526833 -0.26950216 -0.008127417 0.49879107 -0.14034514 -0.10389844 -0.046319406 0.28557545 0.21856767 0.11862493 -0.10287581 0.20568456 0.06719962 0.16015191 0.006378961 0.3794368 -0.1532112 0.06412475 -0.32980788 -0.39432707 0.041685935 0.0032920586 -0.13344927 -0.12749064 0.02979526 -0.09442762 0.27822787 -0.18146811 -0.019105826 -0.24626236 -0.31821102 0.21955983 0.07549105 0.18218128 -0.08229619 -0.025918948 0.15705208 -0.034669735 -0.031171506 -0.07235226 0.15028876 0.38756102 -0.16150127 -0.017845593 -0.32269123 -0.14654377 0.2730046 0.027022114 -0.08310338 0.123304985 -0.33832443 -0.029467 -0.13176031 0.09930683 0.0012406526 0.28987363 -0.34140265 0.31335846 0.43885806 -0.10446216 0.56017995 -0.1426479 -0.1157154 0.043442383 0.057226498 -0.009199451 0.1935604 0.20277 0.066240594 0.10274476 -0.2859599 0.26151606 0.19670683 0.4093494 -0.14343427 -0.042610876 0.27644733 0.16641974 0.121600844 0.014168167 -0.016141716 -0.0124371 -0.14178918 -0.045901578 -0.15381382 -0.54962534 -0.13675438 -0.13043834 -0.17612362 -0.22161831 -0.27518356 -0.3787706 0.2735656 -0.34083042 -0.32160506 0.16280977 -0.047735255 -0.15628748 0.2215571 0.19091828 0.38393927 0.13654871 -0.027857088 0.07771351 -0.034594245 0.039037026 -0.5563731 0.3554637 -0.1098787 -0.030743074 -0.09739676 0.43061692 -0.12838063 -0.05200594 0.05688838 0.08396558 -0.11736806 -0.26133263 -0.16237189 -0.27505258 0.07089202 -0.18010901 -0.22248515 -0.057921764 -0.08168137 0.02306396 0.20672256 -0.3960166 0.025326183 -0.06189955 -0.4339422 -0.21058887 0.120117255 -0.37096325 0.073107205 0.17153145 0.40248966 -0.21131831 0.113783434 0.039901596 -0.028207384 0.085231945 -0.17822693 -0.31195626 -0.31730655 -0.1938621 0.014426271 -0.023978071 0.11553452 0.3689342 0.052988235 0.004820203 0.37303028 -0.0818325 -0.08810467 0.5184971 0.21573709 0.36154753 0.014965228 -0.20611903 -0.29114354 0.008480136 0.2573823 0.21728285 0.34524527 0.07133814 -0.13488701 0.115016244 0.054923072 0.22862807 0.4253073 0.08638033 0.11702457 0.022576114 0.25528207 -0.16518854 -0.054191682 -0.03813614 0.38927272 0.26499876 -0.09350174 0.3196942 0.0391126 0.034784846 -0.21039055 -0.2665511 -0.021418002 -0.16031326 -0.0024700698 -0.0010403193 0.32837912 -0.09903938 -0.27672094 -0.22572877 -0.1994582 -0.03105487 0.038020737 -0.11156429 0.20542207 0.31925514 -0.02116816 0.06671889 -0.14468093 0.077372834 0.014716941 -0.009955074 0.40391332 0.2546392 0.0106215505 0.036940884 0.11644741 -0.0007759698 0.3204774 -0.1709758 -0.026848799 0.21443741 0.108052306 -0.29025906 0.2435948 0.006472569 -0.26220894 -0.14033717 0.113225676 -0.031188967 0.09028996 -0.28385144 -0.36242223 0.027844232 -0.11873191 0.14291278 0.0041002645 -0.12236908 4.545784e-05 -0.03318375 0.06517555 0.26255566 -0.017606132 0.14806534 0.16885298 0.0044280924 -0.41962647 0.28494498 -0.031819355 -0.1054256 0.19770305 -0.043146748 -0.30033067 0.12329574 0.16177592 -0.07296381 -0.07928204 -0.013606849 0.082948335 0.049335722 0.1245305 -0.44706094 -0.19313517 -0.21123245 0.2721923 0.12638772 -0.27713257 -0.20724975 -0.17567474 -0.08944802 -0.27789822 -0.09947997 0.1312433 -0.09567283 0.23757853 0.044771727 -0.010394368 0.24427627 -0.15315197 -0.06921715 0.27607295 -0.041115046 -0.074158065 -0.06617535 -0.25008786 -0.10710858 0.27869573 -0.1606381 -0.073172055 -0.13798872 -0.10737002 -0.40859297 0.06064245 -0.23356974 -0.13972555 0.01882826 -0.28273883
-0.08199319 -0.3005202 -0.16029836 -0.12353254 -0.24926648 -0.16204731 0.28475338 0.4226454 0.331711 -0.34288904 0.22726597 -0.28507724 -0.43357444 -0.22817892 0.048075866 0.1718787 -0.2835991 0.09621345 0.3804848 -0.28259432 -0.3309163 -0.55110645 0.019498467 0.5008479 -0.33900014 0.15036795 0.26520467 0.23061037 -0.25190076 0.04922773 0.23819317 0.27222073 -0.053397253 -0.258425 -0.4600261 -0.23414814 0.11106399 0.1935585 -0.020156331 0.50625855 -0.22195835 0.15103391 0.0241361 0.020393193 0.19176951 0.06837942 -0.5557901 0.46370712 -0.17449604 0.53300905 0.06990509 0.47419202 0.2821482 -0.08863856 -0.26270288 -0.07823757 0.37434408 -0.506114 0.31105718 -0.054609675 -0.2566921 -0.44851226 -0.4188054 -0.4347431 0.2777313 -0.029950842 -0.27005908 -0.24373735 -0.06771988 -0.013018081 0.20604187 -0.1117649 -0.49068984 -0.18154968 0.30469736 0.1670825 -0.5575746 -0.17406446 0.48180425 -0.12366152 -0.24310268 -0.009952057 0.14360164 0.5712184 0.19616973 -0.29161215 0.11723361 -0.16332681 0.29521108 -0.25577265 -0.30507457 0.25394478 0.45765057 0.1412077 -0.22916503 0.040022288 0.21210644 -0.31006148 0.15669368 0.31542253 0.021612903 0.33921406 -0.23477527 -0.19283739 -0.21723795 0.17182916 0.1986886 -0.20845617 -0.42910704 -0.043706406 0.21236448 -0.27774525 -0.23797354 -0.1863841 -0.12259919 -0.37466115 0.510037 0.0590654 0.01830263 0.32456776 0.35415545 0.32616106 -0.055809874 -0.0173369 -0.25006086 -0.16102369 0.039633553 0.24132344 -0.32032117 0.24500641 0.27684736 -0.20180729 0.6033996 -0.4169689 0.17256793 0.08871677 0.19163616 -0.34664994 0.49922884 -0.10929069 0.3336103 -0.3535502 0.045558125 -0.033362288 0.5116036 -0.026250144 0.2671632 0.231234 -0.44869354 0.23376226 -0.07000408 -0.3695358 0.058153518 0.10006227 0.41457036 -0.0808169 -0.14723139 -0.0029601515 -0.07615567 0.19251758 -0.06426335 0.08344439 -0.17950115 0.51297635 -0.25459558 0.2016848 0.15464789 -0.32511026 0.24896565 0.07598233 0.07590457 0.30034858 0.66034085 -0.26644292 0.025108416 -0.28061128 -0.605858 0.44993436 0.1564419 0.49708027 -0.24428564 -0.48194626 0.24450031 0.20122813 -0.25515574 0.21456909 0.5102377 0.39472276 -0.12548734 -0.3961008 0.05028863 -0.011351343 0.30591467 0.27147874 0.032884397 0.23891272 0.38013148 0.32334203 -0.24651098 0.059258938 0.2098277 -0.25211602 0.18126658 0.49078298 -0.057345603 0.035629474 0.12252571 -0.6032848 -0.008404482 0.046787217 0.041760232 0.2355089 -0.20563067 0.15897062 0.5626584 0.3215106 -0.50385755 -0.0694946 0.093808204 -0.24579117 -0.36325064 0.08276071 0.0023010063 0.30799747 0.08403883 -0.064642355 0.23979037 -0.14471951 0.5540079 0.23898046 -0.41508973 0.043335617 0.27461457 0.1111061 0.40560374 0.08838886 0.17576782 -0.23905893 0.392535 0.27434728 -0.08152855 0.26033986 -0.14526723 -0.11619443 -0.012751415 0.3200773 -0.17040153 -0.22536537 0.7263862 0.21695437 0.07066151 -0.41358167 0.032907818 0.5000642 0.14310133 -0.13694379 0.025554396 -0.1010114 0.32296938 -0.2927484 0.12796813 -0.15980582 -0.3822432 0.3966623 -0.34369415 0.13037449 0.004453741 0.29793498 0.28474256 0.29316345 0.34270507 -0.006932085 -0.14751312 -0.15046152 0.507998 0.43226537 -0.4284233 -0.5141134 0.47966367 -0.19173867 -0.21820278 -0.06497081 -0.020528352 0.21254367 -0.113583736 -0.4535131 0.550507 0.47032374 0.18665119 -0.13065697 -0.4670338 0.321528 -0.30073407 0.3961266 -0.2089413 0.4037924 0.08892951 0.3050659 0.17013898 0.21757917
-0.6557021 -0.16586015 0.23203509 0.053183205 -0.47578713 0.15525484 0.6458795 -0.1191703 0.0015810026 -0.13793065 0.1124 -0.17730054 -0.004395781 -0.28107658 0.0073969285 0.25075075 0.0118372 0.08557939 0.28804168 -0.21222375 0.072821185 -0.20523572 0.6291675 -0.01809687 -0.05496714 0.34392914 0.13126853 -0.24475808 0.47870052 0.20208603 -0.05243452 0.29433084 0.21206762 0.19097346 0.0131715285 0.32762465 0.23163565 -0.04880401 -0.7142385 0.014712495 0.009630186 0.11313364 -0.14848751 0.27562132 -0.22589873 -0.15383627 0.004629132 0.035301294 -0.21398139 0.5909624 -0.20942736 0.0032430755 0.13196468 -0.15054214 0.17987381 0.09421305 0.21207358 -0.19002374 0.40517807 0.12988648 -0.09697522 -0.10697598 0.060742304 0.6113235 0.07715317 -0.18455681 0.20133525 0.26305395 0.5080036 -0.13182816 0.30904207 -0.40188622 -0.10110066 0.24702592 -0.0070479014 -0.23793316 -0.20568584 -0.27776814 0.118061304 -0.14431839 -0.080883466 -0.20237188 -0.37123698 -0.2579298 0.0510198 0.1163705 -0.42373666 -0.059300773 -0.37861407 -0.024369827 -0.21809156 -0.23104717 0.53722167 0.12073389 -0.2776316 -0.08345196 0.012544032 -0.25280985 0.088385 -0.010708628 0.25195196 -0.30107716 0.050403643 -0.012321605 -0.11636475 0.015964119 -0.09214019 0.2544352 -0.41829938 0.15555239 0.3928886 0.01691188 -0.05910668 -0.0981835 0.4668444 0.009985554 -0.24883516 0.35510045 -0.10649726 0.35609254 -0.059038542 0.16617352 0.4482761 -0.21669297 -0.3668211 0.32173386 -0.015975516 -0.048944738 -0.106898025 0.10655559 0.29282668 0.2818378 0.11408225 -0.3873248 -0.1998091 -0.29594427 -0.13887379 0.0936591 0.1991371 -0.22055458 -0.19720925 -0.39890197 -0.095569864 0.048105724 0.033731114 0.17640835 0.12694043 -0.41381177 0.12569723 -0.0969928 -0.27830088 0.45833218 -0.65100783 -0.05706608 0.18046997 0.49098384 -0.23593111 0.2507272 0.00835853 -0.40491143 -0.3494772 0.08660936 -0.20660494 0.4484407 0.20156005 0.26590437 -0.35876852 -0.33146808 0.112768814 0.29825455 -0.07132694 -0.27883348 0.27358323 -0.02216999 -0.18059024 0.10548184 -0.23897988 -0.011780898 -0.44522464 0.33154637 -0.09433864 -0.24080426 0.209841 0.19189598 0.46056762 -0.1528853 0.47648585 0.3026364 -0.021012692 -0.3856444 0.2093622 0.030512083 -0.1650617 0.11377576 0.1199563 0.15152213 0.186025 0.32249406 -0.37338978 0.18295999 -0.008098931 -0.24426393 -0.18307346 0.13471256 -0.07656342 0.08104429 0.31019217 -0.11775876 0.191122 -0.06555658 -0.007080934 0.62078744 0.112817906 -0.112453684 0.35675883 -0.32760713 -0.2654487 -0.31077608 -0.30724612 -0.018934399 -0.21867803 0.38524753 -0.42814338 -0.11066274 -0.037845537 -0.25519446 0.092249684 0.6353956 0.1605255 0.4818845 -0.6933645 0.0460625 0.1517786 -0.08092789 0.10083774 -0.20853673 -0.009572738 -0.084700525 -0.13088267 0.13469179 -0.06525972 -0.16281453 -0.04274369 0.08288859 -0.4190416 -0.18585783 -0.06925489 0.13691303 0.11475201 -0.22126885 -0.04737661 -0.16013654 0.27119392 -0.4952162 -0.021041853 0.3380266 -0.121579506 0.1817041 -0.13286878 -0.07436907 -0.19160251 -0.23300058 -0.060313717 -0.39486182 -0.4914134 0.28717768 0.16508563 -0.29815617 -0.5419527 0.11413587 0.11113552 -0.023619568 -0.3791968 0.62221444 0.45037404 0.11016748 -0.31889075 0.48817515 0.18665542 -0.45289922 -0.098040245 -0.049254898 0.13333675 0.11611627 0.40099004 -0.04346596 0.3622855 -0.006287503 -0.09476946 -0.351998 -0.4740294 0.44321957 -0.24779528 0.30400974 0.25814793 0.0030354953 0.44943833 -0.2731661 0.097545736 0.13320662
-0.061465215 0.007500797 0.22936389 -0.0786723 0.2092602 0.132082 -0.07774686 -0.015817197 0.22755454 -0.42485705 -0.21707407 0.15348953 0.2500627 -0.04589855 0.0024746987 0.112538636 0.2382025 0.42348638 0.1898259 0.22711766 0.33966413 0.023102814 0.23909879 -0.41736004 -0.16137382 0.07003587 0.052906767 -0.005708886 -0.13032617 -0.21831007 0.028547846 0.35964984 -0.2096481 -0.12844525 -0.02551761 0.0023584743 0.007373098 -0.27160892 0.09166787 0.12964353 -0.120657295 0.0110922055 -0.24178506 0.24742381 -0.23951054 -0.19048524 -0.25059476 0.050820857 0.12916863 0.043561224 0.18175676 0.21148145 0.38064918 0.35639885 -0.15664856 0.34145233 -0.13328321 0.055768047 0.0359439 -0.17623222 0.3031892 -0.03653652 0.006353652 -0.3525871 0.13730161 -0.16923279 0.38301158 0.019920817 -0.13300964 0.4401049 -0.043364108 0.20472679 -0.020624131 -0.043578688 -0.004023928 0.55914134 0.023236765 0.14194468 0.3936638 0.23498128 0.1133016 -0.1689063 0.18665957 0.21502471 -0.2566312 0.31066743 -0.23163407 0.0599134 0.14857368 0.29798207 -0.16023915 -0.26085058 0.07515875 0.088806815 -0.007327861 -0.10595032 -0.060778014 0.12403008 -0.15520799 0.10233657 -0.06865398 -0.01497144 0.16576989 -0.002368407 0.27439433 -0.14743423 -0.29143652 0.2129175 0.057112843 -0.39410064 -0.24744108 0.24898273 0.0048630214 -0.6503014 -0.20476633 -0.08168465 0.1110283 -0.11373978 0.401042 -0.24229512 -0.014679911 -0.07164112 0.04164828 -0.08442037 -0.04661391 -0.45826432 0.14300354 -0.41625258 -0.14811653 -0.3853561 0.023614759 0.04601679 0.32392803 0.14158088 -0.29634628 -0.08134646 -0.10041577 0.42314726 0.1790993 -0.11520476 -0.22442529 0.30602923 -0.4862189 0.047404036 0.12564763 0.22096665 -0.30054143 0.0096161915 0.012059972 -0.1950131 -0.554508 -0.08900149 0.001538086 0.13389029 -0.19923338 0.15424792 0.11112826 -0.07304503 -0.40292528 0.120220155 -0.43425468 0.4435989 -0.49778992 0.09255243 -0.47943375 0.055361412 -0.17772433 -0.2902105 0.08102101 0.07817908 0.045525294 0.3891061 0.07034189 0.14826722 0.08111729 -0.1638084 -0.12728317 -0.09150769 -0.14702703 0.14873046 -0.34822676 0.1453994 -0.09830217 0.040414445 -0.46992794 0.07093324 0.137921 -0.23696132 0.007081514 0.1715122 0.017420229 -0.043683663 0.20026132 -0.55961424 -0.13367927 0.41667148 -0.13778965 -0.13222234 0.082942724 -0.3279579 0.016664099 -0.021097364 -0.3197578 -0.23812973 0.46661463 -0.32657206 0.23188427 0.010462616 -0.26714972 -0.446609 0.098842084 -0.055803955 0.32062373 -0.21294637 -0.050865885 -0.3496943 0.07596724 0.17449845 0.2572391 -0.22396208 -0.18979764 -0.25332472 0.15218975 -0.04997065 -0.084281884 -0.1307073 -0.24980542 -0.3023479 -0.052947823 0.003804391 -0.11705539 0.13288365 -0.0715021 0.38853016 0.099542394 -0.096220404 -0.07322346 -0.272435 0.16666526 -0.4606564 -0.2406234 -0.15851784 0.046346966 0.27511665 -0.0607938 -0.118742146 0.024588957 -0.08712068 -0.07990068 -0.041827008 0.05186097 0.217637 -0.04839361 0.40831956 -0.09197124 0.16322945 0.4448437 -0.1269631 0.26927128 -0.32719952 0.33579028 -0.14085193 0.40627035 -0.108864486 -0.21826197 -0.28103963 0.22613338 -0.10185724 -0.06123569 -0.16584975 -0.17441384 -0.5239359 0.05896113 -0.08733704 0.076136656 0.027130522 0.100387886 -0.08746373 0.27180156 -0.23451586 0.30642238 -0.2989477 -0.14818779 0.34558272 -0.49284053 0.39125362 0.08302101 -0.14463003 0.047712687 -0.3647008 0.29910004 -0.03422127 0.359812 0.15085402 -0.42389867 0.05028685 -0.18515389 0.23311323 -0.12557709 -0.17374884
0.12687641 0.059139412 0.10982536 -0.028922154 0.0969751 -0.18199657 -0.060597375 -0.012737225 0.052968014 0.0041101975 0.2151895 -0.33572447 0.39600536 -0.26303962 -0.048985124 0.0023376984 0.20505999 0.2996273 -0.017349632 -0.20508754 0.10019783 0.22251052 0.079687655 0.07587051 -0.23863082 0.06152066 0.4369118 -0.114725485 -0.44597703 0.20793205 -0.054875813 0.31604263 0.054989416 -0.027864713 -0.10176516 -0.07764092 0.2050691 0.048973717 -0.10622496 -0.22227533 -0.07889473 0.15044178 0.039981414 -0.3311364 0.09334906 -0.043589704 -0.086270995 0.14886561 -0.22123472 -0.10334151 0.23312384 0.24079475 0.1866053 0.0069200126 0.07447533 0.40204173 0.13152398 0.30596322 0.007468799 -0.090216026 -0.2295592 -0.24265498 -0.03692946 0.17736466 0.02908697 -0.21733978 0.008514682 0.3347649 -0.16457413 0.3221441 0.14902008 -0.43489972 0.13563974 -0.0023438754 0.28823695 0.18441594 -0.20202221 -0.2771899 0.11443337 -0.08108892 -0.06517519 0.25183338 0.5855204 0.117812656 -0.051406965 0.2856267 0.2748091 -0.13441648 -0.0064531635 0.20803861 -0.2763653 -0.044022337 -0.26233 0.05807187 -0.3534031 -0.20437121 0.010948026 -0.25872242 -0.250986 -0.018092457 -0.124818265 -0.26679993 -0.10642436 -0.27259094 -0.24467716 -0.32450372 -0.18591395 -0.014423453 0.13538188 -0.05376592 -0.028432336 -0.08936727 -0.0035246096 -0.046899304 -0.2169473 -0.37234816 -0.3560735 0.094737425 0.2276753 0.14026369 -0.20505373 0.28569126 -0.256429 -0.08861494 -0.051125195 -0.06611329 -0.5515077 0.14046858 -0.25857836 -0.0074942587 0.044364974 0.023895822 -0.23034081 -0.2367652 -0.26866317 0.15877378 -0.26170427 -0.106588356 0.05798518 -0.016207047 0.101770766 -0.16985448 -0.054502208 0.32488158 -0.028964527 0.35054892 0.15057349 0.030092264 0.08204412 -0.30243996 0.16559616 -0.34652862 0.15909564 0.0061160796 0.15836456 -0.036855858 -0.014571374 0.20024647 -0.08535872 -0.0818057 -0.1257806 0.09919509 0.057304285 0.08305581 -0.10075825 0.48653713 0.18051802 -0.06204776 -0.1165954 -0.16498865 0.29228756 0.4204615 -0.18526384 -0.22443278 -0.11195437 -0.198404 0.11302015 0.10666099 -0.0021148021 0.089048736 0.23495683 -0.21881427 0.062489282 0.23343094 -0.1335536 0.25070965 -0.06956733 0.23750377 -0.14543119 -0.20027347 -0.09727759 -0.055500116 0.2029858 -0.04815146 -0.12862562 -0.12815736 -0.023453226 0.30133873 -0.18816504 0.253504 -0.050662152 -0.25322086 0.10535756 0.18293595 -0.00071295485 0.08208402 -0.07082271 0.048222613 0.24538991 -0.2123563 0.011434166 -0.08607563 -0.2222471 -0.029742923 0.12047097 -0.2632259 0.06756119 -0.094538435 0.11980071 0.09557956 0.06412214 0.607829 0.0630091 0.1426019 0.1169001 0.067279 0.13195433 -0.24633567 -0.38250417 -0.1710467 0.11616883 0.042861383 -0.0840191 -0.30493638 0.2945944 0.023056822 -0.06772221 -0.47936222 0.032396518 0.039397113 0.13102904 0.35196245 -0.22499846 -0.023076791 0.4924251 0.12986389 0.3321179 0.22799464 -0.06309953 0.025350047 0.15763813 -0.08210169 -0.0831701 0.14708705 -0.16514 0.19164056 0.14662348 0.21870597 0.04097351 -0.20374621 0.12262962 -0.025317589 -0.23238704 -0.28509614 -0.7394491 -0.20047593 -0.065331936 0.045240797 -0.09949026 -0.21162485 -0.121024124 -0.15635383 -0.013771913 -0.31481257 0.39533746 0.029394574 -0.10495991 0.3634281 0.16653125 -0.10652711 -0.106353514 0.018054476 -0.09662366 0.21599086 -0.08246129 -0.2600733 -0.081586115 0.03756532 -0.111482225 -0.15942298 -0.08686388 0.39177495 -0.08953891 -0.22494164 0.014076279 -0.16215704 -0.20429476 -0.10155672 0.31115666 0.07098027
0.27481925 -0.27280602 -0.008523548 0.1457374 0.44721624 -0.04734273 0.24360286 0.123060346 -0.32497758 0.0971815 0.025665123 -0.0717392 -0.12161302 -0.0887389 0.090957925 0.110802196 -0.13393405 0.052654654 0.54760647 0.043417174 -0.034094296 -0.21200095 0.12960719 0.12762448 0.19044289 -0.08594168 0.13547628 0.15793324 0.2243608 -0.09918763 -0.058089856 -0.6059741 -0.15349802 -0.32562992 -0.0106830485 -0.027955243 0.12493283 0.14509887 -0.026945725 0.06121787 -0.09830635 0.14542437 -0.36780676 0.33194092 0.057710588 -0.041378275 -0.21582358 0.018338809 0.011280558 0.039588857 -0.09342231 -0.05998183 -0.008826717 -0.0215042 0.06929095 -0.06352373 -0.14136639 -0.15747796 -0.027077196 0.36365396 -0.3915899 -0.17775701 -0.31080174 0.1681394 0.029131364 -0.013324582 0.044461705 0.075389296 -0.15578774 -0.21244165 0.053604618 0.2615825 -0.05420555 0.053694133 -0.09912255 0.36023897 -0.21186297 0.007474276 -0.004081197 -0.14450489 -0.105926715 0.1859477 0.066315345 -0.28536922 0.06536058 -0.07145027 -0.019939331 -0.11501499 -0.30788708 0.040014166 -0.2722371 -0.102708295 -0.10900923 0.37008148 0.20545821 0.20417307 0.31168395 -0.2197586 0.4838184 -0.03539234 0.13666542 -0.025394924 0.036511343 -0.041947115 0.2575539 0.33019954 0.18288265 -0.19142304 0.18126446 0.47235012 -0.17167546 -0.07624043 -0.14788274 0.18586637 -0.08543836 0.022502044 -0.02095473 -0.13833758 -0.033874236 0.01242254 0.28646132 0.31862321 0.1617285 -0.28934923 -0.34299147 0.14479479 0.2994734 0.062303714 -0.07064849 0.10996998 -0.04354743 -0.11636703 -0.22335571 -0.21111359 0.20899743 0.06636685 0.095360905 0.0595836 0.3677921 0.13965261 0.17583299 0.29787683 0.22820069 -0.030343113 0.3542422 -0.016066985 0.096367225 0.065370664 -0.35730055 0.29569507 -0.12410528 -0.38714924 -0.044579096 0.16297698 -0.06312887 0.542783 -0.15469687 0.147357 0.23131306 -0.22010209 -0.18883121 -0.007360029 -0.10178847 0.02333255 -0.051496096 0.15485665 0.107714616 0.17551637 0.12956727 -0.10398228 -0.2397143 0.2815675 -0.033262365 -0.053810194 0.09672228 -0.12958503 -0.07710991 0.06805976 0.26969764 -0.19983566 0.78822637 -0.07327472 0.2025473 0.067190796 -0.23813869 -0.12703732 -0.38255614 -0.06809888 0.04677361 -0.0005485739 -0.17158905 -0.1111996 -0.15601219 0.1269138 -0.16012599 -0.56828254 0.13465314 0.27092582 -0.03324318 -0.28489125 -0.12602207 -0.015504135 -0.14888078 0.12684111 -0.28530252 -0.22834198 0.2990462 -0.1639543 -0.0012477435 -0.030075328 -0.20987864 -0.19409202 -0.08692455 0.011449706 0.27757242 0.09777024 -0.44129086 0.1531089 0.12564552 -0.23652092 -0.0117222965 -0.2515402 0.04347078 -0.2048799 -0.062091757 0.21916412 -0.078669615 0.15300024 0.105131336 0.30918258 0.77126896 -0.27238822 0.11929648 -0.37246627 0.23317093 0.008115861 0.14473787 0.027383396 0.21713063 -0.0512683 -0.18262346 -0.4166077 0.15331392 0.37808067 -0.2276972 0.32377416 0.067917615 0.052466527 -0.04909647 0.28766116 -0.15069245 -0.14720833 -0.19716316 -0.20637517 0.22498384 -0.10262666 -0.52236795 0.20779908 -0.8541648 0.2053979 -0.09013887 -0.35470927 -0.08129391 -0.050390564 0.35926753 0.1902142 -0.02082787 -0.3044679 -0.23042652 0.24047379 0.13583043 0.22258015 0.36317754 -0.16623574 -0.18358186 0.1822615 -0.1510824 0.38247803 0.2881056 0.16906571 -0.29792857 -0.059200414 0.031215277 -0.10227243 0.3040444 -0.042816263 0.17749563 0.10556395 -0.066947 -0.21870455 0.110594705 0.17124487 -0.16644496 -0.013920215 0.11528209 -0.18940857 0.055087123 -0.52137876 -0.19780271 -0.16198236
-0.11825457 -0.06629959 0.09907997 0.11924734 0.0918909 0.25737572 0.29647934 -0.18242998 0.30173385 0.08734776 0.40293667 -0.065165035 -0.094920635 0.27531147 -0.16555193 -0.1064822 0.2137914 -0.5064257 0.04434055 -0.17428789 -0.040535446 0.10942635 0.1665091 -0.33299574 -0.111342125 -0.3037655 0.40988007 0.3151291 0.21899101 -0.11302998 -0.17171384 -0.059752814 -0.0867821 -0.30396608 -0.3283084 0.021510392 -0.018411348 -0.06469238 -0.12195731 0.15783514 -0.04175605 0.043721646 0.27365237 0.32812148 0.0012047559 0.083250225 -0.62362295 0.45615637 -0.005357984 -0.23765635 0.14109667 0.36899427 0.13793549 0.3758563 -0.31789863 0.23517264 -0.64289373 0.36007458 0.41297567 0.119996846 0.27947083 -0.5752048 -0.28580615 0.19639747 0.08251644 -0.4114633 -0.33279645 -0.28020623 0.019938676 0.23369518 -0.06669022 -0.1263205 0.15410891 -0.2720604 0.14746752 0.41101727 -0.032884974 0.30766374 0.46627295 0.07337136 0.26956505 0.12499007 0.14652775 -0.14853115 -0.63652587 0.6349766 0.06512266 0.1474601 -0.030141389 1.1104301 -0.35655156 -0.5493894 0.046741392 0.111096114 -0.41829875 0.028471844 -0.4713929 0.044690065 -0.22982368 0.16564602 0.051931813 0.49997893 -0.07906961 -0.39607164 0.085094206 -0.033438105 -0.35946268 0.49728057 -0.31795433 0.043735594 -0.4837824 -0.4014664 -0.41523188 0.36978352 -0.1580926 -0.43322763 0.4018505 0.25126088 0.42015216 -0.34533086 0.42099652 0.1731647 0.04620164 -0.109003305 -0.18796676 -0.5794185 -0.004518028 -0.1841345 0.072440706 -0.060141083 -0.088190496 -0.018001013 0.68005 0.253261 -0.2696518 0.08680421 -0.5115566 0.21016464 0.23030837 -0.1344726 -0.24673787 -0.4774816 -0.5019 0.12143307 0.3414466 -0.013188054 -0.23333102 0.29241666 0.21804804 0.14275046 -0.30259168 -0.3869102 -0.18335003 0.04552904 -0.099613026 0.2614139 -0.18116145 -0.028643524 -0.18725944 0.13296257 -0.49927342 0.16480632 -0.34762365 -0.5565484 -0.3535569 0.14913543 0.078499116 -0.28368285 0.32281113 0.0087782955 0.2776281 0.2963733 -0.36936226 -0.30305794 -0.11264834 -0.13417917 0.4019527 -0.16695036 0.41885886 0.7187193 0.29806927 0.46001038 0.19968227 0.68506366 -0.36641666 0.11470849 0.19324727 0.07367233 0.17279367 0.29228398 0.24615076 -0.121343516 0.15234128 0.27630797 -0.5042295 -0.016943062 -0.043455143 0.05314614 -0.110474356 0.8969632 0.26228896 -0.12717597 0.37336782 -0.47395238 -0.0037333202 -0.25965348 0.4552796 -0.0138205625 -0.11461131 0.1475001 0.40689397 0.04155935 0.03387335 0.24048097 0.3115052 -0.035475623 -0.44427526 -0.105256245 0.21410036 -0.48611543 -0.2473263 0.009639101 0.07873395 -0.11080902 -0.61302406 0.21078606 -0.007876253 -0.06930613 0.5144641 0.42042255 -0.2392912 0.30619332 -0.25626302 0.007858131 -0.76668984 0.30729297 -0.23925395 0.0076219905 0.44340655 0.515639 0.036723264 0.5016629 0.6238083 -0.11642786 -0.35976803 0.13111606 0.014405122 0.0067694937 -0.4116169 -0.6979927 0.22971408 0.106466606 0.033151377 0.5712456 0.2698486 -0.14376472 0.05046799 -0.1904271 -0.40648612 -0.13675407 0.18145254 -0.314573 0.33865306 0.20931026 -0.20514414 0.15598801 -0.3045263 -0.3039885 -0.07850502 -0.17774223 0.38720182 -0.021953048 0.42850712 -0.19609182 0.4307493 0.4286324 0.2556652 0.007971337 -0.07664058 -0.37949535 -0.14446758 0.36379638 -0.32270297 0.6099056 0.10044566 -0.0017746853 0.041626107 -0.69229525 0.1690828 -0.079899296 -0.12775986 0.115898885 0.19566447 -0.33741078 -0.29975656 -0.46991187 -0.38212118 0.00028421814 0.4201356 -0.41059732
0.070651904 0.109389804 -0.4298569 0.31370282 -0.4129327 -0.14087784 0.18697965 0.010072981 -0.19580552 0.22890522 -0.13230336 0.22678532 -0.36823416 -0.5256786 -0.1857012 0.173163 0.35096177 -0.11976317 0.15563884 0.38723367 -0.11512541 0.26008692 -0.514436 -0.120624185 -0.29977828 0.091084935 0.5911583 -0.20829262 0.21933632 -0.19975764 -0.18971975 0.029745618 0.5538432 -0.08928594 0.26139733 -0.42548504 -0.3324627 -0.16313502 0.54106766 -0.1498548 0.25864738 -0.2458443 -0.30179965 -0.6506099 -0.29898152 0.011515426 -0.27330178 -0.1069289 -0.009989477 -0.13284762 0.17950787 -0.3546064 -0.12806205 -0.01640121 0.7271314 -0.05758328 -0.4621751 0.15553565 0.3175694 0.2020969 -0.05973288 -0.022278441 -0.021223098 -0.38328207 -0.062016793 -0.3848035 0.18421592 -0.47825652 -0.5228778 -0.21043862 -0.15950623 0.025908347 -0.12421406 -0.18928349 0.094967894 -0.014301254 0.21821146 -0.20983186 -0.15207902 -0.31834796 0.097143404 0.24123316 -0.383675 0.17955352 -0.120967485 0.09041446 0.1998266 0.11808208 0.26153064 0.009738376 0.008835328 -0.56972754 -0.29174015 -0.3833987 -0.34037852 0.08863243 0.36937317 -0.013113737 -0.22338925 -0.03323784 0.4575 0.1197873 -0.28460237 -0.08231212 -0.21156353 0.16157891 0.14908837 -0.33477402 -0.35249868 -0.108257525 -0.21779636 0.3714682 -0.18889205 -0.2443477 -0.6410222 -0.22023779 -0.08941198 -0.16258886 -0.15982732 -0.11985052 0.005649988 -0.15053435 0.26588425 -0.018734703 -0.46163753 0.42284966 0.12344905 -0.15901062 -0.05277291 -0.2708224 0.34025434 0.48358053 0.59886765 0.04182168 0.36501378 -0.27739483 -0.093204215 0.31284717 -0.43557188 -0.35702696 -0.013474629 -0.042866994 -0.16578771 -0.6070309 -0.046178404 -0.3739248 0.06666475 0.2225913 -0.34824958 0.34848875 0.101838194 0.12482089 -0.5937377 -0.56088895 -0.21693677 0.013194655 -0.016333984 -0.15749311 0.24712878 -0.047154013 -0.048488 0.2715033 0.17731237 -0.37265798 0.01648137 -0.2026636 0.19344819 -0.4632012 -0.079315804 0.6054207 -0.3153697 -0.052747484 -0.053214226 0.09802008 -0.5483034 0.2197405 0.28630596 0.12118632 0.15211439 0.110682376 -0.23619705 0.12462944 -0.120175116 -0.11558769 0.6963929 0.37442857 0.30045742 0.32665423 -0.06381413 0.24093096 -0.14624833 -0.014186745 -0.066908956 -0.23172957 0.02998089 0.114280716 -0.07274064 -0.09005136 -0.15801059 -0.43805155 -0.029679699 -0.40880334 -0.016050993 -0.14543046 0.1228876 0.06669103 0.11856053 0.17296936 -0.41175064 0.092589974 -0.24817517 0.27231073 0.2916293 0.1506483 0.032266304 0.058034856 -0.0150845805 -0.4575638 0.19945304 0.049609475 0.06913457 -0.064961 0.7301709 0.698806 -0.37979418 -0.096479245 -0.21927918 -0.61951613 0.3402588 -0.12945439 -0.113256566 0.46802807 0.37463444 -0.2135126 0.022315426 0.10217096 -0.19074802 0.44735736 -0.4280767 -0.092361264 -0.53704476 -0.04932856 0.0033771028 -0.30591708 -0.24014513 0.025602104 -0.2378595 -0.0060816463 0.021430274 0.09578759 -0.3203004 -0.04242676 0.3484626 -0.25406504 0.09781426 -0.094109066 0.43679482 0.1928851 0.4434325 0.46323812 -0.085271865 -0.10921647 0.40036803 -0.04048322 -0.090170026 0.62307197 0.14020145 0.05678789 -0.13990039 -0.1981801 -0.014737555 -0.03711888 0.1758737 0.0019377741 0.035643402 0.18028265 0.03689212 -0.1756198 0.010820362 0.059250288 0.15574126 -0.020683601 -0.004131619 0.45583653 0.07025695 0.17633441 -0.03758316 -0.16944422 0.17939939 -0.012746533 -0.1032208 -0.054314747 0.14526978 -0.13422357 0.61758983 -0.3632762 0.43149623 0.040445495 -0.25514212 0.051806614
0.28466317 -0.051573902 0.11287942 -0.12106254 0.20772482 0.3454337 -0.11103883 -0.059713103 -0.39126524 -0.068013616 0.047791585 -0.35911903 0.11228028 -0.11993372 -0.23012553 0.18753567 -0.36817253 0.09171348 0.27507186 -0.22921303 0.056386027 0.2723873 -0.050309986 -0.14410864 -0.11334716 0.052509967 -0.4210705 0.029948926 0.11118779 -0.22356276 -0.012447315 0.07455461 -0.5056077 -0.27901784 0.28728703 -0.119657174 -0.70987934 0.10130717 0.1138904 0.18329462 -0.11713766 -0.058108564 -0.10896136 -0.051395055 0.094337195 0.25294212 0.18217821 0.06924384 0.072693564 0.21579131 0.17132956 -0.14471035 -0.10059812 0.16134474 0.19056302 -0.12659104 0.48514053 -0.098919794 -0.49440816 0.16727453 0.09363544 0.04541219 -0.075169586 0.060204554 0.27211696 0.40612772 0.2701033 0.31380382 0.07319344 -0.29507852 0.14623281 0.08206521 0.060115516 -0.4594942 -0.29402086 0.38190988 0.013039515 0.38712877 -0.14411886 -0.3968703 0.19262336 0.020376036 0.069345616 -0.2176662 0.17560984 -0.16654667 0.14126706 0.4726653 -0.09547543 0.04641994 -0.12201613 0.17037946 -0.20269386 0.23192193 0.04153583 0.06635443 -0.10133763 -0.45187956 -0.042697035 0.42442092 -0.120834276 0.33628184 0.20446189 0.18158618 -0.27365422 -0.10956569 -0.15428436 0.14929725 0.12699462 0.44669962 0.27116594 0.076927334 0.08605775 0.21798097 -0.09965856 0.27405393 -0.2009437 -0.19104531 -0.24757104 0.08938249 0.34444192 -0.20993009 0.088022664 -0.19452164 0.29431805 -0.22305298 -0.12999545 0.5031606 0.08497085 0.0559107 -0.2715942 0.109739125 -0.37794727 -0.4422192 -0.3466209 0.305321 -0.16827062 0.3668978 0.61000013 0.037419192 0.12348541 -0.061735544 -0.03692017 -0.112477645 -0.13362245 0.124669135 -0.1744366 0.13111596 -0.18449001 0.108709335 -0.14077286 -0.03863664 0.06757057 0.062480357 -0.15516846 0.5025286 -0.25913846 0.11698099 0.23672728 -0.13420704 -0.058584344 -0.12606752 -0.24970794 0.1745563 0.18929598 -0.12857427 -0.18617295 0.24299222 0.2664399 0.19599864 -0.29827023 0.40108106 0.15069163 -0.039081194 -0.093729705 -0.29689336 0.2766962 -0.425113 -0.08323857 -0.36160815 -0.05674297 -0.018399213 0.064015314 -0.2471063 -0.2561181 0.24685785 -0.06747145 -0.29545513 0.4365443 -0.43791592 0.6073079 0.046283614 -0.2869341 0.2511887 -0.584076 0.16094953 0.02277987 0.18078147 0.24707879 0.025202814 0.12624185 0.3848663 -0.14216693 -0.3766405 -0.15093675 0.05272274 0.014572346 0.18950185 0.12696815 -0.027470145 -0.19566981 -0.55279696 0.1873774 0.25432274 0.036206413 0.28342277 -0.09148899 0.009738578 0.16379249 0.09087757 -0.20224181 0.047991086 0.3903585 0.081380256 0.33012828 -0.053365577 -0.0848745 0.15999621 -0.3057955 0.0526833 0.041803136 0.20442112 -0.419303 0.019707803 -0.13492897 0.24879973 -0.17662174 -0.15877831 0.118424125 0.05300918 0.12631759 -0.26874387 -0.09440148 0.057186186 0.11634461 -0.24778838 0.064300984 -0.15732655 0.22526698 -0.26918137 -0.11473285 -0.00534189 -0.12859818 -0.2771453 -0.28065518 -0.13624366 0.0030460656 -0.3442041 0.13787498 -0.14412656 -0.12625512 -0.0077951816 0.20929927 0.23162702 0.12882707 -0.22371499 0.25132087 0.03662979 -0.14101852 0.01831678 -0.41386774 -0.057716 -0.15614894 -0.26851875 -0.4612671 0.06955662 -0.2887809 0.25986478 -0.024616495 -0.046680447 0.1311894 -0.033201504 -0.5138425 -0.25998873 -0.17283478 0.17634962 0.031294595 -0.08213315 0.44783297 -0.13160755 -0.014476601 -0.00973619 -0.012079979 -0.113686025 -0.4732157 -0.098532744 -0.25988686 -0.07117573 -0.059512448 -0.030421922
-0.17542702 -0.23698518 0.30102924 0.6081564 -0.14215541 -0.056317907 -0.3094088 -0.17759682 -0.14121586 -0.1950997 0.007042699 -0.20421362 0.09073044 0.17255288 -0.089442365 0.19516027 0.06020778 -0.07909946 0.24443668 -0.03384464 0.21167095 -0.095626 0.0050609796 -0.10473201 -0.05865994 0.010126594 0.099433206 0.10636987 -0.020600708 -0.32711634 -0.38908255 0.016832814 0.18067634 0.03149977 -0.24691047 -0.1723491 0.068504065 0.0017376274 0.035337508 -0.069547765 0.22969574 -0.1810943 -0.32538182 0.10378726 0.1356052 0.0031914436 -0.016663823 0.24168094 0.008068238 -0.491449 -0.049605172 0.19577956 0.2967466 -0.10201294 -0.1975173 -0.5452603 -0.6870873 0.16102518 -0.21365294 -0.06494739 0.25998968 0.15287732 0.018986728 0.06364955 -0.43046647 0.49233556 -0.1455561 0.11426615 -0.12073739 0.011206304 0.03310168 -0.13946547 0.033825796 -0.41997617 0.0028000802 0.12245969 -0.0725126 -0.1285502 -0.09070852 0.055478696 0.34743685 0.14705352 -0.161916 -0.2461542 -0.0058040526 0.36642423 -0.34002718 0.1285217 -0.31280532 0.032719757 0.17561515 -0.35903028 -0.20774765 0.37139076 0.012893071 0.23950432 0.12286884 -0.05041438 0.13231193 0.22399968 0.42854986 0.26674923 -0.050304335 0.18630312 0.05918983 0.527302 -0.4324554 -0.40745375 -0.27712962 0.30827814 -0.77798665 0.114739776 0.030781614 0.40083846 0.057797194 -0.0960156 0.14943904 -0.25911662 -0.2924508 -0.1021811 -0.35978037 0.017734524 0.3368777 -0.25513196 -0.29492185 -0.07817294 -0.13144648 -0.091583416 0.33763394 0.060862537 0.20315458 -0.061848916 -0.23575184 -0.09979811 0.044697046 0.1194758 0.29393312 0.21754739 -0.15486325 0.03934501 -0.33243188 0.30197382 -0.018611945 0.18496586 -0.016454559 0.33151907 -0.027032802 0.01813567 -0.17867842 0.4047263 -0.094822645 0.19710553 0.026075464 0.33527473 0.0017309467 -0.110141434 0.26568833 -0.17037025 0.22437157 -0.24030575 -0.11283581 0.4428898 0.07015051 -0.44220746 0.2049114 -0.075228386 0.076393984 -0.16145046 0.39555362 -0.15307657 0.3143455 -0.38084206 -0.23546335 0.021800123 -0.010895542 -0.17931204 0.29485112 0.074842714 0.08359769 -0.012526946 0.59549373 0.15711722 -0.015595513 -0.15930527 0.20450899 -0.3786606 0.10177115 0.18676335 0.22153969 0.45122477 0.17460047 0.072248265 -0.6302567 0.0069797384 -0.09740832 0.027701661 -0.29110315 0.1152804 0.15178744 -0.28514558 0.021204893 -0.09762668 0.109942146 -0.23760104 0.29913992 0.036180254 0.20290501 0.21541679 0.049932543 -0.17787151 0.10555213 0.37942946 0.30084327 -0.15805256 -0.02519649 -0.10398906 -0.24922243 -0.070588894 0.09962982 -0.289069 0.04891337 0.01024985 0.10788962 -0.128911 -0.4389975 -0.33125198 -0.20209509 0.075816646 -0.20842943 -0.033097178 -0.1675239 -0.15452121 -0.00035827092 -0.28227916 -0.12135361 -0.16979384 -0.27630994 -0.10841894 -0.03471151 -0.056776486 -0.25444332 -0.2169585 0.41656584 -0.30451033 -0.33935446 0.042720124 0.046013657 -0.2761142 0.019105379 -0.30802786 -0.09829601 0.17416774 -0.4180257 -0.22492634 0.14382331 0.1784835 -0.07149212 -0.4937192 -0.312357 -0.18347947 -0.17199703 0.1341044 -0.050773386 0.006793165 -0.33527675 -0.09396357 -0.32455245 0.300823 -0.43255094 0.3469995 -0.019602686 -0.14564131 0.5048499 0.065925464 0.021518841 -0.094453715 0.068645515 0.074538596 -0.0646903 0.060001276 0.043174922 -0.15148863 -0.022477975 -0.17545614 -0.01110475 -0.044047542 0.15478434 -0.082378484 0.26584047 -0.1266761 -0.114310384 -0.06823156 0.03211108 -0.0947152 -0.018169913 -0.27159822 0.104864046 0.07271282 -0.18440644 0.10663793
0.20041406 -0.7117311 -0.15170535 0.30546528 0.23649973 0.10137319 -0.0078371065 -0.39102724 0.16816533 0.004787796 0.116605185 -0.04303235 -0.056564644 0.1042683 -0.015438531 -0.043930497 -0.016863009 -0.009869864 0.046820663 0.08113482 -0.4822697 0.5550576 -0.21696317 0.021182993 -0.18505737 0.07379618 -0.09370332 0.30345815 0.39290947 -0.21160719 -0.31723654 0.056764424 -0.30272725 -0.13734072 -0.110320374 0.47138184 -0.23525621 0.15562166 0.099532254 -0.04004879 0.59432846 0.12492034 -0.06139183 -0.0573021 -0.10688604 -0.35182962 0.3934377 0.020622492 -0.15605676 0.08305932 0.28992116 0.0037813166 0.033803742 -0.11891326 0.32636338 0.062721536 0.48764217 -0.38615105 -0.19027814 0.4186589 0.007950311 -0.092445575 -0.13140412 0.03225394 0.21035986 0.081332944 0.08387623 0.07494695 0.10710353 -0.20257106 0.037241865 0.015028746 0.25197467 0.2862851 -0.21111323 0.4425387 -0.08662073 0.23605429 -0.22053178 -0.23792505 -0.43298948 0.15769659 0.12984388 -0.038678378 0.30062345 0.10878942 -0.074368455 0.17073229 -0.1286445 0.05165274 -0.3258038 0.0027781583 -0.3379309 0.014605349 0.22703138 -0.3044632 -0.060278498 0.051162463 -0.0012845498 0.10794512 0.21676967 0.09256659 -0.123306476 -0.0618096 -0.04614231 0.08666712 -0.30696148 -0.01788943 -0.15970589 -0.041781392 0.3075415 0.14126068 0.01640723 -0.15490259 0.0011641688 0.06377298 -0.16785274 0.24822246 -0.28657755 -0.13155307 -0.16050735 -0.060108207 0.4367892 -0.049644228 -0.051971648 0.15535425 0.24328806 0.2327291 -0.15687102 -0.1301234 0.28401846 0.20194784 -0.33879688 -0.003169327 -0.03987241 -0.40612286 -0.25056195 0.016334474 -0.1222616 0.30966067 -0.03278542 -0.09275161 0.15966952 -0.12995064 -0.15755357 -0.11796737 -0.37660828 0.18266247 -0.38200724 -0.44820622 0.08891985 0.072311625 0.0036761193 0.03451475 -0.39982468 0.15834312 -0.09834519 -0.41634718 0.40383172 0.03735486 -0.118899494 0.20550156 -0.29263914 0.3629221 0.02829337 -0.13186501 0.18710575 0.46242473 -0.010558979 0.20379046 -0.015874095 0.19497558 0.17307985 -0.055616777 -0.251054 -0.017713891 0.2899299 -0.3766356 -0.49958074 0.027605087 0.29992083 0.01126501 0.0629047 -0.041632365 -0.16693002 -0.105651855 -0.23029916 -0.07403733 -0.09993561 -0.21524969 0.59439737 0.30886242 -0.22486445 -0.028956143 -0.47176012 -0.08895321 -0.324878 -0.044337098 0.103960946 0.16271237 -0.30311096 -0.0159019 0.06895391 0.1198266 0.15602474 0.03687985 -0.11425812 0.21497586 -0.011764204 0.08167055 -0.2583591 -0.2917599 0.3564631 -0.20002942 -0.056205146 0.15085499 -0.48751765 -0.16446012 -0.4547027 -0.037004046 -0.1280583 -0.024907291 -0.21088092 -0.16092353 0.073170416 -0.14277573 -0.5499942 0.0050446927 -0.29747772 -0.09063866 0.22471781 -0.08143282 -0.032487504 -0.24555121 0.26287898 0.08470537 0.086260684 0.11486329 -0.27909848 0.15857986 -0.119658306 -0.14302215 -0.027932797 0.028084846 0.18500601 -0.21177837 0.1427851 0.080101706 0.52417487 0.08345044 -0.13916332 -0.019324161 0.41763616 -0.1721814 -0.036529288 0.28494373 0.23584671 0.32342514 -0.36631584 0.34913048 0.0024937913 0.2430619 0.021421207 0.03253339 0.011585923 0.16532831 0.09972562 -0.35013297 -0.13960603 -0.37202856 0.14714502 -0.028654192 0.03142697 -0.19476014 -0.25821677 -0.24399935 -0.06652336 0.57373357 0.15085179 -0.011866819 -0.22110865 0.16843306 -0.2840953 -0.12096012 0.102694735 -0.010705848 -0.29773948 -0.0890689 0.29825523 -0.1611966 -0.03959269 0.09263457 0.18933351 -0.375667 -0.36102638 -0.18574934 -0.17856856 -0.34877217 -0.11929017 -0.08944629
0.14891145 0.43913448 0.6002127 -0.26973778 0.20535943 -0.15391415 0.0029545731 -0.032449115 -0.046737563 0.20842907 -0.005059964 -0.22519074 0.2510694 -0.02345861 0.4337903 0.101996094 0.39318338 0.17884724 0.26419732 -0.008333337 0.14260091 0.0510422 0.09136262 0.1525001 0.045927435 -0.3813134 -0.06372295 -0.027165527 0.027034657 0.039287493 0.08171142 -0.36586732 0.06909526 0.12734047 -0.111439064 -0.056506038 0.023283213 0.46671373 -0.16144603 -0.13157573 0.031216137 0.11947501 0.18392971 0.14161794 0.17061137 0.25545487 0.22036539 -0.054875832 0.11638521 0.019054947 -0.031913977 0.03385095 -0.32580683 -0.15985072 -0.15835632 0.42275113 0.21721861 -0.1797823 0.24557784 -0.27251238 -0.31632167 -0.16020922 0.076135814 0.4210879 0.06478423 -0.52268225 -0.18203084 0.104446344 -0.08195015 0.28277543 0.11385457 0.08486275 0.018175814 -0.26933697 0.052889727 0.099653006 0.002410329 0.15943988 -0.06734945 -0.0041441806 0.099923246 -0.28392315 0.31297785 -0.08225906 -0.076171346 0.063122995 0.015441055 0.024234973 0.007828091 -0.2261241 -0.26861295 0.08109776 0.22719675 -0.17662373 -0.37533364 -0.2492232 -0.042395998 -0.0420956 0.033237994 -0.10922726 -0.16951765 0.044600654 -0.11261262 -0.062522724 0.17041364 -0.16775171 -0.036860727 -0.2700613 0.18841948 0.07056214 0.21033555 -0.3859992 -0.12534097 0.034132842 0.042298015 -0.1817457 -0.022432076 0.0042814473 0.42821527 0.08336936 -0.0055022575 0.42592022 0.054523595 -0.007584516 0.20210384 0.24056102 -0.08702321 -0.23581822 -0.42322782 0.07788704 -0.38053507 -0.08491042 -0.14120659 0.06177381 -0.062905386 0.21544825 0.5421605 -0.103536256 -0.07602617 -0.2512542 0.37167576 0.12631182 -0.35965386 0.17742507 -0.288746 0.09677881 0.11078427 -0.16499113 -0.2603874 -0.040289223 0.2516396 -0.12742582 -0.29103243 0.01380698 0.22560735 -0.23234655 0.14706393 0.4157243 -0.080690295 -0.12012812 -0.2587514 -0.14292915 -0.14458263 0.15510112 0.1099997 -0.04857751 -0.25356898 0.0859411 -0.3514785 -0.10148002 -0.38100326 0.2598586 0.16333847 -0.26637402 0.34868136 0.068306744 -0.1212071 0.06565501 -0.11463262 0.051186644 -0.1723733 -0.35184833 0.15437959 0.2922101 -0.10959609 0.0624961 -0.17697917 -0.018158553 -0.11548513 -0.10030036 -0.17359462 -0.0456201 0.01056683 0.11674591 0.4595282 0.2045662 0.14093678 -0.05854457 -0.23184602 -0.048632193 -0.14119855 0.15620081 -0.12252389 -0.009993084 -0.24417585 0.06992358 0.015194193 0.15606989 0.16531657 -0.26720688 0.10933106 -0.34149295 -0.29101828 0.04121926 0.24171028 0.25849876 0.22912546 0.20148407 0.27241966 -0.002528725 -0.029163495 -0.26037917 0.19392197 -0.1263801 0.30348063 0.12060644 0.06375787 0.09431866 -0.118035436 -0.10512098 0.138556 -0.07783778 -0.10442073 0.20882899 0.29743224 0.29249522 -0.023922917 -0.08303491 0.005571417 0.06225767 0.28461117 0.07341523 -0.20869492 -0.04924296 -0.21802483 0.17308688 0.1833504 -0.14119123 0.098671645 0.06670358 -0.15122011 -0.02470742 -0.09214964 -0.104715936 0.035635546 -0.2925908 -0.31331143 -0.08608905 -0.0816276 -0.027097007 0.023293577 -0.2277505 -0.15482362 -0.39269322 -0.008766707 0.1376222 0.12099993 0.009597309 -0.12777911 -0.40652052 0.1639055 0.09746912 -0.13632786 -0.14886166 -0.02138577 -0.037759453 -0.20283553 0.47304296 0.2329148 0.51445436 0.015122078 0.2337459 0.21398577 0.37008473 0.2282567 -0.09710117 -0.15284516 -0.11551043 -0.4363723 0.5411589 -0.26592097 -0.20298667 -0.0028150734 -0.14009272 0.11317971 0.12772968 -0.170852 -0.016655952 0.24023733 0.07036259
-0.38167697 0.07471953 -0.47638762 -0.13645983 0.06514893 0.16298343 0.37855428 -0.051797412 0.069036566 0.30916458 -0.07589977 0.24816047 -0.15333526 0.16862583 -0.14646965 -0.2837488 0.21975386 0.02850595 0.30455655 0.32786843 0.3464183 0.25724623 0.11688322 0.2573628 0.4401983 -0.1864301 0.1441624 0.06607234 -0.034125388 0.33048946 -0.17167243 0.2494441 0.3291489 0.15010552 -0.44873688 0.19516337 -0.3460783 0.0033720287 -0.0140026575 0.022625515 0.0073326956 0.29940322 0.30534926 -0.15718846 -0.067151114 -0.18465713 0.01756336 -0.2023174 -0.31701887 -0.045893613 -0.37438738 0.22477034 0.25163537 -0.2360847 0.40875223 0.5078726 -0.36192495 -0.023993604 0.5534208 0.14567466 0.2548414 0.19042732 0.032026425 -0.025568007 -0.22214223 0.065009914 -0.093437314 -0.43157008 0.21700983 -0.1357133 -0.38379255 0.058829285 0.114096604 0.020787066 0.04856706 -0.30507478 -0.57439536 -0.035084166 0.044451334 -0.21087445 -0.1820949 0.24201357 -0.23254202 0.13863671 0.55397147 0.6338139 -0.18860197 0.25409892 -0.10073283 0.6066673 0.029034834 -0.2781439 -0.077652276 0.26242983 0.015710723 -0.3206613 -0.6237706 -0.1969723 -0.0701952 -0.26738495 0.14535743 0.08979764 -0.3661072 0.14004888 -0.0518978 -0.22341159 -0.11212413 0.085000135 0.37156454 0.20644665 -0.17955448 -0.27224883 -0.027088588 0.30416813 0.16238327 -0.36395523 -0.1665516 0.21184637 0.41203943 0.11393815 0.10369736 0.013251656 0.0532533 0.20788977 -0.12421046 -0.40002257 -0.29089934 -0.37893006 0.10728086 -0.102799274 -0.3096325 0.4555313 0.34566242 0.0068741785 -0.33283034 -0.062612265 0.092247196 -0.31818753 0.12337384 -0.27337 0.2920616 -0.056161165 -0.09051471 -0.5553663 0.045045555 -0.2781981 0.08912999 -0.088991076 0.2818935 -0.3605596 0.09731161 0.33108598 -0.18781243 0.16225879 0.50895476 -0.15166101 0.13074394 -0.1636597 -0.22178498 0.33331394 -0.090807065 -0.7175417 0.10204158 -0.14559226 0.5020569 -0.25979868 0.3253409 0.121540576 -0.07836317 0.09300183 -0.13637999 -0.34355894 -0.235534 0.17891519 -0.3728069 0.532938 0.14368603 -0.3229948 -0.121701024 0.35990205 0.048302382 0.03905183 -0.3824273 -0.013867989 0.19946939 -0.27600762 -0.12321695 0.18957275 -0.34513777 0.15738712 -0.5879481 0.20469476 -0.120417215 0.022789363 -0.20514451 -0.057300862 0.47027326 -0.069446854 -0.115045205 0.09081613 0.15929797 -0.34202296 0.1703794 0.083791755 -0.029101906 0.27687615 0.1836462 0.010735777 -0.25870833 -0.05208314 -0.015339091 0.13158254 -0.25524876 -0.22936837 -0.2054973 0.30934665 0.25197887 -0.49242505 -0.38618374 -0.13510644 0.09730918 0.16951069 0.12267726 -0.21566892 -0.29935363 -0.27477935 0.58576846 0.32731473 0.26926827 0.3141082 -0.020349769 0.0008458189 -0.21669261 0.3666747 -0.323884 -0.19511889 0.11539175 -0.15372056 -0.067373134 0.24911372 0.17172483 0.35676196 0.16560584 -0.10148037 -0.234811 -0.02568594 -0.35614124 0.097919725 -0.547141 -0.3617599 0.4144753 0.123399384 0.18340154 0.043053083 -0.3364333 -0.0108910175 -0.004588956 0.38316172 0.20198934 0.3144008 0.18808192 0.19470406 -0.32875702 0.13374847 -0.23707652 0.085244976 -0.20349306 0.5220144 -0.042176045 -0.11430876 0.30822304 -0.26051667 0.3008781 0.12072661 0.38491613 0.12737699 -0.06323549 0.09840425 -0.19296344 -0.2702824 -0.091561586 -0.06521722 -0.22043557 0.04075718 0.0902365 -0.42768306 -0.2817234 -0.4704818 -0.2761377 0.10505316 -0.51469946 -0.49224326 -0.31122786 -0.027795892 0.11827182 -0.2760684 -0.009552441 -0.02905212 0.03298754 -0.0061180205
-0.2785898 0.031103715 0.06699836 -0.22343877 -0.75948936 0.120112315 0.03985424 0.22425722 0.27168432 0.30268383 0.1531462 0.20356019 -0.20394544 -0.34265324 0.18873657 0.07330369 -0.10454367 -0.34050632 -0.669461 -0.1460348 -0.1963307 -0.23401843 0.07120425 -0.05670175 -0.11622012 -0.21560314 -0.38834473 -0.17322299 0.16046844 -0.07294134 0.094652526 0.18334335 0.577997 0.2251906 -0.13935818 -0.006965971 -0.012120093 0.010435492 0.086960614 -0.14656581 0.04488085 -0.25201544 0.36210564 -0.0711565 -0.16342095 -0.12128359 -0.13763681 0.022641411 0.15732166 0.26027426 -0.158481 0.042313524 0.044957276 0.18479748 0.04638895 -0.21354514 0.123339444 0.09624035 -0.10429055 -0.024022993 0.017549533 0.11860507 0.113384 -0.102783464 0.12993708 -0.22897361 -0.16892739 -0.41509417 -0.05352881 -0.089436 -0.050838705 0.107255764 0.046570476 -0.080934264 0.06133343 -0.69129324 0.44521952 0.45905316 -0.15879631 -0.0035560492 0.26341677 -0.26319268 -0.5627516 0.42237404 -0.2888403 0.19438706 0.08167224 0.12538299 0.3154241 -0.08572555 0.07476598 0.004432938 0.12263604 -0.07332058 -0.19400927 0.17190066 0.075152904 -0.13930018 0.10729276 0.23535806 -0.1725259 0.05571709 0.029071672 -0.03296241 0.14440799 -0.2349307 0.11566139 0.22600764 -0.37032238 -0.0099218255 0.0029835997 -0.36102507 -0.2057631 0.2300808 -0.059840154 -0.029285459 0.31448177 -0.24177703 -0.38795897 0.21548884 -0.17217313 0.19604479 0.06596025 -0.30913028 0.042134363 -0.15151395 -0.076477185 0.101272225 -0.14722702 -0.13382854 0.27450514 -0.014754185 0.012159404 -0.2255087 0.44373417 -0.013873957 -0.04728737 -0.14680474 0.16176711 -0.023692878 0.24966632 -0.030301142 0.27955 -0.04136641 0.14515842 -0.097076096 -0.05320586 -0.32828328 0.091271035 0.3304973 -0.074837945 0.19846798 -0.11513904 -0.29656947 -0.05522379 0.18196265 -0.12763381 -0.068353064 -0.6294838 0.18874238 -0.01726378 -0.45972848 0.004884361 0.06985096 -0.023546517 0.059496652 -0.23030972 -0.50085604 -0.24622396 0.05693694 -0.12922451 -0.35215503 -0.006038048 -0.053387947 0.05413909 -0.0383751 -0.21230441 0.45686764 0.004766065 -0.21560141 -0.28501317 0.09608831 0.055942282 -0.11970489 0.5162246 0.25494564 0.19023316 -0.029089773 -0.11944171 -0.033489674 0.19170891 -0.077249415 -0.23357959 0.17302552 0.09109051 0.506336 -0.009896257 -0.0631268 0.07769274 0.06156166 -0.42772743 0.05823825 -0.05854992 -0.06570549 0.2622954 0.052560277 -0.058354884 -0.2400765 -0.30964923 -0.22738783 -0.3474065 0.35025603 -0.18261132 0.025507024 0.20528604 0.18686451 0.013829684 0.13637142 -0.10545789 -0.009050811 0.16671748 0.08618095 0.0051238583 0.52431446 0.58115554 0.15445204 -0.13479654 0.005113335 0.076480895 -0.023660425 -0.21532233 -0.081489444 0.34711054 0.121335596 -0.18950401 0.049381822 0.3074479 0.45059142 -0.14095873 0.1135434 0.22713657 0.09643471 -0.6129333 -0.157858 0.13512455 0.028276157 0.16729738 0.32172 0.4140784 -0.49948493 0.1815238 -0.21947335 0.53134173 -0.21355718 -0.24476536 -0.14979933 0.034790065 -0.0151397055 0.06289849 0.31474456 -0.1966393 -0.013411725 -0.09566588 0.019883443 0.04069297 0.35102877 0.13942473 -0.12923671 0.12537976 0.08333057 0.11418579 0.0140827885 0.09478242 0.5747138 -0.18988734 0.065641835 -0.21051194 -0.40589872 0.023537837 0.22351092 0.08988005 -0.15083727 -0.2776481 0.03164952 0.090182796 -0.045172308 0.055774044 0.34755975 0.104762085 0.45630705 -0.06627803 -0.044172954 0.009148245 0.34993008 -0.18337959 0.34324136 0.23596087 0.42816785 -0.48155212 0.011457981
0.11959523 0.2727995 0.10075289 -0.0115238335 0.23668912 -0.019464882 -0.24983294 0.029835165 0.07472086 -0.3014978 -0.3612703 0.10889779 -0.06814622 0.0013962782 0.06310348 0.0011692081 0.08688886 0.06678637 0.29475173 -0.0002497884 0.06169075 0.12550682 -0.24937162 -0.019832639 -0.10936749 -0.085780255 -0.023698416 -0.40558413 -0.11820037 0.100302525 0.024248777 -0.08839017 -0.17408173 -0.16417377 0.29339376 -0.4278165 -0.7366523 0.39700383 0.04918205 0.28843796 -0.3366023 -0.03786467 0.08787728 -0.3194854 -0.0113898525 0.24601671 0.020026162 -0.03591726 -0.04871948 -0.26391608 0.07940445 0.056620263 0.029802257 0.03748311 -0.122415036 0.11236195 0.12792484 0.30162206 0.06735795 0.35306796 0.15810677 -0.034169007 0.051827442 -0.045758255 -0.37560025 -0.13785884 -0.0960852 -0.1889944 -0.10272309 -0.20225501 0.19679597 0.21324565 -0.12056358 -0.09469992 0.32228652 0.22466041 -0.6071576 -0.603601 0.08013246 0.003532929 0.16496104 0.018978572 0.13565762 0.1272918 -0.19254474 0.02856339 -0.07531192 0.28329116 0.25891992 -0.022124497 -0.001589661 -0.0121385325 0.08283931 0.038233876 0.13579291 -0.26523584 -0.32645535 -0.16040094 -0.10532116 -0.08087898 -0.45079342 0.16540478 -0.22158094 -0.102745734 -0.15257294 -0.31041217 0.0062241647 -0.28702956 -0.12699786 0.17152527 -0.1110461 0.061399557 0.08747699 0.2143126 -0.007064236 -0.29760674 0.25091138 0.1568802 0.50277495 -0.124976635 0.26534277 -0.08653044 -0.2065292 0.18921976 0.059799552 -0.41843694 0.03901104 -0.0684244 -0.0019194956 -0.3802478 -0.4965791 -0.36006132 0.04829501 -0.108319625 -0.22631161 0.38957465 -0.10797882 0.076561406 -0.05994231 -0.11352095 0.043052413 0.05124335 -0.18258004 -0.07874778 -0.18470521 0.015772749 0.34668705 -0.021482091 0.3195344 -0.22925459 0.40042835 -0.1436968 0.038340826 -0.10204344 0.33845282 -0.45066562 -0.18586427 0.017237356 -0.08207632 0.22941115 0.095197864 -0.053831786 0.11212399 -0.0049038664 0.22572477 0.04958877 0.08836741 0.049288813 0.20021565 0.082942896 -0.23172525 0.058200117 -0.18621433 -0.49648327 0.06635872 0.033397168 0.22721934 -0.19217469 0.17806445 0.20977603 -0.26242864 -0.23116608 -0.32431972 0.18260777 -0.11733232 -0.08264426 0.010647334 -0.054466724 -0.038102232 0.099185884 -0.06316336 0.027351838 0.049399078 0.08445545 -0.055704284 -0.22291677 0.4530355 0.013035898 -0.1987459 0.082025476 0.3671641 0.23414883 0.044767637 0.09759199 0.10102054 0.25487173 -0.033901133 0.03696798 0.1482259 0.10052894 0.40768093 -0.3621777 0.15051277 0.23875119 0.052853137 0.0658125 -0.0016993312 -0.05559016 -0.02004261 -0.017525021 -0.08663748 -0.46229765 0.68008536 -0.29457846 -0.2908836 0.19653891 0.21775422 0.12968004 -0.25896254 -0.092763595 0.13263036 0.0036449207 -0.5980518 0.469799 0.22123714 -0.042115573 0.15335855 0.059710678 -0.042157724 0.105106935 0.21583538 -0.27860647 -0.23968172 -0.07218301 0.13223727 0.0096905 0.11634528 -0.18683481 -0.20762798 -0.20361742 -0.12927388 -0.2551491 -0.24766937 0.59668773 -0.03551405 -0.6307178 0.075498484 -0.011495612 0.072033726 -0.22267288 0.16756558 -0.12742913 0.0018633351 0.3494335 -0.069129586 -0.16630451 -0.373709 0.11477388 0.0360484 -0.10167564 -0.045597956 -0.088891424 -0.038132023 -0.1543507 0.19918413 -0.20580986 0.011258554 -0.37628666 -0.14132313 -0.023035139 -0.089899555 0.17083117 -0.3769229 0.23527572 -0.36213443 0.083953746 -0.09336135 -0.39226583 0.16703406 -0.29223374 -0.26696083 -0.33925083 0.18787621 -0.1922144 0.2925881 -0.03884266 -0.36624727 0.3191488 0.12015869 -0.108826175
0.029286072 0.098977275 0.06684814 0.073223926 -0.16251625 0.105417535 0.06551865 -0.14843865 -0.008506777 -0.5086338 -0.049202424 0.07878846 -0.1315699 -0.31260043 0.119310275 0.30639836 -0.47809213 0.079713635 -0.056329634 -0.6210645 -0.09762424 -0.28993514 0.11940402 -0.13461858 -0.13939913 0.41997412 -0.2785505 -0.18198 0.039127417 -0.40864247 -0.08039956 0.34161952 -0.32364634 -0.0255711 0.34586352 -0.34381166 -0.08922526 0.09814134 -0.24782813 0.14672098 0.41185144 -0.40063262 -0.29679865 0.02005544 0.06509966 0.041251335 0.17417732 0.31999242 0.22815359 0.073994175 -0.13602617 -0.23356816 0.18926926 0.46389705 -0.19892295 -0.22177978 0.20735201 0.047648236 -0.38220212 -0.07517388 0.30066055 -0.06477426 0.07792589 0.01647331 -0.3023404 0.027865222 -0.06886495 0.091775164 -0.02121682 -0.095895484 0.3780134 -0.331352 0.07332663 -0.40696952 -0.012869435 -0.12748374 0.27002522 0.08973987 -0.25400308 0.028287085 -0.020418782 -0.35871926 -0.2438199 -0.085673705 0.021079263 -0.1559248 -0.34752992 -0.29411897 -0.13307504 -0.047664 -0.10130232 0.109658755 0.12981904 0.017193167 0.06402685 0.1432957 0.23066923 -0.25776175 -0.12061939 0.24722469 -0.10800532 0.040564418 0.124459945 0.09375264 -0.179894 0.051056612 -0.13627398 0.3405466 -0.32343718 -0.25850755 0.2904309 0.029379189 -0.100952335 -0.31707242 0.011206199 0.25783113 0.4220459 -0.13248357 -0.013354651 0.04842149 0.18190229 0.15925652 0.39690214 0.31040263 0.084812544 -0.31312495 -0.28336376 0.44016278 0.016446486 -0.14243214 0.07021764 -0.026316153 -0.08155447 -0.21042345 -0.08149695 0.028639942 0.1301832 0.03305256 0.0488179 -0.060752258 -0.45919576 -0.015901133 0.255308 -0.027245613 0.0045145648 0.30649343 -0.3066056 -0.18723169 -0.026691217 0.13569714 -0.27861804 0.07719977 0.049665585 -0.36931404 0.034990393 0.19885497 -0.407527 0.095604554 0.03717276 -0.20138064 -0.20249608 0.38842797 -0.00920292 0.17337812 -0.3835883 0.09002105 -0.40583515 -0.014540551 0.0053548035 0.09107451 -0.16457501 -0.10922159 0.13951 -0.064543076 0.06352386 -0.1479074 -0.15330654 -0.04176315 0.30305392 -0.029166883 -0.18467622 -0.25508767 -0.020299936 -0.04180675 -0.043794252 -0.008785718 0.23108996 -0.11998648 0.19676898 -0.16502415 0.43489993 -0.07612529 0.14227967 -0.0638619 0.12080608 0.5394249 -0.5484486 0.20207746 -0.17242353 -0.2879585 0.0021139176 0.35111624 -0.485007 0.04839863 0.40514183 0.1751305 0.088398196 -0.032070883 0.41119605 -0.24653246 -0.037141103 0.14741394 0.33264217 0.09533308 0.18560573 0.02709312 -0.26137087 -0.12442228 0.17568025 -0.1682252 -0.5402182 0.02328505 0.12692437 -0.1545493 -0.14947912 0.07526218 -0.027036835 -0.07876932 -0.36643058 -0.094700105 -0.089531176 0.36575478 0.023985336 0.13260314 0.24277142 0.04452643 -0.113115765 0.02471246 0.081943676 -0.013757794 -0.027470756 -0.12475593 0.08872683 -0.19923174 0.012257644 -0.25766116 0.03238985 -0.3158861 0.30196726 0.069387324 -0.19759199 0.080075644 0.029251585 -0.07388944 -0.27237758 -0.10115755 0.1264236 -0.1874322 0.047184512 -0.19273694 -0.021148974 -0.23143886 0.19897811 0.0019299609 -0.025779704 -0.04704734 0.20321019 -0.09662929 -0.23534001 0.35332763 0.07836337 -0.027574873 -0.29463142 0.35773796 0.020676509 -0.020256344 -0.026216488 0.14001815 -0.011479554 0.023669763 0.067103274 -0.24287178 0.084731944 -0.25168288 0.16446592 0.06946477 0.25392973 0.4620988 0.08057359 0.13753302 0.024780268 -0.1069075 0.0007109479 0.30189914 -0.12526102 0.34464082 0.22464232 0.018449489 0.0559511 0.07580074
-0.12486166 0.39449412 -0.38826045 0.31192714 -0.15638304 -0.22412911 0.036622368 -0.054098096 -0.11581506 -0.013647626 0.09265584 0.100276366 0.09833703 0.116843775 0.052816376 -0.2078122 0.3022407 0.44845018 0.18358277 0.29450765 0.1733944 0.36315307 0.14776568 0.07726886 0.24933882 -0.2339901 0.51122767 -0.2289195 -0.12914836 0.38564888 -0.1971289 0.18397743 0.28917244 0.09212792 -0.22362064 0.23010467 0.27027753 -0.37146062 -0.056148753 -0.23408084 0.25604042 -0.23569629 0.20189878 -0.17298156 -0.35736918 -0.36140007 0.17766516 -0.029103726 -0.27718374 0.00630844 -0.002710449 0.25074494 0.2807565 -0.42277232 0.19365428 0.41789678 -0.1163047 -0.18220097 0.18548335 0.047419444 -0.11156097 0.12538686 0.1431307 -0.061346695 0.20764789 -0.35881487 0.058758788 -0.14488403 0.06337487 0.3104036 -0.074109614 -0.19080591 -0.0046784477 0.35507783 0.062319644 0.107189745 -0.27821532 -0.115349784 -0.01301103 -0.46362078 -0.2255566 0.19119762 0.18640947 -0.018734073 0.049486414 0.40926996 -0.23810309 -0.16886057 -0.16097437 -0.036169704 -0.005598792 -0.25696748 -0.116257615 -0.16766585 -0.2790622 -0.38731727 0.13341022 0.004351591 -0.1818969 -0.25753936 -0.13053098 -0.13990311 -0.2866775 0.05463964 -0.08854092 -0.18296362 -0.10627034 0.049111966 0.27225533 0.11214283 -0.0698111 -0.13578594 0.09405939 -0.08049559 -0.10327661 -0.10793962 -0.332879 0.2468627 0.20711352 0.38813776 0.08473538 0.10644377 0.10567372 0.042307105 -0.11568672 0.2791578 -0.1439241 -0.28487492 -0.10558126 -0.13305362 0.08628502 0.3743013 -0.085087866 0.08097236 -0.18287654 -0.29821634 -0.1261487 0.32770684 -0.28183147 -0.09871762 0.45908877 0.047761157 -0.21131931 -0.22519022 -0.22869185 -0.13921127 0.099258855 0.23279053 -0.120085895 -0.5332769 0.032148726 0.24435042 -0.06165918 0.10245319 0.01609182 0.12733972 0.04779719 -0.075451 0.1136671 0.03186594 -0.026850589 -0.14574818 -0.007922124 -0.15274546 0.14445251 -0.20352718 0.103195325 -0.17240223 -0.21075276 0.38406357 -0.053372346 -0.04273469 -0.13796104 0.19958086 -0.27865505 0.16724797 -0.06226692 0.1806851 0.13706322 0.02386511 -0.014323712 0.17482373 -0.06207159 -0.14213592 0.28653833 -0.15577649 -0.0012868944 0.32803714 -0.45953912 -0.19972923 -0.49246264 0.42000026 0.1453333 0.0030034496 0.028627118 -0.01643609 0.20117074 -0.1174751 -0.15899988 -0.06401055 -0.010227496 -0.30493852 0.3728804 -0.06604753 -0.25919232 0.10465451 -0.011174019 -0.070761956 -0.3661302 0.072238125 -0.16392317 0.1328232 -0.056374397 -0.25392026 -0.21670088 0.03912259 0.15000574 -0.19737619 -0.07356349 0.111896046 0.17627503 0.20378119 0.028631056 0.14335221 0.1467307 -0.19941187 0.2284189 -0.07293841 -0.20986909 0.07725919 -0.053963948 -0.03912689 0.2681533 -0.17419696 0.07418353 0.10377825 -0.14109336 -0.104728416 -0.18834737 -0.17104848 -0.06810058 0.42108062 -0.07289562 -0.18415265 0.13613081 0.1084017 0.056237146 0.22637884 -0.06592431 0.20974079 0.0037969898 -0.23335047 0.16529411 -0.22597729 -0.3597012 0.09240566 0.099625655 0.1493537 -0.06275615 -0.03742446 0.32182565 0.056527734 0.039496504 0.08293194 -0.32944924 -0.12309675 -0.020456629 -0.063836925 -0.23463441 -0.47060728 0.08664663 -0.065895215 -0.081547186 -0.116417915 0.023471614 -0.10759644 -0.07275745 -0.013944672 -0.008027368 -0.20752506 0.09391743 0.13568555 6.7444926e-05 -0.0442737 0.32415482 -0.010469808 -0.2687079 -0.19670597 -0.123155035 0.115515396 -0.2515953 -0.12252472 -0.13550523 -0.06208485 0.09511775 -0.21786943 0.07905309 0.044495255 0.027972223 0.36245883
0.31549203 -0.34526834 -0.3275758 -0.15691158 0.21018775 -0.09849294 -0.5499026 0.116658755 -0.07399075 -0.004966922 -0.4323595 0.10853728 0.3317398 -0.21739703 -0.43317583 -0.53126866 0.06048187 -0.23214246 -0.2480103 -0.47607416 -0.5160905 0.00794445 -0.66901666 -0.4678349 -0.59478337 0.23215741 -0.32444265 -0.509822 -0.00064164645 -0.39008248 -0.56264573 -0.6494609 -0.36832353 0.048041187 0.2700442 -0.107258156 -0.59996426 -0.1994672 0.4159642 -0.47424024 -0.29724896 -0.26284128 -0.059385564 -1.2535512 -0.15492648 -0.5096474 -0.0445793 -0.5915393 -0.23832479 -0.4197609 0.1052058 -0.67858136 -0.6885683 -0.018074166 0.249004 -0.16119462 0.14930686 -0.32044223 -0.12598354 -0.22770822 -0.35380548 -0.042774178 0.23723681 0.013046718 -0.041104008 -0.16975686 0.2706201 0.12094517 -0.6840012 -0.21974202 0.10479907 -0.22653024 -0.38597602 -0.13705038 0.07251812 0.023430862 -0.22949667 -0.069685675 -0.43185848 0.12288868 0.026671752 -0.05579826 0.1537811 -0.40786242 -0.07003262 -0.11331954 0.4370968 0.073169716 -0.144953 -0.28179443 -0.2834226 0.14472713 -0.33631125 -0.14763494 -0.24498612 0.023421362 -0.38117617 -0.21752147 -0.28491184 0.13594061 -0.71643865 0.17940772 -0.52742076 -0.05035014 -0.62103164 -0.2130069 0.23551431 -0.25595665 -0.6534283 -0.27493927 -0.058604512 0.5384266 0.011761666 -0.07821594 -0.7375677 -0.29360262 -0.4545587 -0.36706892 0.05617736 -0.47984958 -0.100531675 -0.9328611 -0.52656144 0.20157233 0.22009538 -0.049145274 -0.19755042 0.08209406 -0.13109691 -0.50763726 -0.61265844 0.2712721 -0.4912903 -0.17212056 -0.42504075 -0.10427874 0.16406928 0.3847203 -0.5726656 -0.17938781 -0.15473427 -0.1918045 -0.5524513 -0.33169124 -0.048479673 -0.24517363 -0.02921659 -0.32822117 -0.02432236 -0.0058795107 -0.37427288 0.018246714 -0.08222539 0.076064244 -0.309345 -0.3113948 0.04419231 -0.2524749 0.04089498 -0.343236 -0.25514773 -0.11382594 -0.23818487 -0.2916894 -0.0856203 -0.06724091 0.25571388 0.12416079 0.12350248 -0.25664237 -0.2600024 0.14737397 -0.0069206287 -0.53168833 -0.6726573 0.062583275 0.07692829 -0.47744045 -0.05015323 0.0074242703 0.11017577 -0.28039598 -0.50585276 -0.5048826 -0.10444647 0.2858247 -0.49945736 -0.10931669 -0.36011928 0.076979265 -0.14586858 -0.18936044 -0.31638154 -0.5560604 0.24418046 -0.6062676 -0.20853174 0.0034738095 -0.11911638 -0.2780219 -0.44857192 0.18751466 -0.08386513 -0.5676646 -0.30021578 -0.10824781 -0.37052926 -0.31659457 0.46258622 0.5699262 0.0022880114 -0.70176727 -0.15647286 -0.34143972 -0.79637074 -0.89157516 -0.16889605 -0.19140051 -0.4274908 0.091626 -0.3748397 -0.49473885 0.08488933 -0.29014793 -0.28929865 -0.009618052 0.09314486 -0.56516147 -0.33262435 -0.5222752 0.038870264 0.08297781 -0.5885707 -0.034226935 -0.08743306 0.2759166 -0.46519846 -0.38156104 -0.5681486 -0.34141997 -0.6068909 -0.5143641 -0.5130377 -0.8368678 -0.1454497 -0.7287843 -0.19285601 -0.4258395 -0.65334654 0.095216066 -0.35245913 -0.33415753 -0.5881546 -0.47308445 0.12528813 -0.7678752 0.098686635 0.027766837 -0.5708072 -0.39883867 -0.28820914 0.09066531 0.36539784 0.27626306 0.0073219207 -0.28674206 -0.22021398 -0.42520297 -0.29792944 -0.274927 -0.20136043 0.34183925 -0.26521343 -0.80294234 -0.3542502 -0.41355467 -0.45652896 0.13025582 -0.49844497 -0.59929895 -0.48675135 0.11418528 -0.4508496 -0.14630175 -0.26597673 0.5723508 -0.02248424 -0.2716296 -0.35913786 -0.33333197 -0.30479726 -0.76015896 0.37346882 -0.97010356 -0.36805785 -1.0107237 -0.378616 -0.4497283 -0.09602026 -0.324311
2
300 100
-0.046979837 -0.0806741 0.16004616 -0.011759039 -0.059838254 -0.062119782 -0.19514711 0.00846725 -0.14808086 -0.023162946 0.25953996 0.16757731 -0.06606538 -0.08095153 -0.12871774 -0.025026416 -0.17497924 0.15122715 0.058783818 0.1922106 -0.110436425 0.0773207 -0.01392354 -0.051384017 0.0936069 0.099798135 0.01908207 -0.0487189 0.25148413 -0.24965452 -0.21893914 0.034308393 -0.09371538 0.13457975 0.02593143 0.09133308 -0.037105273 0.118482925 -0.037998877 0.12665178 0.027821602 0.07792236 -0.011319617 -0.12079286 -0.18704928 0.03583185 -0.07959878 -0.084536284 -0.15344012 0.007176028 -0.04533118 0.12817204 -0.014631367 -0.27746642 -0.09441246 0.02629999 0.15167204 0.30151364 0.32363132 -0.117348224 0.010258661 -0.037803266 0.13967778 0.038864914 -0.1330561 0.034488127 -0.10156337 -0.09785052 -0.05920267 0.06573134 0.22233984 0.1353917 -0.27944615 0.183882 -0.12501644 0.19294702 -0.27819055 0.17622896 -0.03480081 -0.13236827 0.0002739824 -0.2244451 -0.40621668 -0.114986226 0.088580385 -0.32324636 -0.12024102 0.08545899 0.0019483063 -0.11447511 0.25157496 -0.13364829 -0.08692 -0.050830543 -0.1267103 -0.07584489 -0.06574201 0.21913445 0.08461015 -0.029946333
-0.017477246 0.07807124 -0.038050912 0.11107259 0.18733248 0.1587024 0.061610993 0.28698587 -0.07011337 -0.021316491 0.12298309 -0.11799609 -0.07332708 -0.09065787 -0.12432508 -0.049537435 0.1239788 -0.007059297 0.0324752 -0.032815624 -0.0059704795 0.007539745 -0.064320095 0.13216579 -0.013315765 -0.14951439 -0.18443976 -0.305902 0.20665127 0.16078301 -0.09879482 0.0048426236 0.017738579 -0.05409938 0.09327085 -0.29447228 0.019563805 -0.0104348315 -0.16898651 0.2733639 -0.4080658 0.31998092 -0.15099587 -0.15090741 -0.2664256 -0.2957643 0.10899079 0.17790076 0.037395377 -0.01953315 0.015329147 -0.04467423 -0.015388777 0.0713802 0.06387829 -0.14010489 0.12978756 -0.13733275 -0.076731846 0.22043902 0.026191348 0.062094077 -0.032342516 0.03741428 0.042307094 -0.032429732 -0.03407587 0.053971056 0.10545795 0.0022989537 -0.10772431 0.20336373 -0.08301896 -0.12533742 -0.06728511 0.052993484 -0.23662609 -0.202521 0.116198316 0.019553464 0.081474595 -0.36181816 -0.0416132 -0.3160096 -0.04296509 0.01537655 0.1341016 -0.026483342 -0.31536925 0.052070916 0.10171164 -0.05361673 0.1246908 0.20771348 0.043564744 -0.20579453 0.2139788 0.0348805 0.0131156 -0.16176544
-0.038201276 0.08316675 -0.06521742 0.017042674 0.086218044 -0.17835388 0.18926457 -0.16628274 0.04523214 -0.24219358 -0.014930021 -0.053533323 -0.1626139 -0.19894978 -0.20912735 0.05160624 0.38036355 0.07285824 -0.2853301 -0.20122679 0.010116467 0.030452386 -0.45364445 0.2801354 -0.16262914 -0.06613737 0.12061524 -0.0840716 -0.28883335 -0.11111311 0.4467222 -0.10071832 -0.41794133 0.013013207 -0.11835715 0.03466632 -0.041955944 0.21863359 -0.06267005 -0.0016025312 0.0054611545 0.02609859 -0.027731726 0.35672778 0.00843774 0.15803523 -0.42698303 0.17626011 -0.16375656 0.3685854 -0.3317565 0.16507153 0.26330683 -0.06900863 0.05478894 0.068748035 0.15356302 0.23006387 0.06792818 -0.103431806 0.13289262 -0.26110804 -0.24514616 0.13181482 0.24909587 0.05111251 -0.2577584 -0.07535443 -0.10721323 0.062979884 -0.23440626 0.10308894 0.07534601 -0.43300524 0.07094937 -0.052926484 -0.003723816 0.023263734 -0.14141154 0.12829433 -0.16755861 0.042846702 0.20940216 0.2364524 0.048373304 -0.124147214 -0.18757892 -0.04761721 -0.005588632 -0.043001544 -0.06369742 -0.058366977 0.08925965 0.025300482 -0.03161978 -0.6436095 -0.13589118 -0.38716742 -0.058371153 0.10622298
0.07534824 -0.49567908 0.17471048 -0.12225299 -0.1562606 -0.009171403 -0.12793453 0.13404328 -0.011283429 -0.065681845 -0.14879082 0.32768095 0.17816603 0.14631146 0.013287594 0.08336331 -0.09376654 -0.02988515 0.07480165 0.21465696 -0.14568418 0.044042364 0.08309194 -0.3052784 -0.051623374 0.17007303 -0.010242175 0.01676193 -0.21633121 -0.2636579 -0.098143004 -0.06839579 -0.00039873252 -0.093368076 -0.16032553 -0.23217764 -0.29170093 -0.0061540613 -0.22319196 0.08513825 -0.15353227 -0.21933787 -0.052579097 -0.057930656 0.12428006 0.1724252 -0.16870451 0.0030680103 -0.08251974 -0.14356191 -0.012500678 -0.13338211 -0.20110631 -0.12708396 -0.11361593 0.026376363 0.12685393 -0.09968863 0.21402597 -0.039682306 0.024360208 0.0060023493 0.1286944 -0.086612016 0.06187771 0.09593789 0.04474598 0.22542211 0.15602177 -0.14025317 -0.06113508 0.1512823 -0.13080412 0.0132448925 0.025873354 -0.12522587 0.07462834 -0.19528708 -0.03380958 0.046388872 -0.17672557 0.03307719 -0.47277892 -0.45159176 -0.052505575 -0.036093604 -0.0051795165 -0.3415203 0.02233864 -0.23654 -0.048498854 -0.2969846 -0.14100161 0.015430721 -0.04607468 0.19382006 0.24820158 0.19396532 -0.07438416 0.022808459
-0.08945609 -0.015337122 0.16761382 0.079372086 0.1462871 0.13690667 0.07081072 -0.0629543 -0.08570948 0.07124163 0.039203323 0.14435531 -0.16907665 -0.014085451 -0.20296878 -0.10330911 -0.1173059 -0.097231 0.060987804 0.16543101 0.061921533 0.42628512 -0.008710393 0.08185519 -0.069475524 0.15998398 -0.10793697 -0.112996794 0.058020424 -0.187247 0.041797396 0.026778545 -0.2093132 0.1834305 -0.06732883 -0.21550596 0.07448772 0.11237617 0.0074920054 0.07946993 0.24193439 -0.07999908 -0.053221162 -0.07292065 -0.21366148 0.05963545 -0.3064794 -0.28610072 -0.18082847 -0.013113313 -0.5673671 -0.18243101 0.055831384 -0.06954836 -0.008504557 -0.017295698 0.38098168 0.16613044 0.2695593 0.03462874 0.22482145 0.0041402653 0.06694186 0.24949625 0.30599406 0.11035624 -0.029535653 -0.15567183 0.28311527 0.08296899 0.08052298 0.19456926 -0.1718717 -0.077358186 0.02818064 0.18477175 -0.46970612 0.18026215 -0.1105271 -0.20162404 -0.11639511 -0.25237593 -0.2941436 -0.14494863 0.17342615 -0.12720892 0.05069401 -0.0020444824 -0.052034583 -0.18622355 0.0154286735 -0.072527066 0.03844099 0.23804346 -0.3987525 -0.15919782 -0.105901465 0.17070132 -0.16624336 -0.24940671
0.015994564 -0.42751387 -0.03142202 -0.09917963 -0.026788859 0.24071378 -0.09116828 -0.11842449 0.032862734 -0.12336406 -0.049477484 -0.25388643 0.08972177 0.21924774 -0.119848445 0.10510348 0.3669765 -0.21076374 0.11138531 -0.16052808 0.1379036 0.0024737366 -0.12798287 -0.3343874 -0.052131772 -0.004924803 -0.06846102 -0.2060779 -0.191715 0.04089817 0.114729084 0.040715482 -0.044017434 -0.10999704 -0.19418696 -0.004718872 -0.41781595 0.27118915 -0.011106492 0.1309663 0.043016378 -0.23374297 -0.028464558 0.053019177 0.01529668 0.2707364 -0.33990714 0.24960099 0.034131512 -0.10420376 0.074426286 -0.046697482 -0.079368114 0.18621291 0.10725663 -0.08139888 0.022171127 -0.0059248023 -0.33631268 0.10279267 0.032481615 0.10279396 0.084338374 0.11466274 0.06876002 -0.020037219 -0.24267495 -0.023299515 -0.11637691 0.06059933 0.04689233 0.1464744 -0.0474586 0.18674737 0.111414105 -0.061437313 0.018372923 -0.035248782 0.115323246 -0.09829022 0.12629567 -0.1520686 0.048862305 -0.060075715 -0.0393438 0.042434644 0.1860843 -0.12815008 -0.13462576 -0.048961774 -0.18875761 0.030832386 0.29660377 -0.24502704 0.18509656 -0.06843783 -0.15288374 -0.008896262 0.0115278335 0.1759906
-0.097698085 -0.09317205 -0.22563273 0.040289693 -0.31631136 0.04295977 -0.38078058 -0.18472838 0.15381405 0.17573622 -0.15087795 -0.21602818 0.11199497 0.31731123 -0.15466692 -0.06610654 -0.05440041 -0.4347914 -0.17558318 -0.02291709 0.22663353 -0.09633356 0.22979347 0.15467441 0.22238791 -0.11481295 -0.10777021 -0.05424442 -5.5592245e-05 0.085537285 -0.3039483 -0.043280628 0.04608867 -0.12663017 -0.11600851 -0.095272906 -0.007664662 0.08199335 -0.23358895 -0.27665785 -0.056852948 -0.0907307 0.12743953 -0.19965607 -0.015140756 -0.096819855 0.1254243 -0.2582529 -0.24533105 -0.19591497 0.11143235 -0.35031992 0.04826409 -0.011694657 -0.073600836 0.029883247 -0.093361504 0.0009985712 -0.044481996 0.00839727 -0.09395345 -0.06264591 0.2018142 -0.14672795 -0.11040056 -0.027810957 0.18893044 -0.032227516 0.06224287 -0.3933232 0.0521582 -0.08240601 -0.07827436 0.012647983 0.13074592 0.024340985 0.083990455 0.09904703 -0.021980904 -0.18837251 -0.045100596 0.015520994 -0.10006923 -0.010129795 -0.18506362 -0.029055782 0.03855497 0.03614246 0.06914714 0.34193897 -0.35063866 0.005629861 -0.124189965 0.16154192 -0.08034918 0.24387054 -0.0068326774 0.14114034 0.04804587 0.17594981
-0.043285087 0.038867902 0.12927257 -0.01417868 0.07611253 -0.21332416 -0.063968934 -0.17250031 0.20406507 -0.19875869 -0.038183626 -0.17735346 -0.25063127 -0.31793112 -0.2158573 -0.24514931 0.11339729 -0.031976912 -0.25536576 -0.09787873 -0.029180562 0.09632443 -0.11173251 -0.014360353 0.013579121 -0.29562035 -0.054675132 -0.013926053 0.07788368 -0.14448497 -0.25128713 -0.028658228 -0.22857621 0.12539308 0.13412917 0.028077299 -0.06652413 0.068715446 -0.034299955 -0.03990389 -0.30956188 0.07809583 -0.18011357 0.0152164325 -0.11508284 0.10951473 -0.2412954 0.07041681 0.13056038 0.35892132 -0.22346467 0.12524599 0.1407254 -0.26734784 -0.008588755 0.015116201 0.060529392 0.11096652 0.13876237 0.3469572 0.4167936 -0.06639507 -0.0404028 0.109188065 -0.15222865 -0.016029382 -0.19782546 -0.1649615 -0.099613845 -0.064606175 -0.050047938 -0.06919029 -0.13567609 -0.09991459 0.13258933 0.31507525 -0.1969683 0.15361749 0.02511275 -0.06418685 0.024918765 -0.17662604 -0.06445099 -0.0014324015 0.10969167 0.055538412 -0.06108257 -0.035014883 -0.0011579127 0.007213181 0.15684542 0.23701917 -0.19510077 0.1288945 -0.035920553 -0.4269771 -0.08048217 -0.10379562 -0.028702188 0.13940345
0.08462605 0.12608616 -0.04063846 0.21010272 -0.10940902 0.07558215 0.017324382 -0.33219057 0.17833373 -0.06399911 0.13643761 -0.06616765 -0.16373913 -0.056474593 -0.10305474 -0.27203923 0.24656738 -0.007724869 -0.22233352 -0.09822043 -0.008860213 0.13318248 -0.1638264 0.19347872 0.032734413 0.18715897 0.0052346666 -0.11554976 -0.19918886 0.02327676 0.00085485505 -0.16793282 -0.2924785 -0.06549254 0.04313139 -0.08437261 0.1020127 0.36859843 -0.22101201 -0.069080815 -0.35522133 0.012381941 -0.05968726 -0.0062297056 -0.14461745 0.15370294 -0.25675306 -0.12948886 0.16930774 0.020524949 -0.26316854 -0.11622926 0.19901776 -0.39686275 -0.047802288 -0.04365545 0.04521103 0.0077666487 0.05167665 0.04312077 0.13325235 0.042963967 0.1227858 0.12446655 0.105925284 0.096590035 0.042421408 -0.23403707 -0.14912936 -0.1538042 0.16460814 0.0129965255 -0.042697385 0.14420305 0.102981895 0.022828804 -0.007474924 0.10629117 -0.22651199 -0.26570868 0.21083017 -0.17731883 -0.03960336 -0.04021303 -0.045060143 -0.0508755 0.11516406 -0.1353323 -0.09910359 0.10288799 -0.007024082 0.27411142 -0.20877324 -0.004475416 0.17240019 -0.19601257 -0.05552736 -0.020316536 -0.03893869 -0.016456816
-0.13273157 0.15108766 0.09728648 -0.041875143 0.33053055 -0.01664452 -0.040984172 0.13023926 -0.18173581 -0.06431172 0.06073536 0.06517113 -0.043859046 -0.21765658 -0.051580485 -0.15624012 -0.1480446 0.115178436 -0.010707402 -0.058984693 0.04892673 -0.09114078 0.1011909 -0.45888203 0.011258011 -0.1975849 -0.05713948 0.03466926 0.030711273 -0.21792679 -0.24790955 0.026830154 0.05735159 0.11847124 0.067372896 -0.1674941 -0.02442488 0.009965804 -0.02348572 -0.042904876 0.0056336187 0.27218413 -0.32396328 -0.16359968 -0.5611315 -0.37842304 0.27021617 0.12760848 0.12100455 -0.037406873 0.123377234 0.19642402 -0.13659042 0.17658328 -0.0076787234 0.0792556 0.1171871 -0.28841048 0.10412861 0.13085917 -0.21559247 -0.039262623 -0.021241562 0.025522703 -0.3220343 -0.109666824 0.092451185 -0.21689929 -0.24271569 -0.118126065 0.0025817922 0.21309856 -0.29023796 0.023924604 0.103685446 0.04758049 -0.063127905 -0.3546697 0.0721255 0.027813286 0.07029231 0.0038074434 -0.08589288 -0.22845629 0.057805773 -0.056830954 -0.15891278 -0.07404441 -0.2756824 -0.468274 0.13714048 0.16943535 0.09672432 -0.020060638 -0.027332118 -0.114287615 -0.06292618 0.023398591 0.09142252 0.0033225364
0.1875521 -0.14602433 0.19742201 0.012331315 -0.07967437 0.08077475 -0.35388306 0.03284311 -0.15258558 0.17306313 0.23909496 0.027839778 0.17092086 -0.0072302716 -0.24190803 -0.059559163 0.071621254 0.07014202 0.07072924 0.0026986485 -0.09269213 0.1669154 0.08525395 -0.20011272 0.18128972 0.12166928 0.061426442 0.12688518 -0.0872707 -0.14752696 -0.14643301 -0.22523637 0.22794043 -0.01805592 0.0024438987 0.12059226 0.011276194 -0.05144342 -0.3200591 -0.005173058 -0.07379523 -0.18639988 0.18019423 -0.04679912 -0.3678846 -0.10206322 -0.012745858 -0.22557059 -0.22189018 0.027156757 -0.0021807132 0.021863794 -0.22196037 -0.20540477 0.048303626 0.04010602 0.242298 -0.1293431 0.1454844 0.029341223 0.091372006 -0.15419705 0.016660245 0.01720299 -0.012248129 0.036868345 0.05829809 0.12758438 -0.16672686 -0.07864577 0.2691206 0.13565399 -0.22547752 0.20532194 0.19460164 -0.13316217 -0.02391809 -0.014807216 -0.090282306 0.024147917 0.12184421 0.00829999 -0.28139526 -0.3582301 0.06714041 -0.23155846 -0.05373805 -0.09575537 -0.031721093 -0.08349353 -0.04606302 0.049346518 -0.1842962 -0.07564908 -0.008947376 0.03563892 -0.11495346 0.29634765 0.31348482 0.17520665
-0.25000137 0.011910978 0.08905982 0.15403514 0.121511586 0.20569155 0.13300736 -0.13648221 0.12090642 -0.18870863 -0.11332286 0.0953357 0.0062751267 0.08546807 -0.22684558 0.06633441 -0.23276508 -0.30616978 -0.2528581 -0.03861334 0.41077343 0.10683238 0.054010253 0.0016944921 -0.15693283 -0.13893865 -0.3009972 0.023014367 -0.027386596 -0.102574885 -0.45030382 0.0897338 0.04126542 -0.13465686 -0.2723097 -0.24064119 0.13643533 -0.025908956 -0.41280702 -0.05997031 -0.50234944 0.30314147 -0.150725 -0.08572438 -0.17336993 -0.1944248 -0.08144634 -0.032486692 -0.19554318 -0.07794625 -0.00028439466 -0.096900225 0.1553169 0.02887468 0.049093887 0.20026144 0.2501478 -0.059419006 0.0043045925 0.27561674 -0.054964725 -0.006401523 0.068760335 -0.13444984 -0.057733376 0.05675535 -0.19022422 -0.11235824 0.25017044 -0.0014985403 -0.14424507 0.36222705 -0.34070554 -0.123240106 0.16923001 -0.22999111 -0.18387264 -0.20971595 -0.050150994 -0.08798882 -0.08796198 -0.031840157 -0.2735418 -0.40175328 -0.037147157 0.43511394 0.31041345 0.001418682 -0.20485346 -0.09764414 0.26410323 -0.018702295 -0.2331128 0.28015116 -0.087785564 -0.04888212 -0.029168753 -0.07231375 0.08805003 0.21160768
0.116618976 -0.014836825 -0.09747955 -0.000896692 0.13931754 -0.060301356 0.23229665 0.1375478 0.07617109 0.0040042005 -0.14329618 -0.10275992 -0.07974666 -0.11394112 0.03312657 0.15683055 0.372291 -0.019527819 0.11060442 -0.3225281 -0.12803623 -0.039362628 -0.28868943 -0.01656403 -0.27854785 0.2819542 0.10586776 -0.11999397 -0.021995317 0.3612399 0.26979288 0.016171077 -0.014662371 -0.15907156 -0.14577582 0.16808587 -0.10011181 0.13033181 0.19479859 0.1315812 0.25331667 -0.059669774 0.12851903 0.06940998 0.14766216 0.12521988 -0.042831983 0.28789127 0.20352027 -0.10566851 -0.22320144 0.074855186 -0.2125974 0.21938887 0.26673004 -0.120940305 0.098148525 -0.17307624 -0.17389238 -0.06328811 0.019286446 0.31683177 -0.12715578 0.035617746 0.35586393 -0.35830262 0.022231465 0.1467451 -0.023601651 0.23846649 -0.083877854 0.0019331587 0.34718 0.0033271194 -0.2145291 -0.015159166 0.22872034 -0.3208001 -0.018958453 0.2641083 0.15728523 0.054352894 0.24295099 0.18527415 -0.04030495 0.0014894988 -0.0013166362 0.1716485 -0.12942155 0.13659671 -0.3009038 -0.09814064 0.17854363 -0.028626798 0.2628671 -0.14143057 0.132562 -0.1510158 -0.33559674 -0.18048231
0.05092643 -0.20342669 -0.2937043 0.15960471 -0.10006291 0.23374563 -0.024980675 -0.060719978 -0.2703291 0.09371738 -0.41533032 -0.36867365 0.030421093 0.30324998 -0.22161382 -0.12281705 0.18742676 0.36079648 0.3008815 -0.25861105 0.23878562 -0.039487924 -0.09913658 0.2886248 0.09550971 0.2481756 0.2709968 -0.42671618 0.3001764 0.21240322 0.089750655 -0.122898705 -0.027241983 0.06913658 0.17044394 -0.5359883 0.0036215005 0.23287542 0.07379087 0.16626248 0.21345876 -0.16188723 -0.023901189 -0.15890801 -0.11447564 0.10524474 0.04842235 -0.21107475 -0.033717643 -0.33140808 -0.1103345 -0.23139669 -0.07721586 0.009001856 0.010347696 -0.08258336 0.114098266 -0.09358836 -0.20164004 0.077138014 -0.03599081 0.3149562 0.17178807 0.22153033 -0.27191985 -0.32217357 0.14125744 -0.31409433 0.24606045 -0.05759372 0.12049264 0.1168887 -0.07642982 0.07986302 -0.17336585 0.112863824 -0.12955953 0.2852999 -0.10357276 -0.27770942 0.18845509 -0.32923716 -0.095227964 -0.0732394 -0.1251615 -0.1954922 0.30149075 0.21065661 -0.19328949 0.16764566 -0.3181992 0.3047004 0.2788814 0.07878009 0.077587634 0.17815275 -0.07565192 -0.027529936 -0.2829483 -0.056584768
