2
23 64
0.064917356 0.23488614 -0.056920532 -0.42718503 -0.14734545 -0.046601284 0.39778665 -0.13880047 -0.3985276 -0.16162165 -0.14530113 -0.060546122 0.050122645 -0.13868362 0.1835926 0.14463958 -0.20572563 -0.117015615 -0.06638047 -0.15202898 0.06470529 0.081233986 -0.015895635 0.0061762864 -0.03445726 -0.48194632 -0.036666203 -0.18216996 -0.19105853 0.17171097 -0.11374002 0.24775289 0.23097198 -0.0692942 -0.04704675 -0.079526745 -0.008728342 -0.004857328 -0.032137718 -0.13923313 0.07744441 0.07117783 0.21846391 -0.20431724 0.17187445 0.26907724 -0.1996315 -0.01705555 -0.27347648 -0.116388254 -0.21281092 0.2669804 -0.08521309 -0.13771182 -0.25124824 -0.052507274 0.06071707 0.010349693 -0.1286111 -0.17701392 -0.2959733 0.033191584 -0.41047445 -0.23075467
-0.123876676 -0.34174928 0.26455638 -0.38449526 0.07390368 0.060288493 -0.2540728 0.021492355 -0.057633143 0.17537376 0.20274918 -0.023492444 -0.10536165 0.048517462 -0.0948836 -0.08385606 0.035627045 0.073424675 0.012341607 0.10884621 -0.27858794 -0.27377135 -0.012114317 -0.02976614 0.023821665 0.19406535 -0.3036465 -0.18265276 -0.06854671 -0.043628793 -0.2902028 0.34581697 -0.26849994 0.06711824 0.02794404 0.05102061 -0.22318377 0.035369065 -0.07675008 -0.06632732 0.086514525 -0.21443202 -0.020422261 -0.04576638 0.17016025 0.07985323 -0.030170823 0.099982 0.002616959 -0.09103728 0.14346969 0.29803994 0.37841213 -0.058419768 0.21078716 0.37293345 -0.15983321 -0.02777267 -0.48384494 -0.25671795 0.00026327744 -0.32352054 0.2167864 0.18242046
-0.13570908 -0.13020648 -0.19982912 -0.22533105 -0.11851997 0.15917198 -0.23288715 0.30244914 -0.28090653 -0.13839307 -0.26614094 -0.1741927 0.42405194 0.34882292 0.027833408 0.21288769 0.03954159 -0.12583755 0.27161175 -0.474562 0.5421196 0.23212773 0.032706283 -0.050130617 0.18469936 0.06529927 -0.16277136 -0.075249396 -0.2663255 -0.16726515 0.24944945 -0.060662184 0.07771048 -0.107422985 0.07964813 0.1516043 -0.10232822 0.2213871 0.096152894 -0.35692316 -0.21279562 0.03613741 -0.37635386 -0.081922434 0.072467014 -0.21639411 0.281289 0.112233944 -0.065962404 -0.41636992 0.1233999 -0.04552872 0.08916465 -0.013424988 -0.65484226 0.008879915 0.14863372 0.2776242 -0.25331095 -0.09607054 0.20719136 0.030012375 0.3764979 -0.23589638
0.19033739 -0.18881524 0.034314014 -3.917641e-05 -0.07818871 -0.37728763 0.18922627 0.23663165 -0.18945411 0.21757011 0.06133061 -0.066051714 -0.35703877 0.25082153 -0.06475906 0.55577385 0.15742269 0.41626033 -0.28305516 -0.06858281 0.3974704 0.037158474 0.18682565 0.27942902 0.5547775 0.025031025 -0.25705165 -0.43045384 0.09157549 -0.066490896 0.25238204 -0.007515875 0.059921987 -0.19031666 -0.398322 0.039476354 -0.124092594 -0.31343624 -0.2446857 -0.33139324 0.23112941 -0.10749759 -0.1130597 0.04876986 -0.2912341 0.09815056 0.27322924 -0.45163855 0.32897392 -0.1281184 -0.17111467 0.27172148 -0.10482118 -0.22656712 0.10483943 -0.3345013 0.068839274 -0.4721033 -0.012947097 0.12483225 -0.0023536962 0.041591283 -0.086558916 -0.29967642
-0.104752414 0.09778893 -0.15475675 -0.041507468 -0.0027410337 0.029582595 0.0059377565 0.105300464 -0.027559647 -0.046296753 -0.070066504 0.0760845 0.014813722 -0.059008803 0.32022047 -0.16586195 -0.4013812 -0.13310695 -3.1445183e-05 0.07260751 -0.039968938 0.14551637 0.23701331 -0.3374232 -0.1142031 -0.15281661 0.4282129 -0.048131015 -0.39355606 -0.16958882 0.03485689 -0.32696342 -0.005726526 -0.26603815 -0.12214278 0.35698247 0.070215315 -0.10606958 0.042498466 -0.08719399 -0.32606378 0.18601424 0.304429 -0.42763433 0.12250952 0.2414516 -0.02777229 -0.21874477 -0.39147687 0.33186823 -0.050738256 -0.22575566 0.14699067 0.13373469 -0.10676642 -0.053923413 -0.049113996 0.008105815 0.0026775892 -0.47617364 0.13202165 0.1458471 -0.003778388 0.11400845
0.37634873 0.25236553 -0.3988758 -0.15106225 0.08627968 -0.1407883 0.13494852 0.17622207 0.0049434584 0.0129292095 0.102625534 0.38532832 0.21738157 -0.22199991 -0.16355026 -0.21042593 -0.20030595 0.26351836 0.26750785 0.14260091 -0.12750967 -0.18616296 -0.10983057 -0.089851394 0.1530966 0.04147605 -0.11354426 -0.13156897 -0.08950224 -0.067030154 -0.14174397 -0.1953485 -0.14728746 0.50296015 0.09238878 0.2749069 -0.30082542 -0.1333931 0.47004437 -0.11290563 0.17158592 0.007850718 -0.27854204 -0.22418876 -0.21318159 0.056302294 -0.03196871 -0.23178118 0.31247383 0.058395915 0.13229762 0.10220539 -0.13314737 0.28856412 -0.08661352 -0.013712611 0.31996745 -0.24524945 -0.037880152 -0.27873698 -0.19474724 -0.10212202 0.101873495 -0.12898016
-0.0077001173 -0.019079326 0.07236116 -0.088988096 -0.05310689 0.27404884 0.047779195 0.050235003 0.03201605 -0.1638262 -0.2942002 -0.071346804 0.05113142 -0.04484799 0.03731216 -0.057713054 -0.12968838 -0.17046493 -0.19270258 0.038800012 0.22307365 0.14021625 -0.4459769 -0.31946716 0.29326856 0.033546954 -0.06534297 -0.11875171 0.22043328 -0.08551988 0.15185122 0.07092514 -0.013129242 0.15932336 -0.04209787 -0.22491619 -0.039932307 -0.3282602 -0.17373407 0.0918947 0.1410195 0.14051518 0.091417335 -0.007832904 -0.18862379 0.13289885 -0.19435252 -0.033559583 0.12864937 -0.1244177 -0.21727037 -0.3094932 -0.29264 -0.19092874 0.06667541 -0.19654323 -0.13297412 -0.02599619 -0.225264 -0.19186957 -0.3500779 0.0045366306 -0.09638496 -0.22523871
-0.08720919 -0.1547351 0.26405257 0.008082789 -0.23360863 0.0052722795 0.01637304 0.09543632 -0.24499018 0.42003945 0.03750708 -0.11866403 -0.411789 0.1988854 0.20541736 -0.13528311 0.08832847 -0.17798294 -0.023844583 0.15865827 0.17407149 0.46006063 0.10009234 -0.51678675 -0.22436075 -0.08392144 0.046595477 -0.122141585 0.2380839 0.014039148 0.22542782 -0.4017122 -0.136739 -0.34941056 0.2924565 -0.15447617 -0.20523448 -0.20316641 -0.21168342 0.08359295 0.0675377 0.24743988 0.284144 0.004996634 -0.0024827018 -0.21162704 -0.35448518 -0.3369276 0.18354627 0.12067579 0.34539026 -0.29180652 0.3193564 0.20897834 -0.28698784 0.003728081 -0.08637871 0.33691725 0.18778677 -0.21391965 0.07446252 0.36193404 0.022495693 -0.15475133
0.17914708 0.2674136 0.18439426 -0.3071207 -0.24359794 -0.2555406 0.14374934 0.23760948 0.17941411 0.06690475 0.34565407 0.0026400539 0.25793815 -0.18930617 0.085721165 -0.048682436 -0.04942477 0.34319326 0.2535579 0.07241159 0.17324954 -0.0829396 0.27324772 0.08597511 0.13415954 -0.11003618 -0.06171789 -0.014088867 -0.010350384 0.10842627 0.29735973 0.29194117 -0.031394802 0.45750535 0.34870577 0.12730168 0.045770235 0.048450828 0.26460803 -0.01160702 0.3712692 -0.23876084 0.1763741 -0.094627 0.34667557 0.39743823 -0.3683575 -0.07809827 -0.15798597 -0.09147747 0.3451898 -0.049407315 0.041457288 0.14541411 -0.17155473 0.30020353 0.09616021 0.21383132 0.31383377 -0.06372069 0.0059013567 0.29231605 0.36169198 -0.12829751
0.064965725 -0.026291652 0.05823353 -0.115529284 0.083594956 0.040215652 0.29968485 -0.12211501 0.026072137 -0.0620344 0.054982495 0.28467333 -0.017015694 0.010981355 -0.14393687 0.25879848 -0.089727774 -0.17450087 0.069569625 -0.32375905 0.19573234 -0.32116276 -0.17107552 0.2971918 -0.0314649 -0.15945947 -0.043449935 0.098996215 0.2297774 0.21927497 -0.048973538 0.035595838 -0.21709025 -0.022973 0.020252822 0.14631602 -0.34079674 0.31972784 -0.09097669 -0.22971621 0.19582139 0.1193805 0.24575649 0.40307936 0.038494732 0.15297112 -0.34159127 -0.22705132 0.27042976 -0.05636313 -0.047929388 0.033360615 -0.21536303 -0.15485741 0.04513416 -0.3211178 -0.06617828 0.023156038 -0.16604917 -0.21909523 0.06601408 0.14867803 -0.42766675 0.33623374
-0.1303559 -0.18408665 0.2260778 -0.14053549 -0.19608445 0.08649156 -0.20439404 -0.075853646 0.1465447 -0.11704359 -0.021532286 -0.49376568 0.12967433 0.19812913 -0.3155671 0.14854497 -0.32014173 -0.13252509 0.1317671 -0.03132976 0.14770664 0.062543936 -0.07383687 -0.058391973 0.26904935 0.022951186 0.27600554 0.1229225 0.059865363 -0.13054532 0.06336386 0.029205479 0.06258373 0.14290692 -0.10591615 0.21334943 -0.029356226 -0.108523436 -0.04965243 -0.040527847 0.09581176 0.2214302 0.037628453 -0.093656704 -0.16749616 -0.18967344 -0.24789838 -0.19430375 -0.14593962 0.15642193 -0.114711404 -0.37511864 -0.20511863 0.06729905 0.011555012 -0.24265492 -0.21306242 -0.018135834 0.058151107 -0.20391302 0.054962255 0.057237454 0.29277492 -0.13656262
-0.043794803 0.1281935 -0.23409155 -0.04855245 0.07376184 -0.1021242 -0.1209017 0.2614871 0.26030818 0.2461301 0.25651804 0.25133297 -0.26922643 0.017326683 0.2120617 0.008276198 0.24949798 -0.14836147 -0.053814784 0.19979 0.028192112 -0.2299012 -0.30507275 -0.23112822 -0.089861624 0.123285696 -0.0143195465 -0.07096174 -0.07199788 0.1686007 0.3339561 0.11082289 0.16176979 0.10446847 -0.15773784 0.18488851 0.25437242 0.03718134 0.16364522 -0.055850618 -0.37413615 0.046179622 -0.07688719 -0.13910058 -0.062168263 0.23013236 0.12100493 -0.28593618 0.01012139 0.0067544077 -0.04698738 -0.009320475 0.02854424 -0.022069339 -0.047805045 0.028489646 -0.14603123 0.122060835 -0.001802211 0.08079104 -0.25234112 0.09019279 0.13291468 -0.13444117
-0.1992577 -0.23944867 0.08551928 -0.04079854 -0.27549216 0.27294818 -0.14716528 -0.3168328 0.08370852 0.18162356 0.1544017 0.17847793 -0.20805925 0.2491338 -0.21149297 0.23867838 -0.19696325 0.16639578 -0.06376201 -0.35390308 0.042670153 -0.07357159 -0.18320926 -0.07297184 0.018134646 0.12032178 -0.12686151 0.18891644 0.0047140997 -0.49397925 0.2039176 -0.053437106 -0.15070389 0.028057726 -0.21743709 0.062401965 -0.11292122 0.39487705 0.120164685 -0.26433364 -0.014410372 -0.05227993 0.041848037 0.069149755 -0.44320565 0.09221637 -0.22442703 -0.32240233 0.10198488 -0.24402796 -0.1442082 -0.20577247 0.0065355673 -0.53396714 0.19897294 0.056359358 -0.07476646 0.14365888 0.02996978 -0.3122693 0.5971221 -0.1446722 0.18519372 0.19436973
0.21461797 -0.31270206 0.017331628 0.09280994 -0.11881646 -0.37549186 -0.011511644 0.43561533 0.13908044 -0.096642554 0.06334579 -0.05683912 0.10852997 0.22194318 -0.22194415 -0.28661647 -0.2098538 0.2549169 0.32758468 0.36694735 0.117136225 -0.23476142 0.12591541 0.35035232 -0.3085998 -0.12296744 -0.061637837 0.03938017 -0.02416016 0.016600607 -0.07046503 0.042696014 0.059177954 -0.5548042 0.2424476 -0.35665938 0.09839629 -0.068039894 -0.17246827 -0.0244101 -0.099689595 -0.06843929 -0.13892882 0.11948192 -0.006285254 -0.3449571 -0.11465956 0.039130077 -0.18070298 -0.24050446 -0.4703563 -0.19863541 0.16029185 -0.03051382 -0.1748975 0.1669241 -0.30109257 0.09716772 -0.2070227 -0.11337455 -0.11907851 -0.36850554 -0.1470596 0.010489341
0.15082802 -0.13401853 0.07163719 0.11808272 0.35855523 -0.2747226 -0.13508351 -0.0077148643 0.14657845 -0.14880417 0.06592731 0.07588633 0.17267127 -0.14005846 0.10674045 0.11908715 0.31534532 -0.23445497 -0.44643524 -0.2710755 0.088872224 -0.16810644 -0.21992975 0.33989844 -0.077041246 0.20833462 0.008225235 0.18918115 -0.085421935 0.1190629 0.33214584 -8.507755e-05 -0.20730764 0.032745324 -0.099981025 -0.24472776 -0.036768086 0.11962707 0.1385996 -0.29245663 0.16397586 -0.15411384 -0.14462183 -0.11161757 -0.32279465 -0.19403563 0.21410832 -0.24559556 -0.07134783 -0.11748349 0.027513374 0.07382555 0.023721723 -0.34447068 -0.06631717 -0.14911427 0.23610906 -0.050714288 0.09217027 0.06647083 -0.15733898 0.33744973 -0.29484755 -0.11455605
0.25305378 0.09275858 -0.004206468 0.087009594 -0.09199678 0.27187538 0.14913106 -0.16846707 0.02526484 0.045484345 -0.083721906 0.29920152 -0.0349962 0.11676058 -0.2740691 0.1633191 0.1404472 -0.07406026 0.012464059 0.05731534 0.11542879 -0.10269289 0.063931696 -0.11570166 -0.12854035 0.13504937 0.11592099 -0.08976835 -0.12515089 -0.0756607 0.16814303 -0.036706943 0.022838758 0.27897277 0.05639446 0.026167214 -0.038742587 0.23664947 0.17415902 0.109154604 0.044427484 0.09115783 -0.047244605 -0.04260455 0.033512283 0.1060055 0.31878337 0.4093446 -0.008634085 -0.35844916 -0.3579115 0.015486176 -0.42778122 -0.08131668 -0.03879525 -0.15785937 0.014766298 0.16210014 -0.00069314835 0.3984979 -0.13361695 -0.2127697 -0.012008711 0.29020843
0.3505451 0.06145413 0.015106543 0.19494504 0.27761346 -0.25199667 0.11572739 -0.05009297 0.34657946 -0.13769312 0.34505382 0.07022717 0.29905662 0.18616575 -0.032109324 0.14430253 0.075595334 0.14960246 0.34970412 0.07626718 -0.0993041 0.057130992 0.12380599 -0.10768999 0.24516216 0.16275063 0.04576222 0.0013284732 -0.016512027 -0.09924435 0.16850255 -0.17196122 -0.20324674 -0.19817887 -0.19517075 -0.04134987 0.37326473 -0.3608991 0.24585241 -0.30001235 0.06239233 -0.23103064 -0.12872925 0.011534617 -0.043637604 0.042492494 0.16287588 0.021767078 -0.01752263 -0.13326585 -0.07896238 0.10388887 0.17816415 0.17193788 -0.15031482 0.05343438 -0.092198335 -0.21012767 0.033595413 0.13662472 -0.12043158 0.15339872 -0.06743765 -0.30063725
0.121124476 -0.041826073 -0.044655044 0.15397058 -0.0728803 0.014854852 -0.27536607 -0.0023877462 -0.05136562 -0.08068191 -0.069444984 0.16386679 0.049672417 -0.24815874 0.1858488 -0.04177582 -0.06598244 -0.011468876 -0.031293582 -0.07366724 0.062058922 -0.12870772 -0.22433184 0.060599696 0.18386875 0.16230331 0.12803549 -0.215809 -0.067180604 0.16526566 -0.20243682 0.011998353 0.17437837 0.21733762 -0.10849117 -0.18413502 0.078636125 -0.32428235 -0.059740968 0.06606424 -0.21042426 -0.3181142 0.12214527 0.079856776 0.1484494 0.08999457 -0.1129352 -0.1499813 -0.36260268 0.120036855 -0.0038881255 -0.08761457 -0.030437287 -0.09992751 0.09139452 0.049346294 0.0067327404 0.015430359 -0.11173916 0.028381327 0.03843339 0.09229581 0.41796497 0.018766593
-0.005936022 0.16030112 0.113811485 -0.15525138 -0.2704509 -0.103853256 0.13943742 -0.034133267 0.15100567 0.07175673 0.025465356 -0.05288755 0.18820527 0.29670942 -0.06638455 -0.35299808 -0.049265616 0.26626948 0.24276096 -0.29717562 -0.21833588 -0.060012814 -0.052095737 -0.41132423 0.12106571 -0.21690355 0.20766976 0.28835195 -0.08482062 -0.052167665 -0.06883223 -0.0806611 0.26706097 -0.07635877 0.02694077 -0.15508343 -0.013248528 0.15841493 0.11790676 0.005603468 0.096794136 0.28201354 -0.18778625 0.06418338 0.07814387 0.06578195 -0.15282929 0.07057839 0.07427418 0.16047354 0.20312406 0.05752743 -0.07451323 -0.38864717 0.011335451 0.40438882 0.3580784 -0.2744734 0.22458735 0.06695271 -0.011527219 -0.14333837 0.009279832 0.20755853
0.04581203 -0.18531354 -0.0565025 -0.06745657 -0.08708541 0.13750565 -0.16110125 0.35547343 -0.09787777 -0.011221054 0.059366226 0.049613804 -0.072980866 -0.03431235 0.369412 -0.26880413 -0.10844318 0.12696373 -0.35724163 -0.048349295 -0.14239505 0.14323598 -0.09392592 0.13017265 0.06184897 0.18523821 -0.0059698266 -0.017667813 -0.2059102 -0.19557403 -0.13967551 0.0975725 -0.10071457 -0.27586833 0.5466726 -0.19242062 0.13766627 0.08901411 0.00095506525 0.34980187 -0.13247843 -0.113756545 0.08914543 0.13365251 0.34429872 0.13845958 0.05435218 0.17342533 -0.03217019 -0.02725498 0.033356905 -0.12317348 0.31639457 0.08879355 -0.061704177 -0.17969933 0.015648965 0.10284944 -0.18090084 0.04153538 -0.052322883 -0.011976784 -0.12371088 -0.17970307
0.04042839 0.0681643 -0.123057954 0.07175852 0.006746202 -0.12298901 -0.022461014 -0.22800122 0.044787873 0.020178178 -0.23077527 -0.017432053 0.005861955 0.12624237 -0.07357828 0.006770733 -0.033647377 0.0764033 0.045238696 0.0005615236 0.13341112 0.010938247 0.059630886 0.11979382 0.076939344 -0.14762951 0.010824267 0.14591913 0.03221362 0.35325328 -0.1619184 -0.092728846 0.27640373 0.020981304 -0.30619264 -0.4287614 -0.013549111 0.036879107 -0.03093971 -0.29277772 0.13404588 -0.09260144 -0.037229665 0.06290186 -0.3449574 -0.47248268 -0.059916034 0.14555731 0.19886439 0.087874874 0.03737747 -0.17176983 0.049575943 -0.43041968 0.074540555 0.042051774 0.10769461 0.119857706 -0.06033811 0.058221 0.01714158 0.23677468 -0.14256272 -0.080868185
0.26000115 -0.10633483 -0.12168457 -0.051935263 0.14427349 -0.058514137 -0.030278763 0.041142892 0.05231265 -0.18768074 0.0026910903 0.25630367 0.1686872 -0.37514934 -0.035811394 0.15865406 -0.027021768 0.10059447 -0.1336861 -0.13295397 0.078767404 0.108934626 0.25553167 0.18582582 -0.11767157 0.24028744 -0.122248776 0.07034445 0.02625714 -0.03825327 0.29403964 -0.091645256 -0.21625106 0.26359496 0.06258336 -0.05278896 -0.1376194 0.02659687 0.11334811 -0.06065486 -0.1649205 0.14685158 0.16921283 -0.044709515 0.22352438 -0.031476736 -0.042205837 -0.11172355 -0.14202717 -0.14153628 0.099798195 -0.0075353608 -0.08543268 0.15629734 0.03191662 -0.19180177 -0.15812397 0.20661952 -0.0052131573 0.034516517 0.075066105 0.12557156 -0.004281027 -0.07242835
0.1294859 -0.14967492 0.32046285 -0.003579259 -0.2675949 -0.018189404 0.08100893 0.09026128 0.31394774 0.1214517 -0.2059709 0.015294202 0.4597066 0.4504173 -0.16094251 -0.1681171 -0.13093741 0.012599952 0.4113536 0.17622693 -0.021981398 -0.08664483 0.006153295 -0.16473764 0.18348272 -0.21272784 0.1708559 0.061102234 -0.049870595 0.0063864687 -0.038236357 0.0028970225 0.2812978 -0.29613554 0.0034651365 -0.007919895 -0.15918472 -9.554343e-05 0.27899212 0.097571775 0.19312313 0.16197143 -0.10785961 0.009692501 0.13024887 -0.08104807 -0.109910965 -0.06505913 0.15671238 0.15808576 0.2393054 0.11551277 0.2554837 0.046615884 0.014496755 0.04951082 0.003867589 -0.07960433 -0.14326671 -0.19884619 0.10472666 -0.24182628 0.06937239 -0.23239952
0.16560252 -0.41781446 -0.55243236 -0.20651673 0.03698137 -0.18851344 -0.37973797 -0.29646394 -0.060303148 -0.19711672 -0.12701486 -0.42276213 0.23627564 -0.46567342 -0.26911926 0.04336224 -0.22136831 -0.044490084 -0.2729644 -0.01754758 0.051645134 -0.36114502 -0.4200254 -0.1636601 -0.5313194 -0.3183037 -0.46886748 -0.5389168 -0.21299618 -0.3255582 -0.30679575 -0.3913588 -0.1202644 -0.40940142 -0.06612958 -0.58287334 0.05002287 -0.23481415 -0.08107338 -0.26750636 -0.06347005 -0.28518137 -0.84522474 -0.30635545 -0.5848965 -0.5117835 -0.08150741 -0.15762033 -0.21681589 -0.61128277 -0.2880515 -0.048799116 -0.056634735 -0.30009001 -0.17271067 0.0028251747 0.05719795 -0.6586518 -0.13243133 0.08194694 -0.5702432 -0.4580437 -0.30880794 -0.35581568
1
64 10
-0.28658146 -0.16748491 0.13388322 0.0787228 0.1456461 -0.42251155 0.0038594648 -0.13496554 0.09005552 -0.06280256
0.27305672 0.061678316 0.12600058 -0.0068956246 -0.17287719 -0.47150168 -0.18681389 0.028083676 0.03447012 0.055022325
-0.23700212 0.41470015 -0.22310022 -0.020979844 0.16287671 -0.18554904 -0.28897804 0.3516094 -0.26292202 0.30095083
-0.12329989 0.14989637 -0.64205533 -0.31674242 0.12234251 0.25947413 0.15344049 -0.025573954 0.10510682 0.13284315
-0.26311693 -0.10486349 -0.056911293 -0.21090405 0.21864152 0.26094478 -0.03738426 -0.24473275 0.2049212 -0.18957043
-0.21724176 0.25359586 -0.34592414 0.16364208 0.1527313 0.11663993 0.13510437 -0.25604132 0.15373236 -0.09593818
0.14293413 -0.29841673 0.19035268 -0.21520142 0.24741915 -0.5634048 -0.0023822538 -0.0019967724 0.0487143 0.1415241
-0.43124685 0.27123576 0.19418328 -0.1356689 -0.23453914 -0.14449409 -0.005928931 -0.08376639 -0.054345995 -0.040572517
-0.60369253 0.22382545 -0.43285677 0.28584015 0.10655403 0.08360231 -0.41521096 -0.0071639204 0.12232745 0.20761414
0.17582099 -0.053139318 0.005712675 -0.04621005 -0.42352018 -0.3803055 -0.028252224 0.0897267 -0.45673063 -0.06421618
-0.046496384 -0.5395717 -0.11317036 -0.07211701 -0.12908031 -0.26793364 0.34229434 0.14177792 0.20731732 0.049847525
-0.41508698 0.11070967 -0.32227758 -0.13032252 0.23528998 -0.27193162 -0.07585372 0.124107435 -0.12165722 0.12360062
-0.14727113 -0.07771522 0.26168892 0.24947214 -0.895312 0.16891393 -0.19887938 -0.05618965 0.20684223 -0.18373637
-0.083789766 0.16018155 0.16601136 0.14764106 0.19983612 -0.48167026 0.18369208 0.23291264 -0.13718472 -0.33871177
0.16746041 0.10446569 0.020123327 0.17509107 -0.06846708 -0.031252723 -0.23892015 0.14076483 -0.48886368 0.048993614
0.18242286 -0.4355806 0.23416978 0.12842962 0.18002656 0.13429189 0.2682151 0.020623766 0.15761697 -0.6322434
0.36585373 -0.6097175 -0.06751864 -0.04402273 -0.12427943 0.019634785 0.2151821 -0.10975255 0.1408753 -0.3360776
-0.23434354 -0.6797503 0.06134579 0.08093113 -0.0045311903 -0.3442433 0.18643881 0.052337985 -0.074903324 0.18950453
-0.15052742 -0.33644274 0.03676888 0.050980702 -0.5602564 -0.10355508 -0.4057444 0.18333463 -0.071184255 -0.46961528
-0.54157424 -0.21931578 0.16835813 0.25851586 -0.13800764 -0.050976068 -0.7347195 0.114596814 0.098583296 -0.083222635
-0.10057043 0.14840807 0.27021 0.2249078 -0.16105583 0.23721349 0.1079736 -0.53335035 0.08190328 -0.44294387
-0.04509864 0.15174748 -0.18077059 0.14121923 0.060027234 0.17912017 0.19688436 -0.7929534 -0.17957552 -0.22819978
0.20362836 0.18838724 -0.05094577 -0.34371528 -0.34024125 -0.0059948964 0.076393284 0.12797515 -0.14611235 -0.05759912
-0.29394192 0.2739524 -0.23245217 -0.60537416 0.020587198 -0.14395808 0.04343007 -0.4286713 -0.15311535 -0.21613313
-0.2671216 0.09131235 0.12911265 -0.03342566 0.14135563 0.15342863 -0.17201488 -0.45148823 -0.5350543 -0.039801363
0.21426123 0.17991765 0.01929304 -0.032638963 0.3045482 -0.49184233 0.092282146 -0.026456945 0.2615216 0.18249871
0.37505063 0.24487272 -0.12019121 -0.060902692 -0.5120533 0.1270377 -0.060199067 -0.31207597 0.061554704 -0.1380528
0.08641244 -0.06662607 -0.4289081 0.25564507 -0.14783752 0.22205664 -0.265049 -0.34303012 0.011177494 -0.035130687
0.23303184 -0.17741764 -0.119347624 -0.22399814 0.198244 0.12364218 0.1586907 0.16406116 -0.4434411 0.05283135
0.030335087 0.090515815 -0.07097081 -0.40999648 0.21008836 -0.050228275 -0.059510954 0.18450995 -0.007423136 -0.4162288
-0.22878353 0.17005353 0.046557155 0.22605857 -0.4918334 0.20609295 0.1503711 -0.2784586 0.12356242 -0.36098307
0.046371885 -0.42471436 -0.5855164 -0.11455441 -0.0038169436 0.26801884 0.039484136 -0.021628665 0.031124856 0.19044349
0.1083723 -0.11492866 0.12942737 -0.3750322 0.1365749 -0.1750355 0.0853783 -0.3011076 0.19404845 -0.26919293
-0.24041016 0.40349928 0.023111742 0.014806853 0.3025177 -0.61095136 -0.42784116 -0.035213966 -0.11603452 0.075449295
-0.14671382 0.16778325 0.18869427 0.0021365436 -0.31891665 0.21769856 -0.44809046 0.022950701 -0.08996132 -0.25945905
0.18064944 0.11336277 -0.07871147 -0.41454628 0.2103264 0.13878986 0.31188792 0.10771782 -0.3437339 -0.32935634
0.1633738 0.22625549 0.058409642 -0.19404605 -0.24184941 0.11451596 -0.045653988 -0.18080232 0.20557131 0.065766305
-0.20497002 -0.46160048 0.01136013 0.25974095 -0.11855171 0.25736654 0.05402537 -0.25059777 0.08287136 0.25887313
-0.26652402 0.20479259 0.07153829 0.22048369 -0.14070499 -0.53846276 -0.003657886 0.19801146 0.029631754 0.08227807
-0.068703674 -0.29192877 0.0070491824 -0.04456641 -0.5138827 0.1997255 0.07663742 0.09055713 0.066106856 0.02667064
-0.20277469 -0.49630886 0.17735964 -0.12406798 0.18954882 -0.40349323 -0.21569489 0.031620193 -0.12006251 0.11849901
0.20458518 -0.24015687 0.06458188 -0.051502164 0.050497316 -0.0341293 0.22995988 -0.27156264 0.047315095 -0.30028838
0.30882442 -0.25032967 0.04106802 0.003645032 0.02010352 0.034490507 0.18850158 0.47734973 -0.08067214 0.021905867
0.011952783 0.15469365 -0.54041123 -0.03132974 0.08030286 -0.08932282 0.0039171707 -0.12787351 -0.4864816 0.022841465
0.29682872 0.043857545 0.09926388 -0.07854474 -0.30801934 0.21770038 0.23930407 0.04112283 -0.5342116 -0.26541328
0.08248447 0.21970117 -0.28645545 -0.33017057 0.18333392 -0.21991636 0.045366883 0.0894152 -0.4079987 -0.0053622928
-0.14697194 0.04423887 0.18685725 -0.5421426 -0.10510274 -0.12393487 0.16331004 0.098465465 0.047997184 -0.39452356
0.09818753 -0.35294634 0.04462888 0.17197137 -0.926509 0.290498 0.34349507 -0.62482166 0.17007329 -0.17301284
0.19197838 -0.38729587 0.005300084 -0.21571758 0.08058775 -0.29535037 0.048509195 -0.07734567 -0.2860852 0.050739497
0.17664452 -0.3105333 -0.054367777 -0.09942507 -0.46509328 0.3019151 -0.24551822 0.08042221 0.042843785 0.081336625
0.019380644 -0.21714969 0.16827941 -0.050280962 -0.39932013 -0.33387938 -0.6306534 0.16037114 -0.16215652 -0.058578562
0.15442297 -0.6854522 -0.2457884 -0.2709852 0.15578711 0.012747408 0.21442351 -0.30545 0.07655131 0.13109116
0.030037075 0.16322683 -0.021285575 -0.013450572 -0.473314 -0.2334313 -0.63242185 -0.072772324 0.08417758 -0.18384713
-0.12389669 0.016789814 0.22457173 0.005396748 -0.16061944 0.001505523 -0.11067476 0.21219012 -0.003291357 -0.5892132
-0.29785678 -0.4204796 0.06431488 0.051368568 0.20629926 0.22120288 -0.6153905 0.17902976 0.013442637 0.20477672
0.21554333 -0.6023044 -0.012528102 0.19762109 -0.44470707 0.034623314 -0.523495 -0.014749512 0.1525341 0.16236216
-0.020534376 0.09613538 0.23324221 -0.107155725 -0.067959175 -0.21423884 -0.30738097 -0.03218634 0.13202274 0.19264333
-0.5452242 -0.11560467 -0.25671697 0.16861163 -0.15943682 0.16490184 -0.57125217 -0.5224878 -0.040260796 0.29974863
0.1627711 -0.48885092 -0.4180907 0.109023765 -0.277623 0.016908 -0.0013512443 -0.05026268 0.07244741 0.07337694
0.116995566 -0.51068765 -0.10972397 -0.34111202 0.079900905 0.07895388 0.19183505 -0.505574 0.10978021 0.0051896023
-0.12801728 0.22463143 0.004230561 0.17594388 0.38813633 -0.35047588 -0.23803493 0.2934549 -0.09754412 0.2819573
0.14356655 -0.26073068 0.030463273 0.34400836 -0.37093484 0.28525886 -0.33612144 0.2777835 0.015882257 -0.15420476
-0.02844037 0.18170936 0.23937882 0.20383929 0.14815286 -0.67121273 -0.5807969 0.2539741 0.046189785 0.24660465
-0.4131664 -0.14153053 -0.23237978 0.2140012 -0.04403262 0.22282742 -0.7793146 0.012914023 -0.19082525 0.06727471
-0.28084567 -0.19311234 -0.06621434 -0.16174418 0.21371411 0.046499144 -0.07873912 -0.23471648 0.57038856 0.011690949
0
