2
784 128
-0.067883216 -0.02243413 0.04266075 0.06996841 0.031532623 0.061211295 -0.042046435 -0.00050043315 0.018504217 0.06229762 -0.03783026 0.056742214 -0.07506467 -0.057323553 0.037221722 -0.028566323 -0.010461032 0.026038982 0.069509484 0.06912496 0.028910138 -0.073431894 0.0492466 -0.062431186 -0.044163417 0.03023336 -0.0018370599 -0.05763109 0.028544262 0.0227044 0.06476513 0.01008521 -0.00978139 -0.007097967 0.05010415 0.0111441985 0.07609286 -0.043730877 -0.01131577 0.05044838 -0.0056417733 0.054952778 0.036652632 -0.052192062 -0.04903694 0.059348337 0.0068276003 0.0627012 -0.04869413 -0.03510441 0.009618171 -0.05259078 -0.03254013 -0.05520017 0.030219339 -0.039494418 0.038620457 -0.075088456 0.050117917 0.0072281957 -0.055781055 -0.079218864 0.0659535 0.05250234 0.07713514 -0.006449476 0.080481745 -0.0069822297 0.03202738 -0.06367777 0.028713912 -0.045323968 -0.064588875 -0.04089749 -0.021260567 0.07937535 -0.0736048 0.040467888 0.053426005 0.0053165853 0.028308973 0.064089276 -0.06492554 0.0008344054 0.076224096 0.031116039 -0.065600716 -0.071885005 0.022341654 -0.066259265 -0.04338242 -0.045603868 -0.0109557435 -0.05622094 0.07856583 -0.054559223 0.07914976 -0.07879444 -0.06343353 -0.02632391 0.058680274 -0.051159993 -0.04952989 -0.04495834 0.057598464 0.021269925 -0.073930725 -0.034765273 -0.074519135 0.056336768 0.022947252 -0.006680183 -0.08078002 0.0325977 -0.021513667 0.0807982 0.055493765 -0.060477864 0.052570663 -0.031367652 0.05355311 -0.06095583 0.058842845 -0.032092508 -0.06502898 -0.05663254 0.054968633 0.009753674
-0.08036643 -0.031127758 -0.07727546 -0.07505469 0.042350873 0.04551976 -0.03426534 -0.006722823 -0.07922391 0.0148378685 -0.011776872 0.056369014 0.035020232 0.053900756 0.05531303 0.040306337 -0.0653615 -0.03456541 0.019881882 -0.060665097 0.01015307 -0.0023574755 -0.034860265 -0.052464187 -0.012724347 0.03435745 -0.061884493 -0.04112572 0.027889326 -0.07125782 0.027238153 0.07226514 -0.037756 0.03130333 -0.041237164 -0.03241341 -0.0594486 -0.044789687 -0.047404904 -0.0401993 0.022899702 0.01882299 0.052110456 0.06539831 0.04260102 0.076770686 -0.03765078 0.076851346 -0.07050686 0.054285996 0.025313444 -0.034134496 -0.048269384 -0.03820461 -0.05691484 0.07272377 0.017357402 -0.057351943 -0.058428176 0.020318732 -0.052672558 -0.03498666 -0.019311883 0.0055273324 -0.07444404 0.01398354 0.055784382 -0.05584524 -0.02513012 0.044376366 0.02943167 -0.04499825 -0.073882826 -0.051259838 -0.035378356 0.029455729 0.016991228 -0.07919552 -0.0381418 0.028583862 -0.05217769 -0.008687228 -0.030967347 0.02655106 0.0656878 -0.05181299 0.021470562 -0.074582525 -0.043515757 -0.052205868 0.066158496 0.009402879 -0.06927076 0.025134161 0.06217494 0.079924725 -0.07894084 0.031922467 -0.012344159 0.014201812 0.061257444 0.06810155 -0.01584103 0.02732902 -0.07661831 -0.04415953 -0.046078585 0.010096505 0.06466652 -0.029411871 0.06534506 0.066497825 0.03791661 -0.005259067 -0.0147508085 0.012193918 0.07599933 -0.046659894 0.02463007 0.062278204 -0.0007555634 0.0046032667 -0.011318475 0.051536553 0.048109166 -0.07154154 -0.012032658 0.07360462
-0.06838469 -0.06552854 0.017980173 0.035844177 -0.029146608 -0.078573175 -0.04915742 -0.006464407 -0.053172782 -0.02916583 -0.062882945 -0.0061177686 -0.051393874 -0.052681822 -0.070489556 -0.0032987818 0.0045441315 0.040634543 -0.04359493 0.011898622 -0.06384981 0.06593413 -0.07883204 -0.06565121 0.06045071 0.023785375 0.078900404 -0.069773495 -0.020510703 -0.009801462 0.045618527 0.039214008 0.07745954 0.003998019 0.041389592 -0.07905077 0.03463596 -0.006732747 0.011540152 -0.06919255 0.021663673 0.07956732 -0.03414867 0.02182863 -0.01268629 -0.056323126 -0.003015712 -0.06413514 0.07094156 0.06598806 -0.048976738 0.0031248927 -0.02726791 -0.0710557 0.021704458 0.07359437 -0.05452981 0.050179906 -0.036045566 0.015879296 0.020913653 -0.019340854 -0.059330158 -0.06370896 0.009537086 0.04369922 -0.051773522 0.052519687 -0.0028115585 -0.040980257 0.035651356 0.047717847 -0.05921726 -0.03062328 -0.0012803525 -0.058999933 0.034642555 -0.03291781 -0.07058638 0.0049417466 -0.06164027 -0.046210665 -0.02185493 -0.007954478 0.061488487 -0.064921826 -0.07807854 0.012595676 -0.080606155 -0.03705955 0.0121213645 -0.01867399 0.0027987137 -0.0023133606 -0.030889008 0.076897494 -0.044649735 -0.046866465 -0.03092923 -0.044843256 -0.013784878 0.016801834 0.049009137 0.027526468 0.01289884 -0.07819213 0.007249661 0.047320224 -0.0043816343 -0.050797924 0.03357798 -0.053421337 -0.03287706 0.07710279 -0.07674145 0.058261596 0.059558652 -0.07936049 -0.06746125 -0.05693437 0.019712396 -0.05882674 -0.012211457 -0.07074911 -0.029963747 -0.016830817 0.059603058 0.0020786375
-0.054296784 -0.07594058 0.052648343 -0.003257148 0.018904038 0.03761375 -0.0011316612 0.04648403 -0.05084791 0.009404816 -0.055282496 0.06777697 -0.05728927 -0.016886458 -0.07334042 -0.06667962 0.0041923895 -0.0064326376 -0.02079285 0.042078786 0.03532891 -0.06552344 0.02007772 0.0044690073 -0.026123896 0.06277884 -0.013232365 -0.01952824 0.014741279 -0.018646646 0.021969214 0.07882274 -0.07853284 -0.045943644 0.0008383766 -0.025364153 0.055009626 -0.06450953 0.056129433 0.011711486 0.030120388 -0.022602431 0.06730465 0.034151822 -0.048169654 0.013141185 -0.02104678 0.03572128 0.03253375 -0.06538786 0.06475451 -0.06559118 0.04153397 0.024038069 -0.013673916 -0.051476408 0.051527582 -0.07495933 -0.05416617 -0.06614934 -0.0689486 -0.061292686 0.05548703 0.0582873 0.07439517 -0.06614557 -0.015524745 -0.040480707 0.033592947 0.01776366 0.07894238 -0.054275624 0.0062465966 -0.0014816597 -0.07211169 -0.020670071 0.0014930516 0.06072607 0.037013546 0.05232603 0.03138192 -0.047430776 0.034632035 0.07862381 -0.046521664 -0.05384653 -0.0063405856 0.028534606 -0.060171254 0.005557306 0.033644408 0.018416852 -0.012176976 0.031717077 -0.07294586 0.042718478 -0.032688186 -0.051946446 -0.031389736 0.0049186572 -0.06797451 0.06421859 0.04311298 -0.03034338 -0.076266564 0.06287434 0.0511098 0.023449123 -0.003414236 0.035739057 -0.0010574982 -0.015146375 -0.0026459843 0.07792369 -0.01109504 -0.00025625527 0.016985483 0.029326744 0.047622092 -0.07579875 -0.013722129 0.06403478 -0.02257267 -0.03053274 -0.033143178 -0.04594167 0.046384983 0.066319846
-0.0484021 0.023774393 -0.036399458 0.014071457 -0.023526784 -0.014467217 -0.06358451 -0.052167907 -0.06520927 -0.048265398 -0.05280021 0.001484096 0.034725107 -0.0484167 -0.059327446 -0.06826592 0.03484015 -0.0802693 -0.070583366 -0.03799295 0.0012560412 -0.05164343 -0.040643383 0.035556503 -0.080996744 -0.042967074 -0.05272719 -0.046273865 -0.027532537 -0.036952708 0.04731778 -0.0071414188 -0.07018629 0.036241986 0.01787994 0.02272036 0.019359827 -0.080801025 -0.012088858 -0.0012528151 -0.03943518 0.028786607 -0.04234604 0.03298317 -0.016411625 -0.016223073 0.052587144 0.018690057 0.07628221 -0.070247576 0.038582034 -0.02897318 -0.010895357 0.07525354 0.044649757 0.07260836 0.023485921 -0.026417878 -0.04219261 0.037586503 -0.059322886 0.02103512 -0.053325146 0.071078174 -0.032312773 0.0010494888 0.04130286 -0.07861918 -0.011075392 -0.034315273 0.045084707 0.043847233 -0.02805467 0.051675387 -0.027862005 0.02887448 0.02798871 0.008312531 0.028287351 0.03407923 -0.016575843 -0.021632385 0.04293493 0.019951418 0.04298117 -0.074179806 -0.04776405 0.012104072 -0.04103158 0.044877656 0.0026277825 -0.06640266 0.011579096 0.053245045 0.050682284 0.008586787 0.057095326 0.035905845 0.06655673 0.007969722 -0.080759756 -0.008656323 -0.016119495 -0.038192406 -0.03047451 0.07432573 -0.02908434 0.04812581 -0.0046583414 0.032835484 0.06743557 -0.02162987 -0.04404468 -0.07791997 -0.04360833 0.03397341 0.07434235 0.055411406 0.012429364 0.05024738 -0.04602022 -0.01764407 -0.016142935 0.05173912 0.04186313 -0.012938403 -0.021879528 -0.0034240782
0.060737632 -0.028347183 -0.07547431 -0.015427478 0.077573754 -0.01643794 -0.08096252 0.0025147498 -0.02145923 -0.07193648 -0.012670144 0.07741261 -0.07461788 -0.047219217 0.027678601 0.02578631 0.052482806 0.03302697 0.062638454 -0.005677648 0.047581546 0.052812584 0.058478095 0.022688098 0.011273511 -0.07059889 -0.03263048 0.02175133 -0.055818997 0.06760994 -0.011147618 0.0362212 0.007929765 0.041757658 0.0150150135 0.05186913 -0.0074134544 0.015924565 -0.058546335 -0.023676652 -0.016373098 -0.041049294 -0.000184834 0.038530998 -0.05783198 -0.07158928 -0.04181188 0.048675112 -0.062060706 -0.051628172 -0.047890875 -0.0017749444 -0.0038101897 -0.07255896 0.0474556 -0.080108136 0.054750763 0.0402653 -0.023846 0.03210695 -0.017952263 0.014702365 -0.058508877 0.064465754 -0.018179528 0.06757634 -0.010251135 -0.037202556 -0.02485859 -0.061581716 -0.072592594 0.012774318 -0.051206987 -0.04883936 -0.07590706 -0.00034097582 -0.058102712 0.07676879 -0.013786875 -0.011442512 0.008118935 -0.0653176 0.061990358 0.043913104 -0.0798859 -0.05784853 0.08042311 -0.019114286 -0.03075745 -0.025727093 -0.055914395 0.029483095 0.041731782 -0.032938346 0.01280418 0.025143698 -0.07513562 0.07521083 -0.06814152 -0.022997223 0.0075473115 -0.07062009 0.07778204 0.026205465 -0.015406266 0.06893887 0.021044575 -0.052338257 0.04066945 0.048478253 -0.022972316 0.057903238 0.02644623 0.024949424 -0.0017585084 0.07144841 -0.07623471 0.04185365 0.07041129 0.017443068 -0.03169319 -0.038855962 -0.011179432 0.06660176 0.019949235 0.078462355 0.05110728 0.06050708
0.070496924 0.052865632 -0.066612475 0.012029506 0.030700862 0.052081786 -0.021813776 0.049948953 0.075061075 0.023562461 0.07706233 0.017914094 0.0046055913 0.03567458 0.07831355 0.035621166 -0.0504993 0.022759229 0.03973098 -0.010736026 -0.021741256 0.07410812 -0.015465535 0.003391318 -0.06260836 0.075339116 0.015267432 -0.00058695674 0.008428924 0.0072266236 -0.004696749 0.033719167 -0.057123154 -0.040219486 0.03593657 0.06146752 0.0016704053 0.056667574 0.052494355 0.07121555 0.05245047 0.05330386 -0.033413216 -0.04137758 0.011269242 0.06700946 0.028067589 -0.032885186 -0.077242814 -0.048263986 0.06992785 0.080808096 -0.07747335 -0.022278223 -0.03113097 0.056883357 0.06742179 -0.059088543 -0.06734412 -0.022656538 0.062339 -0.07806912 0.043648012 0.06631804 -0.01066687 0.055765696 0.011231609 -0.030989956 0.016218856 -0.06417915 0.007584192 0.061016954 0.07417149 0.042348906 0.05279679 0.044058792 0.053855874 -0.07272564 -0.055773437 -0.010520287 0.0760022 -0.025136385 0.019238919 -0.022345945 0.008684576 -0.05461345 0.011754729 0.056448452 -0.03790454 -0.031264402 -0.057789706 -0.062858894 0.011317007 -0.049886897 -0.033968303 0.028528616 -0.03277813 -0.06646479 0.04767912 -0.071481995 -0.012199819 0.06207142 -0.038571496 -0.036550816 0.06602485 0.02065166 0.052183293 -0.05873038 -0.02245811 -0.078025244 0.028931394 0.036197178 -0.001664564 -0.070920505 0.00034625083 0.068014644 0.022518873 -0.018581301 -0.036820393 0.045033433 0.065428756 0.06072236 -0.041588716 0.04064609 -0.07639601 -0.0663265 0.05598823 -0.01948705
-0.008779354 -0.06180486 0.07079067 -0.026297111 0.0051778704 0.080387674 -0.009223729 -0.044126038 -0.079627715 -0.054725878 -0.007939726 -0.024414875 -0.01830668 0.042952783 0.042857 0.07558962 -0.07706094 -0.043244246 -0.015504576 -0.016340613 0.027536288 0.010085829 0.07134131 0.018354848 -0.07219869 -0.04184313 -0.0030678064 0.009909138 -0.079363085 -0.016876511 0.018617272 0.03963381 -0.040944558 -0.07881078 0.015024699 0.010274127 -0.032928057 0.053513847 -0.05505879 -0.01722072 0.0025929958 -0.051363938 -0.06289484 -0.040198196 0.035383865 0.0383218 -0.00054814667 0.075570755 0.046753608 0.050733857 0.041518442 -0.055945873 -0.001874268 0.078783415 -0.07807548 -0.080300145 0.06424794 0.036593534 -0.07993401 -0.07213797 0.063720815 -0.07481077 -0.060542513 0.040261164 0.0077839717 -0.0058737174 0.022026055 -0.07112692 -0.010502338 -0.023403887 -0.0064575598 -0.044567354 0.05979497 0.01440452 -0.06578557 0.03802927 -0.012681939 0.04181157 0.06537893 0.047490843 0.035495743 -0.02900016 0.03851547 0.028522156 -0.018171601 0.04981915 0.00097281486 -0.06586787 -0.016063206 -0.013778925 -0.0061828196 -0.076676324 0.01835806 -0.009144329 -0.028946593 -0.03532034 -0.07928409 -0.0017265007 0.05076749 0.07715162 0.045117162 -0.019679155 -0.006507799 -0.009048045 -0.013749979 -0.0501509 -0.033902265 -0.018314436 -0.029542927 0.030537397 -0.027892869 -0.0655404 0.005973369 -0.022857387 0.023749769 0.00063004345 -0.012607679 -0.0034459904 0.057382368 -0.040102974 -0.015922673 0.012619458 0.075287364 -0.06899602 0.039730884 -0.05060073 -0.018536068 -0.07278155
-0.037369117 -0.049391527 0.07699033 0.028116979 0.05435247 9.417534e-05 0.04618398 0.07377627 -0.01566147 0.00674551 0.007734835 -0.05476914 0.025774896 -0.05989907 -0.024299677 -0.013299473 -0.08050111 0.04773607 0.04029417 -0.004182026 -0.0592973 0.076573364 -0.007977337 -0.0772538 -0.054652434 -0.017145164 0.052196063 0.04229182 0.053972356 0.004810035 0.060083486 0.023584507 -0.06357273 0.060420237 0.01729726 0.07754818 -0.0762743 0.06329671 0.004734732 0.07653097 -0.018304802 0.018480144 -0.072749406 0.054417305 0.021229856 0.04114136 -0.021830715 -0.032055147 0.030407622 0.008491136 -0.06265884 -0.025550943 0.07238523 0.072065376 0.005004443 -0.074110575 -0.015195414 0.062384464 -0.020104501 0.08057875 0.037023194 -0.02800588 -0.05417992 -0.056227382 -0.069395065 0.03275395 -0.06399198 -0.031675555 0.0536566 0.080126636 0.056686573 0.014332503 0.040615924 -0.075872675 0.071132995 0.055084683 0.081060104 0.0071369335 -0.06616164 -0.014613859 -0.071399905 -0.014027245 -0.045687854 -0.0070478246 -0.0644715 0.0065190196 -0.070217654 0.037935108 -0.0574923 -0.015267432 0.009271011 -0.023094166 0.048736192 -0.019799907 0.01314573 -0.0014392361 0.008018121 0.07923382 -0.025196489 0.050020315 -0.04656618 0.027400516 0.063386165 0.056111686 0.047745757 0.042500675 0.032046273 -0.05342128 -0.05244077 -0.03766677 0.057234176 -0.017030314 -0.007828087 0.034757227 0.06031128 -0.035911668 0.061247863 -0.021030653 -0.048945315 -0.03411599 -0.011422977 0.046869747 0.07737254 0.021499977 -0.07289547 -0.05268304 -0.035112996 -0.042247225
-0.013631396 0.06869645 -0.030341387 -0.078060076 0.00074093044 0.029908866 0.0062735155 -0.057956383 0.036371686 0.0056736246 -0.03227713 0.03734587 0.066984124 -0.016693592 0.015347533 -0.044730067 -0.046126913 -0.07414347 -0.043986645 0.03567282 -0.07643726 0.024712816 -0.0638605 0.080711104 -0.03726378 -0.0023787841 -0.05458564 0.02120611 0.030800901 0.07332491 0.041591384 -0.070657 -0.0057224184 0.05986058 -0.04291538 0.023799933 0.0039387494 -0.022921957 0.024462521 -0.047609463 0.050482742 -0.055164203 -0.0766779 -0.01216203 0.0048323125 -0.024091557 -0.016718231 -0.017913222 0.029709853 -0.07887226 0.01670491 0.032352068 0.00086119026 0.060672425 -0.053832818 0.06695562 0.014241591 -0.02969798 -0.07965024 -0.076210134 -0.06216198 0.06658762 0.017832696 -0.0049787983 -0.07646776 -0.025822721 -0.07392144 -0.042196617 -0.059412014 0.0076117665 -0.06784601 0.07736475 -0.048517898 0.05795739 -0.0324306 0.06191633 -0.0033618659 0.068971656 -0.026424993 -0.06633435 0.004321493 0.018109508 -0.014958598 -0.031004727 0.057159506 -0.056012593 -0.06579582 -0.031688705 0.026687436 0.07265145 0.044222318 -0.01716572 -0.074567 -0.05599248 0.039583877 0.037710108 -0.0030749068 -0.0783198 -0.003355965 0.0050007105 0.0035218298 -0.07953249 0.06435206 -0.047079902 0.07986044 -0.046959482 -0.0034271553 -0.048087236 -0.0360686 0.043217734 0.023787558 0.04704369 0.030067205 -0.002800569 -0.03436155 -0.018218957 -0.028210849 -0.060325384 0.07269243 0.0034815893 0.0040200427 0.04447084 -0.00610514 0.023670755 0.022345908 0.042139933 -0.040493686 -0.034391426
-0.017240442 0.078174494 0.038326174 -0.026820656 -0.032499965 -0.027589817 -0.07399901 0.045293726 0.016866617 0.003978446 0.064362325 -0.06276129 0.01090005 -0.07893076 -0.01691237 0.07129813 0.029382147 -0.02857951 -0.059487917 0.045784958 -0.074722394 -0.075717896 0.05560892 -0.056598835 -0.07118637 0.009444073 0.003581956 -0.01696296 0.04433719 -0.055724762 -0.043264516 -0.04557579 -0.016634434 -0.022469789 -0.030285884 0.07199571 -0.017919414 0.07182459 0.041241556 0.06327527 -0.080963 0.017540164 -0.04022426 -0.03715011 -0.0329391 -0.044676848 -0.039726593 0.06244967 0.05988712 0.0783756 -0.05764055 0.070027836 0.028456718 0.0149774775 0.013958752 -0.009344541 -0.06393035 0.061175935 -0.033240817 0.032247774 0.036376 -0.069538824 -0.057911634 0.06884096 -0.032095022 0.016912349 -0.07765362 0.009278595 0.016389154 -0.06659668 0.031968474 -0.006664172 -0.06914899 0.011988044 0.026114382 -0.0457087 0.077637084 -0.05300533 -0.05574143 0.051538758 0.0378303 -0.033549435 -0.06920712 0.047216274 0.077579774 -0.043900106 -0.07952203 -0.010857545 0.074256174 -0.009854548 0.045593195 0.0041667297 0.072162814 0.006345995 0.008939981 -0.01034537 0.05671511 -0.028962351 0.019740805 0.05077482 0.070718326 -0.061605886 -0.032504898 0.012036741 0.03564337 0.07749302 0.01901123 -0.050770212 -0.07154641 0.010126382 -0.050113074 0.039181523 0.068140544 0.027927868 0.055458613 -0.06948845 -0.04388164 0.025428914 0.06064304 -0.05156128 -0.039426364 0.031732738 -0.010344811 -0.026353054 0.0050830543 0.037558556 -0.078709684 -0.012404032
-0.03970004 0.07679456 0.026335865 0.029246047 -0.05119347 0.05490122 0.07025861 -0.0135101825 -0.07831087 -0.041105762 -0.014967069 -0.04660791 0.011776231 0.0056569204 0.009096734 0.0410344 0.009669095 0.02388145 -0.07446901 0.012409754 -0.0016578734 0.019504435 0.015817553 -0.017907843 -0.06354132 0.045924403 -0.008760348 -0.020945314 -0.06714004 0.020239174 -0.01248657 0.05323141 -0.0016149208 0.03700809 -0.008305527 -0.041310206 0.07183283 0.015035644 -0.01488018 -0.07244353 -0.045244023 0.019018695 0.063471116 -0.05180475 0.0028583184 0.040095955 0.07017461 0.06534699 0.008473307 -0.0059992447 0.031286895 -0.0023698509 -0.001508385 -0.07478616 0.042183675 0.00024917722 -0.030252025 -0.05793416 -0.04245511 0.04281289 0.022178285 0.072791 -0.008468322 0.07761181 -0.051589537 0.08080854 0.0246789 -0.05947461 -0.08033664 -0.02484873 0.03338719 0.024415143 0.017208576 0.020910911 0.019779928 0.02011241 0.0036463737 0.053473763 0.063185446 -0.0063875765 0.06692753 0.0021897703 0.05804079 -0.020269863 -0.01917845 -0.060901836 0.055551864 -0.040564056 -0.012840107 -0.06664767 0.024741828 -0.059266668 -0.016330384 0.028252251 0.013207518 0.030883573 -0.050135374 -0.00093672425 0.016026713 0.06996689 0.0035934448 0.017131664 -0.039655622 -0.07961261 0.0025378838 0.02651608 0.06546111 -0.05904542 -0.020951211 0.004159957 0.017786652 -0.06962724 -0.044696573 0.009700611 -0.06737098 0.07261986 0.025645874 -0.042594597 0.04313203 0.037152067 -0.05184585 0.0047654808 0.06825014 -0.049091898 -0.068097405 -0.021348342 0.013527781 0.07186114
-0.012848364 -0.014824495 0.055329602 -0.04004226 0.06733816 -0.00396052 -0.04379152 0.015470713 0.06868796 -0.08637632 -0.07568163 -0.005639879 0.108909845 0.059272796 0.101746134 0.027232312 -0.07825299 0.0063203434 0.05130408 0.06408609 0.10531108 -0.034354452 0.018514931 -0.08201006 -0.09967454 -0.017703902 -0.02226346 -0.078436926 0.06942167 -0.049274214 0.026350642 0.057284076 -0.10920908 -0.08035309 0.030447073 -0.077648476 0.028317533 -0.0063362033 0.013249398 0.043624133 0.12867206 0.010366121 0.10741716 -0.026442692 -0.031386524 -0.005008608 0.018626325 -0.07108417 -0.0014542185 0.041699678 0.08034367 0.0057651834 0.025812997 0.019946301 -0.004698728 0.052645944 -0.09152804 0.0026395419 -0.021134794 -0.074489616 0.038525708 0.10795685 0.15207388 0.044085644 -0.020075325 -0.026901703 -0.06762635 -0.07374759 -0.013555683 -0.0491207 -0.04159819 0.11323709 -0.040466376 -0.031525753 0.05164356 0.010510656 0.090315364 -0.1139625 -0.051741846 0.05343026 -0.038316153 -0.075833835 0.07770599 0.04570752 -0.05305938 -0.048149128 0.026246347 0.11490846 0.041564465 0.06537402 0.015126534 0.044777982 -0.027097598 -0.0073566977 0.034573797 0.13683292 0.10622791 0.07695711 -0.010666394 0.008314132 0.017651163 -0.018346671 0.028463246 0.025080947 0.07898917 -0.046045043 -0.057250127 0.02756428 0.06390815 0.03421813 0.035402045 0.06439967 0.07480802 -0.058687642 0.015002782 -0.022127017 -0.07308584 -0.082505755 -0.029358588 -0.05494572 -0.030921295 -0.0612383 -0.0017657096 -0.04597152 0.057699155 0.025860775 0.039429847 0.062562265
0.050384667 0.02605467 0.01483664 0.0011445121 0.051290922 -0.048488602 0.003157191 -0.088404655 0.09336718 -0.035810366 0.047150586 0.003778986 -0.013396434 -0.0349371 0.103138074 0.020715848 -0.051259626 -0.00020187382 0.0771519 0.0319636 0.055807516 -0.0321039 0.06402641 0.0037014901 -0.07769951 -0.064655066 0.05810433 -0.084103875 -0.00165613 -0.087263495 0.08000275 0.08677669 0.022013878 0.016336106 -0.072331645 0.033809535 0.07092237 -0.04646276 0.070558794 -0.08066323 0.0043826 -0.027528374 0.0086727515 -0.10495764 0.050701566 0.05604638 -0.060651153 -0.05236212 0.047119193 -0.046738543 -0.013957322 -0.1004189 0.041145172 0.021605797 0.020745395 -0.009384528 -0.05671412 0.07176188 0.027138835 -0.09610084 -0.03619973 0.0593165 0.1796222 -0.068172514 0.03132678 -0.06630074 -0.02581259 0.027070142 -0.05316499 0.027951386 0.048730053 -0.019322962 0.094380625 0.031212315 0.061596986 0.040821873 0.00084348733 -0.10239446 -0.07376964 0.122564755 0.049496554 0.0007010704 0.046921976 -0.024013659 -0.1130444 0.09124377 0.0016686469 -0.008070091 0.079426266 0.0548519 -0.04370837 -0.07737422 0.06982101 0.0017671213 -0.06570667 0.1333265 0.015670747 0.067856945 0.05664899 0.036165155 0.10007763 -0.0041914973 0.098746546 0.020136718 -0.008770864 -0.04427106 0.066411726 0.07721753 -0.027396318 -0.050477773 -0.042745166 -0.016759187 0.0077468483 0.031473584 -0.0019140695 0.058027647 -0.022362787 0.0006137756 -0.034243498 -0.026497785 0.058668204 -0.005906915 -0.050207306 -0.06043371 0.0387533 -0.117227696 0.06586745 -0.004463397
0.033832785 -0.03812313 -0.015356079 0.033594005 -0.040953957 0.0019961223 0.07892049 0.0035069585 0.04212659 -0.04370856 -0.011140719 0.018827617 -0.029532501 0.045128915 -0.021004003 -0.054365568 0.021068573 0.056929104 0.016060159 0.0072116405 -0.019535592 0.028456151 0.025179043 0.0757774 -0.043241076 0.04330919 0.046496294 0.07881566 -0.06656817 0.020408269 0.072302945 0.06412939 0.015796356 0.0037446842 0.06182521 -0.07455075 -0.00021080673 -0.07841485 0.01555657 -0.03394787 -0.06068138 0.012818062 0.015947998 -0.04604914 0.017397009 0.0034727678 -0.023795351 -0.014663421 0.017546915 0.050851144 0.023817189 -0.02249239 -0.07871127 0.027141865 0.014528903 -0.009044081 0.026665546 -0.047886327 0.08272704 0.046268485 0.0028424733 0.012975767 0.08316236 -0.04880623 0.06413651 -0.009029344 -0.062344857 0.018302388 0.07616586 0.086799785 -0.08036692 -0.099238604 -0.061338842 0.05502333 0.11294852 0.04541127 -0.0571908 -0.0418608 -0.021407072 -0.0737616 -0.058261983 0.01164924 0.044035144 -0.08092249 0.04914431 -0.05719188 -0.0021226853 -0.065619834 -0.0041323453 0.060374267 -0.055462822 0.0037470683 0.06642269 0.07856263 -0.020791583 -0.097983986 0.06962604 0.064765014 -0.06275007 0.08131245 -0.0048377025 -0.024948921 0.0314807 -0.003513938 0.04178089 0.002258949 -0.07687738 0.08834866 0.058579035 0.052650817 -5.0626695e-05 -0.06449133 0.100696005 0.017703384 0.05842629 -0.014185011 -0.03949519 0.0062750424 -0.05685823 0.062175207 0.06875052 0.050123997 -0.038929816 0.08606996 -0.018916223 -0.1137197 -0.020201486 0.001809814
-0.03900158 -0.04845842 0.06446587 0.020614404 0.02156385 -0.026051283 0.07197886 0.07799537 -0.029314678 0.07311507 0.03729049 -0.00938067 0.0633059 -0.01010395 -0.05770357 0.018155277 -0.028539423 -0.018702801 -0.043330137 -0.0008205399 -0.08166332 0.04793612 0.021818861 -0.0041338247 0.021657929 -0.07137592 0.06011056 0.02015654 -0.0042743087 -0.047833428 -0.04618009 0.054261643 -0.053923532 0.026205622 -0.035001162 -0.056687787 -0.058352873 -0.029407412 -0.08510212 -0.05928764 -0.011258371 -0.024914544 -0.013876567 0.045049667 0.047050916 0.07235615 -0.062811375 0.015920348 -0.05860672 -0.024502322 -0.04443309 0.040780563 0.014152288 -0.048715264 0.04262613 -0.003014572 -0.055286825 -0.03270328 0.0069261435 -0.02810818 -0.055208214 -0.024737861 0.04366177 -0.020326544 -0.003299007 0.040329583 -0.033015642 0.07622763 -0.017643437 0.066371635 -0.019121299 0.06447424 0.005504243 0.017836444 0.07477168 -0.036699772 0.06734366 -0.07242576 -0.048984647 0.071629286 0.0014450774 0.0249911 -0.04451731 -0.073590755 0.04721044 -0.04518392 0.07649662 0.021111073 0.078502335 0.0063101742 -0.06921736 -0.03872481 0.008568414 0.08114521 -0.031766657 0.051453043 -0.05082517 0.05146303 0.0674522 -0.037154507 0.039918263 0.013195179 0.0041560307 0.09364379 -0.03907352 0.056369446 0.0429013 -0.044385377 -0.019480746 -0.0054662228 -0.062309742 -0.053580143 0.081190094 -0.06866369 -0.008159119 -0.040718686 -0.022460643 0.040978014 0.0076763052 0.065428756 0.021574141 -0.070599005 0.037993852 0.022645507 0.034836035 -0.06682101 0.020175532 -0.017935203
0.01930403 -0.049147166 -0.023164034 0.060572155 -0.029471897 -0.045615956 0.039682887 0.014957577 -0.051834106 0.07679718 0.05957084 -0.031631056 -0.078878604 -0.006682001 0.018669061 -0.06447567 0.042013325 -0.03709463 -0.03713727 -0.059863236 -0.033055015 -0.05217301 0.062400095 0.075641416 -0.06400651 0.031115226 0.040965885 -0.042070724 0.05885636 -0.03635256 0.04628361 0.066170506 0.030159608 -0.05275494 -0.013191715 -0.052518297 -0.01968842 -0.04211663 -0.03659135 0.0038383976 0.050170623 0.05112163 0.0016567335 -0.020198796 0.072691835 -0.059100665 -0.058441214 0.05383355 -0.053351488 -0.059136987 0.0016294271 -0.06932883 0.0056004897 0.036052763 -0.012170002 0.0019981712 -0.07586987 0.056116708 0.04539501 -0.062008142 -0.042990144 -0.07288356 -0.033889093 -0.00967323 -0.076802924 -0.02544522 -0.032537445 0.053430907 0.03398078 0.07598687 -0.054981165 -0.06354432 -0.058402963 0.044237264 -0.045792222 -0.04768819 -0.049378395 -0.014942937 -0.058747664 -0.017830454 0.023969859 0.016776346 -0.037396442 0.016562268 0.035357334 -0.05580289 0.063396014 -0.0537953 0.021885775 -0.049998187 -0.010269083 -0.004940897 -0.05805108 0.004805878 0.027999654 -0.031440616 -0.029464569 -0.049803045 -0.013005279 0.06525708 -0.061024558 -0.06885866 -0.07240638 0.057901062 -0.04458712 0.05444155 -0.03256862 -0.0046138316 0.06330783 0.020727895 -0.025379565 0.057566114 -0.013292275 0.013873339 0.07660625 0.012778461 -0.033315696 -0.042829327 0.060276248 -0.04307523 -0.026663862 0.011812568 -0.048080835 0.07584744 0.01929009 -0.032509807 -0.034294482 0.054580115
0.012153715 0.016764604 0.002368845 0.051918082 -0.016559832 -0.056873243 0.023241423 -0.003161192 0.075302996 -0.039906304 0.033120103 0.04255432 0.055479236 0.038640015 0.0024257377 0.057556815 -0.044075523 0.017403618 -0.08039107 0.051716693 0.028811187 -0.0219592 -0.008040726 -0.07955475 0.05284182 0.04772956 0.071959935 -0.042909212 -0.018590704 0.046981193 -0.071881466 -0.07648657 -0.06848821 0.060788386 -0.0117111355 -0.069891185 -0.07144361 -0.059329882 0.053584643 -0.004951574 -0.05598382 -0.07883115 -0.025656898 0.07586912 -0.0108824745 0.027953573 0.075885095 0.054787554 -0.038985934 0.020649746 0.036525816 -0.028186403 -0.013868518 0.072313316 0.03251101 -0.037460957 -0.055927366 0.007780358 -0.00852301 -0.012918465 -0.080325454 0.071795546 0.010153286 0.016433053 -0.02481274 0.07996725 0.049833722 0.038883984 0.061970614 -0.072651304 -0.044511236 0.073959135 0.03344725 -0.009341672 -0.05699289 0.0032683462 -0.0023942143 -0.0028688386 0.066652216 -0.07573236 -0.025431316 0.04600998 -0.008979201 0.064316966 -0.01206921 -0.018971067 -0.01891955 0.031005599 0.0015867054 0.07034061 0.04603351 0.04966805 0.03742647 -0.017258346 0.029963069 -0.054290827 -0.06759654 -0.053821564 0.07002876 0.019082166 -0.08011496 -0.06984942 0.043938227 -0.0054511204 -0.0078027546 0.061390124 -0.04322373 -0.03452316 -0.05362526 -0.035538845 0.06704975 -0.044586945 -0.021303922 0.001482226 -0.07134632 0.013494559 0.008591212 -0.061640967 -0.04474343 -0.06904844 -0.0221152 0.06356556 0.010243766 0.03470318 0.023089893 0.07409201 -0.02273985 0.07612596
-0.0012416318 0.0366992 -0.051747896 0.009664178 -0.05435375 -0.069844425 0.06260883 0.029067881 0.07182888 0.0083500445 0.052861266 0.06193825 -0.07562006 -0.065150306 -0.06408173 -0.031944513 0.07444879 0.037206963 0.044463716 -0.04303843 -0.0706717 0.003123328 -0.04062414 -0.06499415 0.05273605 -0.0011566207 -0.023537863 -0.0163116 0.06934629 0.06478406 -0.0027700737 -0.080323346 0.06659176 -0.07149083 -0.06936513 -0.07340757 -0.06258166 0.0101949945 -0.017395146 -0.02856296 -0.025753181 -0.06963867 0.07607261 -0.07975668 -0.061793968 -0.07031208 0.015272535 -0.008878969 0.07520384 -0.036646795 0.04938454 0.03515204 -0.05079069 0.06222392 -0.039782345 0.04304125 -0.015563659 -0.03974949 -0.048856243 -0.008421272 0.047180213 -0.06338758 0.06522133 0.065976 -0.00010622293 -0.06557989 0.021954112 -0.079139784 -0.018238664 0.03184463 0.05486142 0.011700965 -0.038546104 -0.028054014 0.049043722 0.03366957 -0.03559299 -0.041699912 -0.0038441643 0.047417976 0.012318015 0.058020912 -0.055670362 -0.029078111 -0.02874412 -0.06734729 0.0023930743 0.0026419759 -0.07750187 -0.072908714 0.026029468 0.0015591532 0.015073858 0.029216304 -0.06781863 -0.02089927 0.04226409 -0.06740032 -0.06262293 -0.023679826 0.013765022 -0.050231602 0.050437383 0.05926492 0.0032335147 -0.049847156 0.006133139 -0.008551456 0.0116267055 -0.047218867 0.07304668 -0.0058440715 -0.07751649 0.027637504 -0.061566748 0.048566915 -0.019834694 0.05762344 0.058484085 -0.023539003 -0.030775417 0.018870525 -0.024885297 -0.0072911754 -0.07276327 -0.064679995 -0.011052281 0.05502317
-0.02204191 -0.051973518 -0.016116463 -0.07716511 0.0028197542 -0.04688942 -0.032482136 -0.06612403 -0.006051339 -0.023458421 -0.07184496 -0.070526645 0.030167013 -0.03261826 -0.045337543 0.07814673 0.00474032 -0.04980059 0.06768002 0.008053668 -0.06698406 0.005585715 0.063603885 -0.051081713 0.034710065 0.031747766 0.056941338 0.02719114 -0.029935148 -0.03304552 0.040125422 0.0015992969 0.07764628 -0.07540402 -0.04255306 -0.060123183 0.01884918 0.048648782 -0.024506576 -0.066194534 0.07536393 -0.0647834 -0.0517092 -0.080732256 0.07415501 -0.080875285 -0.040102646 0.026251338 0.011662371 -0.03967699 0.0021972582 0.07435601 -0.0073415935 0.06851783 0.019025616 0.03087224 0.019169673 -0.06381559 -0.0075862035 -0.027564079 0.065858535 0.032716013 -0.027099919 -0.00034680963 0.060223125 -0.03479846 -0.04749119 -0.06173344 -0.009244092 0.015761897 -0.07644366 0.04944577 0.020537816 -0.051866364 0.023103215 -0.054228112 0.04664787 0.008029394 0.02547384 0.0045147166 0.07658646 0.014502659 0.057594918 0.043184303 0.05311852 -0.0019896775 -0.032929722 0.06141498 0.040622167 -0.043877132 -0.07983558 -0.0023865402 -0.0076084062 0.035963282 0.06253221 0.039589368 0.017112173 0.08046109 -0.045862924 0.034630753 0.037342854 0.03207893 0.028723933 -0.07799349 0.055181958 0.05089266 0.060171507 -0.05004551 -0.053316504 0.00089646876 -0.025451928 -0.07521024 -0.013031751 -0.018736396 0.060401686 -0.0313399 -0.012808397 0.01497972 0.010196604 -0.024757415 0.05290214 0.042788267 0.011271812 -0.014249273 -0.048121445 0.019867823 -0.06529297 0.0803381
-0.006377615 -0.0625238 -0.048645977 0.0700945 -0.055777848 -0.017848015 -0.046008077 -0.06920232 -0.069429755 -0.023728423 -0.034592543 -0.060729884 -0.00950408 -0.04863677 0.00013801455 0.05833123 -0.05545333 0.020630985 -0.01611033 0.024624288 5.8189034e-06 0.057996698 0.027363673 -0.059034243 -0.053093437 0.077790625 -0.04629059 0.064813204 -0.056084163 0.025323987 -0.045328412 -0.017466143 -0.043254305 -0.023843639 -0.005463049 0.06168448 0.013888262 -0.012345009 0.077364005 -0.048504382 -0.018979672 0.01365526 -0.037125416 0.018055916 -0.057538133 0.040560864 -0.03778905 -0.012550592 0.030874774 0.013818957 0.06644484 0.05327732 -0.05974146 -0.057905868 -0.00049299 -0.07956589 0.032232054 -0.01162114 0.05347527 0.044091813 -0.020312816 -0.0058644935 0.068973966 0.020740561 0.0141804665 -0.07002083 -0.05326727 0.06102898 -0.034972947 0.030009791 0.065353565 -0.042533122 -0.07162071 0.08054284 0.04017017 0.061249264 0.07416356 0.02156151 -0.01743903 -0.043224465 -0.053813115 -0.042554025 0.03039559 -0.028027441 -0.003031604 0.0008712709 0.07690222 -0.031831365 -0.0056501105 0.04883071 -0.055504654 0.018827714 -0.01024168 0.042359695 0.03455907 0.026268601 0.06092965 -0.015485108 0.076213114 -0.002518639 -0.036824938 -0.009408973 0.053640492 0.031370103 0.034279667 0.04541663 0.07604026 0.06999432 0.06948533 0.002250865 0.07408268 -0.0068559274 0.04335098 0.044444136 0.0047692508 -0.023236591 0.03350047 -0.008586749 0.050079368 0.0095746815 0.05064795 -0.06599798 -0.03624916 0.041024014 -0.033738025 0.013899423 -0.07359103 -0.070289135
-0.06038949 0.018581979 0.007594846 0.016144484 -0.053413853 -0.012576684 -0.032151103 -0.013867825 0.017207742 -0.02404565 -0.07764985 -0.0753191 0.04240883 0.0137630105 0.040262707 0.053729557 -0.07774778 0.04033892 -0.0457783 -0.07951582 0.052203424 -0.0024195686 -0.075505756 -0.06036114 -0.0056432635 -0.079678014 0.032560073 0.044226922 0.077837 0.03414838 0.028059967 -0.058524482 0.033231124 -0.052354638 0.045417957 0.06510184 -0.056370582 0.030055106 -0.021925263 0.038107626 -0.08085765 -0.039153095 -0.078594774 0.07965999 -0.032652892 0.005241722 -0.012903072 0.010628678 -0.026604705 0.06785477 -0.04422683 0.031723395 0.05725152 -0.0033513084 0.06955526 0.062124677 -0.03880284 0.054138415 -0.041325968 -0.044609144 -0.024427038 0.025430404 0.01385653 -0.036697693 -0.03984413 0.0807809 -0.06408055 -0.07329467 0.064231984 0.035141386 0.0020523965 0.043311723 -0.031289622 -0.0529268 -0.007485047 -0.020296454 0.0621664 -0.081077464 0.0025607944 -0.04408181 0.076203145 -0.016139321 0.02647645 -0.06276137 -0.027314864 -0.044930026 0.033993654 0.009149589 0.0047829226 -0.051205456 -0.05865041 -0.025029484 -0.031669676 0.016576521 -0.008150071 0.050287493 -0.029734764 -0.046765115 0.068371944 0.061736517 0.03616906 -0.0639108 0.00038533658 0.06788447 -0.07569391 -0.064570755 0.039797038 -0.059788473 0.039043523 0.07452702 -0.045542665 0.03213629 -0.050838575 -0.07888843 -0.048213515 0.007962465 -0.018726185 -0.03610946 0.01812923 -0.006804161 0.062468342 0.014975734 0.044525973 -0.018648483 -0.06797059 0.03512638 0.00691095 -0.046119176
-0.04174077 -0.05792629 0.021714553 -0.019818816 0.0075060427 0.05182048 0.05152548 -0.067325555 -0.06499365 -0.0058186203 -0.035393633 0.023596242 0.06266887 0.021805696 -0.0616926 -0.022140477 0.061407857 0.0701037 -0.054933574 -0.08005574 -0.030658107 0.04730285 -0.0008574426 -0.010372989 -0.05371356 -0.0010555983 -0.024776578 0.0050536618 -0.07732181 0.040635012 0.07206578 -0.005884856 0.06156411 0.056986205 0.0017441809 0.024794213 -0.07551173 -0.002974093 0.058587424 0.05022923 0.01049114 0.056660034 0.0583644 -0.024668053 -0.06918153 -0.07952164 0.065784775 -0.0755207 -0.06470245 0.03346429 -0.027068902 0.008986682 0.067087166 0.077229835 0.008416958 0.058627658 -0.06027379 -0.06769499 0.011877835 0.03536521 -0.048462167 -0.07829294 -0.07304961 0.022261493 0.046238296 -0.049549345 0.07780301 -0.017685942 -0.052439127 0.08065794 0.038007937 0.00955449 -0.051831555 -0.025991969 -0.0436998 -0.01199083 0.009393036 0.006806962 -0.03825994 0.045706175 -0.015937753 0.027573436 -0.013841368 -0.022750445 -0.010872163 -0.063863054 0.007217519 -0.029639058 0.06841346 0.039467573 0.049904205 -0.04053178 -0.0092943385 -0.022704054 0.032573298 -0.060291134 -0.026980504 0.015459053 0.001271531 -0.037147928 0.02403818 -0.035358593 0.07820482 -0.07073356 -0.030842904 0.05874192 -0.03087673 -0.056825344 0.07932613 -0.039629087 0.05663795 0.04967024 -0.07964402 -0.034974903 0.07039588 -0.045862403 -0.028134964 -0.012164816 -0.035461687 0.07892486 -0.028010659 0.011056617 -0.06028651 -0.0104861185 -0.017257966 0.06796984 0.06741362 0.008766033
-0.028632596 -0.04827159 -0.046595074 0.07003283 -0.039279006 -0.0025204346 0.080228664 0.0001674667 0.04775042 -0.03437671 -0.0024859384 0.07021379 0.06956 -0.002384007 0.037846833 -0.010711372 -0.0149709955 -0.077856384 0.021073446 -0.0051118657 0.06637246 -0.037893746 0.08086241 0.024070345 0.02160699 -0.032539822 0.020428866 -0.04536516 -0.0024048313 -0.02421828 0.049745597 0.04985445 0.0015756637 -0.08045412 -0.0724497 -0.021746922 0.019847013 0.06460593 -0.07170085 0.027721398 -0.06658045 0.039589055 0.06906716 -0.075879544 0.03106162 0.038700692 -0.048424438 0.06335067 0.01801131 -0.0628697 -0.032397106 0.0740022 -0.07900759 -0.03156115 0.00096201897 0.020042852 -0.03172504 -0.062116437 -0.040431317 -0.07262121 -0.008506805 0.029892564 0.06526906 0.022457242 -0.03296687 0.027015775 0.0077537075 0.06149047 -0.040326796 -0.03989969 0.06925515 -0.061035544 0.006425187 -0.0068693534 0.014482185 -0.062549226 -0.055253953 0.055126853 0.0063015968 -0.01043506 0.07681569 -0.075452864 0.015429914 -0.015387952 0.0229107 0.049827404 0.06813977 0.03896474 0.01719796 0.029760696 0.064504646 0.05267983 0.007841818 -0.079520464 0.031057656 0.043074362 -0.025014129 0.035086736 0.012752451 -0.07740623 0.046655335 0.03518741 0.07486544 0.05673898 -0.068529755 0.08006317 -0.03566201 -0.011906765 -0.0322248 0.0573973 -0.06836855 0.044436075 0.023040444 0.039831094 -0.004298575 -0.031550784 -0.052978933 0.077672206 -0.06267278 0.06051036 0.051250704 -0.05684998 -0.070277706 -0.079143286 0.07895901 -0.035763748 0.06045986 0.07635557
0.03307178 0.0084044635 0.05405853 -0.06573925 0.028177507 0.03470979 0.022051558 -0.062232003 0.022637762 0.07441967 -0.033072166 -0.0036404133 0.016263783 -0.021643523 0.05154722 0.026762329 0.04450617 -0.05715686 0.07644012 -0.07068052 0.06707566 -0.030567877 0.07098048 0.06762079 -0.065971814 -0.0012456179 -0.012252629 -0.025937416 0.05924929 0.051026158 0.047558002 -0.013611414 -0.06687497 -0.07335236 0.016567685 0.0044534355 0.060326003 -0.045387298 0.004762791 0.023462154 -0.07500327 0.014987782 0.05667367 -0.019773934 -0.045537557 0.07741354 0.016236901 0.065741666 -0.063654214 0.07075062 0.011989534 -0.022957426 0.06996962 -0.062519215 -0.069525115 -0.032094114 -0.08065214 0.016604505 -0.07652556 -0.04089567 0.045052 0.058523946 -0.017592072 -0.06845967 -0.0080883205 0.053476818 0.07672117 0.07391224 -0.014868386 0.06883062 0.006580554 0.034987256 0.04954525 -0.054489642 0.04372169 0.028398432 0.07419034 -0.056795195 -0.027048402 0.00034091622 -0.018557437 0.0660853 -0.07280539 -0.046766005 -0.04996866 0.07386651 -0.02732668 -0.059506692 -0.027563438 -0.037856657 0.06647881 -0.00086024404 0.074178435 0.026070386 0.018945634 0.01610335 0.049539857 -0.072473526 -0.076752454 -0.0047734827 0.05157865 0.017962418 0.03268358 0.03634365 0.004837513 -0.044005692 0.06624269 -0.04457302 0.01566723 -0.020513412 0.0684922 -0.040787045 -0.07950894 0.028104372 0.008505002 0.061945744 0.06443695 0.008285843 -0.07928738 0.046680696 -0.032986265 -0.02350292 0.07666368 0.06608582 0.010344543 0.069670014 -0.077018954 -0.027527433
-0.024244815 -0.045478635 -0.065923765 -0.056630567 -0.013428263 -0.029253084 0.036564566 0.04628261 -0.025325939 0.020636365 0.042387255 0.021743849 0.02556073 0.07926106 0.060832165 -0.05481731 -0.07169999 -0.058644496 -0.022811651 0.019807853 0.038021594 0.02874586 0.039896093 0.0059452504 -0.032415748 -0.072146714 -0.034180194 -0.04932663 0.020964555 0.07839469 0.07447178 0.07809415 -0.009891503 -0.051113002 0.05483567 -0.029697035 -0.04266839 0.012726396 -0.072006546 -0.046654403 0.008751996 -0.049658258 -0.039885283 -0.075896926 0.0329777 2.194941e-05 -0.03389385 0.07898653 0.0697565 -0.07821702 0.0634548 0.080016814 -0.0054885745 -0.068613 0.04356105 -0.007557623 0.04023865 0.08100494 -0.05361677 0.07151266 0.018813305 0.053326614 0.057296373 -0.034479104 0.022702292 -0.027931776 0.051610194 0.07261545 0.0011216998 0.025660396 -0.053753026 -0.067079395 0.036185555 -0.06745388 -0.05496815 -0.009064674 -0.039581265 0.049440317 0.0681191 0.030915715 -0.00034737587 -0.07865865 -0.052131396 -0.04839767 0.044302903 -0.04648291 0.0776229 -0.080045596 -0.07571693 -0.017775148 0.02191849 0.052661426 -0.012622014 0.02311211 -0.01908056 0.05769237 -0.040457327 -0.06717387 -0.047089264 -0.07325408 -0.05778779 -0.037300795 -0.06257498 0.008528985 0.03240501 -0.010900766 0.03874784 0.06515352 -0.009706318 -0.005851999 -0.033004038 0.004423909 -0.0036545545 0.008697808 0.046529807 -0.033825047 0.07949615 0.06210553 0.022587694 -0.06850293 -0.007785581 0.056994222 0.0094838515 -0.052572384 -0.016341813 0.053584374 -0.019735217 0.02454324
0.07342727 0.0014013276 -0.078857586 -0.020997372 -0.018639993 -0.03495678 0.058467768 0.02554866 0.06637763 0.01944273 0.052357815 -0.053763684 0.013947941 0.06530791 -0.021707784 -0.05022166 -0.03453248 -0.07540527 0.03915648 -0.04906964 0.010264538 0.061317615 -0.0074206665 -0.040477384 0.035661504 0.03478618 -0.05805081 0.05033692 -0.0677721 0.028713644 -0.056443024 -0.0054308325 -0.03440268 -0.045597527 0.0570113 0.063166164 0.0687113 -0.0018705353 -0.00015360117 -0.037164904 -0.014850058 -0.010148086 -0.067347854 0.051480405 -0.05367794 0.03226845 0.03776735 -0.07427174 -0.030484762 -0.07679061 0.036109366 -0.028571468 0.072952814 -0.051695473 -0.052687507 0.041918606 0.031889014 0.07296396 -0.056112148 -0.07244439 0.038640477 0.0010705292 0.0024137273 0.06250272 0.018160328 0.0366584 0.06790737 -0.035351437 0.07086242 0.0024485737 0.01620584 -0.064930975 -0.0704594 -0.004123464 -0.027552765 -0.07821141 0.03160207 0.06793786 -0.061485834 0.0055620223 0.056342192 -0.017075196 0.052502014 0.0631469 0.01609604 -0.050343454 -0.07190363 0.062168725 0.03965728 0.004934512 -0.013086423 0.05216568 -0.011254638 -0.052980464 0.032287635 -0.025907442 -0.018607005 -0.07330073 -0.03412067 -0.048961326 -0.030807942 0.04195603 -0.019498866 0.07150773 -0.03017608 0.034001835 -0.008333452 -0.0015717819 -0.03469651 -0.02944703 0.037166335 0.0075199306 -0.050391916 -0.0040638894 -0.0064088106 0.031767815 -0.07958391 -0.027547002 -0.019182645 0.07344591 0.02282022 0.03655082 -0.012115732 -0.04439389 -0.045598704 0.046175234 -0.01246839 -0.0139911845
0.076632 0.05927282 -0.043418195 -0.0063162968 -0.07364968 -0.021126669 -0.027821489 0.053019755 -0.053416 -0.038517755 -0.063534744 0.037477665 0.06689388 0.04101497 0.05895687 -0.06563732 -0.033690393 0.07663099 -0.07044643 -0.047744192 0.044362016 0.067602985 0.026002146 0.011494353 -0.06272275 -0.027199145 -0.034804784 0.03984548 -0.027916443 0.03876455 0.06049023 -0.041028116 -0.04303381 -0.04780163 -0.07279888 -0.045671765 0.050752483 0.06653532 0.057428874 -0.00963749 0.013436019 -0.0718827 -0.004745461 0.054158308 0.0016406775 0.041197598 0.07661792 0.06154553 -0.05518151 0.05936212 0.04093156 -0.07832213 0.04868845 -0.035124116 -0.00308007 0.037683867 -0.009731054 -0.03640719 -0.0046968833 0.008692756 0.04064578 -0.06990285 -0.027196977 0.032755427 0.07662713 0.080617 0.049390845 -0.009795986 -0.00967323 -0.010277458 0.055052854 -0.073201284 -0.04936863 0.010270126 0.054499306 -0.011230446 -0.032229364 0.019358918 -0.035520513 0.070265554 0.055989526 0.05637706 -0.016612835 0.034519292 -0.04199312 -0.043245118 0.04832057 -0.0013669059 0.047226124 -0.06552912 -0.040033046 -0.05862243 -0.06511695 -0.06486033 -0.06309308 0.042464294 0.06342032 -0.08071553 -0.004314624 -0.06187436 -0.07249037 0.008664139 0.002241984 0.003802739 0.03712493 -0.013686582 0.00051786005 -0.059758075 0.026408419 -0.03443898 0.043788753 0.062652744 -0.076415524 -0.040586375 0.024487585 -0.018911213 0.017833896 -0.052895434 0.07319073 -0.013101637 -0.06646326 0.07579071 0.0774309 0.0476109 -0.05023127 0.06355917 -0.00097126514 0.07485724
0.0708197 0.053279527 -0.048781596 -0.071314834 0.03558564 -0.032217413 -0.07505792 -0.067847654 0.031235896 -0.06785115 -0.046087347 0.015567988 -0.04112183 0.065310694 -0.017434828 0.029197581 0.040606156 0.07642635 0.027053833 0.013500489 -0.07622595 0.018087752 -0.068981744 -0.013930172 -0.07620325 0.008069605 0.025611468 0.06552086 0.025385596 0.05182954 0.05642622 0.027331151 0.07563899 0.038590565 -0.08110648 -0.058873016 0.03526426 0.072841056 0.08016818 0.07027548 -0.046606347 0.04251401 -0.07885124 0.022737853 0.037131123 0.07618923 0.069824226 0.040722728 -0.026136834 -0.009046093 -0.013272993 0.054442786 0.07943603 -0.014882639 0.05735197 -0.06062207 -0.004597217 0.013945408 0.062603526 -0.061755314 -0.0062671527 0.0780239 -0.011542626 0.021202877 0.07850317 -0.013280265 -0.010306075 0.00747706 -0.02527007 -0.015108317 -0.025006142 -0.04271469 -0.017965958 0.004404798 0.03775935 -0.07981042 -0.05858161 0.03484934 0.031598434 -0.060701318 -0.052898005 0.03986778 -0.033399392 0.027624913 -0.042255133 -0.05657068 0.036818013 -0.036061384 -0.034079675 -0.080943294 0.035088435 0.0028157309 -0.028324597 0.033037573 0.011211939 0.0716723 0.024944745 0.06932425 -0.005385734 0.03999748 0.0043338314 -0.032684144 0.0124681 -0.06911303 0.05734881 -0.025368948 0.016501948 -0.014770769 -0.03610907 -0.050060324 0.06563694 0.06620724 0.06324903 -0.04618709 -0.06343347 -0.07852071 0.074212484 0.0732686 0.020026721 0.029231928 0.028407186 -0.0045748204 0.036086 -0.06449808 -0.067451276 0.04883056 0.0077732652 -0.032248937
0.074559234 0.054142825 -0.017011806 -0.014173679 -0.037417773 0.077950574 -0.036390234 0.03840217 0.041901916 0.077396385 0.023431003 -0.038466897 0.0035005808 0.0348901 -0.050844334 0.030820377 -0.022582415 -0.07339094 -0.029168267 0.047281973 -0.032558948 0.03245098 0.027050704 0.034981087 -0.041711804 -0.029658474 -0.021077257 -0.012896322 0.014609523 -0.05193312 -0.038978335 -0.062347047 0.03043703 -0.069583885 -0.07955628 -0.07394558 -0.030938689 0.029909834 -0.072801314 0.042493634 -0.0192389 -0.054651603 -0.02131883 0.0072549954 0.03670191 0.05271689 -0.05840466 -0.03605303 -0.062782854 -0.042113557 -0.060888957 -0.012210414 -0.063644975 0.054993965 -0.04796989 -0.017082214 0.06324855 0.046202056 -0.054228038 -0.049168672 -0.010937236 -0.06830425 0.048208095 -0.028045118 -0.04121373 -0.070385575 0.049061112 -0.004414007 -0.06119089 -0.04607762 -0.05696158 0.0013398901 0.0076926947 0.0046779737 -0.05609509 -0.07968689 0.0010492355 -0.05090668 -0.044128396 0.043248795 0.059212796 0.06638419 -0.0034854412 -0.072631426 0.009141773 0.012882806 -0.058363937 0.03145378 -0.020940963 0.034377985 0.0053214356 0.042723022 0.030197702 0.017108694 0.02242887 0.008872412 0.06329184 0.059366606 0.07647031 0.07667788 0.015018165 -0.065513656 0.033890948 0.026292682 -0.06286893 -0.04088832 0.06888508 -0.07919581 -0.026261952 0.080310695 -0.024349432 -0.019756354 -0.06267609 0.013177641 -0.010593846 0.06346806 -0.059025966 -0.038705956 0.06143915 0.04129166 0.079376705 -0.06807998 0.019851945 -0.0368605 0.0001084134 -0.07755389 -0.0697739 -0.0126514435
-0.05092569 0.026320644 0.07158274 -0.027063102 -0.0050541833 -0.037833296 -0.032850858 0.07696783 0.07917643 0.0008093864 -0.07021023 0.013013363 0.032819085 -0.071794055 -0.042855896 0.04964868 -0.033649627 0.07494136 -0.042159274 -0.050805174 0.034752198 0.023110352 0.0808145 -0.022878058 0.05154615 -0.080908194 -0.062118642 -0.064055316 -0.036545675 -0.068724394 -0.018848285 0.026004247 -0.07044939 -0.047473148 0.06697252 -0.027380385 0.07232431 0.007135965 0.023991443 -0.05447135 -0.0031274706 0.059530072 0.021218888 -0.036911573 -0.00027056038 0.042216845 -0.02341665 0.021357626 -0.061055057 -0.020540524 -0.029142294 0.041068204 0.047194712 -0.0079005435 -0.016586326 -0.07597906 -0.0067332312 -0.08013298 -0.027946398 0.008989312 0.0038406253 0.010043055 0.029758759 0.000741221 -0.038944688 -0.033999883 0.03638737 -0.052239418 -0.030034315 0.018452026 0.035761468 0.07131704 0.058449917 0.061542116 0.0623687 -0.071162604 -0.041023765 -0.06269833 0.05744583 0.056637935 0.0020577684 0.012582004 -0.055134285 0.017152376 -0.008418657 0.012687862 -0.037190218 0.06242565 -0.0762905 -0.06711757 0.04472106 -0.030333187 -0.0381003 0.047671013 -0.05243992 -0.042253394 -0.078524694 -0.039727055 0.06958794 0.05977442 0.030476116 0.071372114 -0.06591833 0.07811322 0.039962307 0.02335117 0.074214645 0.06574952 0.0707668 -0.034391813 -0.06671313 -0.050245315 -0.003436163 0.03996393 0.035367817 0.038757205 0.008730568 0.07398737 0.059984468 0.015614688 0.029459968 -0.07677976 -0.02217542 -0.020938002 -0.01048366 0.008810274 -0.021200038 -0.009862244
-0.01699496 -0.01814273 0.009677328 0.032385714 -0.049426682 0.072082154 0.037431523 -0.06957938 -0.054861326 0.037859477 -0.039314803 -0.036376484 -0.031877525 0.07918339 0.032494746 -0.0012081042 0.038816996 -0.060136966 -0.03102101 -0.011815451 0.06511039 0.024947934 0.01128044 -0.038066823 0.03999474 0.0030213743 0.0011701435 -0.061415482 0.056721188 -0.014901072 0.014618345 0.04854951 -0.0787841 0.050579272 -0.02038081 -0.078710474 -0.0713561 -0.03188992 0.053397708 0.06247296 -0.037712604 0.046654053 -0.008661084 0.051107846 -0.06012985 -0.063597634 -0.027621686 -0.010775819 0.023961723 -0.031419072 -0.009114176 -0.07658334 0.075594865 0.032465175 0.020205371 0.05134266 0.071757115 -0.06577207 0.058082215 0.041175634 0.06689609 -0.035931896 0.026457444 -0.07475744 -0.057285674 -0.008952916 -0.02299527 0.052814476 0.007524729 0.021537416 -0.024530884 0.063315086 -0.046919607 0.06801992 0.012836084 0.06232547 -0.03817777 0.046861656 0.079605244 -0.056497693 -0.022340108 -0.05544521 -0.0724468 0.042488992 -0.048670556 -0.00061514974 0.051243655 0.07600432 -0.009558789 0.034991786 0.058728896 0.078958355 -0.080357075 0.010120891 0.02487772 0.06024743 -0.07785236 -0.07405515 -0.062447608 -0.04825492 0.07501855 0.058688737 -0.0155302435 0.036395103 -0.060179416 -0.03770922 0.06674359 -0.029747989 0.007487789 0.029997513 0.014354378 -0.058631673 0.023254864 -0.052335374 0.07399226 -0.041028254 -0.030094534 0.06285321 0.068263985 0.033411726 -0.007583961 0.045348562 0.0644233 0.054364927 -0.004356511 0.038696013 -0.05440529 0.031423673
-0.018280767 -0.040842123 -0.030153928 0.055867065 0.0047253296 -0.046169773 -0.051891 0.03188714 -0.008209838 0.058652487 0.009163897 0.004123592 -0.04526081 0.053522512 0.024926119 -0.032739587 -0.0031136267 0.06598913 0.01790863 0.02848462 -0.055040773 0.03841354 0.011937454 -0.033978235 0.017195644 0.032300998 0.07096296 0.0312441 -0.007480599 0.06562104 0.07668653 0.020280497 -0.018538924 0.03718324 0.059124358 -0.028980743 -0.07244384 -0.0060664928 0.033852126 0.05660475 0.061999273 0.029100763 -0.04856931 -0.06525357 -0.07776054 -0.075019 0.026825681 0.026255168 0.008983432 0.010483831 0.03624332 0.059692957 0.040915392 0.011690018 -0.03397907 0.06176055 0.06396157 -0.039833263 0.031688143 0.023347631 -0.008976654 -0.07630044 0.013728576 0.083043724 -0.040146045 -0.0040575415 -0.01862575 -0.05872597 0.010378744 0.007922977 -0.038307026 -0.047755815 -0.04436171 0.04909227 -0.05274094 0.040031962 -0.06880404 -0.04731857 0.07745863 0.05686488 0.04652024 -0.0032459497 -0.03800794 0.04088091 0.016712766 -0.032289185 -0.06272834 0.048630666 0.072168596 0.06831411 0.014595567 -0.010142513 0.07927743 -0.010773949 -0.025779985 -0.028647576 -0.0007937211 0.050447546 0.06331192 -0.042314906 0.038382653 -0.04246712 0.025236249 0.017899998 0.075249486 -0.009821884 0.07888924 0.039346743 -0.0195099 -0.017405048 -0.00856851 -0.03521798 0.04776969 0.056030594 0.04833619 0.06262737 -0.08053798 -0.07150236 0.05857825 0.05377575 -0.0028805675 -0.01851227 0.050597023 -0.05723777 0.05061862 -0.06446888 0.08290727 -0.04375276
-0.013151214 -0.021565432 0.07756469 -0.042254675 -0.04463212 0.034093317 -0.03199719 -0.07719168 -0.023611113 -0.0113163395 0.018448079 0.03509197 0.10861513 0.022139985 -0.036575105 0.0330432 0.07246389 0.020117488 -0.0250612 -0.05741804 0.014290712 0.0033709137 -0.023487698 -0.11146021 0.041725922 -0.11335725 0.09761727 0.02602347 0.07217149 -0.016373212 0.07464546 -0.013085348 -0.04917834 -0.0792442 0.030312285 -0.0450529 0.012077466 -0.023131937 -0.009885776 -0.010595022 -0.06694322 0.0023282457 0.041536786 0.027825318 -0.041252695 -0.054981846 0.06706057 0.046725936 -0.01385892 0.07017598 -0.06657685 -0.06577838 0.03149046 -0.017505685 0.10342034 0.032176092 0.008232786 0.078683645 0.08668779 -0.049269907 -0.064131714 0.03122031 0.004674464 0.01823062 -0.12623215 0.039195158 0.010930209 -0.024198152 0.09400362 0.005170755 -0.0070787445 0.10694829 0.045530356 0.02070708 0.018672846 0.021511637 -0.06284022 -0.04136694 -0.015681542 0.019688332 -0.037233826 -0.08819104 0.0409083 -0.09684167 -0.013794072 0.051478952 -0.026207507 -0.044320483 0.025671437 -0.05428668 0.058704045 -0.064726576 0.107508466 -0.011631739 -0.089251116 0.099736854 0.07676594 0.026095234 0.03559254 -0.0010973068 0.084035434 0.013376536 0.011844881 -0.014402886 -0.0019634143 0.017566025 0.0016173571 0.04663512 0.030731922 -0.052986823 -0.040263597 -0.002564609 -0.029210305 -0.021815248 -0.010201269 0.054149218 -0.06410406 -0.10956697 -0.035623606 -0.05742816 0.08686314 0.02735503 -0.013851857 0.06178347 -0.094774835 -0.039439313 -0.031115038 0.035525277
-0.049033474 0.047491852 0.17933357 -0.047478862 -0.046024375 0.02694073 0.024227971 -0.059776157 0.002715523 -0.075792186 0.03368917 0.013273437 0.089559585 0.046509385 -0.022270974 -0.08057057 0.029185412 0.19156043 0.023356756 0.013842096 0.14838687 -0.09671618 0.011097014 -0.107625306 0.15119153 -0.08478688 0.12506783 0.075272664 0.04407815 -0.037526313 0.039993767 -0.011601046 -0.019460963 0.05900209 -0.04357372 -0.07339369 -0.023192422 -0.024379818 0.19008674 -0.081861876 -0.047237527 -0.07164834 0.117500596 0.024021434 0.031309173 0.02577177 -0.0049839723 -0.022298899 0.032165702 0.00066256523 0.04343061 -0.015876437 -0.0031783432 0.024792539 0.098376326 -0.017461825 0.012782462 -0.013354349 0.114523225 0.035051867 -0.026857307 0.08672598 0.041947607 0.023167292 -0.08358482 -0.026134903 -0.12579934 0.066510886 -0.065232724 -0.0579401 0.028358243 0.1563286 0.07411026 0.08964103 0.036984615 0.03061387 0.1092326 0.047249973 0.054318808 0.017190106 0.009152256 -0.051057793 -0.04442663 -0.026626436 -0.15502411 -0.031961896 -0.0425345 -0.075281434 -0.01550632 0.012845036 0.00024234378 0.067996785 -0.014787719 -0.06477279 -0.03121864 0.0381702 0.00758384 -0.07211821 0.08082438 0.008888026 0.1568546 -0.011200617 0.04462201 0.050663896 0.02768042 -0.039406758 0.020219043 0.028434075 -0.07219573 0.019619979 0.032967027 -0.012323506 0.1303136 -0.0037983507 0.10398323 -0.049460236 -0.057684768 -0.04729821 0.07604439 -0.045779556 -0.044679694 -0.010000347 -0.023769097 0.020669693 -0.0917053 -0.017056659 -0.0026768232 0.11987513
-0.103276655 0.059683543 0.013752391 0.017549705 0.046202447 -0.08372456 0.013103411 0.07668552 -0.01866147 -0.10005851 -0.02186101 -0.09287667 0.05733677 -0.0626333 0.024561575 -0.057694487 0.023365445 0.09111067 -0.06234891 -0.038717847 0.07599747 0.04216607 -0.021614477 -0.13085775 0.15692514 -0.024460737 0.08056368 0.040749803 -0.006273903 -0.028712835 0.09825132 0.0127938455 0.013489485 0.005750275 0.0097833695 -0.12673977 0.052086927 -0.15196322 0.16118251 -0.0010079773 -0.112243 -0.07763911 0.1633866 -0.07253186 -0.08055295 0.03985577 0.120258406 -0.04644859 0.04060412 0.07599409 -0.026689947 -0.16724612 -0.012015594 0.1333977 0.009876901 -0.029575273 -0.013429113 0.11709951 0.19324344 -0.046460688 -0.17281926 0.052564874 0.030156871 0.026487492 -0.14779848 0.039265685 -0.069676965 0.095380574 0.0024214948 -0.03170815 0.02404619 0.06907791 0.024094772 0.15989815 0.05455417 -0.019298006 0.16276419 -0.04669033 0.029173337 0.03869164 -0.03683085 -0.104842804 -0.07468699 -0.016133627 -0.0710419 0.054276284 -0.041965477 0.0065211784 0.016928092 0.14221448 0.051537126 0.062399704 -0.0351302 -0.07854399 -0.115694754 0.03755665 0.0047103157 -0.01886212 0.08478407 0.01308298 0.11634361 -0.1882913 -0.05826628 0.028751655 0.07230759 -0.07859619 0.037775405 0.11306252 -0.050587818 0.054466266 0.02738503 0.031174071 0.16163169 -0.051596623 0.111940004 0.021269921 -0.025421282 -0.18825652 0.020823505 0.07867996 -0.06371816 -0.108006135 0.10595367 0.035326693 -0.04230381 -0.08827918 0.10997253 0.0836496
-0.15814233 -0.09757385 0.021425704 -0.040948395 -0.030368716 -0.11365062 -0.042529155 0.031070713 0.18693641 -0.023066103 0.018017856 -0.1055536 0.035990927 0.03414066 0.040828332 0.051027708 0.025154114 0.15785484 -0.03680144 -0.01601487 0.009426713 -0.032825697 -0.06466478 -0.10961876 0.10647845 -0.13684542 0.03146287 0.003812227 -0.032064237 -0.15040302 0.06379846 0.0022171284 0.104627796 -0.033941463 0.056477133 -0.0657724 0.113220595 -0.1486177 0.13910547 -0.1525337 0.056829933 0.03251656 0.09398695 -0.056076936 -0.0045383763 0.065608524 0.108843945 -0.07719888 0.010902048 -0.032666367 0.0024474189 -0.014134801 0.07008169 0.17541699 0.11204987 0.056456443 0.0007033382 -0.03072665 0.0688737 0.007935457 -0.11275188 0.006459086 0.14894156 0.014331163 -0.06406232 -0.056617085 -0.08720817 0.124975085 0.09159295 0.013851765 -0.0061097816 0.10355386 0.115839325 0.065114975 -0.00010736371 0.09565255 0.12296817 -0.12656267 0.07489508 0.11275281 -0.0709885 -0.14356849 0.04278963 -0.043637045 -0.07533886 0.06406703 0.101705626 0.13276596 -0.06068842 0.12870851 0.010800621 -0.047382247 0.10849076 -0.06640102 -0.016510192 0.14095572 0.056821357 0.05652228 0.08770045 0.1390762 0.19087952 -0.08714865 0.07357473 -0.00042482163 -0.09341609 -0.085853264 -0.059285518 0.05715454 0.027565965 -0.02086263 -0.012574017 -0.043817695 0.023636889 0.050088715 0.020927591 -0.014158315 -0.055149395 -0.12930109 0.093940295 -0.036838494 -0.020883854 -0.026504513 0.032348175 0.10060589 -0.066933386 -0.009046261 0.084596984 0.1624816
-0.08402748 0.035582125 0.05333464 0.04212788 0.0663979 -0.10841123 0.07500478 0.11120714 0.054430537 0.04687366 0.060274683 -0.08859602 0.033968408 0.020738147 0.08713463 0.056284137 0.054052796 0.09912079 0.03755434 -0.11531957 0.04136128 -0.11217973 -0.028274935 -0.08734674 -0.023177348 -0.05904291 0.051839218 0.029990539 -0.024240036 -0.09083937 0.04257916 -0.11468827 0.0071606655 -0.017809967 0.07963388 -0.05749148 0.04939212 -0.015825722 0.13035518 -0.08589838 0.017130286 0.14610578 0.04529558 -0.07870021 -0.054854505 0.005002734 0.033807702 -0.036116827 -0.0019478956 0.054144327 -0.068367735 -0.11648289 0.04796999 0.110324346 0.08535561 -0.052216325 -0.10449228 0.107632115 0.16405064 -0.0060519995 -0.071358494 0.083756395 0.13885126 0.060913473 -0.16265842 0.017374203 -0.091537654 0.12891257 0.056019165 -0.019638311 0.05345758 0.16411741 0.040517066 0.018232498 -0.053610273 -0.10832702 0.16178551 -0.12129471 -0.055402875 0.15316024 0.0863568 -0.11539037 0.06583311 0.01631918 -0.20022042 0.12297066 0.0063691074 0.025002081 -0.016504578 0.070562884 0.07397676 -0.017417384 0.14203157 -0.06135827 -0.070458494 0.16943505 0.17312221 -0.031961385 0.044371434 0.07951713 0.08167534 -0.08684982 -0.07986737 -0.007859901 -0.047676567 0.036967747 0.030785993 0.047333736 0.024311636 0.02448628 0.014175576 -0.035384763 0.09281583 -0.040104385 0.043946236 -0.004162923 -0.07065567 -0.13399714 0.023407454 0.045884646 -0.0019404265 -0.03837648 0.062934294 0.008126245 -0.08059268 0.012146658 0.13410968 0.038252316
-0.12888089 -0.082109295 0.062132712 0.010246958 0.011415264 -0.027319804 -0.07508777 0.13487737 0.024631187 0.032895964 0.042389836 0.1961647 0.19546838 0.08670696 -0.063505486 0.033609625 -0.04402691 0.20858072 0.006755811 -0.0948678 0.19606297 -0.1582487 -0.10480023 -0.12505783 0.037938673 -0.03793311 0.106929086 -0.05586886 -0.050084766 -0.027103268 0.137744 -0.08581213 -0.054392967 0.10037089 0.00627107 -0.035056636 0.0040941657 -0.13634408 0.16041635 -0.0056063887 0.15852925 0.18388604 0.13827235 -0.18193378 -0.08620994 0.096217476 -0.027764063 -0.012634712 -0.024542313 -0.05194506 -0.023449551 -0.047747754 0.13792469 0.06443754 0.088550776 -0.015040985 -0.0033624526 0.097295724 0.23684941 -0.046372626 -0.039024603 0.031383794 0.14589655 0.03283298 -0.09714274 0.059322238 -0.19204782 0.14797436 0.15535505 -0.062991746 -0.08040279 0.13282345 0.10429463 0.10547024 -0.02107701 -0.14097571 0.19147417 -0.15348151 0.07454514 0.16439672 0.005233199 -0.1999092 0.21225145 -0.06673282 -0.17134674 0.18110865 0.037751526 0.22975662 0.04855541 0.1113829 0.036508262 0.051000074 0.22199981 -0.088103965 -0.104233906 0.25282466 0.15483747 -0.18949531 0.21354543 0.13333556 0.09119988 -0.07226678 -0.119943105 -0.06126925 0.014960367 -0.07070403 -0.09933276 0.033744372 0.050761525 0.019013934 0.029501727 -0.07134186 0.19262883 0.012133529 -0.04014173 -0.07429049 -0.006461633 -0.060799528 0.05696572 -0.07563035 0.20762023 -0.060733672 0.08990026 -0.1128666 0.041603044 0.112762064 0.13615635 0.054257058
-0.10956832 0.11919797 0.06870098 0.03690492 -0.044024896 0.09987674 0.0013209515 -0.023965558 0.100862 -0.06317433 -0.04311385 -0.031778283 0.12699431 0.13054712 -0.023306392 0.07139706 0.06294956 0.13039121 -0.029770829 -0.057854265 0.057144947 -0.031632777 -0.03249784 -0.036467176 0.13398775 -0.13596657 0.011483818 -0.16498502 -0.043957017 -0.044454806 0.008492763 0.034748744 0.011116673 0.03437612 -0.040841874 -0.11922318 0.06819327 -0.27345246 0.088971004 -0.104313165 0.15413836 -0.083496474 0.12192331 -0.05118178 -0.055478163 0.16096893 0.07644676 0.083291635 -0.080291815 0.040765945 -0.028157648 -0.077668674 -0.020453017 0.070532456 0.08314412 -0.093156874 -0.10143316 0.12157151 0.13959794 -0.03361145 -0.16998313 0.14279017 0.18369341 0.105324745 -0.16042289 0.09032043 -0.08831551 0.18427251 0.11404885 0.12940009 0.094626345 0.24859862 -0.012321365 0.16359936 -0.003827999 -0.02815881 0.18775123 -0.2011065 0.060041405 0.049213562 0.13637154 0.007563395 0.05443135 -0.044039976 -0.24723469 -0.03156504 0.05174822 0.08711981 0.016969303 0.11837694 -0.011867904 0.010182397 0.1506774 -0.018562516 -0.04013458 0.05200542 0.060977384 0.008710216 0.021660415 0.25639683 0.06250552 0.03240919 -0.042841826 -0.044846456 -0.07652307 -0.12611419 -0.017468281 -0.0095505 -0.036894877 -0.007383818 -0.028187016 0.026283048 0.21308349 -0.11264925 0.007117516 -0.0051827147 0.023498457 -0.0741214 0.037348855 0.032143965 0.13211785 -0.12527454 0.1827185 -0.06359067 -0.020886254 -0.0012707107 0.1262058 0.038409922
-0.13236302 0.03758839 0.05576412 0.06495541 0.082965255 0.036914535 -0.04254608 -0.110322654 0.09634449 -0.15188254 -0.03115831 -0.012867143 0.08199212 0.03447094 0.05426562 0.059136823 -0.058942147 0.15690045 0.0066487244 -0.095512666 0.011658426 0.040790435 -0.08186372 -0.08634591 0.081751995 -0.10562933 0.18148859 -0.015988765 0.060504995 -0.06365315 0.038139865 -0.14046589 0.08163381 0.12185762 0.02170133 -0.001220154 -0.054177005 -0.32751355 0.13601936 -0.065066256 0.083166994 -0.008141762 0.045814052 -0.0743847 -0.12126807 0.11099301 0.010855042 -0.02955287 0.058155734 0.06548326 0.06509982 -0.07900708 -0.002190304 0.07981182 0.2427088 -0.081461534 -0.01317701 0.1263617 0.107840024 -0.13658933 -0.061689887 0.12968577 0.14760332 0.23592523 -0.098884545 0.068988964 -0.16733854 0.13855366 0.11357884 0.123433046 0.16599022 0.19538665 0.063186705 0.1460364 0.010593397 0.03847942 0.11203375 -0.14149359 -0.05527582 -0.094274424 0.099517845 -0.15578486 -0.0711849 -0.13464077 -0.1607206 0.0018457153 -0.04071026 0.019467376 0.084937826 0.0024912823 0.01267819 -0.012430189 0.1243897 -0.04556502 -0.12054307 0.23514563 0.082688786 -0.16419186 0.08734261 0.09382955 0.20827644 -0.06538859 -0.048108295 0.119493276 -0.0955323 -0.022739923 0.054969568 0.013420242 -0.07106184 -0.09824775 -0.0822056 -0.06394338 0.21640502 -0.035064604 0.008785898 -0.015990324 0.053832546 -0.10512356 0.1681298 0.025143892 0.14335923 -0.105151 0.09700477 -0.05431551 -0.057826903 -0.032499656 0.18149272 0.040410586
-0.09081811 0.16585863 0.06548453 0.14445387 0.05932388 0.055181485 0.0981918 0.017488947 0.1626358 0.07226602 -0.12701383 0.10368076 -0.050685123 0.04257803 0.017956764 0.022867642 0.09976701 0.12084669 0.103916764 0.014775192 0.037153088 -0.07014468 -0.08736527 -0.0531072 -0.006181464 -0.25287384 0.110746786 -0.11805093 -0.021228485 -0.17652366 0.038753975 -0.068531044 -0.018299434 0.041580018 0.041757442 -0.14686719 -0.103047654 -0.29369888 0.08871736 -0.1535694 0.14759749 0.04425804 -0.0050492543 -0.1714 -0.067940146 0.109639704 0.07667823 0.09049453 0.11693364 -0.057487287 0.025123663 -0.114247054 0.07819712 0.12153723 0.09793761 -0.05673513 -0.09039282 0.100570604 0.04765609 -0.042282503 0.02725005 0.17849855 0.20292453 0.15521577 -0.16810144 0.020631934 -0.12583701 0.095318176 0.00058887014 0.068223774 0.1280587 0.112077735 0.13227147 0.12868692 0.004771415 0.051140655 0.17101225 -0.0962604 -0.056523353 -0.014324684 0.0713592 -0.13686877 0.05353961 -0.052671015 -0.124271244 0.078106634 -0.025615757 0.14954951 0.03790526 0.06607045 0.008641105 -0.054376666 0.110969596 -0.052558735 -0.11416393 0.18598755 -0.02342932 -0.20174621 -0.02517792 0.10798372 0.039587155 -0.076186575 0.040142957 0.18289758 -0.06964254 -0.09257835 0.060515106 0.064956084 -0.062138513 0.059103254 -0.19619265 0.0017065501 0.23064372 -0.05037357 -0.062335465 0.07141819 -0.0007560862 -0.06680487 0.19946766 0.1029849 0.07682248 -0.11582455 0.13161807 -0.13904487 -0.035706215 -0.020238295 0.10918737 0.103153914
-0.14101829 0.100807846 -0.13249187 0.105205655 0.051678475 0.035837412 -0.074477606 0.030840008 0.1386155 0.06078211 -0.039568968 0.13513905 0.00021095312 0.04411961 0.012850084 -0.09620834 -0.05592675 0.0645042 0.054175362 0.20456856 0.014427021 -0.19211675 0.11677965 0.011409928 0.0049029635 -0.0886703 0.10633042 0.13092004 0.041510224 0.08482644 0.18800598 0.04234167 0.03618348 0.09948089 0.07078105 -0.12959383 0.010332884 -0.15741438 0.26640502 0.102832444 -0.07043769 -0.00062777166 -0.042949434 -0.1861299 -0.051357973 0.10987481 0.12318385 0.0571866 0.0023142458 -0.07430621 -0.06518244 -0.03194052 0.07155685 -0.14982647 0.020614209 0.08241771 0.0047313063 -0.083913505 -0.0040330207 -0.05953502 -0.08326628 0.13808945 -0.07830475 0.16988416 -0.09112494 -0.06295397 0.11026331 0.020353757 0.014651281 0.06829504 -0.057537705 0.02221559 0.077152416 -0.0399257 -0.016325967 -0.04574374 -0.041788984 -0.15146288 0.16369839 0.044466753 -0.012370985 -0.1383168 0.15177736 -0.07185344 -2.7216867e-05 0.18491706 0.018901614 -0.08339987 0.114214234 -0.06411256 0.08457999 -0.013379047 0.06146508 -0.106514215 -0.037153006 -0.032862213 -0.0128230825 0.07799517 -0.0011373647 -0.14264685 -0.06165893 -0.11281159 -0.0053386167 0.22949488 -0.0071493024 0.08177397 0.03423554 0.012394164 0.18287757 0.0678455 -0.17287593 -0.012842334 0.21347982 0.20247862 -0.119529344 0.02803228 -0.06978746 0.03331358 -0.080064915 0.0053470046 -0.04595727 -0.05873078 0.04103997 -0.16236107 -0.08943542 -0.15460676 0.07587976 -0.04333642
-0.16152619 -0.09400059 -0.006202521 -0.054309424 -0.0050722063 -0.010234255 0.09926275 -0.040769346 0.20432888 -0.010461955 0.01758118 0.0042915554 0.1302256 0.23129068 0.122859955 -0.008251338 -0.06567728 0.09718797 0.11677134 0.16616268 -0.105009295 -0.039697148 0.007843195 -0.09615136 0.01310297 -0.12004131 0.25209087 0.21853092 0.05076263 -0.08142199 0.11271529 -0.0788096 0.06703937 0.121224575 0.07006157 0.03519149 0.043351635 -0.3036508 0.10410442 0.12170451 -0.03194497 -0.09626926 -0.12904267 -0.053094167 -0.05662115 0.08521892 0.13340504 0.050703943 -0.04333723 0.042172026 0.06498241 -0.16762549 0.009105962 0.0454256 0.22871406 0.049657367 -0.08687723 0.2016961 0.044814035 -0.06771689 -0.17122714 0.14820197 -0.046611797 0.08918957 -0.009280628 0.104905896 0.059679486 0.2738343 0.22929284 0.010045029 -0.008315246 0.06212057 0.013378261 0.10081117 -0.07739682 -0.008914052 -0.07960137 -0.13480501 0.05654116 -0.06927078 0.04857178 -0.15704033 0.25075343 -0.07927705 -0.15818894 0.12728684 -0.00040965347 -0.14321078 0.10730837 -0.08597489 -0.0013434972 0.02056912 0.069210686 -0.018051626 -0.04690842 0.13863324 0.24291109 0.01010135 0.1644985 -0.075655 -0.019883983 -0.091053255 0.1465216 0.13935478 0.026745275 0.21200903 -0.055472765 0.08658143 0.13813546 0.09504424 -0.09556623 -0.19882306 0.19354938 0.10752243 0.0018525908 0.010306332 -0.035330076 -0.11578155 -0.010194368 0.06487517 0.08253859 -0.09936938 0.15948331 -0.13658251 -0.10717032 -0.058958847 0.11788391 -3.80238e-05
-0.058649886 -0.106350884 -0.037326206 0.073049664 -0.09489869 -0.022241864 0.009473082 -0.107939705 0.10545243 -0.14583877 0.013636411 -0.06885615 0.15831922 0.09130484 0.024994697 -0.01261317 -0.13506465 0.035177443 0.0672787 0.07394296 0.07069488 -0.10305103 0.01758868 -0.009711518 0.06192553 -0.13456549 0.16284722 0.16230609 0.02354674 -0.006512763 -0.0025931874 0.008728996 0.06678803 0.12185588 0.04426386 0.0888593 0.012234786 -0.12643833 0.031597428 -0.11435111 0.020282948 -0.02800869 -0.050309338 0.0038607586 -0.12199408 0.17385003 0.17928268 0.11569972 0.045067657 0.014933248 -0.012970678 -0.18559732 -0.006024216 0.20633636 0.193979 -0.034386594 -0.16139448 0.11321044 -0.0090753 -0.039928656 -0.144031 0.19986477 0.1442303 0.14649294 0.041828237 0.01719682 -0.12177289 0.44425943 0.22946909 -0.04336417 -0.07850721 0.11540681 0.0880118 0.19020218 0.1311804 0.11905 -0.103089206 -0.13534202 0.05186864 -0.10042341 0.1397264 0.00062341755 0.11411166 -0.056587067 -0.12499635 0.14819361 0.07466388 -0.012020507 0.11048244 0.21135768 -0.070382215 0.09527309 0.1823386 0.108258 -0.13124499 0.076838754 0.29757363 -0.09310273 -0.022133002 0.14120378 0.057671793 0.032420106 -0.007679893 0.07353082 0.023461975 0.0063526724 -0.06482865 0.11802531 -0.13030839 0.06616295 -0.04403683 -0.13726778 0.071017906 0.14031525 0.03085437 -0.041910097 -0.10971023 -0.14296775 0.060216863 0.09164593 0.07791403 -0.14604746 -2.6008934e-06 -0.003746733 -0.09726135 -0.20993231 0.051044986 0.17238858
-0.042710442 0.0071509816 0.17350976 0.06286828 -0.045307186 -0.0776394 0.06976692 -0.12780833 0.09328805 -0.048690163 -0.026062213 -0.009342511 0.19493967 0.2357311 -0.023863422 -0.067192815 0.0117674405 0.21904296 0.029758032 -0.14343718 -0.019989306 -0.09858933 -0.07526535 -0.1453875 0.009750369 -0.11458788 0.13626552 0.020023089 -0.06945482 -0.031362686 0.052582826 0.024581268 0.028727401 0.11871669 0.04239337 0.05592914 -0.04016331 -0.069637746 0.18245147 -0.11401728 0.10360116 -0.039272882 0.062458407 -0.005198524 -0.12560901 0.22917426 0.009198592 0.077262476 0.08954634 0.034289967 0.024726622 -0.10273655 -0.039087676 0.32122803 0.18632752 -0.121234894 -0.09330841 0.05951069 0.21291973 -0.0057105813 -0.07779697 0.057286248 0.16145019 0.077937655 -0.0044355486 0.08044536 -0.27743113 0.50789684 0.09037473 0.025382767 -0.036983613 0.13957998 0.12220726 0.11119296 0.19559179 0.12350738 -0.0019932012 -0.012823906 -0.062365282 0.060717583 0.08962767 -0.13685688 0.058892146 -0.0853045 -0.23023944 0.021141898 0.04523851 0.08276414 0.04924768 0.19779691 -0.01998834 -0.05111336 0.19505621 0.07113737 -0.16517694 0.08712254 0.1210413 -0.07189902 0.13131516 0.33832154 0.09906323 -0.016709369 -0.0076392223 0.010485735 0.097439215 -0.13506125 0.024463197 0.058457837 -0.122133724 0.027655186 -0.10711748 -0.15648182 0.16659519 -0.017464416 0.011466935 -0.064602315 -0.07571772 -0.099463135 0.040690184 -0.0065930276 0.2363988 -0.13471346 0.11065976 -0.0033726448 -0.036962427 -0.15897398 0.09095727 0.16214451
-0.010886981 -0.025708593 0.09694694 -0.1567666 0.02281593 0.040058784 -0.016110621 0.092780225 0.058929197 0.05019355 -0.03798877 0.16424213 0.16218975 0.21095845 0.23781994 -0.03277246 -0.02351917 0.23236553 -0.045005783 -0.065064885 0.07754273 -0.065586865 -0.09324506 -0.061321314 0.1304071 -0.20089816 0.17361632 -0.07409045 -0.062926695 -0.23909402 0.17279765 -0.042743504 -0.02805809 0.076764986 0.05482294 -0.043000128 -0.075973295 -0.20254005 0.10646872 -0.23812929 0.107578985 0.07126219 0.095439784 -0.024336688 0.024392903 0.13437173 0.023943348 -0.056905583 0.021021396 -0.043840617 0.041405916 0.06260373 0.17606983 0.2507541 0.24613802 -0.1752081 -0.070615895 0.14682317 0.3352034 -0.06570117 -0.16152345 0.15933122 0.2583068 0.17996694 -0.04389098 0.05104798 -0.18576731 0.31000352 0.25636744 -0.1261702 -0.013111191 0.0800309 0.14097048 0.26701647 -0.034853414 0.02691891 0.08729599 -0.03678349 -0.031610675 0.22130892 0.020243026 -0.20040296 -0.0006004338 0.041922234 -0.2764689 0.12941447 0.06952552 0.14634322 0.112381876 0.18804905 0.021331528 -0.04781815 0.18708418 -0.083590075 -0.252419 0.17030317 0.16410261 -0.05892172 0.17635009 0.35951874 0.1985404 -0.045228764 -0.015873738 0.0028527833 -0.11975933 -0.1263594 0.053813852 0.20790203 -0.122778 -0.1663283 -0.16719507 -0.09006511 0.24114482 0.013968071 0.06242287 -0.09216767 0.0023792868 -0.046680644 0.18288907 -0.026960703 0.06445985 -0.18859331 0.121786974 -0.12722091 -0.18001021 0.035326973 0.057229675 0.16343582
0.0094404165 -0.08260824 0.15260266 -0.0972023 0.07274374 -0.09360202 0.058984168 -0.02309456 0.2492081 -0.047595672 0.034667715 0.036724422 0.1616789 0.23338307 0.2119566 0.05433054 0.06444579 0.030667087 0.07242426 0.06528811 0.11574427 0.05081293 -0.053493313 -0.14649871 0.06244854 -0.20899259 0.1465822 0.11359213 -0.031278964 -0.10250798 0.111209944 -0.15675041 0.06407632 0.042382013 -0.006008446 -0.049295735 -0.07813611 -0.18643603 0.086057596 -0.10656576 0.06471349 0.08541436 0.13773234 -0.07169831 0.033219416 0.05952407 0.030045269 -0.044612892 0.0051830425 0.057517827 0.1255253 -0.0029388187 0.13763957 0.2085201 0.06015518 -0.029014336 -0.035482172 0.16152257 0.16681953 -0.09185996 -0.0961242 0.14360204 0.18832852 0.17876664 -0.032056443 0.018788094 -0.1565421 0.16420723 0.11945957 -0.025866931 -0.039039902 0.09534497 0.07819732 0.14726461 -0.053118266 0.06389183 0.13928679 -0.14505559 0.024131028 0.16590033 0.0424262 -0.15445557 0.118376635 -0.012116586 -0.077778734 -0.04824859 -0.044205975 0.06868741 -0.012807448 0.076248735 0.0060170605 0.024872089 0.08931289 -0.2132695 -0.101777874 0.16831802 0.083328344 -0.14367364 0.18768893 0.13961355 0.14821836 -0.049605366 -0.08789281 0.046084296 -0.057031572 0.0032656272 -0.059717886 0.06528199 0.080504626 -0.10938058 -0.2010898 4.155533e-05 0.11457501 0.0034921311 0.110158905 -0.015940115 -0.049770564 -0.044165365 0.09698127 -0.00881917 0.029303066 -0.08997329 0.1364612 -0.10861167 -0.007091064 0.056883562 0.08308239 -0.019177241
-0.07577003 -0.09437113 0.053615864 -0.18551762 -0.012736964 -0.08225561 0.044290874 0.054488707 0.20294963 -0.013358502 0.021605488 0.088605694 0.19936647 0.26377276 0.03493659 0.020216517 0.01746611 0.12952515 -0.04831057 0.03578273 0.20371419 0.015601762 0.0073341504 -0.07368734 -0.02431473 -0.05242345 0.15317017 0.048083395 -0.001002945 -0.2346067 0.24775092 -0.1573244 0.018279295 0.06564849 -0.040953394 -0.018777434 0.03303869 -0.36953074 0.09418804 -0.117991686 0.06426642 0.17882642 0.06686913 -0.17383322 -0.13801904 0.14605185 0.047233026 -0.006724106 0.022153705 0.08531299 -0.010842216 -0.11621128 0.19055739 0.18779442 0.17068768 -0.007938382 0.0093356185 0.14198947 0.20398167 0.014961248 -0.25871533 -0.005994592 0.16193993 0.16650714 -0.11254292 -0.09874286 -0.07523278 -0.007604885 0.074658334 -0.0013313262 0.022819249 0.26686698 -0.041753083 0.20869815 -0.08748405 -0.046516582 0.20263097 -0.22483434 -0.005168663 0.2361073 0.020279609 -0.18273306 0.09731638 -0.014331327 -0.20971046 0.08885206 0.08790426 0.12218894 0.16218826 0.14817518 -0.010821603 0.048028205 0.1283647 -0.15514126 -0.1781072 0.11965516 0.17885724 -0.09172374 0.11851273 0.2430531 0.18210725 -0.042333163 -0.010576294 -0.030480493 -0.10957618 -0.06717004 -0.042216998 0.17357713 -0.045946483 -0.05100314 -0.08938405 -0.011912065 0.1895769 0.06521957 -0.0023672553 0.05681946 -0.04356347 -0.080634356 0.1414263 0.010249451 -0.006580109 -0.14984824 0.06495654 -0.042356912 -0.06432082 -0.0642754 0.18641281 0.059809472
-0.046303943 -0.008743616 0.051106006 -0.07263166 0.03847935 0.0026236882 0.019209119 -0.058394834 0.08423628 -0.003991969 0.050906025 0.05174282 0.11223657 0.17812604 0.041590855 0.01306896 0.10441798 0.12700753 0.02246434 0.055409674 0.092935845 0.03903864 -0.032841094 -0.04720531 -0.07932301 -0.15361847 -0.003239649 -0.042702235 -0.03225638 -0.1926777 0.18391225 -0.06272068 -0.032951985 0.024690755 0.045090742 -0.067317806 -0.05810654 -0.1725112 0.12912412 0.049012695 0.053258605 0.11042836 0.15875128 -0.11195764 -0.083701454 0.031170703 0.05343794 0.00439699 -0.049469646 0.010532131 -0.06607413 -0.054763183 0.24101803 0.07225065 0.056303922 -0.14091755 -0.050161704 0.16983537 0.08103933 0.046065122 -0.12864299 0.06301179 0.16373578 0.03760182 -0.10630723 -0.08164422 -0.15020752 0.11196995 -0.025778893 -0.085427314 0.032212112 0.109972924 -0.051559467 0.1450566 -0.102615036 0.023329364 0.08913348 -0.13083173 0.033915244 0.04808359 -0.075288236 -0.09847747 -0.046130393 0.08043847 -0.085633345 -0.036085404 -0.087990016 0.07456698 0.15060973 0.18337166 0.031583995 -0.042042475 0.098887146 -0.063898124 -0.14732303 0.13251063 0.1833085 -0.09104393 0.10189807 0.14333248 0.14297798 -0.021415967 0.021236192 0.09134176 -0.10557269 0.0011060025 0.047895677 0.10560884 0.010616739 -0.07973357 -0.11330681 -0.05034665 0.14929155 0.060443036 -0.0185042 0.04651914 -0.023759596 -0.012706444 0.09991565 -0.018160112 0.10899546 -0.18074083 -0.017006366 -0.12596974 -0.12351102 0.005034853 0.09738641 -0.049005065
-0.14675364 -0.010576404 0.11861676 -0.07570565 0.032369487 0.047826532 0.07100721 -0.11075783 0.17224571 -0.05949239 -0.00032567699 -0.007963235 0.034448773 0.178206 0.049649987 -0.061184015 -0.033294413 0.07556662 0.06495277 -0.05624602 0.16621149 0.0767248 0.009417616 -0.116065994 0.01542983 -0.043420628 -0.061482377 -0.061016105 -0.043514036 -0.10982749 -0.0032729588 0.02577621 0.087070554 0.094313085 -0.07518727 -0.020834707 -0.07857047 -0.17053579 0.1357549 -0.03457495 -0.011623259 -0.031039607 0.1253422 -0.09966334 -0.02394799 -0.021386323 0.0024389103 -0.024601867 0.100938186 -0.027728587 -0.044504564 -0.07631282 0.0973922 0.012893555 0.14669722 -0.1431742 -0.09909356 0.053176403 0.034068473 -0.036240593 -0.14847781 0.021297142 0.08185473 0.0084876185 -0.043039486 -0.09584507 -0.16141598 0.09514717 -0.020242345 -0.08751508 0.039172534 0.13358422 -0.07327032 0.1643739 0.01153215 -0.009976617 -0.024086604 -0.113813736 0.012646039 0.08998785 0.069478534 -0.13849735 -0.09540224 0.055620573 -0.03664033 -0.05061403 0.051926993 0.06264467 0.025147619 0.06632975 0.024926312 -0.02866537 -0.001768715 -0.046549466 -0.043461192 0.026875874 0.11023126 0.045046292 0.059607152 0.11985684 0.11609797 0.021482566 -0.08402917 -0.0123341605 0.040649485 -0.085466556 0.001285091 0.011390833 -0.06872558 -0.046039965 -0.037706297 -0.14969157 0.020062631 0.0045150667 0.022372633 0.043870807 -0.05012392 -0.12225533 0.057834376 -0.07942207 0.055397626 -0.091032594 0.037103217 -0.07078865 -0.00014083572 -0.0017820817 0.083591744 -0.031314906
-0.05567955 0.022868318 0.0802662 -0.09064777 -0.02213141 -0.08502497 0.044177223 -0.08047246 -0.009774904 -0.0030036722 -0.0588781 0.054540623 0.17676567 0.13376608 0.011353418 -0.048705887 -0.092866585 0.14745986 -0.0026584566 0.070064075 0.03274063 0.052301295 -0.069168575 -0.012493193 -0.022666646 -0.14803372 0.025159627 0.07093278 -0.052053615 -0.0867504 -0.03156501 -0.046281416 0.01920689 -0.037451267 0.062326528 -0.0032966656 -0.052304782 -0.021872 -0.02377398 0.03859994 -0.031793308 0.08405715 0.13679086 -0.11566567 -0.031653326 0.055091783 0.0059305727 0.04698828 -0.040853057 -0.06276721 0.012239017 -0.11518972 -0.01610857 0.10348386 -0.004961744 -0.11455152 -0.04497171 0.018409304 0.12561035 0.024172544 -0.013190191 -0.045424875 0.13049802 0.057801347 -0.06606029 0.0366887 -0.1539408 0.028205093 -0.047710467 -0.005526019 -0.02837269 -0.013272944 -0.029725093 0.07853316 0.05559168 0.013547733 -0.097822465 0.027686333 -0.044502396 -0.025586596 0.010505997 -0.10462633 -0.012872594 -0.049655106 -0.009548039 -0.037578814 0.051371478 0.05041792 -0.063196674 0.12008293 0.030904673 0.038338467 -0.040905803 0.033242054 -0.042025033 -0.029072989 0.026294686 -0.023959495 0.040261663 0.0073598195 0.07947961 -0.031937864 0.06439165 -0.012112275 -0.034977626 0.021310575 -0.062029257 0.1154821 -0.043648507 -0.026596686 -0.063764736 -0.0044416436 0.024977354 -0.05441165 0.08522992 -0.02421134 0.035371475 -0.11405168 -0.01685408 -0.05536872 0.07195266 -0.14372122 0.06868773 0.0048914608 -0.07234607 -0.10646116 0.11819681 0.025252344
0.018984273 -0.02707275 -0.0068549216 -0.07759899 0.01513543 -0.079519145 -0.01316312 -0.050973553 -0.058600463 0.049363278 -0.00033584982 -0.053911835 0.04664848 0.017985642 0.029059023 0.020019375 0.051308356 0.03564126 -0.022570174 -0.007358916 0.027165674 -0.0680824 0.0152492 -0.06772244 -0.074818686 -0.038742274 -0.07775002 -0.06634727 -0.028651316 -0.022374395 -0.008431017 -0.06879885 0.025368057 0.0056466833 0.06628933 -0.034128368 0.041590825 -0.061433118 -0.013240799 -0.06449797 -0.037984174 -0.0083082765 0.014367446 -0.0006179139 -0.012812689 0.02901619 0.052513428 -0.0016207248 -0.06482569 -0.013477422 0.045761265 -0.028111022 -0.063159466 -0.02299438 0.038970307 0.0070769265 -0.064511426 -0.07890239 -0.001852937 -0.07481731 0.010547727 0.0472871 0.05357363 0.023044892 -0.06116362 -0.05971023 0.04589685 0.055265673 -0.023745209 -0.015328154 -0.017944373 0.066086166 -0.020027768 -0.062198274 0.030849926 0.0048881844 -0.06904346 -0.01500047 0.06366902 -0.06777554 -0.038839024 0.031713225 0.013147511 0.053164177 0.0560124 -0.017161928 0.036344513 -0.057856828 0.07185296 -0.025973465 -0.055171862 -0.045904387 0.05041819 0.0076783895 -0.05902558 -0.065887384 0.06635433 -0.022889528 0.029327154 0.03601385 0.043318838 0.06370685 -0.03699469 0.07011358 -0.03796791 0.0039711967 0.062161945 0.055140235 -0.05697044 -0.037171405 0.06970187 0.020280227 0.060841016 0.015655667 -0.054814894 -0.01858867 0.06373494 0.04115554 0.037955612 -0.022510476 -0.061434645 -0.057407696 0.068738155 -0.029368613 -0.0225063 -0.040337488 0.061184056 -0.069878444
-0.044509515 0.06945572 -0.018878069 -0.0047007725 0.01581341 0.0004602149 -0.031628214 0.018879905 0.0424608 -0.069510594 -0.0043301582 -0.06227826 0.056130596 -0.049099017 -0.021024037 -0.008869223 0.027986273 0.0667287 -0.027034093 -0.06745994 0.047703855 0.020570926 -0.0010369942 -0.04651559 0.014111757 0.05568377 -0.053089686 0.041073598 -0.0329953 0.036874406 -0.05955527 -0.02136648 0.038155064 0.024645694 0.064944245 0.04565444 -0.015882798 -0.07679556 -0.02359087 -0.051059667 0.037914976 0.034360327 -0.026593603 -0.07032201 0.07126976 -0.04549801 0.06317129 0.048074342 -0.052687936 -0.03234445 0.0668732 -0.03428984 -0.057657972 -0.042150028 0.004028477 0.021446042 0.04247377 -0.041935626 0.0080088 0.040952466 0.06754235 -0.073272124 0.055981807 0.04226032 -0.04466016 0.048183016 0.051376782 -0.0030575767 0.07218579 0.0035138056 0.051841207 0.04977893 -0.044416305 0.00017487258 0.0017739013 0.009460859 -0.022496399 -0.0675563 -0.013559878 -0.02214742 -0.011572428 0.028206557 -0.0030971244 -0.07845556 0.032496482 -0.073267445 -0.044427153 0.055218093 0.06954055 0.011068702 0.080244355 0.06166231 0.022871137 0.06996838 0.01615268 -0.07592611 -0.05346009 -0.049464278 -0.056096174 -0.06352856 -0.045410603 0.06910951 -0.07762734 -0.05141878 0.013851814 0.06713138 0.00555183 0.07465676 0.055012576 0.07460303 0.0099270865 0.022473156 -0.029579245 -0.04809613 0.008580983 -0.02050285 0.012121268 0.040981457 0.003130369 0.078442045 0.041411445 -0.04885077 0.020811975 0.013385661 -0.042388838 -0.041597784 -0.06894479 -0.01765985
-0.019326445 -0.041218814 0.014109626 -0.048406027 5.698949e-05 -0.00093506277 0.033846296 -0.02966886 0.024290353 -0.012499444 0.053710975 -0.0012584403 -0.044267803 0.060921274 -0.046960007 -0.027705267 -0.026685886 0.02909948 0.013216719 0.035024986 -0.072683446 -0.0016235113 0.067942895 -0.06511877 0.032823205 -0.05401255 0.014654025 0.01603973 0.040494166 -0.050351307 0.0758403 -0.003176488 -0.04683657 0.036292225 -0.019764595 0.022217385 -0.027969912 0.05230934 0.04104989 -0.023933642 -0.03896625 -0.0043337718 0.07351812 -0.076534145 0.035797976 -0.07983697 0.060508825 -0.019224726 -0.035515115 -0.06879942 -0.0057770237 -0.056162946 -0.02349994 -0.07968774 -0.007010229 -0.00085338205 0.012270406 0.048510827 -0.02604954 -0.031715102 0.041388355 0.052705146 -0.026670959 0.058542214 -0.042279284 -0.025522474 -0.051832482 -0.02429463 -0.036474083 -0.019758597 -0.052184246 -0.019989595 0.010669053 0.06292652 -0.019244354 0.06453692 -0.0027624965 0.010474049 -0.040160757 -0.03763881 -0.021881092 -0.045102563 -0.07457937 -0.044317003 0.05976563 0.0001385957 0.07781886 -0.007218346 -0.02035762 -0.041140784 -0.06873304 0.04726132 0.073065795 0.07763799 -0.053830206 -0.036983665 -0.015072599 0.029669456 -0.05289963 0.019365199 0.019284964 0.06394439 0.039204843 0.05863083 -0.06304251 0.065300696 -0.07246115 0.07236949 0.07432348 -0.0284793 -0.00258106 -0.006058961 0.039736412 -0.046167463 0.06624935 -0.06523574 -0.07163941 0.077481605 -0.040088568 -0.065769576 -0.018053912 0.023291454 -0.03316994 0.06713431 -0.048380267 -0.05918856 0.018819585 0.06963373
-0.0044549033 -0.052226037 0.038033 -0.02286435 0.0070661604 0.024621464 -0.073504955 0.015033133 -0.06928443 0.056689195 -0.035756923 0.02770964 0.00031737983 -0.07513533 0.0655319 -0.06348961 -0.016630568 -0.06755632 0.023293078 -0.07744121 -0.0417324 -0.0108115375 -0.023986783 -0.07137138 0.08055381 -0.013740249 0.07577094 0.012755424 0.076475 0.070658304 -0.0063771755 0.058852755 0.027414806 0.07013077 -0.035096306 0.0052286685 -0.029838689 0.0016517639 -0.045054913 -0.07606784 0.021510318 -0.010973923 0.07562741 -0.060993887 -0.054042056 -0.0027342066 -0.07336081 0.057704158 0.009022243 0.055398546 0.004734747 0.06496636 0.04452639 -0.07831375 0.06061516 -0.0054103136 0.07839335 -0.038942154 -0.035496127 -0.051143575 0.049139626 0.059838854 0.02264209 -0.047797877 0.029846884 0.044180475 -0.026481539 0.0013802499 -0.019944731 -0.056775138 0.069201045 0.03985761 0.049290992 0.04598052 0.021017753 0.012054354 0.015101761 0.006936878 0.027285859 -0.06109963 -0.074622996 -0.063923195 0.008837663 -0.041565605 0.08036589 0.07573945 0.07620191 0.023698814 0.048721932 -0.02416864 0.003192559 -0.03519296 -0.0760392 0.022107735 0.07189899 -0.046621412 -0.05395256 -0.039471444 -0.009567775 -0.0585403 -0.06419339 -0.0028091967 -0.030450027 -0.06588056 -0.0014894009 0.0279878 0.017501146 -0.020799521 0.0092901215 -0.015650876 -0.047937788 -0.057345737 0.059324466 -0.039746355 -0.039092585 0.008717939 -0.03253576 -0.040759932 0.022683963 -0.061834037 -0.013503201 0.0065436587 -0.05503833 -0.017476566 0.024230152 0.057297505 -0.043833233 -0.0689265
0.055660225 0.019019589 -0.04243726 0.009007372 -0.042789217 0.0068746656 -0.042982485 0.014252111 0.0005392879 -0.015465535 0.04694342 -0.03199305 0.019395754 -0.008809485 -0.01722335 -0.031848304 -0.015123963 -0.004237309 -0.008593321 -0.055795774 -0.076370195 -0.07135272 -0.061827194 0.07464916 0.04491725 -0.051215284 0.0021466836 0.018374167 -0.033305965 -0.060502965 -0.077047154 0.015481971 0.064786606 -0.029755939 0.053415366 0.014513202 0.027774207 0.016826332 0.019586042 0.034503683 0.057476856 0.027396142 0.017634846 0.014888786 -0.01645223 0.012183093 0.05497376 0.060511075 -0.058442816 0.032575563 0.07310551 0.012863934 0.068520494 -0.025070425 0.06749127 0.059825547 -0.04230665 -0.07709258 -0.0025284663 -0.022707652 0.026948541 0.07266057 0.040566146 -0.04582995 0.061673187 0.032052867 -0.038975492 -0.028796837 0.005679697 0.055744193 0.053410716 0.05819451 -0.042076368 0.028700069 0.052597336 0.048425384 0.032643728 -0.032963526 -0.011715256 -0.055882506 -0.04568681 -0.046095196 -0.043088593 0.0061923787 -0.01800301 -0.008354627 -0.039134085 -0.042966317 -0.06840413 0.06733101 -0.063602194 -0.055376887 -0.006529793 -0.003382869 0.0017336756 0.007076308 -0.039068703 0.027830847 -0.072829254 -0.07313176 -0.024170265 0.021694578 -0.016081981 0.031521507 0.07668667 -0.05844479 -0.05825779 0.045702957 0.076146 0.037007354 -0.030835964 0.04992201 -0.039439823 0.005799167 0.0328632 -0.0551701 -0.05854883 -0.026954014 0.055232428 -0.06488446 -0.056080297 -0.05916348 0.0012490824 0.012678288 0.052580066 0.019659042 0.057798333 0.02745685
-0.03946541 -0.061364643 0.059618466 -0.047055073 0.04999683 -0.034555957 -0.043847717 0.061254777 -0.052080035 -0.015702486 0.025370106 0.007819712 0.020457968 -0.017676115 0.031345144 0.05569247 0.03405595 -0.03134636 0.013351992 -0.05299841 0.04498642 -0.06864068 -0.05798972 0.03235203 -0.0060414597 0.014250293 0.004546687 -0.08068931 0.025019877 0.06291009 0.053204574 0.04871408 -0.029518697 -0.06019707 -0.07043842 0.06406135 -7.464737e-05 -0.0669623 -0.017302908 0.062872894 0.07902808 0.06821684 -0.0047697723 -0.009604134 6.006658e-05 -0.058423594 0.052606456 0.0654011 0.0010275245 0.016483486 -0.048466865 -0.037483484 -0.06446619 -0.018877815 0.027387574 -0.034158923 0.06265182 0.0026208237 -0.02069848 0.03507465 0.0359815 -0.04561816 0.07932652 0.028044902 -0.013314649 0.067382626 0.048140727 -0.06807727 -0.030270666 0.005730577 -0.00163389 -0.016790636 -0.0091127455 0.03720803 0.02308958 -0.018556565 0.071638055 -0.04177765 0.018731155 0.0790614 0.05285368 -0.058048878 -0.023019653 -0.059463046 -0.05394765 -0.048878115 -0.003210567 -0.020180985 0.018437736 -0.0367735 0.01638969 -0.07508708 -0.009804904 -0.06538842 0.016641751 0.026496954 -0.005148746 -0.060036987 -0.045071274 0.029732868 -0.062208198 -0.020941831 -0.03028604 -0.014514901 -0.006992519 0.0021381378 0.047244497 -0.022317402 -0.006682001 0.025178097 0.04396949 0.0025842711 0.049575098 0.026001275 0.05330672 0.023230039 0.07949076 -0.062255595 -0.033898223 0.026969194 0.042608254 -0.03814992 0.03891682 -0.06628802 -0.03841729 0.016738385 0.05547648 -0.05763469
-0.012370222 0.0481256 0.0386198 -0.0041932487 -0.07394385 -0.03215009 -0.080329075 -0.027943576 -0.01689486 0.046154328 -0.017749932 0.042905323 0.05370978 -0.021036364 0.009396625 0.004199582 0.065359086 0.023600407 0.008597669 -0.03851524 0.052637797 0.051509157 -0.039720982 -0.03557731 -0.065490775 -0.07433135 -0.018453423 0.055863462 -0.0090516955 -0.11614344 0.008636369 0.06371503 -0.023099132 0.047350347 -0.045340043 -0.015482843 -0.0010571256 -0.05184078 -0.040631466 0.030335365 0.04387086 -0.021866756 0.062211256 -0.026945936 -0.009572901 -0.007730852 -0.06997486 -0.0023082986 0.051271483 -0.005178973 -0.051895626 -0.07913099 0.08669212 -0.009048097 0.011883556 -0.04589739 0.027423019 0.02632817 -0.028299788 0.068477236 0.00349948 -0.01073069 0.010004884 0.055847898 -0.06421778 0.07918898 -0.042331275 0.086528584 -0.013958596 -0.015149384 -0.03686857 0.06678406 0.0096913 0.09925028 -0.027941406 0.06796036 -0.055218313 -0.04148321 0.052477382 0.058713295 0.0302153 0.008797373 -0.007636544 -0.070215225 -0.106146835 -0.07738412 0.051238347 0.060898684 -0.006012082 0.08934156 -0.06834553 0.062092848 0.07420013 -0.016041072 -0.062966414 0.029541923 -0.056260355 0.01994235 0.0720564 0.08046075 0.04031902 -0.027844531 0.00056286156 -0.069806315 -0.025446039 0.023604361 0.033421688 0.07724707 0.08055026 -0.018962577 0.00045963377 -0.07261553 0.025899533 0.0332821 0.07645249 -0.005003378 0.05340474 -0.040772505 0.0042638695 -0.062387906 -0.025281742 0.005132123 0.07911443 -0.004561268 -0.007669799 0.05628451 0.06427074 -0.014832348
0.012041941 0.058751844 0.09965084 -0.027721621 0.024561249 0.16529426 0.076929614 -0.0077673425 0.04908851 -0.10729842 -0.02955186 -0.08943208 0.01873868 0.07299124 0.10851976 -0.0026285201 -0.014883548 -0.040417653 0.14478216 -0.023998734 -0.059823 -0.063834414 -0.1485509 -0.14727144 -0.027487263 -0.08749632 0.055567104 -0.0066669583 0.006104596 -0.07272163 -0.051017933 -0.049619086 -0.017607756 -0.05360857 -0.10634499 0.014163524 -0.040244065 -0.092582665 -0.030471105 -0.0070200935 -0.020891352 -0.08806054 -0.06808704 0.01806023 0.05838818 0.020191165 0.009743817 -0.015006945 -0.108134724 0.11220372 0.004619702 0.025473528 0.089466065 0.10448472 0.12753955 -0.11589659 -0.07726403 0.09022854 -0.16194864 0.020480461 -0.09322861 0.10533921 0.14356117 -0.064859204 0.04241421 0.10807073 -0.013149428 0.1925683 0.11640831 0.06021308 -0.030999571 0.05541662 -0.017320983 0.046917725 -0.0082901195 0.011013359 -0.056015998 -0.074034356 0.04894533 -0.1751568 -0.064773984 0.051202975 0.0011938105 -0.06859871 -0.17912167 -0.1679234 0.061927013 -0.07209314 0.026238203 0.09820558 -0.070076235 0.060342558 0.07849045 0.016595686 -0.14133067 -0.001984215 0.047431592 -0.0035453662 -0.012165834 0.06907658 0.021764478 -0.06722618 0.05978848 0.019331723 0.08914306 0.045543842 -0.030907072 0.030137487 0.014675856 0.112256035 0.0315652 -0.10488185 0.04318201 -0.088933416 -0.11218289 0.035209857 0.084126145 -0.038547102 -0.03050285 0.032211497 -0.00037993403 -0.02914092 -0.009853467 -0.023748495 0.12029582 -0.049993083 0.06277882 0.031335738
-0.010008159 0.06159934 0.02360839 -0.053228036 -0.05468666 0.12721089 0.04624892 -0.06510138 0.08878161 -0.038485114 -0.03393312 -0.011654612 0.0056669125 0.06254323 0.11931101 -0.09399978 -0.0053666253 0.075589 0.03973445 -0.05868168 -0.022591347 0.01768192 -0.061161358 -0.16178724 -0.021814035 -0.17630994 -0.024438748 -0.06547459 -0.01105538 -0.041223705 0.033885818 -0.030400129 0.08311156 0.036428306 0.014797084 -0.091627434 0.008465111 -0.15053394 -0.049490504 0.016468242 0.018882971 -0.12615989 -0.055556156 -0.064006485 -0.009576889 0.08551827 -0.019769264 -0.030248139 -0.1032873 0.05517986 0.06605959 -0.099079885 0.022989197 0.19015245 0.124026276 -0.07195929 0.019918535 0.15445028 -0.09436903 -0.039361503 -0.23099914 -0.046941005 0.22442275 0.12429651 -0.060836572 0.18737456 -0.10307835 0.21992482 0.06286557 0.14438759 0.0130723845 0.15280977 0.0008894308 0.14177942 0.0015948273 0.029105015 -0.074600406 -0.115449 0.06618165 0.028049855 0.02184973 0.11493692 -0.0464018 -0.089169875 -0.17351198 -0.14204316 0.035564505 -0.05326517 -0.04814082 0.06797958 -0.056562927 -0.019377477 0.10516535 0.049170647 -0.10205589 -0.0072882557 0.12132469 -0.012405733 0.015207016 0.037912752 0.0900597 -0.002891773 0.039735742 0.05647617 -0.04962233 -0.053669043 -0.080086805 0.0360245 -0.017880205 0.060907405 0.018449161 -0.051096845 0.10868901 0.013399839 -0.114583045 0.012262009 0.10087742 -0.101500675 0.065606825 -0.05016966 -0.05649604 -0.08978137 -0.095858715 4.506111e-05 0.040300496 0.044719428 0.09687533 -0.011406046
-0.01677741 -0.09930446 0.18250614 -0.13210273 0.06514121 -0.1285525 0.030548327 0.06592809 0.096511446 0.06802592 -0.09098738 -0.08958402 0.16282335 -0.049579956 0.0071223737 -0.02581184 -0.01001483 0.13892898 0.041787565 0.02390074 0.1729564 -0.095123716 -0.015774231 -0.14288145 -0.035882648 -0.14785756 0.039058726 -0.08954089 -0.020105101 -0.048859783 0.043747082 0.011733773 0.0110389795 0.033890918 0.046812247 -0.0827909 0.037265424 -0.12798597 0.2089624 -0.0038768835 0.02637112 0.044902027 0.13806757 0.01668893 0.031517304 -0.009432675 -0.008261648 -0.04956086 -0.073394 0.058921836 -0.07422202 -0.012674324 0.06582203 0.026390385 0.023606598 -0.02883201 -0.048296712 0.05635894 0.10577231 -0.08760795 -0.13554971 0.06930373 0.04095665 0.12037395 -0.06606424 0.053512968 -0.16067651 0.04253194 0.1231351 -0.07781905 -0.011700186 0.14014953 0.06382975 0.13782911 -0.043312002 0.10779574 0.12524538 -0.13731775 -0.012502342 0.17294537 0.021569233 -0.12271967 -0.041018613 -0.0299172 -0.0015925849 0.06814999 0.03147711 0.06497291 -0.08483945 0.08056772 0.052280582 0.066209085 0.06366751 -0.057303123 -0.016192837 0.14036793 0.0655151 -0.093196616 0.007928677 0.053104073 0.051143933 -0.052592 -0.056876265 0.057274744 -0.050724935 -0.09706396 -0.079196304 -0.03731568 -0.025325963 0.008100294 -0.122278675 -0.053819187 0.055854775 -0.017469347 0.088150114 -0.040059306 -0.07194503 -0.063251674 0.12623407 0.07185329 -0.07225791 -0.043847535 0.010113852 0.08154925 -0.07670878 -0.014670475 0.15100387 0.017409623
-0.0916429 -0.05394336 0.044060286 -0.19128968 0.0087166345 -0.075702496 -0.07522195 -0.017833415 0.068318374 -0.103829734 0.020537538 -0.055892367 0.07911388 -0.033357374 0.06843301 0.062363714 0.07448929 0.20570661 -0.10286236 0.0028198767 0.096453615 -0.043633528 -0.04914685 -0.1808643 0.09270225 -0.057924546 0.07995927 -0.037486747 -0.076426685 -0.12509458 0.15243575 0.02704178 -0.037657376 0.08991136 0.1308907 0.03245536 0.049615405 -0.12738498 0.20589572 -0.07938216 0.009705461 -0.031893868 0.08073433 -0.07269361 -0.029870173 0.004480807 0.13665485 -0.00025692605 0.089784294 0.07187892 0.027495809 -0.02347609 0.012766978 0.19577721 0.07638325 0.008466138 -0.078851566 -0.038006037 0.1799651 -0.016130727 -0.051502224 -0.0155504495 0.03780937 -0.02705709 -0.03243143 0.06251781 -0.12837918 0.11859097 0.06336948 -0.00017663318 -0.05744767 0.06802592 0.073883325 0.18693203 0.07177022 0.13552858 0.15063673 -0.03471862 -0.035920385 0.14387436 0.0191891 -0.112002045 0.021723948 -0.033204697 -0.16221747 0.013410097 0.10948973 -0.07264487 0.058347113 0.093193114 0.047697045 -0.04265893 0.113281585 -0.008843424 -0.060851146 0.022521488 0.06764944 -0.07728321 0.071171105 0.18168941 0.039808895 -0.086571276 -0.03240151 0.05543847 -0.009342898 -0.020655477 -0.055116605 -0.006561063 0.07370458 0.029806817 -0.022817114 0.0022654533 0.05921953 -0.07454751 0.073821016 0.07018644 -0.1570515 -0.13250262 0.11446749 0.064301364 -0.047110286 -0.060334314 -0.011364375 -0.07072854 -0.0042250156 -0.036494322 0.19513586 0.10539969
-0.20456035 -0.0002266775 0.1891201 -0.061964 0.0030786993 0.06835225 0.07038032 -0.00017228884 0.059228014 -0.0043842136 0.044777747 -0.058430877 0.2454369 0.017707469 -0.024938125 0.0024963312 -0.0531783 0.22322269 0.1393069 -0.030686075 0.14206563 -0.07308874 -0.15308501 -0.17480496 0.18801098 -0.11785524 0.15337154 0.039993837 0.06142088 -0.24227546 0.15099198 -0.06923481 0.023192372 0.048096366 -0.034209937 -0.21112141 -0.0038682302 -0.062085364 0.23720968 -0.09759547 -0.01888877 -0.036398854 0.1905899 -0.13220872 -0.11828685 0.16152708 0.13026626 -0.044192776 0.060783852 0.123975486 -0.16150129 -0.17104919 0.025338389 0.24312054 0.16019338 -0.027725069 -0.079330765 0.12695718 0.34210604 -0.0981405 -0.11427616 0.1117747 0.12434906 0.09839648 -0.12350133 -0.060356043 -0.13452075 0.11311581 0.15514632 0.04830451 0.14291951 0.12983473 0.23174107 0.18407094 -0.032602582 0.06288175 0.27556297 -0.23139316 -0.021803394 0.2093063 -0.07602374 -0.17557067 0.001379868 -0.08639344 -0.074904084 -0.0148460595 -0.012084679 0.05419549 -0.049662177 0.2343034 -0.09781562 0.10709498 0.04140937 -0.08983041 -0.07518909 0.20015748 -0.019072792 -0.09148068 -0.0015846993 0.11888648 0.14676952 -0.19955455 -0.07527342 0.08960047 -0.057010844 -0.14104056 0.0013819425 0.13382056 0.0077349897 -0.027658062 -0.044471957 -0.06783463 0.11145321 -0.023586674 0.10402111 -0.06462705 -0.109938085 -0.11991019 0.079016924 0.0184216 0.14347698 -0.12836953 0.20756951 -0.004921834 -0.09732923 -0.010144959 0.21710533 0.08236373
