2
784 32
0.058414437 -0.054768316 -0.05500739 0.027050838 -0.02580288 -0.041641165 -0.052257992 -0.0435353 -0.060999084 0.027442142 0.069488786 -0.047407497 -0.047011103 0.065314956 0.038612865 -0.066069394 0.06366206 -0.010510214 0.0088681355 -0.062882304 -0.007122174 0.04526884 -0.0069070607 -0.029569913 0.020093337 0.015717782 -0.029172905 -0.034514837 0.07039089 -0.04935614 0.0050692856 0.017892025
-0.012772471 0.021420293 0.022291608 -0.07315219 0.054875918 -0.05556272 0.0076185167 -0.059518125 0.0707104 -0.043570627 0.0020673797 0.0029745698 -0.082000025 0.015404865 0.05827593 -0.0097357035 0.0019787997 -0.077067204 0.067748375 0.051755004 0.0496893 -0.020950466 0.038022846 -0.0607873 0.053982668 -0.0050166473 0.057531513 0.06563603 0.042407148 0.029711977 0.063613616 -0.0559466
-0.00896845 -0.05533409 -0.013705157 0.07423674 -0.058461178 -0.022012785 -0.011692539 -0.033104412 0.080930196 -0.058376152 0.028081305 -0.053505007 0.027370319 -0.07667132 -0.066897675 0.047549702 -0.029393766 -0.08153181 0.061743177 0.03467062 -0.08561557 0.056488 -0.052769814 -0.0099492 0.062153406 0.016818628 0.013114706 -0.009984896 0.08295619 -0.01586543 -0.037370224 0.07891735
-0.07403857 -0.07711966 0.05195429 0.04229144 -0.055802487 -0.00094491243 -0.06981034 -0.07515125 -0.02690278 -0.0543587 -0.004966192 0.03220176 0.0035373196 -0.009110458 -0.021152027 0.057145096 -0.06869037 0.0778405 -0.025125194 0.030839786 0.030330598 -0.054640092 0.067076154 -0.068563506 -0.08449205 0.016844936 -0.034362487 0.037541322 -0.001802668 0.08403859 -0.054650683 -0.052158594
0.06168405 0.046912216 0.038918607 -0.018962122 -0.07934031 0.06673256 -0.008678205 -0.029170554 -0.0622129 -0.055563066 -0.03074022 0.036668904 0.046701767 0.055092506 0.043313004 0.007939391 0.013946086 0.07354959 0.035509944 0.029572755 0.07301357 0.0051714703 -0.012436852 -0.081771396 -0.025778696 -0.06102421 0.0077460483 0.06627265 -0.066262916 -0.013708405 0.08339297 -0.08275143
0.07880811 0.029578887 -0.013046034 -0.039280407 0.046762235 -0.06679036 -0.025440793 -0.015531786 -0.06955049 -0.0663442 -0.010553859 -0.08429581 0.042622246 0.034314953 -0.05472011 0.07768204 0.070243426 -0.06867072 0.044118904 0.036459476 -0.013609104 0.084431164 -0.0154645 0.06809916 -0.07568562 0.07533274 -0.07970205 0.063608445 -0.058873884 -0.032296784 -0.006285414 -0.082564406
-0.07469581 -0.028130576 0.03594199 0.052917726 0.036139563 0.013005942 -0.07617366 0.044068508 0.035852358 -0.08246311 0.018307969 0.06172461 -0.05489669 -0.017052792 -0.04730822 0.085489295 -0.0040608346 -0.0023209304 0.0069411397 0.07998549 -0.08375179 0.0609226 0.033817977 0.016982526 0.05858969 0.04730264 0.021910585 -0.03972466 -0.008705869 -0.040914923 0.04068721 -0.023569103
-0.056313798 -0.018235408 0.022542454 0.028479397 -0.06597018 0.06393432 0.010123491 0.042182185 0.007107824 -0.068833984 0.06288349 -0.03528859 -0.05300404 -0.07824886 0.035973392 -0.03547823 -0.05126287 -0.06858361 -0.0049491823 -0.0016994029 -0.04432271 0.043992244 -0.07486272 0.031727187 -0.044704035 0.022808231 0.028943032 0.007164292 0.012378812 0.019745335 0.021641046 0.07474739
0.068922095 -0.017910406 0.07464736 0.03610319 0.037915736 0.023567572 0.07158158 -0.010644734 -0.027388126 0.026431315 -0.05955789 -0.03240896 0.035703592 0.011353292 0.0023328736 -0.020861715 0.057910554 0.046810888 0.043353103 0.0064239204 0.048975773 0.042842276 -0.021290638 0.05160179 0.069862805 0.036486663 0.02057214 -0.08501205 -0.048039205 -0.03876546 -0.007050045 0.05788075
-0.05012666 0.03427221 -0.053004205 0.019754663 -0.014365628 -0.011288971 0.04317335 -0.065696634 0.082658775 -0.027102906 0.06656768 -0.0318271 0.079831 -0.05568575 0.056052424 -0.06785142 -0.06985174 -0.0112026185 -0.064629406 -0.08271482 -0.060988292 0.021982342 -0.02772053 -0.015099734 0.049400456 0.022090375 0.083032526 -0.019419886 -0.07899573 0.03122297 0.017098568 -0.044166252
0.0069518313 -0.060258124 0.068525426 0.02940581 0.018778205 0.0059933662 -0.062741466 -0.021029234 -0.021886215 -0.08199815 0.084403686 0.005815178 0.051918454 0.08437032 -0.04173719 -0.012644075 0.058718555 -0.058964904 -0.027379416 -0.053555198 -0.011870138 -0.027655803 0.002680853 -0.07525425 0.07229509 -0.07971091 0.047548033 0.03752564 -0.029996317 -0.04747615 0.038336806 0.08546742
0.03830927 -0.01137723 0.05739615 -0.032683425 0.06463366 -0.018973716 -0.046329312 -0.063903086 -0.051866956 0.064980365 -0.034742445 0.058161624 -0.012927413 -0.050512075 -0.047458485 0.008257814 0.059911124 0.07180897 -0.030000139 -0.0070063174 0.025218725 -0.025261272 -0.065778375 0.07648303 0.041964404 0.08270047 -0.032538068 -0.0050919205 -0.008629464 0.0682187 0.08291825 0.04286232
-0.06739679 -0.0007965627 -0.070374385 -0.052436326 0.02372068 0.06572947 0.0023193443 0.065231346 0.024464818 -0.08441787 -0.007985605 0.071192116 0.0008315504 -0.06908643 -0.008555028 0.008263484 -0.08256956 -0.084499516 -0.02440568 -0.037542917 -0.04748614 0.07111903 -0.052299183 -0.0834549 0.07554396 0.08273378 0.039588317 0.03429222 -0.026907811 -0.07896433 -0.055981006 0.010136127
-0.057281394 0.02337059 0.057292916 0.03342806 0.026412454 -0.07113092 -0.047812987 0.01237631 0.07413852 -0.06948162 -0.0028201211 -0.021988057 0.05714596 0.0056019635 0.0605324 0.03241651 -0.008863904 -0.022195917 0.07564518 -0.013034813 0.047423057 -0.054077297 -0.040065914 -0.05638097 -0.048551016 -0.07018478 -0.0068631032 -0.0171788 -0.006791985 -0.036439374 0.06412246 -0.027465608
0.04290581 0.00815953 -0.020041786 -0.05105546 0.061310597 -0.022010714 0.012464672 0.009565231 0.009172076 -0.0086194975 0.050727557 -0.058851257 -0.060483597 -0.036654647 -0.0070567103 -0.03198385 0.036820896 0.017172916 -0.05506367 0.058156088 0.060449738 0.011080435 0.009563581 -0.041494045 -0.04895417 -0.01244352 0.07311043 -0.077552475 -0.007538062 -0.005923002 0.009105061 -0.020015031
0.03629266 -0.051321324 0.085476555 -0.046727423 0.071004435 -0.052033484 0.060472395 -0.074262775 0.0809734 0.0480907 -0.014721329 0.03165498 0.064129695 -0.049266666 0.039914936 0.029119043 -0.027417963 0.07123504 -0.026566051 -0.050369903 0.038789406 0.0036714282 -0.045968283 0.011753034 0.08256817 0.04075102 -0.05169072 0.008253464 0.010751566 0.023199575 -0.020968959 -0.04978284
-0.0105731785 0.005159594 0.030000098 -0.07016312 0.05191488 -0.04725114 -0.06062422 0.07699219 0.031369723 -0.018154263 -0.06929104 -0.01605086 -0.05904165 0.075462885 0.003787376 -0.043403067 0.048804365 0.008344352 -0.049126815 0.027526245 0.0165964 0.03918332 0.00928928 -0.03990353 0.084737726 -0.011550315 0.07035137 -0.08485705 -0.021044485 0.0059615597 -0.027062777 0.083223216
-0.042798102 -0.0045049638 -0.07450497 0.06543339 -0.070118025 -0.0295261 0.06497245 -0.005389631 -0.014457852 0.061165996 -0.047565326 0.059184216 -0.03855842 0.02367676 -0.06033892 -0.02141653 -0.062980965 -0.03772037 -0.038415067 0.060834326 0.0017710254 -0.0742009 0.049454533 -0.06652003 -0.009749666 0.04694798 -0.082340136 0.08541546 -0.0008139685 -0.010543294 -0.033695415 -0.014478415
-0.028888792 -0.018803947 -0.037568755 -0.002637513 0.015530966 0.021750629 -0.08484265 -0.039003246 0.01218155 -0.079291284 -0.014332324 0.018400125 0.069705315 0.07763081 0.039897986 0.07903532 -0.07084134 0.0022304207 -0.041635826 0.019009389 -0.0022477433 0.04212796 -0.06008396 -0.015992433 -0.0074410215 0.038114287 -0.048776545 0.0073309094 -0.075887896 0.035536602 -0.050738517 -0.07729472
0.08463592 0.039205313 -0.06941114 0.066084884 -0.018967316 0.007944256 0.08463613 -0.07847164 -0.059810884 -0.018153466 0.060177393 0.021046571 0.08004036 0.046940677 0.0063085556 -0.034264397 -0.040642586 -0.08063261 -0.06634175 0.05955083 -0.07524785 -0.042127 0.07563754 -0.012865387 -0.074573494 0.07658408 -0.047204897 -0.03071902 0.054995902 0.06539575 -0.029766526 0.009764731
0.06352831 0.022093132 0.018222123 0.05077081 0.08363315 -0.04764005 0.077900834 -0.083737195 0.044636883 0.050125845 -0.05671917 -0.0759415 0.067822345 -0.028628845 -0.058541216 -0.05149485 0.040266998 -0.0043096244 0.043938763 0.06007599 -0.031924985 -0.05739493 0.042427324 0.026794448 0.009445719 0.078169025 0.031957142 -0.06500836 -0.08182666 -0.026184287 0.07779505 -0.08355949
0.0047423244 0.014808245 -0.075882986 -0.036869504 0.07489615 0.029026158 0.06108149 -0.029249758 0.027133062 -0.046897803 0.084403224 -0.07272303 -0.047473613 0.004645109 0.062140606 -0.03383691 -0.030041337 0.046064816 -0.04332307 0.03966231 -0.038676668 -0.02128841 -0.0599652 -0.08086265 -0.016052172 0.017365694 0.05706341 -0.057484128 0.0007713586 0.07398947 0.06465753 -0.010370702
-0.07611372 -0.07406311 0.035599567 -0.024393048 0.04791061 0.03658369 0.03553175 0.02630248 -0.05590138 -0.015446693 -0.037944786 0.045069806 -0.07431702 0.06562365 0.0568315 -0.017224215 -0.01346837 -0.06379178 -0.024324559 -0.03602311 0.012698725 0.08019825 0.01254905 -0.009423479 -0.038508046 -0.0010681078 0.054115556 0.03494186 -0.035858534 -0.0101559535 0.03091222 0.044677295
-0.07671217 0.023682997 -0.08215105 0.065688156 -0.043866884 0.0027287304 -0.017998949 -0.03867205 -0.011050001 0.016469926 -0.0062640086 0.079631545 -0.044882126 -0.0003799945 0.07679366 -0.0562633 -0.015441239 -0.071780205 0.012171835 0.011741832 0.014569268 0.07324945 -0.03754725 0.072611295 -0.03467083 0.056390204 -0.0034844726 0.051421307 0.002740264 0.0010514259 0.044579543 -0.015617162
-0.064562574 -0.07305666 -0.058355913 0.052403577 0.0039405003 0.044060387 -0.014592007 0.07215447 0.055480085 -0.013215803 0.00028975308 0.028999254 -0.042450245 0.07538586 0.053040065 -0.0781102 -0.02509915 0.04835237 -0.038276 -0.0017160699 -0.004673876 0.08008496 -0.056712054 0.07392251 0.0834743 0.0334317 0.012717329 -0.017448165 -0.077972695 0.044529803 0.0823577 0.07451212
0.046568297 -0.033592865 0.0370562 -0.08180632 -0.06497248 0.07256902 0.016120985 -0.06186453 0.067246534 0.005285509 -0.08479017 -0.053854156 -0.042586524 0.0043395087 0.024491243 -0.064230435 -0.07817164 -0.044803824 -0.03779816 0.06382992 0.05332113 0.084761344 -0.074539356 0.056602128 -0.08004057 0.07462231 0.06669838 0.021940045 0.08054318 -0.07945233 0.081737794 -0.053645175
0.01478111 -0.018703952 0.069418974 -0.022144899 -0.07275625 -0.0012137964 0.07786731 -0.056322142 -0.024234768 -0.0012701005 0.026370496 0.04322318 0.012300454 -0.043404497 -0.06361689 0.045307897 0.04759761 -0.022159413 0.01686158 0.0061424896 -0.042909913 -0.009071447 -0.024419665 0.07294042 -0.021939412 -0.053134948 0.004862003 -0.056785695 0.015509538 -0.03781558 0.010600388 0.0022831708
0.04534451 -0.007685885 -0.06561747 -0.07651089 -0.007023841 -0.011634685 -0.060943313 -0.06701942 0.046107776 -0.07363306 -0.00857202 -0.053590443 -0.026487004 -0.08027408 -0.052588288 0.05343496 -0.026217386 0.020415783 0.0845414 0.00121627 -0.08483705 0.03800121 0.009464018 0.005103655 -0.0081072 -0.043831784 -0.0030948669 0.03626652 -0.017623022 -0.057228185 0.074643515 -0.05206281
0.04632277 -0.05599781 0.08348074 -0.05516142 0.07878413 -0.03492591 -0.016235799 0.0661396 -0.05977006 -0.028666195 0.008182146 -0.04136983 0.015436776 -0.0155292675 -0.018552542 0.070131235 0.031094722 -0.06278716 -0.0044552684 0.03488899 0.077028744 0.046244837 -0.08312106 -0.04813388 -0.0079006925 0.042409115 -0.08119315 -0.04389639 -0.08469872 0.013441972 -0.07661575 -0.06388556
0.035253264 -0.06347956 0.0012518167 -0.04935195 -0.062315017 0.040539213 0.036168978 -0.041070525 -0.039918922 -0.021877736 -0.026633099 0.043348886 -0.02595928 0.057759695 -0.04990392 -0.06575745 -0.0047331452 -0.008893542 -0.023822427 0.053500734 -0.0046224818 0.06440965 -0.005687788 -0.00019268692 -0.08052767 0.061674766 0.03853041 -0.06458461 -0.025136195 0.0722513 0.006855257 -0.06866559
-0.050575964 -0.057901807 -0.08202509 -0.004719466 -0.057405215 -0.043404397 0.08162903 0.06458024 0.063658394 -0.07799003 0.08386887 0.042570643 -0.05685792 0.044435106 0.006906569 -0.07094604 -0.060635097 0.0066623464 0.062044315 -0.045886673 0.043719374 0.06775441 0.014467865 0.035444006 -0.038411897 -0.030977804 -0.028101403 0.027540311 0.057568006 0.074993216 -0.009132333 0.069672786
0.07282937 -0.029465463 0.048879378 -0.0078924745 0.04010964 0.016816847 0.073091336 0.0076285154 0.059994377 -0.07595336 0.017249629 0.056498863 0.08079245 0.065244325 -0.0070628896 0.064203896 0.07803611 -0.02866096 0.08218209 0.024191387 -0.07353278 0.004385039 0.030111969 -0.050893873 0.062160455 0.025383651 -0.079584666 0.068870686 -0.074795336 -0.05000191 -0.08032427 0.009149119
0.085049845 0.07884905 0.001995492 0.0076410524 -0.051079586 -0.010098164 0.014616359 0.08256938 0.00837044 -0.07551573 -0.0095749255 -0.059098512 0.030325485 0.018551497 -0.012947872 -0.050808195 -0.06960453 0.08290626 -0.056900177 0.07111754 0.06321151 0.054902136 -0.07757633 0.019684518 0.031487674 0.04058794 0.06782869 -0.077865995 0.05796519 0.030226307 -0.058731176 -0.045555495
0.085499175 0.042317055 0.017000321 0.05013045 -0.03736097 0.04349034 0.052621093 0.026632247 -0.009539309 0.074241415 0.018005285 -0.039690547 0.06480231 0.084067635 0.026220096 0.07735672 -0.01879562 0.035181373 -0.045956723 0.06610179 -0.08174738 0.031502727 -0.013491009 0.07715059 0.06205225 -0.008838006 0.014634288 -0.0253323 -0.07641945 -0.049696833 -0.011495545 -0.050080597
0.052335136 0.03105315 0.071159236 0.037305463 -0.015579152 0.08046001 -0.04162379 -0.07579808 -0.043465517 -0.006018217 0.06704925 -0.055427756 0.065719314 0.032775383 -0.014471133 0.044554446 0.028461084 -0.08627179 0.067977875 0.08124094 0.07104975 -0.07860436 0.06291742 -0.08419899 0.08141317 0.050880864 -0.020047052 0.024841405 -0.04276269 -0.025612855 -0.040890504 -0.07366992
-0.021384183 -0.03406965 0.036798313 0.051500045 0.015086101 0.011872022 -0.033166684 -0.05365292 0.026300529 0.04732202 0.04542557 0.0078724045 -0.021975555 -0.043705177 -0.006727626 0.0019975312 0.072546124 -0.07227685 0.058393147 0.026349002 -0.036425374 0.023531877 0.08113363 -0.039044186 -0.068247646 -0.062035393 0.051117517 0.08208709 -0.07206953 0.06555768 0.049614977 0.04634405
0.060059972 0.029088354 0.028590143 0.02355092 0.08308258 0.05662203 -0.031281058 0.056592744 0.03776624 0.07296143 0.041646693 -0.011978325 0.010971539 -0.07763949 0.017089685 -0.0025229147 0.0685262 -0.0741157 0.036408674 -0.03893605 -0.0477255 -0.029131398 0.059870258 -0.05764407 0.029299777 0.02958859 0.059106212 -0.051303297 -0.03424137 0.03223196 0.057078924 0.07771251
-0.0749725 -0.028325599 -0.022389427 -0.0020210159 -0.07560209 0.031397022 -0.024212219 0.05031682 -0.00056386867 -0.06445614 -0.077408046 -0.05307424 -0.07961119 0.023903556 0.077116355 -0.044073883 -0.006905512 -0.027073508 -0.06596805 0.036503978 0.030459177 -0.05333085 0.04629781 -0.042185396 0.0617704 0.021423897 -0.050634217 0.037331894 0.08262184 0.0672367 0.0015540519 -0.01838088
-0.07725718 -0.037804596 0.020172214 0.016263977 0.03018677 -0.06749232 0.04247868 -0.014624758 0.03282342 -0.06330227 0.00079033995 0.07399407 -0.0734164 0.09219842 -0.044854853 -0.024887325 0.043819543 0.047706284 -0.06111792 -0.018026657 -0.016081776 0.029001681 0.06727882 -0.032011356 0.025796384 -0.02835649 -0.026312102 0.04285387 0.05113093 0.017751593 0.067372166 0.038563482
0.0038183057 0.009982393 -0.013616112 -0.03933175 -0.07101875 -0.016826373 -0.0029491389 -0.034080546 0.018529208 0.06767547 -0.0055454737 0.01906124 -0.04399686 0.085898325 0.037920672 -0.046827 -0.025338184 -0.026063347 -0.08636768 0.028360026 -0.03526206 -0.061469227 -0.0596755 -0.05085693 0.08692906 0.035010412 0.07359768 0.0719797 0.024515998 0.023336882 -0.022411916 0.08479951
0.011780869 0.016822727 0.09759781 -0.001414326 0.0143441465 0.083059736 0.0798757 0.028648237 -0.01414994 0.059557237 -0.011894392 0.048291747 -0.05931681 0.029757056 0.045019004 0.037504967 0.06367167 -0.1103484 0.023305653 0.053127404 0.052152857 0.066809684 0.004732868 -0.011496154 0.0827071 0.07721842 -0.072009 0.035236962 -0.02988979 -0.05392423 -0.014287281 0.09059948
0.037287492 -0.06610589 -0.02232269 0.031331763 0.0371781 -0.033234783 -0.03842999 -0.083747625 -0.026876658 -0.060016282 -0.021345677 0.07481512 -0.05758102 0.034296036 -0.010448887 0.06443808 -0.026608784 -0.063036054 -0.055004045 -0.072319485 -0.026004752 0.013268625 -0.02961273 -0.009800931 0.016449353 0.06269931 0.03128184 0.0011735411 -0.06253659 0.08782936 0.041043907 0.05998577
0.030849138 0.06677931 -0.066492185 -0.03289687 -0.0045933467 0.06906099 -0.06399232 -0.06859804 -0.06499433 0.034137093 0.06467578 -0.010144548 0.007284714 -0.053620912 -0.056750458 0.011263297 -0.07045861 0.045211878 -0.060737234 0.054123025 -0.0051423903 -0.085814245 0.08110756 0.06769727 -0.021568913 0.043030888 0.07329614 -0.04638681 0.052252453 0.052940313 0.023061493 0.035601515
0.049887843 0.027495367 0.010332174 -0.03461561 -0.007042522 0.006742741 -0.09489614 0.006218098 0.021891108 0.0068637873 0.016410362 -0.010973114 0.0054871156 -0.051572517 0.042499907 -0.02747143 0.056730963 -0.0023407675 0.014472413 0.030494137 -0.006859578 0.06376433 0.08663483 0.011175975 0.07816517 0.020714976 -0.0019369673 -0.013317136 0.081680246 -0.054667104 -0.02419981 -0.041140713
0.045083456 0.009459208 -0.058846403 0.086640574 -0.05638224 0.057920054 0.061767876 -0.00027229384 -0.058329377 0.06296592 0.027257271 -0.023772357 0.060880896 0.01469837 -0.013849681 -0.026235739 0.006112564 0.0638335 0.083653115 0.08699726 -0.0021587359 0.0048632836 0.051676974 0.008560356 0.07345742 0.08386802 -0.02011907 0.056759857 -0.06664637 -0.05652409 -0.07078456 0.010909111
0.06939022 0.040620208 -0.027840968 -0.018104132 -0.026991623 0.047034148 0.078117654 0.0721605 0.052610923 -0.002413318 -0.051825684 0.008411735 0.0031807523 -0.02183466 0.056460395 0.035052113 -0.05978294 -0.0018863122 -0.02788448 0.06729849 0.04893647 -0.07246986 0.004884796 0.0013564654 0.045052767 0.0078029986 0.032126363 -0.065049656 -0.08036681 0.009900428 -0.09467298 -0.0859463
0.029624512 0.08476601 0.04820377 -0.074151844 0.0113781635 0.040829416 -0.0038924064 0.07488227 -0.006225036 0.033317953 0.041524313 0.04290063 -0.05240345 0.05562889 -0.082599364 -0.022481296 -0.035755817 0.0372567 -0.0011647752 -0.07997441 -0.03666059 -0.0335935 -0.0686828 -0.06545319 0.03862716 -0.057595495 0.040905364 0.0052855853 0.0711759 -0.064168066 0.060584996 0.066217564
-0.01124288 0.023268485 -0.021996634 0.029863942 0.048497263 0.02520329 -0.07058757 0.05496359 0.06330197 -0.005285209 -0.008705357 0.051137447 0.021534374 0.037457198 0.041795507 0.027094772 -0.048746947 -0.009352676 -0.037950784 -0.08598536 0.071701124 0.0073566334 0.07920995 -0.044995878 -0.03150958 0.02645655 0.06544183 -0.07037713 -0.07458906 -0.077428386 0.021842979 0.022402707
-0.060667656 -0.039799105 -0.054050177 0.017164499 -0.08368546 -0.061706346 0.03303025 0.07115229 0.021180777 -0.030634154 0.012830783 -0.013603095 -0.0419738 0.056849208 -0.08599687 -0.03375055 -0.07174762 -0.020987185 0.019074207 -0.05783234 -0.06062233 -0.006629315 0.084192574 -0.08467145 0.021406798 0.08388581 -0.0118307 -0.057895344 -0.040099144 0.07368789 -0.01088546 -0.0068643023
0.08019234 -0.05678769 0.037668962 -0.026496762 -0.0763505 0.036196865 0.08029071 0.0011453439 -0.0031201737 -0.061321557 0.032837167 -0.08259067 0.025021441 -0.050034024 0.05170053 0.012495095 -0.025917858 0.06010381 0.007454853 -0.020571385 -0.062062748 0.0052212244 -0.031507935 0.04893836 0.0036537673 0.00621548 -0.029519036 0.03628054 -0.023738014 0.030179638 0.0050084703 -0.08059057
0.07212404 -0.027743112 0.075712144 0.057529073 -0.046374727 0.06637233 0.003414268 0.077213086 0.050541177 -0.074012555 -0.026404114 0.025954178 0.05346527 0.045891535 0.04454266 0.05988151 0.04778524 -0.06705625 -0.068690985 -0.020517321 -0.07030329 0.06890363 0.030118728 -0.063248314 0.0043221554 0.02518634 0.008524624 -0.02963738 -0.020092959 0.036404718 -0.011267129 0.07206304
-0.037793398 -0.06905802 0.018628145 -0.026583645 -0.015888484 -0.025278596 0.004759759 -0.03858399 -0.06825591 -0.005318395 0.016826026 -0.06174588 0.005706617 0.06788079 0.06887148 0.037348866 0.025285175 0.055057652 -0.08633819 0.020325005 0.06681238 -0.08143569 -0.0485547 0.04967015 0.04700835 0.04808812 0.07103222 -0.065266676 -0.035969827 -0.02118905 -0.01985216 -0.0011325098
0.06498309 0.0077766553 0.08056349 0.03750442 0.052696414 0.028133705 0.06493192 -0.07269995 0.04438875 0.013397671 -0.0475218 0.07560321 0.05255402 0.0730763 0.029915787 -0.06714746 -0.0010576993 -0.056206673 -0.076801755 0.067881756 0.08334219 -0.047924552 0.004860878 0.071947314 -0.04251579 0.07693531 0.027553134 -0.034969274 -0.017353505 -0.07726382 0.039004758 -0.017990671
-0.023541935 0.08239231 0.082721375 -0.0066958293 0.036973074 -0.005871415 0.06972658 0.06531479 0.03484612 -0.00467097 0.04072682 -0.07952678 -0.06322857 0.024707742 -0.04684191 0.0050550625 -0.0015419647 0.015862837 -0.042987537 -0.026402898 0.018684916 -0.0028921813 -0.04783648 -0.07584772 0.00011859834 0.027173996 -0.055207074 0.07979863 -0.061716817 -0.014879003 0.057427518 -0.05611414
0.014178745 0.003714718 0.054022662 0.061317243 0.077138014 0.03706021 -0.08245011 0.069612436 -0.03276886 -0.012547031 -0.054540917 -0.06983103 -0.058774017 -0.07449699 0.037623487 -0.08516796 0.075199135 -0.00866469 -0.014957279 -0.036927033 -0.064152524 -0.00069036335 0.017383434 -0.01329872 0.047524907 -0.02885003 0.08074994 0.021392345 0.045408748 -0.060899705 0.036853164 -0.045062013
0.033267006 -0.0738014 0.014472447 0.0007649809 0.018357873 -0.08258262 -0.06865117 0.07966436 0.0654592 0.018594123 0.05045732 0.056294926 0.045379497 0.085733004 -0.07874908 -0.00069880486 0.0694189 -0.056752816 0.0075976476 -0.0740267 -0.014508694 -0.016480617 0.07822289 0.024550997 -0.023623545 -0.015193433 -0.026727572 0.08453498 0.07994714 -0.079009585 -0.052657228 -0.065325245
-0.043481592 0.027462505 0.022949949 -0.081733 0.049011312 -0.03134723 -0.085571736 0.002135545 0.07078526 0.04453876 -0.029450212 0.02499576 -0.07336579 -0.044552624 0.03407868 0.03967447 0.06390498 -0.041873593 0.035628207 -0.069318086 -0.010851264 0.006128013 -0.03450159 -0.053998083 -0.07498058 -0.08055709 -0.07514649 -0.030568287 0.025760047 -0.02504769 0.044864856 -0.045358457
0.03168781 -0.059160046 -0.046524655 -0.028044056 -0.07484925 -0.08290106 0.008459844 -0.07830066 -0.05662257 0.06681868 0.0032046735 0.024989836 -0.03370218 -0.034163095 -0.033988766 0.07797345 -0.038973376 0.07116196 0.063402064 -0.07446645 -0.05720911 0.023807399 0.014559209 0.066559814 -0.0016946197 0.0772965 -0.083710924 -0.059065286 -0.034268793 -0.059694618 -0.014692694 0.049890824
0.05155524 0.0038684455 0.0785873 -0.06812655 -0.015686527 0.015128126 0.061304253 0.043327224 -0.029686878 -0.041203566 -0.081483014 -0.033728853 0.07457568 -0.0126432665 0.066573724 0.019885989 -0.06376788 0.003563989 -0.0675193 0.02366584 -0.008800839 0.07170919 0.07180812 -0.041887093 0.044446073 -0.05632975 -0.08277255 0.026695674 0.0092058135 -0.06810842 -0.004916619 0.047778416
-0.0670022 -0.07933477 0.024744399 0.036197156 -0.072664954 -0.02826986 -0.06222381 -0.008781048 0.07104622 0.07411425 -0.050855756 -0.05290314 -0.05686412 -0.06566007 -0.064298324 0.051789723 0.020699296 0.08470771 -0.07543333 -0.042618077 -0.047398396 -0.043449637 -0.021236436 0.062355533 0.05065871 -0.006997436 -0.038474374 0.041467715 0.011482493 0.06277539 0.074774794 0.037436686
0.030300977 0.040744264 0.005561479 0.022434082 0.01533742 -0.06336426 -0.07367754 0.03463949 -0.061597668 -0.0028038046 -0.044611588 -0.03733422 0.05627252 0.04051572 0.07427049 0.042995982 -0.08048006 0.042266347 -0.074939616 0.013003843 -0.0838981 0.037158377 -0.0081650475 0.016859058 0.02720056 0.08381109 0.002067748 0.043188874 -0.066580854 0.04409181 -0.014029129 0.021862727
-0.039319232 0.06466222 -0.019078562 0.0070530013 0.07967655 -0.08485826 0.07236702 0.08410015 0.023277575 0.016536145 -0.057700608 0.05159512 -0.07889444 0.026207563 -0.0048268302 -0.066150226 -0.05188265 -0.060306765 0.0441959 0.009121414 -0.020029627 -0.055059895 0.025175648 -0.049941346 -0.0017654869 0.0024285058 0.08038964 -0.013433372 0.06933692 0.0021508285 -0.038945947 0.025525589
0.041623 -0.037291225 -0.07169775 0.026582478 0.032249086 -0.016173013 -0.016629629 0.03941162 0.058678478 -0.0853543 -0.06080169 0.07313847 -0.07720429 0.020932864 -0.07782433 -0.009685068 -0.019720858 0.003940213 -0.066960074 0.07423364 0.025744686 -0.080415666 0.08389713 0.05210704 0.07581671 0.016245779 0.010458182 0.004005565 -0.0033779375 0.026538024 -0.08303696 0.016233737
0.032084696 0.035767198 0.0034546284 -0.046056908 0.05853067 0.029776607 -0.002378911 -0.024145925 0.0026841906 0.08391205 -0.077942535 -0.052709006 0.009375033 0.031872496 0.07988826 0.031274434 -0.03998798 -0.095692106 0.03434537 -0.0067754467 0.015726607 -0.041393276 -0.027551522 0.042375974 0.048449017 0.081014805 -0.05544204 -0.06804788 0.010495645 0.08562393 -0.08435124 -0.0077516497
-0.026302626 -0.06841342 -0.00026118808 0.040513895 0.073022336 -0.059583206 0.012288201 -0.039093517 -0.021772115 -0.033582404 -0.08299767 0.021604344 -0.046487752 -0.017263161 0.005603625 -0.06254335 -0.012865542 -0.03975637 0.010781335 0.069101356 -0.06469424 -0.034558415 -0.023700608 -0.09246479 0.05052039 0.00038667794 -0.036654934 -0.01942674 0.066125795 -0.022884322 -0.07035166 -0.01296734
-0.044379506 -0.062803224 -0.03296919 0.06249658 -0.011339223 0.101872094 -0.00017831655 0.06389864 0.00346037 0.08622613 -0.0814857 0.041824944 0.1186695 0.043649156 0.02594929 0.007351086 0.047845017 -0.10498397 0.031024406 0.008914423 0.0060762474 -0.034490116 -0.010168404 -0.06341793 -0.029893693 -0.07540897 -0.020015595 0.0098097185 -0.024253832 0.06040194 -0.089248426 -0.05256724
0.039266553 -0.03129293 0.13044 -0.0028571566 0.026412226 0.086761 0.06781457 -0.018830646 -0.10060108 -0.057203155 -0.091263995 -0.053983513 0.1532553 -0.05413668 -0.07877631 -0.012573021 -0.036494505 -0.001936677 -0.05444298 0.008680686 -0.11343727 -0.041581202 0.06864307 0.008520859 0.073983796 -0.079575844 0.043888103 -0.11253073 0.04958493 0.084997825 -0.058007117 -0.070087306
0.049833175 -0.020665647 0.08839429 0.08182306 -0.056773383 0.0456538 0.017725445 0.017142667 0.06607705 0.0168963 -0.17166965 -0.052385163 0.12748924 -0.03390856 -0.10318819 0.026188543 0.08234929 -0.0145563055 -0.06983922 0.068649404 -0.06751207 0.048032176 0.054120407 -0.1280461 0.018516598 0.046680223 -0.13114716 -0.04943206 0.068816796 0.08374541 -0.01706049 -0.051017184
0.10068667 0.024457311 0.14281544 0.008428337 -0.06935938 0.043917693 -0.06755638 -0.01351567 0.04111681 -0.07230758 -0.09242053 -0.08656737 0.035650745 0.05900287 -0.083763 0.013379297 -0.00030552296 -0.0752956 -0.0009242974 0.04895843 -0.1581498 -0.023747861 0.09581056 -0.031166531 0.08529091 -0.084033705 -0.051847164 -0.043322183 -0.06548814 0.13601615 -0.15077214 0.012753038
-0.03777963 0.02144203 0.066963665 0.07483655 -0.013921123 0.03079998 0.043818366 -0.026222233 0.023113232 0.05979504 -0.19731697 -0.039571438 0.053563774 0.12040156 0.020486604 0.008697122 0.027978351 -0.05206046 -0.020151861 0.06296002 -0.1295751 -0.07636453 0.02322162 -0.15626277 0.07924816 0.037402134 -0.092436254 -0.07776971 0.021059835 0.110110864 -0.15239266 0.0024639321
0.022302467 0.10144462 0.015509147 -0.06501582 -0.0046907756 0.079327434 0.042477928 0.06556665 0.03335882 0.021686278 -0.023736509 0.039991323 0.20501216 0.09572272 -0.058677096 -0.044397164 0.03267758 -0.08021767 -0.05511739 -0.05419053 -0.10949414 -0.11312126 -0.01810202 -0.1125166 0.06331858 0.0003686205 -0.08972239 0.027513508 -0.03597737 0.135048 -0.02043311 0.031041546
0.07174769 0.04221053 0.07889001 0.00038934362 -0.09752365 -0.021774212 0.04412932 -0.022246504 -0.051269725 0.08352874 -0.15221196 -0.08926736 0.108040035 0.0165162 -0.08966134 0.07058383 -0.009913246 -0.112587646 -0.09048157 0.02183358 -0.12440934 -0.025997577 0.110380314 -0.044332366 0.07861431 0.1106744 -0.06953311 0.021329908 -0.064948194 0.1322466 -0.1292977 0.1196784
0.10849685 0.031952064 0.11576497 0.019237516 -0.02127126 0.08175567 -0.0046559996 0.049699515 0.041338615 0.06222208 -0.031616397 0.009128235 0.02173014 0.01119976 -0.08957036 0.03101407 0.032827534 0.0030042962 0.0051389774 0.017395396 -0.14304589 -0.033770487 0.04066253 -0.029257381 -0.072811864 0.023061398 -0.10006217 0.07005422 0.032828428 0.040625073 -0.032322567 0.002980713
0.07470713 -0.05659787 0.02777613 0.015801864 -0.065106735 0.0497573 0.030340834 -0.06720128 -0.09696159 0.11219039 -0.08591098 0.030248081 0.010577799 0.14126314 0.02100942 0.020202419 0.10033461 -0.07445933 -0.005044995 0.056738514 -0.11676297 -0.023485756 0.023862269 -0.065988496 0.045176886 -0.026977288 -0.07557503 0.04316644 -0.025455208 0.107140034 -0.017007304 0.14359082
0.13670762 -0.010829271 -0.027014535 0.072337046 -0.09690246 0.07681432 -0.07335275 -0.07957636 -0.0066329935 0.041042518 -0.06455584 0.010357519 0.011726494 0.07092376 -0.055664465 -0.07795982 0.01555283 -0.032628085 -0.07365308 -0.08086494 -0.15435188 -0.08344028 0.06547668 0.028887184 0.010664637 -0.089429565 -0.048531167 -0.07688328 -0.10383598 -0.008037628 -0.07664717 0.025768545
0.05470439 -0.03881504 0.08447283 0.023961496 -0.079237945 -0.026557164 -0.030073045 0.05701194 -0.023330873 0.035039984 -0.063728504 0.0031515737 0.0351046 0.053488284 0.03314036 -0.021766862 0.11529306 0.047938474 0.008775369 0.0023322927 -0.11679707 0.03293362 0.11889458 -0.01054459 -0.027851585 0.034373406 0.034227297 0.010041764 0.00094672345 -0.027836427 -0.029800348 0.06507457
0.056825064 -0.047256395 0.048235342 -0.049930833 -0.10147031 0.09273231 0.0060946634 -0.034046263 0.0058838106 0.034294758 0.02147076 0.035041634 -0.04506497 0.08670818 -0.07829907 -0.011295673 -0.0009881032 -0.07533883 -0.0511866 -0.024846394 -0.025794711 0.0709839 0.015623932 -0.10994313 0.058832273 0.060312748 -0.047535498 0.02481377 0.048750564 0.052173566 -0.088071644 -0.0010719665
-0.026661254 -0.07074345 -0.04160342 -0.068419926 0.021797849 -0.013550524 0.0254998 0.040370714 0.066747546 -0.004974917 0.042306907 -0.06933075 0.002802154 -0.0055834716 -0.040363465 -0.048538342 0.032990016 -0.013701851 0.020616766 -0.025777165 -0.012522847 0.021571878 -0.02981089 -0.021556271 -0.009830652 -0.0050116717 0.0024112645 -0.08568118 -0.060141083 0.004520359 -0.014570168 0.08762319
-0.017912807 -0.03709876 0.053252757 0.007027034 0.05526069 0.048688687 0.067762725 -0.06066752 -0.054041695 0.021277314 0.027861472 -0.063591324 0.010428394 0.092258446 -0.055750005 -0.009026846 -0.07076561 0.040394742 0.020567242 0.034449205 -0.019717576 -0.06370922 -0.059369843 0.006263484 0.052433863 0.04222411 -0.087180905 0.012934781 -0.022456864 -0.052257985 -0.047363438 -0.03924908
-0.016336503 0.0031317566 0.08575878 -0.039163243 0.08154702 -0.03338499 -0.023859551 -0.06179472 0.009059753 -0.0057337796 0.044984363 -0.03698114 -0.033659957 -0.072977714 -0.07659784 0.020114683 0.027409207 -0.08455766 0.034868475 0.083452515 0.06959332 0.055742525 0.055959523 0.052819274 -0.068450615 0.050643712 -0.025888912 -0.03632562 0.009173271 -0.071373746 0.04395294 -0.05258212
-0.0299911 0.062169764 -0.006466478 -0.053485576 0.07100146 0.0033088953 -0.08328662 -0.034311812 0.024216058 -0.030439157 0.03326766 -0.031167159 -0.06010475 -0.053866684 0.047311835 0.06620879 -0.011548265 0.07075937 0.07305956 -0.022718994 0.020224018 0.0605367 0.042279575 0.03050361 -0.03608832 0.017320642 0.06829463 0.008099156 0.03411424 -0.0794244 -0.01599854 0.04667136
0.039862603 0.04455997 0.017368719 0.030572267 -0.0713319 -0.07196726 -0.07991644 -0.032021966 -0.0323289 -0.02071273 0.019775128 -0.05224777 -0.039155353 -0.064268015 -0.024763888 0.008003042 -0.07456698 -0.007427961 -0.03634415 -0.083840065 0.00809502 -0.015108306 -0.03870105 -0.06002376 0.083832264 0.003792592 -0.036677253 0.041769624 -0.03236257 0.057262994 -0.048874095 0.07837421
-0.07998921 0.049866877 0.0032588914 0.014389031 -0.042154294 -0.08184009 -0.0003804639 -0.02313111 0.068707265 -0.068566106 0.031529166 0.014461853 0.016067013 0.059951358 0.036138885 -0.05790571 0.023556963 0.014165968 -0.023550171 -0.07835005 0.002677478 0.06857679 -0.02508083 -0.06778409 0.014783978 0.050973468 0.033514626 -0.07758117 0.075961195 -0.011795662 0.057596408 0.009190619
0.058400564 0.047376238 0.04025177 0.012065403 -0.06548369 0.009950943 0.047903754 0.08201089 0.064330794 -0.07229583 -0.045988504 -0.03867309 -0.04335987 -0.018571943 -0.017244108 -0.0010516495 0.056795366 -0.052837074 -0.023481417 -0.005466193 0.012769543 -0.07761732 -0.0523228 -0.045105744 -0.07889103 0.078837134 0.06145642 -0.075243436 -0.023315944 -0.03655748 -0.056736074 -0.011688553
-0.04236957 -0.0075328574 -0.016663045 -0.06500867 -0.0264997 0.059624143 -0.061442498 -0.023231179 -0.050421447 -0.057719134 0.015483208 0.0032240972 0.0020953715 0.060652845 -0.075575404 -0.044288017 0.04544588 -0.037663944 -0.011859901 0.061875828 -0.07608637 0.061180137 -0.04308896 0.040411286 -0.07122798 0.060709856 0.04114186 -0.044178516 -0.0006777495 -0.015846953 -0.0054171085 0.07074233
0.06481659 -0.07577885 -0.042806912 0.048032902 0.040577896 -0.080146596 -0.067360364 -0.04862491 0.020022728 0.050123088 -0.035045102 -0.058304206 -0.076768205 0.062277384 0.024990119 -0.07970044 0.01728142 -0.008561365 -0.012422994 0.06614017 0.078349955 0.066804715 -0.008849405 -0.046119574 -0.005329706 0.07461368 -0.07322837 -0.04456904 0.0019551665 -0.03427004 -0.08388556 -0.076553315
0.030545501 0.014978972 -0.08346069 0.0038799772 -0.04827912 -0.052722216 0.06673808 0.062229406 0.062251773 0.057692565 -0.01711099 0.08527494 -0.029926501 -0.014256206 0.060592387 0.010630589 0.035129525 -0.03299972 0.05469141 0.052804194 0.030614547 0.031037034 0.041347243 0.078663394 -0.05455722 0.03662347 0.06436466 -0.061359383 -0.022390068 0.08471511 0.02123908 0.06917339
0.08325375 -0.0043373215 0.008289675 -0.08308027 -0.036226295 0.060886327 0.007064986 -0.0068192687 -0.0061937063 -0.06627018 -0.03845764 0.0019030124 0.031603727 0.020650016 -0.017910434 0.021334525 0.06460353 0.048100054 -0.0667243 0.044448942 0.056186244 0.07526579 0.056589045 0.06292876 0.0031654339 0.07404485 -0.070357114 0.009106631 -0.026438683 0.0063284636 0.011553315 0.048997898
0.026438337 0.06114949 0.0057624895 -0.051208425 0.061601244 -0.077450454 -0.0185045 -0.021444801 -0.059727747 -0.038289167 0.030302243 0.011747198 -0.06865627 -0.043239772 -0.016337382 0.03590821 0.034321386 -0.06280936 -0.049962055 -0.044963107 -0.013552806 -0.0837559 -0.026566928 0.07114555 0.047543015 0.027432218 0.0049356082 0.06452566 0.043409992 0.034858588 0.031970024 -0.055158313
-0.06060709 -0.06364213 -0.06413459 0.070539646 -0.07325185 -0.021504896 0.07390806 -0.073804796 0.02958164 -0.057826523 -0.039587345 0.070223615 -0.05532463 0.034957808 -0.0056431526 0.083091006 0.02267929 0.0323156 -0.050030116 0.03985058 -0.0841958 0.08141369 -0.022353392 0.03822646 0.039315414 -0.012101637 -0.0567867 -0.028505888 -0.025327297 -0.043125346 0.05285354 -0.06414047
0.023641571 0.037105694 0.0002437249 -0.064661086 0.007824652 -0.009946915 -0.0446883 -0.02365015 -0.048411395 -0.07822829 0.060509108 0.03349653 0.01702421 0.08796134 -0.036456954 0.07539845 0.081480205 0.010560291 0.053238936 0.0055174856 0.037492238 0.044606026 0.007838134 -0.06877823 -0.083680205 0.018879222 0.04083469 0.025773311 0.04102312 0.042182207 0.06657834 0.029150207
0.035977148 0.035311684 -0.061316196 -0.04499907 -0.08818992 0.028584026 -0.026833711 0.023261622 0.03359817 0.026072055 -0.00332403 0.030787993 -0.01130504 0.02488857 0.05493149 -0.06859857 0.005472588 0.0030180146 -0.074500434 -0.04642782 -0.08624384 -0.025056738 -0.01997391 -0.13709345 -0.06848164 -0.071765795 -0.112506546 0.05580239 0.017153291 -0.025004994 0.054840833 0.018504295
0.08691065 0.10354425 -0.018651826 0.009246146 0.041683927 -0.02006696 -0.021006616 0.012985377 -0.037540864 0.039673124 -0.010273179 -0.021404693 0.061579302 0.0407877 -0.024307644 -0.05113898 -0.04093262 -0.07427346 -0.019648362 0.10218663 -0.090066895 0.024458444 -0.0053707235 -0.10261277 0.05949299 -0.08598714 -0.07423247 -0.047302857 -0.09136156 0.100892134 -0.028111923 -0.004396446
0.11469786 0.12211081 0.07423931 0.0040776925 -0.0128975175 0.08054731 -0.06921359 -0.01368848 -0.069219515 -0.039360438 -0.09226596 -0.0882891 0.12746745 -0.041140422 -0.085531704 0.008842892 0.08133512 -0.1353018 0.062011078 0.03257413 -0.040035598 0.0006403814 0.020211399 -0.18019222 0.046022005 -0.018987246 -0.120890036 0.10004718 -0.09654486 -0.020334452 -0.1063466 0.003397816
-0.01570617 0.083495565 0.030613216 0.008651544 0.09763338 0.097405195 -0.06734499 -0.0004884388 -0.07929403 -0.0024694281 -0.13466768 -0.036708735 0.1071498 0.0037460432 -0.039489653 -0.008627942 0.023142112 -0.1438843 -0.079020076 0.062515214 -0.02150279 -0.14495637 0.057269167 -0.14738992 0.058533143 -0.13212681 -0.080265135 0.051476356 -0.030770995 0.03461202 -0.12940179 -0.03304376
0.05272646 0.09331724 0.07619848 -0.008567684 -0.020981897 -0.019349577 -0.025784649 -0.042581137 -0.10003898 -0.09042456 -0.05281062 -0.07021872 0.117606 -0.16246907 -0.09145825 0.09247831 0.057004638 -0.071604036 -0.04356462 0.21074244 -0.04048539 -0.0688214 0.10827368 -0.2759772 -0.019273754 -0.12670797 -0.099292405 0.114848346 -0.08956779 0.060467962 -0.22820464 -0.19512652
0.044668723 0.003956425 0.102663204 0.040134106 0.06956896 0.0075377296 -0.0020598995 -0.056877244 0.036135294 -0.07989321 -0.14267768 -0.034183316 0.1550793 -0.0135672605 0.010531891 0.048323262 0.06611867 -0.14261872 -0.15963888 0.1449294 -0.18003093 -0.13208993 0.094321065 -0.29245576 -0.043943115 0.007922059 -0.14416246 0.09598541 -0.010651874 0.18019246 -0.23636015 -0.17730875
-0.03413149 0.059762288 0.08985794 -0.018169226 0.087063394 0.048192102 -0.13160782 -0.0039150743 0.06220029 -0.0078110676 -0.14024894 -0.1615299 0.2716866 -0.019611362 -0.14410327 0.0816519 0.21836029 -0.23588473 -0.120612755 0.23466618 -0.10150879 -0.26970413 0.15295863 -0.24629913 0.027434804 -0.09711286 -0.25154436 0.04257081 -0.11696935 0.06683263 -0.30748504 -0.18502657
0.0101317875 0.07224751 -0.056688126 -0.008035667 0.05298116 -0.052294765 -0.114456154 -0.049355593 0.042812973 0.03662925 -0.068471 -0.25260842 0.12318351 -0.08105234 -0.13752958 0.046397887 0.10670745 -0.20169331 -0.25375235 0.15220161 -0.08750895 -0.23398827 0.01887852 -0.28059867 -0.12737638 -0.045909584 -0.2084459 0.08907479 -0.06756868 0.12438474 -0.38872415 -0.035464168
-0.019405484 0.026288206 0.041136462 0.11716351 -0.0320328 -0.12833965 -0.13727371 -0.032365367 0.041170623 0.057596013 -0.10560591 -0.22496954 0.19635876 0.07331099 0.045434285 0.16554524 0.09900214 -0.11087233 -0.2262346 0.116493024 -0.13278416 -0.23389049 0.08747584 -0.19511876 -0.08098416 0.057226595 -0.17751504 0.06682944 -0.10002469 0.117751025 -0.33762407 -0.07351036
0.05941692 -0.024510846 0.033092596 0.0017950045 -0.04958277 -0.11208965 -0.162729 0.010129183 0.07095759 0.06577272 -0.037195336 -0.10231599 0.10293036 0.06458148 -0.104223475 0.04787829 0.21481965 -0.06751281 -0.23240066 0.11930302 -0.10289867 -0.24251229 0.10300904 -0.15295792 -0.10622428 0.027160218 -0.19034168 0.123900265 -0.064985834 0.17023566 -0.27281785 -0.11212042
0.03524509 0.05909297 0.009806884 0.015024466 -0.11813747 -0.023498548 -0.13855721 -0.07999463 0.069714464 0.14557008 0.013123522 -0.10888867 0.12186309 0.12367523 -0.09098156 -0.05168889 0.18526821 -0.03787098 -0.16217595 0.1861173 -0.06222346 -0.17543764 0.063306175 -0.11181537 -0.022747012 -0.1047317 -0.090731286 0.11404079 -0.17769712 0.2792628 -0.12252448 -0.018094698
0.03774297 0.1482479 -0.026623543 -0.041161176 -0.010821772 -0.02980694 0.027449114 0.0028529048 -0.036363468 0.19924419 -0.011645872 -0.192837 0.11952826 0.24399975 -0.0013786759 -0.12689605 0.12105354 -0.075961694 -0.14731736 -0.031796433 -0.123172365 -0.06353265 0.028409379 -0.10577046 -0.07260681 -0.07266484 -0.15733023 -0.007119249 -0.045164034 0.055796046 -0.20951173 0.19830506
0.22918536 0.09287278 -0.049980458 0.016623667 -0.15871058 -0.12286651 0.090259604 -0.10313679 0.013778574 0.06771751 0.011353742 -0.10542573 0.024276536 0.15043734 0.02393565 -0.107027374 0.05581877 0.019402713 -0.0221097 -0.09042369 -0.21650827 -0.17188044 0.047798 -0.10557637 0.021715704 -0.08501392 -0.121472575 -0.031182026 -0.10069463 0.08121739 -0.21450117 0.17653511
0.05880567 0.020885423 0.011910124 0.07905702 -0.090403065 0.023669185 0.08695856 -0.11110589 -0.042962477 0.14874141 -0.10260896 -0.01739671 0.021417653 0.10600174 0.05124506 -0.16547689 -0.026028994 -0.032529622 -0.059338327 -0.07373663 -0.07004971 -0.0090911575 0.11834379 -0.053895026 -0.0058081783 -0.09766107 -0.018534042 -0.020772636 -0.015882023 -0.00252155 -0.15348528 0.19207908
0.15234388 -0.0072938576 0.105545014 0.023327725 0.025205843 -0.01595005 0.08040628 0.0098025985 -0.07384763 0.12901177 -0.10972021 -0.08096228 0.018742802 0.14558585 0.09140638 -0.12984966 -0.05254186 0.060625102 0.057535022 -0.10373334 -0.08517217 -0.084972516 0.09118736 -0.039865352 -0.0014336925 -0.050825864 -0.082689784 -0.08214122 -0.035682797 -0.058450423 -0.101519234 0.09632573
0.16347261 -0.06249823 -0.0395825 0.021761945 -0.11620668 0.02041715 0.035627943 -0.10422656 -0.00803105 0.038653683 -0.08062674 0.05157134 -0.070274584 -0.034323376 0.07384104 -0.11842052 -0.06927075 0.06724472 -0.07498979 -0.015679408 -0.15026188 -0.027964795 0.041999847 -0.067645356 -0.008244756 0.055180922 -0.09899681 -0.03187545 -0.010677858 -0.024988221 -0.08362502 0.0547861
0.094239116 0.06264973 -0.02919973 0.022448864 -0.015196712 -0.0072564213 -0.034252398 0.026918674 0.013719294 -0.0038207597 0.03826467 -0.008801246 -0.017369647 0.032237317 -0.0590979 -0.10673098 0.045531753 -0.049749285 0.018720986 -0.052941196 -0.13471554 0.015440987 -0.01871038 -0.067041114 0.052852646 -0.07687256 -0.012136136 -0.13766624 -0.052404873 -0.0021488082 -0.008548836 -6.418962e-05
0.047760356 0.072299935 0.0370679 0.018994423 -0.069966674 0.033389386 0.06020365 0.045732234 -0.009284713 -0.053552866 -0.07580075 0.050002854 -0.0056601358 -0.075561516 -0.06884373 0.021324482 -0.035252508 0.06296684 0.07362061 -0.06110179 -0.022062125 0.033509422 0.025769463 0.055446517 0.08026448 -0.02576576 -0.0033024868 -0.061045446 -0.053984515 0.06234965 0.035540164 -0.0419445
0.039941195 -0.013912003 -0.07962122 0.057885155 0.08612465 0.0417982 0.0699831 -0.0625205 -0.046785742 0.02969099 0.030718647 -0.028937962 -0.05874833 0.013240356 0.030286597 0.03067193 -0.07044938 -0.014701703 0.08068479 -0.027693031 0.022139285 0.011034409 -0.05413514 0.08051259 0.08501239 0.025704289 0.050587356 -0.049870983 -0.042963892 0.07240852 0.069085784 -0.08031832
-0.08038272 -0.05673668 -0.048688333 0.034617074 0.06633916 -0.034475546 0.03175678 0.03483388 0.08326555 0.028914023 0.08180717 0.048923872 0.05774087 0.057787005 0.017090693 0.017136866 -0.049494646 0.080626786 -0.08243197 0.046816554 0.07939351 0.013595117 -0.043743547 -0.05715715 0.060931705 0.02898266 0.03624731 -0.03559867 0.05363668 0.05876945 0.02520175 -0.03729804
0.0643413 0.00030114502 0.081167184 0.038265027 0.072486006 0.040252037 -0.04518464 -0.025766242 0.07685495 -0.05804798 0.06518374 -0.006610334 0.053174324 0.04685802 0.0643853 0.036644496 0.07627856 -0.028043691 -0.06744282 -0.0026615337 -0.077139184 -0.0022221059 0.06698423 -0.06288815 0.014497615 0.08278408 0.049917944 0.05510571 -0.055237003 -0.043956187 -0.056895416 0.063894175
-0.051430613 0.00903549 0.044164322 -0.026086114 -0.07163822 -0.04487736 0.0061386004 0.031613007 0.0031756237 -0.035634406 0.04721638 0.05861496 -0.011932433 0.07342934 -0.0023418665 0.052073844 0.069868244 0.067526676 -0.06719724 -0.006613381 -0.054011658 -0.02057086 -0.018171132 -0.057783574 0.08179488 0.056820013 -0.017604053 0.03374084 -0.06693662 0.043119736 0.03383773 -0.01765246
-0.0827133 -0.06494049 0.014376376 0.010796461 -0.0041007902 -0.014680758 -0.052752428 -0.0028824261 0.031825002 0.061665606 -0.012430015 0.06601314 -0.07579438 0.063356884 -0.070809975 -0.01836297 -0.005921927 -0.036958314 0.05965472 -0.048644852 0.0018370252 0.07875266 -0.08103303 0.0031607503 -0.008830043 -0.06365671 0.054268725 -0.063710004 0.06826424 -0.014266206 0.024741646 -0.0682537
0.080029 0.01300769 -0.033938468 0.041866496 0.00069604156 0.0758837 0.04568794 0.062636994 -0.077551626 -0.0047874535 0.026932374 0.02938074 0.07834647 0.073435865 -0.01799236 -0.015317768 -0.03611176 0.044683553 0.052445974 0.0013654407 0.043277413 -0.060386613 0.059057176 0.015728356 -0.057037182 0.008223484 0.012265694 -0.07725799 -0.023223136 -0.080352396 -0.08261645 -0.01804875
-0.04521039 -0.066912115 -0.046700902 0.018699976 0.008806773 -0.042786304 0.037580356 -0.051770423 -0.048981022 -0.022426937 0.062656775 -0.009826861 0.027601395 0.009060546 -0.03174711 0.04342296 0.021319984 -0.08130458 -0.04822391 -0.032280672 -0.023226727 0.034324497 -0.015703406 -0.008581106 -0.05146579 -0.028278627 0.05721533 -0.06352964 0.00425452 -0.033437606 0.00020580666 0.06140483
-0.017379768 -0.0074370652 -0.017462002 -0.07812811 0.05826189 0.061161865 0.053374078 -0.031869035 0.038487956 -0.045401677 -0.004445875 0.06010073 -0.07397913 0.009655468 0.046968017 0.04244153 0.008012094 -0.005882302 0.06409006 -0.027677674 -0.065859325 -0.07436796 -0.0028384856 0.03851189 0.083313614 -0.020642545 -0.018867668 0.053985104 0.033358637 -0.02412581 0.073711574 -0.002387023
0.042471 -0.028383367 0.009661049 0.014982766 -0.044151273 -0.02748124 -0.020284748 0.090928145 0.06166694 0.07694009 -0.049210288 -0.0036081192 0.0010265115 -0.042596612 -0.06938835 0.021557305 -0.006757873 -0.06267145 -0.055542 0.03336652 0.030395748 -0.005852858 -0.049034033 -0.022215346 -0.06745766 -0.05594046 -0.084981695 0.05125502 -0.061947808 0.03590933 -0.03313863 0.06406451
0.018240167 0.009452649 -0.0034377815 -0.059962284 0.07639657 0.03333271 -0.028894817 0.0011601533 0.14625555 0.070724554 0.068639666 0.022760525 0.013044052 0.0071212854 0.039085668 0.03835858 -0.0453923 -0.022323778 0.013914988 0.02156764 -0.09492875 -0.11934149 -0.003635878 -0.04386985 0.02915612 0.01357422 -0.04339326 0.11725422 0.029261187 -0.019450296 -0.012649043 -0.08292276
-0.05483579 0.0096880365 0.07046233 -0.021379357 -0.036787666 -0.013453226 -0.08779367 0.02673716 0.0034065142 0.003775242 -0.019362472 0.048021726 -0.057134777 -0.078085005 0.023265999 0.15919763 0.012985431 -0.033237193 0.03552073 0.058997605 -0.04441107 -0.025992706 -0.10619625 -0.07610586 0.05785497 -0.07868187 -0.051800672 0.06380357 -0.06984465 0.04924525 -0.14374395 -0.0065862136
-0.04096465 -0.0072410563 0.099842556 0.031743266 -0.007849576 -0.0036955664 -0.13493955 0.022824768 0.16245395 0.04283267 0.12789601 -0.0047845095 0.061167844 -0.18869096 -0.016567389 0.15646292 0.06972458 -0.0839724 -0.06685963 0.21306838 -0.07282652 -0.08768106 -0.0022767356 -0.05813723 -0.1154067 -0.12670092 -0.1207891 0.078951344 -0.18172659 0.023699693 -0.072951555 -0.13684537
0.040572036 0.06642302 0.09257857 0.03754087 -0.006629367 -0.01860412 -0.061723545 0.08467192 -0.008328413 0.073795244 0.04505348 -0.16110858 0.12262399 -0.15660667 -0.06554253 0.26078948 0.09739785 -0.120928206 0.027343186 0.22358929 -0.00045178246 -0.28428358 -0.108284935 -0.18749726 -0.003330682 -0.061414577 -0.1372534 0.055285804 -0.21850163 0.013640173 -0.12764227 -0.17175014
0.082436584 0.034547254 0.1475623 0.020029936 0.09880802 -0.071345 -0.16309611 -0.08577829 0.03532198 -0.014467941 0.011492214 -0.122074634 0.13053492 -0.17144062 -0.080108576 0.3246391 0.123171024 -0.17921932 -0.101816095 0.3028478 0.032473788 -0.24693042 -0.01792333 -0.21228173 -0.035958704 -0.20916489 -0.047208257 0.1737081 -0.23338655 0.018657906 -0.27054334 -0.28106916
-0.025926415 0.048992507 0.15675782 0.040541273 0.11272729 -0.056784652 0.008952168 0.026582627 0.04303041 0.0138875805 0.089280754 -0.18317328 -0.009911369 -0.2998867 0.010127542 0.24461931 0.18650466 -0.26028863 -0.11471594 0.31236964 0.13321309 -0.35078633 0.0020104325 -0.09897949 -0.10053713 -0.06298856 -0.17391652 0.14190069 -0.076766506 -0.061530307 -0.20105296 -0.30176947
-0.099187225 0.08330615 0.1732975 0.046403978 0.1606821 -0.028441576 -0.0013361628 0.09323425 0.06406903 -0.02032407 -0.0071721617 -0.115384884 0.0797528 -0.2034115 0.067101054 0.36854523 0.20368287 -0.2866977 -0.054425318 0.31950393 0.14709325 -0.27876937 -0.03010535 -0.21376328 -0.16883734 -0.13198218 -0.1140503 0.023353534 -0.1471707 -0.09827213 -0.1272843 -0.26017243
-0.16134113 -0.0036450464 0.14385287 -0.008641094 0.054822087 0.06223595 -0.11258344 0.09706971 0.09482822 -0.03206895 0.06728794 0.011443236 0.16842915 -0.25309235 0.060222555 0.2340964 0.23304941 -0.30456772 -0.20051232 0.30602008 0.07187617 -0.31706908 -0.045220934 -0.1447683 -0.04643569 -0.13244589 -0.1553622 0.01467471 -0.22272512 -0.022730358 -0.19263063 -0.25153473
-0.09121638 -0.08996343 0.090524375 0.014801108 0.13083024 -0.16530794 -0.14914756 0.05242292 0.047544505 -0.060319487 -0.0159174 -0.18144457 0.07972014 -0.11166334 0.13619165 0.28132907 0.21714237 -0.26690966 -0.12971756 0.23244219 0.12578696 -0.17828734 -0.009444735 -0.12731165 -0.13678251 0.068848275 -0.26902086 0.09391254 -0.1422186 -0.0065340847 -0.25696886 -0.20583904
-0.161893 -0.05668385 -0.0833625 0.008315421 0.14061916 -0.09014383 0.02818582 0.020194983 0.13363267 0.001224028 -0.033283923 -0.060227398 -0.018658627 -0.13983738 0.12497338 0.19008988 0.21870367 -0.2945349 -0.06284722 0.18586843 0.04369629 -0.22183412 0.09593957 -0.15875907 -0.21224731 0.03620812 -0.17134947 0.13639233 -0.062305544 -0.1078948 -0.14643253 -0.22934115
-0.06181573 0.08037815 -0.027402697 0.07336116 0.1529733 -0.04132745 -0.055972185 0.039760042 0.024957981 0.13354728 0.10241173 -0.11033576 0.04977236 -0.010215344 0.11005772 0.16297622 0.17290626 -0.14861603 -0.16355711 0.13423362 -0.13285024 -0.16277067 0.055723425 -0.19518375 -0.22955295 0.004894957 -0.04315665 0.08570985 -0.033460945 0.028375277 -0.08089235 -0.10996658
-0.078106225 0.06779332 -0.06200794 0.14822285 0.12824233 -0.023729643 -0.11756078 0.008409833 -0.0134066865 0.062413286 -0.121337466 -0.16862397 -0.031540707 0.022581743 0.07178075 -5.6591285e-05 0.21904351 -0.16400541 -0.015191383 0.13154562 -0.12896125 -0.12079877 0.15821338 -0.16715609 -0.038617805 -0.08489106 -0.034413785 0.09223719 -0.057083752 0.069574684 -0.045078237 -0.06360988
-0.03332996 -0.016304977 -0.06859858 0.081173465 0.11116068 -0.11650581 -0.05414489 -0.14837137 0.056921512 0.21884216 0.06566211 -0.12516001 0.015152393 0.07626509 0.17210156 0.019894922 0.18913507 0.015440873 -0.03287283 0.11061355 -0.08281411 -0.0975495 -0.022465186 -0.18366492 -0.009746719 -0.068116486 0.12981224 0.1641896 0.04149263 -0.08823445 -0.12023089 0.043375835
0.015272818 0.06788011 0.006621303 0.07997947 -0.15537739 -0.08012814 -0.05640592 -0.16516103 0.15446043 -0.022879146 0.006351685 0.0031644537 -0.04297554 0.15180075 0.061650943 -0.07694006 0.049442805 -0.040752668 -0.07307518 0.030020067 -0.23315638 -0.027232194 -0.07296926 -0.19222188 -0.08015593 0.019313863 0.014220736 0.018775595 -0.1759616 -0.06707346 -0.053142477 0.17619698
0.17042463 0.022594295 -0.09178784 -0.071214154 -0.1985763 -0.016676713 -0.080171436 -0.123076454 0.048391942 0.02209009 0.042546693 -0.021494051 0.05403915 0.028378021 0.09853994 -0.062556066 -0.009301146 -0.051947776 -0.0895359 -0.12408266 -0.29575446 0.011120278 -0.053150978 -0.10774362 0.049906198 -0.04200588 -0.0017538349 -0.122002184 -0.09552235 -0.10592596 0.021308098 0.20628884
0.053732637 -0.050604805 0.004178722 -0.09605488 -0.09244128 -0.08117837 -0.0030558684 -0.028110689 -0.1149654 0.012751369 -0.088326104 0.1226086 -0.07122098 0.1738249 0.0954627 -0.2553483 0.008065391 -0.037489783 -0.09469 -0.07444389 -0.32880345 0.040996 -0.04407616 -0.17225313 0.021851134 -0.034623876 0.053976953 -0.1205043 -0.06419197 -0.098257646 0.008532374 0.23717695
0.122237325 -0.020356087 -0.011463727 0.039053947 -0.038446967 -0.054740842 -0.0005173204 -0.13788176 -0.0289093 0.09187268 -0.11043743 0.10213801 -0.132284 0.18087533 -0.0833612 -0.15969647 -0.102631524 0.05449431 0.0026930002 -0.16933016 -0.19460776 0.14171347 -0.13468076 -0.17638616 -0.0534871 0.031491756 0.06511463 -0.07998596 -0.08711702 -0.09701312 0.07874787 0.20426919
0.124857426 -0.015727045 -0.03711419 -0.102047846 -0.11996054 -0.05947579 0.114094675 -0.13315073 -0.019871939 0.10476136 -0.0765915 0.0051326905 -0.17405789 0.118710205 -0.0018367075 -0.09794802 -0.009722569 0.039567642 0.095217116 -0.089462005 -0.095518425 0.043350063 -0.0016263175 -0.014414411 0.060336113 -0.03216294 0.11204093 -0.021319164 -0.019355236 -0.020147104 -0.04550822 0.18591483
0.08493946 0.054760825 0.012311626 -0.008918831 -0.025885148 -0.06897009 0.05949052 -0.050637662 0.024053354 0.022076862 0.02162677 0.015453688 -0.0999975 -0.007195898 0.056284085 -0.118228346 -0.020600524 0.030772619 -0.045718234 -0.11720028 0.041407093 0.09195637 -0.023668721 -0.078727044 -0.01828493 -0.005465314 0.10361541 -0.03180428 0.09319244 0.03090558 -0.03288442 0.05609981
0.034414846 -0.012046832 -0.031087387 -0.007264253 -0.053247776 0.036013536 -0.02753029 0.02602066 0.037810758 0.059510786 0.02518519 -0.056653958 -0.1001625 0.0036062778 0.025869306 -0.08846007 -0.024952466 -0.065551065 -0.06556991 -0.022806626 0.055878602 0.061895236 0.0467321 0.046765346 -0.011824017 -0.08960698 -0.052225832 0.039843682 0.07786092 0.064883545 -0.037330925 -0.0070526474
0.057017785 -0.024635876 -0.08138584 0.075283304 0.04253899 -0.06816863 0.060854264 0.032928705 -0.04930749 -0.025055457 0.026884291 0.009312474 0.071235456 0.010587185 0.037970513 -0.02652578 -0.05487925 -0.012653496 -0.04777519 0.007340784 0.084301144 0.02324706 0.04926649 -0.07698096 0.014832228 0.038340993 -0.02124997 -0.018669035 -0.033235025 0.052102394 -0.02307292 0.083947636
0.03555439 0.08195103 -0.06522862 -0.04765807 0.043256313 -0.07604441 0.0036238919 0.0017197445 -0.027007898 -0.05687568 0.031612746 0.074203156 -0.012356968 0.039657228 0.0190085 0.04263162 -0.050797198 0.027849039 0.02984698 0.07261993 -0.06745502 -0.05191907 0.034259748 0.029028956 -0.042541336 0.07001883 -0.01415285 -0.068614975 -0.060739934 0.00431699 0.052203264 0.0150188925
-0.03855838 -0.021291107 0.025605798 -0.059027523 -0.017472163 -0.07741522 0.050167494 0.06273828 -0.04843243 0.01719834 0.06705391 0.06850215 -0.084242836 0.00022126734 0.0011934936 -0.071283266 0.042462207 0.07078832 -0.043496087 0.08095444 0.04627215 0.066471 0.013499692 0.026335984 -0.07770682 -0.028904371 -0.005614884 0.031712674 -0.04721193 -0.019448899 -0.021281682 -0.032090686
-0.06665336 -0.022727825 -0.056121156 0.06317056 -0.0007151589 -0.056509573 0.0010463595 0.019912876 -0.073474474 0.0075846016 0.06636352 -0.0031563193 0.05647146 0.049785145 -0.07360829 -0.06744445 0.007090874 -0.020719565 0.013857052 -0.06470028 0.08524499 -0.08103986 -0.009329699 0.016812652 0.046935745 -0.033430967 0.037228465 0.020586498 -0.034173317 -0.058681384 -0.038943958 -0.08250518
-0.030301584 -0.017947607 0.022104189 -0.045319974 0.04549935 0.04611613 0.053521637 0.03711347 -0.052517053 0.043117728 -0.08003153 0.031138621 0.012582201 0.067919455 -0.05716768 -0.0012674059 -0.041874412 0.036377724 0.004961132 -0.009923582 0.0066711605 -0.034084484 -0.052636404 -0.03629407 -0.039487094 -0.044087127 0.07452505 0.058017645 -0.06343628 -0.03323176 -0.068487674 0.04298087
0.01246004 0.030192586 -0.06485783 0.029659785 0.08695042 0.042495802 -0.028603904 -0.042029 0.06475071 -0.06723102 0.054420326 -0.011246816 0.014939691 0.015770122 -0.051582597 -0.039043933 0.0151783265 -0.070154816 -0.016480314 -0.055137876 0.01404002 -0.059491698 0.00897107 -0.058086805 0.07539008 -0.021818396 -0.005750919 -0.045306478 0.06962687 0.023273176 -0.08142274 -0.050456595
-0.04945169 0.07802004 -0.020958964 -0.06678939 -0.013200879 -0.032981712 0.039219875 -0.041477818 0.13890694 0.026877522 -0.05655249 -0.006706723 -0.024262324 0.05791556 -0.032387216 0.0063558803 0.01679936 -0.07074227 0.004006749 0.039851505 0.073125295 -0.007891072 -0.03081572 -0.077690825 -0.049045246 0.052467294 0.021756055 0.07056905 -0.026506681 0.038323928 -0.026195968 0.0377377
-0.05843242 -0.024804749 -0.0439271 -0.03549237 -0.09605478 -0.11353675 -0.13748585 -0.08599194 0.18157876 0.0861348 -0.007852485 -0.0028992293 -0.0075684986 0.054015458 -0.0068949005 0.14663318 -0.06855907 -0.08098456 -0.05499842 0.11743586 0.030068006 -0.09816114 -0.15766972 0.025587836 -0.08887387 0.02142088 -0.048178177 0.060220905 -0.04255835 0.00585962 -0.00940292 -0.065862924
-0.005805823 -0.048158824 0.00986023 -0.0017320606 0.012028864 -0.056518264 -0.09903145 -0.07590093 0.24728312 -0.038415775 0.12133734 -0.07018973 -0.05923187 -0.05168975 0.03980273 0.09672989 -0.024600374 -0.10169974 -0.040602844 -0.0025625979 -0.0065929117 -0.063410975 -0.12965561 -0.04158538 0.009196013 0.025528703 -0.12574056 0.112037525 -0.09772756 -0.0013917437 -0.0787111 0.025198996
0.07150467 0.037102424 -0.08020584 -0.04441501 0.059904926 0.0026012114 -0.085393496 -0.067040764 0.051760174 0.061421856 0.07253516 -0.09242909 -0.0035749127 -0.14906436 -0.03302031 0.24311303 -0.022240967 -0.0926555 0.10267366 0.11492386 0.07027471 -0.16998492 -0.119702935 -0.053220145 -0.03500963 -0.12023786 -0.054851353 0.06490344 -0.21146743 0.0740143 -0.09428339 -0.10914014
0.14598869 0.03866583 0.042554595 0.052084792 0.007339393 -0.051134795 -0.16570224 -0.031998675 0.01710946 -0.010600191 0.031812098 -0.08205543 -0.091214836 -0.1107614 0.014904667 0.15763742 -0.0042902073 -0.12477535 0.11555687 0.103221394 -0.027636642 -0.27430037 -0.123123445 -0.18438321 -0.006554359 -0.15564705 -0.04780215 0.21363243 -0.14663348 -0.0014023703 -0.18081245 -0.052426822
0.07135787 0.006659574 0.039341535 -0.04443521 -0.03540355 0.011624299 -0.05711087 0.023081051 0.0032759674 -0.013257982 0.13642435 -0.20853542 -0.110065565 -0.10635376 -0.06578919 0.18684536 -0.08274014 -0.14291477 0.17794563 0.19210236 0.048074115 -0.2776361 -0.14751115 -0.15816402 4.234851e-05 -0.09367097 -0.113746405 0.22514871 -0.24802448 0.038601726 -0.30443904 -0.17629
0.046450175 0.0042483355 0.14741787 -0.022127427 0.057499364 -0.016351001 -0.027062256 -0.14913297 -0.009388276 0.198605 0.0953616 -0.19733545 -0.12556663 -0.05259332 -0.108413 0.15147854 0.04251374 -0.24421999 0.1508893 0.14448895 0.10209603 -0.46574724 -0.022026638 -0.042397898 0.053505972 -0.22876203 -0.025592567 0.06975034 -0.12914695 -0.11313412 -0.253935 -0.2543409
-0.08720936 -0.022528905 0.04472586 -0.010835641 0.10955739 -0.07485222 0.03408799 -0.024782404 -0.056859776 0.15759833 0.062483057 -0.15596469 0.053017206 -0.20623569 -0.08635786 0.120223016 0.045883786 -0.10140425 -0.031304106 0.07548056 0.18762529 -0.30941743 0.0022509336 0.026144028 0.012998524 -0.2329326 0.007322727 0.020968111 -0.1340156 -0.07753392 -0.049740363 -0.18766446
-0.15021248 -0.21819255 0.107160546 -0.043010425 0.16694106 -0.050452605 0.013789374 0.16490804 -0.065365896 -0.012153648 0.15704614 -0.19028202 -0.06531665 -0.3311662 0.010743791 0.17433402 0.034765538 -0.22221816 0.111163095 0.11323705 0.283401 -0.25042748 -0.044718586 -0.07100898 -0.078152046 -0.22329341 0.043573577 -0.17973019 -0.19421044 -0.19556643 0.043431405 -0.25057358
-0.20936637 -0.20328772 0.024817122 -0.09927264 0.16734876 -0.0010676683 -0.109510526 0.10521814 -0.013384782 0.00038573873 0.067693196 -0.19763906 -0.033490214 -0.24957404 -0.042693835 0.14882371 0.11515164 -0.15115264 -0.10383287 0.14381811 0.30987284 -0.16590965 0.0291739 0.0035251125 -0.055286407 -0.12211392 0.08133565 -0.05893758 -0.16791536 -0.28903654 0.0899684 -0.18708251
-0.2554857 -0.1772657 0.039675374 -0.19118926 0.15791227 0.08041526 -0.15223047 0.19506142 -0.06730388 -0.05894768 0.035550028 -0.12843412 -0.12569205 -0.103282504 -0.08102532 0.093134955 0.11924281 -0.27099738 -0.09180915 0.2532756 0.27157554 -0.0751093 -0.002887143 -0.14953725 -0.08675348 -0.08674699 -0.033279706 -0.07282298 -0.12872046 -0.31110924 0.044032793 0.034778535
-0.151697 -0.06500005 0.063904345 -0.19061372 0.19407362 0.08192214 -0.18909325 0.06036172 0.050048977 -0.055238836 0.15415719 -0.1879791 -0.16276461 -0.06257909 -0.10821556 0.09802087 0.062668145 -0.257199 -0.06735018 0.36461496 0.18293239 -0.16254704 0.021942519 -0.16635461 -0.09782093 -0.06352682 -0.054586843 0.0109699285 -0.19496645 -0.36440215 0.11500679 -0.087627724
-0.08994509 0.006782886 -0.13446304 -0.061725054 0.25654894 -0.014460862 -0.16238691 0.072705746 -0.0562747 -0.032204933 0.2206521 -0.19112104 -0.12502171 0.03493967 -0.009765838 0.07680267 0.19362563 -0.2057147 -0.08036159 0.24838223 0.23425508 -0.099013716 0.29486415 -0.23615766 -0.16190286 -0.1633984 -0.05108461 0.074206896 -0.15189311 -0.4231517 -0.053956993 -0.06854975
0.0745949 0.003526284 -0.0058500012 -0.04747775 0.38345444 0.13991614 -0.09587007 -0.026540022 -0.10668158 -0.03428671 0.06809684 -0.36601675 -0.13380583 -0.011259408 -0.034625996 -0.04424748 0.15807576 -0.23332131 -0.100731626 0.18625191 0.07312643 -0.08262258 0.26132637 -0.16651362 -0.01984761 -0.2428144 -0.018471358 -0.044738937 -0.14233205 -0.44705534 -0.0055828704 -0.044457026
-0.010875456 0.06060658 -0.07661082 0.007384907 0.2620825 0.028323062 -0.11613811 -0.016954005 -0.02937325 -0.06834824 0.009023799 -0.28861982 -0.034998532 0.053387586 -0.0986529 -0.085856654 0.20382619 -0.18107009 -0.054038145 0.09381708 -0.014977441 0.03880483 0.22321002 -0.24474405 -0.10619816 -0.24847646 0.09446077 -0.04063697 -0.051053606 -0.3694081 -0.078007974 -0.052786227
0.08406069 -0.020507295 -0.09857726 0.03265514 0.07338906 0.023709055 -0.19331753 -0.074314296 0.014211556 -0.046573192 0.09348043 -0.22838816 0.034637816 0.07745586 -0.036543086 -0.06665995 0.12199101 -0.06970873 0.016322456 0.0065491684 -0.1725666 -0.009180066 0.0970814 -0.28681388 -0.03499179 -0.26128292 0.07819657 -0.05751642 -0.045662917 -0.3606188 -0.016987575 0.072305925
0.02084659 0.019457975 0.021584835 -0.13361771 0.063911684 -0.057305075 -0.061554436 -0.12335536 -0.14557531 0.010087095 0.08944823 -0.02561038 -0.06897127 0.20445089 0.03313373 -0.056811154 0.19164616 -0.053671744 0.095516264 -0.031534504 -0.18014139 0.15519784 0.1048038 -0.16768734 -0.08883403 -0.158437 0.09311689 0.020112792 0.027788969 -0.31089067 -0.0371034 0.027881073
-0.024501793 -0.006372126 0.0367773 -0.1171438 0.0019876 -0.039913826 -0.061468054 -0.08871292 -0.13968253 -0.041265193 0.0053519933 0.0928636 -0.12916152 0.2029278 -0.056620512 -0.13643005 0.13684334 -0.02601586 0.15024877 -0.14465018 -0.22354016 0.074999064 0.002244944 -0.16107458 -0.04477301 -0.08595927 0.18459421 0.051577725 0.03867574 -0.257746 -0.0152173 0.15107895
0.005284355 0.09768027 -0.13194706 -0.067056045 -0.06865945 -0.029533837 0.01704377 -0.21625192 -0.22175983 0.13656619 -0.030888015 0.14245091 -0.24274974 0.2392204 0.017103568 -0.17843954 -0.022998262 -0.10906073 0.19508092 -0.25370032 -0.2517099 0.2624113 -0.1593528 -0.10504391 -0.08217457 0.07151947 0.23881394 -0.009054146 0.13272348 -0.16486958 0.06682406 0.17583248
0.04437425 0.00045354976 -0.044870265 -0.02841983 -0.16313781 -0.023573903 0.1337885 -0.16710444 -0.08366339 0.058750667 0.0029341024 0.13022861 -0.2815671 0.33239293 0.060387023 -0.12868519 -0.12832499 -0.016672188 0.05769993 -0.28927177 -0.13742149 0.24179453 -0.1388639 -0.15498722 -0.012376125 -0.057742953 0.13225415 0.036228452 0.08770778 -0.075199604 0.017212074 0.29114103
0.023225587 0.037745345 -0.10125883 -0.10049072 0.015933758 0.02414436 0.10970849 -0.13250636 -0.10482564 0.06670292 0.0063205566 0.0048373 -0.09394477 0.1923712 -0.03637436 -0.12708087 -0.036767565 0.0362663 0.11903409 -0.1939351 -0.03164066 0.10937027 -0.09005626 -0.078310765 -0.08447528 0.052989934 0.15853181 -0.09720222 0.020180413 -0.066810384 0.05806409 0.0525402
-0.039130434 -0.0071335165 0.013338851 -0.024649354 -0.021006461 0.006523709 0.06627416 -0.11255148 -0.10329024 0.006748326 -0.056270994 0.015474841 -0.016015928 0.08476943 0.06384329 -0.0047013285 0.058769267 0.043740425 0.079063214 -0.07215529 0.06910705 0.082163334 0.028764665 0.020461336 -0.035456263 0.012706244 -0.032568455 -0.012698973 0.054852404 -0.074682266 -0.08541185 0.020165391
-0.06217314 0.06521033 0.0033093689 0.07134001 -0.04190474 0.016840186 0.090676755 -0.04887097 -0.0690584 -0.042233672 -0.049428232 0.07923576 0.030879775 -0.067417376 0.022869125 -0.025119225 0.07026735 -0.06965458 -0.019222768 -0.04316233 0.07647817 0.0039975005 -0.006765235 -0.05418944 -0.032760907 0.044892125 -0.03667991 -0.033376932 -0.023033613 -0.08522998 0.03529447 -0.0700363
0.05332627 0.0685134 -0.069563195 0.08256269 0.0758688 0.03885028 -0.069618985 0.061660465 0.05272894 -0.050964445 -0.08556221 -0.0328511 0.053857066 0.050315827 -0.022991018 0.04791171 0.030747669 -0.013462422 0.065781966 0.0008874013 -0.010004069 -0.007684294 0.007782521 0.037747458 0.0046817595 0.022090321 -0.0544903 -0.050482426 -0.014042908 0.061988395 -0.0072406805 0.02081573
0.02925513 -0.057290643 -0.05215379 -0.06918734 -0.01912146 -0.011474751 0.05792793 -0.020264395 -0.06474735 -0.04786684 -0.081860736 -0.06887256 -0.07865719 0.054149397 0.0057603642 -0.042874154 -0.051569533 0.021277674 0.025333643 -0.0062665194 -0.027553722 0.03272818 0.06378273 0.03605981 -0.022709958 -0.006608613 -0.06930721 0.012870848 0.01968094 0.0213423 0.03631252 -0.08206381
0.013566925 0.009512919 -0.024242304 0.08392904 -0.032378297 0.03223739 -0.014766228 -0.011264229 0.03431219 0.047200523 0.03624157 0.06298284 0.060829673 -0.0573818 0.043501627 -0.016777812 -0.00048155765 0.021180043 -0.059280545 -0.07502318 -0.054021288 0.030944403 -0.010459645 0.06430092 0.041605372 -0.021483265 0.06869741 -0.07967811 -0.03928571 -0.06480343 0.027639566 -0.069919825
-0.0039178426 -0.012040641 -0.037860747 0.076441385 -0.07669974 0.05817002 -0.033131022 0.050098825 -0.031930644 0.08546436 0.06247805 -0.04485643 0.036235325 0.04104947 -0.0052091186 0.021616675 0.07714121 0.009984893 -0.05045461 0.05243595 -0.018425353 -0.039090406 0.061620533 -0.024455039 -0.010655815 -0.0072034546 0.07690417 -0.0662912 -0.07179389 0.04680643 -0.058802683 0.05676701
0.06111675 0.05950873 0.039981544 -0.006090564 0.024455711 0.032187548 -0.07668016 -0.044567518 0.116294146 -0.034341156 0.07081784 0.043983705 -0.040935468 0.04282162 0.021409672 -0.045716908 -0.014907026 0.07109637 0.05870309 0.0483985 0.0013953358 0.052319262 0.040674813 -0.07276236 -0.079355426 -0.015006135 -0.04473528 -0.009660299 0.044249848 0.06733367 -0.051186904 0.061227072
-0.005098084 -0.03177921 -0.107291795 0.008299384 0.03579702 -0.042135052 -0.13527182 -0.0543899 0.10322646 0.046524182 0.07188712 0.00029334772 -0.112047456 0.047469713 0.08529352 0.07910107 0.051167887 0.040102717 -0.025935356 -0.052570347 -0.06547355 -0.0067713354 -0.0811129 0.028616799 -0.017998584 -0.011798038 -0.027169183 0.0071720527 0.038575854 -0.0073975516 -0.054262113 0.046467464
-0.004130812 -0.010238752 -0.09043058 -0.056860365 0.022526825 -0.13506179 -0.05319438 0.010541833 0.18937299 0.07366832 0.17819491 -0.10306999 -0.1211028 0.010120573 0.051966593 0.25922355 0.0039785206 -0.06111807 -0.042626318 0.0799459 0.04080443 -0.14738484 -0.1932157 -0.058437742 0.07797729 0.050041314 -0.083199255 0.064607374 -0.14283712 0.010035803 0.010392363 -0.07006399
0.109166406 0.02756439 -0.06341938 0.0002555789 0.029130133 -0.13777193 -0.21437441 -0.11649231 0.09560762 -0.0026027043 0.204426 -0.081152044 -0.16030322 0.019019525 0.024528498 0.21956907 -0.039219406 -0.0058075814 -0.012923913 0.1579869 -0.0002524245 -0.120750025 -0.22328004 0.0059989607 0.043019716 0.048311207 -0.029109476 0.18037951 -0.09385775 -0.06426442 -0.083043955 0.045328226
0.10660803 0.09677989 -0.15127411 0.040554855 -0.024318662 -0.0636808 -0.07907592 -0.12973423 0.03186022 -0.061661832 0.10994008 -0.06955742 -0.11766924 -0.032125577 0.07398929 0.15840364 0.009217592 -0.08957723 0.13824096 0.07065324 0.06379497 -0.21859454 -0.07646378 -0.04295609 -0.034324944 -0.074480064 -0.046112522 0.22989011 -0.20617953 0.012043078 -0.07483569 -0.10745909
0.037387203 0.038876228 -0.20871589 0.09367571 0.11071154 -0.14987747 0.0352646 -0.12882933 -0.0017746 0.031267278 0.15818031 -0.14946635 -0.22906002 -0.11829804 0.080446035 0.18228854 -0.10734635 -0.038698487 0.23408458 0.1076288 0.0559336 -0.34877753 -0.03915079 -0.0148240635 0.043062534 -0.04293151 0.005683585 0.23328242 -0.27132833 0.029675895 -0.19372566 -0.070295855
0.023005262 -0.056196086 -0.11959971 -0.016149595 0.10377128 -0.055672176 -0.024129996 -0.035082985 -0.015690893 -0.033451535 0.01226041 -0.21932414 -0.2716588 -0.09261403 -0.046370074 0.22514656 0.008637949 -0.02518256 0.18786205 0.084155194 0.0056920154 -0.43212664 -0.06907443 -0.04664123 -0.023571823 -0.18075283 0.06883057 0.1733846 -0.17401254 0.02796786 -0.13035749 -0.11561407
-0.1120583 -0.17279664 -0.03775593 -0.05929175 0.058799297 -0.15153718 0.013753311 -0.007978117 0.0084302565 -0.05904536 0.07018395 -0.21655403 -0.1492055 -0.11933723 0.11479009 0.23462547 -0.10848534 0.04503754 0.19297674 -0.024865178 0.037856217 -0.40044218 -0.088943794 0.021688418 -0.038217448 -0.08423905 0.0689445 0.1957704 -0.09900543 -0.090834804 -0.1383294 -0.15461959
-0.26707855 -0.26447955 -0.02340201 -0.08663101 0.07721242 -0.117264144 -0.027488787 -0.08944023 0.013912857 0.13375525 0.04634359 -0.100270845 0.017230293 -0.10927752 0.015455926 0.10462428 0.03357765 0.13257228 0.1237979 0.02305598 -0.018362548 -0.25638524 -0.0970082 0.09192816 -0.012130261 -0.13593414 0.0999501 0.06289772 -0.053839155 -0.031480916 0.020671664 -0.15336937
-0.14817886 -0.28314236 -0.046436142 -0.083796166 0.12873547 -0.040018994 -0.02019392 0.01769351 0.07112874 -0.0008441398 0.050095014 -0.05363943 -0.047782082 -0.17845027 -0.073108345 0.11712341 -0.06742914 0.09053365 -0.008849035 0.09353371 0.10381736 -0.21132061 0.08670133 0.071166806 -0.1124166 -0.097164154 -0.059752278 -0.1373383 -0.03499268 -0.016941799 0.04010238 -0.23957816
-0.22759621 -0.35277745 -0.05629714 -0.09071744 0.19061579 -0.09796994 -0.059676223 0.11707361 0.03819739 0.07662171 0.031921756 -0.0616583 0.08884958 -0.29866302 -0.12626764 0.25308993 -0.007035138 0.038389824 -0.23161572 0.23469277 0.15182841 -0.23249945 0.002587954 0.048827436 -0.037559755 -0.13553587 0.022220964 0.013281539 -0.015538271 0.027557345 -0.06358025 -0.26662835
-0.21859045 -0.46176946 -0.12390705 -0.08048835 0.14551885 -0.07741132 -0.06689438 0.1283395 -0.079833694 0.20086886 0.02017741 -0.019582847 0.13258478 -0.2112525 -0.078300364 0.1629879 -0.019333694 -0.032737806 -0.31043112 0.2252087 0.28182536 -0.14509794 -0.017119853 0.028218951 -0.03230366 -0.09543953 -0.06861471 0.021138096 0.00707914 0.02119737 -0.07106874 -0.24012114
-0.23947197 -0.46294233 -0.08878723 -0.11293396 0.2961621 -0.09914563 -0.15787598 0.11697482 -0.21624419 0.023315774 0.013580849 -0.16720963 0.22055393 -0.12665305 -0.08524467 0.184872 0.12832442 -0.021503715 -0.30471557 0.26338202 0.21153736 -0.13535188 0.0061087557 0.043643385 -0.054667313 -0.021375049 -0.06176656 -0.06969238 -0.1388495 0.08447463 -0.06197468 -0.25939038
-0.24364232 -0.29281303 -0.09819092 -0.07055269 0.17205203 0.029997239 -0.17933744 -0.018761287 -0.089150414 0.04662999 -0.02555833 -0.12852672 0.13480091 -0.22052784 -0.01785214 0.0027844144 -0.009173631 0.07834178 -0.40590003 0.2700379 0.32239392 -0.21061473 0.016483841 -0.03206135 -0.07530554 -0.16024122 -0.0879018 0.08304728 -0.15491769 0.10395871 -0.04006541 -0.3496185
-0.10927225 -0.26649627 -0.0101410495 -0.14499742 0.31881735 -0.019062119 -0.17657083 -0.06329644 -0.112089366 -0.0039620954 -0.0704534 -0.0129211005 0.1576231 -0.04987883 -0.036641188 -0.037681904 0.10554392 0.023588372 -0.18910809 0.18161753 0.24990918 -0.15361927 0.12924427 0.13219088 0.04977723 -0.14260969 0.057001002 0.03143496 -0.118855454 0.028381238 0.0364408 -0.33750805
-0.1721504 -0.21259075 -0.03387499 -0.052803285 0.16529232 0.026793836 -0.0922181 -0.09915963 0.02169764 0.13784742 -0.10445595 -0.0057311994 0.0005112856 0.14652225 -0.10355776 -0.033741858 0.18523711 0.0365689 -0.28343838 0.14532478 0.22125268 0.019502807 -0.0408339 0.009086002 0.045526072 -0.10830256 0.022711469 0.098932 0.116800584 -0.11967366 -0.031117853 -0.37402704
-0.17264365 -0.2689027 -0.105456874 -0.13855492 0.11654264 -0.05098591 -0.047969505 -0.01766213 -0.06353773 0.033771146 0.024587022 -0.12582062 -0.12584154 0.10683001 0.018444613 -0.038725466 0.114077464 -0.0055963174 -0.052638587 0.08255076 0.0071897465 0.15773633 0.04239207 0.08744 -0.098807305 -0.14686142 0.19189154 0.057333343 0.08089246 -0.29053038 -0.07788557 -0.23511457
-0.052163783 -0.14735551 -0.1541795 -0.0047315024 0.1304464 -0.110990666 -0.0355454 -0.08211772 -0.23085278 0.0018604115 0.081051335 -0.05227984 -0.19613388 0.1099734 0.030585455 -0.07911296 0.16438934 0.011189661 -0.03906243 0.010850219 -0.06626214 0.18103068 -0.07355879 -0.14093807 -0.14333583 -0.13272487 0.17335668 0.0065448727 0.10509343 -0.19520931 0.024061672 -0.25421706
-0.12737235 -0.13186486 0.0077996734 0.03606514 0.056480482 -0.07261392 -0.056403153 -0.04480778 -0.22447972 0.032044522 0.06044547 0.07618424 -0.2019059 0.124782145 0.018418282 -0.12474592 0.05637734 -0.08514785 0.0286835 0.023915818 -0.06289635 0.15694128 -0.12593728 0.0053120228 -0.038858928 -0.1623936 0.09862049 0.0210314 0.20906223 -0.32418928 -0.03472784 -0.058747705
0.105649516 0.112538815 -0.064052396 -0.032519452 0.10421786 -0.10210938 -0.0035691094 -0.048190005 -0.22741908 -0.04062981 -0.052574873 0.09718319 -0.3839532 0.28161725 0.06329823 -0.1447997 -0.014491629 -0.00091027236 0.16263041 -0.038718205 -0.0077848868 0.13839284 -0.0881715 -0.027718449 -0.08003135 -0.037469286 0.28227046 -0.027953682 0.19346517 -0.25198478 0.019199828 0.11009166
0.17721942 0.09904375 -0.17052774 -0.049769357 0.122096986 -0.12589547 0.24126202 -0.061655138 -0.25550407 0.22542967 0.00481287 0.102674 -0.30384257 0.28818583 0.042387284 -0.33099577 0.019935245 -0.066529356 0.168633 -0.32181475 -0.08997358 0.32626328 -0.08025817 0.043883525 -0.12202954 0.013219768 0.2713767 -0.12571222 0.19274941 -0.23734757 0.08070041 0.25636458
0.086242184 0.06514522 -0.1564681 -0.080190726 0.03935559 -0.024441112 0.24736929 -0.16633712 -0.17727372 0.17806378 -0.008287303 -0.063974306 -0.12674716 0.28570068 0.104825035 -0.1880692 0.04332714 0.010337633 0.14631054 -0.28403938 0.018335633 0.22560273 -0.035425425 -0.049726073 -0.16733007 0.05381405 0.1306536 -0.1413447 0.11236111 -0.13357642 -0.10508832 0.209777
0.044034984 -0.0122305835 -0.010167352 0.01860146 0.037826594 -0.049351074 0.16337545 -0.059347995 -0.025238525 0.058241032 0.055470496 -0.112046644 -0.10799529 0.08563993 0.04662887 -0.10172803 0.0016989901 0.024609733 0.020600813 -0.041729886 -0.04807243 0.120312154 0.04851017 0.07843466 -0.13198005 0.022574719 0.04965583 -0.093453534 0.05667176 0.010549899 -0.016750015 0.091513574
0.036979284 -0.0016689248 0.07092179 0.039778713 0.03915964 -0.02878862 0.08196275 -0.08307888 0.0525405 -0.051706247 -0.07069308 0.064825565 -0.011330859 -0.030503139 -0.017950188 -0.081619985 -0.049178254 0.08239541 -0.025479373 -0.052941166 -0.0032992135 0.09719844 -0.060069386 0.014335134 -0.07802782 0.03982943 0.072737575 0.0145064425 -0.030257538 -0.057591915 -0.02771996 0.053530302
0.07008163 0.04409729 0.06987097 -0.0035287316 -0.046189748 -0.08246284 0.08628315 0.06552445 0.06010676 -0.057614792 -0.07086365 -0.084419355 0.017530415 0.050448682 -0.04011267 0.062939525 -0.026066406 0.010332728 0.033282835 0.056840952 -0.077842124 0.017698301 0.046937756 -0.020636322 -0.030284261 0.050995063 0.060159914 0.039609972 -0.023596969 -0.051053315 -0.003780385 0.03686789
0.055280793 0.083935864 -0.06953616 -0.019253932 0.017845701 0.08547001 0.044809032 -0.08431868 0.07466456 0.0181564 -0.074798875 -0.014295397 -0.058326606 -0.03407982 0.013865415 0.02380504 -0.011717942 0.08229551 -0.022538548 -0.07849738 -0.04056647 -0.07281645 -0.051568363 -0.010591595 -0.03395943 0.023655934 -0.06731598 -0.046592988 0.04278809 0.02221278 0.033656754 -0.03396011
0.057355072 -0.013752243 -0.04917076 0.044365983 -0.05678851 -0.06042394 -0.03630401 -0.0494837 0.059474163 -0.019137025 -0.031587794 -0.008018543 0.037759513 -0.051601987 0.043195978 -0.04305603 0.032971438 0.00884778 0.057755377 0.017462872 -0.057405327 -0.078944944 0.06823009 0.058069892 0.015130418 -0.040717598 -0.04766466 0.058524925 -0.07408847 0.04658906 0.05501374 -0.08397471
-0.06303883 0.017408257 -0.03933876 0.030392114 -0.020550547 -0.041753605 -0.06395082 0.04724446 -0.011989949 0.034429383 -0.080712214 -0.086832464 0.053586565 -0.0229711 -0.0075047365 -0.0027994188 0.06926162 -0.042144153 0.07361212 0.014632167 -0.06027759 -0.056703053 -0.005417177 -0.016806884 0.025702145 0.086509064 0.014794348 -0.015478058 0.03146471 -0.019394308 0.034856293 0.0007348829
0.020696202 -0.035858974 0.038912766 0.06071106 -0.046527933 -0.029713448 -0.042203642 -0.08068978 0.05859671 -0.07251723 -0.023191899 -0.017370466 -0.027197879 8.4844396e-05 -0.055883445 0.087043665 0.064877644 -0.020250544 -0.01895052 0.10051536 0.03665194 -0.09788769 -0.06606847 0.0017087538 -0.040167104 0.051181428 -0.02085469 0.071772814 -0.068079256 0.098820776 -0.075760365 0.029739056
-0.046049494 -0.08432033 -0.01265192 -0.0045228275 -0.051958602 -0.005339043 -0.1808294 0.035569172 0.21834445 -0.06056495 0.06899683 -0.086424984 -0.008779842 0.017595353 0.04755793 0.25568518 -0.04867404 0.047390103 -0.043212336 0.12758757 -0.038050156 -0.11387305 -0.1366402 -0.03308695 0.053212926 0.061329156 -0.14483622 0.17711471 -0.11836238 0.08857756 -0.013707961 0.033918396
0.13310175 0.0671542 -0.064527504 0.014111151 0.04040941 -0.1105587 -0.09115749 -0.06106673 0.17759977 -0.024799503 0.17942293 -0.13203414 -0.26139605 0.016193425 -0.044456158 0.22332183 -0.060691994 -0.04077643 0.09696652 0.07508356 -0.05838711 -0.0768599 -0.16056897 -0.0023124733 -0.021639211 -0.03286223 0.0030402548 0.15110125 -0.09149709 0.0070870062 -0.119532876 0.019436348
0.005897171 0.0075216526 -0.123185344 0.019568235 0.093665615 -0.02921046 -0.14245664 -0.16824391 0.1285417 -0.029591994 0.071721725 -0.19653834 -0.29747492 -0.15594761 -0.046080977 0.1754041 0.04102 -0.0439576 0.058372177 0.14993231 -0.10090273 -0.14900964 -0.14268738 -0.07012039 0.06714529 -0.024847895 -0.08207514 0.17542373 -0.04112979 0.06277048 -0.07330613 -0.065914266
0.027242415 -0.031101068 -0.16193189 0.082455575 0.05478078 -0.15496695 -0.07654238 -0.14389619 -0.054779723 -0.023167787 0.06791661 -0.20915231 -0.2948229 -0.04770312 -0.034714647 0.15977867 -0.07016174 0.01677123 0.24814689 -0.008432185 -0.14787588 -0.2603425 -0.01870672 0.04296538 0.056789324 0.0453544 -0.040100846 0.05983087 -0.036322862 0.010770639 -0.036675055 0.084883444
0.0024227353 -0.11044637 -0.18348661 0.08153718 0.1520427 -0.17063917 0.103912584 -0.10293796 -0.14391536 -0.05049961 -0.031317417 -0.25664508 -0.43020532 -0.117059305 0.023097692 0.10062285 -0.0023855376 0.037773684 0.21004432 0.03439707 -0.178627 -0.24488036 0.07066127 0.14058419 -0.05366502 -0.005146575 0.10054834 0.0981085 -0.09547079 -0.030027663 -0.15182883 -0.14749143
-0.14344014 -0.15951853 -0.16928193 0.07792746 0.09578446 -0.19381283 0.1366271 -0.13750196 -0.07668664 -0.044731364 -0.009009151 -0.21552448 -0.37700522 -0.07761007 0.07916337 0.0013246519 -0.12014386 0.18906349 0.118439674 -0.03337721 -0.22469948 -0.23140526 -0.020025438 0.116708785 -0.06943737 0.019981667 0.14666295 0.25646192 -0.10427496 0.037391208 -0.08188538 -0.17769337
-0.21198979 -0.23714073 -0.11325454 0.06062884 0.041334998 0.0070924596 0.037519626 -0.122550495 -0.12628248 -0.15022817 -0.13787726 -0.2306723 -0.17668638 -0.037932467 0.1363867 0.18267788 -0.032193575 0.16725945 0.18478595 0.09012246 -0.16013426 -0.1359369 0.11428697 0.2130404 0.006021296 -0.0029438667 0.18744035 0.25963518 -0.00756138 0.15341748 -0.09594681 -0.2888197
-0.16596913 -0.16363288 -0.023410987 0.0519763 0.05111941 -0.11482534 -0.044891242 -0.072243825 -0.024921348 0.045139972 -0.1144449 -0.09196259 -0.04985441 -0.107113644 0.12065598 0.13450997 -0.038483888 0.16488332 0.14144455 0.09610021 -0.22495715 -0.04864156 0.1377252 0.13076752 0.039383207 0.021092137 0.18220887 0.19458374 0.1364051 0.21232353 -0.026907396 -0.43957588
-0.29449734 -0.3091028 -0.1422019 -0.0071440134 0.12915125 -0.17717506 -0.23174219 -0.09518845 -0.0218934 0.09627696 -0.18941052 0.023114229 0.12689607 -0.20831023 -0.0029983658 0.23398034 0.03372867 0.17506588 -0.07181882 0.10822852 -0.14240366 -0.029268311 -0.027202638 0.12956716 -0.07290535 -0.023356164 0.13515732 0.061793365 0.09629807 0.1492807 -0.02232515 -0.52760875
-0.21540579 -0.41064364 -0.11442174 0.0107291695 0.08163632 -0.009228641 -0.06238765 -0.021168249 -0.11533754 0.15018061 -0.021664618 0.1957125 0.2384766 -0.2868303 -0.089645185 0.21363163 -0.04667087 0.23052436 -0.2066429 0.19053689 0.07191095 -0.047872566 -0.03126129 0.16770454 0.0112687405 0.004943029 0.034175146 0.16581403 0.045440327 0.13114887 -0.059079215 -0.45150584
-0.35780105 -0.45993504 -0.047563236 -0.11354061 0.052323945 -0.11442666 -0.18526377 0.002440687 -0.11549495 0.31392232 -0.046554714 0.16412239 0.3232418 -0.1285573 -0.034743052 0.068408005 -0.00982625 -0.0022560363 -0.49417564 0.2470005 0.122366205 -0.06599576 -0.08112946 0.044516664 -0.12332816 -0.00034235272 0.022906467 0.107497156 0.010282164 0.27530855 -0.23088151 -0.4320054
-0.38274932 -0.38468242 -0.09149436 -0.17246583 0.08027698 -0.1628454 -0.07099483 0.095379904 -0.079880066 0.22666302 -0.15916394 -0.065621205 0.43785223 -0.14491992 -0.105216384 0.008931818 0.08687487 0.16875046 -0.46510774 0.32136747 0.053742476 -0.14092445 -0.08832595 0.15466389 -0.13802363 -0.16333212 -0.06780673 0.047069248 -0.026209923 0.3663356 -0.1315418 -0.6132633
-0.36419556 -0.4155011 -0.12545858 -0.07969315 0.08728578 -0.029577943 -0.006223131 0.052869957 -0.098372914 0.23765029 -0.1239655 0.13526812 0.26356593 -0.14898886 -0.045163263 -0.06414239 0.002972499 0.1334968 -0.46720228 0.28886494 0.12792574 -0.22834243 -0.08171551 0.256113 -0.018000407 -0.04609134 0.081451744 0.11001797 0.028549166 0.18517151 0.0025979022 -0.6729398
-0.31283772 -0.29749924 -0.16461027 -0.0034242086 -0.023853676 -0.10968461 -0.09775126 -0.19905563 -0.11007579 0.17238928 -0.23666443 0.06568661 -0.020897983 0.12891077 0.02694812 -0.0502819 -0.002409989 0.1213557 -0.24545753 0.22454554 0.18463169 -0.11487099 -0.11662454 0.29353005 0.17461944 0.017569311 0.19783817 0.12722965 0.12419656 0.16942321 -0.062003065 -0.43794397
-0.29902247 -0.39455256 -0.119193085 0.012420861 0.0016892211 -0.017301276 -0.024279471 -0.17574869 -0.036185443 0.09670344 -0.100458644 -0.03329186 -0.05174744 0.048249345 0.03394797 0.0044496222 0.015071 0.037561607 -0.017518094 0.1505749 0.15803564 -0.039970435 -0.073856615 0.25602904 -0.07301002 0.06323817 0.13978988 0.07516604 0.23020819 -0.0527753 -0.045836687 -0.47075647
-0.201688 -0.32820937 -0.11137834 0.038885526 -0.032777995 -0.09124075 -0.023021188 -0.13103598 0.028016314 0.085226305 0.021874439 -0.03273299 -0.10480037 0.15875486 0.028526997 0.031464905 0.09396995 0.12501273 -0.039465338 0.094292596 0.011760921 0.10132649 -0.122012585 0.21310334 7.1631504e-05 0.07432818 0.09056252 0.17703472 0.20289484 -0.053709235 0.05313724 -0.4528911
-0.22592643 -0.18395455 -0.09950888 -0.004123271 0.0979377 -0.07242069 0.01982666 -0.023363683 -0.05162903 0.13044555 0.18085836 0.0026890442 -0.20715222 0.10361952 0.10631107 -0.063113034 0.061270587 0.12227649 0.02918421 0.16240063 -0.022391973 0.10754262 -0.23688602 0.060547616 -0.14049733 0.08245646 0.02915576 0.104908265 0.17947684 -0.096787035 0.114810124 -0.33298162
-0.03463345 -0.11501328 -0.050538626 -0.11129233 0.15736395 -0.071610786 -0.017208269 0.037724484 -0.28737062 0.13418867 0.12033798 -0.046788838 -0.2829071 0.09127082 0.01075004 -0.025637 -0.027039604 0.05195513 0.16182458 0.023368794 -0.035217218 0.06668056 -0.1678675 0.10311333 -0.05595627 0.09882478 0.0530753 0.068845086 0.21648888 -0.10931921 0.020821784 -0.19207896
-0.015962115 -0.013162877 -0.10542415 -0.03155072 0.13170063 -0.03823724 0.15095651 -0.054467767 -0.2683878 -0.030132553 0.041159783 0.01737544 -0.2786412 0.06548752 0.014983311 -0.2312328 -0.026068863 0.040075555 0.24100044 -0.07211499 0.13713953 0.16296592 -0.07877587 0.07788436 -0.030825518 0.1363568 0.1414829 0.13382466 0.14915603 -0.29333612 0.018352928 0.033029277
-0.06883737 0.08427664 -0.31510735 0.06110685 0.2809484 -0.17861807 0.16065283 -0.041325424 -0.35363564 0.07669488 -0.15237549 -0.06978632 -0.31356597 0.26144034 0.038622856 -0.30690113 0.070675306 0.05991541 0.21714014 -0.30133286 0.13401526 0.3132392 -0.042511813 0.2022871 -0.09695407 0.064265974 0.20862669 -0.11488883 0.16807574 -0.3196927 0.06335312 0.09617856
0.04586637 0.02695165 -0.12504064 -0.090844475 0.15618257 -0.08202675 0.31153426 -0.17598915 -0.20174082 0.08891265 -0.08143482 -0.0671086 -0.2853457 0.14030239 0.15394281 -0.30077788 0.026890395 0.05684952 0.16593757 -0.34899378 -0.063827395 0.17182876 -0.019018423 0.094645165 -0.18823522 0.013437673 0.17797922 -0.15383354 0.24213926 -0.09687766 -0.057849366 0.18787937
-0.038340032 0.12662221 -0.050435945 -0.05957141 0.14869429 -0.11830154 0.28363466 -0.15888499 0.007727196 0.19836642 0.004289535 -0.09115285 -0.18034077 0.20067705 0.085365504 -0.011944239 0.096519366 0.020581152 0.06826892 -0.08356525 -0.06403475 0.043179363 0.07403791 0.012223347 -0.080460146 0.061760772 0.08547291 0.022063144 0.0752345 -0.16526008 -0.13483515 0.105717644
0.045390863 0.06069946 0.04533837 -0.08540505 0.08431476 -0.048848156 0.083707824 -0.11213032 0.07629251 0.089154184 -0.09917839 0.061244424 -0.044293918 0.08931791 -0.019490898 -0.07743944 -0.0030210002 -0.07341969 0.0076358053 -0.09057144 -0.052174997 0.0068503306 -0.05123721 0.05111054 -0.014167948 0.021160474 0.08797979 0.06857609 -0.033982717 0.0128785595 0.025061391 -0.06801365
-0.009436787 0.04837399 0.00013811902 0.0009827747 0.08726778 0.047425322 -0.010339431 0.07590378 -0.022963366 -0.025042538 0.079836205 0.060328115 -0.022831162 0.07054751 -0.0039373464 -0.022588627 0.06476523 0.075474314 0.013294002 0.03713483 0.04088226 -0.0779482 -0.062755585 0.063659385 -0.014875749 -0.05992292 0.08654364 0.0362341 0.08487706 0.022113118 -0.068254925 -0.010418585
-0.043544766 0.054335695 0.05070429 -0.07667112 -0.06970097 0.019003792 0.039935663 -0.034141324 0.057165533 -0.08199537 -0.07891342 0.07021369 0.04919069 0.0017659646 -0.08204688 0.016323064 -0.021905826 0.052224535 -0.040097315 0.07158903 0.03642371 -0.056073036 0.012078295 0.053937677 -0.06580407 0.07461975 -0.08302286 -0.057718027 -0.027104655 0.028372176 0.009027597 -0.0045569907
0.012048687 -0.04690689 0.049686693 0.03414619 -0.009056256 -0.03152418 0.053971794 -0.086094275 0.026717184 -0.016379748 -0.071803525 -0.057141777 -0.026107673 -0.067864195 -0.06794739 0.0306903 0.0016735597 0.058516487 0.019945258 0.04148597 -0.08621042 -0.030097004 -0.025930604 0.06478826 -0.025067473 0.08543665 0.07234939 0.06826888 -0.076959714 0.0591 -0.061161425 0.041758887
-0.08087211 -0.08360084 0.05361629 0.01454922 -0.07138811 -0.0049605994 0.0462269 0.020905022 -0.03574169 -0.06913425 -0.013479802 0.02875066 0.009452615 0.07111797 -0.034998745 0.0450042 -0.052853655 0.07981016 0.04489432 -0.010057754 -0.014764425 -0.00059023174 0.022025775 -0.014003395 -0.044828113 0.03957506 -0.024394082 1.5823993e-05 0.045918424 -0.0643878 0.01950899 0.028330015
0.08027792 0.03629387 0.010101392 -0.017089218 0.04324748 -0.024295628 -0.12486733 -0.014573654 0.039291177 -0.09410432 -0.02139939 -0.09034416 -0.0920712 -0.06179661 -0.013137793 0.10384424 0.0076630283 0.03081224 0.047976498 -0.02696134 -0.012572569 -0.021764638 0.04688898 0.024005076 0.02913147 0.09800798 -0.08126086 0.07204006 0.06227791 0.03721453 0.039984535 -0.00045365878
0.06915302 -0.016050441 -0.03339657 0.09475016 0.057589866 -0.029322421 -0.21660408 -0.051182058 0.15348567 -0.10393942 0.051499072 -0.01183204 -0.10961563 0.02083759 0.089190125 0.2410121 -0.021827703 0.06413157 0.016756395 -0.01756404 -0.013398331 -0.04521751 -0.05431317 0.025484953 0.07272191 0.029363735 -0.15869646 0.094871975 -0.07444116 0.06330659 0.042527873 0.004083656
-0.02512236 -0.10764374 -0.14200291 0.035214134 -0.011664351 -0.12912913 -0.21189062 -0.1244264 0.14212075 0.040257536 0.023128258 -0.111423984 -0.14276789 -0.060017314 -0.03488238 0.2598455 -0.019216886 0.021073602 0.054056935 -0.01957989 -0.13023847 -0.13147537 -0.14670524 0.009676733 0.011965276 0.06594094 0.015695795 0.17767853 -0.11350597 -0.07536294 0.006647037 0.10407672
0.013067002 -0.088388525 -0.06470993 0.1140354 0.073381774 -0.1902548 -0.13008867 -0.076980345 0.099585444 -0.08894943 0.050498616 -0.16347861 -0.2041785 -0.21599883 -0.016184317 0.10797905 -0.035070222 0.08558482 0.25556946 0.054360863 -0.027690802 -0.1856796 -0.0069200927 -0.00044576818 -0.019372988 0.052194785 -0.108374946 0.10916957 -0.08679322 0.09968834 0.03521716 0.08013011
-0.038916945 -0.09525722 -0.15563071 0.02084728 0.086028725 -0.17048974 0.101188034 0.042537786 0.040169053 -0.045498397 -0.07480984 -0.27323353 -0.27184355 -0.19510466 -0.015255044 -0.018204872 -0.019916702 0.20550871 0.24610138 0.097356975 -0.17667095 -0.22824174 -0.015760347 0.028682249 -0.028182195 0.17643145 0.019669922 0.08392159 -0.0028574432 0.021168336 -0.06163391 0.033493295
-0.2013158 -0.1378964 -0.21434866 0.035332266 0.14718384 -0.124102145 0.09664111 0.014157085 -0.13616602 -0.019651053 -0.054439828 -0.25153294 -0.1633994 -0.19182722 -0.04968888 -0.09227288 0.037617356 0.2599572 0.29106557 -0.015671203 -0.23226309 -0.3269894 0.10320185 -0.013207075 0.012096103 0.113942645 -0.0115520265 0.22117743 0.044883545 0.084961355 0.017631868 -0.05047258
-0.16149476 -0.17915301 -0.08373141 0.03696803 0.12899144 -0.19912454 0.16689722 -0.077124104 -0.07755955 0.006998942 -0.02717249 -0.20253724 -0.11346958 -0.20904997 0.059398238 -0.07015628 0.013040091 0.15617393 0.2551697 -0.034242094 -0.09853402 -0.16829026 0.18601957 0.15571134 -0.036672078 0.057555992 0.07936707 0.21408038 0.07416784 0.10093476 0.07349557 -0.18867059
-0.15071313 -0.14715898 -0.020924434 0.015387062 0.08267141 -0.052798368 -0.010724454 -0.09757454 -0.11341531 -0.06980296 -0.17779858 -0.20264642 -0.05782809 -0.10620094 0.054355443 0.13172406 -0.057101604 0.09087576 0.23466468 0.12262258 -0.1520854 -0.10404691 0.16271146 0.1842704 -0.043632064 -0.006658991 0.1354997 0.30648813 0.04955001 0.07545299 -0.06420615 -0.24635641
-0.25832608 -0.10997745 0.08874002 -0.032856587 0.021202078 -0.102980494 -0.028211119 -0.13400878 -0.25953287 -0.03141774 -0.09330992 -0.042123776 -0.005971338 -0.17190303 0.066064514 -0.1206739 -0.065789066 0.09603145 0.23781525 -0.006902905 -0.23725766 0.06090167 0.15650186 0.13273138 0.03677023 0.14061928 0.20189361 0.39720976 0.12280929 0.022795368 -0.18048833 -0.31225765
-0.34317684 -0.23712674 -0.15064807 0.15798175 0.04618265 -0.0073251524 -0.2075936 -0.10444298 -0.18254508 0.035643075 -0.019397302 -0.11187825 0.12417716 -0.12039235 0.105876535 0.036791712 -0.0015844973 0.0977825 0.16716689 0.05557409 -0.14046772 -0.011706378 0.18220456 0.1154385 -0.07620098 0.12073095 0.040044785 0.24721129 0.14215314 0.079872854 -0.12009513 -0.40808848
-0.20772485 -0.2853843 -0.1358588 0.034554023 -0.02452144 0.005506943 -0.2797579 0.053538196 -0.14983884 0.06981744 -0.010829162 0.08620285 0.0750541 -0.20804241 0.010044885 0.10643924 0.11748228 0.0035310476 -0.0968453 0.022244902 -0.1093064 0.099743776 0.045996338 0.08301281 -0.1988736 0.13031146 -0.21432239 0.22070856 0.05484406 0.099718824 0.025398947 -0.55629706
-0.41746247 -0.34755635 -0.04676079 0.15127741 -0.12992606 -0.028449815 -0.23232527 -0.033493496 -0.010949223 0.1689043 -0.1195574 0.059427448 0.29976466 -0.29096326 -0.055352613 0.06460289 0.072264664 -0.05347899 -0.20842837 0.283976 0.020116348 -0.063479096 -0.12743427 0.19606976 -0.13362448 0.113418624 -0.07295459 0.23638722 0.122642845 0.29171273 -0.074463405 -0.47837898
-0.4119185 -0.39610133 -0.0971183 0.12222755 -0.22790968 -0.044827603 -0.09864879 -0.14530043 -0.02747561 0.13425903 -0.2865724 0.009536215 0.26123556 -0.2708696 -0.05829325 0.1594345 -0.04459556 0.00447012 -0.24529186 0.3640384 0.07293345 -0.16712502 -0.19436967 0.2240051 -0.14537898 0.08050356 -0.07160872 0.09997286 0.030536378 0.20678504 -0.054352768 -0.6610761
-0.38890797 -0.30631188 -0.15964714 0.014469203 0.11991903 -0.034301586 0.004323756 -0.08477516 0.095412076 0.026552433 -0.14810278 -0.046584327 0.11790839 -0.17398609 -0.00084357255 0.036471967 0.097592406 -0.09000018 -0.23955688 0.56191564 0.13196766 -0.05492258 -0.12857755 0.2944581 -0.036698673 0.04959657 0.11903047 0.06331669 0.12173336 -0.03254469 -0.07604576 -0.6582955
-0.3865254 -0.13934861 -0.11335508 0.08304882 0.024334729 -0.00040759725 -0.1011804 -0.16542695 0.15860102 0.054255817 0.03273988 0.14819163 -0.09677327 -0.045548357 -0.10152234 0.122109525 0.08421795 -0.03720507 -0.036382306 0.34546888 0.11406266 -0.0988873 -0.20810896 0.34062245 -0.015044091 0.26986036 0.049698703 0.142259 0.050968986 -0.09555307 0.01934525 -0.40444142
-0.3110679 -0.21228741 -0.1853431 0.077647924 0.08667862 -0.1450823 -0.033270035 -0.12851357 0.1533721 0.0020700064 0.097753055 0.028985068 -0.1614135 -0.07261501 0.031367086 0.13718933 -0.009202817 0.12946095 -0.016449163 0.2701248 0.14534204 0.06525543 -0.19777869 0.3647159 0.09339382 0.357998 0.05500064 0.07850179 0.22668155 -0.06424117 0.038739137 -0.38818622
-0.21566744 -0.20878221 -0.109629415 0.05402023 0.12855645 -0.020235673 -0.06649941 -0.0212203 -0.018319778 0.019539598 0.30113488 -0.07112434 -0.046708878 -0.012064449 -0.0062372764 0.025681745 0.037366774 0.1641434 0.117149726 0.1949774 0.10972555 0.0036434373 -0.23466901 0.26436692 0.028369797 0.16695713 -0.010734908 0.116587326 0.15738595 -0.115110055 -0.07428094 -0.30957767
-0.22426201 -0.19750701 -0.09626201 0.06112976 0.06630898 -0.08942547 -0.010172099 -0.06736226 -0.073471844 0.074004255 0.1925164 -0.11069739 -0.24102199 -0.06422762 0.13709234 -0.03887989 0.038010675 0.11469989 0.08183536 0.12748682 0.15991694 0.0010735024 -0.12899347 0.2534838 -0.02660361 0.1939531 0.02422265 0.036184713 0.13341787 -0.09197205 0.0062690163 -0.25626242
-0.17010543 0.005860836 -0.12411789 0.05824599 0.15543316 -0.1357942 0.13369608 -0.08455614 -0.22101073 0.09346146 0.21839069 -0.10698403 -0.2963433 -0.061048668 -0.017353885 -0.06759521 0.01254379 0.17459735 0.120459564 0.10595335 0.12089315 0.17498077 -0.21689011 0.18317088 -0.051548507 0.11911443 -0.04959643 0.007562282 0.010690717 -0.15323484 -0.03276664 -0.19790503
-0.13610841 -0.05461901 -0.2560904 0.0777711 0.36392862 -0.08163034 0.109593965 -0.077058464 -0.37456316 -0.07723344 -0.03523101 -0.11161273 -0.32163802 -0.0962454 0.106898405 -0.2650722 0.05718419 0.20273641 0.19028534 0.039974816 0.23168944 0.058858808 -0.033121366 0.24840765 -0.082801506 0.29680645 0.06325083 0.065551214 0.114673994 -0.18955182 -0.016539799 -0.1097338
-0.1205181 -0.008124675 -0.3716854 0.021901228 0.36297333 -0.09461917 0.3563987 -0.104160346 -0.44579756 0.02223724 -0.22104208 -0.07729355 -0.29052827 0.003447636 0.086160384 -0.49806353 0.1204403 0.1355066 0.30100536 -0.25444666 0.23418874 0.28894666 0.013595114 0.15290552 -0.20856212 0.21500787 0.0842365 -0.08600317 0.26954097 -0.17082654 0.018268287 0.121949635
-0.23148353 0.02521799 -0.22389308 -0.036661576 0.40071902 -0.061407402 0.36418837 -0.09366421 -0.20303507 0.1202873 -0.17487562 -0.074769154 -0.1964352 0.09563285 0.12867256 -0.29674646 0.051993694 0.0384471 0.25325748 -0.41692126 -0.016796168 0.22810724 0.096371405 0.14743024 -0.29757458 0.2494276 0.14320716 -0.20221813 0.25090784 -0.15112297 -0.07947957 0.089670725
-0.139762 0.10451068 -0.16501537 0.05629911 0.15133928 -0.18700467 0.29987255 -0.1890092 -0.018189698 0.10899298 -0.051254626 -0.022304136 -0.14268427 0.14443675 0.059049975 -0.1801851 0.048548352 0.09166139 0.06882942 -0.16891706 0.076724574 0.1737314 -0.014069732 0.044454485 -0.2595196 0.1979713 0.06637573 -0.017970294 0.21070209 -0.11940049 -0.14016184 0.14682274
-0.059745684 0.018647755 -0.066841446 -0.01882806 0.10193915 0.04213531 0.065022446 0.04592676 -0.08410951 -0.010134092 0.019273229 -0.07411025 0.05313838 -0.061553527 0.07038471 0.011121719 0.055180658 0.054138154 -0.028045103 0.02689228 -0.026253285 0.012502791 0.040694572 0.07242506 -0.08583642 0.13734561 -0.022623751 -0.011535438 0.045516644 0.013118792 -0.0076762754 -0.06151145
-0.09619914 0.03347502 -0.0007642684 -0.03205632 0.082102686 -0.008488186 -0.054096684 0.06538465 0.0010549882 -0.026152974 -0.03888486 -0.02158904 -0.03722214 -0.049704947 -0.03256596 0.050348345 -0.027694486 -0.012505721 -0.0674441 -0.014271728 -0.08061896 0.050168585 0.033787634 0.03846207 0.06654729 -0.07563975 -0.018639551 0.019800799 -0.08218565 -0.027583497 -0.07476752 0.014616671
0.044340685 0.016314734 -0.026195833 -0.065692894 0.0849911 -0.03445022 -0.07712859 0.042630956 0.0020455215 0.016965117 -0.015426172 -0.06180314 0.05092513 0.06594917 0.04621126 -0.068978906 -0.048895188 -0.040270176 0.07604023 0.0155826425 0.0661274 0.057529457 -0.014342216 -0.03527279 0.0045011397 -0.044750765 0.016508125 -0.048979305 -0.07430432 0.042479753 0.012118764 0.007851145
-0.060067713 0.078785695 0.020056413 0.0023533301 -0.07550032 0.018755248 0.022286713 -0.030317955 -0.060763597 -0.079220556 -0.046342224 0.007931163 0.060485054 0.07556654 -0.02244349 0.06496406 0.056761295 0.0027267428 0.043106526 0.01519119 0.07666906 0.049042627 -0.036296032 -0.025769426 -0.05162816 0.08065765 -0.030521737 0.002181631 0.06984889 -0.07060108 0.04320412 0.015943313
0.014292469 -0.0835874 -0.009294627 0.06412861 0.031600595 -0.026609179 0.03814814 -0.08401231 0.0049098465 -0.04682749 -0.089422956 0.0038689252 -0.044527695 -0.05385408 0.08666186 -0.03160662 0.0061375503 0.05296975 0.048217736 -0.05039319 -0.013159803 -0.015994698 -0.07070147 0.056118503 0.0014780429 0.02637976 0.08992482 0.059232675 -0.049793012 0.0040172874 -0.03173552 0.09167861
-0.053423397 0.0053195176 -0.06424734 0.15777378 0.06306168 -0.06402538 -0.166665 -0.08890966 0.0732086 -0.024151158 -0.01656999 -0.048366617 -0.01918831 -0.12129944 0.029153926 -0.00951793 -0.042443667 0.041886058 0.13157536 0.12363637 -0.033197865 -0.10296805 -0.0149085745 0.027910933 -0.05226553 0.15593617 -0.068988934 0.14274624 -0.001432783 -0.024189597 0.017734919 -0.011344923
0.053048786 -0.051348682 -0.011344481 0.16727786 0.0050106514 -0.056410927 -0.14691244 -0.11270729 0.1269097 0.035844572 0.07190903 -0.011344793 -0.027199127 -0.030994192 0.10998583 0.141435 0.0009896503 0.056394078 0.07127161 -0.04038789 -0.16887458 -0.11830702 -0.17459683 -0.07396719 -0.0064863465 0.10808962 0.008094848 0.123408 0.089685686 0.13467726 0.03753031 -0.00011450968
-0.10509366 -0.055316363 -0.102403246 0.150335 0.05102074 -0.09755393 -0.0931517 -0.08057312 0.10369066 -0.10148793 -0.0018573585 -0.06580217 -0.19491619 -0.21056414 -0.07286177 0.010568012 -0.07828386 0.07528269 0.14299098 -0.053168207 -0.2187682 -0.13442941 -0.017079297 -0.08254911 0.01040523 0.08031893 -0.02083968 0.07989901 0.033503413 -0.023548452 0.006745037 -0.063735746
-0.14045699 -0.30967584 -0.15766746 0.04562788 0.06713781 -0.13849188 -0.004056791 -0.039137177 0.07714244 -0.07152039 0.0010015096 -0.25938198 -0.1567622 -0.21269797 -0.041636027 -0.12818861 0.0370281 0.08449908 0.14744869 -0.1053315 -0.04788179 -0.19437279 -0.04905717 0.01657705 -0.054593116 0.08235258 0.035600036 0.10442567 -0.057833992 0.03592217 0.06087348 0.064442925
-0.15804602 -0.23021062 -0.23316525 0.007049207 0.11396199 -0.10698546 0.17576145 0.050865076 -0.06268923 -0.095701575 0.004169027 -0.13412353 -0.09357053 -0.23560137 -0.013693556 -0.06146904 0.08524597 0.19650128 0.14495647 -0.12438293 -0.11057204 -0.30441436 -0.04423041 0.1011951 -0.10038386 0.14511418 -0.0233977 0.13770415 -0.051860966 0.016200773 0.019214671 0.051663995
