2
25 20
72 -1279 3110 0 2017 639 -255 -1879 69 2111 327 -1875 -307 5 1591 435 987 1900 -2119 -2563
-2167 1212 -158 -713 1329 -299 -2360 -169 -820 1000 276 2827 -2283 -721 538 927 2013 818 283 276
-961 2825 683 1409 -2561 -1068 2197 2476 2127 985 711 -1038 1481 817 2538 2725 843 -3187 -188 2210
1190 2531 2075 3480 -539 11 -635 2770 4566 1857 -1912 -236 -1702 -1828 1048 -647 654 -1257 993 -1034
1889 -349 -2637 2299 593 2273 -2489 2683 2128 -2466 1900 -933 -2733 -3239 -2743 -1574 -1454 3233 1283 -920
-1698 2034 -411 3951 -4328 -1454 1812 -988 181 1819 -697 130 1209 1822 -1000 880 -1254 -2114 -547 -1751
-1200 1108 1727 1941 -861 1019 -1399 -2543 -1620 3111 1866 2123 -3188 87 1338 2969 1172 433 -2715 -1874
-1202 -2098 -2816 -1016 -979 -1693 -728 -189 708 1485 -4515 841 388 2449 -783 -1398 -834 96 -247 972
2172 1012 797 924 1290 1344 1326 -729 37 -725 -167 -381 674 -558 933 1974 1419 981 1223 -326
1839 913 1215 -205 1854 643 3682 -2382 833 -2822 447 -1307 3907 445 -1177 1174 288 -959 -248 1231
3355 -3385 2113 -2117 22 -1826 339 2190 -714 -1014 1449 -1030 -1249 -2252 3135 1393 -1236 313 2102 -1716
-3001 -2316 417 1303 -2613 -1172 -1492 1091 -471 -530 -1125 535 -1630 -3744 -14 -1289 -3535 752 -419 -1229
-5015 1175 683 1130 -1948 4495 -2162 965 -2601 2130 -1360 2127 -991 -1647 269 1810 2090 -934 -1293 2279
-2158 995 -2211 2239 609 3812 -876 -4021 -2822 2360 -2790 1341 -1938 492 -1644 1561 312 -386 -1475 -217
-2040 -1626 749 -2629 1616 -1704 -988 4812 -288 -348 -86 -126 -1537 1485 618 1042 2622 -3411 4235 4621
10 1134 -2515 2638 1626 -1117 926 506 2470 816 1050 -4008 146 -1485 3996 488 -240 4788 3268 -4504
-2168 2040 1831 1801 795 1943 2870 3149 -1471 373 -988 -2746 3337 3162 1911 -560 -1171 -1680 2799 3204
-1196 1178 -837 1765 -612 -3750 -360 -1144 -262 1240 1805 761 -1383 1807 571 -1416 -1985 1342 10 -350
-1797 868 -1014 -1499 2012 2710 1421 -1422 -1562 -263 -169 -864 -683 -1902 1699 2751 -1660 2219 440 -1565
3247 -1879 -1155 1535 -600 -146 2526 395 -2440 -1921 2718 -472 148 -3980 -774 3141 196 829 2984 -3630
370 -2997 -753 82 138 338 2780 -790 -1613 1066 953 264 438 -682 1606 -2784 -4941 2421 2168 455
-94 2606 4289 3363 -2859 -4164 -715 367 -3161 1198 2134 3338 2496 -2133 3146 -2346 -1675 -1191 -4139 -313
1884 314 1342 -865 172 -530 697 -326 -1 -1013 701 484 -3876 -933 -3650 4535 5844 -676 748 -419
-2037 1278 -741 1032 -92 -231 1068 1316 -2977 -1176 -2599 -557 2908 780 180 1393 -2200 1657 2149 -829
769 -340 -2852 1605 939 -244 -172 -183 -983 -2341 1790 1158 -797 -1102 -287 1042 -2115 3794 3965 -892
801 -3770 -179 -392 -577 447 1187 918 -2724 1991 -613 3121 1489 -1975 -311 -2236 -912 228 2975 -157
2
20 27
278 2666 -1405 -4519 2964 1531 -4430 917 2554 2552 2730 2427 -4404 -3182 -1862 -1256 3590 -2357 1432 2258 786 -3860 -4449 -513 4486 795 -3879
1382 -3982 -4828 3816 2579 -2159 -1012 1465 -3135 -2146 2873 -2084 -2533 -2010 -4187 -2634 -3724 3668 -3182 897 5642 859 -765 1136 -3634 3853 3085
-777 -4522 -2202 -3811 -3099 -2758 3437 -510 -4231 2755 2129 1283 1930 2702 -4680 -859 -575 4218 2162 1715 -1353 -2449 -3287 5515 3316 3111 -3768
1007 -2431 -2330 3973 1412 -1242 4840 -4388 1864 -2942 -266 -1631 -1844 -3351 -1407 -2445 -5176 -2464 934 4696 -2180 1193 192 762 2883 4764 3919
1366 5985 -2587 -3776 -2381 3260 -3968 -3580 -1351 2202 3137 4934 2315 4898 5322 1700 118 -4662 3437 -2170 -3361 199 -3365 -923 -2709 3214 -1947
-1531 511 1058 -4020 165 1558 3853 -3075 -5066 2518 32 583 -3713 4948 3667 -4888 742 -4118 4863 5258 -1659 493 4334 -5596 -4664 1870 -1883
-386 469 -4437 -1237 2698 -3394 1725 2784 -48 -4257 1335 2301 -3392 652 2291 -4056 -1437 2805 -3576 2398 3613 -5731 -2229 -388 1735 -4170 -1362
-1324 1661 3308 2618 2102 -4096 260 1281 2241 -4542 2867 3436 -991 -2214 -3577 -3830 4620 -2611 -2668 -2242 4673 -2714 4423 4262 -1755 5593 2330
1343 -1614 -1899 4667 -4157 -1912 -1622 -2999 3485 5666 2332 2517 634 -2584 -3456 2411 333 -2322 -3429 3576 3403 -3656 1063 -3322 1601 4260 5750
521 -4845 -788 5179 -2240 -2489 3454 -951 -4935 4267 -822 -3412 2616 3580 2370 -522 -409 2157 2599 1613 -1318 2621 -3013 157 4814 1468 5392
-352 -1816 -1591 -1111 -1844 1017 -41 924 744 838 2278 -434 -3425 -2973 -1543 -5644 935 1657 608 -4661 -930 2491 -1318 6332 6979 1482 -3190
-228 -2653 2286 3105 1450 3599 -3767 975 -2744 -2628 -5016 -2595 3273 -2190 -4951 3026 1130 516 4610 -3898 1079 3576 3951 362 -2845 -1462 2403
-1205 1275 -1152 4412 3274 -4514 918 3606 1756 -4733 343 1188 685 1535 1100 -4215 -682 3191 -4029 1566 4043 -3857 -1478 -2976 1834 -2748 -2261
-378 1779 -3884 4668 -4309 -1095 1961 4609 4558 -3308 4025 1938 4561 3795 2692 562 -5143 2626 -2228 3558 -4012 -417 -2608 -3669 -1626 -1393 1842
-803 -3357 -679 2706 -1192 -2848 3544 -2630 -3275 3812 3636 2573 -2771 3583 4345 -1383 -1800 3107 1954 -3229 -1467 -3739 -2749 4877 5519 2876 -845
-837 -1592 -1542 -3118 -996 -2210 -495 -1554 -2698 728 1806 1400 -2831 -560 716 -2568 -2074 1721 2566 4369 -694 3273 -303 2626 -5002 -1913 2605
139 -524 -2696 -1869 -2875 -3328 -2382 -477 -2026 3551 3912 636 2317 363 -1422 2778 -1844 2298 2771 6016 -508 3842 -379 1344 -3329 2590 2971
324 5115 4210 -1308 -1367 5870 -3690 -4264 4405 1002 -3121 -3195 -3191 4215 5414 1713 -882 -2026 4070 -5301 -3433 3252 -2335 1302 4739 3117 -1570
-1446 2839 415 2314 -697 2970 -4467 3705 5223 -4043 3426 3047 -3344 -3240 3103 -464 3811 -2945 -3947 -3832 2877 -2903 1993 5241 -5289 2568 1322
-1266 2619 2331 3442 1328 -2283 -3140 1877 -3311 -3122 1231 3328 5896 -1469 -2160 -5401 2259 60 -1993 -4062 1733 -1066 3098 -8174 -4096 -3324 2218
-5115 798 -303 -1129 1403 -390 1512 121 -2211 -134 -1864 478 -670 891 2663 -462 2140 -1538 -1616 -918 461 -1196 667 1753 -1035 -1662 -184
0
