2
25 20
-568 1389 4293 2705 -1390 609 -1138 379 1249 162 -1362 -1010 752 3414 -405 1162 702 1625 1741 -2143
866 43 -1580 542 -1755 -1014 1370 -1276 110 -2841 -153 937 335 -211 2176 1327 -431 -692 -753 1030
714 1212 -582 161 -1874 -2689 841 917 -2947 695 3151 455 -633 -961 -636 -1620 575 -273 -3532 -2117
1117 807 956 -1719 -1399 -2136 2062 3176 -1607 1569 -60 2523 -1857 -2199 -2356 1212 500 2890 -366 -537
-102 -1352 -657 -3551 2073 2349 -1357 1548 1566 -1217 -2428 300 -542 -2967 -4454 355 -131 1679 50 1027
410 -2742 -2018 -2366 -542 -1743 -1554 1541 -1769 838 -2263 -3511 -812 984 -1064 -2358 -1366 -1672 2946 913
3185 -894 -1580 -93 -1662 1431 -1185 -1903 -1561 -879 -2157 -1516 3271 1793 -1633 2908 -216 -1428 2188 -846
-1295 -3482 -435 459 830 109 2953 2220 797 1137 222 -2129 605 1598 -154 -2471 -251 -42 1403 1384
453 2375 1455 -1003 326 1462 -1615 -2636 -1017 442 17 1527 1714 -1354 490 234 -685 304 -1237 -2426
771 2820 1588 778 1412 -1088 -880 -854 577 3185 187 1855 35 36 2600 1097 -987 1220 -1360 -1351
629 2422 1026 983 1405 3094 2095 842 -3476 1546 203 2372 -154 -2381 -13 3048 1452 1003 -3337 -624
-1411 -2041 -1412 1122 -462 -1164 277 2281 2051 -1883 -149 -1529 -4359 763 -888 -1431 401 -2925 184 2760
1665 -2876 -3152 -1290 349 -355 418 3788 -1067 -3416 -903 -1585 -2724 849 -64 -667 3685 -3815 -96 -302
3438 -2856 -1361 -1170 -405 1405 961 1628 -155 -1563 -1612 -1612 1734 2430 965 2270 -91 -1337 817 -1074
-4151 373 1072 2037 -2332 -1252 -2835 -4335 1735 -966 1133 468 -1207 -396 2143 -4702 4768 -114 -2255 205
-1129 862 2580 644 -2323 690 -142 661 155 -233 1830 -1064 1255 -2779 1166 3569 1583 2627 -960 -610
1189 -1552 1443 971 830 -3442 -4165 -1826 -1970 987 1005 414 2916 -1737 -430 -2553 4926 -2121 -1008 -3797
265 -544 -2425 513 154 -2662 -313 1213 -1425 -346 -768 932 4161 -1592 -73 2286 -4789 1043 -601 2118
2042 58 632 2293 1882 2110 2574 1270 -797 -1440 590 49 2447 989 1630 109 -3272 -256 -2934 -287
1249 1016 -481 3017 2287 2521 613 2031 -1633 -1567 1389 -106 -326 165 1370 -50 1600 822 -4255 3341
-3264 1611 -53 1747 -132 -756 635 -145 301 -502 -3364 -619 1650 -1646 -9 1585 919 -2652 57 -415
2435 129 -3149 2133 -2229 -368 -1000 4047 -4669 -2278 -4387 -1028 -1321 711 3296 821 -1123 2403 3232 2254
843 2158 1020 85 -1395 -505 -566 -776 -738 -1008 416 7179 327 -879 -2308 -969 1192 -1865 252 3876
-188 -1450 608 2494 1423 -786 2171 598 -1979 -2265 72 -1665 -65 556 3730 -2125 698 -56 1571 2
-3055 456 3172 2511 -1576 -901 2728 688 1628 -3845 2754 -528 2044 402 -2219 250 1200 3142 672 172
1392 -33 958 -3077 -512 239 459 -755 414 -1027 2165 -2593 1922 -188 1029 -1071 790 -1857 -3989 2511
2
20 27
-925 -4366 157 819 1124 281 2337 618 -4885 2466 -2908 -4407 -4274 1402 -3553 -4119 -1384 1897 3329 4666 1724 1747 -4718 -2021 -5193 620 584
667 2369 -3002 -3106 -3385 -3730 -2449 1909 -5210 1223 2301 3980 -2159 -865 -1152 2853 -3083 124 967 -1669 1874 -4823 -2180 4021 5462 2032 -4202
-571 4953 -3168 -3735 -2615 -3649 1835 -2660 3034 351 3541 3642 2976 1890 2357 1243 -4248 -4511 727 1850 -2974 -2908 -3378 -284 2203 2765 -3097
-796 1491 -1437 -3065 -992 -1353 3556 -1981 -3540 2147 1396 2337 2302 1800 3467 1477 -3826 4089 2561 -4386 -2101 -2087 -3599 6637 1391 -3979 -3185
12 3074 2430 -1638 3315 4252 -1124 3107 4334 -264 -568 -2025 -3493 -1970 4491 -3760 2389 -2523 -3476 990 2892 -3315 1752 -1670 -4343 -2391 -5151
475 3041 4924 -3259 813 4652 -2800 -152 -698 3135 -2171 -2030 -4745 -634 1282 -2288 4717 -3429 4360 559 -1567 1221 -3625 -1169 139 551 -3779
163 1905 2244 2144 972 2385 -2102 -277 -1325 4075 -5594 -1782 -3182 463 991 4909 -3813 -2961 3400 -3230 3133 -4561 3115 911 -3132 -6093 1608
-224 -1481 3472 1094 2904 -2414 4877 -5837 1311 874 -2162 -4950 -4024 -1521 -1883 -1776 -4857 -3017 73 2375 -5764 -4139 1702 2343 2027 -3906 3196
1117 2901 2316 -3061 -3274 1558 -2610 -4111 3304 2280 -4764 1288 2488 1203 2036 4098 1022 -2805 1487 -1618 -4438 2894 3326 -5879 51 13 -2972
-384 -964 -3164 1491 -250 -2109 2517 5414 2492 4018 4098 3684 -426 -1813 101 -3738 722 -2037 -4257 3102 3692 -2682 -3599 -5960 3467 -3173 -247
-174 4329 -4150 3654 -510 -5001 -3030 3777 2293 825 1618 2120 -4205 532 1306 -2676 11 2833 -4048 -335 3482 -1677 2072 595 -2166 -2723 3455
203 -112 -4324 -5687 2745 -1746 -2185 2295 -1902 5912 3085 3694 -1073 -2055 -2856 5142 2167 -3048 341 -1542 2738 -1436 -2004 1638 -1975 5718 4851
546 2138 -3912 -3785 350 4251 1988 2140 712 2229 2160 -1664 -2605 3873 4024 -1668 -3301 2675 2029 -2940 -3913 2133 -2308 -1127 -908 1441 -380
1562 2328 -1699 -744 -2689 -3097 2192 -2187 -5056 2774 -1833 -2699 3391 4429 3478 2480 -2237 3423 2071 3888 -746 3321 -1601 -1359 5030 -4362 -1872
631 -530 679 400 2227 -1726 -3045 660 -1121 -3451 2076 3096 5157 4978 5304 3764 -1424 3397 1481 -2998 1042 1087 -1951 3549 -2904 -2786 -6284
1770 -2370 -1682 -1170 1077 4439 -1306 -1050 -3001 4929 -515 -744 -2042 1855 1011 2556 938 -1174 3580 -1769 -1154 944 -4108 304 1280 4425 -2286
-1412 2455 826 -1985 -2830 -4355 -833 -552 -4120 -1486 3878 2904 3217 3933 -125 -4040 -572 -3804 -968 3810 -1399 -2918 4520 4398 2255 1240 2022
1157 5153 -1911 1077 -1322 952 -550 -3873 4793 1902 3175 2230 -1426 -3773 -2200 1893 -3633 -3086 4294 882 -3101 -2585 -2484 4848 4112 2705 -2363
951 152 1309 -440 -1869 4339 3146 -1770 3061 -3908 -1856 -3087 2564 2095 -3398 4183 -4021 -1669 4490 2308 -2119 5559 -896 -3026 4565 38 -1818
473 -557 2463 -63 3025 2581 -1744 1811 4606 -2632 -3410 -4565 -158 -3213 -3081 6855 1857 -658 -5099 -2012 2382 2104 2882 3177 -2963 -3245 1632
-5117 457 -731 -645 1418 -310 1391 -698 -2760 -55 -1071 882 -783 493 1967 -330 3325 -2283 -1391 -965 635 -1721 876 1654 -25 -1756 -313
0
