2
25 20
0.007233561020065747 -0.1279941838629196 0.31105657435132666 -3.14573757615865e-05 0.2017512231471384 0.06397304294660651 -0.025577723982009803 -0.18797971934219695 0.006988032486710679 0.2111186452612461 0.03276045014770076 -0.18758113907416366 -0.030748906181747766 0.0005849491793998456 0.1591893761053062 0.04352523982782872 0.09878738256504367 0.19003015564236325 -0.21192196976901767 -0.2563915413133005
-0.21671522205881355 0.12125378236804797 -0.01584167207373774 -0.07134457966008366 0.1329961495911952 -0.029981932044689553 -0.2360166934190249 -0.016969505294923873 -0.08205230038741547 0.10004576249652429 0.027668745962722147 0.2827509653132812 -0.22837051332884453 -0.07219179575940354 0.053851505751281115 0.09276958446721446 0.20133419730447696 0.08180939776963456 0.02835668063691346 0.02768205751463445
-0.09610022523942768 0.2825999508042156 0.06838253583866385 0.1409903708051247 -0.2561970380323941 -0.10686536955839392 0.21978902761222982 0.2476346073810582 0.21273460808215877 0.09857281850737216 0.07110270085021961 -0.10382433989557116 0.1481433223625381 0.08175841115389482 0.25384111983580826 0.27259578771139487 0.08439669921290929 -0.3187041674245977 -0.01889776738910742 0.22103880123624095
0.11902288182904476 0.2531584262309297 0.20754868068570997 0.34805541960324626 -0.053977060611109545 0.001175980006413164 -0.06352819863910508 0.27703751879832955 0.4566922756253643 0.18578474295326952 -0.19127792989558282 -0.0236899959377119 -0.1702446071949592 -0.1828199389737546 0.10482444898066766 -0.06474050026473478 0.06547895820339143 -0.12576258575474294 0.09931588101949494 -0.10347858431128704
0.18890525498890146 -0.03498078259279001 -0.26372843792278067 0.2299859483478714 0.05932609392643987 0.22732572617767347 -0.24898459897050748 0.2683449365256388 0.21280775161857077 -0.24669716767088679 0.19003117491586052 -0.09338665388142661 -0.27332345221398396 -0.3239231440895588 -0.2743048154133199 -0.1574234222109022 -0.14540956447952025 0.323385575391271 0.1283769839583162 -0.09208525707929383
-0.16989209509553105 0.2034033230822051 -0.04114937416499711 0.3951365562400732 -0.43283936901347203 -0.1454213985664655 0.18120109429868125 -0.09883432799245542 0.01819942967261599 0.18195207053195445 -0.06972047588881557 0.013059771888692886 0.12097172547444159 0.18229634259126598 -0.1000525421015869 0.08803244588847553 -0.1254139222312405 -0.21140985576763058 -0.05478564901498576 -0.17515504719390404
-0.12008900655492144 0.11083951983424432 0.1727809219004054 0.19413861240220803 -0.08615033040451939 0.10193535469405784 -0.13992305096540736 -0.2543611529465009 -0.16201075435113418 0.3111810389094637 0.18668707017024938 0.2123415528505222 -0.3188653518864012 0.008729836069551331 0.13381027868015086 0.2969205731730708 0.11720884075948815 0.04338443943858964 -0.2715758119259966 -0.18742196584736923
-0.12020623548162897 -0.2098969172277395 -0.2816826928518893 -0.10160675853291945 -0.09799234200548305 -0.16939269140625135 -0.07288772057114734 -0.018971063703794755 0.07085339953477685 0.14851607671648256 -0.4515138740611585 0.08413102422355434 0.03887394894454227 0.2449830911187915 -0.0783708679218288 -0.1398022647679755 -0.08348691278680531 0.009666075526642183 -0.024743761424972328 0.09728272804909179
0.21721438035786184 0.10124235367665557 0.07976834713748762 0.09249645873416971 0.12903240741985342 0.13441797254182083 0.13265887304486082 -0.07292875042089894 0.0037468553111946047 -0.07255712075467731 -0.016776419740550094 -0.038194997933423215 0.06744862054363879 -0.05587111985522318 0.09339180148791032 0.19749613119979262 0.1419011331080666 0.09812292459418577 0.12238550238654987 -0.032678863032994505
0.18396540179808996 0.09139268321769885 0.12151844911457431 -0.02058087627086511 0.185459702477126 0.06433851331013354 0.3682596170932361 -0.23821948221013864 0.08337194252124992 -0.2822040245938815 0.044745251988738105 -0.13071492637348087 0.3907183312975493 0.04457540667796849 -0.1177581280730158 0.11740762719520496 0.02889765169701204 -0.09596902224168756 -0.024811467948033263 0.12316594066932944
0.33559701837678396 -0.33852713388389405 0.21136183218941823 -0.21173403035971164 0.0022904637411504235 -0.18260777766188563 0.033916821582999614 0.21900961943705688 -0.07141937856163233 -0.10149663070285544 0.14493805801950146 -0.10301568176463421 -0.12492196559872745 -0.22524583551628358 0.31350049453626894 0.13933231281583727 -0.12365741783150506 0.03137693719625626 0.21020200854030072 -0.17165040952047403
-0.30011001014503375 -0.23164525570137923 0.04172538958762886 0.1303759009561741 -0.2613007045250804 -0.11721522294023569 -0.14928192139580107 0.10917748456844292 -0.047190799975575896 -0.05303210567721767 -0.11255330706547201 0.05352507666909921 -0.16301400015875805 -0.37446247864930426 -0.001491545837619476 -0.12890781996276804 -0.3535534864372578 0.07525233281462844 -0.0419240597314706 -0.12297618432259186
-0.5015998544165977 0.1175879984108267 0.06837033700772462 0.11305561984904527 -0.19483518276094597 0.44956075709897686 -0.21628833595560587 0.09650025528019374 -0.26016378356320813 0.21305707038241464 -0.13601428742681787 0.212730901449661 -0.09912118573170836 -0.16472323135120248 0.026924070719315202 0.1810528431802059 0.20908804228212138 -0.09344656923968195 -0.12933497088282594 0.22798175484697264
-0.2158877838264928 0.09959578024099451 -0.22118879979716727 0.22392668612802666 0.06097169879494243 0.38121732402385766 -0.08761541119035829 -0.40217476902206967 -0.2822843974798536 0.2360240317906031 -0.2790105670831298 0.13418783978038748 -0.1938105985916098 0.049201684722014756 -0.16449454119559995 0.15616875380137987 0.03127192846428181 -0.038677156063633686 -0.14754774604117904 -0.02179813566927339
-0.20408206222584013 -0.16262573435629718 0.07495935565397344 -0.2629696519750279 0.16168904144468826 -0.17048596421384668 -0.09880109343912614 0.4812095112921964 -0.02880561047309025 -0.034841496404459535 -0.008615080364489013 -0.012689157693611673 -0.1537683894348375 0.1485082035340063 0.061885214774153825 0.10421696923201289 0.26220447952938275 -0.34111660768555374 0.4235160087465554 0.462145498138631
0.0010518099720128273 0.11340616465473709 -0.2515601312128738 0.26388096180913606 0.1626184531130837 -0.11171525376829988 0.09262161832585823 0.050678265712822225 0.247043174712887 0.08163246825997518 0.10502105605697004 -0.4008592644472829 0.014625018838990604 -0.14857191626182678 0.3996446443155977 0.048855887453785385 -0.02401895892335272 0.478860623004997 0.3268111367934121 -0.4504701298940428
-0.21685273643847827 0.2040384744985599 0.1831908242503878 0.18010017719885807 0.07955915478177555 0.1943675826664351 0.2870927309594317 0.31499674752765155 -0.14713338688881533 0.03733940228644195 -0.09885245765569768 -0.2746240187350166 0.3337375270668964 0.3162550203990782 0.19110416678309555 -0.056085022354673275 -0.11715471950482223 -0.1680000914023827 0.2799279767553286 0.3204965715140929
-0.11967839501042407 0.1178144767540853 -0.08379778893395684 0.17657095425161531 -0.06128054634051182 -0.37508289100218933 -0.036008036485653365 -0.11447215794826231 -0.026286235932552766 0.12409781491176919 0.18052190883848984 0.07610954612355748 -0.1383251221617411 0.18078054405907396 0.0571343700240221 -0.14168257837800133 -0.19850535991267723 0.13420915548927964 0.001041215238552681 -0.03507573612237557
-0.1797501202533669 0.08685288598749127 -0.10140412728426274 -0.149988138882794 0.2012562005115722 0.27102111295697495 0.14215806152419425 -0.1422105075846691 -0.15629309477474757 -0.02633958357550511 -0.016989802794262893 -0.08641354452119987 -0.0683979811870766 -0.1902494011449629 0.16997438466536932 0.2751156006436114 -0.1660915026941019 0.22196993367351328 0.04406634495043635 -0.15653087010409097
0.3247771128028371 -0.187910204282499 -0.11552604131675401 0.15353376075855293 -0.060020108960350815 -0.014617649716849528 0.25262248714119184 0.0395676653202676 -0.24409939192695496 -0.19215575842600063 0.27188225836072516 -0.047210729270283205 0.014800824857186002 -0.39809643374994386 -0.0774378487481677 0.3141820450037277 0.0196461093565749 0.08299179300684734 0.29847773928525434 -0.36300131571929267
0.037088730975026296 -0.2997272300992057 -0.07536968501522531 0.008208732472650764 0.013819222700079738 0.03383670856206918 0.27803210832201053 -0.07905067781093332 -0.16132169526383866 0.10663734940156835 0.09531270294871914 0.02641566676993636 0.04388774790118112 -0.06826182596461228 0.16060922045870285 -0.2784236812028824 -0.4941345023040567 0.24214931143958462 0.2168255468641866 0.045502212954973344
-0.00949858803676755 0.26069041175643703 0.42893295144272864 0.3363917364742787 -0.28596265360938106 -0.41643142994144433 -0.0715203947406037 0.03677212013810191 -0.31611074711938547 0.11980572424304681 0.21348308206534775 0.3338028944850416 0.24967284509984283 -0.21339056718448743 0.314674231018799 -0.2346313563157265 -0.16758234593878713 -0.11915447317634764 -0.41393163758245916 -0.03139692495738832
0.1884984378246165 0.031427959035931666 0.1342541790321731 -0.08657815262398016 0.017271796618448756 -0.0530952565409208 0.06974330898232753 -0.03268810894049891 -0.00012763793874366765 -0.10136895802515662 0.07013208098522962 0.04845140906987945 -0.3876972432482494 -0.09333647079297978 -0.36508254866709045 0.45358641243006675 0.5844546718176349 -0.06766550553040777 0.07488235616931753 -0.04191130296248488
-0.20377342738978715 0.12789438978485235 -0.07412046848561518 0.1032393712247458 -0.009230492216433529 -0.02318820389979384 0.10686772979850633 0.1316971798684803 -0.2977024150490627 -0.1176648146907373 -0.2599720725239013 -0.0557260839046533 0.29082053620767445 0.07800998768953138 0.018024117566850163 0.13937501513185513 -0.22008647715887575 0.16576801331886437 0.21495734394816574 -0.0829288630464743
0.07692231682435512 -0.034065531976342135 -0.2852200832998113 0.1605943544459596 0.09395260797841566 -0.024444079364996662 -0.01723765031689783 -0.018386440262202246 -0.09838622161783374 -0.2341103233343072 0.17907942637515878 0.11587927781077689 -0.07978578949482532 -0.11029601608689399 -0.02873825814295889 0.10420700318639171 -0.21158514548549118 0.37949182882512505 0.39651756375896563 -0.08923455459982414
0.08015059602310025 -0.3770961125620775 -0.017949487720848825 -0.03924354112043463 -0.0577648363000697 0.04475521211785479 0.11879496912023385 0.09188980312665411 -0.2724208589505895 0.19912236295714247 -0.0613885827386267 0.3121960029167852 0.1489636496201548 -0.19754823263223734 -0.031104893343759397 -0.22367953642141225 -0.09122854004496664 0.022859930945026856 0.29754889826301684 -0.01570645223623637
2
20 27
0.027849560714081827 0.26665499535340925 -0.1405630398009745 -0.4519334630868778 0.29645106000567173 0.15313068929327456 -0.44307265026096854 0.09176242605871944 0.255489609889994 0.25525006481319196 0.2730440295845033 0.2427123818224264 -0.44044129240117275 -0.3182432617599937 -0.1862322081029472 -0.12564640043586398 0.35904536740684917 -0.2357018539351599 0.14328926349883267 0.22583709081767245 0.0786100139697897 -0.3860066098703129 -0.444996215792045 -0.05138078293715429 0.4486512351708978 0.07954037574868866 -0.3879662657583645
0.13822117680354076 -0.39829718533157976 -0.48284351376218837 0.3816679642608636 0.2579311155254537 -0.2159461360452565 -0.10122532654297083 0.1465041808866742 -0.31355826315354185 -0.2146351691434239 0.28738733255945015 -0.20842809324525025 -0.2533532323550546 -0.20105949492779832 -0.41870910390532223 -0.26346116116246776 -0.37241801938693114 0.36682482013038087 -0.31820052227227497 0.08978397827618573 0.5642351159113017 0.08594160680235319 -0.07650984280279896 0.11366231988431232 -0.3634306902057303 0.3853052367575854 0.30856592284717893
-0.07770965085525929 -0.4522265460524535 -0.2202628639020532 -0.38114196031233494 -0.3099539503091395 -0.27580027960841436 0.3437981038956763 -0.05106630843330015 -0.4231113607548108 0.2755204300811908 0.21291998886520971 0.12832955742597688 0.1930241967017762 0.27029490798319705 -0.46800227342207956 -0.08593576124961204 -0.05757219659029941 0.42187432678417763 0.21623021527984898 0.17157850779441947 -0.13532516147920617 -0.24494741891846655 -0.3287710842496955 0.551529012957908 0.3316900125345383 0.31116749362080803 -0.3768188632611749
0.10071242287804974 -0.24312256592541062 -0.2330454857749308 0.39737500710350115 0.14126498977748303 -0.12422373010970741 0.48409257728997057 -0.43886577400759025 0.18641116218636355 -0.2942161107508824 -0.026681338046163305 -0.16315095926222328 -0.18447163801740002 -0.3351780998920446 -0.1407941429165439 -0.24452319535580266 -0.5176625215369021 -0.2464658283962011 0.09340640664982895 0.4696840283907637 -0.21803342537116127 0.11936199835397063 0.019200336680862223 0.07627966282382419 0.2883450392368503 0.4764823485107425 0.39199521680579086
0.13664578751024495 0.5985316875549489 -0.25879353904192015 -0.37760770951636335 -0.2381159174086674 0.3260179956520715 -0.39686136469497135 -0.3580023629481835 -0.1351734057072883 0.2202025498368284 0.3137901341604552 0.4934569168365294 0.23150837537268545 0.48987775442159104 0.5322511596085101 0.17007311539390735 0.011809909074369436 -0.4662169800550669 0.34375217973667144 -0.21705804584422822 -0.33611261919335556 0.019905188325896477 -0.33651936626301127 -0.09234961356396192 -0.2709948636423591 0.32146519125844064 -0.19472992846963735
-0.15317614195763324 0.05110270446143172 0.10588683504856898 -0.4020508508128384 0.016564060748537418 0.1558707822555802 0.3853314040509021 -0.307585483435823 -0.5066149775630069 0.25181996150607716 0.003254582860475158 0.0583693982319668 -0.3713646467488891 0.4948622933509343 0.36677715460943283 -0.48888643746223925 0.07422470095322209 -0.4118216261344827 0.4863093028870906 0.5258113282880144 -0.1659183684671622 0.04933931262734155 0.43347430287969496 -0.5596889144031443 -0.46643441298307325 0.18706970469943723 -0.18833155644564512
-0.03869350445610601 0.04695137076822998 -0.4437395460578519 -0.12373376922059595 0.26981309174451873 -0.33947126490567686 0.17256013437074752 0.2784304117038844 -0.0048752793873449414 -0.42572361466152653 0.13357376004870683 0.2301856315936114 -0.3392298468132114 0.06525045305932399 0.22918739675252395 -0.40565555298400063 -0.1437084256147221 0.28055915934216885 -0.3576350061929754 0.23985603283090065 0.36135429806316227 -0.5731377930582502 -0.22291780657239096 -0.03884124353764004 0.17358235947359862 -0.4170734922944565 -0.13622904077363968
-0.13248653346838826 0.166104814058318 0.33084587112201325 0.2618588149226832 0.21029516947006388 -0.40965153167758533 0.026015453748303923 0.1281872152055688 0.2241816622960093 -0.4542927839196874 0.28676089704454283 0.3436404362695813 -0.0991610843707743 -0.22147502716885223 -0.3577057530872985 -0.38308057375487703 0.46202223979221485 -0.2611114448586462 -0.26681461301575127 -0.2242064042924774 0.46739137240395673 -0.2714771953433488 0.44239499138055693 0.4262507949014559 -0.17553316517964845 0.5593342764988838 0.23304392829235104
0.1343587595430786 -0.16143952143265933 -0.1899002392965141 0.466739349233877 -0.4157926001837744 -0.1912509554659929 -0.1622027404734608 -0.29998714222173617 0.3485877237280532 0.5666557051364548 0.2332046057259981 0.2517354724955711 0.06347417159695751 -0.25848737926413023 -0.34568782840110235 0.24118117757018487 0.0333239008708802 -0.23224198148915953 -0.34297978104115884 0.3576614905545598 0.3403571534559469 -0.36566012087898603 0.10632898898027898 -0.3322847425995629 0.16015664724019965 0.4260572410694627 0.5750243581010165
0.0521248434377048 -0.4845342486258627 -0.07887557973947726 0.517905796642755 -0.22401728087427109 -0.248925983782124 0.34546299107213807 -0.09515698526088577 -0.49353933873461253 0.4267949008874426 -0.0822783942885131 -0.34126042216829655 0.26166893090134763 0.3580044262599535 0.23708692518465677 -0.05229036292931326 -0.0409990011722146 0.21576828272515702 0.25998309733319763 0.16139961493964566 -0.13183571356267665 0.26214388535568084 -0.3013475558713207 0.01578208649298225 0.4814122847512624 0.14683445978531795 0.5392703860189788
-0.035250830208787505 -0.18169160451684266 -0.1591794247826172 -0.11116245098269782 -0.1844665871171139 0.10173740648747069 -0.0041421972154054125 0.09240735919513823 0.07444708691014738 0.08389590433134855 0.22789293724366574 -0.043486593946533994 -0.34251404883863135 -0.29733460321940663 -0.15434269672625217 -0.5644481063257523 0.09353631734565675 0.16577222705017136 0.06086657642519636 -0.4661524590519228 -0.09309253782530273 0.2491731014773862 -0.13181964513443803 0.6332883615724011 0.6979224757640172 0.14824957660128996 -0.3190004848143549
-0.022897961131877004 -0.2653371642916823 0.22864480664564243 0.3105065878927879 0.14501786573413158 0.3599678451908574 -0.3767768336721568 0.09758521304717316 -0.2744132003755994 -0.2628381349555738 -0.5016511886751852 -0.25951472800699693 0.327324245294647 -0.21904920189662516 -0.49515480653537586 0.3026533633478818 0.11301508890461208 0.05169498908715012 0.4610985991741287 -0.3898517668558329 0.10793854592694599 0.3576536038692994 0.39514589499981617 0.03621722926629453 -0.28453928841790693 -0.14622522280390507 0.24030746560665714
-0.12050920999830902 0.1275206291286024 -0.11529157913476927 0.4412873860375585 0.3274430198699567 -0.4514028383315524 0.0918444749353109 0.3606315299302394 0.17568562747906977 -0.47337297908686937 0.03435931688657516 0.11886283744005519 0.06854973957074412 0.15355326432424202 0.110004586820735 -0.42159652062146746 -0.06826971739167287 0.31910457333949555 -0.40299441953238496 0.1566044288071708 0.40436583736102305 -0.3857259292289633 -0.14781450264995755 -0.2976101997702678 0.18349818861501782 -0.2748734789842835 -0.22613941774444546
-0.03780872081231949 0.17792019073458026 -0.3884187745541033 0.4668982809897201 -0.43092524373450203 -0.10950539434965757 0.19619857439800922 0.4609707678959811 0.45582214694274825 -0.33083873940170794 0.4025177416441426 0.1938546541950795 0.45611078658956206 0.37956171067279276 0.2692238228761101 0.056283840180434586 -0.5143411521723267 0.26268835482278047 -0.2228969064094158 0.3558322862726318 -0.401267427352975 -0.04170124861496029 -0.2608816637731792 -0.3669811674509395 -0.16267757311683423 -0.13937019661618577 0.18425085705390154
-0.08030443865188547 -0.3357981087290468 -0.06794322783736842 0.27061610184136337 -0.11921626242469355 -0.28487170131364264 0.35447544031687034 -0.2630755711624812 -0.3275484030620394 0.3812401811962712 0.3636920306232825 0.2573186400490063 -0.277193967314733 0.35836213899657626 0.43452593874326034 -0.13838939152318183 -0.18000160644964353 0.31070101853155074 0.19541721170967588 -0.322950613757092 -0.1467604003500867 -0.37391076981503013 -0.2749210325528687 0.48771599693085094 0.5519427376264988 0.28762956188142524 -0.08457684843084375
-0.0837854022563068 -0.1592244038582636 -0.15420246339257687 -0.31183283119498734 -0.09964569990020941 -0.22106040376972644 -0.0495428310214782 -0.15548327778643214 -0.26987197223738385 0.07282066935481989 0.18061718002988106 0.1400937316640466 -0.28312268004162044 -0.05608749084403193 0.07161243911873387 -0.25686415384552386 -0.20740942125990194 0.1721948868461512 0.25662187120005603 0.4369651342233149 -0.06944425394836673 0.32733660321096014 -0.030360587042514695 0.26264111528801054 -0.5002436397039065 -0.1913517522994155 0.26058481375281495
0.013915252035379492 -0.05244380486528207 -0.26964892868995666 -0.18693773619997356 -0.28752347483615515 -0.33284688458535067 -0.23825644531514054 -0.04779103798403612 -0.20263048301165085 0.3551107408997178 0.3912217159802359 0.06368157330157692 0.23176371556599776 0.03634410675564593 -0.14222832119984238 0.2778963155151571 -0.18441433592328496 0.22988854460074898 0.2771090962342812 0.6016691526229633 -0.050871379558968054 0.38429091200042026 -0.037940472505924354 0.13444469638937945 -0.33299872252664453 0.25902477166430504 0.29710853291032574
0.03241275891073212 0.5115260879043625 0.4210332883784348 -0.1308541534939362 -0.1367063297365167 0.5870851219353075 -0.3690939449180859 -0.42649194333855733 0.44051105577277366 0.10029081470082529 -0.31216335510952037 -0.3195011966490156 -0.3191393574143916 0.42150415534449714 0.5414382430837531 0.17131095871712695 -0.08824022312790374 -0.20262908480463118 0.4070978873914392 -0.530114201761786 -0.3433456522001367 0.3252456124338058 -0.2335088874643464 0.13028632285313566 0.4739412051847654 0.31172614838443 -0.15705626730105682
-0.1446495223243679 0.28397670083446386 0.04156089424726422 0.2314051316469532 -0.06976181451510355 0.29700604542442305 -0.4467561292071502 0.37057228533746256 0.5223820407297892 -0.4043775633276106 0.3426935770609006 0.3047578558076021 -0.3344820835029011 -0.324003040241789 0.31036701736537703 -0.04647586931772234 0.3811701636081756 -0.2945990276901935 -0.3947141797639402 -0.38327100876798 0.2877761466876793 -0.29030884270006047 0.19939322124269251 0.5241737886182425 -0.5289906843061876 0.2568593067384183 0.13227093320953717
-0.12661680874810174 0.2619717414366659 0.23310462466015794 0.3442098383412169 0.1328422437297606 -0.22839208147639575 -0.31408511545327894 0.18770343027459035 -0.33115887699120844 -0.3122722420682666 0.12319590292926628 0.3328617042674563 0.5896994233649859 -0.14693422307288007 -0.21600054129379856 -0.5401335583863798 0.2259285296165845 0.006048803027801164 -0.19938061217273387 -0.4062359669389652 0.1733034083934143 -0.10664009736705556 0.3098187181316763 -0.8174830692147848 -0.4096802171059792 -0.3324317169194425 0.22187244944259585
-0.511597503321111 0.0798455804040113 -0.030373149506640777 -0.11299132304395573 0.14030706792405012 -0.03908061782886371 0.15127232878442184 0.012123227730872281 -0.22111342272201615 -0.013471966160947821 -0.186414422795881 0.04782463282011597 -0.06709480145013909 0.08914656060080571 0.26634485251170387 -0.0462770328868543 0.21402197366991726 -0.15384083465860623 -0.161613212870828 -0.09188383993671792 0.0461149349355454 -0.11969592448934793 0.06676209149666214 0.17533842370464442 -0.10354244619353951 -0.1662410963434486 -0.0184654578985287
0
