2
25 20
-0.05688850131247961 0.13891241537400126 0.42936274079108305 0.27058627939458857 -0.13906348522144257 0.06096684006052067 -0.11389183293559549 0.03794785317102096 0.12498241882473915 0.01622594761669196 -0.13621067566826459 -0.10102363757942277 0.07526493222573388 0.3414277631289664 -0.04052090112258882 0.11620328629215479 0.07026225787101442 0.1625861069795227 0.17410530990680104 -0.21432781530447315
0.08665833047859434 0.0043604355598822935 -0.15801404083125517 0.054211979703667604 -0.1755125556327721 -0.10145508669082563 0.13703739887542277 -0.12765254854508473 0.011011771450781957 -0.28413243314585257 -0.015328147073479754 0.09372458340739813 0.03354293738503153 -0.021191326093668687 0.21762114874204105 0.13274602640958053 -0.04318040124509968 -0.06922321235175943 -0.0753069676032312 0.10300496577363967
0.07146645785075845 0.12121501831095537 -0.05821565035799556 0.016148414159957478 -0.18748701860411693 -0.26896771212030013 0.08418321406445758 0.09173351519684021 -0.29477881503608067 0.06958498464078562 0.31517769047144567 0.04555815273720518 -0.06336493615799857 -0.09619490747764102 -0.06365202422701147 -0.1620471480579057 0.057547679567570356 -0.02731769749477985 -0.35325144812931475 -0.21173689767153558
0.11170244932537247 0.08070629523492212 0.09565091207230995 -0.171996020862572 -0.1399997548111462 -0.2136925388337181 0.20624507840615985 0.31764229380608583 -0.16071844648768924 0.15690482563229466 -0.006029321722859358 0.25230517208529946 -0.18574157133778615 -0.2199780042743913 -0.23565642450536817 0.12126460047721341 0.05004214796455146 0.28900893279661594 -0.03664720615093987 -0.05377168288332759
-0.010261869001702796 -0.1352557993317409 -0.06571571035987804 -0.3551334077029721 0.20737652007289234 0.23497524151370003 -0.13572092203227515 0.1548558438157687 0.1566064671923165 -0.12173258680322466 -0.24289164162503468 0.03009595298952032 -0.05422465439054347 -0.296769972509524 -0.4454576486569011 0.03558201886456938 -0.013115979167973963 0.16793513111935937 0.005040468180351689 0.10272863922710962
0.041098527298023796 -0.2742641605550188 -0.2018103688383068 -0.23662253108101547 -0.05428917194855539 -0.17439020895180427 -0.1554454991279409 0.15416736151897478 -0.1769594209891234 0.08387145271090814 -0.22636759388741493 -0.3511489856590466 -0.08121495017852887 0.09842700085718882 -0.10640586555820591 -0.235833370110503 -0.13669591486447236 -0.1672832056157881 0.29464925806176134 0.09137049321149412
0.31850096892990193 -0.0894728986393236 -0.15809050257636922 -0.00931804276425854 -0.1662225035978714 0.14316210002820565 -0.11856744225480786 -0.19031449257893332 -0.15616069874543537 -0.08792072317467668 -0.21573055649181794 -0.15165365092550243 0.3271493759618374 0.17933753158196167 -0.16337840156748082 0.2908696120424178 -0.021676995312321326 -0.14283600434265517 0.21889171898895468 -0.08461078380585692
-0.12951922797493087 -0.34820371272034756 -0.0435796251423624 0.0459928533689613 0.08301249776833072 0.010948885690570839 0.29537321067422867 0.22207634555142136 0.07975302851329041 0.11378525887264414 0.022230762455198266 -0.21292329919568834 0.060553968700930334 0.15986583611362534 -0.01541035440314285 -0.24710820155788152 -0.025149205292769237 -0.004243451853541435 0.14032194922139488 0.13844298770164487
0.0453841512536929 0.23753697373422153 0.1455820403832489 -0.10039675489318096 0.032679181383911585 0.14621072025128684 -0.1615737252941121 -0.26369090087924013 -0.10175782169458562 0.04429278914100741 0.0017802224591870796 0.15271829425534847 0.17147354301971668 -0.1354564630542798 0.04909880369311587 0.023482064154324217 -0.0685925037687985 0.03040900357259144 -0.12374223585477963 -0.24264347792203758
0.0771033290730579 0.2820860010746209 0.15887659300542528 0.07787118849403597 0.14121678083783054 -0.10882733414338729 -0.08800521145699614 -0.08544457417718715 0.057738520113693494 0.3185901590129666 0.018769459683206192 0.18552087935652378 0.0035425507459906818 0.0036308881298652887 0.2600338527041765 0.109767806102715 -0.09874133394911416 0.1220063721599706 -0.13602027313652537 -0.1351189426373075
0.06298481736463644 0.24223366308625227 0.10260956439163525 0.09838219699651019 0.14051010846718254 0.30945229535635066 0.2095992067859011 0.08420613819173414 -0.34761979515206337 0.1546466293320237 0.02034075611842509 0.23728586073995306 -0.015441922151956215 -0.23813827836386875 -0.0013138240597180967 0.30487148055300883 0.1452524292451655 0.10038072825916544 -0.33379794316332956 -0.062405144159833344
-0.1411620229633601 -0.20412907807074923 -0.14122924486286806 0.11220307955064832 -0.046286018829649674 -0.11642714803682917 0.027784361163178062 0.22813434771574648 0.20517326773803482 -0.18830343849717285 -0.01490132401043832 -0.15295748943088402 -0.435930648139185 0.07637696522839675 -0.08888546637889845 -0.14316848686847294 0.04019231265744755 -0.29259100085080186 0.01848428357847755 0.2760882668360649
0.16654779513568935 -0.2876891054200885 -0.31528302483586707 -0.12909579743220256 0.034968279317462325 -0.03550895895205728 0.04187716466026108 0.37884069415352717 -0.10675697318589153 -0.34163804935784836 -0.09031675354297738 -0.15857702772461857 -0.27244990113742645 0.08491021767787173 -0.006433874969388998 -0.06671943254260569 0.36859894503338114 -0.38155717304415215 -0.009642794874166282 -0.030289313959215778
0.34387578165709787 -0.2856293587518537 -0.13616419334312313 -0.11703502388732778 -0.040556386378743106 0.14057355453900242 0.0961230063618874 0.16289160438390593 -0.015538712892212316 -0.15634187434412453 -0.16121648458887994 -0.1612502425318293 0.17349295778149562 0.24301848526269137 0.09651543561993077 0.22705365402276725 -0.009115929860208483 -0.1337795373117108 0.08172984009612785 -0.10743945618512629
-0.4151934582240602 0.0373696597077271 0.10720958797461382 0.2037651930155362 -0.23322666673148204 -0.12523801956767636 -0.28357820787940496 -0.43359530812699365 0.1735432917440557 -0.09669497090247862 0.11336729894797329 0.04689059579979392 -0.12073823114855826 -0.03960782547127684 0.21436702894398446 -0.4702760765648719 0.4768715845417089 -0.011406647247801757 -0.22554664158780785 0.02058180283343483
-0.11290397324434051 0.08623478594736991 0.2580389321483283 0.06447666437625085 -0.23231897968057327 0.0690696805850624 -0.014292487426732677 0.0661951090372852 0.015509895591984046 -0.023380904599211345 0.18305744244614341 -0.10645530182922038 0.12551302192605923 -0.2779524530160998 0.11664122550384855 0.35691807464141667 0.15834992736701267 0.26276438471591373 -0.09604044190895715 -0.061094157023907296
0.11890160966952595 -0.15527878558640107 0.1443402126304928 0.09713001210845647 0.08301750257786882 -0.34424033532603737 -0.4165443899608268 -0.18269226028089258 -0.19708863103038474 0.09873063560096963 0.1005418874540385 0.04142756568996583 0.2916749496873235 -0.17375872218517147 -0.04302967966112358 -0.25532010457108656 0.49267039386535594 -0.21210185300552079 -0.10080322181560598 -0.3797462987030446
0.02657254783293433 -0.05441720171011045 -0.2425008328399682 0.051306422932949874 0.015435451109587491 -0.2662888726531095 -0.03133990229191589 0.121317869396947 -0.1425244797586257 -0.03461891899983047 -0.07680786055564166 0.09329709328337421 0.4161167806515565 -0.15928907256044797 -0.007395601321560382 0.22860973924309652 -0.4789326350947011 0.1043409403950531 -0.06013840083624614 0.21187132523421248
0.20427862425817245 0.005814855514744682 0.0632492453845426 0.2293063314712633 0.18821847832943264 0.21104073393632566 0.25740297691731856 0.12706397116753454 -0.07974098753529339 -0.14401766707131836 0.059080798283038374 0.004926690341578915 0.24477142901490442 0.09897075220460153 0.1630055577507399 0.010922242508145361 -0.32726486013673584 -0.025690894337526974 -0.2934197811120956 -0.02873632349588482
0.12499635229209893 0.10162898533976356 -0.048153376690631904 0.30173194144227367 0.22876254823648245 0.2521896852237974 0.061306152658939565 0.20315833980563408 -0.16338078012202414 -0.1567081090991491 0.13890567660603276 -0.010653044616284791 -0.032604941400914134 0.016525163136005907 0.13704203514806126 -0.005005651278675273 0.160038733106041 0.08224531355730191 -0.4255577700688248 0.33411982273019925
-0.32641660107167886 0.16111145795952192 -0.0053511281276427325 0.17471346179824232 -0.013268013109340896 -0.07567362114438538 0.06355906462390463 -0.014583160014373172 0.03019239939098348 -0.050287028115279575 -0.3364483847849957 -0.06198780876219581 0.16505818642524958 -0.1646375911875928 -0.0009660589339168613 0.15852216286505286 0.09194340619052382 -0.2652143866249151 0.005758326058562807 -0.0415820969971237
0.2435832133016261 0.012910778697631763 -0.31493918656885184 0.21335132753717545 -0.22293602845750912 -0.03687916638742036 -0.10000916543679218 0.40471562380651255 -0.46691895250695153 -0.2278466697078431 -0.4387140179899488 -0.10286356935945477 -0.13210521362127783 0.07111038549063588 0.3296969289472594 0.08211721935009594 -0.11238317886837842 0.24034988263666668 0.323281747661457 0.2254713462101286
0.08436815447746576 0.21587393186829526 0.10207453832889875 0.008532135586126489 -0.139543593478615 -0.05050263482983548 -0.0566484343099627 -0.07765125816419119 -0.07387867217933164 -0.10088292121597171 0.04161079851083686 0.7179932178170365 0.032748990549921614 -0.08795414472118818 -0.23088072418070085 -0.09698381400631456 0.11923707401608476 -0.1865259027026598 0.02520726136334519 0.3876327246433931
-0.01882038256460357 -0.14508326791756884 0.060855012335267994 0.2494188906761291 0.14237024734304335 -0.07862108859272446 0.2171554350062808 0.05987976995347209 -0.19793253813557143 -0.22651855568235055 0.007244661938188263 -0.16659403017011307 -0.006533087312016958 0.05569810275337237 0.37306061165419274 -0.21251077077441735 0.06986710786819986 -0.005632651631389413 0.15711244254882392 0.00020223054358616354
-0.3055323491032227 0.04562004223509724 0.3172687615389652 0.2511722777398758 -0.15765355303153453 -0.09017175107177881 0.2728979113118925 0.06887490912783734 0.16282985340086953 -0.38453410639900765 0.27544996723116644 -0.05284297359213781 0.20441475112065804 0.040237337294478814 -0.2219423622838518 0.02506838806954679 0.12003103317355732 0.3142167381010403 0.06726591287742584 0.017240771434663092
0.13924315336760323 -0.003399801198141393 0.0958648932955795 -0.3077679777855951 -0.05128608259652601 0.023984769956959643 0.045968648646407206 -0.0755302561267868 0.04145117587046364 -0.10273220563002482 0.21657741967588037 -0.25930317249595597 0.1922396749024979 -0.018852977115330172 0.1029440337131357 -0.1071922167026876 0.07902293819250895 -0.18571508050462657 -0.39893999593228036 0.25118807709407076
2
20 27
-0.09253810136507398 -0.4366823689676032 0.015723912626089874 0.08198781115599553 0.11241595682947893 0.02813882227112637 0.2337519399911946 0.06185342758098618 -0.4885313972233506 0.24661391880703543 -0.290874866096294 -0.44071663272594175 -0.42748945315323117 0.14026247026719801 -0.3553324345493276 -0.4119188812312696 -0.13841871207126213 0.18971901946839323 0.33299942789723963 0.46668904232752867 0.17244727315505798 0.17473624418471875 -0.4718336456908443 -0.20217727384034706 -0.5193867086302008 0.062011196331896806 0.05849231971819484
0.06677160902535637 0.2369148416512642 -0.30026340162222653 -0.3106917687740352 -0.3385935330127258 -0.37309105904214535 -0.24499157282985562 0.19098620012764136 -0.5210118570685516 0.12232841233951146 0.23016877056353896 0.3980336661261916 -0.2159722537696372 -0.08656031390434692 -0.11521958536337933 0.2853648991462501 -0.30837329527416346 0.012430430273501797 0.09677829775045659 -0.16695332204233274 0.1874700096033599 -0.48233074343601956 -0.218028906918521 0.40210588807860587 0.546279591135287 0.20325322034104765 -0.42029268639759376
-0.05711061997226108 0.49536550842014926 -0.31683969757536135 -0.3735587285135591 -0.26154256501780376 -0.36497851855551244 0.183571530628741 -0.26600450040226503 0.3034119945961234 0.03516144375899681 0.3541318528646936 0.36421305785555874 0.2976339911963156 0.18909849266221032 0.23571322475410922 0.12431604794869486 -0.424863763337807 -0.4511834700160836 0.07277146927737396 0.18502319766769768 -0.2974601301407389 -0.2908817702054871 -0.3378696477584072 -0.028487267251499894 0.22035323198120013 0.27651736780181563 -0.30979622490425607
-0.0796769236658347 0.14916262553610712 -0.14371216350873176 -0.3065551324346731 -0.09925847456154888 -0.1353910636326814 0.35568118247633707 -0.19814435939609276 -0.35403923251171054 0.21473549208272893 0.13966167633799728 0.23372224267957845 0.2302996397580575 0.18004318577523837 0.34672407954163376 0.14779335186295478 -0.38261896588904354 0.4089152037980948 0.2561731728149612 -0.4386978764946084 -0.21019875770245106 -0.2087570494097019 -0.3599665823716015 0.6637135492134841 0.1391567985532956 -0.3979519698935339 -0.318598956286226
0.0012441609368192123 0.3074269460409581 0.24308868471474454 -0.16380508130977717 0.3315628021381857 0.4252545220235448 -0.11247452277842018 0.3107890460691741 0.433414298596933 -0.026426385681774765 -0.05681415823558933 -0.20257655845929104 -0.349394833947823 -0.1970312378821504 0.4491234181336322 -0.37600612632924213 0.2389916882558692 -0.2523155770310006 -0.3476434682348622 0.09908558821446543 0.2892897580022413 -0.33159528006454303 0.1752250480050995 -0.16709397850823032 -0.4343405266204606 -0.2391269730662309 -0.5151081243098641
0.0475781969627315 0.30414928497864113 0.4924260418514991 -0.3259702144943233 0.0813811823725199 0.46524517673974525 -0.2800755312818422 -0.015272391661931072 -0.06988282293343083 0.3135297504722676 -0.21715690224974793 -0.20308382880753031 -0.47453375560194716 -0.06340524105599732 0.12828110932989753 -0.22886950484583723 0.4717186659794756 -0.34296640226758834 0.43608969253472485 0.055909205376064315 -0.1567162714253864 0.1221029489429057 -0.36259059498776947 -0.11692857177340985 0.013969987816480612 0.055150216798262 -0.3779129239500006
0.016332845666466655 0.19057903937924406 0.22443446874647344 0.21445134112972444 0.09725034956320466 0.23857722350006288 -0.21021301382679916 -0.027799426607062683 -0.13259229839573558 0.4075860990761064 -0.5594036029353554 -0.17822334128629405 -0.31823753254231807 0.046354447215234115 0.09918093860165023 0.49094276319411567 -0.3813684418637977 -0.2961782236683991 0.34000919564906806 -0.32307883603322124 0.31339243965360786 -0.4561287507281894 0.31150082012016667 0.09113131349179203 -0.31328040519734945 -0.6093527484403157 0.16080197268517146
-0.022454525236728185 -0.148129537422619 0.3472267967903202 0.10945334286608333 0.2904933782511646 -0.24142870208215023 0.4877016696421868 -0.5837834692869484 0.1311548885656658 0.08745865634408173 -0.21627536716858875 -0.49506480897794275 -0.4024777279717479 -0.15216053806144322 -0.1883771405137652 -0.17760471392093902 -0.4857559393278542 -0.3017599150052151 0.00733747785646051 0.23751038653708037 -0.5764566554742547 -0.41392524070009035 0.17021847514842411 0.23439527094362064 0.20273220038786616 -0.39066318434804026 0.31962078399165206
0.1117005601075783 0.2901023205576351 0.2316864773154709 -0.30613377959765903 -0.3274605910931779 0.15581833950557472 -0.26106995831313307 -0.4111287430813927 0.3304284202564682 0.22805747604878548 -0.4764937822072256 0.1288049002714744 0.2488649222804667 0.12031367854140435 0.20362999082674252 0.4098082309832501 0.10220751803603384 -0.2805640507390824 0.14877928069333823 -0.16180753904025863 -0.4438317243924583 0.2894720044760464 0.33269987063063644 -0.5879135928733135 0.00515595805379653 0.0013211514720856744 -0.29727143628030916
-0.03841972160171331 -0.09643247002782294 -0.31641984640491594 0.1491469397497682 -0.02502087337454581 -0.2109273506384444 0.2517735184321879 0.5414721681520659 0.24924991380095277 0.40183278038944537 0.4098758128499103 0.36848676426225424 -0.042652706397080756 -0.18133791435989802 0.010161754208334883 -0.37385512494275325 0.07229518972460536 -0.20371700151185984 -0.425759889850546 0.31020712486826935 0.3692235503343274 -0.26827638774929013 -0.35993180342425646 -0.5960414320399208 0.34670505086022335 -0.3173063224679671 -0.02470834252437147
-0.01741244276594162 0.43291298342524037 -0.4150409368857796 0.36548118545694014 -0.051037546735722715 -0.5001291645115906 -0.3030667442431371 0.3777015501493162 0.22938080389028578 0.08255885822533486 0.16185538863794705 0.21209432683653898 -0.4205652430447406 0.05328733401368315 0.13061995941643845 -0.267607650632256 0.0011856447072756521 0.2833052231326753 -0.40486375551246234 -0.033591533895048535 0.3482515132475931 -0.16776053169911398 0.20720168157117805 0.0595759196924884 -0.2166543961224631 -0.27231970695046875 0.34550473223299777
0.020367281706858555 -0.011287899409518031 -0.4324334178981416 -0.5687994098437649 0.2745333299761813 -0.17466707599368816 -0.21850684198542156 0.22951402314529326 -0.1902322200579668 0.5912317374978098 0.30852406494489265 0.3694624498352604 -0.10730696508357547 -0.20557480325394867 -0.2856279411555616 0.5142002327909321 0.21670618906168398 -0.304826410067593 0.03416260936092531 -0.154257646081049 0.273850042157355 -0.14361463319687998 -0.20043320852397079 0.16381927869766053 -0.1975328734863745 0.5718671528595126 0.4851605926544153
0.05461049492844174 0.21381661941423402 -0.391233552099541 -0.37855312701215155 0.035005710518732226 0.4251104495519917 0.1988975794852672 0.214035034215484 0.07120949707990144 0.22294506036676406 0.21605086815112368 -0.1664365129852356 -0.2605371486258726 0.3873482756148327 0.40243257649162045 -0.16683024401916213 -0.3301887800551077 0.26758954080224556 0.20299674364574868 -0.29406933171688426 -0.3913797851223983 0.21330496221727044 -0.23080681890432522 -0.11275748158780216 -0.0908259940856958 0.1441455405676574 -0.03804945991198829
0.15626164022452468 0.23286650191540745 -0.16997311973169055 -0.0744061312278266 -0.26891284547370153 -0.30979807522525654 0.21926620969457145 -0.21871079912811278 -0.5056759774951867 0.2774256724059986 -0.18339267640179607 -0.2699647049823556 0.3391219474704173 0.44290336584049805 0.34780916358461983 0.24806546013481395 -0.22373789343465036 0.34234830332465654 0.2071973968798149 0.38885936399552923 -0.07460880188749723 0.3321245899853439 -0.1601682602243581 -0.1359574595882393 0.5030870674596181 -0.4362499302915394 -0.18723366610541872
0.06318750302579143 -0.05309178028195848 0.06795939066292245 0.04009078280851736 0.22270720196658728 -0.17266572038207567 -0.30459700960442504 0.06605908668297789 -0.11219163268329178 -0.3451391062435209 0.20765491505839964 0.30967606305275264 0.5157879786222114 0.4978178690807333 0.5304766757888232 0.37648658273332025 -0.14245436709074774 0.3397915712405273 0.14817626129605332 -0.2998909071056059 0.10425186361536547 0.10879811838875196 -0.1951708200737751 0.3549928819792267 -0.2904350665158053 -0.27868067460731294 -0.6284237237198461
0.17708375472030405 -0.23704100137241121 -0.16821296687429618 -0.11704174503366645 0.10778899038922622 0.4439191692898826 -0.13061174093314815 -0.10502255937695308 -0.30017884641908504 0.49290371574991926 -0.05159993789341959 -0.07444477458562203 -0.20421005824801783 0.18552894950646182 0.10114365918974143 0.2556777923100071 0.09386112390003976 -0.1174061494135799 0.3580915310610798 -0.17698304046738136 -0.11544735975078707 0.09444317890999214 -0.41088544234103425 0.030466482806077354 0.12805464281076945 0.44251251497390304 -0.22861300662922632
-0.14121682111507733 0.24557060372032083 0.08263030253864227 -0.19853238568833495 -0.2830071950999895 -0.4355255029938701 -0.0833750649612282 -0.055290251606157616 -0.4120240795989813 -0.14865370770499445 0.38785548178496976 0.29043967841915835 0.32171141388701163 0.3933874552325516 -0.012511012088175805 -0.4040194852917745 -0.05726793206872662 -0.38042421219873973 -0.09688539844991671 0.3810522867371604 -0.13995276512702234 -0.2918763362704157 0.4520726989727272 0.4398134272609963 0.22557612734875201 0.12400026006344822 0.20220245909052678
0.11577634001660522 0.5153541101117353 -0.19115048441778457 0.10779675243456394 -0.13226238549070757 0.09523857131131867 -0.05505692208708713 -0.38735416231118663 0.4793650677847949 0.19027506125238716 0.3175950912814886 0.22301535399670963 -0.14265266520111508 -0.37737939279026317 -0.22005748820769014 0.1893259718926689 -0.3633479878603378 -0.30868168892092834 0.4294941371094883 0.08823254701201552 -0.31015216892624337 -0.25858236488590525 -0.24840052783982738 0.48487950549509534 0.41125635819233913 0.27056547081367 -0.23635897415245274
0.09512010205069786 0.01525179857325479 0.13096820072905074 -0.044096606224959735 -0.1869094756437148 0.43392056536707657 0.31468583607802747 -0.17703534763100703 0.30612238958293625 -0.39088239629077726 -0.18565607623106786 -0.30876013489720106 0.25644243243040354 0.2095139252008671 -0.33987792597336675 0.4183786850725904 -0.4021981403477566 -0.1669507612767047 0.44906627629246265 0.23080470913253384 -0.2119864446833369 0.5559054285419368 -0.0896540160231518 -0.3026891798254162 0.4565219318035981 0.0038987848153603237 -0.18183057328930702
0.04737958224149438 -0.0557838860242017 0.24633479335049466 -0.0063030214105377624 0.30253205567909125 0.25814024152387255 -0.17446965947379936 0.18119228750546432 0.46068323253658006 -0.2632660326093478 -0.34101945514422444 -0.456598375179874 -0.015827326502918373 -0.32133082916407846 -0.30811238488141374 0.6855360868713862 0.1857063300200627 -0.06586917167899818 -0.5099328512186554 -0.20121914870671703 0.23820651712290383 0.210452842039918 0.2882894183630689 0.31778575930833713 -0.29632186080241996 -0.3245484509065963 0.16328540597195956
-0.5117410910527136 0.045735227477666146 -0.07316445127876217 -0.06451880155857316 0.1418763085106324 -0.031078971095621456 0.13918049770513818 -0.06985825923697646 -0.2760799203337301 -0.005522317016394177 -0.10713289118934598 0.08821554768024892 -0.07832414707203231 0.04936674115154998 0.1967313035887141 -0.03303878882448861 0.3325703902987562 -0.22833351320542922 -0.1391341174403102 -0.09650915271972559 0.06350259344617609 -0.17219898513727577 0.08763226374317258 0.16545218424665933 -0.0025590714195751567 -0.175610853876304 -0.03136766596829669
0
