2
617 50
-0.10293494 -0.07340379 0.056443613 -0.023240056 0.015727399 0.029867196 -0.029331444 0.043040916 0.02495641 -0.021362988 0.02895369 0.05685601 -0.081072025 0.08942374 0.100979194 0.016590538 -0.07703567 0.027212754 0.005998034 0.0036406515 -0.10740932 0.08771311 0.059544235 0.049009953 -0.01734809 0.08678617 0.039585773 -0.051885996 -0.00042062544 0.11161478 0.06884946 0.017412107 -0.028522957 0.06920837 -0.012172377 -0.00024413104 0.019649046 0.01958426 0.048327122 -0.002300741 0.06908734 -0.0372247 -0.113334686 0.07371846 0.05500463 0.08892439 0.0920041 -0.04699654 0.071010955 0.03886217
0.11737672 -0.031302035 -0.14490306 -0.120658085 0.013322401 0.044677205 -0.051695567 -0.13621037 -0.022464173 -0.05527119 0.080759555 -0.09948655 -0.05491816 0.106950015 0.19005892 0.113297656 -0.1385527 0.07039866 -0.07799724 -0.06795416 0.030113706 -0.043675367 -0.004501152 -0.008043643 -0.10497289 0.05162331 0.12839602 -0.05142152 -0.03856627 -0.047498915 0.2365926 -0.102456294 0.10764295 0.016418705 -0.1212408 -0.03732849 -0.04232971 0.18242055 0.011832039 0.06773222 -0.04938128 -0.007213869 0.010176826 -0.01788158 -0.085333034 -0.0015398064 0.01283413 0.05970428 0.07069929 0.09712091
0.038232803 0.06609997 0.01067306 0.02044767 -0.06576506 0.03628857 -0.06437919 -0.06599965 -0.22815046 0.043467578 0.2433848 -0.00052095065 0.051490534 0.010804088 0.11381289 -0.045064438 0.047457393 0.041112315 -0.13038307 0.1068977 0.06965738 -0.09114929 -0.018159857 -0.0137252165 -0.16508794 0.122879945 0.21779653 0.097880006 0.04885012 -0.014390581 -0.009675494 0.027947305 0.027124843 0.03351209 -0.116768025 0.06667835 0.18788725 0.020282775 -0.007513175 0.001481551 0.021348711 0.06337627 -0.0021430282 -0.109597065 -0.09829569 -0.0016985802 0.092841856 0.16024849 -0.07407437 -0.009800373
-0.07468865 0.07674666 0.07194469 -0.031113595 0.0561106 0.049845025 -0.045058697 0.14455429 -0.14366943 0.039892748 0.007728788 0.044152483 -0.0898513 0.098630324 0.14212592 0.01941029 0.017204348 0.16335495 -0.08714359 0.09913534 0.02273498 0.013556768 0.039563175 0.009841883 0.023311842 0.078092486 0.057380248 0.021804564 0.09558532 -0.04416157 -0.07126412 0.03380472 0.028643863 0.033460952 -0.097895086 -0.02693052 0.19326521 0.15243438 0.050904635 -0.065111615 0.018146595 0.11747454 0.04183004 -0.0117876055 -0.12194832 0.060949285 -0.0010276136 0.06658005 0.04734462 -0.0052948203
-0.067977026 -0.02081684 0.040401965 -0.06380145 -0.037279002 0.058658127 -0.010139156 0.089236066 0.033499114 0.025729824 -0.038489047 0.16531573 0.069960654 -0.116998516 0.040180825 0.036986586 0.010737182 -0.0462954 -0.021355368 -0.04095797 -0.06250297 0.05348725 0.021876534 -0.06471517 0.00919385 0.04850708 -0.04433076 -0.014734293 0.056820083 -0.037459843 -0.10897329 0.12887515 -0.10640478 -0.08564424 0.07419352 -0.0075691235 0.07465397 0.0846424 -0.0060784533 -0.12744145 0.08947622 -0.045313083 0.02665563 -0.017427832 -0.038641658 0.035381474 0.07014625 -0.042344242 -0.035946455 -0.011443284
-0.13925058 0.1172782 0.04410384 0.026844082 -0.00023650762 -0.04934912 0.1100247 0.045985553 0.055016126 -0.052753486 -0.090042725 0.08538294 -0.026406737 -0.11046522 0.06714237 -0.08734064 0.08512123 0.06606772 0.031006847 0.09456198 -0.017779412 0.02602874 0.012180626 -0.0025643564 0.06043358 0.13634135 0.005786625 -0.032005448 0.08576611 0.03975188 -0.060476102 0.018832454 -0.053371746 -0.08270416 -6.0676753e-06 0.08586925 0.06398214 -0.07098919 0.05473363 -0.061676864 0.085776955 -0.10366981 0.08774831 -0.13402736 -0.0074511296 0.073914886 0.05471084 0.08882594 0.06686856 0.04741859
-0.10977474 -0.026438693 -0.012779266 -0.055579994 0.03810765 -0.07991675 -0.010257777 0.008025379 0.08280298 -0.066548 -0.056530222 0.07133813 -0.11080338 0.0064803115 -0.08271159 -0.007094401 0.13193187 0.056094877 0.06209939 0.014860053 0.022144753 0.043202545 0.098613255 -0.10100339 0.012083834 0.02181897 -0.1646814 0.04281266 -0.00092553644 -0.015963271 -0.08498798 -0.08708051 -0.03603831 0.0008682631 0.12084363 0.097243555 0.083966635 0.05169635 -0.048572447 -0.012312383 0.05396719 -0.12845616 0.04109834 -0.0019328633 0.10133999 0.08869539 -0.056549788 -0.02882618 0.05724897 0.024711983
-0.036949 0.039541624 0.0055322964 0.014030324 -0.037462283 -0.0050892946 0.027488537 0.13863839 -0.031295218 -0.009134057 0.031461257 0.03565845 -0.1386496 -0.015296948 -0.057281084 0.051471222 -0.021351594 0.040436495 0.030418176 0.05809533 0.035667714 -0.062251527 -0.02501018 -0.018977717 0.10226361 -0.05134075 -0.14650619 -0.003610768 -0.047250275 0.11537884 -0.09522027 0.0029114555 -0.14884846 0.014114001 -0.038183257 0.013167811 0.020284439 -0.13452396 -0.077608645 -0.10007087 0.04880403 -0.14189744 0.06358457 0.10873548 0.06452611 0.062210158 0.09525975 0.02633842 -0.013190131 0.0065635033
0.0004679518 0.07482868 0.106643595 0.14058681 -0.043172788 -0.0791425 0.04056567 0.1092701 -0.06879368 -0.051714208 -0.03636001 -0.065090105 -0.03905564 -0.12032187 -0.16581057 -0.076011635 -0.032823686 -0.084934525 0.08620649 -0.009586969 0.07223921 -0.058558203 0.047023777 0.044272695 0.1399077 0.0653947 -0.16868031 0.0031987526 -0.13872258 0.0073510623 0.03871312 0.00022718949 -0.0033397009 -0.13186467 0.028389905 -0.004177036 0.037076965 -0.101432376 -0.061196197 -0.050422676 0.037278008 0.0065451837 -0.040651772 0.11679016 0.0063667516 0.0044584083 -0.018464468 0.038451202 0.03219149 -0.069272876
-0.048995577 0.05443993 0.013521936 0.043595795 0.041613083 -0.13095196 0.05570459 -0.03362597 -0.012229372 -0.006059707 -0.04959341 -0.07345109 0.07590288 -0.05606286 -0.17401645 -0.0056643123 0.024812771 0.10697641 0.11640371 -0.0153707275 0.04002545 -0.030271607 -0.10178234 -0.07272474 -0.016135754 0.08793199 -0.050890878 -0.14705934 -0.1102775 0.039338425 -0.08033296 0.016260121 0.041612193 -0.052599937 -0.009216034 0.16992255 -0.14303221 -0.13856967 -0.011289198 -0.03513751 0.0599243 -0.10953534 -0.05291357 0.115147606 0.0387461 -0.04802783 -0.14957453 -0.1481491 0.022010144 -0.109431684
-0.11618718 -0.08460775 0.10639204 0.03761319 -0.028771747 -0.00089533924 0.031965762 0.028459074 -0.052571345 0.034894545 0.0061627217 -0.08164709 -0.03237286 0.10521632 -0.009948688 -0.07327789 -0.13493888 -0.010637336 0.0030511676 0.063862115 -0.003866343 -0.039244834 -0.07606091 -0.025938964 -0.094559714 -0.016998954 -0.040655173 0.012363055 -0.079592444 0.042986363 0.07676046 -0.011927484 -0.10898454 -0.10808203 0.07382197 0.07555 -0.08622815 -0.15534982 -0.028924331 0.086102225 -0.08156771 -0.028027568 -0.14467978 0.11087248 0.120597504 0.069610156 -0.13404828 -0.16469179 0.021781394 0.012863958
-0.006475198 0.09360797 -0.030036816 0.11174586 0.0394076 -0.14194681 -0.004731999 -0.08379416 -0.008621927 -0.033657197 -0.07384121 0.03580787 0.010173687 0.03639672 -0.025932487 -0.09098555 0.0052387775 0.15603486 0.046553668 0.088093854 0.059042454 0.048942827 0.136883 0.0955074 -0.068902455 0.0318072 -0.10886877 -0.043497823 0.034720406 -0.06688901 -0.113183536 -0.01467558 -0.10129449 -0.18451881 -0.04838785 0.13136701 0.031050308 -0.062370107 -0.016030835 -0.105629504 -0.06138539 -0.069077894 -0.16058922 0.033974588 -0.07937421 -0.0393112 -0.004256254 -0.09707072 0.0138896555 0.01790277
-0.060077216 -0.061282597 -0.11417259 0.16464733 -0.08182444 -0.02046114 -0.012634578 -0.0066857208 -0.019808402 0.056592923 -0.040264767 0.09542947 -0.022731045 0.009221643 0.022912621 0.030008607 -0.13759829 0.056035187 0.022318725 -0.08190913 0.07455919 -0.013237616 0.034438927 0.08682534 -0.0028324726 0.051900353 -0.09760357 0.014607781 0.0009491914 -0.02905334 -0.025279727 -0.068033434 -0.045181163 -0.015264728 -0.07672716 0.012840717 0.009757808 0.03799649 -0.051478304 -0.01130106 -0.03768118 0.03580891 -0.028374368 -0.030308377 -0.08333803 -0.020596227 -0.06717257 -0.056049272 -0.029331142 -0.0030392522
0.110571444 0.08071516 0.005885744 0.009134707 -0.08390594 -0.052253738 0.043448187 -0.0909484 -0.048134692 -0.0035568615 0.011519937 -0.015648544 0.052196898 -0.0005904026 0.041453797 -0.11711316 -0.007855208 0.100968294 0.020094296 0.021121327 0.035265103 0.092109814 0.123111546 0.08737543 0.021840367 -0.07986344 -0.10404605 -0.028495153 -0.05322293 0.055002954 0.0803871 0.09228974 0.089872524 -0.061208304 -0.111150704 0.022943929 0.102861084 0.018480783 0.054352567 -0.04127873 -0.08394826 0.06099315 -0.07794156 0.015083127 -0.0691003 0.14176385 -0.18275845 -0.052037522 -0.04116767 0.04476392
0.045464415 -0.041587166 -0.114604376 -0.020531023 -0.08517045 -0.011373169 -0.047726065 0.02527131 -0.07878789 0.06936302 0.008321228 0.0010871538 0.0071062506 0.054010127 0.093346775 -0.0123561155 -0.089551955 0.19153348 -0.061715376 -0.06955942 0.086908296 -0.008001528 -0.019415438 0.09182282 -0.042371053 -0.034752708 0.026386697 -0.07234594 -0.021597331 -0.035608895 0.09442598 0.10888005 0.05625552 -0.037364352 9.194395e-06 0.1259531 -0.029011497 0.0050836504 0.12386135 -0.05398795 -0.00083038764 0.02767881 -0.043090854 0.06237088 -0.023316583 -0.040732246 -0.066114396 0.018376451 -0.01427302 0.06431558
0.10687116 0.018410215 -0.12426112 0.0054091387 -0.031954598 0.022822872 0.09027823 0.10087988 -0.041693777 0.016367203 -0.15946175 0.04114855 -0.09186897 0.04829926 0.015868768 -0.1730167 0.05886536 0.14878643 -0.17142233 -0.07172472 0.06954897 -0.021251094 0.06863888 -0.031626374 0.025922587 0.06671398 -0.023350058 0.083726354 0.05835861 0.046224393 0.07486015 0.08824683 0.07947435 -0.030794576 0.032555066 0.105642036 0.012413567 -0.030081846 0.092416376 -0.010068901 0.027541272 -0.03342958 0.059584502 0.027352542 0.022483759 0.09067503 0.0071007186 -0.11638615 -0.09850784 0.095664725
0.07706216 0.06006256 -0.047709472 -0.041388888 -0.012079983 -0.11765814 0.035774942 0.0661573 -0.12631519 0.056807224 -0.022896059 -0.030089462 0.042596582 0.046516426 0.06484181 -0.04398941 0.020388685 0.13521154 0.0130336275 -0.114719555 -0.003182148 0.07767257 -0.044860743 0.12402913 -0.07795641 -0.12139441 0.05020394 -0.030485863 -0.025645407 -0.10917427 -0.0832597 -0.013330218 0.07309038 0.005766258 0.027664928 0.03798816 0.10149958 -0.026898475 0.07270496 -0.040542956 -0.06011749 0.012904913 -0.11135632 -0.030489385 -0.15180567 0.0421176 -0.016832206 -0.117477305 -0.14558029 -0.025194947
-0.0045085754 -0.04806441 -0.043610424 -0.049208052 0.0057111466 -0.077362955 0.072599486 0.12704927 0.020340499 0.0868185 -0.009358231 0.029115947 0.060462724 -0.10632259 0.08214897 -0.060949415 -0.052548897 -0.07160023 0.004784317 0.006839707 0.112255424 0.18680227 0.02000914 0.043154158 0.034831397 -0.0047975513 -0.009298998 0.07401564 -0.051264096 -0.03453855 0.019801954 0.00046531006 -0.034492716 0.054069076 0.03160127 0.087423734 -0.034027297 0.006172482 -0.01863537 -0.0069318023 0.009213457 -0.05085759 0.02987422 0.057417773 -0.0615177 0.0030987274 -0.08401377 -0.06291323 0.0032020763 0.032378715
-0.004924919 0.082913846 0.04752031 -0.015793512 -0.06244528 -0.02622249 -0.038136195 -0.03997117 0.040335063 0.028330777 -0.055232417 -0.062068187 -0.03954584 -0.024538642 -0.09709055 -0.15089656 -0.022628315 0.06865836 -0.07955532 -0.04354073 -0.024293546 0.13165039 0.08609384 -0.026682425 0.09645145 0.009698066 0.07054044 0.10065206 -0.050874624 0.037192717 0.051498644 0.058134034 0.0022731088 -0.036146823 -0.030954223 -0.048906993 0.024378372 0.07442236 0.0051376456 0.035298698 -0.09998354 0.09885347 -0.050109446 0.027801774 -0.13321543 -0.013227343 -0.093137324 -0.027275397 -0.017290825 0.0017861668
0.0935878 0.04378425 -0.09764647 0.103056885 -0.1002999 -0.032616053 0.096117415 0.008198149 -0.010830755 0.015021742 -0.020518696 0.059852976 0.047906704 0.04823632 -0.08356329 -0.06385432 -0.13497472 0.0544673 0.017471613 -0.10318099 0.05330474 0.031333674 0.0053592743 0.01483839 0.071861364 -0.046365567 -0.05991357 0.08704056 0.034879114 -0.054325484 -0.010735414 0.014752664 0.07114307 -0.0558498 -0.101989485 0.05865291 0.06092801 -0.056591753 0.0037134327 0.033278015 -0.032968458 0.062352862 -0.053686496 -0.06301944 0.022080284 0.121198304 -0.06537693 -0.15922911 -0.12980226 0.059317045
0.010016266 -0.02657816 -0.08275621 -0.036742933 -0.09282854 -0.046175934 0.0110838115 -0.04140171 -0.014915779 0.011438434 -0.086149395 -0.008495274 0.074229985 -0.02062233 -0.0017434789 0.025616556 -0.009039495 0.021653512 0.015601075 -0.07495669 0.02619804 0.008430817 0.022437356 -0.05270724 0.069082215 -0.015066153 0.040549517 0.011518382 -0.023740824 -0.08575526 0.04015305 -0.090479895 0.10113955 0.0073367767 0.052308705 0.09169063 0.00876665 -0.08686331 -0.075306654 0.042154588 -0.088707976 -0.05871482 -0.08913884 0.06582493 0.055175085 0.0037927409 0.030434454 -0.13921058 -0.015956037 -0.05260102
0.018484144 -0.05213245 -0.0036355979 0.054230027 -0.062714465 -0.064802594 0.0024736784 0.09889849 0.11713203 -0.0014582417 -0.0658927 0.059025582 -0.03526736 0.08747233 0.032608762 -0.035319306 -0.06694506 0.008962979 -0.09200526 -0.12229274 0.036250282 0.05328512 0.0744642 0.081053205 -0.07579536 -0.0036838776 -0.041655887 0.044172056 0.030955942 -0.103853 -0.055266175 -0.09180752 -0.0067606634 -0.04196962 -0.028677499 0.018707294 0.043055143 -0.07129908 -0.012033126 -0.039496627 0.042924266 -0.03168621 -0.12884228 -0.08763534 -0.009117954 -0.026089173 0.049770247 -0.08536598 -0.06893874 0.014261269
-0.050413232 0.051452924 -0.11851323 -0.009639283 -0.03544899 0.05030975 0.08741804 0.057083253 -0.031630374 -0.1242764 -0.092261136 0.079176195 0.008755031 0.041531865 -0.0014364952 0.064056575 0.019664684 -0.007080656 -0.12254786 -0.06647594 -0.06351671 0.027097372 -0.02435477 -0.003398669 -0.06910622 -0.0015264685 -0.10308354 -0.044807408 0.03781443 0.052162442 -0.09269162 -0.07565585 -0.025992638 0.010276168 0.072113425 0.1171482 0.0040307646 -0.08007145 -0.05481544 0.009970825 0.09147469 -0.03135881 -0.06364186 0.008402174 0.017251097 -0.03204327 -0.09217498 0.030606158 -0.1065588 -0.123481885
0.104967594 0.019206073 -0.049971715 -0.015384617 -0.07092697 -0.06956961 -0.026681151 -0.054141995 0.01750008 0.0033219813 -0.041071896 0.045497157 0.0051135314 -0.08433647 -0.0945839 -0.003729608 -0.009025407 -0.01696978 0.034701157 -0.06763832 -0.10748241 0.08439408 0.08618659 -0.003650898 0.03335922 -0.06558659 -0.066599615 0.06647901 -0.053396303 -0.0026240651 -0.00802534 0.0053867553 0.022002058 -0.072048925 -0.054233402 -0.07839929 0.045992985 0.029448276 0.042530525 0.009616891 -0.051392924 -0.012446106 0.051312566 0.0358204 -0.037055984 -0.0678972 -0.03593775 0.004209896 0.069827564 0.024847053
0.026838137 -0.027714795 -0.09350449 -0.009168301 -0.004467777 0.070694566 0.011763388 0.097442344 0.015450141 0.09619372 0.019238988 -0.007145049 0.10468726 0.040358014 0.063628 0.050564375 0.03903205 0.12889732 0.02454845 0.059957795 -0.0056380257 0.09420036 -0.06834446 0.0027136758 0.05602746 0.039008547 0.05284698 0.050585445 0.028727792 -0.026942255 0.0528839 0.03342226 -0.057106785 -0.024690839 0.05678945 0.0074057938 -0.01882203 -0.036491975 -0.03462242 -0.03119497 -0.03105084 0.105115674 -0.04641416 -0.052739814 -0.08122742 -0.060344916 -0.048483476 -0.039783217 -0.04400118 -0.05225818
-0.019778125 0.050012127 -0.022016164 -0.0111900885 -0.061598714 0.044880096 0.029098373 -0.007342592 -0.04421306 -0.06370577 -0.066324204 -0.06509078 0.12960416 -0.006114305 -0.054495554 -0.001096281 -0.08739128 0.0140861645 0.026029432 -0.038088102 -0.056021657 -0.008703903 0.04676789 0.022755656 -0.12310785 -0.06760996 0.024783544 -0.07486413 0.010696948 -0.033086445 0.016733436 0.020936372 -0.01818124 0.027327342 -0.07740374 0.069484055 -0.07599514 0.012090551 0.04092605 -0.04182962 -0.020694738 0.03907709 -0.019974666 0.09791809 -0.028212357 -0.0833874 -0.06104325 -0.13098247 -0.0938817 -0.08169232
-0.035411652 -0.10031893 -0.08161128 -0.018253788 -0.06817888 -0.005900528 0.05259059 0.03439409 0.08267527 0.030324513 -0.060284168 -0.03986926 0.1359838 0.020988584 0.020115081 0.0587602 0.0028248327 0.09334408 -0.07544416 0.07093154 0.06389459 0.036288522 -0.052255876 -0.03733627 -0.025562977 -0.067599826 -0.080241404 0.052126236 0.027978806 0.07774505 0.046118412 0.00031764718 0.04957285 -0.0072865454 0.09937355 -0.09140027 -0.11476084 0.025497427 0.0737467 0.051865768 -0.12028992 -0.049547996 -0.042938925 -0.03544083 -0.026616959 0.08634415 -0.0049208053 -0.09266493 0.011452735 -0.084918335
0.15099247 -0.05768498 -0.067479946 0.074596785 0.008412278 -0.06399122 0.039167535 -0.024095584 0.13223499 -0.02206518 -0.111121505 -0.054115657 0.041695077 0.043715898 -0.07485516 0.084509164 -0.037543867 0.054866236 0.035114568 -0.10351368 -0.025367336 0.04367591 -0.042610954 0.0046421625 0.0399675 -0.07290433 -0.029125787 -0.024483895 -0.04392215 0.055804264 -0.08724364 -0.08872359 0.06068891 -0.020898836 -0.046884593 0.045678113 -0.14511123 0.08576761 0.06963366 0.02838409 -0.035277188 0.07505374 -0.039820738 -0.049817488 0.0005390434 -0.10310638 -0.09731124 0.05568397 -0.056962036 0.0013094489
0.039186765 -0.043539397 0.032236826 0.07691324 0.02922496 0.10603429 -0.06557036 -0.06128037 -0.021635763 0.049226012 -0.057305753 0.02444479 -0.011204611 -0.040867317 0.026967656 0.06090677 0.003921642 0.05790721 -0.07353228 -0.0757577 -0.06317485 -0.037357412 0.04145705 0.05967219 -0.04129748 -0.019970117 0.023819925 0.01221117 0.06651956 -0.07312797 0.04809739 0.025622716 0.13363953 0.048801 0.03435483 -0.05108427 -0.04828436 0.08308064 0.09823965 -0.025036003 -0.021155294 -0.0771026 -0.044978797 -0.030383138 -0.00964736 0.069928445 -0.009587961 0.016105758 -0.00762655 -0.12782763
-0.057422146 -0.12112391 0.057736848 -0.0150748165 0.090586 0.06366534 0.014667529 -0.115064114 -0.02717038 -0.007180583 -0.1154334 0.035080884 0.038185943 -0.008105356 -0.05934064 -0.017414268 0.05370837 -0.07706099 -0.009124308 -0.06404304 0.05065817 -0.12044144 -0.011459627 -0.037034504 -0.09833757 0.020346994 0.03975048 0.027227648 0.07407888 -0.008422383 -0.051558774 -0.006711948 0.02449507 -0.0030373188 0.050711058 -0.039874908 -0.011596475 -0.027981028 -0.058800668 -0.051521357 0.11481742 -0.022998903 -0.030181596 -0.059903353 -0.060658697 -0.019732393 0.072762765 -0.0004558632 0.09233978 -0.11039145
-0.07450742 0.058125664 -0.048833482 -0.031165725 -0.031186262 -0.01705908 0.0051085567 -0.049182266 0.03986353 0.06385845 -0.06324747 -0.045969654 0.07680381 -0.08891667 -0.16812234 -0.018893762 -0.007989326 -0.08529218 -0.008508752 -0.06939809 0.008888086 -0.15481526 0.025405014 -0.05669176 0.062097356 -0.050605774 0.01970783 -0.02524325 -0.13066828 -0.009941271 0.060066722 0.0044904905 -0.022277072 -0.0635115 0.047732398 -0.05985567 -0.103792 -0.06406051 -0.09178108 0.05833071 -0.058792844 0.07982272 -0.039545286 0.056105956 0.049233735 -0.043224387 -0.021926714 -0.045692015 -0.08706897 0.0364133
-0.042806014 0.032253906 0.086049706 0.024191758 0.039478477 -0.053344958 -0.013386404 0.04854559 0.069198646 -0.044633955 -0.010833356 -0.0060336306 0.09427065 0.017042613 -0.14303906 -0.028671341 0.027348867 0.0060648033 0.02713536 0.022530306 0.06484793 0.060403917 -0.01528634 -0.044545267 -0.06346435 -0.0644476 0.068082295 -0.03457669 -0.059440732 -0.027460882 -0.062268116 -0.032768276 0.06529299 0.0057756444 -0.022280293 0.05082469 -0.15491368 0.034855872 0.05408626 0.051052086 0.03473924 -0.0023081303 -0.07696312 0.030632855 -0.07826421 0.14334778 -0.04186507 -0.0050795004 -0.0033677572 -0.11423289
-0.019873649 -0.042258684 -0.0651745 -0.04298437 0.048278548 0.018263076 -0.0016603407 -0.016376879 0.07716396 -0.040443815 0.057001565 -0.07786307 0.02034396 0.06881683 -0.11797535 -0.06094171 -0.062513426 -0.0034840277 -0.12139944 -0.075776815 0.017786136 0.055478238 -0.07133475 0.0021743872 -0.051675107 -0.021283379 0.051883634 -0.07957929 -0.0044788024 0.014082611 0.11958109 -0.007430564 0.013157782 0.07819786 -0.08939666 0.0042965407 0.06509193 0.05726056 -0.01809079 0.0058623883 -0.02691782 0.022860149 0.07495018 -0.0427727 0.068749204 0.010255279 0.00773655 0.016232122 0.05461269 -0.0773399
-0.050659094 -0.040013485 -0.17235622 -0.1408565 -0.046734117 -0.016241163 0.00647376 -0.07127882 0.058313012 0.006882617 0.19003877 -0.007820208 0.1474931 0.04577078 0.096592 0.12816946 -0.2215854 0.09037848 -0.10077918 -0.11916221 0.041852046 0.0072705992 0.07293503 0.03225332 -0.020832917 0.025712509 0.0108114015 -0.0096300645 -0.08742021 0.052868627 0.04887056 -0.0694319 0.18160218 0.07608516 -0.028117388 -0.12830661 -0.12122613 0.10302193 -0.016964823 0.107845604 0.05029715 -0.11943356 0.16868666 0.18198201 0.05930227 -0.10084832 -0.17933665 -0.0005815329 0.00073640584 -0.048253752
0.009660355 -0.05355162 0.03007244 0.057286244 -0.062440656 0.07043198 -0.11510258 -0.04632285 -0.09560412 0.023563886 0.02809126 -0.002722887 0.06538898 -0.020377854 0.016497599 0.075365864 -0.13469598 0.030501753 0.0020583363 0.059492707 0.06114241 -0.08114725 0.048820153 0.05461976 -0.030153915 -0.0125538735 0.110016815 -0.10565772 -0.06372425 -0.119821265 0.101695545 -0.054498732 -0.05341703 -0.063016854 -0.085822366 -0.03523059 0.038298856 -0.08552116 0.02691033 -0.11126775 -0.108117945 -0.045641273 -0.04173909 0.06414489 0.0958642 -0.10368107 -0.06551169 -0.061243247 0.1294528 -0.042588193
0.058735583 0.02582688 0.027084991 -0.08213419 0.06075727 0.0035789034 0.01156018 -0.053279858 -0.08410981 -0.055711754 -0.005910369 0.05830844 -0.07077389 0.0031730304 -0.03877286 -0.08913898 -0.0901488 0.13308834 0.0033730802 0.031352784 -0.071252145 -0.004118086 0.059818745 -0.016309733 -0.06380447 0.058905862 0.022233024 -0.067635216 0.040137134 -0.036300376 0.0038142144 0.09886631 -0.07180287 -0.069715746 0.039261576 0.09256768 0.1386001 -0.055567466 0.027839728 -0.04986458 -0.14162435 0.10039586 -0.11623272 -0.07980291 -0.03359587 -0.0034836973 -0.0902184 0.12268428 0.011205665 -0.03971156
-0.045407712 0.14026934 0.062116146 0.049802877 -0.0018753915 -0.06515 0.07171259 0.19815679 -0.09260046 0.092664875 -0.074842036 0.025750803 -0.0058653313 0.057199858 -0.01039847 -0.13328782 0.18417183 -0.002413213 0.07405074 0.12546687 -0.064667374 -0.03809558 -0.10288149 0.052322283 -0.04316124 -0.07120899 -0.027627219 -0.012038197 0.031452637 -0.05454833 -0.012259528 0.021464469 -0.18874612 -0.01587472 -0.117327206 0.008845009 0.10589971 -0.050193716 0.08665211 -0.015242224 0.05024558 0.023991087 -0.1352932 -0.06389797 0.014573343 0.01938714 0.04704604 0.0053448845 -0.057544146 -0.047148466
0.023303209 0.18349329 0.13089415 -0.12639728 0.13216147 -0.09649832 0.021232972 -0.0040015616 0.11457572 -0.077792205 -0.12998809 0.057432905 -0.09113067 0.088816665 0.059783265 0.031349126 0.12511726 -0.06510519 -0.031562507 0.1765088 0.08260803 -0.012648904 -0.028027944 0.08870825 -0.009038566 0.023410883 0.057304624 0.06319658 -0.025237283 0.08053828 -0.038609546 0.09576967 -0.15923217 0.07651559 -0.03641068 -0.01925835 0.035091683 0.05862785 0.095600516 0.028026162 -0.029522963 0.009340187 0.03746477 -0.11468066 -0.08267736 0.031291272 0.0426979 0.10097912 0.017220095 0.097484425
-0.069921054 0.014942255 0.029330269 -0.08154492 0.03733483 0.012773327 -0.0586843 0.015915474 0.023245648 -0.0664986 -0.076843314 -0.007576866 0.003254497 0.025586622 -0.050757777 0.011023802 0.055090774 0.058148175 -0.043051366 -0.01418243 -0.0537022 -0.013929496 0.017884132 -0.07932037 0.07971289 0.062125422 0.004846331 0.059152976 -0.05715124 0.029437138 -0.016585782 0.0048618824 -0.07343464 -0.033623677 0.032708265 0.032585055 -0.024220595 0.06818141 -0.05517885 0.045845997 0.021704253 0.07748947 -0.030005138 0.0070047616 -0.055410646 -0.055579025 0.044924404 -0.02984316 0.037582237 0.06429317
-0.03930747 -0.07999245 0.13901035 -0.018854158 0.051698852 -0.072215386 0.05701343 0.046081323 -0.056714863 -0.060015075 -0.08996204 -0.03969368 0.052119516 0.09632405 0.11224852 -0.05842461 0.0005576934 0.025953893 0.13153788 -0.014563577 -0.07939397 0.09292686 0.0024631575 0.0137744155 0.12040087 -0.01427744 -0.14118013 0.053360455 -0.08314884 0.0455471 0.059665177 0.100055076 -0.17610651 -0.008252469 0.087337635 0.037355892 0.034094222 0.060090452 -0.025655428 -0.019839322 -0.028651198 0.04707985 0.0115056485 0.081245326 -0.039350774 -0.045825355 -0.0056828577 -0.04493631 0.02642568 0.057998
-0.028094867 -0.03111527 0.06982535 0.104102105 -0.025639448 0.07727273 -0.032332323 -0.054537907 -0.03418625 -0.008440271 0.036631893 -0.08458073 -3.5817502e-06 0.036896165 0.038388364 0.061526652 0.11311884 -0.023617627 0.054126356 0.037885386 0.0930725 -0.038896002 -0.05445141 -0.06543915 -0.016898073 0.066287145 -0.11857303 -0.07913393 0.05658571 0.10829463 -0.10130765 0.033732068 -0.06355556 -0.0025940526 0.080065146 0.08508026 0.09145228 -0.05882616 0.04547918 0.019988965 -0.09381481 0.016608402 0.0034167082 -0.0077520953 0.023069128 0.049222853 0.1030862 -0.047050115 0.1465108 0.108640276
-0.016848506 0.00094423024 0.09224778 -0.047769405 -0.039625045 0.05705898 -0.076277666 -0.0087483125 -0.036963474 -0.061784554 -0.021452976 0.06439179 0.015482991 0.04082355 0.002390956 0.022678437 0.036714807 -0.00085472444 0.100769475 0.092911996 0.050108105 -0.056513473 -0.039656177 0.073000096 -0.0011382538 0.011216715 -0.09607819 -0.06488225 -0.047221906 0.0072114184 -0.08272721 -0.10215836 -0.103559494 -0.05226955 0.01774101 0.056094512 -0.07495105 -0.0458292 -0.07969942 0.08935104 -0.019694371 0.045514826 -0.014795134 0.13454399 0.018004727 -0.004737841 0.0020518622 -0.10124033 0.07017208 0.068818174
-0.0265886 0.014785818 -0.01618363 0.054410357 0.11941868 -0.010305639 -0.11607543 -0.07845083 -0.07146231 -0.028074484 0.098398335 0.053357676 0.08239832 0.023856562 -0.020272564 -0.080442406 0.07248309 0.037238967 -0.00677658 0.12160003 -0.0375486 -0.09151043 -0.058243006 0.05190034 -0.064972684 -0.05913532 -0.12644096 -0.11344585 0.03904928 -0.050778057 0.00892035 -0.11481793 -0.12653464 -0.063835084 0.047507305 -0.03000763 -0.025438018 0.0031921624 -0.11346676 0.07169124 0.07009568 -0.031892512 0.016698344 -0.054085862 0.07815259 0.033650134 0.036461674 -0.0028949585 0.047736514 0.010374094
-0.023459103 -0.02034314 -0.08670563 -0.047828916 -0.027114011 0.035207506 -0.038696047 0.018335339 0.038467843 -0.010836378 0.10137097 0.00793025 -0.05722882 0.096911944 -0.08176983 -0.022587415 -0.02842212 -0.044604816 -0.06034135 -0.030943956 0.03814335 0.0011678309 0.058926217 0.020699369 -0.095978364 -0.03315232 -0.025578124 -0.008528316 -0.059326526 -0.039083056 0.1458049 -0.05498966 -0.05418958 -0.055374146 0.023984607 -0.0035750642 0.05641763 0.019847997 -0.014015146 -0.05370411 -0.08357871 -0.011894554 0.03799824 0.048845902 -0.016973717 -0.0019460145 0.018288977 -0.13429095 -0.03634319 0.07187691
-0.074184775 0.101825364 -0.033719208 -0.08522989 0.009293526 0.01777392 0.040074356 0.0569415 0.01485576 0.03708402 0.06114408 0.06961036 -0.03604987 -0.063285105 0.03493236 -0.0074517233 -0.03655575 0.01985606 -0.09482944 -0.13066934 0.08884234 -0.059147276 -0.048744608 0.040187202 0.07886098 0.0260263 -0.020286476 0.07693481 -0.08114992 0.06604405 0.038374763 -0.041359328 0.0033325078 0.0517611 -0.07162814 0.058025472 0.093112834 0.036648717 -0.0033459114 -0.057056315 -0.067007676 0.039551847 -0.056429103 -0.005257234 -0.10522769 0.12684955 -0.03933796 -0.0894681 -0.104437195 -0.028577326
0.03416935 0.096774064 0.0053415503 -0.049498737 0.014725583 -0.024422487 -0.073520705 -0.09873433 0.10679045 -0.053047832 0.0010416325 -0.011585513 -0.011158834 -0.0051499153 0.034910616 -0.018537182 0.035618424 0.108517185 0.056095984 -0.071474835 0.026410185 0.013084565 -0.05021336 -0.0739902 0.10621121 -0.13754472 -0.13613465 0.11649421 0.03510071 0.0052204253 0.086197905 0.02432327 -0.021766506 0.04328405 -0.058115404 -0.05768279 -0.033131804 0.043249365 -0.09123497 0.051307615 -0.048633847 -0.038245838 -0.03665342 0.022086237 -0.022718733 0.03576303 0.07658643 -0.08837372 -0.022485973 0.069777496
0.08130696 0.0060526445 -0.0387665 -0.1280298 -0.007887955 0.0012974886 -0.08727975 -0.010331653 0.0688973 -0.031817984 -0.098457195 -0.037603796 0.027910896 0.029992683 -0.06566616 -0.08747294 -0.0027841118 0.067030974 -0.026303465 -0.13768636 -0.05008493 -0.016544735 -0.09594376 -0.05981813 0.047368195 -0.08947194 0.0137872845 0.06305979 -0.05988053 0.05614923 0.046705686 -0.03930465 -0.029468788 0.09265105 -0.061606586 -0.04517342 -0.007912899 -0.028600948 -0.024838075 -0.052061453 0.09866577 -0.06556495 -0.021097995 0.01127338 -0.14348474 0.060105387 0.033624656 -0.111039385 -0.12858841 0.10431768
-0.020005444 0.02841281 -0.09625679 -0.07921798 -0.012535783 0.08927187 -0.01769388 0.013531865 -0.09152664 0.0920433 -0.07067432 0.014747563 0.018589163 -0.088286966 0.008803874 -0.19959867 0.07664144 0.12597834 0.047554 -0.01898088 -0.024299316 -0.022655744 -0.03242873 -0.013623979 -0.0037725011 0.055788834 0.016119346 0.07570965 -0.048695944 -0.060879458 0.061014242 -0.031124434 0.07067172 -0.038557477 -0.07301796 0.07482034 0.08643242 -0.07364767 0.098173924 -0.030758077 0.09758011 -0.020746162 0.017347327 -0.11849155 -0.09357088 -0.039681297 0.009742398 0.010148633 0.03286521 0.07044446
0.022383764 0.043671925 0.048094 -0.11226995 -0.029197741 0.08658901 -0.029894648 -0.016490798 -0.068201974 -0.026124835 -0.042327575 0.10924335 -0.053863246 0.017093142 0.008186182 -0.10709927 0.042451847 0.006769687 0.032764364 -0.026440162 0.02426076 0.0694512 -0.07585196 0.060630906 -0.03956779 -0.042971157 0.0206442 0.041318845 -0.07129674 -0.066045254 0.09543702 0.08586047 0.09733369 -0.014351392 0.04331078 0.028218707 0.086322926 0.045606837 -0.0755955 0.032155957 0.010216017 -0.08234454 -0.06381192 -0.100338265 -0.050307084 0.0823782 -0.06460545 -0.006441128 -0.07236907 0.10851562
0.012170615 0.09016883 -0.06577397 -0.011807485 -0.059622277 -0.02639319 -0.04104713 0.09023251 -0.043593895 0.0537495 -0.024305645 0.007890799 0.065080285 -0.052755196 0.0034114248 -0.008921785 -0.01260998 5.397656e-05 -0.09015238 -0.036473174 0.06802396 0.05077162 -0.045344964 0.055071216 -0.036112405 0.0147725055 0.09121697 -0.034209203 -0.025001472 -0.0035552366 -0.025590584 -0.012608243 0.12092845 0.048136506 -0.08301386 0.056479413 -0.0519769 -0.006671718 -0.046380125 -0.018050011 0.03675493 0.0203982 -0.110597484 0.010853904 -0.030574778 0.107055195 -0.02772208 -0.09269998 0.054413937 0.0875457
-0.055633854 -0.019187052 0.03297844 -0.036979392 -0.083373174 0.083900325 -0.050520003 -0.09064679 -0.03569375 0.029225007 -0.052957203 -0.049742486 0.0038025512 -0.004348488 -0.049213704 0.020692619 -0.11103396 0.02983723 -0.11888255 -0.081727766 0.0448506 0.04982361 -0.039565217 0.06473177 0.011961052 -0.072635375 0.04249884 0.121796444 0.050901834 -0.041134268 0.13543485 0.051204 -0.0027342578 -0.053176243 -0.013079292 0.008157755 -0.07673114 -0.08624492 -0.07227379 -0.066032596 -0.0075716292 0.00853709 0.00019718154 0.049882907 -0.030975062 0.06351201 -0.03193725 -0.010822184 -0.031868972 -0.019424517
-0.034137007 0.12102702 0.06922073 -0.003011704 0.037698112 0.029841097 0.014736488 -0.018579766 0.053695835 0.07423354 -0.04133865 0.05571268 0.016878014 -0.036868274 0.023426706 -0.004357651 -0.03553756 0.03226722 -0.021533286 0.035532005 -0.069065094 0.098037764 0.011769127 0.022232885 -0.041364778 0.049230333 -0.0143276695 0.06846071 0.08549134 0.027522855 -0.015153376 -0.026119154 0.104081176 -0.04997165 -0.036358476 -0.051481284 -0.035881516 -0.09786372 -0.002401543 0.094622985 0.0795876 0.032948498 -0.051203396 0.06280979 -0.06185568 -0.026656229 -0.07327902 0.032227695 -0.006475677 -0.00088019716
0.02618289 -0.009020793 0.06923882 0.05943059 -0.033193786 -0.006947338 0.038013406 0.084770866 0.06091414 0.05190285 -0.03134589 -0.08498619 0.04384924 0.010016872 -0.0625433 -0.012078227 0.018703893 -0.10287124 0.019366406 0.029521376 0.08473009 -0.034131173 -0.05364711 0.04434708 -0.048748057 -0.035644185 0.10534186 -0.008327621 0.023846269 -0.010799236 0.065449364 -0.03374506 0.117174916 -0.07667456 -0.09601893 0.050135434 -0.009512849 0.023974042 0.027984925 -0.02487117 0.08356271 -0.08313131 -0.1364063 -0.011246729 -0.06240665 -0.040538058 -0.023853442 -0.05154082 -0.06693041 -0.05199072
0.030797957 -0.05930548 0.034495536 -0.06688422 -0.039026447 -0.0494728 -0.112650275 0.03203311 0.091058776 -0.02656302 0.038821097 -0.035638604 -0.05296848 0.04158676 -0.014167125 -0.0552834 -0.027068552 -0.059647456 -0.035133332 -0.016940463 -0.07436454 -0.011333234 -0.103398874 0.05337865 0.09730301 0.008819672 0.049402453 -0.049497962 0.01259491 0.0003024744 -0.02305926 0.0232091 -0.022572545 -0.05464096 -0.07074253 0.06477823 0.0026807778 0.059458498 0.034410443 -0.01184147 0.062051795 0.016187392 -0.0080944 -0.045993753 0.076923855 0.047529362 0.017906835 -0.081156984 0.04580739 -0.0779814
-0.041420814 0.053107925 0.0046581933 0.027798453 0.020227961 -0.037474472 -0.02949055 0.023896713 0.06717872 -0.02735623 0.00887681 0.07062898 -0.08247694 -0.055993907 -0.08869455 -0.038123574 -0.017632559 -0.044974297 0.042708676 -0.10136461 -0.012633726 0.07095459 0.052507248 -0.093105815 -0.06531371 -0.0364581 -0.09035128 0.039748296 -0.0064916387 0.018725257 -0.055897944 -0.10082545 -0.00015173749 -0.019484723 -0.05129508 0.08836348 -0.06688466 -0.020393519 -0.012211063 0.0034285206 0.033502642 -0.117820784 -0.08844787 0.026107697 0.01601888 0.002011224 -0.0004384522 0.04438438 0.03819197 -0.08603871
-0.06912708 0.02420612 -0.043641213 0.026918119 0.08206189 0.036645543 -0.0642029 0.03728584 0.08593639 -0.07100093 -0.08665253 0.05044597 0.07468586 0.017645752 0.08951167 0.010650413 0.009881817 -0.060422778 0.039255094 -0.060493615 -0.04362408 0.08066326 0.0015141077 0.03035452 0.045175437 -0.0801409 0.08105932 0.03549514 0.005582087 -0.07756104 0.028847937 0.033978477 0.049136348 0.0692431 -0.09383136 0.032102324 -0.0068412386 0.12010942 0.070189156 0.0554313 -0.07102596 0.07030328 -0.09595495 -0.06468474 -0.011168097 -0.06996223 -0.018761193 0.035493616 0.067100585 0.059811804
-0.044944715 -0.021879653 -0.02633485 0.09097078 -0.06379003 0.061556295 0.022934016 -0.06724986 0.0056694867 -0.05175858 -0.032875173 -0.08170748 0.05702127 0.050549503 -0.070353866 -0.02925107 -0.07467747 0.10416925 -0.08676026 0.0143146105 0.082988 -0.028351119 0.054050576 0.027970161 -0.009621188 -0.00055442133 0.004608842 0.108888894 -0.00982844 -0.0103225885 -0.0076000826 0.015696354 0.064363815 0.090279765 0.011124831 0.018044103 -0.030306576 0.050193306 0.06390069 0.021867057 -0.004326853 -0.06870411 -0.03925691 -0.014568805 0.070684806 0.02461538 -0.03523403 -0.058546025 -0.042122547 0.018137356
0.043402035 -0.10042412 0.0019496165 -0.021915583 -0.035546713 -0.09115314 -0.02457378 -0.038209006 -0.087148316 0.013547629 -0.033874586 -0.05220667 0.04884251 -0.039765544 0.057655912 -0.060388517 0.042241696 0.09394264 0.032784168 -0.026557116 -0.095998116 0.008670247 0.0012326293 0.022070533 0.010985374 0.015559486 -0.02787607 0.0050871107 0.024989773 0.009599285 -0.010202137 -0.03701155 0.08080239 0.038756985 0.072027415 -0.03579983 -0.090439595 0.03502279 -0.012288548 -0.051395614 0.0059128474 -0.04234747 -0.09653759 0.013081103 0.028605666 0.013990348 0.03247161 0.07006032 -0.08837798 0.10893663
0.02100813 0.029188385 0.019485226 -0.059352998 -0.084935784 -0.0032369918 -0.018916868 0.003678386 0.027409371 -0.012826517 -0.0040909844 0.02406641 0.05505752 -0.022809213 -0.072862886 -0.010966321 -0.12465666 -0.031700216 -0.12573619 -0.021186467 0.08680293 0.060032062 -0.02832007 -0.015473671 -0.08783177 -0.023176681 -0.0077483836 -0.0075289975 0.05512268 -0.09248976 0.028032253 0.06268437 0.08131582 0.0076057124 -0.06192444 0.014970171 -0.012152723 0.00036634994 -0.09443509 0.00771408 0.022558387 -0.02402966 -0.086652555 -0.04476199 0.061938327 0.03984976 0.035967164 -0.04238533 0.012769606 0.058896694
0.011197088 -0.019787695 0.017404098 0.078219645 -0.07900767 -0.08104945 0.02758645 0.1275922 -0.03363277 -0.078967474 0.033976495 -0.05865143 0.05745179 0.024686716 0.0076754345 0.057235803 -0.05402435 -0.108888425 0.010471878 -0.06362256 -0.0013958155 0.008987949 0.043848842 0.06250203 -0.041710787 0.102464326 -0.035192553 0.02806564 -0.095086224 0.024185136 0.08283746 -0.01472668 0.108501196 0.07247713 0.04821614 -0.04475869 0.046853088 -0.013241918 -0.047430947 0.007991333 -0.04737689 -0.10295379 -0.025018508 -0.014733073 -0.04932036 -0.072679624 0.0819891 -0.045388944 0.054024152 -0.025882851
0.123433076 -0.009699326 -0.038386703 -0.03783409 -0.06985656 0.054294 -0.09662808 0.024937572 -0.05296886 0.074050106 -0.087548204 0.014229957 0.06772937 0.060927134 0.0977035 0.027255856 -0.01457545 -0.01848074 -0.09421914 -0.048832227 0.020373844 -0.060247492 -0.08025415 -0.056490887 -0.0650359 0.012669343 0.0060133347 0.061875544 0.021726962 -0.01728395 0.01529453 -0.08315937 0.05838053 0.04383858 -0.018276008 -0.010005905 0.08751529 0.07428524 0.009596664 0.07017783 0.029061697 0.0047442187 -0.038656127 0.032906312 -0.05344973 0.016724247 -0.0042110225 0.024842758 0.025261236 -0.018918369
0.010263418 -0.036255255 -0.018782822 -0.10026298 0.04333395 -0.07748766 0.05930911 0.024229549 -0.041348126 0.024002692 0.06779795 -0.051271636 -0.0071319453 -0.07850763 0.017651439 -0.03218184 -0.04245299 -0.0012738287 -0.059119146 0.009766669 -0.03972362 -0.072813965 -0.009167392 -0.07920577 -0.067082085 0.06766511 0.059701353 0.052397836 0.0009891938 0.031108968 -0.11263867 0.04752409 0.11976929 0.06881139 0.09515971 -0.07077228 0.07370299 0.026395962 -0.028746933 0.110018 0.0065103993 -0.066654034 -0.014338619 0.07806622 0.049637277 -0.06253819 -0.02793574 -0.031039892 -0.09863059 0.027222881
0.0033673495 -0.11496345 -0.016969549 0.06729978 -0.05605302 0.031219207 0.013880217 0.06977358 -0.033686437 0.030696815 -0.00085824466 0.02987849 0.081029475 0.018729797 -0.07724092 -0.04264103 -0.041794315 -0.03589868 -0.04651739 0.04730649 -0.071927845 0.014548705 0.055051822 0.084602326 0.049992 -0.05127008 0.056348097 0.04412191 -0.08434186 -0.051604513 0.027365226 -0.063024454 -0.033339795 0.040233623 0.017950479 0.026561957 -0.10914396 -0.01119559 0.0584804 -0.034073923 -0.09342324 0.058236167 0.101797976 0.059195578 0.025840512 0.05530831 0.032382894 -0.024693575 -0.03251883 0.053357363
0.038452625 -0.050639793 -0.057964846 -0.012798063 0.0026280582 0.004354671 -0.031442642 0.03151719 -0.0009990643 -0.04055721 0.08043496 -0.073254354 -0.060826592 -0.020428037 -0.12086735 0.11246827 -0.061756082 -0.048328947 0.05929948 -0.11902741 -0.052690938 0.041515768 0.018183373 -0.07236814 0.040813893 0.058486372 0.026327526 -0.048192184 -0.050333783 0.04001837 0.059769742 -0.016516078 -0.007231061 0.006734749 -0.0081781605 0.017561803 0.045649625 0.034807164 0.019936081 -0.033582043 -0.029795088 0.013672864 -0.018635685 0.1383795 -0.08110212 -0.026731867 0.017786639 -0.067877695 0.015047636 -0.059175547
0.08121677 0.09324498 -0.035497412 -0.00084204285 0.008099603 -0.06956922 0.08627753 -0.095195405 -0.10133616 0.069472246 -0.047811043 -0.053278722 0.06172263 -0.0622207 0.059772957 0.022476817 -0.07176998 0.07801876 -0.09281275 0.06420804 0.08424317 0.019867713 -0.04549451 -0.03652494 0.012633468 -0.012452936 -0.04490039 0.050026137 0.012455032 0.07379583 0.011748054 -0.11291889 0.006718648 -0.0073109097 -0.05859052 -0.089806564 -0.03302958 0.03170395 0.06642626 0.0920208 -0.0031375398 0.098575436 0.07711722 -0.031693112 -0.069362134 0.005311361 -0.006957078 0.05333023 0.0019738316 -0.06253023
0.10060717 -0.06143895 -0.24271932 0.016087784 -0.09190922 -0.052198976 0.07074053 -0.21739939 -0.045109823 -0.13347495 0.07508924 -0.08290601 0.10692202 -0.099888705 -0.018259352 0.118409164 -0.11252951 0.08247404 -0.030084787 -0.23484518 0.037886143 -0.11209585 0.13461521 -0.13622314 -0.07774538 0.11074435 0.018416785 -0.050846033 -0.0033886374 0.0577856 -0.01927425 -0.09680185 0.115223035 0.11658946 -0.052797627 -0.048411887 -0.1595537 -0.013148649 -0.009899331 -0.014999484 0.122021444 -0.0069727153 0.100340724 0.084793426 0.10699406 -0.14132789 -0.06970243 -0.0875452 0.11752671 -0.12655438
0.05451923 -0.028323175 0.015847435 -0.0039022635 0.0853313 0.110749714 -0.07468503 -0.06510206 -0.091151185 -0.102855675 0.0458611 0.02604222 0.16954345 -0.09081441 -0.040317375 0.057975955 -0.139316 0.15457541 0.026381487 -0.0325576 -0.13561067 -0.12615237 -0.0012403 0.04927439 -0.089742966 0.09039829 0.040511377 -0.022851802 -0.081607506 0.010577896 0.05889807 0.091439985 0.16575183 -0.06454646 0.09871442 0.08489668 -0.03894577 -0.016368337 0.03044752 -0.005340566 -0.0061216773 0.020102266 -0.07736794 0.07479037 0.091397695 -0.13382092 -0.08972198 -0.042360924 -0.019584736 -0.07879922
-0.08739627 -0.034795623 -0.058391225 0.09533569 -0.09153423 0.0028287927 -0.065271 -0.043489076 -0.09574263 0.023809442 -0.018936463 0.023755232 -0.05480414 -0.035697747 0.002597786 -0.04186169 0.04127453 -0.030087598 0.13561535 0.06725437 -0.07321458 -0.012781319 -0.028832363 -0.013836092 -0.049114067 0.07361348 0.18587826 0.007532314 -0.017899215 -0.0031786803 -0.01477823 0.08767865 -0.036899 0.004139227 0.035168726 0.11277835 -0.005782283 0.04362388 0.003623559 -0.047517594 -0.05043954 -0.022047495 -0.19288228 -0.034205735 -0.029512163 -0.0003991836 0.07391072 0.03275248 0.0073334724 -0.026436098
0.06450345 0.14606717 0.17430015 -0.06359134 0.09489355 0.0031305575 0.1136204 0.1245704 -0.021371305 0.037796114 -0.113523036 0.14837934 -0.06617671 0.100867674 -0.019521933 -0.1183109 0.1444386 -0.04891625 -0.075683214 0.21530515 -0.003947672 0.068571895 0.0023332231 0.11753695 -0.029700091 -0.015610784 0.016779542 -0.021601327 0.08434777 -0.047010228 0.14042369 0.1887605 -0.043108813 0.10666399 0.03853683 0.057243183 0.009316628 -0.039300412 0.02857077 0.0309569 -0.051306795 -0.012504228 -0.11426288 0.00081704545 -0.06015133 0.095482 0.13150716 -0.07697217 0.058232706 0.0049167858
0.0611714 0.14310649 0.19336203 0.025300007 0.041669838 -0.0094554685 0.11806364 0.06123326 0.06241117 0.12684272 -0.07892782 0.074639894 -0.07555086 0.026499566 0.04337279 -0.11639174 0.07934636 -0.059230726 -0.029360328 0.1057928 0.09440395 0.08359733 -0.053816605 0.0267656 0.13938762 0.021279948 -0.1133542 0.10218351 0.006045687 -0.018413873 -0.083751865 -0.017043684 -0.06102263 -0.06476206 0.11751988 0.042553607 0.074062854 -0.09485515 0.0055044834 0.043413945 -0.067773245 0.09220599 0.12677273 -0.087611325 -0.10075105 0.061716568 0.03684728 -0.036087435 -0.0697194 -0.041788228
-0.029021505 -0.002426258 0.14351937 -0.088192426 -0.029457316 -0.09869001 0.046274822 0.1447066 0.04079584 0.12622073 -0.00033800234 0.0040195296 0.03282935 0.07469521 -0.050511852 -0.08812646 0.10035077 -0.055317253 0.00042966887 -0.00254254 0.030319516 0.11715378 -0.068234526 0.062366106 0.011749583 -0.11040923 -0.09512683 -0.02364248 0.050956484 0.11209026 0.017390676 -0.05636497 -0.13316555 0.0019478014 0.13679607 -0.018285446 0.16076599 -0.08438795 0.05298689 0.08774398 -0.015980562 0.048363872 0.055226013 0.058042195 -0.016365211 0.15809095 0.019181743 -0.03180371 -0.08081884 0.02242404
-0.06625609 -0.050237853 0.06524956 -0.014363079 0.08531139 0.0327982 -0.02870132 -0.0027852813 0.010717235 0.1168851 0.09409698 -0.01711239 -0.09161861 0.0620939 -0.023010667 0.031479344 -0.018479725 0.06890387 2.8773633e-05 0.012225446 0.03317253 -0.039883148 0.07225219 0.087168045 0.14616714 -0.08551241 -0.14738412 0.033898275 0.02415782 0.0679649 0.0515815 0.050734457 -0.035679042 0.006400322 0.030594472 -0.11110307 0.10311441 0.063498 0.12939002 0.0002826848 -0.08139962 0.053788234 0.046620555 -0.057559315 -0.08571031 0.039110366 0.04435703 -0.057605255 0.07925771 0.016112104
-0.10642314 -0.06984603 -0.017743612 -0.020867525 -0.005668065 0.118348345 -0.04045635 0.053850133 -0.09202725 -0.028124636 0.015641717 -0.14989887 0.08181782 0.075328395 0.07351139 0.020751948 -0.073277056 -0.08516966 -0.04889111 0.073485844 -0.06140313 -0.031679597 0.003000409 -0.015288908 0.122077465 0.09758831 -0.037681185 0.056574143 0.011441654 -0.068838544 -0.021572419 -0.05515517 -0.12440155 0.030007813 0.034803167 -0.091781534 0.07635826 -0.08258456 0.0017859683 -0.023815548 0.025482003 0.07973626 0.014162217 -0.0028943778 -0.010597316 -0.047510795 0.041318662 0.0698701 -0.030437222 -0.024997147
-0.12664364 -0.02867894 0.08858901 -0.08201109 -0.006860531 -0.01345047 -0.0509029 -0.03251269 -0.051394723 0.10144989 0.042114664 -0.05040733 0.06935478 -0.009858023 -0.019122945 -0.023442445 0.049106065 -0.07532065 -0.061097883 0.08479846 0.030716274 0.100975335 0.043602373 0.08095686 0.12641273 0.088006884 -0.021446973 -0.08727408 -0.02590342 0.013067356 -0.03396285 -0.10917922 -0.018373564 -0.0056193667 0.065607466 -0.056823023 0.15164591 -0.0866334 -0.023672765 0.032854516 0.06447603 0.056408986 0.058366966 0.047147233 -0.03815159 -0.041781172 0.05579687 -0.07697062 0.01406536 -0.07876053
-0.04175823 -0.08806991 -0.103911266 -0.092185445 0.028118037 -0.0015019939 -0.035746578 0.073622026 -0.016970929 0.038098298 0.08177337 -0.078036435 0.12266818 0.067707025 -0.13265625 0.094921656 -0.10724911 0.0001355263 0.077168494 0.042935807 -0.06993431 0.082144596 -0.113349065 -0.075809434 0.08503945 -0.003248273 -0.06369803 0.04418061 0.0122029055 0.104513876 0.039346248 -0.14529228 0.057588287 0.0087482855 0.13926964 -0.016174786 0.07048503 -0.0134486845 -0.07518293 0.061903033 0.058765966 -0.038704522 0.038283445 0.06419285 -0.064488724 0.019178767 0.0718968 -0.0821043 -0.053312954 -0.034940604
-0.06374879 -0.008744785 0.014612568 -0.0221256 0.09648888 -0.052152496 -0.11184743 -0.011131548 0.06511428 0.052252907 0.0032678817 0.0495369 0.064954944 -0.085106745 0.06421061 0.056976423 -0.07182126 -0.030881442 0.0036567706 -0.056773312 0.017009798 0.11862203 -0.049103577 0.0059787435 0.033214886 -0.01691697 -0.10370945 0.07075278 -0.06362324 -0.08208438 -0.038032692 0.028739834 0.03226427 0.047236256 0.12032871 0.014096176 0.060344066 -0.0057138507 0.02566938 0.10129213 0.0332213 0.07620188 0.09621118 0.02769371 0.0018520583 0.051608015 0.057319038 0.00089040713 -0.03598683 0.0065101194
0.020280156 -0.0641734 -0.025313672 -0.11474959 0.032740228 0.04110169 0.0526811 -0.08507328 0.10352226 0.04080102 -0.07572464 -0.0062853848 0.14187945 -0.05923462 -0.04145534 0.08416491 0.13571525 -0.07089607 -0.12983866 0.020579025 0.025501 0.08071091 -0.07762583 0.055470746 0.07508877 0.044474203 -0.08281581 0.013246981 -0.032624777 -0.08318999 0.10100595 0.015371633 0.06720808 0.07447435 0.04421601 -0.088581234 -0.047402125 -0.037594136 0.021704076 0.033741046 0.034686897 0.10101679 0.059813406 0.003654102 -0.009333311 0.10107405 0.07196999 0.016974142 0.030165764 -0.077086225
0.0077539207 0.104751006 0.067072295 -0.11693415 -0.108423695 -0.011349344 -0.0945299 -0.009819757 0.076253 0.08648452 0.011521257 -0.016091518 -0.025347427 0.080301665 -0.07118292 0.06599099 -0.012487183 -0.0162978 -0.032748163 0.075756975 0.087588005 0.022200923 0.011933783 -0.04966851 0.047699466 -0.052704103 -0.037358556 0.14030187 -0.082800925 -0.0440844 0.06680679 -0.033240907 0.10506268 -0.018910846 -0.027825408 -0.0563858 0.022720762 0.05242349 -0.07804851 0.112189576 -0.05996337 0.04665853 0.081204124 -0.073676765 -0.044806328 0.12085677 0.026487388 0.048881635 -0.037354648 -0.07989609
0.030866096 -0.029978001 0.0618101 -0.03761051 -0.04657771 0.014795317 -0.031403366 -0.12248911 -0.07062698 -0.06907099 0.021004556 0.004005105 -0.019858047 -0.030597206 -0.006085502 -0.049895406 0.022740232 0.035103988 -0.006535692 -0.028535292 -0.0108686965 0.023926299 -0.09479383 -0.07097365 -0.055643596 -0.005938839 -0.041470375 0.010616361 -0.041315086 0.008935407 0.041617796 0.04972296 0.040042605 0.036183164 -0.0717898 -0.038579885 -0.03277973 0.019272786 0.027886609 0.07917451 0.010055187 -0.0063854344 0.06643533 -0.019338295 -0.08448835 0.085467994 -0.040806744 0.045584384 -0.10482804 0.12286687
-0.025846144 0.06383549 0.030535007 -0.101287246 0.012369981 0.030337246 0.008945239 -0.080022246 -0.0240393 -0.012234593 -0.007957773 -0.008449206 0.0013965719 0.030189654 0.033799656 -0.094600886 -0.06250552 -0.07150281 -0.05290542 -0.03134211 0.00073939515 -0.054689 -0.066770494 -0.09656254 -0.033634823 -0.074201755 0.022543708 0.04201859 0.06848754 0.038157012 -0.00863137 -0.050072845 -0.0033794192 0.13119435 -0.046144474 -0.101013795 0.05777231 -0.038952835 0.059958167 0.04168827 0.069376096 0.056078907 -0.038395405 -0.07096068 -0.0069793602 -0.08735302 0.05487357 -0.012151398 0.055460196 0.067185774
0.019262103 -0.076753795 -0.052169137 0.045157187 -0.12501536 0.033510663 0.019652214 -0.09912307 0.048743226 0.035789054 -0.13586354 0.117418766 0.028856738 -0.11026391 0.00851515 0.026278581 -0.007920311 -0.024879739 -0.09379495 0.02756583 -0.01257123 -0.008571136 0.07732813 -0.02146438 -0.0020974432 -0.061382107 -0.045405205 -0.0646524 0.06186189 0.027757762 0.0060826004 -0.027891727 -0.06022403 0.012612132 0.05281677 -0.053062014 -0.078439064 -0.010124725 -0.048729412 0.08736993 0.08665531 -0.07907186 0.054941706 0.020557743 -0.030107968 0.014648581 0.0044647213 -0.0009800673 0.018956019 0.082064204
-0.011287411 0.016508285 0.02940516 -0.0012057883 -0.10111526 0.007975284 -0.041055463 0.018047845 -0.093899 -0.03160572 0.014400381 -0.023329414 0.002366893 -0.10448514 0.0073169093 -0.13982636 -0.042705253 -0.15825588 0.005384969 0.0007195456 -0.019590024 -0.039186843 0.09306607 -0.07909594 -0.04396584 -0.120313264 0.15243158 0.14026114 -0.08249082 -0.09556425 0.0049988828 0.14617838 -0.010435558 -0.019740531 -0.022652958 -0.14752617 0.028339272 -0.01920631 0.0060495734 -0.063682824 -0.026125817 0.085895225 0.0005768585 0.0143772 -0.11457728 0.01080787 0.120154746 0.015840929 -0.06920724 -0.0495627
0.036897343 -0.021177754 0.024633845 0.014776998 -0.008388191 -0.059463367 0.04400029 0.0699912 -0.04054328 -0.039806593 -0.07583563 -0.042655107 0.04377756 -0.077789955 -0.019131856 0.018205509 0.025415936 -0.05021677 -0.0483144 0.03352907 -0.07201533 -0.06468208 0.010474006 0.020320062 0.00036392495 0.013799709 0.0471969 -0.008799201 0.021715553 0.05470917 0.002988192 0.15111768 -0.07682663 0.059991438 -0.13519391 -0.049523752 0.038859133 -0.01216005 0.017647285 -0.0770256 -0.053662732 -0.09221398 -0.15563929 -0.026349248 -0.03826186 -0.0024336567 0.033825718 -0.04942421 0.06311889 0.059622437
0.04350105 0.0938195 0.032204725 0.0998841 0.049339928 -0.054708768 0.027364891 0.06569485 0.03843039 0.0312244 -0.002127788 0.056363627 0.021307664 0.06404723 0.045249242 -0.083968446 -0.055011936 -0.079908825 0.028503168 0.04168118 -0.0893989 0.058093634 0.07461658 -0.016934711 -0.0441638 -0.018535987 -0.0010977132 -0.012684999 -0.07003382 0.014044675 0.0274922 -0.019581227 0.055355784 0.008179048 0.025980925 -0.025024515 -0.009887161 -0.018523004 -0.05174563 -0.06534751 -0.037998173 0.016004024 -0.08254657 -0.034830734 0.042423237 -0.039261494 -0.046329007 -0.10921983 -0.029396331 0.09585668
0.05981486 -0.0403729 0.047810484 -0.006123768 0.0009290809 -0.0005321343 0.05776753 0.06676153 -0.035271443 -0.078999 0.08004486 0.042381153 -0.069858395 -0.07207446 0.095819905 -0.095588036 -0.02027725 0.05772493 -0.11601342 -0.007945155 0.03414002 0.028085904 -0.017379973 -0.08077328 -0.07773527 -0.007453114 0.009255351 0.061197285 -0.021817219 0.054250702 0.052215133 -0.06527898 0.016987598 -0.08857535 0.0005440399 -0.030422227 0.023518156 0.016156929 -0.09171405 0.026990065 0.0036729807 0.047609 -0.015347701 -0.05690016 0.048968144 -0.023253785 -0.058111567 -0.093938835 0.055981144 0.004233262
0.04845202 -0.04411163 0.052711893 -0.0616908 0.038441975 -0.10045638 0.043817572 0.041700218 0.058551338 0.025357539 -0.05918245 0.01885236 0.086887285 0.11242488 0.060045518 0.08145659 -0.061298598 -0.07446679 0.041744795 0.064160936 0.0066797487 0.056743044 -0.012368308 -0.010024468 -0.012023485 0.07350864 -0.093980774 -0.023717547 0.073198915 0.055722456 -0.011054626 0.08008676 -0.06281022 -0.03299799 -0.011220678 -0.015446779 0.054516453 0.0140211675 -0.012247377 -0.01453541 0.00893718 0.04012702 -0.047729097 0.0009412483 -0.0019557895 -0.010662277 -0.035458926 -0.06560901 -0.06319601 0.07874417
-0.04032091 0.0029116194 0.017908482 0.048103523 -0.044554755 0.042876102 -0.0932304 0.029336203 -0.033224177 0.0604919 0.018492451 0.019681752 -0.09437386 0.013171967 0.10061202 -0.013082238 0.1034395 0.084234826 0.00015390744 -0.098702975 0.09561593 -0.07757722 0.03819874 -0.068029456 0.058981743 0.015073169 -0.061026763 -0.02085278 -0.02064676 -0.089865044 0.0071042646 0.061513785 -0.079081945 -0.078628324 -0.11233323 0.011653902 -0.038090568 0.046095107 0.02765466 -0.046082146 -9.208071e-05 -0.07542657 0.027657568 0.08638172 0.08581605 0.08155656 0.04531384 0.02891789 -0.07670289 0.06891544
0.0007515114 0.07536174 -0.026705546 -0.06729861 0.027469387 -0.05970487 -0.105568044 -0.08977008 0.032533817 -0.017069103 0.022073288 -0.023772575 0.0701646 0.090364106 -0.06533873 0.03109767 0.06903362 0.0011428294 0.06530872 -0.017294051 0.011248175 -0.08273141 0.03937448 -0.08961437 0.004986375 0.024274139 -0.056287985 0.06666556 -0.011587342 0.102924876 0.09505321 0.056277037 0.00034202306 0.044099588 0.024709994 0.035527065 0.054759774 0.037509266 -0.022593811 -0.031457637 -0.027531907 -0.08632618 -0.01887551 0.008987762 0.04427486 -0.008381744 0.05189724 0.004636879 0.061730243 -0.05458437
-0.005657606 -0.06637706 0.046283543 -0.08347135 0.004386504 -0.028305601 -0.1252751 0.016997997 -0.0012591614 -0.052621394 0.075620756 -0.08711589 -0.049747135 0.0029618456 -0.016927972 0.03697524 -0.011920291 -0.045221042 -0.11966255 0.01521957 -0.054688934 -0.016247503 -0.016601726 0.04115896 -0.028014677 -0.07935773 0.029951792 -0.085318424 -0.099701144 -0.048043385 0.117102765 0.028599184 0.022314891 -0.07342213 0.0019506752 -0.032377984 -0.057160605 0.08042335 -0.0704665 -0.060374144 -0.01647255 0.057763383 0.09150179 -0.069281325 -0.037096173 -0.06579122 -0.046106644 0.005708341 -0.02859025 -0.018413713
0.018757105 -0.020643424 -0.03711948 -0.053584293 0.06918172 0.009017647 -0.06830729 0.09641683 0.06660101 0.10173795 0.025641222 0.027011096 0.009241508 -0.035694562 0.016019164 0.03588891 -0.082246564 0.049736463 0.008403155 0.026388112 -0.07577829 0.0098344525 -0.012587214 0.057222385 -0.088642746 -0.0036612498 0.08754581 0.014427413 0.009708341 -0.077539116 -3.838464e-05 0.04157698 -0.044847235 -0.0139201125 0.039983794 0.006114176 0.029863821 -0.063550346 0.021929089 -0.03418324 -0.047337342 -0.016644517 -0.055279635 0.098365866 -0.044082735 0.06886235 0.04104076 0.011181797 -0.01147919 -0.018096412
-0.0021534115 -0.04088659 -0.041560344 -0.048958432 -0.15700254 0.031583954 0.011549057 0.02026386 0.021009931 0.062717706 -0.0036197896 -0.0020283498 0.10262571 0.09580689 -0.03768597 -0.028341286 -0.09474991 -0.05232506 0.004880532 -0.04929467 0.06669554 -0.012826333 -0.051194336 0.05008333 -0.0334272 -0.07381234 0.026113033 0.06572653 0.059705257 -0.03200518 -0.028328389 0.03489188 -0.06312788 -0.03667947 0.04911782 0.03773002 -0.028598204 -0.057258587 0.09383096 -0.06344572 0.02055616 -0.03162595 0.050885506 0.0052399826 -0.04851315 0.028682448 0.057417955 0.08166966 -0.053358924 0.04570566
-0.00796667 -0.092443585 0.0053343344 -0.091143854 -0.07376713 -0.07195449 0.039652575 -0.064688034 0.044292808 0.068242535 0.011659171 0.008299961 -0.023779836 -0.0053605065 -0.0094196405 0.043514613 -0.05804457 -0.023340493 -0.040008616 -0.08893613 0.05239492 0.035919737 0.06321507 -0.05230378 -0.08673507 0.06935396 0.117893524 -0.056964174 -0.0023363787 -0.0898893 -0.001752246 -0.10328829 0.01656484 -0.021090606 -0.026017701 0.10706864 0.026022866 0.061153587 -0.004261318 0.07829061 -0.10942832 0.03773762 0.03950226 0.05202436 0.08378613 0.020357644 -0.022965694 -0.06554148 0.029185737 -0.0028184801
0.008490257 0.019632313 0.026540045 0.09670488 -0.012522237 0.037929747 0.031770322 0.066394635 -0.069228314 -0.05363898 0.08032341 0.021181371 -0.013506974 -0.016027808 -0.05911826 -0.06679022 0.033281602 -0.042644355 -0.10678132 -0.11277451 -0.04092854 0.0852014 0.04235746 0.05798996 -0.030180255 0.023101166 -0.03192933 -0.04400095 -0.06044193 -0.0068323724 0.056269538 -0.055694863 -0.013463273 0.014549924 0.057959806 -0.015184881 0.02369215 0.072289474 0.08748668 0.02467733 0.010613031 0.008957779 0.017050719 0.09753676 0.016479164 -0.02536044 -0.07011971 0.044999525 -0.050829966 -0.09496232
-0.055417527 -0.025572669 0.038122684 0.09206933 -0.1318246 -0.069601774 -0.016711771 -0.09209706 0.03828121 0.027891178 -0.0473564 -0.018339945 -0.00014154057 0.09590376 -0.04442845 0.09310257 -0.04471086 0.040376894 0.039975177 -0.10295947 -0.017275965 0.062394753 -0.09257596 -0.027495151 -0.0052379845 -0.046098202 0.061850812 -0.045099076 -0.062351808 -0.08850193 -0.055385903 0.05703944 0.0828471 0.021009024 0.039122615 -0.09118589 -0.024126237 0.010675581 -0.03481103 -0.0799627 0.0551251 0.011218363 -0.03255314 0.05499201 -0.0032151116 -0.026257733 0.05345781 0.08227491 -0.030516932 -0.046076335
0.010886721 0.0060204286 0.015967436 -0.049240317 0.023329435 0.052024573 -0.04968067 -0.058667436 0.06429029 0.060978185 0.031104468 0.045101307 0.06238961 -0.0445699 -0.016732588 0.01419366 0.077760056 -0.009888215 -0.014147275 0.044850983 0.06729443 0.010246421 -0.0055491906 -0.024927089 -0.03303623 -0.047508914 -0.041248113 0.07752037 -0.04424179 0.03375454 0.0028865677 -0.026985139 0.04956935 0.023455013 0.10781285 -0.018725703 -0.013888691 -0.08778078 0.097222924 0.0028662141 -0.071339324 0.09185315 -0.028657233 -0.0055506686 0.009182413 -0.00876549 0.0058844574 -0.057076924 -0.0546173 0.0030999274
-0.010828741 0.04613307 -0.048080698 0.08379979 -0.104019746 -0.06292875 -0.10370332 -0.030999325 0.057071712 0.0071229325 -0.009456758 0.0463577 0.024710806 -0.06361171 0.019219922 0.0028362388 0.0038850924 0.010557931 -0.013986819 0.050096884 0.10940038 -0.04950938 0.0050107245 -0.03474334 -0.059286755 0.06302885 -0.021307115 0.0030309919 -0.015070923 -0.036187623 0.03715676 0.06920098 -0.007019201 -0.037637703 0.027134258 -0.042000312 0.047529623 -0.075441055 -0.018743498 0.033814605 0.06157409 0.12201143 0.06244691 0.024144044 0.041979894 -0.03713921 -0.01620486 0.029431958 0.0024473674 0.092396796
-0.07393118 0.017114297 0.045420434 -0.008177214 0.027214203 -0.08740511 0.16076449 0.06464857 0.041461587 0.12968452 0.049747135 0.015482007 -0.07304188 -0.08007674 0.005535752 -0.03995502 -0.05909704 -0.069196194 -0.010007209 -0.027713286 -0.0736644 0.045917194 0.029184956 -0.08021482 0.040805515 -0.032000493 0.07165877 -0.082896896 -0.048541423 -0.06463053 0.08872845 -0.0071560214 0.05024812 0.075477175 0.009868309 -0.059597865 -0.00084261736 -0.11130525 0.035608005 0.039494798 -0.046271607 0.066187754 0.059341464 0.13617556 -0.056768205 0.04219672 -0.0062040775 -0.072306134 -0.04154061 -0.09900119
-0.004334187 -0.029217707 -0.10017577 -0.09317411 -0.0356724 0.044730052 0.09879316 -0.15654875 0.07803498 0.13527961 0.11167817 -0.12433539 0.19099605 -0.055820115 0.051919814 0.16478723 -0.15372542 -0.022100596 0.14291328 -0.21681024 -0.044076756 -0.07806392 0.027169088 -0.12949 -0.07972284 -0.00071812654 0.14192562 0.018336358 -0.026728434 -0.103554375 0.09971733 -0.20178895 0.27096978 0.0068134875 -0.035409927 -0.11320885 -0.076016426 0.075956024 0.042926393 0.12567194 0.059962906 0.026218202 0.18168794 0.093430996 0.05258639 -0.14276615 -0.17456096 0.024391117 0.026366591 -0.21261784
-0.0378822 -0.042472437 -0.10181635 0.025197877 0.034708958 0.103446454 0.035467874 -0.00703577 0.08141215 0.054766424 -0.06433515 0.031820703 0.0132921105 -0.08107602 -0.065594025 -0.07479752 -0.09038577 -0.019760692 0.2117498 -0.009869975 0.041510034 -0.07511168 0.08949574 0.046318725 -0.12669705 -0.0139767565 0.15325782 -0.054515086 0.01928263 0.007001354 -0.097216606 0.11498668 0.08873724 -0.08722669 0.07357013 -0.090486914 -0.13077034 0.054249763 -0.031375844 -0.009735093 -0.04221676 0.096061826 -0.06475456 -0.048201263 -0.010281157 -0.023560962 -0.116662614 -0.074184574 -0.07561132 -0.020814406
0.047900412 0.13900606 -0.037803244 0.020953165 -0.0068194927 0.10800591 0.032368083 0.06638886 -0.11221181 -0.040925875 0.029056545 0.1364722 -0.06509148 0.029828701 0.04123879 0.0060575604 -0.11695482 -0.08156908 0.068229586 -0.03589631 -0.12845308 -0.060176376 -0.056338303 0.054066073 0.037387073 0.06557575 0.09244023 0.0346042 0.039006233 -0.04551066 0.09060547 0.088457234 -0.046611704 0.041206494 0.053494677 0.12818371 0.0054019885 -0.07377346 -0.09170543 0.013790335 -0.05945304 0.113611326 -0.15877093 0.0076279454 -0.09453313 -0.03525854 -0.026203508 -0.06992188 -0.116751984 0.04834606
-0.09063 0.106965795 0.14112173 0.07574569 -0.0038712665 -0.034090597 -0.10937284 0.20967466 0.07256077 0.10427081 -0.064441435 0.15193011 -0.18709527 0.070269 -0.024201358 -0.13814446 0.17050126 -0.10428385 -0.03390332 0.23349153 -0.003951811 0.08605233 -0.066671394 0.026779706 0.022781113 0.02032754 0.04597518 0.048152924 -0.057167843 -0.0016619704 0.084615625 0.07791064 -0.2229341 -0.039105892 -0.05518925 0.08036975 0.11955109 0.024651742 0.005692673 0.011711902 0.02164207 0.07629903 -0.01693577 -0.037557334 -0.11424081 0.05901819 0.1720021 -0.060431574 -0.0058270907 0.102742694
0.028651433 0.0144472495 0.12303851 -0.067523316 0.044831783 -0.10713665 0.010424456 0.14569247 0.101192206 0.0055092806 -0.00048713575 0.0028033783 -0.08432947 0.046510167 0.038966924 -0.07284112 0.17370856 -0.056539275 -0.09616396 0.15690139 -0.012162535 0.1250438 -0.09285498 0.0023714507 0.039487697 -0.15751088 -0.047300115 0.12423639 -0.036737073 0.050183766 0.030171132 0.07674961 -0.13707547 0.052250735 -0.083411075 -0.051175438 0.07621291 0.010616913 -0.005900743 0.07356098 0.017039347 -0.01228545 0.116987996 -0.037950195 -0.08674094 0.14096566 0.13715746 -0.06154104 -0.057341665 0.013517102
-0.0018087613 -0.08275917 0.0022998182 -0.018996157 -0.04526341 -0.029788744 -0.02937667 0.092034936 -0.0008526192 0.08102436 0.024044015 -0.019831385 -0.1032052 0.030084247 0.06434246 -0.001650127 0.081825316 0.04278261 -0.11634311 -0.012687025 -0.02351404 0.063798994 0.013966569 0.03647659 0.029531823 -0.06591235 -0.16198814 0.020663576 0.020711899 0.031147696 -0.08853297 0.028433952 -0.042788368 0.011114719 0.13328533 0.060596175 0.007980444 0.06423985 0.08496685 0.08513335 -0.028841803 0.0064328285 0.05461846 0.0117437495 -0.104962885 0.045600384 0.008924058 0.014388406 -0.00766668 -0.03170321
-0.110563286 -0.032631114 0.07655124 -0.03704696 -0.0170202 -0.07315039 0.058533248 0.090415746 -0.015554502 0.10459233 -0.065775305 -0.15634872 0.038424034 -0.07309275 -0.041529458 -0.00071877625 0.017360715 -0.005252153 -0.09058643 -0.06404299 -0.06508574 0.05720493 -0.06026559 -0.08065166 0.08515771 -0.036033448 -0.06734306 0.113223515 -0.15168189 -0.04102253 -0.10128223 -0.0008681748 -0.041161723 0.014676817 -7.2625626e-06 -0.11375349 0.070581056 0.046910614 -0.024231797 0.07499754 -0.039885245 0.010144182 0.13731363 0.06818299 -0.08453241 0.09585622 0.04291551 0.022178514 -0.012956524 0.11287076
-0.06979032 -0.07449144 -0.031742577 -0.09774824 0.06908205 0.0035812838 -0.052557923 0.101811476 -0.12962675 -0.046641234 0.021451917 -0.054313064 0.07291629 -0.11882633 0.038529355 -0.054844823 0.054578103 -0.08541736 0.05844994 0.016053371 -0.070109114 0.061383035 -0.008190179 0.026086653 0.24540491 0.08518402 0.020036139 -0.060267992 -0.063049965 -0.07765187 0.007442946 -0.06632051 -0.021985603 -0.048896387 0.1467923 -0.015603845 0.1639335 -0.011539556 -0.06793437 -0.0673903 -0.06703426 0.004176976 0.13443272 -0.07496987 -0.0892313 -0.04036346 0.07556606 -0.08483051 -0.018798346 -0.01571563
-0.17993486 -0.022595866 -0.06800594 -0.0714973 0.09919979 0.05052598 -0.073956676 -0.058690894 -0.06059342 0.0076494683 -0.08559687 -0.116419226 0.125582 -0.07048358 0.0543592 0.03483621 0.013923773 -0.053716343 0.10423213 0.04085828 0.0077972375 0.06137994 0.024622291 0.030366596 0.10823939 0.057766274 0.05052472 0.014137505 -0.057239655 -0.07138495 0.042297527 -0.07739132 0.05979656 0.0054634768 0.0685092 -0.02718302 0.10833771 -0.050495308 0.025371205 -0.015844496 -0.09757463 -0.026671477 0.11154932 0.041145902 0.025778858 -0.04793041 0.12760001 0.010688303 -0.04566431 -0.07384881
-0.008680311 -0.030585142 -0.0486692 -0.14778139 -0.06583795 0.006690255 0.08402037 0.07544739 -0.12809047 0.05818504 -0.03329257 -0.19873248 -0.02627282 0.028349157 0.07313304 0.15866336 -0.14272903 -0.03561856 0.06577159 0.03361497 -0.03291505 0.13671872 0.07230986 -0.11589267 0.031481966 0.04777497 -0.11505827 0.017244807 -0.040439658 0.021057926 0.03087764 -0.13878198 0.10608652 0.06627303 0.14938268 -0.055944815 0.15729773 -0.007628193 -0.15578955 0.032246124 -0.0868524 0.09878006 -0.02609936 0.00027364457 -0.10967434 0.016190305 -0.04083387 -0.12622401 -0.012619186 0.024638832
-0.010125607 -0.09155655 -0.017559351 0.018148923 -0.03168003 -0.027043117 0.090652876 0.0010994239 -0.09418985 0.09636223 -0.06768119 -0.08911462 -0.025691625 -0.013757879 0.020391772 0.01951312 -0.027604872 -0.07110904 -0.03717507 0.04649128 -0.007992491 0.0148869 -0.052596092 -0.03623109 0.09329555 0.05763544 0.011894225 0.10169692 -0.01230069 0.057161808 0.04607466 -0.13560067 0.14711204 0.11601622 0.12906572 -0.016677573 -0.029994352 -0.013545919 -0.12178767 0.13191193 0.019693317 0.053968612 0.08289894 -0.14155886 -0.06487574 -0.0751184 0.008861791 -0.058594704 0.013922925 0.004116058
0.11395291 0.010945271 -0.0076725436 -0.027301019 -0.050812997 0.06440822 0.08434566 0.031229472 -0.04722817 0.06573526 0.08686724 -0.028986452 0.09849851 0.09943864 0.074980125 0.0844817 -0.028905163 -0.03936614 -0.064224645 0.089805156 0.006735055 -0.031349245 0.045887135 -0.026118323 -0.023225576 -0.056406204 -0.001808029 0.09537624 -0.008836385 0.00502927 -0.0954226 -0.06758021 -0.013716189 0.043286655 0.026338259 -0.0676799 0.06264757 0.00079382263 -0.02343389 0.15101482 -0.027680047 -0.012358947 0.074411094 -0.02463563 -0.023661485 0.014593693 0.043589596 -0.017102212 -0.018671101 0.015599917
-0.035705883 0.026722277 0.005623296 -0.0028218566 -0.040636037 0.04126175 0.023340194 0.023215082 -0.03627921 0.06849606 0.03009468 0.0026262398 -0.0040085693 0.0014973402 -0.03817478 0.025694774 0.06108024 -0.14995831 -0.04441174 0.062487565 0.012481126 -0.05468254 -0.06289179 -0.025307639 -0.06301469 0.053476032 -0.03264195 0.035070263 -0.043607924 -0.07647522 0.09040003 0.05159574 -0.013461743 0.0935559 0.06411926 -0.06931442 0.04012351 -0.112168975 -0.07051337 0.028531676 0.054700665 -0.009356877 -0.019619426 0.06955815 0.07072802 0.089110695 0.09917299 0.08359154 -0.019780181 0.013837121
-0.03970951 -0.09152012 0.079323955 -0.041064147 -0.009454566 0.0360438 -0.033069763 -0.004497845 -0.005235513 0.123916596 -0.06520501 0.005794352 -0.058865078 0.03092461 -0.041319817 -0.02743306 -0.016333245 -0.07562534 -0.033308867 0.113129996 -0.029284755 0.046992384 0.06151444 0.10498227 -0.037663136 -0.0967211 -0.058869936 0.121144764 -0.078914195 0.031124573 0.1057957 0.07112079 0.05852568 0.09327733 0.050220657 0.016871937 -0.027696215 -0.09274543 -0.09783236 0.04370383 -0.04038996 0.015666975 -0.014615847 -0.007646901 -0.088146195 0.0661763 0.042442825 0.022225097 0.09718234 -0.020593885
-0.009287655 0.072245315 0.023891987 0.044027988 0.062977016 0.044281855 0.15762642 -0.112044625 0.063692816 0.11413736 0.027604906 0.11941681 -0.033727113 -0.059884064 0.02017138 0.04692135 -0.019496774 -0.027802093 0.08842408 0.031010954 0.032611165 -0.011094578 -0.019276876 -0.010626898 -0.10125236 -0.0692753 0.10024505 0.08993551 0.08291776 -0.024212822 0.09684534 0.0025482946 -0.077298574 -0.040779877 0.044270124 -0.08527571 0.047820393 -0.08900783 0.067178786 0.032912023 -0.023071459 0.017525878 -0.024251739 0.088867374 0.06516605 -0.07624668 0.08238274 0.062024374 0.028331464 -0.031283516
-0.038163155 -0.01240912 0.088582546 0.023085857 -0.053827904 -0.03397517 -0.038150806 0.025674354 0.0766144 0.039368734 -0.1047746 0.008001703 0.05094801 -0.028885942 0.050515335 -0.04131421 -0.016893225 -0.013295378 0.0113953175 0.06014592 -0.039249312 0.010411107 0.06921178 -0.021398365 0.007251311 -0.11539234 0.033664193 0.09223446 0.038089532 -0.026382672 0.10992324 0.06401671 -0.051518146 -0.08407711 0.0054185027 0.0047222567 0.058907714 -0.023009434 -0.040040992 0.06588714 0.10028842 0.05141605 -0.08390259 0.05911127 0.045126416 -0.059687547 0.10043827 -0.06117494 0.0627321 -0.05140613
-0.08027616 -0.03683136 0.0029608817 0.063315205 0.0071395477 -0.039264802 0.06022006 -0.07712342 -0.0061364574 0.041483898 -0.10703598 -0.038045544 0.079916514 0.051091928 -0.07631547 0.06975107 -0.014988921 -0.0895088 0.055201765 0.14198762 -0.008474226 0.023593571 0.010742532 0.08983972 0.018969622 -0.0072900937 0.14646274 -0.007964245 -0.057360176 -0.085585736 -0.021751218 0.15357703 -0.02119105 -0.0022203103 0.06129939 -0.09662999 -0.0367912 -0.003375303 -0.107849315 -0.023443937 0.016256012 -0.004651436 -0.020977478 -0.023253853 0.037873235 -0.023502253 0.008677633 -0.062186584 -0.029538652 -0.09801138
0.013299958 0.0022064117 -0.008546637 0.068528764 0.110257104 0.09204294 -0.08161253 -0.07099271 -0.004011607 -0.05580171 -0.11859735 0.08009473 -0.122182705 -0.042111307 -0.0138233565 0.08297507 -0.008082185 -0.026574643 0.1295614 -0.034367125 -0.09142392 -0.005462216 0.08954425 0.015991328 0.012065056 0.02747049 -0.026736911 -0.024204878 0.022849077 0.09987569 0.051594287 0.021264575 -0.053015422 0.008388448 -9.009934e-05 0.06717857 0.016590338 0.041266482 -0.0041133626 0.04431408 -0.069087386 0.047166217 -0.026332786 -0.10334724 -0.062358033 -0.020866087 0.07716526 -0.012614541 -0.025311481 0.010786882
0.024574522 0.14193965 -0.031565998 -0.04871972 0.08945434 0.07761009 0.057566352 -0.04815464 -0.05416718 0.04104363 0.031424295 0.031862177 -0.031437214 0.042430155 0.026300976 0.07236532 0.00758909 0.046428263 0.0649892 0.08219292 -0.062665775 0.06005528 -0.044650096 0.050231192 0.1048929 0.049083754 -0.02210091 -0.0014152335 -0.094343975 -0.06401868 0.017680615 0.070334546 -0.10901768 0.108683914 -0.01635973 -0.020894129 -0.10904451 -0.034912225 0.004194282 0.035032965 -0.03236769 -0.09967026 -0.10039642 0.028936356 -0.0126164965 -0.031816065 0.10639161 -0.019471057 0.09570574 0.06920234
-0.01938939 0.024950806 0.080963686 -0.057222184 0.011631782 0.081951015 -0.005449294 0.052319534 0.009613846 -0.0013098377 0.06084026 -0.032966174 -0.08320547 -0.06405952 -0.07645759 0.017188713 0.0708696 0.03735857 0.0819022 -0.01757088 0.01825575 -0.041868467 0.067018665 -7.308263e-06 -0.09347401 -0.022513459 -0.0034118071 -0.010324077 0.042780336 0.065675065 1.1456927e-05 -0.043092668 -0.094549686 0.077917814 -0.12373337 0.044964373 -0.080754824 -0.05226411 0.03169535 -0.03809076 0.008066442 0.012014145 -0.085134365 0.005443059 0.11578125 0.042353246 -0.12346416 0.08284722 0.025777893 -0.018233752
-0.0126335425 0.049744003 -0.020722583 0.11297265 0.01415213 -0.033138152 -0.07333141 0.034211107 0.051814344 -0.13751188 -0.054720335 -0.041261327 0.012424367 -0.038147863 0.027562516 0.08405301 0.026408361 0.056876015 -0.09549297 0.06521721 0.03141083 -0.0721033 0.021113938 -0.09288782 -0.01602639 -0.055660456 -0.071298875 0.024829557 0.048611984 0.022485588 0.057133436 -0.09256958 -0.007154507 0.064154245 0.021860104 -0.043327164 -0.022567602 0.067723185 0.004184448 0.068090305 0.0631643 -0.024832444 0.00010795923 0.048191257 0.045069385 0.08738061 0.029026596 -0.030517109 0.069496445 -0.03976688
-0.04513756 -0.036755215 0.10969888 0.0674088 0.085026115 0.027510673 -0.042875808 -0.033531293 -0.05188105 0.019440612 0.11861059 0.058562916 -0.029529389 -0.012468277 0.034487825 -0.020897701 -0.05270242 0.053152174 -0.08819116 -0.037314303 0.08230444 -0.047638316 -0.07359234 -0.07998518 -0.10879139 0.03084568 0.040478844 0.034196984 -0.02102439 0.05112559 0.08806603 -0.10430851 0.040096197 -0.10555544 -0.085626826 -0.03864034 -0.04061403 0.018310262 -0.016186388 0.025993561 0.002012356 -0.015079815 -0.07388725 -0.039665192 0.07005843 -0.002939771 0.035546128 0.008108834 -0.020854441 0.0043953983
-0.021504207 -0.026391039 -0.029757021 0.04896307 0.042868394 -0.053441867 -0.049929228 -0.076257125 0.04255299 0.039063714 0.040148 0.08014159 -0.028154315 0.049422406 0.018587558 -0.036712132 -0.02774403 -0.05628436 0.030129766 0.0024922234 -0.07581508 -0.005306398 0.00490212 -0.07648334 0.06024417 0.08037262 -0.029020252 -0.06130764 0.089161515 0.0010069999 -0.033675704 -0.09950474 -0.0716689 -0.07920819 0.0137158 -0.030620214 -0.009760169 -0.014857588 0.07303638 -0.060631905 -0.08063207 -0.06152187 0.046355393 -0.015170006 -0.030681394 -0.019931447 0.023645813 0.032018654 -0.05674357 0.104017876
-0.06476771 -0.018880712 0.039278932 0.0069387634 -0.024925329 0.01774691 -0.036002062 -0.05637275 -0.026450034 0.035512317 0.0060282755 0.08819113 0.056074288 -0.021357728 -0.025348091 -0.0355461 0.004753252 0.080343395 0.015662475 0.07773649 0.07508413 0.040167145 -0.01232154 -0.050866973 0.057733323 -0.089123026 0.035088144 -0.039796583 -0.087118074 0.09870793 -0.0337935 -0.11241721 -0.012915648 -0.09015536 0.004531692 0.012908098 0.010182179 -0.06494082 -0.019941285 0.08727526 -0.06617764 0.038872235 -0.09834184 -0.02029899 0.06940674 0.068668075 0.081300475 0.09511835 0.0726431 0.058929984
-0.010869029 0.07376316 -0.038198188 0.034093052 -0.010189057 0.028589636 0.026431326 0.046799824 0.05390879 -0.08538613 -0.051840052 -0.028643772 -0.03364875 0.12287093 0.07268346 -0.037817553 -0.055570077 -0.027180692 -0.011550267 0.0670183 0.07877405 -0.010166858 0.023064313 -0.0096625695 -0.02686144 -0.07211002 -0.05141418 0.024770867 0.018141458 0.06627014 -0.012648312 -0.08359781 0.098425806 0.01680179 -0.0060521527 -0.06993017 -0.034979217 0.03519457 0.019639544 0.017284356 -0.016982418 0.07083367 0.054971896 0.08764148 -0.026225677 -0.030520756 -0.00083042355 -0.042118948 0.07001108 0.0037048853
-0.06673119 -0.018968605 -0.059141908 -0.06635307 -0.06818485 -0.089517415 -0.016860133 -0.046688195 -0.077289455 0.038403664 0.056203995 -0.07734768 0.024033058 -0.021686938 0.0028980833 -0.08245861 0.06353395 0.11141295 0.0539868 0.06421331 -0.058991287 -0.024022868 -0.02314522 -0.050802052 -0.057341192 0.050783027 -0.07973306 -0.03833223 -0.00095480494 -0.04972859 0.08484864 0.050218567 -0.01886325 -0.03194288 -0.09353923 0.09503396 -0.0058927243 0.021745723 -0.10627746 -0.010625095 0.040488172 -0.061197724 -0.034677904 -0.036612973 -0.08201376 0.037603807 0.019571016 0.05563091 -0.00034665398 0.060733512
0.047379393 -0.04439718 -0.07442271 -0.016329 0.025605248 0.010968118 0.008244452 0.00068468985 -0.016066063 0.033031352 0.020206936 0.010258934 -0.07369427 -0.05169876 0.11025502 -0.043922096 -0.03160964 -0.01122221 0.056053627 0.05769242 -0.031526327 -0.020627487 0.038169064 0.063875996 -0.04029504 -0.0009867925 0.06231775 -0.022339744 -0.061929934 -0.0018351581 0.07271541 -0.028978437 -0.032239452 -0.08772933 -0.013727024 0.07238838 0.035489272 -0.039932393 0.06331674 -0.015876208 0.04737102 0.080282606 0.046939153 0.04004402 0.0020005477 -0.074037425 -0.021819139 0.09828937 -0.0036990596 -0.07007392
0.06328365 0.055491444 0.001438247 0.018775152 0.041576304 0.01634634 -0.109849 -0.01642847 0.03704196 -0.0093413545 0.11306318 0.0026870873 -0.019334411 0.025181592 0.10288645 -0.034957245 -0.024637235 -0.008939363 -0.04226136 0.008795116 -0.028089276 0.021433951 0.07645439 0.096058376 -0.0027433615 -0.009267676 0.0070599876 -0.0739736 -0.08426323 0.09109375 -0.0012975982 0.047326252 0.042606145 -0.02326446 0.05332863 0.012421593 -0.023885988 0.123633966 -0.09855381 -0.049569838 -0.055440877 -0.03766151 -0.09376836 -0.04758118 0.021441983 0.06910742 -0.06270831 0.06277405 -0.01938484 0.078680575
0.07242317 -0.03755935 0.06354281 -0.0884544 -0.058558106 -0.044965625 -0.060082614 0.050053116 -0.10708816 -0.12930161 0.026231589 0.037146937 0.02438805 0.06537466 0.009786585 -0.05689207 -0.118040435 0.07121645 -0.0072359624 0.045679368 -0.051137563 -0.0006465507 0.052161112 0.08956408 -0.004686917 0.04487118 -0.077347174 -0.03191639 0.0052522863 -0.056422655 -0.13291503 0.076482534 0.032340623 -0.10081099 -0.1245126 0.060000714 0.026101852 0.049361587 0.11164163 -0.044922948 0.04896655 -0.06566713 0.065005235 -0.06489236 -0.10291681 -0.048004143 -0.047166925 -0.07550919 0.01485001 0.09242562
0.011106815 -0.12188627 -0.0062002903 0.099347 0.109029345 -0.030960452 0.012933151 0.02006645 -0.07682635 0.014235731 0.055569246 -0.018597346 0.05665333 0.083920576 0.0141451955 0.020203957 0.052604564 0.038014743 0.012634554 0.045621574 0.07294248 -0.0396989 -0.04609414 -0.081250854 0.011993733 -0.05333198 0.007862225 0.1009527 0.002958759 -0.040096894 -0.09792353 -0.08173519 -0.06325045 -0.036741223 0.00047708128 -0.09251122 0.033889074 0.029989323 0.027068945 0.049620785 -0.054100726 -0.0107395565 -0.018977078 -0.011938083 0.09408153 0.005533968 -0.10353788 -0.06120424 -0.056432836 -0.0767278
0.1254355 0.034156803 -0.087715365 -0.031236708 0.011925431 0.04509592 0.077997014 0.02530727 0.030006481 -0.030670626 0.0455078 0.056209225 0.057761487 0.10367419 -0.0013817502 -8.759933e-05 0.049907375 -0.04906165 0.07013802 -0.09155748 0.09912842 -0.0037245431 -0.06332243 -0.041197166 0.043277964 0.026218351 0.010824947 0.03662613 -0.026639549 -0.004065564 0.019244924 -0.0036060405 -0.054925594 0.050665136 0.00011182678 -0.01620223 -0.08255537 -0.013735891 0.06944111 -0.03380967 0.025994526 0.10373388 -0.031792454 0.05617006 -0.0481244 0.040813755 -0.02108337 0.01933319 -0.0563604 -0.06405924
-0.03919044 0.0062768157 -0.057435103 0.005279954 0.004400385 -0.10112194 -0.007124945 0.010300194 0.0909416 0.071009696 -0.040177014 0.045954984 0.112944804 0.026541691 -0.063926764 0.030961044 0.02968258 -0.048548706 -0.0504865 -0.020812297 0.07074989 -0.03531724 -0.14501826 -0.08457076 -0.0045764875 -0.033004645 0.014401639 0.006361934 -0.040056176 -0.1376718 -0.0722207 -0.035003398 0.087883376 0.004208064 -0.010964239 -0.13250513 0.04606334 -0.01621378 0.10575374 -0.057315473 0.08594235 -0.010687385 0.09037918 0.11239141 0.009725968 0.15640928 -0.030514207 -0.08864544 -0.025215538 -0.08935409
0.16336429 -0.0110001685 -0.0685271 -0.16484986 -0.13282168 -0.010820493 0.1039686 -0.0022959844 0.12368253 0.15403165 0.06485238 -0.03274923 0.13611965 -0.07966635 -0.10662343 0.10053805 -0.18887116 -0.0026987677 0.08639013 -0.11950994 0.060457375 -0.043943956 0.0039767795 -0.009940298 -0.01755915 0.08818591 0.22268248 -0.029103735 -0.044737864 -0.16212814 0.038837284 -0.19873022 0.25487918 -0.045165494 0.09326708 -0.13776857 0.040960394 -0.07984326 0.067680255 0.051795397 0.03870614 -0.051784366 0.093335435 0.15191804 0.054763183 -0.008941016 -0.0037713784 0.012385144 -0.13041633 -0.26541612
0.007896564 0.07399683 0.063572735 -0.04680052 0.0069716526 0.046211615 -0.06771587 0.04105266 -0.068398006 0.06944101 -0.068137765 0.06375708 0.16031317 0.048496414 0.0015243767 0.029700032 0.022230627 -0.124291286 0.043471266 -0.13400325 0.05342755 -0.08932276 0.05459242 0.016089413 -0.08401397 -0.00948727 0.08212785 -0.018671291 -0.09117253 -0.14459392 0.038969822 0.009653679 0.18177505 -0.038045898 -0.028903982 -0.079960056 -0.03328804 -0.029137636 -0.07688125 -0.056909144 0.004895755 0.04720572 -0.15721977 0.06704662 0.038330216 -0.060130086 0.08220498 -0.007387083 0.06129181 -0.04510802
-0.046532903 0.08874199 0.060004517 -0.0044410257 0.0028386079 -0.045804657 -0.008430492 0.02067717 -0.03949158 -0.06735029 -0.057468437 0.07661006 -0.030878786 0.026599908 -0.17314498 -0.09281478 -0.0011810209 -0.058466226 0.06757346 0.08983837 0.032130525 0.015953358 -0.034935333 0.10153779 0.06947019 -0.12010088 0.016510196 0.05275013 0.0234547 -0.047102835 0.11318363 -0.0030722916 -0.061525263 0.08284959 -0.08233066 -0.032810364 -0.069570825 -0.059055317 -0.02824396 -0.100486346 -0.12495798 0.07163191 -0.11786201 -0.041453093 0.013114159 -0.054675728 0.017730856 -0.084395684 -0.07161894 0.07481511
-0.10203558 0.13606802 0.2303926 0.17903887 -0.008940347 -0.10098101 -0.15629509 0.092725046 0.09809519 -0.015689066 -0.14643572 0.07902768 -0.08273767 0.07420482 0.028936895 -0.09569666 0.14338417 -0.06560236 -0.17217964 0.09769052 0.010261167 0.01185119 -0.006549314 0.00057038094 -0.050654784 -0.16778292 -0.16809146 -0.061050903 0.07063428 0.14833298 -0.003701266 0.14336959 -0.2122778 -0.03554139 -0.04658373 0.08968116 0.15256332 -0.026704079 -0.08331086 -0.058668386 0.08637773 0.12444365 -0.10385545 -0.09517763 -0.0888432 0.16700737 0.12386997 -0.17415729 -0.061606385 0.15033235
-0.080975376 -0.015891284 0.03569617 0.10859608 0.0063667805 -0.10840068 -0.047485314 0.13773857 -0.07619418 0.074668944 -0.08939878 0.041798666 -0.16620898 0.0062815268 0.088565685 -0.11382149 0.22506644 0.02956492 -0.20164634 0.15069714 -0.06452827 0.103876986 0.10651241 -0.0054413322 0.0695395 -0.08271025 -0.23420218 -0.028435735 -0.023595264 0.087861225 0.010095945 0.112973005 -0.114295095 -0.011661606 0.019086888 0.14961223 0.018431915 -0.08577152 -0.12574795 0.021036884 0.03827505 0.002684072 -0.048727404 -0.0846738 -0.10451082 -0.010133567 0.094672754 -0.090158194 0.07041131 0.046612084
0.024614517 0.05513245 0.003131251 0.009151335 -0.05106026 -0.07116008 -0.04251136 0.13982305 -0.06474071 0.011762692 0.03115012 0.029387385 -0.14767018 0.08151872 0.05242422 0.0016701168 0.08091914 -0.04750843 -0.21401212 0.08191471 -0.119568296 -0.025124537 0.107382014 -0.11785457 0.027900767 -0.12996362 -0.1201219 -0.0109403245 -0.0885187 0.17329189 0.0020312464 -0.037038956 -0.11543427 0.0041525946 0.033506677 0.017673364 0.040979873 -0.08473915 0.06815105 -0.057388026 -0.05326213 0.01723695 0.062201496 -0.037964873 -0.0728726 -0.008926659 0.085175686 0.022506211 -0.035426367 0.12289211
-0.033173926 -0.09146422 -0.035285372 -0.07806309 -0.14355838 0.0457804 -0.18887438 0.11708249 -0.09180329 0.025743471 0.066329315 -0.12433309 0.03756888 0.044983007 -0.044519976 -0.021138143 -0.03266842 -0.05161906 -0.105647154 0.020478096 -0.01414229 -0.09186693 -0.054208376 -0.16150804 0.17612807 -0.07661795 -0.15132865 0.038463093 -0.09611098 0.10903157 -0.009068114 0.12074886 -0.09834957 -0.040747315 0.10635615 -0.095205285 0.04273153 0.07499771 0.05618365 -0.0646449 -0.0449188 0.027885918 -0.042556785 0.049416974 0.041050404 -0.03335522 -0.007790682 0.02609738 -0.05187118 0.09140617
-0.091983005 0.044442892 0.033240423 -0.05416264 -0.061351385 0.106697045 -0.00873224 0.0970644 -0.055538036 0.04883378 0.091265015 -0.06665282 0.096619725 0.033109218 -0.0040478283 0.07068228 -0.05465492 0.063498914 0.10393479 -0.1150863 -0.01117857 -0.022769883 0.015428826 -0.037193887 0.18694097 -0.027467517 -0.06511235 0.114182144 -0.11438956 0.037334044 0.06534461 -0.00845142 -0.022132406 -0.018144254 -0.015771035 -0.0011898578 0.03038594 -0.06583769 -0.059349287 0.04638161 -0.0036056065 -0.002946674 -0.08005968 -0.050715655 0.015805926 -0.07734115 0.09360767 -0.008554938 0.09879259 0.08571315
0.018396698 -0.09307667 -0.067759745 -0.060715843 0.001307674 0.048526872 0.020707162 -0.061092623 -0.09275494 0.052309964 0.062041804 -0.14062661 -0.0015659353 -0.07340486 -0.023998016 0.012878911 -0.1478847 -0.12075741 0.038756285 0.041149706 -0.070083305 0.005135404 0.0014592316 -0.131868 0.07715882 0.11602713 0.03762929 0.06379529 0.026918167 0.020197567 -0.06823022 -0.055955973 -0.010092994 -0.023904784 0.13928391 -0.037049476 0.1099431 0.038944952 0.03169463 0.10970754 -0.02305585 -0.03920947 -0.091918305 -0.10579281 0.006094198 -0.123339005 0.051105157 -0.08865392 0.08597493 -0.02912658
-0.098896444 -0.024212359 -6.506362e-05 -0.12640582 0.017401408 0.046012986 0.095432706 0.06515734 0.042736582 0.08775486 0.07907178 -0.10203261 0.07940753 -0.03460859 0.060127765 0.018119095 -0.09160239 -0.023075216 0.13582458 0.027700499 -0.083942786 0.0025670193 0.004769172 -0.070101075 0.013833832 0.08129235 0.010097635 -0.028365463 0.078511626 -0.071774386 0.04898153 -0.02923634 0.06359822 0.073714465 0.046476755 -0.08397816 0.067020275 -0.0039999895 0.03174956 0.08686039 -0.062906645 -0.012129857 0.012798439 0.04773784 -0.055384234 0.008431624 -0.05194056 0.014832742 0.046769544 0.016109234
0.047572225 -0.013178433 0.018265303 -0.1395304 0.07517811 -0.057299335 0.13540381 -0.041841924 -0.096040316 0.05870124 0.056273766 -0.09042806 0.010319772 0.010268848 -0.026860168 0.10440847 -0.07239106 -0.051446594 -0.020612558 0.0026414604 -0.0269559 0.02852588 0.05417369 -0.06314983 0.16218822 0.03701779 -0.014521185 -0.00913689 -0.087097876 -0.07246469 -0.113936774 0.034656785 -0.008611322 0.06067303 0.14776073 -0.053517047 0.0206626 0.0022168865 -0.00030968577 0.12899448 -0.0056349696 0.0023092278 0.14126131 -0.11930998 -0.08914805 0.020807154 -0.049340665 -0.0072746887 0.0964351 0.060973912
0.0049637686 -0.053799618 -0.029195745 -0.08607042 -0.07157342 0.11218806 -0.008007508 0.055639535 -0.0124943275 0.13313954 0.00419698 0.0156006515 0.007694649 0.04510536 0.012427242 0.17980498 -0.016878901 -0.08444379 -0.026448818 0.06462609 -0.07148612 0.038351934 -0.023828896 0.020290582 -0.04472314 -0.09104499 0.06676192 0.11883304 0.023889862 0.08523299 -0.08018959 0.06619702 0.024973154 -0.014453273 0.11998044 -0.09938513 0.072088875 -0.061567567 0.026661664 0.08744358 -0.07388406 -0.06687755 0.06151045 0.05121215 0.008190023 -0.010031126 0.07066406 0.048693854 0.09183185 0.035224784
0.10150174 0.009503749 -0.03933539 0.058774047 -0.021475006 0.08002062 0.11944172 -0.029974692 0.04394259 0.11308133 0.116259545 -0.02617703 0.012613749 0.054288767 0.15681636 0.02935312 0.004696731 -0.0037010484 0.049584907 0.2070365 -0.12590556 0.15779047 0.014888435 -0.009090947 -0.057499547 -0.06918367 -0.11110126 0.021151274 0.0727194 -0.0680148 -0.063665725 0.08482051 0.0403593 0.051958703 0.012333671 -0.18413118 0.058804877 0.06653709 0.016316514 -0.052771207 -0.07546759 -0.059489768 0.08341215 0.029304627 -0.038573656 -0.07692735 0.055756245 0.14447568 -0.034262523 -0.09696177
-0.053340077 0.036022823 0.030040864 0.08984638 0.08231096 -0.0032130526 0.089555815 0.04301403 0.09972754 0.0071573807 -0.02345218 0.08666679 0.017795099 0.02527229 -0.022883529 0.07434855 0.086907774 -0.004026588 -0.06918665 0.034099754 -0.12031711 0.11086861 -0.045520574 0.11169986 -0.02105141 -0.08707972 -0.041281585 0.110772945 -0.030872772 -0.004416236 0.08503405 0.04302372 0.031242711 0.090715274 0.07423855 0.019529946 -0.08377744 0.06437674 0.03473016 0.06782492 -0.042888116 0.002722254 0.043360557 0.07982562 0.07310135 0.050235555 0.119902074 0.12739673 -0.024718797 -0.007682603
0.117462866 0.0069233435 0.11665957 0.029099332 -0.022266533 -0.019488942 0.09801016 -0.023378871 0.02850857 0.08668789 -0.020568687 0.04420953 -0.06407455 0.06679089 -0.002630294 0.02684431 -0.103741765 -0.10884235 0.07506048 0.1223374 -0.07784087 0.04527005 -0.014246333 0.10252083 0.009296124 0.0045856186 0.039562203 0.046491068 -0.010829028 0.058084294 -0.05941526 -0.010682924 -0.044426568 -0.014333795 0.05740986 -0.067735404 -0.021358807 -0.05771958 -0.06764767 0.045220993 0.104972675 -0.012508527 0.04148155 0.021339083 0.02193036 0.0031872941 0.024243793 -0.04450693 -0.034707163 0.011799112
0.023246698 0.023309082 0.0065558506 -0.031841353 0.04186346 0.094206825 0.0018367172 0.049260076 0.010511575 0.09817975 0.0045554624 -0.043732334 -0.060123052 0.014296491 0.008097325 0.09116212 0.066840686 -0.12978627 -0.0094648 0.19753717 0.021518921 -0.11053818 -0.06389681 -0.025129538 -0.010319113 -0.042885166 0.049521916 0.027846199 0.07989963 0.040344726 0.012815942 -0.07540196 -0.08421049 -0.027270833 0.058801074 -0.0059006047 -0.06843466 -0.040607933 -0.020436216 -0.02422664 -0.0017518987 -0.09011769 -0.030034453 0.009444594 0.077377126 0.032405484 0.046636112 0.058264762 0.10319682 -0.08228388
-0.04254512 0.08366924 0.09177474 -0.05627512 0.012699477 -0.013516776 0.066287115 -0.01803161 0.036729462 -0.055903655 0.0020771327 0.02292697 0.043122075 0.067473516 -0.0039613415 -0.065443575 0.039688494 -0.062651046 0.03373626 0.046889015 0.041099086 -0.012985631 -0.12416781 -0.019800214 0.00090168195 0.0159019 0.055424165 0.10286631 0.02253207 -0.007795015 0.0280453 -0.047455337 0.050096933 0.0961194 -0.104630366 -0.025665289 0.059067216 -0.09674624 0.03485662 -0.0054015582 -0.05275707 -0.02241778 0.06826343 -0.094281465 0.048010357 -0.07153589 0.101546146 0.010494611 0.12897477 -0.056098707
-0.050886117 0.050634604 0.09137514 -0.059511006 -0.022712922 -0.04360409 -0.11179635 -0.021878064 0.052319188 0.018798674 0.058184784 -0.045722045 0.048020523 -0.030237107 0.0114576975 0.10187834 -0.03837723 -0.08019362 0.13473643 -0.023774775 0.016022129 -0.0072403634 0.039559875 -0.061412614 0.07680683 -0.019794615 0.104580276 -0.07444346 -0.008327335 0.017853264 0.010292672 -0.11181113 -0.015857086 -0.00852501 -0.085918106 0.028433127 0.057174917 0.008952447 0.04122152 0.0461782 0.05122104 -0.0744195 -0.0035275295 -0.0204892 0.054009758 -0.006191868 0.11396348 -0.08833873 0.017146831 -0.006059237
1.0153832e-05 0.058094054 0.041121118 -0.035942897 0.03510287 0.012264753 -0.0035701988 -0.07504531 -0.02764278 -0.032041527 0.044502374 0.036217272 0.024144638 0.06775528 0.006975442 -0.06915441 -0.046907496 -0.023838818 0.04307358 0.07907537 -0.049490914 0.03035811 -0.018071732 -0.06847104 0.04241448 -0.015480278 0.08985956 -0.09286308 0.10126473 -0.055781953 0.010116525 -0.09756667 -0.053262692 0.045737952 0.04890609 0.006222008 -0.013198689 0.04089239 0.018937346 0.07707019 0.02606808 0.034316767 0.045295324 0.034257244 -0.059094954 -0.0031618807 -0.09348891 0.05714218 -0.021126041 -0.024788884
0.08796351 0.08064622 0.039191984 0.042923845 0.13607727 -0.04049175 0.055854782 0.04218903 -0.026421107 0.03062845 -0.057711396 0.0722228 -0.091319256 -0.0076563265 -0.0379916 0.068900324 -0.035240147 0.003958174 0.062353037 0.09810335 -0.033231426 -0.06988001 -0.10885465 0.023540365 0.04456337 -0.05939903 0.08270424 -0.049594007 -0.05412424 -0.049322348 -0.031774983 -0.100751996 -0.045171134 -0.009719755 -0.045189057 0.0060994 -0.12511526 -0.0766775 0.1024396 -0.0118305115 -0.08148758 0.106440425 -0.008563749 -0.015099803 0.037760686 -0.07634382 -0.09062806 -0.03525555 -0.0019638792 0.03181012
0.04372591 0.036742784 0.086693235 -0.06278413 0.009391988 0.060862854 0.042944975 0.039341208 0.055288102 -0.019177502 0.025805827 -0.056089714 0.018708201 0.10731238 0.04060391 -0.03674452 0.10637142 0.05989961 0.03421467 0.019600805 -0.053119514 0.021340812 -0.051369675 -0.07746718 -0.04649599 -0.043900378 -0.04204273 -0.011849677 0.08275662 0.032869887 0.07349762 -0.03046737 -0.0690069 -0.008141606 -0.02536696 0.104253754 0.027303059 0.08715432 -0.053493008 -0.084105305 -0.043990817 0.071608104 -0.041520394 -0.030328698 0.13227089 0.023604024 -0.045744207 -0.05263306 -0.043360997 -0.09387174
0.037204623 0.11359561 -0.056803238 0.03446105 0.03281206 -0.017176326 -0.07403284 0.050984617 -0.044034872 0.03629928 -0.046232443 0.093244664 0.06959705 -0.0037042883 -0.03459603 0.002657817 0.016304154 -0.065166175 0.061700515 -0.031914964 0.07175192 0.053651445 0.0073643588 0.04987861 -0.10078631 -0.027168555 0.016498035 -0.1198027 0.07893136 0.06396658 -0.058365945 -0.114656575 -0.008726852 0.029617187 -0.064352825 -0.0029945592 -0.058592293 0.0054021543 0.074936934 0.029502956 -0.037527647 -0.053696323 -0.028996438 -0.01695577 0.08264672 -0.03405722 -0.10875854 0.043046664 -0.011798036 0.07537866
0.0212984 0.061809193 -0.051392395 -0.019097073 0.045053262 -0.038227323 0.0835949 0.00060585036 -0.045458768 -0.031336054 0.0674602 -0.004626357 0.03174388 0.008013628 -0.110356614 -0.04770557 0.09249396 -0.03324457 -0.07221459 0.102750994 0.019913241 0.09333334 -0.0386108 0.045907114 -0.049129866 0.04090134 0.037449267 -0.004862775 -0.062023632 -0.05946042 -0.0428735 -0.0015028003 0.032600664 0.055349994 -0.055053912 0.050648306 -0.005943743 0.042226035 -0.048299797 0.005573319 0.042742517 -0.019709388 -0.08007193 -0.09313724 -0.044762723 0.0017257609 -0.12304498 -0.0014953245 -0.020204337 0.054997418
-0.009927176 0.04808571 0.06055002 -0.03186076 0.037497744 -0.054579407 0.030306483 -0.015645817 -0.08120351 -0.13174546 0.070383884 -0.036794648 -0.071390435 0.08217704 0.020332059 -0.023041267 0.09036405 0.1149492 0.024958616 -0.0746974 0.025372379 -0.053081192 0.026131874 0.002084424 0.060573295 -0.058226008 0.0043945774 -0.13031146 0.03839877 0.0939924 0.062161878 -0.091504596 -0.1222538 -0.03304298 -0.03430026 0.052817825 0.011155037 0.050968893 -0.095239416 -0.084753 0.0014424468 -0.07576032 -0.09382062 -0.08502568 0.036235478 -0.06349816 -0.10356452 -0.03690852 0.10530729 -0.03311094
-0.035309356 0.06777261 0.064287394 0.033610314 0.008277033 0.004151998 -0.093115754 0.012436629 0.10444976 -0.07416536 0.045880746 0.09025143 -0.01380339 -0.022375504 -0.053077504 0.035617806 -0.021053798 -0.065771475 -0.048631098 -0.02889767 0.058640998 0.03159897 0.06036382 0.020710813 0.0087553 0.03016839 -0.062814884 0.03380403 -0.06149081 0.09886058 0.06137479 0.062496886 0.041949738 -0.08055663 -0.085626684 0.118718885 0.017269649 0.09694313 0.036090326 0.052395765 0.037612222 0.046445444 -0.10486032 0.087336175 -0.020955868 0.09050393 0.06726419 -0.024706116 -0.028299512 0.059830748
0.041330203 0.042199064 0.03598684 -0.002704566 0.034487285 0.04412538 -0.015062334 0.038187906 -0.0058386144 -0.025439195 0.10289866 -0.038724657 0.039423928 0.018508846 -0.029696517 -0.060432997 0.008354493 0.08490417 -0.081738435 0.11465932 0.021817606 0.06938331 -0.032497257 0.046834912 -0.04784671 -0.03816903 -0.038046714 -0.021253893 0.0933605 -0.045589447 0.021483218 0.06182605 -0.030663302 0.07139672 -0.12993918 0.0022187834 -0.06841344 0.07939772 0.028339686 -0.077784926 0.05175422 -0.061247066 0.01421616 -0.063741945 0.039617985 0.010531494 0.017659344 -0.03827038 0.03883312 0.18011655
-0.0933271 0.07386085 0.07444167 0.107635 0.012579018 -0.06601245 -0.017793275 0.06376272 0.0823927 0.009837532 0.07845725 0.03717992 -0.019477438 0.05055985 -0.075829774 0.055450268 0.05903995 0.0933872 -0.044571232 0.064865805 -0.023220507 0.13741648 -0.023282703 -0.057580877 0.04128797 0.09260399 0.03221947 0.040701102 -0.050180163 -0.009361416 0.027223706 0.087095805 0.03208808 0.061387695 -0.07886946 -0.012841111 0.036675747 0.08994709 -2.8557653e-05 -0.0060290303 -0.058598436 -0.07644338 -0.008941421 0.082429655 0.064566955 0.060349725 -0.06031782 0.055117097 -0.0048157885 0.11041095
-0.08535977 0.05984691 0.010170946 0.080225505 0.031164762 -0.015388258 0.027615933 -0.0056272545 0.042602133 0.012521398 0.12005794 -0.11529725 0.01170603 0.11196603 0.08225899 0.08309084 0.013426963 -0.026850453 0.08199243 0.030173328 -0.03144567 -0.02930522 0.04003851 0.01719077 0.04416086 0.033072367 -0.0074958405 -0.01257212 0.005837751 0.015634798 -0.048896763 -0.034222383 -0.124069 -0.00061523134 -0.05348499 0.09036872 0.07098306 0.07022716 -0.06587848 -0.06876366 -0.033482436 -0.061782546 -0.03979238 -0.09606142 -0.08154465 0.023432648 0.019074805 -0.08117737 0.0139986975 0.05333148
0.0278289 -0.055487316 -0.038430188 0.084066145 0.00049958983 0.015850505 0.045371678 -0.067279704 -0.05321684 -0.116534285 -0.016508564 -0.05830071 -0.04444151 -0.044733647 0.012821977 0.010161693 -0.07752442 0.006889436 -0.0679947 0.027785199 -0.09179754 0.015379004 -0.015965426 0.06399652 0.041820396 0.09965778 0.05406059 0.020276673 0.014196116 0.100571595 0.020657726 0.07138997 0.028970141 0.024847738 -0.12150037 0.12059684 -0.07938596 0.019319506 -0.019459762 -0.064048335 -0.11658096 0.02200892 -0.09074898 -0.08667284 -0.06350003 -0.012257162 0.004214364 -0.08827419 0.059893295 -0.008804478
0.03580738 -0.09443198 -0.02066558 0.0007879212 0.016958287 0.010486316 0.06251405 -0.07350213 -0.12629433 0.029443623 -4.525356e-05 -0.06841412 -0.048448104 -0.005222829 -0.027007556 -0.062150285 -0.0732372 -0.014880909 0.1211167 -0.034329515 0.056856554 0.10889065 0.067603186 0.051575918 -0.01172478 -0.005706486 -0.057482347 0.11119009 -0.06079597 -0.007752235 0.027792316 -0.037576426 -0.120821044 0.08921947 0.010373857 0.018466959 0.090419084 -0.0065745004 -0.058992766 0.049765125 -0.050574016 -0.04807301 0.070126995 -0.1284411 -0.039607767 -0.08191639 -0.055336468 0.009196375 -0.021505402 0.08307826
-0.007313823 -0.040217668 -0.12787317 -0.047542073 0.036520913 0.010714557 0.06744867 -0.040114157 -0.021464456 -0.0027898683 0.04246237 0.021724535 -0.08035555 0.13721155 -0.008715887 0.14180914 -0.1485272 -0.06515708 0.060423072 0.049655452 0.09194753 -0.0060122227 -0.06793795 -0.08556434 0.1100086 0.11815794 0.059777077 -0.013018551 -0.10530157 -0.027574562 0.021164987 -0.0907124 0.082259685 0.044923693 0.06877623 -0.10681169 -0.062607676 0.105071545 -0.014134424 0.06312999 -0.05941183 0.053138897 -0.0023231653 -0.06872116 -0.042130943 0.02476018 -0.111411706 0.026152495 0.09002559 0.04073356
0.0011853826 0.017592298 -0.050975177 0.032390963 -0.14766137 -0.07677632 0.07870374 -0.11785944 0.012601613 0.10011986 -0.016088318 -0.050133035 0.14473991 -0.11214701 -0.09103628 0.09310129 -0.06463702 -0.07393035 0.0663639 -0.048274532 0.0016577505 -0.02213076 -0.04482303 0.010254423 0.11885356 -0.067334384 0.012275349 0.060342822 -0.056758013 -0.13123012 -0.049857363 -0.0074184844 0.046942297 -0.0008143791 0.10007782 0.011561375 -0.020766824 -0.044161998 0.004163011 -0.024354577 -0.040743306 0.030433884 0.24582192 0.050880995 -0.08323722 0.094482735 -0.07615533 -0.019633124 0.026367705 -0.122826874
0.105156355 0.024501434 -0.058202438 -0.15709803 -0.03810059 0.102796815 -0.022472087 -0.025226444 0.032143515 0.13000217 0.02865047 -0.08276611 0.17918658 -0.1172736 0.028523082 0.024318995 -0.08060471 -0.108782925 -0.040998887 -0.08946477 0.19311245 -0.15254985 -0.048051603 -0.09285974 0.022109358 0.0726654 0.062586814 0.07023609 -0.056318425 -0.19194171 -0.028868413 -0.27912444 0.10909126 -0.004573588 0.008403812 -0.18427163 -0.091409534 -0.005033224 -0.015511557 0.047498953 0.1048825 0.12188973 0.21989842 0.16298193 -0.040429972 -0.039511457 0.02121497 0.000627931 -0.11022957 -0.18199593
0.0043693483 0.08715316 0.0004676271 -0.035789296 -0.071025535 0.057440855 -0.106049314 -0.11012927 0.009407049 -0.06441556 -0.051640946 0.09037137 0.16531971 -0.05897809 -0.023741184 0.021485666 -0.0029911003 -0.06723363 -0.0061542005 -0.045650803 0.038238697 -0.12544177 -0.117609255 0.06164986 -0.009355638 -0.022075363 0.21858126 0.042001758 0.008536781 -0.08564303 -0.05604426 0.011351406 0.10387004 -0.005040614 0.051074833 -0.115086086 0.08443396 0.022352278 -0.008145167 0.025216175 0.046508923 0.0955519 0.026834376 -0.04228125 0.06096694 -0.06897941 -0.07510371 -0.058970824 -0.045712642 -0.14090937
-0.07615263 0.023573738 0.038549356 0.0065694423 -0.047739558 -0.047778588 -0.092398204 -0.04863803 -0.045519564 -0.03143405 -0.04140615 0.09942374 -0.08710761 0.04281517 -0.061383676 -0.044226166 -0.035162024 -0.047983922 -0.04551025 0.036114164 -0.03789181 0.042670667 0.04455883 0.1083514 0.027846428 -0.0008507519 0.11227562 -0.0002553265 0.06988226 -0.15068296 0.036391735 0.12350739 0.01534422 0.05833185 -0.018509597 0.09410611 0.009989873 -0.04271225 -0.03200719 -0.020333016 -0.048895203 0.09096989 -0.14363047 -0.035602354 0.060668748 0.0684397 0.034736264 -0.040458977 -0.06787723 0.027353588
0.004913031 0.10043423 0.087513685 0.06569805 0.033823926 -0.038230762 -0.06768822 0.091932036 -0.04805518 0.033446237 -0.107692 0.009782437 -0.10500731 0.14273907 0.062160283 -0.14865248 0.14058927 0.05448097 -0.17145398 0.122595966 -0.0040863077 -0.031380523 -0.041512817 0.019177226 -0.09980919 -0.11481766 -0.13306318 0.020360276 0.03924192 -0.00043369643 -0.09136747 0.18394625 -0.14365673 0.0695366 0.03950951 0.19998622 -0.006397313 -0.022006579 0.03699815 -0.06276685 -0.017326731 0.03273292 -0.14533728 -0.10062968 -0.019071542 0.16200283 0.13718468 -0.032063648 -0.03452871 0.13383055
