2
784 300
1199979308 -955913750 -947508159 -967280502 -950329530 1199546780 -950742311 1199643987 1135238511 1190864261 -956246243 -962942889 1197131241 -948337991 -953549844 1185159537 1197282906 1184032352 -953806232 1192055351 -958842328 -977720811 1192961027 -948421808 -958987237 1182670702 1191202076 1194153896 -971252185 1175394381 1199462929 1188195052 -947268913 1194554281 -947587522 1200209806 -946860814 -974442872 1184206023 1168501119 -951925585 1174436609 -948753456 -951505099 -961740134 1192164465 1187026725 1189648410 1199109009 -947981777 1195932297 -949549120 -986410062 1200364560 -947951089 1192831835 -968587589 -961667433 -949112577 -952515924 -947448882 -953694313 -963840857 1195618900 -955807012 -988729337 -946882660 -956769837 1190692695 1196744869 -959555121 -948068613 -947719674 1157120708 1196563755 1184621051 -947791104 -947284684 -947391343 -951115073 1199773816 1188169204 1187527866 -960103169 -968198635 -947413970 -976382599 1200294076 -955600864 1196964630 1199705997 -954892617 -956285617 1182801997 -1021371538 1189840835 1157582255 -964208788 1193995924 1195237204 1193910927 -950000965 -947394346 -957347712 -948569009 -952442856 1199863439 1200247955 1194479752 -965224933 -977016831 -950746875 1178685526 -947659134 -953486444 1193469225 1165865486 -950382337 -952589696 1192308851 -949729520 -954019113 -962305438 -967092655 1168139012 1190113277 1196859791 1158150185 -957161362 1177299097 -952762990 -963549260 1195707884 1180625391 -961462693 1198620464 -951052636 -948212745 -955013605 -949619186 -953317800 -955087485 1198238072 -947528346 -954850405 1196619370 1196450092 1198014160 -952794549 1196801720 -975560105 -959774100 -955046867 -954330492 -947035395 1196423256 -949990739 1191967775 1176706278 1191645186 -946952647 1195864395 1159231880 -953548318 -952919010 -950131911 1199943347 -970316722 1198357956 -969785442 1182169657 1189160907 -960580327 -959040810 -965318348 -954839597 -947890707 -957830544 1184127822 1183982112 1191933891 1190673888 1188855559 1181981699 1191256382 1195691088 1200291276 1180994333 1178473665 -955469024 -947457501 -954778505 1185314918 -965820915 -946867837 -970067485 1189083713 -976013657 1196049725 -947289545 1185320857 -951139934 -964932426 1177578112 -947642746 1196439804 1188136764 1200233577 -947820778 1175884302 1163423592 1190578021 1196665814 -947046478 1195509934 1195837772 -955294477 -972742870 1197222801 -947894412 1200177928 1180177095 1191955324 -953683065 1199341774 -987470457 -959490494 1195472685 -949079006 1189702525 1195583069 1193999497 1171987142 1178141619 -946864937 -955582787 1197132122 1195054455 1191460013 1194914686 1182784678 -947704664 -980256669 1192932169 -954334074 -948727382 1178286982 -964859264 1177104479 1198049526 1191860506 -962248322 -980680268 -973460587 -955818967 -974661347 -947711480 1142631880 -947911356 -961547299 -950153526 -973454667 -952039585 1199599246 -1055087591 1199878101 1198756920 1163521217 -979811768 -959745938 1149339885 -949750967 -954497941 1185940951 1191346804 -954900473 1199509071 1199801433 -967256454 -990348963 1197927208 -993716029 1191327173 -954231382 1197808037 1186872634 1192103499 -954497991 -947749975 1183976935 1192671587 1193916054 1191951164 -948978202 -947187254 -971872867 1166205861 1197953240 1181087839 -948373582
-955098892 1183654323 -1002863853 -953031702 -953736389 1192051355 -953367554 -961144959 1188088748 1189727882 -956211869 1187997893 -954915685 1198222218 -959549662 -954538124 1198989292 -955686274 1200107234 -947513962 1151655986 -962685738 1200062247 1199508713 -950272179 -961039982 -958718224 1183980685 1194441902 1197652054 -947932012 1182663363 1167650151 1197507191 1195124163 -966833644 -947809863 -947636595 -985361082 1172857579 -949983787 1194446293 -963758769 -955030206 1192669020 1194528639 1197003277 1184171958 1186708472 1173975225 1188584025 -968192859 -954109731 1199846208 -959538682 1191825010 1185518840 -963272166 1199361145 1192984890 1191990988 -956600871 -949496881 1189879993 -967775550 1196243298 -955801204 1163663857 1196414639 -951215495 -950740917 1192524534 1189619266 1188837623 1199077252 -999193931 -954804569 1194649649 1199796998 -958991551 1183521484 1187726577 -970845432 1192878592 1193575882 1193563839 -975586335 1181828547 -947462597 1195606568 1183737178 1190929057 -947889569 1198503006 1194706850 -957919419 -949547376 1177717409 -958880543 1199429836 1193964441 -949733984 -951775922 1198803806 1190882197 -971000888 -957075802 -955408740 1187726031 1183676238 1193574297 1188306792 1167947270 -976320664 -956712178 1195978932 1188126239 1194947317 1199658498 1192096409 1195791046 -956479140 -947283269 1193096487 -971285968 -947883582 1192919037 1191402208 1192268564 1192063751 -980179947 -952431727 1168436742 -954759932 -953164281 -990280787 -956163000 -960610922 1189424770 -951652070 1152613261 1199809259 1199414337 -950066999 -1003800499 -952641357 -964504372 1198035046 1185360992 -964279336 1199420921 1192605707 1194200173 1195020952 -970305263 -976160157 -981659422 1178875567 1193332817 -947418717 -947423482 -947291276 -951327705 -974800110 -954431317 -961072159 1197728932 1193576599 1187533279 1196322800 -966503868 1188579139 1194832665 1182346811 -957947236 1198070389 1182814349 1169562276 1192594292 -950709172 -969571712 1194403315 1193661574 1193460865 -947392723 -952923310 -973984681 -964456431 -955085382 1198742840 -956394578 -954994542 1197295174 -954382412 -947835532 1191662096 -957900538 -947132920 1200479491 1196289295 -960066414 -950435760 -957955138 -966644817 -958878665 1191934763 1178137308 -946855708 1197829743 -965122726 -953552896 1184466460 -958105504 1167836446 1199233959 1195128258 -953765500 1185728629 -982650846 1191531605 1179142336 1191666887 -966090301 1183001189 -964404374 1183453052 -954519574 1198755444 1171338491 -972421207 -953706050 1184952056 1189911300 1184765281 1196375141 -996775660 1193788559 -1005773277 1200499540 1197464279 1200445436 -968626823 -947325604 1163056892 1200401326 1192141941 1196489628 -948368192 -979752015 -949873199 -969061767 1161238350 -966522884 -947383024 -954342738 1198815167 -947877611 -948968535 -954714819 -979891801 1176547258 1193154057 -966464035 -952513158 -949646662 1200077100 1189374019 -956059758 -968796562 -949896548 -952929404 -951486930 1193364021 1198476650 1191478117 1197085777 1189488486 1193485001 -950554809 -959799729 -974306977 1188241740 1190345080 -955336848 -956090373 -952062670 1191034598 1200198386 1144953901 1198081146 1196607239 1186766086 -953460161 1180629389 -950876672 -956119375 1185584338 -955238697 1194966149 -947706282
-947617015 1172499394 1192852308 1194850582 -949216232 -971343982 1189927230 -954607776 1186858703 1195690983 -951585913 1198846188 -950083541 -961591128 1159887947 1191481974 1200252326 1200171924 1198480225 1182893062 -966615535 1190407283 1199719335 1172821508 -951087061 -958412758 -952924808 -970248996 1195080996 1198068901 -1008692158 1171793416 -955402478 -953592187 1200227870 1191837847 -964981742 -964495581 1193774437 1175890658 1178756456 1199686258 1196305267 1160376625 -953730589 -956043451 -949830827 1195471567 1185767680 -954942131 -946860837 -955114117 1197743252 -949670461 1199084759 1175661638 -966462818 -1016206499 1184137946 -976457688 -948195095 1191632744 -949267007 1177089602 1197635914 1194348715 -948306114 -952774355 -949982639 -949426561 1197489094 -955594638 1195762058 1162398567 -959537165 -949157191 1195477593 1194362232 -976604691 -952442484 -948572124 1179716196 1189114345 -956666424 -947850737 1198376953 1192614121 -953893508 1151824504 1187925758 -960132031 1186128402 -974553452 -952210672 1192163288 -958942200 -974152405 -977413239 -955279401 -949590183 -981678007 1192044417 1176533472 -963233124 1196126442 1191343331 -953825799 -947414269 -958822556 1198127678 -958356471 -947766892 1199788364 1197059109 -962870524 1197770851 1177649073 1184997928 1165015572 -950841439 1189409820 1170975331 -947422965 -954154904 1197788395 1200363620 1193556511 -947138492 1192260636 -990510401 -953811576 1195406010 -962774920 -948986508 -955960008 1196122490 -948305910 1124682423 1185610221 -951603000 -973108353 1185235961 1192682476 1194508440 -961181185 1189548110 1162192970 -963248944 1198454571 -962610495 1197936730 -953670909 1196151741 -965358146 1198873142 -963841258 -951388861 1194091814 -948901497 1190802474 1193379057 -963644637 1198921383 1175002497 1188289638 -958604539 -953801918 1186844016 -955187275 -961790900 1188434310 1187399512 1199968459 1189053035 1195799687 -965019538 -960145354 1186333949 1176090822 1152958781 -948348331 1195401566 1197148743 1187891948 1200326192 1200048198 1195575195 1187955665 1192585709 1200006810 -948655014 1199506031 1187654986 -954791491 -957406516 -947939550 1196244972 1195964001 -955866511 1199605186 -955551337 1196675526 -978365510 1187423564 -971732013 1200525230 -979682511 1189281039 -988150724 -980831833 1173061772 1199540260 1193108952 -970158573 1200639726 -949356499 1192262980 -964645014 -947656342 1192234440 1183803001 -977484040 1191223215 1199596137 -962449320 1196458859 1196406834 1184028258 1192940903 1189512447 -954247497 -947926155 1192716164 -972066745 -955484904 1199726966 -959075339 1197822815 1184000159 1194471178 1196888466 1186159053 1199264813 -957887551 -950550704 -966146370 -949897352 -968164272 -958967002 -968499298 -949425621 1157774269 -951990362 -948917926 -954458000 -955329333 1200325765 -964521809 -970342098 -954156126 -962416545 1192004311 1200069650 -950290815 1199310307 -953869791 1183422530 1198907951 -981544614 -947682100 -947073309 -958327254 -971340480 1186935165 -986923887 -951568985 -953261802 -947580346 1192386877 1194708426 1197906544 -948160192 -957211203 -947316289 1197409069 -949322969 1194318939 -947404749 1194336287 -947173246 -959695098 1191283667 -947277486 1200465314 1200185868 -961234023 -955644216 1196946343 -949092029 1187603290
-968698696 -952566977 1180834925 -949740963 -964685072 1175318621 -963291592 -956818444 1195394821 -948832944 1175053499 1172275502 1200695342 -957339076 -962123494 -955381366 1200172797 -962185639 -953975874 1175730715 1196360859 1200582526 1189203120 -970491169 1192562691 1196958233 -947583342 -967999527 -977832261 1172135472 1176224794 -964379899 -952610715 -948323333 -965118003 -953890643 1167673116 1193704729 -946819637 -961936835 -955606168 1197700901 1184571101 1200063979 1194860563 1199767888 -971525203 -957471570 1199999421 -980309739 -955465459 -957989457 1192841448 -951597851 -963597502 1187458301 -947408028 -947557228 -950098300 -947665539 -959956080 -947676285 1200406734 1183353000 -982958616 1200301530 -948374147 1192535446 1151154948 1200109037 1199026024 1193106173 1199241516 1199744710 1187610366 1185670463 1196904160 -953697873 -947445921 1188647243 -963936480 -949546086 1193224186 1194173376 1184304252 1187144443 1199976695 1200369685 1172693486 1196910534 1196550720 1182826503 -958298846 -960955277 -971073803 -946958956 -951067539 1198272701 -984636137 1200640584 1191653650 1199445683 1199741008 1184534095 1183849929 -959705632 1177205484 -956300416 1194927105 -947771063 -958829123 1200519757 1187121703 -954173604 1187755340 1154995280 -950495618 1187013785 -946826560 1182113314 -951141542 -963320799 1199525192 1161826576 -1015982378 -953879045 -956355891 1199735355 -955513965 -974445420 -995899012 1176354609 -957606169 1200386089 -951952418 -961277726 -987096586 1196109066 1198895584 -960655324 -951108234 1177167666 1199636914 -958023387 -956081049 -959851494 -956165343 1200492313 1164078560 1184050052 -961177136 1199881057 1193580891 1186070777 1193641285 -951243380 1192265885 -960439540 -955898256 -954599012 -957278817 1199242005 -961727065 -961887484 1193861014 -950636073 -959650679 -951209442 1170249761 1186180640 -948622942 -952835258 1200198741 -956212945 1197586296 1183591712 -955550233 1185806460 1192497303 1196718739 -957724343 1192168083 1184080997 1197732659 -957130820 -969020935 1188613723 1198516144 1174821550 1197860874 -956478150 -963548415 -972861583 -948010122 -955398808 -957594082 -964073470 1186490863 1183798534 1198436993 1197285622 1177131357 -947108874 1174451273 -953567826 -950369608 1199739806 -959702672 -981220566 1179786959 -992750758 1164071083 1187423316 -951072756 -997346888 -961816874 1175687121 -948702929 -953912071 -953783369 -967079525 -975147507 1198990219 1198428440 1187405517 -950470711 -955838026 1196457630 -960179638 1184115913 1189091815 1195748715 -955878036 -947196374 -946944298 -962907733 1199922206 1199977023 1193034617 -970009708 -959358027 -973353028 1200650411 1182880374 -966719741 1171471257 -949319664 -990941065 -950107553 -962669154 -999578453 -948080617 -960881850 -970406475 -960697054 -1001361412 1191412066 1187921588 1189650916 -965550045 -966170456 -953116407 1193096609 1199357094 1194878573 1192833325 1169801625 1194018437 1185324691 -965626892 1173235387 1195157969 -949406881 -960406983 1190843215 1194774681 1177448771 -956081141 1185499087 1179118418 1194800425 -955351402 1197923767 -952745698 1200429227 -951745062 -948689289 -950430288 1196385117 1185083640 1196327412 -967976097 1188604041 -953889852 -947340037 1189953929 1194142666 -953387703 1177976168 1183033782
-954075139 1188977973 1199506184 1200626054 1200283321 -962038924 1184592380 1189541217 -961482638 1165533241 -970537029 -953918705 -958674088 -974974045 1160236671 1195250593 1198530750 1170728414 1189122935 1199842452 -966357486 -953135102 -961736191 -954177318 1190385486 1197774403 -951649145 -949856161 1158856819 -947929256 -954919571 -951276950 -952931184 -958876156 -947629119 -966340957 1196544804 -963607283 1199205902 1198089790 1184308040 1189827029 -952413032 -950060833 -947544533 1197594093 -947160946 -946873801 -951679147 -948688957 -950391977 1199731918 1190401351 -960104559 1190556232 -947520058 -949558914 -962279946 -954624401 -963023224 -954833812 -972157550 1166773397 -962147406 -959931405 1194417292 1191972376 -946878765 1174911173 1200611547 1191576391 1200577264 -976645096 1196858734 1200188169 -954545575 1200603215 -947803986 1169957906 1180606829 1194572245 -998293907 -965277061 -971060558 -947540651 -959860159 -953951213 1197583630 1189177009 1185429866 -972309047 1188952243 -964134890 -959863310 -954784067 1185647811 1186365699 -951300546 -947928157 -962865229 -965777050 1184711990 -951399446 1198064915 1168192525 -948983016 1176635454 -961739516 1158112190 -989469389 1160396584 -959616168 1197155365 -955011207 1178387858 1187641761 1191753168 -956351021 -948936853 -958238198 1194124775 1179239092 1185715171 -948990154 1193560869 1174939234 1191156585 -979531174 -953390314 1173589757 1189994777 1199584720 1193499663 -953574951 1200655555 -947008089 -954774763 1192323010 -963082793 1185092025 -946892966 -948709273 -950419872 1187167682 1171095464 1196262348 1192942492 1192247240 -963669213 -960772324 -960525244 1194975929 -959784880 -950036684 1183436687 1199416821 -956989436 -1004426231 -959726794 -958778437 -947038243 -976770783 1191137012 -946809012 -949997592 -947293518 1191203924 1197809235 1183649520 -965328937 -962978188 1199735986 -965400249 -955536728 -957982583 -951121467 1199954208 1140271958 -951977120 -962853268 1197488171 -955858651 1182223513 -959136504 1189934768 1196224987 -947148707 -988052122 -951289539 1195132286 -950922766 1187944465 -947837916 -946844914 -950245619 1198329823 1197854653 1181043322 -949108639 1197050305 1190844916 -967326240 -963513087 1182789293 -955862424 -956601498 1199737147 1174954622 1180370997 1191694540 1170318135 -951234857 1189703082 1185296855 -963988127 1184981746 1196152470 -952213646 1166039556 1188683368 -967913868 1200669032 -955555977 1184842540 1192516211 1190587093 1200520581 1160554970 1183012878 1172436650 1181244608 -988066953 -952776975 1194578879 -966593830 1194584213 -956350958 -951832315 1168465016 -951402039 1180136141 -950879001 1196084583 1174960573 1198094677 -972769565 1184929343 -976235795 -958696465 1194175480 -956825110 -953053130 1184603515 -967112762 -951069400 1184426940 -973881180 -955495629 1198303738 1188426955 -957679741 -948003341 -947797961 1197710686 -960265397 1199033184 -954680067 -955217904 -977949051 -995368495 1181394999 -975957276 -952817684 -955718810 1180214350 1198635506 1199896791 -950508732 1189489722 -958339541 -1002816246 -954950277 1178881945 1196524883 -953809179 1200310426 -954404485 -951443466 -987798338 1195751778 1199257916 -949938483 1171333989 1192785231 1179510149 -985732481 -957556666 1166777074 -955049319 1197289044
1200448259 -955648948 -957003321 -954514887 1193649031 1175895876 1193033119 -955516762 -952139780 1196586102 -981202485 1191929041 -947188846 -949361940 1200211972 1194931591 1165226143 -948496986 1193383703 1197329338 -953086369 -951479221 -951777807 1200311334 1177529337 -947588936 -956491282 -985164976 -953373390 1193246191 -948353590 -956336672 -981085435 -953636707 -948357549 1186969283 -947778036 1178667505 -949369141 -953434210 1195628060 1175812014 1200346643 1200212381 1195847412 1188115050 1167021230 -954992444 -947832222 1195529310 -959924149 1152901713 1196159466 -946994001 -973174760 -962327498 1175849794 -946848612 -951666750 1183081336 1195880230 -986632322 -950173724 -981541654 -950060665 -951280997 1171650243 -985250364 -953009487 -951863344 -955580889 -956225092 -955921074 -950808658 1179511988 -947911215 -964558156 1176486590 -952916280 1193607615 1180467028 -947407980 -954912461 -954582479 -954864400 1185331618 1196369599 1189547420 -949247559 -947311913 -957933323 1191397730 -964939041 -969608760 1185115363 1193522766 -954426249 -967341915 1190197185 1168525243 -950637725 -954544894 -946841048 -946990196 1193365225 1192943113 -948517742 -947999204 -970015262 -967159732 -947556181 -964529847 -955876764 1196051857 1192080570 -954617167 -967609626 1192772522 -961188778 1195188997 -987847166 -961600438 -949345620 -954871733 -955530503 -954138611 1199610093 1187814452 1191261309 1196966896 1192175244 1197367230 1193926697 1187856944 -977327820 1160013039 -949486964 1194832379 1198329991 -958626690 1197025620 -968929718 1197446137 1184026187 -992249476 1195293787 -976996598 1198006779 -958889353 1168837285 -951095592 -970888553 -949670757 -952237145 -969185772 1190851501 -980084550 -951159515 -978007645 1191614449 1196365059 1195470728 1177980196 1193334669 -953251752 1175941370 1135061753 1186968574 -951261807 -965053051 -949445524 1183273406 1190402034 -951330765 -948684593 1197682575 -951876380 1172996388 -947907235 1150278422 1188120372 -947721181 1187837337 -967080413 1188558505 -956089201 1199937005 1190408244 1182996474 -954633019 -947191811 -959816693 1191473236 -949259343 1174336415 -949063626 -973764100 -948951956 -960497401 -964343081 -952961204 -984357572 1150637370 1194499359 -995653712 -953957802 1191688021 1200366449 -949906669 1197194470 1192826008 -949760902 -992231166 -949939155 -952065372 1197805512 1195159626 1170789144 -947635978 -987222135 -954375782 -948546304 -951041565 -977072587 1195019117 -974992646 -947566573 1200082585 -954813124 -951599395 -973870896 -949908617 1200546018 -961367354 -953647010 1185996005 1182610888 -978484986 1184809753 -953733414 1198554543 -949137538 1195910225 1193127138 1183269191 -949547149 1175338144 -950333944 1176065302 -947656421 1192966404 1194955959 -961420846 1199720327 1188274509 -960085669 -949672050 -959709437 1182970103 1200552879 -947852674 1198188301 -947461495 -957365012 -950778679 -952505017 1192249792 1185455394 -946894457 -960076033 1200543092 -953612586 1172428258 1198377117 1195969620 -978985367 -962141284 1192199761 1178031962 1188622184 -949013272 -959765055 -959098679 -950906627 1192666201 1194838640 -968315227 -950619058 -960643099 1190639766 1198191761 1190765033 -958156062 -950767168 1193365261 -954707312 -967528308 1198477688 1197699246 1172461873
-958966221 1198472580 1189881492 -950750385 1200199735 -953136287 1194454744 1200329293 -951269499 1178196619 -954645947 1199649369 1199215954 -989326414 1192547098 -970031627 1190016513 1200509668 -964535887 1194970411 1150004558 1189188651 -959861159 -970091915 1189710490 -949283165 -958007784 -964062798 1194919155 1198936745 1161102211 -948679584 1189342254 -983480863 -962160256 -951987978 -978412186 -955520913 -954495865 -948552372 -971327907 -952704208 -953927551 1183058334 1173692128 1196007618 -952368022 1199613555 1192697115 -949496210 -995834803 -946976155 1170531224 1176123591 -948325922 -981005189 -973265290 -977603806 1194481930 -978955430 -965629055 -962210606 -952722602 1198264206 -977971329 1177026880 1187594508 1198862858 1200534103 1191809961 1198910511 1140398667 -965927883 1167564641 1195983757 1189396716 -948980623 1194832029 1199492863 -953680354 1189811210 1176247118 -960265660 -979275681 -957847319 1194395725 1192424629 1191191628 1194959446 -956065216 -970541698 1195270510 -947913972 1174821100 1199918161 -950718494 -967101574 -947089582 1197123928 -954137444 1194642565 1193506020 -956116265 -972108631 1185654460 -975318131 1188428016 1197813496 -979256501 -979170670 -954121628 1184349597 1162890816 1184824947 -952886901 1194533306 -955326199 1175669741 1193499172 -976444932 -948265337 1149036787 1193289551 -984739591 -961163630 -959495553 1196288223 -951963338 -947449461 -950397730 -958418645 1193112543 1179551890 -963149417 -962851271 1188680926 1156686564 1195203673 1199767265 -982234495 -954363662 1165199318 -947570753 -952153216 1176566111 1195238733 1196420223 1199802346 1200375274 1161370827 1164579140 1184061332 1190902022 1183705745 1200174838 -972996776 1198901371 -950105283 -952830045 1189669734 1191598810 -969642513 1193866312 -961926863 1199604892 1193224604 -962381642 -950969805 1171075109 -953778569 -948852706 -957539128 -947090892 1194051073 1200058190 -947119815 -973281418 -968486820 1195590643 1187070754 -947636376 1178148737 -955758120 -968830383 1196809559 -965920253 1199792945 1197127682 -969557941 -947727713 1169068181 -948266922 -962402358 -963112935 1178346377 -969252849 1174412241 1195265955 -952983509 -948377657 1181102800 -964605671 1191499405 1177098810 1192976153 1195137026 1186740596 1196881748 -955625135 -953777257 1199349365 1192891852 -951070658 -946897797 -968302784 -960822747 1185555633 1193067625 -947005106 1197947308 -954158196 -961591210 -955582437 -951606393 -946956320 -965941539 1183581534 1184187850 1197391575 1190156535 1189541007 -948307903 -947181792 -953975652 1191366871 -965384662 -966949855 -951361734 -954024362 -967996601 1200030475 1181321581 1187540000 1196883175 1200702245 -947175566 1199575195 -954718124 -952105218 -951983146 1173097661 1189319957 -954635844 1122550162 -974218262 -951871031 1196953133 1192859642 -962053010 1198469219 -949489565 -952786534 1200322547 -947249723 1183030696 -958116166 1198784336 -948875342 1192284176 1200045074 -971395061 1195666840 1193444859 1180289713 -967888328 -947539794 1198091725 -960987280 1200605666 -957185374 -954348582 1192724465 -975145142 -955692418 1196938152 1182856235 1193072039 1176207598 1192433252 -950058162 -950126743 -979622498 -958781334 -951090234 1142793257 -974577683 1188264262 -948651094 -948673532 -951586631
1198758637 1192287573 -955372761 1179203188 -958019255 1185881484 1150988688 -957816441 -948201547 1188643653 1187853477 1197735500 1159465675 -961522360 1187434878 -973500031 -956356335 1190546233 1179752161 -996850794 -953617767 1162478340 -961581229 1194478506 1181832071 1196473469 -948682586 1200380382 -971372989 -1031145400 1199386997 1183378738 -958704358 1196887249 1187349120 -970589435 1193178118 1190121532 -988059385 1193564894 -946928167 1200167266 -1014635274 1199442791 1196789600 1196451409 -954165293 -961786368 1156672038 -956168916 1194388460 -956198568 -955754491 -972355625 -949416644 1191209284 1179430086 1197156502 1195448490 1176635347 1181043390 1191767990 -947708354 1181017687 -969255390 1198460564 -953475809 1197464520 -952902794 1187859187 1175135386 -974857407 -1001488121 -954636920 1188991504 1199717654 1191090514 1191468464 1191983341 1192638184 -952853730 1148024336 1197807964 -949566021 1192062712 -956037898 -948542482 -982458830 1183388480 1192305714 -968976818 1195606728 1193296209 -948243360 -972347049 -951004166 -954789321 1175517565 -971593372 1181863222 1200195039 -947283653 1168819234 -949304887 -948889337 1185060184 1200487788 1159033241 -981223069 1200616384 -950063467 1193471007 -970238895 -953586879 -960749692 1186726020 -973022731 -950117530 1199945871 1200376813 1185543971 -970961818 1200625247 1187384730 -948710676 -963886258 1162653755 1195480436 1197223976 -972199817 -951763644 -947504195 1186942454 1188573661 -947531705 -952814361 1158781258 -956308211 -954497110 -950107576 -972002506 1193868048 -971320133 -946809188 1195760815 -980266648 -978645157 1191519358 -963687985 -949133228 -948650972 -950451648 1192595904 -962913899 1177622286 -956091866 -953187390 1189244315 1197659866 1182793880 -950967186 -955788707 -947989515 1167591451 -947494475 -950758000 -950652601 -955067323 1189729671 -947855818 -955234905 -978378739 -957884055 -948840440 1189436839 -948308862 -967854198 1186504630 1174508341 -949357849 -956063767 -951204792 1191794327 1186024078 1192917902 -953209541 -950331016 1190064345 1191879646 1193162842 -979876755 1198201145 1198754852 1184979972 1188267306 -961326840 -969820079 1152084331 -961997058 -958654416 -949359197 -950217798 -972801448 -948482015 1200568488 -951860265 -995966029 -954668492 1193620051 1188080165 -953518403 -948685184 1171623876 -958565425 1199276798 1186301437 -947653535 -948716679 1186444274 -961158953 1195288252 1185159919 1153046428 1191863157 1193990788 1192155665 1193422037 -948238414 1186562926 -950585183 1190608951 -948884124 1196571118 1187184123 -974362763 1187169620 -1027405165 -951879663 -952202838 1185582233 1178170458 1199190788 1195047026 -958997290 1188537418 1159543343 1185112250 -968294593 -949362335 -948157304 -963151242 1199750875 -956003841 1199084698 1198581623 1193139422 1197958069 1183765712 1197031513 -963713095 -950781135 1198262409 -966621765 1198032917 1198261082 -972462062 -951750198 -955613470 1199219265 1193328667 -953423366 -962748557 1200689754 -982313444 -947076667 1195345608 -964181843 -964167838 1187464011 1200393174 -947371601 -956434611 -958752827 1186895202 1197019230 1181750826 1190093124 1198655350 -951836830 1194572603 -969297695 1200301671 -948251977 -955535544 -963895075 1200060731 -948538404 1195798863 -963513596 -949396041
-963683335 -959394681 1179474260 -959809792 1191355703 -948985164 -953182317 1181451548 1191894467 1175913218 -957747346 -949841943 1193327377 1198401138 1195864254 -947487570 1199691747 1119655631 1199988219 -947691191 -964891197 -947982530 -952691025 -949547771 1149293559 1175872027 -978675492 1190515575 -948649187 -947140835 1196336800 1196358757 1132788560 1187763728 -948516021 -949668640 -949956991 -947546075 1200009475 1196484829 1126516895 1178902323 -952957040 1200015344 -967139629 -950467332 -970143352 -947323529 -949969011 -947791213 1186805728 1193379961 1197774311 1197160793 -988127836 -960317944 1193984457 1194505543 1159779976 1183792522 -954780366 1193334053 -965173641 1167849553 -947773588 -965865471 -951235752 1195844032 -1004125816 -947031817 1196075409 1199483269 -959123181 1199568173 -951774959 -963857386 1167513829 1199780168 -957078236 -947723091 -953164668 1194949938 1199127705 1189864883 -954174880 1196374966 1176102373 -954208877 -957382168 1169073278 1174190633 -959496743 -957074523 -961906111 1193708790 -956102020 1162991219 -955102506 -955462412 1197594219 1179126024 -957694163 1167499761 -960895119 1173993276 -955630698 -968161327 1188646541 1182545496 -948330581 -950353938 1192486986 -948977480 -964226824 -954315525 -949080695 1198512192 -952488833 1176408213 -946832263 1199445896 -976712006 -961671910 1182449083 -989463133 -948022386 -969904232 1197717091 1182844775 1195764992 -952081773 -948288091 -950309001 -947209261 -953453668 -949414582 -946964907 1198116390 -956307948 1191214356 -946826063 -974817765 1185974647 -964613064 -947384861 -964125790 1193621386 -951334430 1198426743 1200134765 1160321114 1191757940 -956139237 -950675878 -961214490 1195000805 1199766793 -952323036 1173492101 1199744071 -961646872 1199809938 -946857411 1195269571 1180623179 1200439168 -957288952 1174336492 1196519238 -956059317 -947717914 -978968293 1188366477 -956289331 -995711268 1164891701 1195572062 1158792610 -954232231 1189378242 -955507672 -948160770 1188364707 1200036443 1178936197 1184142970 1193569288 -947659902 -966081455 -956670046 1200109689 -959645819 1193075920 1197881153 -955201693 1194548599 -958151812 1198585159 -967482738 1176348017 -956151052 -948692458 -947146295 1193816713 -965896442 1193655983 -953506905 1197937801 1185971259 1175207895 -956221777 -960912093 1184096988 1194444300 -951232387 -947022365 1196888653 -968411693 1198819225 1161690559 1160466347 1192253330 -947064194 1195212532 1193121716 -961058146 1198299168 -973091691 1183098209 1195580931 1199582196 -972555133 1198652172 -972995067 1194392176 -952367450 -959114626 1199577821 1159326027 1174454378 1174897219 -952770204 1199951404 -965590492 -947384966 1161815956 -947118232 1198540287 -953571659 1193336599 1183268066 1194790394 1194282204 1175483507 1184866595 1184601825 -955450615 -952118705 1187673102 1175621332 1197832958 -951499677 -954118813 -954002393 1190382533 1159729683 -952670405 1169736898 1199139187 1180781328 -979128342 1200442302 -947145664 -962928639 1194778364 1185446593 -982938505 -951829973 1190238708 -949598347 -967443306 -947918573 -956116247 1169272527 -984431974 -969062660 -961746518 -947762110 -953647754 -957933531 -950246042 -955175564 1183821410 1171123143 -947315593 -954317223 1200002834 1184172702 -982288541 -955133130
1191141452 -947312086 1195481831 1199176804 -946781051 1194554039 1197994839 1195696596 1200163230 1197786369 1177125780 1200699927 -947962232 -956612588 -977995484 -948795200 1193297712 1185729621 -955522634 1195654070 -962498181 -953784513 1199621633 -951291809 -982198515 -947373867 -995529505 -948533922 1168562368 1196153824 1188127055 1196968659 -949379122 1193949289 1142138227 -963547934 -955792445 1182593798 1188443683 1191844076 -949861896 -949227697 1162236183 1199518433 1183924926 1153654399 1191542948 1194316670 1199456440 -946812916 -968507251 1197181183 1169435567 1196251862 -970713504 1189876544 1193818979 -951030304 1156260234 1197700695 1185904800 1197401039 1198922821 1159709633 1193840817 -948410732 -950793478 1152360454 1192904602 1194390755 1199365315 -952351022 -955925765 1193966648 -955347987 1188423450 -959627310 -946966211 1194748118 1199599073 1188318545 -952719642 -978934540 -955182662 -953650034 1184921939 1200122932 -953865972 -947556844 -949328459 -956093074 -948796381 -953759252 -955679585 -963800707 -976239503 1196999996 -946998010 -952144379 -1001974937 1191234980 1196805592 1184072375 1198844681 -955615367 1185024184 1197476998 -962273434 -947602330 1200631059 -948058431 -969422206 1189467082 1185981147 1200282460 -950788483 1200569818 -963909733 1195778061 -955032854 -959927727 1191720087 1200435331 -971595310 -948751362 -963435938 1192846129 -960544661 -948547182 1193437216 -959872092 -948354902 1191360163 -971210735 -966607017 1186298175 -955591800 -964081833 -979095322 -947221926 -952904211 -955642645 1193233898 -952412192 -962786463 1193472027 1197144692 -965877098 -948194168 -951231187 1191254051 -949043505 1191823498 1160384682 -950907100 -948839782 -959314562 -960618233 -952239066 -947357503 -959222582 -949912128 -948824080 1197410496 1190144599 1152545817 -949667423 1199791610 1200511106 -955656549 1192885044 1198326031 1191230066 -958970879 -977507966 -946938543 1138706040 1185487319 1179532724 1177470980 -948802579 -963684624 -964161118 -947147292 -959731906 1187952521 1195314793 1166747716 1179506701 -955609860 1186927489 1200673432 -948653493 -949539061 -981363038 -971123294 1199772477 -951884227 -953205399 -959928336 -974512910 1194793854 1199626975 -1006232994 -967541732 1192828428 -960391980 -946872414 1174844477 1199683250 1193160404 1175723940 -954963805 -954327917 -947587925 -956062563 1193542965 1189333842 -954297465 1186342605 -959342061 -949799609 -963077307 -947332200 1152737346 -972333156 1183256625 1181997866 -953310371 1194290554 1194339687 1195439682 1196015839 1191676701 1198443695 -955164371 1196343773 -946970526 1196554585 1192499777 -954225469 -970543460 -947729714 -950070055 1189546630 1193606388 1165361427 1197098927 -953374321 -955068654 -990066798 -957644940 1143688887 1187062816 1198407593 1188119601 -961719000 1171224523 -989862025 -952544832 1195806839 -958157353 1196204334 1170670003 1200218228 1191855517 -956922566 1192120218 -974839783 -959825411 -950347926 -951887828 1195598990 -955396016 1191630001 -956406785 1195421263 1125653126 1197765663 -962788842 1196560394 -965346958 -960896409 1199011868 1194521164 -961201129 -960549985 -949523446 1192714516 -969624836 1169929250 1196375542 1184254077 -988650144 1189207671 1164791084 -949769716 -980303239 1193786724 1198642979
1193493410 1189357391 -957708840 1187260734 1191460667 -953988453 -947579219 1195839302 -954819568 -948599701 -949033370 1195337916 -950718862 1187877235 1183682422 -955936232 1184549159 1181106676 -949528377 1198058132 1196710163 -947478741 1197901161 -947644883 1198175278 1190107349 1190073810 -966980587 1196901947 -947104626 -969766300 1193390955 1200155820 1197154644 -956071995 -964531527 1196170559 -947824164 -954649343 -954484877 1191948713 -947129029 1190065662 -951364349 1185294456 -963233086 1198565048 1190056796 1181143709 1185488128 -977600754 1200204822 1176695108 1200224906 1195319702 1196836159 -993222743 1198659283 -981432969 -946943134 -947788764 -948627273 -981393845 1188672652 1194572744 -955207728 1186126422 -949282116 -949099176 -958954550 -972613872 -1001046714 1175474421 -948717260 1154068950 -985703001 1192181584 -947543273 1200429450 -962402295 1172456014 1193005247 -949049276 1200129487 1192137383 1199785407 1200045970 1168201497 -956511998 1194910174 1187920917 -956299784 -954573452 1180456835 1186314979 -956653872 1200021127 1199989377 1196692871 -947035947 1158002846 -947201978 1187985541 1164092079 -968213729 -950523999 1193229902 1183164027 1185029979 -958408291 1200675569 1193891615 1197696453 1189232772 -947760326 -973579560 -979771042 1191834623 -974905213 1192824982 -947239093 1176846460 -948238441 -959939406 1189135753 1170000127 -947143119 -953654339 -969567768 -960685521 -950858072 -949194490 -947815770 1184735820 -951553795 1190651454 1183307418 -965752910 -953466846 1186009067 -951310549 -975557526 -947912973 -977472413 -951088014 -962950997 -959169045 -950380561 1199237427 -957650788 1194887482 -957055823 -989186552 1187470016 1177443644 -956078407 -950959230 1175702906 1194444237 1191490692 1194113373 1198173489 -951491585 1189162852 1195875225 -985693693 1184634811 -969904918 1175193491 1181828837 1191410795 -985881498 1197260719 1198961914 1184594314 -952862407 1197963127 1199939878 -952558222 -962350155 -957670714 -969473079 1188098529 -967217514 1166887029 1186959910 -950514740 -951020990 1185523883 1188063438 1199626985 -960607781 -964668027 -947863086 1197561596 1190839519 -949189036 1194206820 -947367761 1196520249 1193195110 1172545705 -985198484 -984018278 -968129196 -969724849 1189116534 -969562770 1178223719 -951293525 1196867443 -948440025 -947635315 -991002101 1199579133 -947811223 1186759486 1195638369 1194496498 -963197705 -960820666 -1000707237 -949830391 -954480804 -951106523 1185374484 -948242315 -950854521 -959463330 1154377605 1161071419 1183982421 -950727294 -954341957 1199252575 -948082666 -949105089 1181996775 1196344536 -960033711 1194075325 -953601228 1186101920 -960867955 -949195280 1171319631 1194167992 1180327204 -947101157 -962834078 1180176066 1188332740 -958215266 1184582572 1195707644 1196894371 -1005927330 1198266544 1184717273 -969400646 1199190685 -963454419 -949046003 -955612230 -968947319 1153118083 1200360929 1178308046 -992334193 -959878541 -951693664 -955965112 -948810317 -984187284 -965207752 1182724863 -949914793 1197012425 1200466338 -964303221 1200213950 1199047852 -947435856 -947755276 -959466336 1197398926 -947444078 1186793597 1179007799 -963548234 -962222104 -964066639 -970710163 1190490443 1196151955 -946808739 1190765342 -947503437 1192310536 -961126223
-959798457 1195389805 -1014897481 1198288719 -958434447 -950316303 -970248760 1195415455 -949841035 -953567086 1183011279 1200089151 -969516636 -946999116 -953289201 -947670439 1195872582 1192158220 1174873919 -947203388 -947605495 -946997819 -954350648 -962012923 1173081426 -948225418 -964614317 -948764907 -947505148 1197159763 1162499428 1182161501 1187185165 1196417858 1200162416 1184926147 1190382690 -1014960225 1190202262 -952616241 1193773787 1167322530 -954820866 -949304742 1169534841 1185896442 1191899731 -961634394 -969279548 1179885012 1198771519 -959208060 -951957481 1196332157 -966141105 1192147772 -957869088 1187051673 -950983128 1188990153 1195315239 1196948559 -952592805 1197037575 -947677050 1197263626 -951880227 1173874959 -1012479512 1191541636 1199585691 1192683746 -955569982 1193897272 1200613860 1198027905 1186655788 1133050523 1187712718 -967672691 -948936925 1195611513 -963139580 1177703257 1166369298 -958585658 1179526476 1194411324 -963745101 -947012433 1184145274 -955113877 -950415935 1187849742 1200440984 -951353097 1192790312 1185941352 1196765926 -971441249 -964233346 1200315459 1176000444 1200395469 -989143247 -964672450 1200125901 1194704252 1176653437 1198250851 1183030151 1184707473 1185312667 1177749193 1192446249 1196512760 1198998005 1196013828 1189035487 1163109657 -946913568 -964805118 1182493021 1189887557 -957576146 1194775608 -956253350 1182477244 -958002282 -946954306 -960676056 -949895226 1178896128 1198355747 1190156608 -951993644 1180650477 1194847435 1142163130 1194403963 -969722957 1194723505 1197222107 1195620091 -964389996 -957219103 1199466046 -953489396 1192916386 1181032839 -953935779 1184538798 -962537331 1198539848 1192405077 -946915604 1188438968 -949322079 -947655790 1179490625 -954386022 -955301642 -955765594 1196746235 1193682421 1200060474 1199512386 1189078818 1194212887 1184370639 1197003723 1200292775 -952917883 -946843824 1196465443 -953415937 -953311943 -960019852 -1007149678 -956240348 1187632999 1197178162 -968630420 1184494632 -974899399 1184906711 -970187366 -947768901 -956082608 1192652033 -979232819 1156955058 1199050282 -956240962 -947105418 -979034409 -961358544 -947015307 -948312931 -952399927 -947286350 -1001411949 1186403689 1199228588 -963901143 1198944412 1195716322 -947743030 1184732486 -951076938 1199933728 -948798278 -955099037 -975140137 1193462378 -953812484 1196616112 -1025240126 1199837598 -951076884 -949465145 -960296820 -946950136 -951885017 -947693209 1176003092 -962237650 1195408949 1173497411 1166342931 -954743281 -988537016 1185670798 1198638199 1192779282 1197811535 1197319157 -957358845 1200540492 1192712881 -948707665 1200061578 -955014068 1200593480 -967546436 1192188948 -981719144 1200682359 -950195661 1173409795 1164543037 -963255364 -947861213 -952437757 1180972010 -959420573 1188944678 1199849610 -982244352 1197137261 1173647542 -954274547 1197607262 -953983708 1200446628 -962072772 1172222402 -954874099 1181471575 -946838956 -956965840 -967402580 -951358787 1176167894 1200192948 -961325913 1197228783 1200511918 -947756085 -965679729 1196417759 1174854609 -949784224 -952582348 1191437704 -952767553 -986407957 -969181682 1183555297 -947102778 1197127155 1198603447 -959650061 -948329776 -947860176 1200408799 1172509450 -963172402 1200131532 -961450905
1158580888 1189661286 1181538115 1193081768 1194777986 -958668368 1195563606 1188723221 -979770750 1185050162 1186606660 1197231369 1188047214 1197185079 -948578023 -952459160 -950732657 -954634788 -981160081 1195309075 1200357349 -974580518 1192998395 -964443346 -953664675 -947687253 -960245951 -956864274 -947837884 1163354865 1194282678 -950830571 -954834276 -955803252 1190949918 1198525900 -967684169 -954342735 -964402918 1181046442 1191748949 -965574745 1174665244 1180026033 1188086478 1191281789 -955405119 -956095572 1182857833 -969129819 -958326096 1199774263 -961056361 -972021309 1154279094 1183015872 -963015051 -953754495 1173684377 -948372247 1195919205 -977693808 1170416509 1193484117 1197173677 -949049102 -949594145 -947088290 -953433797 1197773364 -956007217 -951590210 -948938242 -950109300 -949650055 -948363021 -950547123 -949064869 1193472927 -953635462 1185300819 -960414673 1154618728 1198500293 -949200052 -970825640 1192647264 1185554401 -947636909 -972521412 -947059219 -954821021 -958634583 -975940982 -976975513 -948514698 1199847236 1200290464 1186560173 1199315703 -948010974 1177240143 -951051698 -953230517 1193180017 -953596279 1198628834 -960604582 -953151869 1178980834 1165899361 1189495788 -950567864 1191644506 -970927937 1188908494 -947112809 1166204708 -948985568 1199835864 1192653398 1195417779 1200685519 -968599395 1190606208 1198252564 -951356090 -951716623 1178395582 -955723620 1194697421 1197630427 -970043163 1173767634 1196769765 1197220602 1198607305 1199166914 1187099630 -979827843 -951714615 -947440059 -961227088 1193754688 1200307245 -963156673 -965838585 1195832367 -956818225 -969223097 1194958725 1197898125 1185434728 1195688687 1171480703 -959133673 1183118343 1159576005 -952135572 1187812852 -947476196 -966244344 1192173947 -969034095 -949034169 1193062037 1173568607 1185229903 -949250498 1197659976 1193657540 -949663437 1193148249 1193399362 1169674004 -947584566 1193908316 1176338862 -948139886 -965402355 -961709442 1197321170 -968327010 -960027263 1185665403 1193954900 1176702486 1190699031 -990057774 -949827711 1187449931 1188938826 -950627261 1185684651 1189887294 -973514134 1192280035 -976334986 -962760355 1190953895 -980215152 1191417774 -954920715 1178593805 -955775144 -950174441 -988839673 -954371799 -947244053 -970837702 -990324778 -948656332 1200652878 1200576371 1188292023 -947323442 -954266194 1181495441 1197736463 1182197655 -988473014 -966305519 1195224432 -961414433 1187310892 1188435152 -947389676 -957393303 1196029046 1199865806 -955165515 1194668697 1195569803 -947554255 1177902694 1167778546 1180477077 1186222589 1195669027 -979227383 -954145133 1195000645 1188620854 -952395252 -950598115 1192557492 1191633040 -954583623 -953937462 1200098889 1154805099 1172917179 -954901016 -956059628 -954804292 -950942633 -953174775 -957904515 1199655171 1193636094 1158680877 -973605637 1179240157 -953608013 -955187026 -949741738 1195214671 1197904612 -954970587 -949110593 -964227090 -954970188 1199864621 -953591267 1193140339 -953527850 -973036128 -952420564 1183447062 -956284945 1195769744 -955430674 -967060562 1150899461 -969433231 1185527614 -948351085 1144733768 1189802779 -955410960 -965996500 -949254291 -962837473 1176297936 -958339237 1192277359 1193778760 1161857002 -951167209 -953062756
-956163079 1196342507 -956436310 -947490629 1186930971 1199624496 1196098229 -952144702 -949268955 1194360685 1192161325 -984629950 -959276807 1200546710 1160983763 -967879597 1199989411 -960691228 -957107607 1200023779 -956349202 -970151124 1195114096 1185567684 1179681194 -949571809 1192032427 1195002205 -948140922 1184621444 1197084313 1185890554 1179036569 -951198408 1200501544 -950645590 -947214594 -955590393 -955902342 1186585406 -958824286 1170051488 -962496708 -951628030 -958384886 1185176637 -955865856 1189190613 -948152578 -958715561 -958478493 -982626609 -957829911 1189953351 -963540124 -953734425 -957093685 1199648320 1194133680 1167351338 1193852732 -951701040 -967721588 -974692762 -980804106 -985852622 1168979139 -954016456 -952463712 1176006890 1146869847 1183424708 1192607727 1191886540 -947604699 -962472706 -961904031 -951733658 1166365077 -963053017 -962426797 -949489242 -948555502 -955690712 1194498377 1185984274 -983505604 -947528781 1199951942 -948706730 -946811099 -968453487 1194302232 -964644420 -947027274 1185628234 1186819324 1193683043 -959385490 -950459542 -969008721 -948160938 1192019817 -959151734 -958737305 -949305319 -950948608 1199513113 -948487466 1189228120 1190064101 -968244899 -947313799 -959026158 1196383097 1182991670 -957423558 1198906153 -950051982 -949431940 -965236629 -956090125 -949336402 1195767735 -979540909 -962000715 -974964096 1193744122 1161554349 1198815758 -960799582 -958308895 1171003571 1200084997 1189244270 1166558390 -963887976 1187282783 1184278894 -963856892 -955963292 -947399423 -968686746 -965837883 1199391428 -955863350 1177417776 -950715243 1190133521 1195331856 1196848383 1183611888 -969262979 -952840013 -947178600 1174961717 1192723157 1200490686 -947014580 -947343764 1186030936 1197026161 -951136868 -968025206 1185399325 -950999093 -962638739 1183302760 -956922787 -971988779 1175547531 -952163427 -948987645 -950120641 1184307520 1159815069 -983971240 1182491556 1121155617 1187153545 -948627096 -976524519 1191622312 -958291228 -957618417 -958112362 -954558694 -960258554 -998864395 -947709301 1176358728 -958595134 -961110457 -953288565 -958133214 -949831058 -955107183 1194380283 1186852676 -962063974 -955623450 1175746607 1190176626 -970687023 1187290587 -948582981 1188944970 1199194731 1194549271 -962672791 1189151456 1196942562 1199985765 -952311173 1162163961 -948722836 1160710772 1145136353 -964370960 -958806801 -963961582 -947753933 -950146648 -964492766 -965937398 1196871698 -966436405 1192493327 1185616076 -955968563 -952343071 1192861467 -1021413935 -968327076 1195770172 1193520666 1195510417 1193709788 1186550007 1181889602 1191459725 1171917612 1194727694 -953646843 1196249850 1193681386 -965250366 -947247228 1197675692 1192114750 1197819514 1200399494 1200073955 1199602113 -951611854 -947514535 1200688949 1197014430 1187386796 -969529863 1200475523 1178928934 -955501059 1190927199 1199877902 -961332297 -961477896 1167444890 1149724957 -952986469 -947529278 -992120338 -950567269 1188679033 1156853240 1199951177 -948729331 -968263732 -958123537 1195176905 1200472580 1178128481 -958609962 -956811358 1169799934 1199254753 1191309706 1173798518 -954873565 1199687942 1192546381 1194592405 -956823346 -963575867 1199119038 -967876147 1191212954 1177634943 1200210290 -955575649
-947643631 1200136345 -952155716 1197472420 -959406713 1186881678 -947490690 -957886002 1197501491 1197794279 1178533435 1187786324 -952289770 1194988815 -982242492 1184111602 -956629452 -976458944 -958605284 1190178829 -953513308 -947645608 -947891523 1192541191 -953382178 1185499613 1187781345 1198283184 1191275180 1196581140 -947955190 -953696282 1175466012 -960478919 1194985381 -950728370 -960155263 1197385824 1199380377 -948831541 -979679169 -961941367 -956017618 1200194587 -951147935 -952987595 1197767107 -951042980 1172817510 -955178121 -947870080 -954601782 -951256680 1189600575 1191213888 -948276451 -949578512 -967790718 -953958656 1199151566 1193626759 1187053653 -971791881 -965724063 -971644607 -978321343 1166306233 -950609608 -947319760 -949896496 1190306851 1164610974 1176164965 -953957796 -947033371 1196990635 -954812866 -958175202 -953785107 -950585494 -954983329 1156209645 1184738848 1198052420 1193220539 1194734739 -952483391 1199796522 -1041823983 -947774437 -959051671 1199486797 -967727092 -969438599 1198946865 1186421096 1192778238 1168460210 1195919178 1177781923 -951663797 -951666800 -950166182 1192575144 -963283192 1199200718 1149924785 -958554316 -949089676 -964667719 1190361175 -970680835 -947269886 -974934727 1185664722 1198742302 1193694261 -974547532 -987713041 -952238834 -955897687 1150410109 -950229190 1186568122 -961162505 1194344351 -955425895 1197945931 -960874167 -959966823 -955699146 -968267859 -952183126 1200397468 -955850938 -949433350 1186214544 1183652104 -948350271 1184336047 -947638213 1192796061 -948332185 1168098256 1190494760 1192261879 -948076255 1192929693 1191526541 -959831099 -962465127 -953558958 1199980838 -959107560 1186407524 1190571544 1189928828 1175465874 -951823611 -956007332 -952708612 1180248244 -967603716 -968244281 1197252110 1195081228 1191703282 -947917755 -949538169 -960687504 -951311561 1188216416 -975727673 1186495337 -955681742 1178765548 1179622861 -951221952 -962069168 1191954844 -951773042 -960448113 -949285829 -951189171 1189599209 -987907896 1192728783 1197038118 -947450755 -986507240 -970723757 1195541252 -953754537 -960043948 -950605022 1187810878 1200402936 -948174415 -947711028 1199603954 -952703446 1185271445 -952725255 -954204484 -955032960 -970125698 -959505360 -960755604 1199426983 1198618351 -951847133 -963593628 1179414064 1179285335 -950979637 1196231506 1171096596 1146945775 -967443634 -947593004 1199966653 1170277043 -961154940 1183408618 -966550375 -961892112 1193716263 1187517074 1192307025 1191355583 -965222190 1169155049 1200651642 1200084090 1182884452 -960474284 1161286066 -949337328 -949938024 1194363649 -955302904 1197541180 -955134373 1194834112 1200362212 -962985245 -948791413 -1017247026 -948347513 1193751732 1199019253 -948986903 -955143024 1198234818 1198780914 -947849224 1181441583 1165498451 -964097535 1196423939 -955345644 1183219905 -966761946 1200271445 -952380653 -962380438 -987871615 -947304270 1199451840 -947712212 1194686153 1180516646 -956610299 -963322424 1194918863 1192789084 -988019902 -951184777 -948851152 1189889728 -989483745 -964505085 -969157943 -953815937 1197507656 -993709681 1200167723 1178873983 1196161040 -947755067 1189760009 1190870114 1194490500 -948713073 1197891897 -963655560 1194452006 1189745265 1188703113 -947896051
-953504957 1181286510 -956864934 -969318508 1192609495 1189787571 -963536845 -985607635 -988191858 1198440914 -994316770 1199159155 -951910208 -947132553 1194766030 -947091151 1168551473 1192385530 -948154588 1195846446 1193523575 1183719860 -960143668 -952695956 -948278665 -1008066911 1194811618 -955971637 -947915384 -953310505 -954039089 -954611153 -947213680 1182491968 1172537270 1185328979 -954952743 -947792935 1193920335 -951744690 1198591137 -959786225 -969947132 -978904603 1191863880 1193200491 1175427506 1200180734 -947849640 1150373693 1139858252 1194179299 1183071888 1178040073 -961281458 1199747309 -962317418 -949297568 -983366209 1185599959 -948568079 -949810453 -950536473 -948330423 1199610998 -953291301 1196223393 -948930591 -947716046 1194893333 -948992595 1198546455 -952157534 1163484543 1200089688 1200562263 -980922416 -950936564 -947489264 1196490429 1192938333 -951760377 -955826359 1166834571 -949879201 -952750152 -959521921 1181967282 1199799388 -954590162 -979457062 1183853141 1193835772 -961506300 1162898718 1182679384 -947856918 -952512260 1171975647 -952402200 1166886048 -950421007 1152462327 1188281468 1169581839 1197823341 1192155623 1180932886 1195029030 1183209737 -954845737 1199843795 1187268248 1192642944 1199760348 1159055192 -953139206 -955016279 1188142978 -975921494 -948427900 -957853428 1198929497 1197800903 1196069157 1189817138 1193460106 -949973239 1178207895 -948562254 -974615920 -962366711 1186713496 1185631835 1191906860 -970781826 -958318372 1199988473 1200516086 1194514721 1199001335 1199142445 -948111499 -947810228 -964058248 -957882742 1200453870 -951726872 1185865420 1190803655 1185155239 -951737875 1190696441 1197631840 -956909386 -975354172 -985069669 1196094433 -955867733 -952388290 -954814886 1147167151 1183119729 1192511162 -959995114 -963592936 1198489193 1196153717 1196769723 -947681981 1193803946 1191321145 1188933973 1187296312 -953808638 1194825972 1176305207 1197315727 1188564486 1185223865 1175555470 1186722911 1179644831 -947258415 -951408426 -949875978 1188732310 -952077847 -954644448 1190786784 1183733152 -953808016 -956639166 1185451591 -953487648 -951880920 1199087677 -962132395 1190746366 1199822127 1187530318 -953362260 1169288823 -994295976 1193046130 1192701321 -954471586 -964230221 -957108960 -947795100 -995550746 1195241241 -954980474 1173512133 -949063980 1182867831 1177545590 1198768970 1166321174 1177316484 -946897674 -961563384 -952354726 1192644156 -954718379 1195862749 -951844440 -957586355 -949576274 -966308684 1186376960 1179345827 -966478806 -960111054 -959958397 -956812737 -971086924 -950831792 1175083201 -947011392 1196011523 1192889185 -1009662784 -967420630 -950518771 1198849556 -977695130 1172835637 -959644065 1191470581 1199028246 1194321695 -947405139 -956221571 -955404651 -965213262 -947424737 -954008624 1198344410 -949290007 1195812203 1163497322 -947728634 -970983564 1192000230 -956991471 1200362764 -946917276 1173100832 -953577002 -949492394 1199674286 -967145965 -998009830 1165996285 -947779736 -952614744 -946985345 -954781727 1167169378 1174330514 -954910101 -954077187 1198798342 1199629335 1152200419 -952898550 -950082496 1186379311 -965836753 -977328264 1190467803 -949732540 -959190913 -950856211 1188515133 -947508445 1178873156 -948838988 1199826085
-956131150 1193933840 -952127855 -963498084 1180778277 -955593231 1199548126 -955955281 -947693370 -966719467 1188774486 -976335374 1200094903 -947052038 -948329828 -957274594 1184306678 -964320695 1169405843 -952947222 1175491190 -968595493 -955218639 1161557106 -946868558 -979028657 1194648386 -957809956 1186876639 1200146567 1184540298 1193329279 1200629508 -967615348 -983766599 -954652663 1200290719 1189763400 1196535164 -970377300 -962928547 1195880467 -946963245 -947731081 -976742051 -954628101 -959749125 1200151958 -990880519 -967817001 1185386310 -949206237 -951645630 -952141409 1199960660 1198399025 1194334143 -948838556 -947366719 1172966161 1195351294 1192988690 1190690597 -972678295 1185825153 -951945120 -955560296 -955127581 1197436813 1188455714 1183950179 1185669742 -957867552 -956471764 1150410258 -977394456 1191686245 1198240227 -955950967 -952577785 -953686357 1167428060 1191637594 1158127449 -953662935 1200697097 -972555362 1195917221 -960435273 -951773466 1186563380 -959424515 1178856592 -976938660 -980323075 -949321153 1192497929 -963614403 -970815769 -954114363 -948213926 -950703627 -969904285 -974783692 1184566180 -975969849 -952177150 -959459126 1192647316 -995622767 1199969648 1194325247 1149266521 1187332374 1192144674 -946875422 -964273541 -962801230 -952611555 1183209018 1186113124 -947667782 1163630714 -949876309 -973766831 -954852530 -954897984 -963401309 1200703746 -957586554 1187749271 1192959564 1197742439 -960699153 -1001214073 1160304817 1185407554 1176205362 -947478593 -950315676 1177219614 -954648290 1194067293 1195852318 -951408868 1198271729 1200286447 -953365202 1183432391 -951574852 1178112101 -976744629 1177362475 -948313966 1196735466 -947384451 -956966458 1196419979 -972965007 1196364948 -947926286 1187036704 -974353684 -950801570 -951601802 -955809354 1194613907 1189136043 1191747452 -946845275 -951809384 -953615827 1197623406 1187893691 -947156149 1166931783 1181990061 1186731139 1187107371 -953935189 -964479516 -952328253 1191429012 -961197932 1170778585 -949570970 -947221429 -1012501485 -954803011 1185171046 1199026993 1186544856 1193330570 1194492565 -953768066 1199090576 -947998910 -962906180 1198697788 -958068896 -983548582 1142822554 1193166966 1198680184 1180224611 1180502497 -947360087 1198698475 1199221703 1191192450 1183124992 -953483747 -993961451 -950206940 -956619280 1199287892 1199849250 -948565898 1190238933 1166941350 1184314834 -951468214 -959007680 1176872927 1190936641 1198198254 -964531355 -953082115 1191694309 -951194970 1195969055 -953012374 -947267349 -963993886 1192371065 -949780714 -964402802 1184001937 1181806063 -953356924 1160492195 -950733924 1200123490 1187782828 -947727316 1186221488 -959181441 1192562119 -949801566 1194398945 -957959641 1178798449 -963850693 1196276619 -947727848 1200136703 -950147087 1197716370 -947381659 1181734697 -948834774 -956003550 1178208185 -968450927 1195836933 1194041496 -951990579 -978149949 -959956217 1192367737 1191414368 -947254044 1197294415 1195012766 -948410831 -960238997 1199286842 1169678990 1183836696 -962472960 -966718486 -971130939 1196864868 1196096775 -953898675 1200541385 -961694106 1183162047 -956470612 1196029667 -958256835 1200181901 1195395626 -954464915 1186879817 1197614849 1197289585 -947916515 -963461213 -954986300
-973984864 1193229435 -951431119 -963578822 1196249512 -947566638 1189966071 -953540027 -947776071 1191506157 1200242091 1164236000 -958481562 1197401367 1194871817 -955813692 -963650559 -954027105 1200004516 1170239003 -948502616 -960631674 -959375464 1184867576 1195747612 -949059484 1199056061 1169444936 1152254802 1179304865 -949257227 -952088168 1197259365 -947226551 1199926747 -949972535 -960181853 -948571107 -962439704 -952830036 1194094778 1184268405 -960547741 1197196480 -994956263 -965198940 1154473186 1187732753 1198079113 1162958809 1199344601 1172822194 1169874257 -950318523 -970656459 1188477412 1199001415 1198197216 -947803147 1193840943 -951758004 -949651018 1192022112 -985480314 1199634013 -951128282 -967466407 -970182422 1155181010 -961997410 1198354992 1194989279 -983448972 1196820725 -952850156 1188603160 1168456227 1183001788 1198115875 1196273369 -977952393 -952064878 -953830163 -960940409 -955605142 -951997831 -960233683 1183363143 1193225433 -950212825 -952222069 -955898701 -966750583 -954886468 -948922068 -950912681 1138679185 1192405567 -950343784 -947196438 -949887344 -986357389 1192637783 -963322516 1177930971 -951835549 1192638924 1188008792 1184997600 1189432899 1184313624 -952877547 1177887964 -986694364 -989702329 1189885162 -950546403 1186566489 -962607335 1195889065 -962638875 -947813679 1194322699 1180967341 1190293677 -952140947 -972066402 -956401454 1197595833 -950151514 1182826884 1195934300 -953747387 1194296888 1194695580 1181939272 -967418602 -951871231 -949167385 1174853052 -949541005 -955556568 -967108333 -949307590 1161317207 -946936016 -953353809 1198068844 -977975205 1193091292 1200570142 1187777606 1183778617 1180385309 1199370579 -954130896 -952541144 1179844217 1200284585 -951086383 -957100514 -992894923 -952766885 -965218738 -967457508 1185254668 1186117786 1200458200 -956041290 1197844772 -949709599 -955651881 -971807628 -948857374 -955860308 1169424413 1184635539 -948806143 -958742701 1186643367 -947199650 -959214890 -952482467 -954260397 1175216448 1192119972 -960997916 1192457165 1190568874 -1013370625 -948273592 1191395865 -968198310 1182912505 1190053146 1198551987 1199548344 1195856613 -946935466 1195680803 1200590488 -963714839 1191878933 -960610768 1196806847 1193003676 -959089770 -962296673 -953377330 1191496172 -950089635 -948642984 1194297121 -952864465 1141669111 -951155006 1138664781 1193666468 -959234416 -954867824 1166832006 -957190524 1199844703 -960849038 1200257009 -954836224 -963619073 -950302712 1182407221 1187191512 1129363575 -956632767 1199784331 1167162038 1187275828 1182648447 1184354976 1172090642 1187770694 1191569939 1187878177 1187168574 1184994960 1189082839 -964899807 1192051842 1143307905 -966836551 -960260167 1198119843 -963828560 -965249836 -962369855 -947340843 1179981569 1193269222 -961059336 -979136155 1198344082 1170244313 -972502597 -952577626 1177578997 -964389880 -963166291 1198680451 -955813614 1192510676 -965449836 1178887865 -954111316 1191874315 1200087331 1185967071 -947829811 1196017105 -955009264 1166466329 -964674864 -958480336 1186637542 1194122252 -952988131 1198574650 1196156098 1189863345 -964483485 -947322779 1199988137 -953995700 -967187599 1185881904 -963659268 -953526699 1200421439 -971369068 1183307483 1192252911 -946945004 1194326115
1173553060 -975734223 1192630432 1191812477 -955485708 1197932526 -972851032 -949758073 1192674915 -963036494 1192766024 1196234852 1196066307 -960194495 1191589537 -948119556 1183321605 -949010192 1192444924 1196363754 -974495576 1199990749 1152147380 -947319505 -957946992 -947095651 -960111651 -960997071 -953290364 -956787901 1192621855 1196679577 1196337978 -964611229 1184450870 -955884765 1199139095 1200641563 1172917592 -947659478 1182010058 1200405147 -967539444 1195257778 1180123621 -952486126 1184070697 -956094037 1179502070 -950886743 -958294688 -958815854 -951747301 1192784723 -952191677 1181661532 1193402910 -961858079 1193036978 1191356268 1195401993 1191584383 -1016719194 -961863719 1171189794 1176736643 -951521891 1196002262 1196788429 1174475336 1200680061 1199660594 -970135921 1193224571 -966668754 -948353843 1184377296 -950584434 1186771419 -947906320 -948292024 -954690838 -952411157 -947230379 1199999906 1181144396 -956295007 1159039040 -954025425 1193459059 1191810066 1140023179 -947242583 -984887876 1168095861 -947505040 1189173278 1151558635 -960118001 1174693972 1199512631 1187740192 1200365365 1187272487 -961330472 1199789256 1188957675 1194655634 -965846290 1200281123 -971050876 -966282707 1144727339 -946969968 -971110363 -955355983 1198430550 1197777851 -953720391 1197875069 1199696542 1187818465 1190963443 1194460407 -955195236 -965817249 -956036018 1191785010 -948930259 1195859772 -959840397 1185630683 -952834386 -958339968 1188041507 1190093997 -948400796 -947029778 1189165858 1198586937 -956404042 1194405045 1196903710 1194470778 1180619326 -963271666 -952641207 1192573830 -947033586 1200407199 -957439810 1198587147 1199424194 -961006671 -953289696 -1054673528 -975923859 -974139207 -967296268 1193546040 1196920952 1157268657 -957930134 -948449102 -952853162 1194671795 1200233586 1200534652 -952848749 -959306197 1157128581 -952314358 1193721169 -947488534 -958964387 1185197291 1191593805 1189211864 -949887275 1188159587 1177234743 -959597188 -976398148 1192680763 1191748650 -950724506 -961759785 1180775805 -947941480 1195377848 -965050544 1193111853 1200351373 -948144050 1200332841 -947596795 -949577314 1198365959 1193721182 1194668011 -961909035 -953980934 -978648820 1177183794 -950177393 1191234490 -967431896 -958155818 -961418130 1200541696 1198218044 1191105491 1200091817 1180725329 -948973039 1193364044 -954583173 -952519529 -954586071 -959345069 1193876803 1190440368 -948358734 1188102836 1178760904 1190841518 1178208384 1192440846 -955071124 -948098836 1200447518 1168914998 1186506976 -972989147 1199801841 1196327629 1162447334 1196452473 -961731206 -953669896 1195965382 -957517613 -957912898 -970611774 -963152432 -955286512 -952009769 1191804325 1184027850 -971337719 -951491894 1193683596 -947819108 1196877976 -954539426 -949833602 1200649205 -953694998 1181330469 1195185518 -951455259 1172669622 1198674473 -954780798 -964412692 1199321190 -959776488 1183776084 -948463184 1200670558 1188840167 -955962455 -962653388 -950567305 1187429202 -947088270 1181083040 1196243218 1198887562 -948588026 -947471060 -947963455 -1001733116 -956861954 1185276866 1195392180 -952205372 -951521314 1200141633 1169442510 1185943767 -951105564 -956146616 1193767708 -947352638 1191984196 -966167114 1195780731 -948968744 -947084096
1189530627 1160473396 -973290864 -950560012 1158608070 1197217766 -951650884 -956991788 -949248730 -950773712 -958753890 -971524730 1187166686 1182855701 1186364429 -970982929 -947367251 1192835341 -963565398 1182899375 -961226712 -957492575 -951458155 -952035225 -973035923 -949235076 1185902190 1184648833 -973274003 -951339906 -947503779 -972781849 -967979057 -982827116 1196920208 -946939474 1176903917 -1030503798 1197673962 -949991580 -978562302 1183862216 -952345882 -951804979 -948012668 -992019557 -948740750 -953531794 -950992628 1151588542 1199162090 -955070947 -973678834 1197044968 -960393414 1191894827 1182864226 -951763267 -979115922 -953406955 -959847817 1184497321 -954558989 1179241930 1198478130 -959415034 -974189667 1184164992 -952888536 1194581272 1197497040 -956176385 -947719567 -950640913 1185025336 1190820529 -969651813 1196512848 1176670351 -972259426 -949839519 -974073975 -952097499 1190639133 -973048618 1186651828 1188236400 -946788888 1184465308 -958611342 1192278444 -948743639 -947783680 -949996193 1184609027 1197155972 1198232338 1194427603 1200099528 -949190830 1187374103 1198442982 1194846132 1190794894 1200556892 -947113013 -976254548 1185824279 -969375965 -950261049 -976176468 1185661525 1198120670 -970039058 1194534550 -951392712 1199614568 -948987539 -952257185 1194679209 -947223872 -957840170 1189258590 1188114741 -956983704 -947652215 1177188395 1195081982 -964822994 -954995028 1184122089 -959647355 1192911469 1186119018 1197706238 -946903809 1173970784 -949336597 1193101305 -954067683 -947837684 -951790317 1173753301 1178431414 1193878891 -954018327 -952087273 -965094738 1178087778 -972468708 -955390639 -972551281 1191074901 1184938613 1192284838 1191321648 1196315910 -952641748 -950607519 1194505280 -953518957 -947249555 -963975840 -946844998 -955957642 -947595158 1192812908 -966945514 1192674374 1188656821 -952639867 1185838592 1175586985 -947470107 -948180168 -949346977 -958120579 1189346374 1186879302 -951579007 1184271266 1196063191 -954974062 -947066555 -980639878 1195793240 1199240929 1194146214 -946820137 -946940736 1193297762 1186185733 1162811104 1186299575 -962786645 1195408676 1184980762 1194995510 1185640121 1197389168 1176092333 -974662797 -980696107 -951294923 -954034044 1199935540 1176986704 -953735980 -955470287 1183733382 -959395308 1198927963 -955571357 1191220368 1193004801 -966173652 1199618329 1194329289 1189724376 -962597870 1161406929 1151789104 -947733782 1194913151 -947537615 -1022668901 1198741867 1185873756 1183974975 -956730486 1164463112 1197924656 1194955845 1186620105 -953049429 -948348980 -980949204 -947648116 1198337128 1183019843 -955405933 -949730682 1193378403 1180660143 -959782546 1195349785 1187676574 1169399678 -958463053 1193870340 1171489034 -946940339 -957209115 1180485132 1175773417 1191770996 1175197176 -981131669 -962125319 1189241073 -949945031 1199562023 -952812770 1192125586 1183934959 1187784907 1194834808 1195532129 1187450725 -960033602 1200392644 -955145403 -950680910 1199890956 -955883966 -955018786 1180473566 -962972685 -984199186 1195337780 1187360164 -955718228 -947293843 1156339580 1195139692 1190463416 1180704462 -962270899 -947289033 1187530692 1158855385 -951908157 -963882062 -965976795 -947574538 -991948939 1184941695 1183691978 1199993709 1191568068
-962862687 -961417275 1185258002 1196784348 -953692315 -958433993 -947540027 1184690745 1195315634 -954827637 -951038641 1183848147 1194284720 -952174467 1190696529 -962742289 1189140575 -970330875 1193822870 1180405321 1199256748 -950751720 1199714383 -953213514 1200033853 1196451027 -958601216 1200627179 1175927004 -947136509 1190292842 1188525008 -979050706 1198413136 1198625939 1200696973 1195429981 1175832377 1182702501 -947112155 1164298927 1194127701 1189638427 1179212938 1195479365 -971070964 1155717509 1189262035 1199356159 -949563673 -947853991 1186247218 -957988841 1177395876 -948710844 -959690430 -947128064 -968377037 -955637505 -970861103 -975022660 -979500001 -957849770 -959482285 1164862648 1197873768 1189144824 -950148381 1182526972 1197125290 1192602883 1167273259 -957265957 -949872200 -951867744 1185321693 1197033318 1163973579 -947945455 -954956675 1196512509 1200019050 -952422854 -985475156 1171680760 -963929669 -948983992 1167711949 -948840328 -948749514 -952235233 1194756695 1192223768 1190079402 1190907615 1189139239 -966691459 1178920397 1177108584 -957979886 1187430617 -980242356 1195029595 -952412896 -956917807 -946798870 1192862272 -946913892 1195707893 1192886566 -951544600 -968260482 -963175545 -956079951 1200157527 1195326033 -949164692 -949914261 1191230412 1178604151 1194985020 -947518340 1189959296 -952929558 1198648453 1187626804 1179487192 -955095713 1199003555 1200479028 -947830605 -950533094 1188702739 -949232597 -948924393 -967669803 1178417246 -947481205 -976329163 1186363654 -965087379 -953321224 1173194081 -954537292 1193510801 1185749465 -950866691 -954701295 -968294178 -969682033 -947768364 1200590171 1191625919 -953953374 1192541186 1188374362 1186783206 -963928807 -967236187 1196201862 -950058435 -962861216 -958921185 -959270152 -974716202 1197429558 1194526922 -961116025 -952639986 1171498143 1196632240 -948036958 -978179764 -961759097 1196621834 1178879709 -968987644 1195985935 1174457445 1187949535 -962481652 -948101661 1193667444 -954938757 1189632960 1195808453 -982978391 1152014323 1177503115 1187881801 1198921646 1172908589 -952629301 -971707561 -953407710 1191279532 -947666266 -953659829 -985789610 1200492177 -947447665 -959878777 -958692532 1190931792 1193925970 -979873307 1194267737 1196525635 -959679186 -968937820 -965230892 -964538893 1194513577 -946990464 1195736174 -953568739 -950931203 -951255182 1194523993 -962778189 1177725069 -950584261 1188668067 -964116091 1197493530 -952205790 -978482010 -952730259 -955199649 1192404904 1200007993 1199676810 -948774843 -959103757 1200048429 -949185031 1194810324 1195340618 1200539649 1196034180 1198482098 -953519115 1188500682 1199273251 -969682651 -994439662 1198478745 -947166716 1154401896 1185225364 -966210979 -955657789 1179122706 1163095406 1199820312 1191695809 -964793857 1187433742 1185957835 -953446884 -951372496 -951373741 1188060016 1179347460 -949959049 -962985301 -948588649 1196694142 1193753403 1181864260 1200029315 1196881748 -963445101 -954965821 -951480887 1191478813 1199965917 -955890532 -949120696 -959983380 -970315784 -947325808 -982404417 -962488019 -951986705 1183971442 1167197667 1186445308 1195884083 -950880985 -959548117 -972388332 -960768237 1190446998 -954266369 -961228465 1200403327 -957365103 1187153533 -956927125
-950736589 1192795958 -962743769 -956234264 1200544767 -946878928 1177803866 1175335817 1193051468 1200126136 1184003226 1198107563 1170549214 1200452272 1185084724 1194700979 1199758245 -959706614 -957981856 1191957459 -947639520 1198744854 1193814396 -949840440 1197638172 -968255504 -951146186 -969413906 -961350716 1199875354 -979772065 -953659011 1200408948 1192612414 -1001508506 1198511166 1184937080 -966524574 -960871333 1199801831 1200438287 1198477547 -972093013 -966127952 1197375366 1181771731 -971729358 -959732106 1190404250 -993907130 -955749093 1191301676 -947450151 -964139813 1198111893 -959753148 1199169327 -977719758 -951003286 1195730602 -968556259 1192148186 -953591993 -958088711 1189858108 -1026984267 1190678889 1186753963 1193495186 1164936043 -950117240 -950348575 1177718111 -973280366 -973133896 1172628575 -952008806 1192799866 1195137690 1195548155 -952376900 1176260836 1175939722 1199259483 1172691747 -963233042 -968767883 1193958902 -976019135 1176164950 -947988752 1181506907 1179342592 1191987291 1195444218 1174587298 -953403173 1199873063 1195577353 -997386134 -964443717 1168689656 1189467063 1194491888 -959079644 1192339108 -987879209 1186803966 -951551684 -990156459 1185005431 1197311482 -958791905 -948591751 1186853580 -957100033 -952517519 -953283966 -954178403 1152215983 1173925817 -953366401 1197386959 1191596899 1194504866 1192459349 1191555449 -947351416 -969374347 -951819896 1177433237 -956980218 -973160782 -949224514 -968068840 1192871481 1184157436 1190935989 -946790314 -965243278 -994971400 1195729059 1191311157 -950690059 1167242238 1173029958 1187919120 1197847061 -951703100 1192594772 1193419384 -954820063 -956379666 -968828964 1142382002 1194980185 1196687996 1194021258 1198727532 1199974244 -953774032 1193261994 -983315580 1152560222 -966730892 1200457359 -953108256 1200688646 1192786989 1192053177 1193896006 -948095989 -949580919 -991912623 -976499711 -963328682 -949452785 1193567082 1199301651 1187558555 1165945412 -947449584 -981046418 1185126334 1186053729 -953582311 -988710874 1196474285 -982245084 1176025362 -949217104 -963355927 1183760989 1197253769 1192860470 1196373993 -947173220 1191035659 -949659817 -950394887 -959978268 -981641416 -957902262 1199466389 -962289280 -961225678 -978764268 -993235377 1192158384 -955919254 1199362946 -950102113 -951368831 1191208985 1197193314 -948653102 1156332866 1175811174 1185575828 1193206707 1190886664 -955653207 1164416115 -955825171 -965827583 -962552071 -960013169 1196144245 1188799625 -952661714 1183730186 1197192742 -952873701 1184071895 -951164882 1195628328 1197935200 -952064954 -970094638 1190902991 -950839155 -962875002 -955684353 1195309567 1191598768 1180015535 1190034030 1193589409 1190907535 1196019779 1199606010 -958445336 1188474296 1200226638 1198924755 -969093956 1152740703 -957258574 1187195510 1198612850 -969198577 1190928493 -980957276 1183770290 1169798909 -957408515 -962840464 -951926553 1194481239 -947911049 -950384080 -980387330 1188226710 1193493870 1198011856 1198946480 -964004031 1192578026 -947681845 1195372717 1197061943 1191719488 1185459003 -950241125 -950107163 -963363165 1197209705 1177031099 -947725416 1175027216 1143709883 1181528742 -963237275 -947150654 1166619924 1185866973 1178256136 1192082024 -950308811 -968441608
-952733919 1139806382 -951284475 1200559325 1187811690 1191437086 1191258619 -955847290 -961204045 -955556736 1188716937 1199718915 -951718284 -956050939 -955501859 1187778007 1195561751 -956316765 1185750301 -948945926 1194937836 1194645393 1180465624 1195499334 -947926546 1189733913 -954699847 -947222232 1188324676 1196938542 1164359444 -964542561 -951255209 1196097969 -947805551 1185529132 -979983521 1200537498 1197283386 -947720289 -948847761 -950369087 1181365175 1188083617 -950738787 -964382905 -967097232 -955519360 1195972511 1198289402 1194503359 1183345924 -962155661 -953711441 -961428628 -949499492 1198613182 1197856220 -947640989 1160939827 -971048008 -959913024 -962476456 -957146041 -948929996 1183442962 -970276401 -969541629 1194905686 1193542225 -966361881 1190045936 1189615398 1181234636 1195273249 -949509696 -958307456 -954326468 -951292341 -955952161 1188507590 1187715606 1184136150 1187650870 1178165918 1194144602 -952211843 -950488185 -969187751 -962319169 -956925555 -947114854 -946825175 1200323461 1198437431 -995367945 -961060370 -956650475 1161427254 1191827103 -966298656 1192013321 -950676518 1189903171 -962065461 -947021400 -956515412 -960715909 1198678623 1138061997 -948472702 -951378713 1195281332 1198632267 1190167586 -972663204 1200200774 -950193149 -950047146 -954449749 1198982674 -948017187 -956558985 -953729527 1195118322 1188338760 1184552230 -975618821 -955564196 1186819106 -957130965 1193260317 1187177245 1192859905 1186605884 -951894444 -947793799 -986174009 1120448600 -958730830 1191003066 1196930065 -947801223 1193461043 1194891850 -965385952 1190912963 1189603191 1178708300 -953986614 1200335452 -947878277 1193356447 -954361265 1191252394 -950347971 1199178978 -956843699 1192469231 1194240196 -959842312 -967261215 1195402197 -966356216 1196822598 -954199832 -952952590 -964190398 -949261795 -954245930 -955210170 1179847048 -984341673 1183153445 1200066920 -951025667 -954196676 -954608285 -954920806 -949689088 -967670692 -958979662 1200059493 1200223134 -952315994 -951056941 1186244468 -953237775 -957029786 -950746616 1180528162 -949256218 -948032802 -947537112 1167762731 1187602203 1193986473 -953034580 -987933256 1178834864 1186030398 1177191500 1198879257 1194433111 1183405685 1197595493 1199408379 1187004394 1200200833 1178562395 1156951152 1192630297 -947001439 1192678974 1199762941 1168039220 1192920504 1198565098 -951384638 1199951739 1184970183 -973693909 -947095878 1196733147 1142214643 1183924934 1172084676 1195870884 1200564885 1183553016 -951880367 1194252329 1191994770 1168744664 1198048828 1169240483 1186209956 1152872783 -954197929 1188894813 1146333174 -947791158 -950692039 -950977483 -947066614 -950993187 -960335145 1182797950 -964282723 -953253959 1194729290 1198750965 -952833845 1191560976 -955856434 1197736542 1199954703 -953434387 -954209463 -973740265 -959656773 -948614477 1165890480 -947549690 -953368608 -947492697 1191346518 1185976516 -972254467 -955754723 -956567822 1192173487 -953691674 -968183979 -951110464 -958775132 1197533512 1189099315 1177044848 -962150094 1108499445 1176324900 1192200020 1196465588 -948329250 -953562217 -955515568 -948146724 1174688852 -955837754 1193945805 -981277787 1187495662 -947035997 -947458128 1190157462 1190979842 1200277356 -953162410 -947537959
-947714161 1186829913 1196928768 1146509321 1170169515 1196546955 1177863329 -952797823 -972906887 1192692888 -959400540 -949929927 1187573657 1196631180 -947219338 -962553643 1194061730 -952060918 1166247853 -950623472 -955576725 -952344496 1179303537 -949376466 1198403778 -947780676 -953210921 1192965958 -947110799 1200225190 1189302829 -951888036 1177117952 -996475611 1173729390 -950807287 1191931076 1182117746 1154243632 1195428955 -955393714 -948159698 1129790333 -955358077 -947636848 -954731025 -958003026 -955518466 -950122738 1189465755 1190002734 1182473986 1181246027 1200226525 1157275493 1194539894 1152561809 -964281678 1190760291 -970953724 -971456798 -953553377 1193567831 1196905472 -963303553 1175990343 -973634995 1195738472 -958802767 1196997597 -962897488 1172740926 1192796097 1185886890 -947312392 1197204811 1195864761 -967884552 1183239467 1195040133 1198340099 1194979189 -949338699 1200118526 -951796266 -977857300 1185140975 -955950349 -949402185 1186984412 1185169665 -956811179 1138145738 -985871854 -952408328 -970302288 -954247497 1194040011 1199605956 1196299687 -956560856 1182887431 1183105521 -949843910 1191399223 1164018623 -949635765 -1006442222 1196204975 1196349495 -953392688 1193094011 -979922669 1198908516 1192716150 -953835847 -964424254 1195546183 -953323898 -1000709556 -961434758 1180504984 -958777793 -951163356 1195443459 1197556454 -962533127 -969224823 -960078740 1192472263 1195663571 -960482552 1194133852 -947134192 -951564262 -953322168 -952083877 -950365217 -949682235 1173073827 1182063273 -949113816 1200438686 -962634379 1195804302 -960197520 -954052893 1187911018 -957969142 -956069357 1154865703 -952082315 1176133745 1193801214 -955372222 -949529371 -951708508 -957416497 1186034194 -948031259 1182139216 -973747712 -984179227 1196846134 1179075930 -952931211 1170671346 1196892449 1191937079 -989778318 -952831330 1158345039 -949802021 -964606724 -957107890 -949867073 1197734688 1167957234 -948463443 -959263903 -946998948 1158416328 1188997508 1196951298 -978932984 -956158458 1176611773 -965706848 1199649058 1177922022 -958557868 1200684285 1193054125 1196501282 1195201626 1198278465 1186254737 -952459680 1185411876 1183082809 -975053498 -953534864 1199703767 1196983933 -964919895 1195798943 -954711581 1200470405 -961240254 -954351634 -968512485 -957186547 -984870512 -961288849 1174506357 1185261390 1193086428 1199810210 -960958827 -971465427 1174827623 -964984737 1191398167 1171917150 1186968547 1199045754 -963713378 1164924843 1190290607 1163210487 1196668469 1193557945 -948081512 -947808348 1183935931 1184547881 1193412396 1191125587 1199013653 -948848093 -953428411 -959198588 -949768594 -953099796 1191448025 1199621537 -947363104 -961928507 1173702291 1185662913 1198177075 -965705394 1196814430 1199158512 1194156775 -947587214 1200005183 -964184031 -946785665 -948959961 1196219502 -998561363 1194459293 -950050752 -957250908 1179179667 -1026804580 1189891582 -951460962 -954068168 -948423505 1200170251 1176935373 1199866649 -947576728 1192187981 1193767176 -961744883 -951121316 -951462942 -959321528 -948274591 -950665153 1196789280 -955330545 1197522682 -955163399 -947660685 1192017807 1192822495 -967646537 1191957577 -971910068 -954606119 1141449141 -954750919 -955137870 -953741792 1188008273 -950559431
1186618117 -958280329 -969461109 -950434497 -950630832 1197210049 1184350867 1193682766 1197987789 -968223774 1179823183 -949454547 1182441256 -950553836 -947016503 -947622103 -952573898 1176086809 1193426668 -970531200 1200180692 1183287158 1185620967 1189337585 1171979405 1130123829 -1005733116 1179260874 1179773378 -949447177 1199840041 1192103657 1196434750 1181254686 -953575972 -969909931 -948812528 -953656242 1176771883 -947356568 -960128588 -964820938 -946907318 1200323455 -964404883 1181759745 -955392038 -953509298 -1001992637 1195891140 1188450820 -947624528 -954793163 1174613924 1141349165 1193306099 -954783208 1175254046 1163763313 -947324486 -948630670 1183221587 1200148593 1191378468 -947456107 1178992869 -947501284 1166724874 1177517992 1155573222 -966438533 -971578006 -950965913 1198582543 1183296664 1199161949 -968947937 -947434917 -947272555 -950941098 -963598248 1195885746 -953121338 -958273762 1123861686 1176867334 -962026337 -958717806 -946965675 -959655675 1191901619 -957498452 -946972629 -952589941 1183766803 1189840308 -950314836 -959054795 -953667276 1198055115 1190739104 -954160562 1187613643 -946925574 1174512934 -949843628 -959358054 -947988929 1195394236 1199299393 -979770783 -953698435 1173907506 -951502348 1169510182 -963295724 1197318234 1199762984 -953750483 -958395123 1196159287 1199531548 -960983876 -1021728472 1180638651 -973322358 1200518836 1151895732 1197885430 -953537166 -947597281 -952893445 -962662951 -964820720 1183321876 -965210838 -967911487 -962474305 1198746853 1185563804 -956670611 1200438844 1196363384 1197602577 -949451005 1174471666 1200100381 -956188397 -976060197 -965422916 1199743035 -952806446 -955165430 -955405570 -967924858 -952946487 -948626047 1135055894 -965058609 1196157307 -1002615074 -958927451 1190395549 -971147632 1192697401 -951928691 -957790148 1186162093 1178769587 1198484894 -948582746 1179708147 1188683505 1196509094 -956484370 -968749538 -947158358 1188180667 1199701181 -947339535 -952057985 -965370334 -979645249 -947717187 1187508769 1191986057 1200120153 -946995728 1200164683 -953744239 1190024314 -950508178 1192985848 -968299808 1195755058 1193324888 1197569557 -969594036 -973757813 1156577006 1198619660 1174364675 1185903762 -950173006 1179932070 1200282464 1196305466 1192930199 -950135517 -950314737 -958451512 1197228264 -948682722 -981645536 1190201743 -952817684 -968364013 1182962401 1191383986 -948925255 -961376425 -947220169 -988044645 1177402231 1199836167 -967452732 -954429533 -1001882530 1192937927 1193677466 -965213455 -947135815 -954904037 -958842209 -975304947 -962984446 1193734917 -979315720 1194709133 1195787968 -946958116 -954744961 1186024642 -952611028 -963397994 1180724604 -947527589 -960911311 -955435040 -955761381 1198433777 -950514082 1199694371 1185748439 -946913979 1194795012 1197058445 -953495562 -956721486 -994928370 -946933544 1198217766 -948012582 -950199207 1196929627 1180842119 1175294565 -956177194 -947691325 -947793440 -988461759 -954958214 -947784709 -970044620 -959690674 1195226759 -948496219 -950227615 1191473499 -963412144 1197446926 1199794635 -968745342 -961772719 1189142409 1177688959 -963254147 -967513633 -964297989 1199955300 -994464259 1157683815 1184821288 1195453100 -955414048 -972571582 1170916722 1197916878 1181368990 -960811993
-948705086 -955834403 1198015198 -948415300 -989712919 -954753443 -977454606 1200139213 -962560980 -988688779 -957114182 1194738686 1194124249 -947289898 -954470223 1200239497 -955122972 -947170453 -958767739 1168873479 1194475050 1195780941 1194887978 -959994361 1197695084 -967214389 1194002443 1195354122 1187088718 -950596858 -951394624 1193701223 -953114322 1197202274 -952301907 1178654322 1199947971 1191264032 1200354812 1196823933 1200121379 1191450613 -947237319 -952239120 1197903381 1197878945 -951307139 -950967104 -957292050 1193347780 1173777196 1188953460 -971854435 -946881918 -983983183 -952366733 -957386391 1141694746 1195384211 1184085219 1192515158 1175991526 -947063358 1188850856 1197606163 1190809741 1152024882 1143412764 1174717623 1195744875 1198213898 -947869364 -948399789 1189636973 1142754805 1196410778 1195172100 1188732085 1179203058 1178824823 -949865161 -954259353 -967756244 1145001387 1186032550 -963111582 1195913029 -955508080 1200169170 -952020604 1153437297 -972514736 -982351011 -947437691 -968467220 -949139422 1200514817 1194958801 -946971047 -954539790 1158279732 1177821917 -948465250 -949951206 1183271499 1197058777 1192894236 -962974202 -951860151 -958255509 1199607783 -982120573 1186518520 1189935413 1199998033 -956633429 -977225861 1199169178 1197891216 -947672082 1185500812 1179707735 -963028212 -959690266 1193198820 1196202904 -968788787 1187295192 -970787212 -950645799 1182378519 -960361109 1196317516 1189614951 -947450335 -947267905 -965772911 -954491139 -953666082 -950426324 1200395864 -988913236 1198258713 1200072393 1192792315 1146885054 -954591569 1185321982 1169737737 -1048728216 1200066411 -960381581 -951184658 -968566047 -971310649 1200114988 -949079782 -947953746 1184097068 -960213158 -967252895 1180779078 -981124665 -961375363 -949267762 -947385175 1185427543 -948537210 1185701339 -963771155 -955571580 1192349257 -956052151 -978412415 -956778174 1197059670 -962591006 1186178985 1195074944 1189257209 -950419658 1197280663 -968173389 1198424015 1196477394 -955765380 1200619020 -948868059 -951715656 1187740581 -979509736 1150282939 -952213323 1187715488 1196600247 -960264426 -954784331 1198138611 1198716866 -951414190 1193518704 1192934836 -954825240 -950432024 1185829475 1195056322 1194087855 1187560317 -954531907 -948393808 -948451791 -947422225 1187064124 1200289416 1196945221 -966901138 1192469475 -1001578453 1182303194 -950075595 1182734438 -970989231 -947094191 1195331101 1161798744 -948668205 -960965766 -971985866 -993015650 -975060471 1185400588 -949194844 -959341908 -952045447 1181231386 1192047846 1187209289 1200051963 -947043694 1197577709 1191092059 1191181296 1182502871 -950099171 -951140852 1195234373 1191641890 1186291556 1196892925 1197491356 1196175617 1180159319 -965424533 1177205324 1196422974 1186889426 -960761653 -964606333 -972332607 1192944393 -953072383 -958782279 1187214465 1186861690 1189343314 -950597662 -961032898 1181947847 -947097290 1197220822 1169001241 1195884312 1184771529 -948309070 1189330508 1162180336 1170276753 -1020963335 -970154834 1193423798 -954316474 1187865646 1172669255 1197040001 -959709174 1194988121 1179064982 1199719201 1173233678 -953632143 -956772425 -950048091 -950354465 -978339753 -957246087 -950759985 1184413760 -957553950 -956619979 -951646584
1196696415 -947907568 1199652646 1194435328 1193914364 -975365296 -953894920 1195477453 1186724620 -949083705 1194771629 1199835662 -956231513 -951448515 -947061024 1192631603 -965968711 1190756587 1192640808 1184107406 -956052370 -947964208 -961216269 -983828153 1177231112 -956084928 1197092930 -946819253 1180107569 -957222846 1187613410 1200488162 1196952423 1198066036 1170230794 1192549887 1198962822 -947514471 -950766891 -956999398 1188579646 1164481880 1195604893 -953416324 -951019882 -991970301 -955803234 -949142719 -993533961 -971850513 -947795277 -963464028 -964163561 -965979702 -950730728 -997713343 1200566873 -962870179 1182817447 -951588052 1166883946 -961318102 -949979669 1186732474 1195863960 1186703712 -963184735 1185248069 1184710872 1186290801 -950673580 -968493248 1179877146 -947032802 1160854469 -946917594 -951748027 -967623939 -964533644 -957522091 -954506814 -959555737 -951921789 -965778087 1178558306 -969428638 -957075867 -976351395 -960850455 1182058245 -948508848 -953744012 -963831786 1185863692 -951087192 -951441658 1194642859 -962830691 -947152698 1194041424 -972383846 -947013783 1194934929 1186124805 -952047567 -947879159 -957189044 -954469619 -974928315 -993714137 -958099675 1200113771 1185181460 -950982397 -997612513 -954772873 1179579264 -977716385 1199054863 1198449566 -988000974 -997765956 -954871357 1192970118 1178828051 -947789318 -951490377 1193659012 -1004821739 1197363136 -956340579 -954318235 -959026169 -965962539 -959905324 -947239913 -955863473 -952788368 -963488213 -948818182 1199454041 1197984360 1195166474 1199520756 1186557216 1177383944 1176323099 -953526990 1193451548 -958738732 1200192235 -956322924 -995128749 -966950344 1199634460 -947549529 -950834751 1197044808 -971127514 -955421839 -968119934 -979560303 -954570000 1180302736 1187374457 -954313099 1198255592 1200408164 -960432293 -961090333 1199617791 1156106486 -953989434 1186044185 1173901296 1183972251 1189694915 1198424149 -975028901 -956146829 -951569216 -952776607 -978045548 -946814043 1193779163 1195349959 1191507074 1191200279 1194000624 -949917463 -984936704 1199685659 -965595726 1199940786 1147825850 -950711896 -956730050 1195303604 -971996204 1195307909 -951424993 1159409370 1192374321 -954528678 -947030669 -964606770 -948371894 1183607009 -960977437 1196511028 -947820456 1199312462 1188182246 -950957758 1191871840 1198780766 -980039399 1187557555 1160030281 -978682908 -954958887 -947513134 1198689064 1194963787 -956835036 1198032055 -951866754 1175516039 1185065215 1159326759 -947400755 1192064688 -955921047 1190213805 -978445679 1199807910 -947492563 -956613423 1178289362 1193870672 -960316365 1191331274 1174591494 1197436375 -953778909 -951394960 1175385859 -950315663 -977514435 1184739459 1182302507 1188299182 -966334365 1192201822 -951790784 1154144511 -959531890 1171165608 -955196721 -948453666 -967502426 -950680069 1177095720 -969595325 -980975220 1193627670 -947021884 -953611850 1192079132 -947234890 1186754298 -950356182 -966346389 -951838019 -947258647 1200584384 1190526454 -957950669 -967689655 1194772293 1194954315 -963251778 -956257423 -970073101 -960100699 -963961028 -953644939 -967685314 1193899449 1169425862 -946804895 -971063137 -952369948 1198148914 1170412618 -950150783 -974433503 -967291694 -949769916 -948575244
1193306839 1194186554 -973342637 1182683741 -951419499 1179084490 -987664304 -961738280 -952851955 1183266631 -959076638 -952517990 1200338462 -950978034 -953412223 1200645600 1196611305 1195980770 1196168900 -948383241 1183821799 -1005170250 1198798851 -958520205 -961897620 -951831830 1191648579 1186941611 -961127795 1192883120 1197576988 1199142391 -977657822 -953672434 1198595722 1199629274 1174896837 -964583502 1193667957 -952754439 1192453850 -961569577 1200615092 -957449509 -949472469 1193090651 1198844250 -969554401 -954943012 -948000944 1184283927 1177492251 -962583176 1192120432 -988023924 1191473736 -1009829610 1185494437 -965968170 1195753388 -947604126 1192637461 1199334602 -955554629 -986388181 -963956505 -974896454 -966680961 1192794518 -960657776 -949324391 -980033936 1199823571 1191484921 1189472411 -971202236 -954979212 -953284547 -948284158 1199938556 -952916040 -961340598 -947489173 1200159248 -950749118 1188742175 1184072768 1196293102 1183819659 1198237236 1193020323 1191967407 -953794348 -948217594 1195547218 -971981357 1190175952 -964253579 1182670992 1193864460 1196574516 1191529158 1175134585 -961690465 -965257682 -982149259 1191705462 -977155533 -979844636 -967163513 -954321354 -1004425987 -971582874 -949106982 -977103211 1196702747 -964234053 1178840967 1196022328 1198258190 -950871381 -994845240 1200161178 -954438491 -955168934 -947604705 1189145496 1193626690 -952956722 1186408782 1169595906 1194703545 1185405490 -961540288 -960181010 1193311651 -948226789 1199392891 -973511231 1181418558 1182481562 1184347690 -966090355 1186010474 1199255901 -957497725 -955596427 -957938935 1196791306 1197987244 1195048864 -954952330 -963400611 -947518896 1141994551 -952676040 1189297599 -963711279 1200009269 -946783433 1200220809 -994276210 -953833440 -975499009 1199235458 -949655698 1187889667 1200116367 1189083102 -953724954 -958840138 1191944122 1200099126 1197470436 1168790212 -950750576 -948373746 -962419278 1200588870 1183616317 1199825376 1168872670 1195951302 1179416170 -962148676 -948305360 1180229555 1182818874 -954708788 -950142160 1198628533 -959541424 1183552116 1199612361 1186537292 1197870484 -958358977 1189081206 1193113697 -955316196 1185427016 -952093244 1200292401 1177518519 1197620014 1197425835 -951019492 -969307232 -947700200 1199144531 1193272310 1196160458 -957756728 -950495391 -954761826 -967835746 -970860721 1196694153 -987984342 1189421065 1187525123 -972938633 -952401317 -963925191 1192539992 1199861722 1199724176 -959640816 -967303825 1190978126 1198232330 -959791600 -956995911 1196145580 1189165168 1198505818 -961977694 -953996232 1199655170 -953400940 -952988754 1186284797 -968795837 1187341483 1197652298 -957700003 -957592955 -951758749 1191204111 -953789690 -947673248 -950018783 1196952248 1191157935 -981455384 1198878471 -952939788 -947358181 1196496372 1150230632 -959330300 -959551161 -954498700 1199653930 1199429077 -950442627 1191259234 -968353824 -947457335 1197113098 -952872802 -957072606 -972437450 -960834353 -948449348 -947736616 -948916992 -953159877 1200362916 1200018174 -949231839 1193075539 -965234649 1176502466 -954849192 1199287800 1190906589 1166775548 1190069305 1187457355 -959484782 1191879841 -962438622 1200080579 -971800090 1199610576 -969226074 1181582522 1188258659 1200254699
-968270855 1198203430 1200136691 -957752314 -954723333 -986318723 1198879460 -949075709 1194584496 1182826846 1190558250 -950301586 1191377569 1188771690 -956114307 1195239151 1191395569 1155216167 -947883177 1197407494 -949528731 -955423911 1191560404 1184460815 1193583811 -950175163 -952791792 -952819377 1200377402 1192617314 -947254630 -967389305 -946966063 -959431073 1168723149 1187240184 -970571018 -973755494 1181867869 1200327603 -948742139 1197448322 -955630494 1171991170 -947908037 -963348862 1186370685 -947205677 -952486539 1196122650 -950153585 1198748425 1197641400 1186003497 1191662987 1199778878 1154365947 -950775577 1191735024 -962357440 -947272948 -985243467 1194119204 -952903425 -960918568 1197221336 1193333748 1198938534 -947113213 -948321189 -947265167 -959784716 -950898214 1184323207 1194067507 1188833747 1186634173 -966081401 1174454828 -956593188 -972452617 1190292106 1200531737 -975202073 -951441282 -947974706 1197864796 1186665198 1191560726 1190641875 1186318000 1186510581 1185742263 1192003504 1186324321 -947241231 -954956330 1190190936 1198298348 -948386537 1195577139 -951962462 1198522209 -947679459 -953731303 -961035178 1175590395 1197031605 -954667066 -962379254 1196594978 1183475623 -987128538 -956033384 -952976892 -963616274 -957885544 -952399519 -954169735 -955232752 1199970534 -955879748 -976542100 -967471328 1197637394 1187186519 -963866377 1199869687 -973729111 1192389557 -994190211 -951407783 1183565677 -946805181 1198320023 -955646469 1172857137 1190297427 -963830323 -952562645 1197889095 -950790054 -949310155 1184523841 -969784313 -962392642 1194570065 -955060239 -953698195 -952767139 1194656450 -951988309 1198228466 -966149242 1195250250 -957878922 -976142213 1193305031 -995737757 1181469454 -971811039 1200459958 1198597069 1199996453 1183130530 -979050095 -947370284 -961600483 -961407813 -1009449483 -952233381 1193159550 -947818211 -961095208 1196774761 -954716445 1198610432 1185271361 1191415949 -971862682 1198158016 -956700371 -960013932 -997894374 1192578240 1196004585 1199671989 -956967040 1197960114 -950439075 -978642548 1196944687 1198361584 1198899372 -960171174 -951176661 -961438927 -972821773 1185293841 -947456011 -958812150 -951627235 1168034688 -961494862 1185621757 -950897783 1165858315 -953656759 1169490056 -950590682 -962485203 -952756345 -952923669 -961776606 1194452006 -975247223 1196793701 -948970887 1195002003 1183169211 1196672863 1195844093 1192310230 1183687400 -947971101 1192839995 1192392044 1191748619 -949545124 -949861610 -951418999 1188523322 -957632735 1197177464 1155527568 1186048434 1197855309 1193531468 1163786202 -954599657 -968600196 -948745086 1191824314 -964178174 1185767943 1198595501 -964678626 1194200632 1193954233 1177059137 1170317113 -948933434 -948086694 -977643662 1199706182 1198826599 -947616848 1191858740 1159203041 -947143580 1187116263 1193422613 -948490938 1199367699 -949341147 -948713110 -949740418 -974597474 1199116669 1197214691 1200361819 1199360439 -959136796 1179877474 1192908184 -963371811 -959413600 -952040865 -961087706 -949793815 -984329404 -954440780 1192663040 -967498722 -952085711 1199042137 1197736267 -970705646 1182729059 1172026158 -977892350 -966416664 1198250450 1172899724 -953099315 1200135776 1192969973 -946941404 1182347826 1200572160
1179844744 1168825887 -949558969 1197512142 -961936980 1197772034 1200275098 1159559395 1184835555 1169429128 1193127379 -969872066 -951604703 1196092877 1190525073 1196279041 -948911801 -951764325 1169959477 1199808929 1200553975 -956548770 1200549861 -963437945 -946926034 1172804112 -946918922 1186501769 -950263870 -951575656 -950686794 -946991112 -949558501 1187771205 1179297815 1194938448 -967028865 -976927872 -947335689 1191849268 -954429292 -949854871 -946961788 1200367026 1193206391 1196151833 1199846509 1198966564 1190030768 1195803669 1192553568 1193649281 -952215072 1191913958 -957315772 -947884799 1193898077 1177177950 1190335265 -957298670 1181924212 1183205821 1188378020 -951376315 1196937897 -1004979576 -956518336 1191858444 -948669626 1194950987 1175090044 1181870234 -949954067 1177152285 -963597130 -947524266 1193448946 -962992655 -971455944 -979028473 -947596622 -947296769 1191486359 1197404671 -951074613 -958272301 -956988600 -950259792 1199459538 -947890579 1199248707 1182892390 -977477097 -970291332 1193522640 1198770779 1190928950 -959813042 -951971807 -957571595 -948583812 -950861083 -959015780 1190969970 1200462289 -1003943565 -947119588 -955271273 -966896473 1199502556 -952786602 1199479386 -965010639 -963482073 -951154184 -950389888 1179800837 1186263511 -961174019 1167822896 -952567390 -952358005 1196347233 -952190238 -953128980 -955204181 1196527489 1195940525 1199098480 -969644603 -963691926 -947360838 1190283759 -949601018 -953222522 -947406420 1195747009 1195511250 -955475204 -961540497 1191284639 1198330021 -980677521 -989587370 -952765728 1172023137 1187995898 -947566773 1199919809 1196914974 -958376223 -968891758 -973255051 -955718315 -947153420 -947367167 -963304942 -954074067 -982522855 1188204177 -967535522 -973693802 -959512009 -976033600 1196389401 1191407662 -946818783 -965373783 -948100908 1199915340 1199423496 1199017079 1192251999 1196518803 -949975917 1183046153 -983332639 1196621719 1183928794 -954054301 1196119984 1192073282 1183339286 1188480563 1193570870 -959159182 1195250935 1185842769 1193203596 1187380168 1196751759 -957855891 1199933694 1194144606 -961939169 -990961756 1197606213 -992966273 1186097297 1199677688 1166287267 -948285141 -956468422 -998922203 1153278361 1152026958 -953142799 1199400166 1199399632 1177962030 -946952390 -953640948 -947738150 -947329220 1192176937 1168391301 1196215206 -948790119 -970209888 1199778003 -957541190 1196250965 1200252927 -956800761 1176128092 -965059337 1200218702 1197541134 1192919369 1199804572 -947164464 1196852203 -963373818 1193945366 -959625241 1173819631 -952272024 1164614754 1192851828 1195171238 1198929520 1189018016 -954969840 1200192115 -954753657 -962588925 -957019114 1186956287 -947701321 1200501367 1176595537 1176839563 -951642761 1192240542 1199948226 1196506710 1191112910 -980245118 -968474121 1188061511 1194986088 1190511821 1198971890 -946800906 -956227994 -947009115 -947678043 -953928917 1165926308 -963475634 1199924953 1200329690 1164262245 -951304569 1192656437 1188416339 1150995830 1199796460 1198088677 1173726201 -956194559 1200133073 -953962806 -983781950 1177609911 -961978556 1178130449 -984210600 -964097546 -960060021 1200414672 1199793399 1199379307 -963174927 1191939055 -946995942 -962501813 1183128997 1191487667 -950201601
