2
784 128
-0.031183686 0.058996104 0.0031358004 -0.05730389 -0.074894235 0.01182837 0.06381079 -0.07342532 0.037085928 -0.044665847 0.0032843202 0.04839704 0.009430788 0.0086726695 0.051891603 -0.027365435 0.0025782809 0.025759988 0.0050530806 -0.038066458 -0.00011090189 -0.0066615045 -0.023918826 -0.027732205 -0.04618417 0.061402135 0.07779034 -0.02844401 0.04670904 -0.007117443 0.01698061 -0.015557259 -0.043339837 0.06260533 0.0118678585 -0.018921714 0.016524538 0.060871936 0.0114463195 0.062835835 -0.037643917 -0.03121838 0.013859704 0.059759 -0.025975902 -0.03830894 0.031823374 0.056010045 0.013889074 -0.057255387 0.05229316 0.005944729 0.0749379 -0.07807931 -0.044936735 0.019183636 -0.0019271225 -0.051318392 -0.026963353 -0.07573232 0.017430209 0.030230634 -0.059537306 -0.04921833 0.06672553 -0.050575376 -0.02434599 0.0011836812 -0.019627564 0.0532785 -0.00077018887 0.073481806 -0.01674927 0.0727965 0.004532896 0.044045635 0.047949098 -0.050201993 0.048688345 0.04298523 -0.037342858 0.05773773 -0.0073638856 -0.05875548 0.037327737 0.050008036 0.056989543 0.04431609 0.06560437 0.006522052 -0.046464425 0.06942379 0.058754556 -0.044321235 0.049033843 -0.030130852 -0.027687185 -0.04528119 -0.0747013 0.03232182 -0.04785794 -0.061473325 -0.0020480007 0.059254102 -0.031893402 0.05693824 0.07514561 0.01922983 -0.06922021 -0.05862162 -0.015761875 -0.012841441 0.05072076 0.04509703 0.03411922 -0.060451195 -0.005168602 -0.024653334 0.021560483 0.009499572 0.059381016 0.03000179 0.001808539 -0.010483831 -0.07084799 -0.028971769 -0.07184209 -0.05953116
-0.07098357 0.040860802 -0.034891378 -0.062509894 -0.06669952 0.072545 0.050112016 -0.06619881 0.054003097 0.016248815 -0.007644467 -0.06961784 0.047537662 0.038489968 0.008696623 0.0036129951 0.004472792 0.0004697293 -0.0019936264 -0.042192362 0.051847033 0.041370094 0.042699255 -0.0726228 -0.053346228 0.0036241114 0.06981576 -0.057815365 -0.048950225 -0.036680367 -0.04921201 0.04189256 0.01701188 0.061758406 0.07578599 -0.045729663 0.03292848 0.013062052 0.028852008 -0.07860356 -0.016772568 0.052615337 0.0055393204 -0.016054407 0.03412585 -0.011806339 -0.07856159 0.029414192 -0.031946525 -0.062536 0.004137546 0.060391165 -0.011841148 -0.034648586 -0.047462687 -0.037525855 -0.07144983 -0.03693277 0.01683341 0.029377393 -0.0016355589 0.0121300295 0.024172448 0.06214846 0.054029696 0.06133596 0.004804194 -0.03203701 -0.056135215 0.06316332 -0.031046733 -0.044644903 0.009429008 0.06915269 -0.06437471 0.067293026 0.019003652 0.05880899 -0.07089767 -0.048639983 -0.07559639 -0.016126983 0.023369558 0.036939554 -0.07889315 0.017178096 0.00014629215 -0.05214168 0.06648835 0.07879502 -0.0025654733 -0.035158385 -0.0545927 -0.04534516 0.075750805 -0.060895376 -0.052638117 0.05214449 0.008024469 -0.036759168 0.0340396 0.03671305 -0.009281322 -0.052173417 -0.025933743 0.06118571 0.05432246 0.049382515 -0.044481862 0.055209823 0.0074966475 0.012328014 0.054630198 -0.06923775 -0.0645673 0.046307184 -0.059540577 -0.0033195317 0.009536393 0.011326484 -0.02883296 -0.059631735 -0.009181112 0.07574337 0.06195674 -0.071085 -0.029677656 0.045222394
0.02645953 0.06632907 -0.061902266 -0.018369898 0.024904907 0.0733769 -0.029560275 0.068154015 0.07662357 0.027780972 -0.058209985 0.054039337 -0.058155373 -0.024035033 0.037818886 -0.016898118 0.010862552 -0.014189132 0.045838945 -0.03403417 -0.04864422 0.08060848 -0.018697158 -0.063749574 0.07365865 0.0013879463 -0.06409084 0.06376322 -0.00940226 -0.010714248 -0.07088539 -0.020865038 0.020810992 -0.022068366 0.023414932 0.01484549 -0.011711776 -0.044646505 -0.052219383 -0.06936039 0.05950793 0.07824878 -0.069304034 -0.054308172 -0.0764882 0.07004038 0.03577713 -0.06519705 0.031870157 0.06222082 -0.08075453 0.077351384 -0.033605557 -0.049761623 0.045454033 -0.005006239 0.0048402026 0.01883249 -0.03242565 0.049206145 0.030431814 -0.034439366 0.054722227 0.07717002 0.012738831 0.045041196 -0.08041467 -0.05024019 0.052031495 -0.035017136 -0.029591642 -0.039520387 -0.025551077 0.06637164 0.053481735 -0.0012520999 0.004272543 0.023937158 -0.024576891 0.07582901 -0.020415481 -0.07867561 0.045831166 0.03525591 -0.012572795 -0.05028484 -0.05003549 -0.07484437 0.0046757683 0.056280695 0.044187643 0.030513287 -0.021784574 -0.0099250525 -0.042392686 -0.026802592 -0.035356775 0.074949704 0.016980745 0.04310888 -0.06397479 -0.049845047 0.014692619 0.03566934 -0.037793014 -0.052548908 0.03892032 0.0025036335 -0.03538876 -0.008110195 -0.07722692 -0.053218268 0.028426975 0.026590474 -0.05068056 0.013310865 0.038222224 -0.04066742 0.07019516 -0.052942716 -0.01274655 -0.010919951 0.07806071 0.025622375 -0.04907639 -0.013179146 -0.044073667 0.0012596399
-0.012272105 -0.066822916 0.0786496 -0.015237361 0.035948798 0.010457262 0.04759828 -0.04443392 0.077205114 -0.0043453127 0.058142744 -0.020164877 0.008623682 -0.05863007 0.06714869 -0.074552625 -0.008926347 0.008924469 -0.05577597 -0.054144938 0.03462509 -0.048140492 0.048384808 0.0770954 -0.030631691 -0.06942469 0.012832351 0.06066131 -0.050770346 0.074714236 0.010907069 -0.033075843 0.04246012 0.06310619 0.0051367357 0.0515349 -0.017562196 -0.0037774667 -0.062073663 -0.026150912 -0.061141826 -0.07396372 0.04399184 0.015434958 -0.0631561 0.0105556175 -0.041333217 -0.07682607 0.026411377 0.026061334 -0.080425456 0.01984173 0.07393489 -0.012205988 0.06277374 -0.040274657 -0.022734355 -0.05947001 -0.07127389 0.0788405 0.035401173 0.0060407817 -0.02217308 -0.011729859 0.050016426 -0.029982217 -0.00096774846 0.07487873 -0.03619159 -0.076567136 -0.062924355 -0.039572332 0.026616193 0.064327516 0.08104647 -0.072236404 0.054589875 0.06881965 0.0465559 -0.072301745 -0.05814106 0.048713423 -0.040649183 0.019243523 0.035324812 0.074755274 0.035846516 0.032185934 -0.08048945 -0.0057768896 -0.028679647 0.016626738 -0.07384071 -0.03710774 0.02004616 0.03871847 -0.026632842 -0.056481853 0.03902465 0.051608436 0.0615632 -0.02805902 -0.050577678 0.06994159 -0.011425011 -0.06487491 0.013617955 -0.05942499 0.07266382 0.028608635 -0.06397142 0.049979784 -0.03755747 -0.056323163 -0.008417785 0.06519786 0.015948758 0.017930724 0.032006763 -0.0077479705 0.05659721 0.031957567 -0.0145333335 -0.046851188 0.013370924 -0.045845307 -0.07378708 -0.011185929
-0.004725799 0.055898823 0.043803997 -0.05124321 -0.0208942 0.0020639375 0.048091702 0.03381197 -0.05508039 0.07185205 0.018693872 0.04007913 0.01292102 -0.018797718 -0.0063893944 0.042892136 -0.07177642 -0.07278122 -0.0027641356 -0.07068466 0.061029755 0.069031276 0.07323579 0.07203939 -0.058022536 -0.008359171 0.07030297 -0.047476474 0.05578821 -0.017879687 -0.00945548 -0.02991312 -0.06346059 0.06998468 -0.023145739 0.07624159 -0.05355396 0.02504573 0.02753035 -0.046876524 0.01782345 -0.01395148 0.03500422 0.06661797 0.02155859 0.079280145 0.03275148 -0.053008966 0.026868269 -0.059241083 0.037225686 -0.017611876 0.07202525 -0.058967233 0.08056364 0.058762617 -0.033714198 0.0062080026 -0.04491407 -0.008570924 -0.07450136 0.0176216 0.046605535 0.038360693 -0.06941485 0.025282986 -0.05076992 0.05680581 0.015708521 -0.030970499 -0.079239845 0.0716371 0.026487477 0.035684116 -0.013890818 0.076354645 -0.0077985376 0.008317478 -0.005980566 0.006283343 -0.059219986 0.042718768 0.0012882575 0.038823843 -0.032763567 0.0062670037 -0.0801197 -0.016092405 -0.024337038 0.057512917 0.024527557 -0.06377698 0.06612351 -0.06653758 0.012322672 0.015457489 -0.0014901906 0.050334968 -0.06573953 -0.041174375 0.035286225 -0.0022334605 0.008808129 0.03162104 0.067994855 -0.010074966 -0.014538318 0.04730115 -0.015174881 -0.047232773 0.0012721121 -0.068527296 0.044691347 0.022451028 0.023069568 -0.07105081 0.07641635 0.01895865 -0.06389019 -0.051633492 -0.005009815 -0.078275174 -0.06358063 0.036529295 0.048736505 0.0061308816 0.03916292 -0.041768502
0.038230643 0.0016627833 0.07965083 -0.016297974 0.018800192 0.070409335 -0.06289138 0.078549035 0.026816346 -0.016602121 0.050871335 0.0024095327 -0.042129435 -0.016842522 -0.0014755726 -0.06929261 0.055833228 0.04236412 0.061361037 0.01869116 -0.0057116076 -0.024716008 -0.07879071 -0.030041005 0.059018962 0.04487901 0.026733771 -0.04401921 0.009544782 0.009970456 -0.02303619 -0.030602802 0.065887295 -0.020468023 0.04761266 -0.06924376 -0.07319881 0.016609378 -0.037246358 0.037065737 -0.07143485 0.051654287 0.04482364 -0.02146563 -0.061888166 -0.012813613 -0.06872722 -0.014618456 -0.047103845 0.054216407 0.022185132 0.048663788 -0.05281918 -0.017189115 -0.017575905 0.02313497 -0.028844427 0.034391835 0.01825472 0.016116753 0.039354347 0.016824245 0.026327513 -0.010441035 -0.03814327 0.041259326 0.012489833 -0.07903905 0.0067436323 0.051713325 0.0070698336 0.07471918 -0.0077062324 -0.025791585 -0.038617115 0.036101647 -0.012944169 -0.027599465 -0.023564916 -0.0030206218 -0.013970681 -0.070567004 -0.023527555 -0.07371096 0.022016056 0.06451144 -0.0513556 0.020783857 0.02447629 0.023113139 0.056497596 -0.059414934 0.007383615 0.05914391 0.00030923635 -0.005802922 -0.028369635 0.048397772 0.044165425 -0.04427028 -0.06566898 -0.029109925 -0.012749858 -0.045127664 -0.07520833 0.067285664 -0.02978301 0.07869545 0.05298663 -0.0077019036 -0.07374626 -0.070515215 -0.039609324 0.06623348 0.022188589 0.061076365 -0.005959332 0.037719935 -0.014800996 -0.004497975 0.021512523 -0.022387892 -0.08001471 0.043018803 0.004043676 -0.05089709 0.07326379 -0.03111513
-0.05715228 -0.077524655 -0.021294251 -0.025695264 0.002198182 0.009932518 -0.027299955 -0.0811033 -0.054199163 0.0016475096 -0.053214863 -0.044179197 0.05882854 -0.04778268 0.0385883 -0.010064967 0.041698188 -0.031929757 0.030166104 -0.00090702623 -0.06411855 0.04689137 0.037217446 0.02145385 -0.07872649 0.0016047508 -0.011676043 -0.07277478 -0.045457613 -0.0079028085 -0.008540183 0.057004027 -0.036157206 -0.01901069 -0.062286653 -0.02969212 0.0193021 -0.08047786 0.080340914 -0.028485585 -0.07368471 -0.012262069 -0.07000789 0.022705697 -0.010318898 0.06467109 0.0019308925 -0.004722759 0.06369945 0.013677359 -0.03270799 -0.009025648 0.06859144 -0.06961753 0.0354103 0.01420673 -0.03562262 0.039277226 -0.020285916 0.051888935 0.013129778 -0.0035840273 -0.02820551 -0.027807914 0.000963375 0.03906381 0.052787684 0.0034108534 0.054182015 -0.060459647 0.063410245 -0.06373219 -0.050279908 0.017245859 -0.040797777 -0.04176009 -0.024136208 -0.0024203062 -0.06414601 -0.026499137 0.047879852 0.07717963 0.075078 0.028522022 0.0470028 0.048509113 0.053257816 -0.007183112 0.055385478 0.0019053817 -0.07814646 -0.051117003 -0.05554565 0.031092525 0.04193023 0.06521068 -0.014619462 0.013644196 0.04764787 -0.072872266 -0.009888485 -0.07019594 0.058694564 0.071157135 -0.06269421 0.056196265 0.030979842 -0.013946354 -0.06794073 0.045064338 0.013103165 -0.06259715 0.08066564 -0.058597233 -0.070509106 0.022922695 -0.053473726 -0.010439105 0.036571816 0.042668022 -0.001970455 0.051088132 0.003780581 -0.043354012 0.0076210275 -0.030708581 0.022153318 0.060842104
0.028333738 0.066886924 -0.052250773 0.06344669 0.075722225 -0.064330496 -0.05426824 -0.019831736 0.047849335 -0.0753192 0.015878424 0.023197532 0.077193506 0.07740881 0.023792706 -0.010622472 -0.026024748 -0.04682597 -0.03005075 -0.059969753 -0.009422354 -0.008581601 0.0067609996 0.01625061 -0.046367537 -0.07718175 -0.006157182 -0.052765306 0.02158717 0.048120134 0.029758453 0.0021343902 0.008706197 0.057357274 0.027099453 0.014289476 0.010989994 -0.01791475 0.08021165 0.0791455 0.07974314 -0.0553952 0.06778794 -0.05758064 -0.030135125 0.016125783 0.030535527 -0.02624911 0.05452936 0.023973227 0.008041486 0.06702071 -0.042196073 -0.062677056 0.034752645 -0.01872696 0.040896 0.01086884 0.03789369 0.032723576 -0.0027512014 0.01294709 -0.0006428659 0.032598086 0.05040925 -0.05508447 -0.0381353 -0.050310135 0.035983935 -0.029942341 -0.06143739 -0.05962462 0.06401812 -0.031008016 0.017411299 0.046683423 0.018506445 0.06820356 -0.037704077 -0.05178286 0.006425515 -0.064661786 -0.07739779 -0.07169872 -0.066920765 0.07839737 0.013999075 0.03257353 0.036901034 -0.07150845 0.03592658 -0.057084575 0.065151356 0.016988061 -0.021807529 0.012519091 0.05445122 -0.078129925 0.0780872 -0.054694764 0.0520555 -0.054707102 0.07574805 0.015717454 0.06984801 0.06268106 -0.057520866 0.057621352 -0.025485791 -0.010155797 0.007448107 0.00349994 0.07655283 0.0051646978 -0.0046868324 -0.06535202 -0.033466496 0.020090617 -0.06346476 -0.066651754 -0.07442188 -0.043447204 -0.009736873 0.005361177 0.079345725 -0.02759467 -0.0055268854 0.016149685
-0.00016281009 0.03404291 -0.07336504 0.008414656 -0.06993885 0.017028898 -0.0036807358 -0.00057689846 -0.048646826 -0.046944786 0.0060214475 0.033945233 -0.013090171 0.04376389 -0.06263979 -0.05704021 -0.029450975 -0.06452574 -0.04460698 -0.01805909 0.061126612 -0.009679422 0.01083535 0.057047658 -0.051025227 -0.071560144 -0.0002156198 0.05801765 0.07864361 0.07374769 -0.06265524 0.062689476 0.013804354 -0.057998948 0.02652207 -0.06574107 0.04111725 -0.02873037 0.00083143264 -0.06525208 0.028099902 0.036079586 -0.045695473 -0.00501626 -0.015363082 0.013275512 0.005737327 0.015364513 -0.06707232 0.08020566 -0.013345711 -0.07232194 0.04518152 -0.006105371 -0.010214858 -0.0745546 -0.076779395 0.022642441 -0.057203814 0.060466133 0.015010774 -0.002118662 0.035918072 0.02537094 -0.01615125 0.029289052 0.016871333 -0.055895615 0.033557773 -0.038670506 0.03259339 -0.07678189 0.054196782 0.019267075 -0.020325616 -0.07916224 0.060401596 0.07477976 -0.027968965 -0.064380005 0.07582336 -0.0017087162 0.07599165 -0.051008962 -0.051740684 0.047616072 0.058935247 -0.075941235 -0.060396858 -0.049089134 -0.07500272 -0.0785054 -0.0035325289 -0.05607374 -0.07248121 0.062417857 -0.06891758 0.07560163 -0.03523175 -0.041201465 0.023236416 0.055087335 -0.045455467 0.012357235 -0.069948986 -0.049691677 0.0075797066 -0.032935366 0.014155962 -0.07613848 -0.0014189482 0.07163564 0.0014809296 -0.07030979 0.07262916 0.0029313788 0.06776548 -0.034800336 0.07552672 -0.041231092 0.06477425 -0.028173774 -0.079154156 -0.01882574 -0.046024457 0.008286923 0.074279375 0.021366946
-0.07550519 -0.006425634 0.07129028 0.013239674 -0.011697948 -0.023662478 0.06966553 0.035113595 -0.06941353 0.028021276 -0.013106532 -0.021282185 0.024402283 0.046875723 -0.0034549385 -0.00847625 0.012474149 0.021605387 -0.0006887689 0.063072644 -0.023515258 -0.07451743 0.06487655 0.0064454153 -0.03164438 0.03232333 0.00087157637 0.03287793 -0.030986976 -0.08103997 0.016332313 -0.052379545 -0.017689593 0.04464913 0.003820978 -0.05835007 0.045972593 -0.076975755 0.06038419 0.05103501 0.0703929 0.05996505 0.023459658 0.034006283 0.036727414 -0.019250814 -0.039092295 -0.05169874 -0.06366609 0.049374186 -0.05582389 -0.06774042 0.016399689 -0.07084605 0.027865 -0.012825005 0.003014937 -0.015383311 0.06551824 0.053795867 -0.046408866 -0.049678024 -0.033699732 0.06284735 0.073291786 0.04931874 0.07066924 0.00801298 -0.016535275 0.059099235 -0.01987318 -0.06765988 -0.043332797 0.05707947 0.0011797324 0.028221793 -0.042018414 -0.03138051 0.072703205 0.056889676 0.031667627 0.043410517 -0.011997968 -0.0034776852 0.060424216 0.036691353 0.006241724 -0.0803108 -0.07086973 -0.03677843 0.06538326 -0.02323259 0.036168464 -0.017500542 -0.052983228 0.015603878 -0.023882799 -0.044994578 -0.040319525 0.047630586 -0.045369353 0.02204363 -0.0748205 -0.02969775 0.065954514 -0.02024161 0.05143077 -0.035840888 0.019768208 -0.056345038 0.05305288 -0.024792492 0.075467445 -0.07755418 -0.0718009 0.008836731 -0.051893476 0.020501614 0.072925575 -0.016628698 0.08079047 -0.04038655 -0.032874357 0.04922671 -0.04465169 -0.008866459 -0.063976005 -0.012933396
0.06878788 0.038440555 -0.06582469 0.06337725 0.053180657 -0.046838466 0.0039116517 0.06688128 0.041443735 0.07741941 -0.009009562 -0.06990208 0.03990729 -0.074099064 -0.019273825 -0.052952014 -0.009283058 -0.059698455 -0.07447119 -0.07638532 0.07920552 -0.03442792 0.05695311 0.039890446 0.043370992 -0.0049475282 0.03644231 0.04645779 -0.02665539 0.07402817 -0.052682906 -0.02732347 0.02784139 0.012962773 -0.04553348 -0.032648776 -0.0167775 -0.06868568 -0.026256867 -0.07028961 -0.042120926 0.01984436 -0.0778887 0.07656715 -0.012577206 -0.018431932 0.07543335 0.04339339 0.04819595 -0.062239967 0.05225677 0.030414991 0.006085299 -0.05926574 0.054616965 0.0706271 -0.046279646 -0.035664465 0.0130580515 0.029519275 -0.02519032 -0.015393347 0.044727586 0.073698305 0.047750227 0.05966694 -0.03000049 0.053852893 -0.0065264255 0.015043072 -0.055896427 0.04387553 -0.008154243 -0.011144839 -0.0607965 0.00701762 0.036995016 0.06912092 0.042891398 -0.078090765 -0.03240964 -0.0051204935 -0.023986433 0.024843797 0.03912376 -0.08070557 -0.07329576 -0.027689256 0.014022082 0.04075133 -0.058611117 -0.07458536 0.05104547 -0.06745855 0.048318632 -0.043692354 0.07169273 -0.002923429 -0.038298342 -0.05492288 -0.060778208 -0.013487846 0.020444274 0.047470115 -0.06351614 0.066791154 -0.0029470995 -0.06300561 -0.042229682 -0.05826094 0.045149677 -0.07620936 0.053011037 -0.058773153 -0.07382104 0.07206125 0.011574902 -0.03872369 0.034837835 -0.042771447 -0.009941876 0.06904263 -0.020792171 0.0057633743 0.026115507 0.05625806 0.08082353 0.027621903
-0.054906055 0.04727616 0.005128011 0.06463974 -0.012929663 -0.012986228 -0.048779584 0.07323704 -0.07543322 0.039735466 -0.077515006 -0.026411302 0.04212419 -0.019599233 0.033097036 -0.03646958 -0.00866735 0.023127347 0.022511505 0.013348438 0.024780288 -0.0014358088 -0.017380938 -0.080972806 0.056098454 0.008377969 -0.0648436 0.01326441 0.04538838 0.06030739 0.05829843 0.04956568 0.007894456 -0.05105731 -0.032692827 0.025866136 -0.0660114 0.021450102 -0.07354467 0.06623299 0.024399422 -0.053555913 -0.0021069273 0.00034542382 0.029964462 0.014185898 0.07624445 0.02348511 -0.0082507655 -0.013512462 -0.06843501 0.04338915 0.06537465 -0.031941283 0.03313169 0.009065367 0.057898708 0.035155386 0.07256148 0.058249168 0.06754797 0.07417501 0.06298042 -0.016398586 -0.03720509 -0.049358573 -0.068641625 -0.04018199 0.0017752945 0.0016201437 0.042581216 -0.051383562 0.0027091429 -0.059297472 0.05946339 0.026930206 0.0023938268 -0.046510875 -0.05416631 0.04779347 -0.030306771 0.007233374 -0.065594934 -0.057051737 0.0069365352 0.033600934 -0.050516106 -0.06803136 -0.0054722354 0.029256374 0.041949667 -0.029783301 -0.009048432 0.0014563873 0.07401613 0.07378494 0.07399095 -0.054051958 0.06640283 0.04970432 -0.059417717 -0.010170922 -0.06595836 -0.030928846 0.039310507 -0.025673274 -0.0056919158 -0.058566853 0.05789926 0.0522623 0.037546724 -0.024307895 0.065690644 0.052633367 0.06643223 -0.06872996 0.00093691796 -0.051963713 -0.05098363 0.073313154 -0.06118607 0.060886584 -0.026545722 0.020886004 -0.025149498 -0.05264108 0.021160029 -0.06042708
0.020547949 -0.043419473 -0.05816119 -0.0025663674 0.02449302 0.043311626 -0.041899152 -0.019449651 -0.04609517 0.012558216 -0.022451336 -0.00085799844 -0.03801937 0.037848555 0.0029478082 -0.033254102 0.024360212 0.09540826 -0.08861642 0.042829964 0.08567937 -0.046829548 -0.01531608 0.0718405 0.060693942 0.10311169 -0.069253415 -0.06491167 0.07658732 0.07927859 0.068574004 -0.069603994 -0.012549028 0.025405109 -0.00095482916 0.031168114 -0.0016507138 0.010565728 -0.06517247 0.010617841 -0.025805034 0.065610096 -0.027883776 -0.047602203 0.04732024 0.029561915 -0.0695488 -0.012898126 0.04365366 0.017268283 0.047685355 -0.06338393 -0.0882286 -0.010560155 0.015786503 0.0530537 0.07964386 0.11659018 0.008937611 -0.020580275 0.02685521 0.022184841 -0.019814048 -0.04959198 0.06613278 0.07871384 0.07955904 -0.035016395 0.056245252 -0.035293 0.027169222 0.016127385 0.074698724 -0.0471045 -0.05551648 0.012779072 -0.042285353 -0.0026659875 0.055579826 0.047492392 0.042020068 0.055705715 -0.021730002 0.014230455 0.026548818 0.004323471 -0.030709393 0.028303958 0.061127916 -0.05466284 0.025807783 0.019556811 0.011624362 -0.013500584 0.021688566 -0.014140885 -0.04457146 0.08225723 -0.07147379 0.047575153 -0.053852323 -0.057762723 0.07548977 -0.028010987 0.019482011 0.035922498 0.0109688165 -0.09287772 0.023427296 0.0733314 0.081845604 -0.053406592 0.009472676 -0.04977864 0.0043869843 -0.03916398 -0.009854659 0.08780758 0.051671524 -0.019382307 0.09342652 -0.0223315 0.04086674 -0.0036884323 -0.049054544 0.03608258 0.09709046 -0.03956721
0.012953333 0.013558939 -0.043524537 0.0044036433 -0.0095129805 -0.001151152 -0.07068089 -0.06869904 -0.056012042 -0.047104664 -0.025188383 0.013070072 -0.023777485 -0.03848403 0.020996861 -0.027481716 0.018439673 -0.018362952 0.037265785 -0.03669567 -0.04748043 0.03766971 -0.028478429 -0.0045595146 0.06612096 0.10301414 -0.061349455 0.06706623 0.056303103 0.050153673 0.04316779 -0.0443651 -0.068475485 0.043278538 -0.042515814 0.0601352 -0.022309849 0.04628717 -0.09210395 -0.04407002 -0.069468476 0.03646617 -0.0642936 -0.054707725 -0.03834893 0.028028756 -0.03994287 0.028538294 -0.0013259277 -0.008894979 0.03505692 0.038428277 -0.01091514 -0.047122292 0.04485032 0.022643253 0.0026798253 0.03477382 0.048237566 0.028906275 0.059433147 0.008247204 0.024031501 -0.05293353 -0.0098626 -0.057813335 0.061517306 -0.0035277037 0.065218695 -0.03219306 -0.035453588 -0.036799517 0.05848592 -0.06751349 -0.026937518 -0.08709733 0.038607758 0.025600955 -0.03814178 -0.030662803 -0.028051993 0.035516765 -0.010563378 0.0398331 0.05824747 -0.07393437 -0.07167509 0.026120767 0.03315078 -0.0015688986 0.007393293 0.028639944 -0.03591974 -0.02728399 -0.043356616 -0.048410136 0.06130513 -0.010576786 -0.004897463 0.047230206 -0.009506122 0.051464073 0.0836045 0.0214466 0.05235948 0.0007680967 0.07742026 -0.040731814 0.07752143 0.017474242 -0.055907976 0.044182964 0.01654432 -0.046644945 0.0027639358 -0.06716906 -0.033033933 0.05899098 -0.045012847 0.065324046 -0.00074821746 -0.038238864 0.035950013 -0.0064515844 0.028523276 -0.068056464 -0.023134258 0.0004844153
-0.030401891 -0.026662497 0.022025108 0.010913804 0.0050131083 0.066060536 0.044740938 -0.0031297505 0.086115725 0.097341806 -0.043111123 0.0483573 0.00083354115 0.06976529 0.07207029 0.04375849 0.009487097 0.106172465 0.066282175 -0.012423389 0.09699282 -0.015306033 -0.052217178 0.0046015363 -0.07087356 0.03593156 -0.038954664 0.07944367 0.109551296 0.1186175 0.020417377 -0.06233531 -0.01794041 0.06963221 -0.050464474 -0.014076637 -0.048832092 0.07600991 -0.051255353 0.00436142 0.063968785 0.08874302 0.089013785 0.022664115 0.058590136 0.03912113 -0.049665898 -0.03657182 -0.039194614 0.027228985 0.054721273 -0.046147045 -0.056853082 0.04083543 0.07691952 0.02842214 -0.0656116 0.06655667 0.0790199 0.022253796 -0.030309886 -0.06199505 0.006421546 0.037292782 0.0048169745 0.0034048334 0.025565527 -0.042961232 0.071513645 -0.07878652 0.054538023 -0.018424936 0.036519058 0.07171144 0.09788887 0.025311358 0.004127243 0.033105046 -0.024450306 -0.03670361 0.0017411626 0.0023766647 0.017187858 0.10703776 -0.062427975 0.042799212 -0.02377814 -0.059713848 0.08145078 0.043180585 0.019087076 -0.04613395 0.058194116 -0.026212588 -0.0043292497 0.085964784 0.09271647 -0.08624173 -0.045868393 -0.07617797 -0.09568979 0.0008337215 0.091952294 0.05399079 -0.055407226 0.014473039 -0.07680838 0.07642499 -0.015579695 0.06224995 -0.009603438 -0.015442945 -0.055656344 0.026186727 -0.029426374 -0.07844949 0.005380884 0.060713395 -0.027978608 0.069535516 -0.027673185 0.018681495 0.053300165 0.006959796 -0.0476783 -0.07890266 0.082782805 -0.018313173
0.029111935 -0.07679242 -0.0131924525 0.08010877 -0.07931762 -0.019815318 0.057386853 0.06298997 -0.005183575 0.089842685 -0.009567738 0.03331937 0.031969324 0.07758214 0.083634146 0.026774421 0.017077046 0.023403062 0.06496276 -0.0443913 -0.05616777 0.030087568 0.05325512 0.040055905 0.049022503 -0.01094691 -0.032455757 0.012958862 0.057975195 0.012714502 -0.07335363 -0.04025441 -0.06481622 -0.015091747 0.032211863 -0.049394503 -0.014483666 -0.05063829 0.054110445 0.024815815 0.053138476 -0.032271814 -0.044797707 0.056640636 -0.06363563 -0.04346279 0.054427825 0.02160088 -0.039145283 -0.035066854 -0.06526007 -0.042086057 0.011615299 0.075630344 0.015707538 0.022802353 -0.060143024 -0.05360242 0.0166625 0.04820008 0.057181273 -0.024272274 -0.0738751 -0.016024286 -0.007844728 0.00893414 -0.026947023 0.039298866 0.07584413 0.022652749 0.07809122 0.060773782 0.006638278 0.029391587 -0.045348037 0.006437838 0.0054338924 0.002781041 0.08727853 0.03914921 -0.038262557 0.023688352 0.023828473 -0.025575269 -0.041661505 -0.060534824 -0.010490507 0.012898706 -0.056072704 0.03713963 0.07640316 0.0018440284 -0.0045520244 0.07399357 -0.0065772403 0.021050246 -0.008343017 0.026660375 0.0396324 0.011052474 0.035243455 0.027746009 -0.00591075 -0.005829759 -0.03359788 0.051373657 -0.04580077 0.058644213 -0.024731033 0.005388774 -0.076621525 0.015323065 0.028399244 0.013682425 0.001063861 -0.06593869 0.032314047 -0.071214475 0.062491678 0.010557085 -0.010667362 0.08468774 -0.03925702 -0.009964272 0.01835317 -0.014867924 0.030875834 -0.05001437
-0.04999898 -0.07604489 0.0053717718 -0.00045957416 0.032265782 0.029521845 0.010764301 0.05322858 -0.004455507 -0.027798612 -0.069232374 -0.061535552 -0.019370575 -0.08067571 -0.046674687 0.070242666 0.020262651 -0.057483774 0.055443607 0.03802859 -0.072370335 0.010237828 -0.021367274 -0.011862941 -0.045533787 0.020225465 -0.0577261 -0.04979556 0.00097447634 -0.051198766 -0.0491427 0.065836914 0.0770802 0.05799962 0.047363155 0.06339405 0.073800586 0.0002727285 0.022297196 0.07421947 -0.06045129 -0.0070331246 0.039951146 0.061664514 0.053903364 -0.05111857 0.067059524 -0.06972424 -0.016596667 -0.033018503 -0.013105951 -0.08043799 -0.07805415 0.023570739 0.027541935 -0.06829785 0.057186313 -0.019739628 0.06986093 0.026814736 -0.058071636 0.032471865 0.04910942 -0.021744698 -0.011892572 -0.06297386 -0.0741845 -0.06869049 0.0036603138 0.0028390363 0.004520461 -0.050157614 -0.04093982 -0.015022904 0.0007893145 0.03142696 -0.04666993 -0.07129996 0.007605195 -0.04272047 0.013605244 -0.012147777 0.042139724 0.04298169 0.07406319 0.02463469 0.04116966 -0.02895106 0.0684484 0.07722617 0.04225322 -0.04283149 -0.073903225 0.04136551 -0.015434377 -0.066918775 0.017950855 0.03960269 -0.062451355 0.011998586 0.06981862 0.030794524 -0.026115369 0.0444114 -0.023550898 0.06900663 0.0135095045 -0.0062244385 -0.06993312 -0.017020546 -0.05046749 0.020254023 0.045090027 0.05997155 -0.011582233 0.01463066 -0.02059738 0.031909354 -0.03324412 -0.033105526 0.015012011 -0.04475132 -0.060769968 0.03818293 0.07727162 0.0009927675 -0.033583608 -0.067307085
-0.030033559 0.042756982 0.02597586 0.034402177 0.028263293 -0.046999764 -0.044480506 -0.036325663 0.04587906 -0.037031528 0.05031108 -0.056931295 -0.0193167 0.013944015 -0.020876776 -0.06765079 0.059208833 -0.073600315 0.035789467 -0.060523152 0.054973133 0.019684263 -0.005824022 0.042115726 -0.02414675 0.07930841 0.07540991 -0.028739847 -0.014093712 -0.059409752 -0.02822183 -0.058434926 0.06704577 -0.012694858 0.06037662 0.057888813 0.025052436 0.017218515 -0.016963676 -0.014008045 -0.0019549057 0.03275156 0.028334461 0.069792025 0.0017201975 -0.052829973 0.05889634 -0.080025636 -0.025510758 0.06430157 -0.05728927 0.068843715 -0.07159567 0.043496266 -0.010436647 0.03204944 0.026200376 0.011583388 -0.00924547 0.06736121 0.020460345 -0.06529318 0.019500434 0.014455475 -0.05649667 0.032169476 0.022150569 -0.03963468 0.048176832 -0.07143328 0.06554603 -0.02204686 0.07296132 -0.047542263 -0.048545573 0.050618775 0.04576329 0.034387633 -0.05788011 -0.036511097 0.06777192 0.03636109 0.07409286 -0.033657055 -0.060697004 -0.07851303 0.0040493235 0.0211993 0.06796376 -0.055993255 0.048983894 -0.0008413866 -0.07843253 0.058460854 0.025551885 -0.0035727918 0.077340476 -0.07804071 0.00871291 0.08038654 0.06553624 0.079444505 -0.061592855 0.061557062 0.057881497 -0.019505188 -0.08024099 0.04088159 0.016783327 0.001228042 -0.023061097 0.06300198 -0.057871815 -0.025393412 -0.0046335757 0.015610568 -0.03814621 0.069052406 -0.010252953 -0.025784723 -0.050213672 0.07229919 0.08016112 -0.044592727 0.0007587224 -0.06994953 0.078993835 -0.0068703964
-0.024269778 -0.026973449 -0.04614426 0.030194879 -0.07020163 0.01295235 0.043242373 -0.040716268 0.025613613 0.008825578 -0.037348986 -0.032700542 -0.0093212575 -0.018225186 -0.004754454 -0.016102597 -0.060709693 -0.050624207 0.071181394 0.06180767 -0.04715366 -0.0766779 -0.026793737 -0.05927212 0.027034089 -0.05958563 0.0667154 0.02618727 0.0724558 0.07328836 0.010434866 0.06413976 -0.05696866 -0.020848565 0.04428587 0.028448261 0.02864696 -0.03849169 -0.0502474 0.009234965 -0.029673576 0.045716517 0.07753243 -0.048087563 -0.005930379 -0.022974674 0.052798934 -0.019015756 0.0077891573 0.030961916 0.072543316 0.03376572 -0.041079037 -0.034824353 -0.033583414 0.0005379692 0.0020239055 -0.007293597 0.070318036 0.039648674 -0.008914411 0.04647907 0.076551594 -0.038473547 0.033018 -0.031942677 0.020321615 -0.01950223 0.013211794 -0.022371434 -0.036760524 -0.03870969 -0.018163152 -0.046915915 0.005002722 0.024245761 -0.072240114 0.07969869 -0.06982639 0.060815804 -0.040775348 -0.038261212 -0.011181153 0.05848027 -0.05615858 -0.044933274 -0.07865147 -0.0021488145 -0.041796833 0.030277744 -0.027288623 0.07358696 -0.056342468 0.0053354204 -0.03312972 -0.025845405 -0.043203503 -0.071903475 -0.06323804 -0.07600135 -0.07284782 0.062207945 0.0154593885 0.054670714 -0.010159202 0.05130043 -0.0036873668 0.0774984 0.050411083 -0.015176445 -0.08076554 0.0076663047 0.058238275 -0.025068779 -0.05349732 -0.078012966 0.008714028 0.05123835 -0.00893414 -0.071446374 -0.05712404 -0.044896163 0.048056103 0.04920458 0.06651773 -0.047534972 -0.048422348 0.04170049
-0.06914214 0.042795926 -0.06647879 -0.0042972043 -0.056578007 -0.056827627 0.022776105 0.024281457 -0.03331606 0.039360404 -0.05626581 0.08086469 -0.048641086 0.049450643 0.08008378 -0.07107409 0.07544907 -0.018471844 0.0032350495 -0.045300238 -0.024525762 -0.06034559 -0.023921128 0.063715346 -0.07300467 0.011084735 0.048882537 0.0808518 0.029306963 -0.03405498 -0.013309799 0.052466027 0.067639895 -0.06379719 -0.022477042 0.07261259 0.010182813 0.0065703243 0.029641517 -0.019554794 -0.06996044 -0.0726179 0.074962 -0.061956994 0.0064211637 -0.071906954 -0.05791962 -0.041637585 0.02963283 -0.0076691657 0.024916045 -0.029083915 -0.01763133 0.061000206 -0.037656892 0.035233065 0.054306217 0.048314326 0.078189544 -0.06785111 -0.080943815 0.032523558 0.07671999 0.07019728 -0.012032621 -0.0030264854 -0.055499665 0.012260869 -0.02172188 0.018820748 0.012932219 0.032853723 0.06630755 0.02252777 -0.028336026 0.06831614 -0.056637548 0.03709399 0.04790383 0.061438255 0.03519822 -0.02842382 0.06744283 0.047665663 0.055810936 -0.048670325 0.05071672 -0.0061687827 0.045126565 0.015965372 -0.053665735 -0.032973155 -0.0035740435 -0.032390974 0.009824611 0.0045442134 0.0065356717 0.03838983 -0.011830069 0.022331752 0.06678117 -0.03161907 -0.05373133 0.036233783 0.044987537 -0.029115938 -0.031558074 0.033564925 0.008620359 -0.055511944 -0.060218826 0.06446368 0.011128709 -0.0805808 -0.045049556 0.07936061 -0.026826844 0.03953234 -0.07975169 0.057918154 -0.057984963 -0.05471182 0.033747345 -0.055399705 -0.077576846 -0.07920807 0.045112915 0.07718473
-0.07544617 0.0037113652 0.065744095 0.07392993 -0.048093636 -0.048439868 0.071174406 0.032698646 -0.07685915 -0.04475107 -0.043257494 0.038884677 -0.058907825 -0.055925936 -0.06533988 0.043460853 -0.04922802 -0.016843155 0.07440574 -0.027333315 0.069171496 0.034070916 -0.054428533 0.020651467 0.012906559 0.041296147 -0.077025704 -0.017804444 0.07810538 0.012132615 0.051063396 -0.07198131 0.029511191 -0.001554586 0.03207437 -0.062319044 -0.035330106 0.039828256 -0.015165523 0.059723847 0.07083709 -0.016280293 0.06569827 -0.04572185 0.07397162 0.036816254 0.032824963 0.06875657 -0.038314413 0.015279613 0.011475116 0.05722644 -0.0026859194 0.0738221 -0.06309004 -0.013220742 -0.028821163 -0.07189636 0.059365176 -0.021238443 0.07145583 0.024556644 -0.05552925 0.06937597 -0.05214294 -0.04012444 -0.052250944 0.06660297 0.00861229 0.03373541 0.045512997 0.0045088828 0.008255422 -0.021359015 -0.0072115213 -0.07418396 0.04126901 0.010589786 -0.0713853 -1.6070902e-05 -0.0121510625 0.021623798 0.036955647 0.020086147 0.0031178147 -0.039067775 -0.047275413 0.036675185 -0.03316263 0.039678574 -0.05991038 -0.041794263 -0.06239479 -0.02931872 0.021839283 -0.03472236 -0.042652514 -0.026226234 -0.03223511 0.04385116 0.07777507 -0.013729036 0.025994003 0.052748017 -0.008519158 -0.0006487593 -0.029391661 0.033401825 -0.07480648 0.062346272 -0.015827335 -0.0043690056 0.063171454 -0.06257719 0.06211003 -0.030802354 0.063745685 0.042465977 0.0594038 0.066720404 -0.026440408 -0.030086488 -0.062623195 -0.029605854 -0.034966875 0.00718762 -0.07972108 -0.009473696
-0.06183201 0.07388554 0.055875234 -0.002615586 -0.04282596 -0.066653185 0.05684983 -0.041568507 -0.0055654272 0.015131488 -0.039393414 -0.024821367 -0.020089533 0.038135283 0.006203614 -0.006640345 0.07396252 -0.014632173 -0.016888216 0.07599608 -0.026574403 -0.012237139 -0.0069887266 0.025100552 0.017120875 -0.024447866 -0.016157985 -0.052381344 0.028611712 0.029810824 -0.0757585 0.05788792 0.02558598 -0.043628383 -0.010906279 -9.961426e-06 0.0285893 0.04755143 0.032483064 0.080238335 0.02211824 -0.07233858 0.056739695 -0.059784934 0.07810385 -0.05365079 0.04407049 0.0794742 -0.0515567 -0.04352506 0.008312702 0.019964129 0.060981788 -0.04812711 -0.06957572 -0.030487102 -0.032924384 -0.006780818 0.021162502 -0.020488717 -0.065609574 0.06395549 0.008272558 0.052610166 0.03181736 0.0042216703 0.007468745 0.032766677 0.0282012 -0.022636022 -0.07480658 -0.0063873455 0.06339798 -0.05283206 0.05217933 0.004585363 0.070235275 -0.013575584 0.06718982 -0.002527982 -0.028522618 0.076173685 0.031284146 -0.022052448 0.038439147 0.021978773 -0.030785665 0.0465213 -0.07254742 0.052813984 0.05561448 0.038970232 0.013506278 -0.07818821 -0.07746797 0.052466042 -0.06244656 0.07091745 -0.032101247 0.048211984 0.062087752 -0.0112274885 0.025779463 0.065977566 0.01578021 0.0673079 -0.049255636 0.078231774 0.053332113 -0.014178105 -0.045903612 0.056281663 0.07889407 -0.01681871 0.07387509 -0.06288705 0.029003367 -0.042453293 -0.030523688 0.03606744 -0.06936292 -0.062231652 0.00768508 -0.07709807 -0.064661935 0.04728409 -0.052887715 0.048732586
0.074223466 0.06779482 -0.037158407 -0.010377303 0.051258914 -0.01920328 0.051866032 0.071677394 -0.0806251 -0.060736768 -0.053322945 -0.0032596812 -0.027301077 -0.0042357817 0.06844165 0.0056714565 0.05568432 -0.032189548 0.048741437 -0.07394177 0.02635242 -0.041901976 -0.07895594 0.010989144 0.0698575 0.012420312 -0.059148416 0.027162053 -0.06477373 -0.043258347 0.0500459 0.06612248 -0.037418526 0.07507292 0.055874087 0.00017233938 -0.05493386 0.004090883 -0.05754061 -0.017831922 -0.028376188 -0.054423932 -0.02708884 0.0139900595 0.064572476 -0.07952655 -0.013260469 0.05127295 0.005272664 0.017761707 0.06546738 -0.04124223 -0.037242085 0.06545802 0.0033694878 0.03927143 -0.07435381 -0.07205178 -0.02500676 0.038485773 0.03419017 0.04676991 0.002593249 0.06991785 -0.060372874 0.03412831 0.07315206 0.02087602 -0.0026682392 0.05066275 -0.071006656 0.066156946 0.019417837 -0.028433643 -0.06753476 0.07629899 -0.06169475 -0.065210044 -0.010469854 0.053691454 -0.07543428 -0.05550912 -0.002025202 -0.06413735 -0.06466441 -0.011207804 -0.0571644 -0.08001533 -0.027736343 0.043478012 -0.022944447 -0.048852645 -0.017793246 -0.02417479 0.060970254 -0.010294706 -0.024049476 0.025921136 -0.019873023 -0.01920643 -0.020402797 -0.059243675 0.038892277 0.041646965 -0.06346356 -0.066474326 0.05278427 0.058428816 -0.071495265 -0.0018447787 0.037398435 -0.035414383 0.042832747 -0.032889247 0.012137607 -0.030378304 0.07996843 -0.0067109913 -0.07044212 -0.021092787 0.07662741 -0.037244502 -0.010331877 0.04220441 -0.036684405 0.012295507 0.021178782 -0.08004101
-0.041598503 0.03979604 0.008144148 0.024307467 -0.0723275 0.05195958 -0.016963363 0.08108526 0.06643633 0.0028419793 -0.07713526 -0.07675733 0.005023159 -0.077860095 -0.048797242 0.012328573 -0.040572256 0.01463598 0.008712679 0.057765402 0.060029425 0.025684223 0.029934838 -0.07283699 0.06398643 0.0739687 -0.0014202446 -0.07463893 -0.06453684 -0.060554367 -0.030157015 -0.0002092421 0.0035369396 0.0340596 0.006725684 -0.02620038 0.015708037 0.042456113 0.022740215 0.035636835 0.047711723 -0.06998467 -0.04912367 -0.012526542 0.00044047087 -0.0372031 0.06226612 -0.042280562 0.07545603 0.0034160912 -0.008428194 0.05185931 0.021759763 -0.037414562 0.043444112 0.023190081 -0.033491887 -0.07979874 0.050947197 -0.058346223 -0.06457646 0.035366848 -0.027316645 -0.05165486 0.029583693 0.035160765 -0.01925617 -0.04199281 0.02951777 -0.0040899143 -0.077543795 -0.0571738 -0.068040535 0.052748986 -0.047083557 0.01416637 0.051822193 0.068138696 0.028546408 0.026249386 -0.00055178255 0.012618184 0.05953238 0.08012473 -0.07399793 0.02133426 0.027753055 -0.023044601 -0.06915461 0.0698257 -0.021235988 0.029227503 -0.012228325 -0.017644964 0.003475614 0.04949119 0.038554765 0.011880159 -0.009660296 -0.08024296 -0.019878786 -0.010554321 0.06949373 -0.061731238 0.00049455464 -0.018089913 0.07466831 0.032151878 -0.046711218 0.077132516 -0.07425352 -0.0035966337 -0.06443199 0.032877065 -0.029177781 -0.026664827 0.06784203 -0.06303255 -0.06782367 0.015908398 0.03134249 -0.06366768 -0.048542865 0.06227397 0.020271972 0.070479475 0.06403596 0.0061926246
0.043652713 0.03257256 0.04888042 -0.028549924 0.07226332 0.024592377 -0.008767232 0.012839571 -0.010117583 0.025210105 0.031732738 -0.013311729 0.033904664 0.028162442 0.0138221085 -0.0732781 0.025605418 0.015817665 0.018714331 -0.040253524 -0.03670065 0.07623672 -0.058691002 -0.057576112 -0.0072352514 -0.0529356 0.04125306 -0.06121193 -0.0020339638 -0.041462783 0.025059417 -0.072450034 -0.0017111301 -0.05917021 -0.037129942 0.040935084 0.043788992 -0.0737252 -0.078926064 0.07875577 -0.059187457 0.07235133 -0.07798956 0.047886603 0.020917289 0.0033583492 -0.034453426 0.06711034 0.07764109 -0.005530134 -0.048094545 -0.013792269 0.03143377 0.078045 0.04865984 -0.06040658 -0.05814106 -0.016409919 -0.04161523 0.060108684 0.07226301 -0.058950834 0.05499942 -0.024533749 0.07781354 0.008176848 0.008608349 -0.064991556 0.06100706 0.062030114 -0.06024238 -0.052239127 -0.055803604 -0.050022323 -0.028683804 -0.016033888 0.014930852 0.05935084 -0.06952167 -0.026065167 -0.037073087 -0.0010714009 -0.04767353 -0.050933212 -0.04653491 0.024253093 -0.08029316 0.047733612 -0.067798436 0.055749066 0.0037919506 0.07738646 0.039108947 0.066817306 0.076839335 -0.008687831 -0.050092675 0.06397673 -0.011050791 -0.07012644 0.0007312 0.05502493 -0.037906434 -0.005386181 -0.073011056 -0.04872451 -0.041275356 -0.037410058 -0.03730105 0.021175206 0.0039106905 -0.013844617 -0.04780163 -0.062494077 -0.07809144 0.042857654 -0.007878788 0.026515536 -0.0787601 0.06777988 -0.066470645 -0.062360078 -0.063870326 0.054866515 -0.012593158 0.03918779 -0.040617526 0.014918417
-0.02476161 -0.022734664 0.011863254 0.009076916 0.036150455 0.06313876 0.050753303 0.047721155 0.0402034 0.014106341 -0.046274636 -0.051636916 0.073272415 0.0454252 0.0063055977 -0.06946532 -0.06637715 0.042714767 -0.016801387 -0.07798514 -0.018794429 0.034185916 0.07659609 -0.059744515 -0.0085096285 -0.03189255 -0.053609133 -0.02220412 0.013494924 -0.02755383 0.02723281 0.063770615 -0.06004227 0.06544792 0.063827105 -0.064266235 -0.06679586 0.03184765 -0.00071918964 -0.018988915 -0.017493583 -0.0632457 -0.049613394 -0.007327087 0.04765176 -0.0052010193 0.04740525 -0.07869422 -3.2410026e-05 -0.029813316 0.047484495 0.02394393 0.017807886 -0.056672297 0.060174696 0.070771344 0.004833415 -0.06377814 -0.03322645 -0.057443026 0.008458555 0.045813955 -0.02805036 -0.078598276 -0.059787795 0.010358989 -0.04573711 0.048612572 -0.025088042 -0.053367734 0.00010382384 0.05104079 0.049519666 0.022838436 0.07553082 0.025324315 0.07556669 -0.035768814 -0.06483701 -0.014354646 0.059974067 0.009433046 0.02565889 0.024648152 -0.012756757 -0.04028079 -0.02181486 0.07671683 0.0009686202 -0.06338249 0.02806355 -0.06374253 0.033503473 -0.0058855712 -0.034783896 0.05245406 -0.008944772 0.060142003 -0.04916117 0.020769544 0.012194753 -0.072899975 0.0554552 0.03228908 0.054513745 -0.02486356 0.0024077892 0.06317734 -0.058795992 -0.05971139 -0.032535046 -0.027817525 -0.05161027 -0.005729571 0.045751266 0.0699131 -0.07804648 -0.065855 0.07764421 -0.024411723 0.07033657 0.049221896 0.008554377 0.05830782 0.07863734 0.07095336 0.06817155 0.060095347
-0.020943109 0.035091184 -0.06197755 -0.05169754 -0.043592047 -0.0645718 0.004949659 0.06122171 -0.05093952 0.06814947 0.06993116 0.026664577 -0.025571633 0.07086047 -0.038393814 0.0132840425 -0.048031967 -0.042427223 0.052084766 0.05172137 -0.064258344 0.06373481 0.043960758 -0.0035251006 0.051150523 -0.03806193 0.009669013 -0.048916966 0.032493524 0.021673746 0.030323341 0.00794512 -0.061268434 0.05674731 0.015437439 0.04581078 0.06508336 0.0033704937 -0.029763713 0.037766285 -0.023797382 -0.021865834 -0.04937356 -0.043148253 0.023550957 0.034496896 0.011410408 0.0031836033 -0.0625771 -0.07090649 -0.07984393 -0.016735189 -0.0036534145 0.07428647 -0.006049946 0.015339524 -0.042644896 -0.065653875 -0.05771098 -0.029048312 0.020900175 -0.01105234 0.0024344996 -0.07520566 -0.035078786 0.014212102 0.059434973 0.04251974 -0.0026765764 -0.03854425 -0.012987874 -0.076999485 -0.029963285 0.029036164 -0.07826063 0.0149972215 0.064278476 -0.040194754 0.0064238533 0.03735765 0.05931867 0.04359301 -0.05375523 0.043240786 0.0732347 -0.045060135 -0.023649309 -0.062992595 -0.04915523 0.064996175 0.0705696 -0.035407983 -0.010169469 0.06693315 -0.0267872 -0.032352995 -0.014561757 -0.069487676 0.056349404 -0.0047145784 0.055692054 0.072557084 -0.011608548 -0.04929588 0.06821307 -0.02598878 -0.016416475 0.025774702 -0.055781577 -0.022754218 0.008249737 0.024192773 -0.078231044 0.046840943 -0.024078194 0.067992784 0.07507949 -0.037617538 0.036488995 0.060818754 -0.07210728 0.024198323 -0.0070921704 0.07106408 0.020566724 -0.078262135 -0.06624888 -0.07411732
-0.007624261 0.035648726 -0.07874093 0.024448328 0.05100169 -0.03239496 0.014558256 -0.032115076 -0.06169931 -0.07886109 0.07091846 0.06800272 -0.049145892 -0.07494819 0.064060174 -0.07735753 0.06302213 0.069839306 0.022419512 0.020337202 -0.006928526 -0.034129374 0.0063739195 0.012804911 -0.0047472045 -0.043582436 -0.04569 -0.060341258 -0.07980379 0.03783691 0.0017376617 0.019102432 -0.04135101 0.060427047 -0.01972143 0.06117294 0.005570397 -0.051856562 -0.04004608 -0.031647764 -0.03333979 0.03827761 -0.014227942 0.034455515 -0.06358321 -0.07495496 -0.038734306 0.0101098865 -0.018127993 0.05727192 -0.080668904 -0.068433076 0.028465204 0.050194256 -0.018064506 -0.040795516 0.054236345 0.016922578 -0.06893833 0.051796027 0.07407851 -0.023689475 -0.05419429 -0.050595604 -0.062415157 0.00955867 -0.072684795 0.0498622 -0.06592473 -0.042544145 -0.046352472 -0.008309394 0.010716863 0.07283453 0.07581439 0.036533043 0.07774084 0.023172311 -0.0029186904 0.06018319 0.047747426 0.0747358 0.037451424 -0.073604956 0.026703604 0.048723288 -0.06917728 -0.0050923154 0.0669213 -0.074891165 -0.043107796 0.009337343 0.06758728 -0.049581178 0.0050406605 0.07189322 -0.0023349673 -0.0714292 -0.050801095 0.011480644 -0.043176353 -0.042155694 0.07851707 -0.05063811 -0.007983543 -0.06750809 0.04788425 -0.030347362 -0.003416285 0.003411375 0.052214094 0.039904118 -0.080312885 -0.014660232 0.022469208 -0.070620105 -0.017155856 -0.049007118 -0.005937822 0.01906234 -0.061932996 0.04645955 0.059704624 0.020147838 -0.054221593 -0.022923756 -0.02169158 -0.076057166
-0.045433536 -0.070139974 0.036352776 -0.054678597 0.01224716 -0.009301126 0.020191893 -0.052389544 -0.052368328 0.0023741797 -0.07013288 -0.06728833 0.053298272 0.017229423 -0.07726595 -0.022372458 -0.06968817 -0.047250796 0.013555877 0.036552228 -0.07313325 -0.06953244 -0.066105984 0.037069045 -0.045370456 0.046020575 -0.023603052 0.06205868 -0.03291901 0.067446925 0.025209837 -0.07892676 -0.030167922 -0.015231408 0.07465441 -0.014956877 -0.023013253 0.072642095 0.042349212 -0.014531553 0.06697967 0.025388367 0.07743586 0.041770786 0.080832966 0.035195626 0.050117083 0.0092820525 0.059090473 0.07326815 0.023182854 -0.035181936 0.052269064 -0.04647856 0.004033603 0.010009252 0.039331146 -0.06564081 0.037537828 -0.069003135 -0.032900482 0.034991242 -0.026873179 -0.017053865 0.024697483 0.0045365915 -0.054950185 0.06304907 -0.058056653 0.020186633 0.04199078 0.00988286 -0.057256453 0.06807167 0.03182616 -0.034919437 0.023431212 -0.04971695 0.0364684 -0.07802981 -0.03895828 -0.06640904 -0.023088556 -0.08057262 -0.064487584 -0.017723553 0.043159023 -0.06956408 0.018573374 0.057445876 0.024820127 0.05364164 -0.05401682 0.028064728 0.03184589 -0.061905302 -0.050753 0.055734687 -0.07397913 0.015841238 -0.06885637 0.038978532 0.035362437 0.0413542 -0.0804118 0.060656495 -0.0102945715 -0.029776167 0.07269593 -0.07558508 0.068943925 -0.03613537 0.040661447 0.07991361 0.053175993 -0.039190594 -0.03316093 -0.016576424 -0.047480207 -0.016612895 0.08048432 0.05012942 -0.078325935 0.04072404 0.048576765 0.03844133 -0.0025182515 -0.05281075
-0.045027915 0.0278024 0.026293859 0.07039412 -0.002752073 -0.04687544 0.013241053 0.022943228 0.055774204 0.057857595 0.04037804 0.01294256 0.04064437 -0.01743725 -0.011762172 -0.041699003 -0.06658397 -0.016689532 0.058223866 -0.07066977 0.071041085 -0.04677072 0.0024388507 -0.06000342 0.048418023 0.026355416 -0.06735251 -0.055041924 -0.04473759 0.054501466 0.044716142 0.05073469 0.024809934 0.009846382 0.048704825 0.0050565004 0.0129071325 0.07513467 -0.055967882 0.046779953 -0.017511234 0.07775242 0.038837783 0.056332625 -0.0047666207 0.049478807 0.0638972 -0.014008701 0.045628987 0.06962117 -0.027400825 0.0045846254 0.036993146 -0.050704382 0.051281206 -0.07900624 0.045015372 -0.07321151 -0.03607378 0.06668026 0.061273254 -0.019551098 0.009041987 0.020231418 -0.05449235 0.02700936 0.03725779 0.04916721 0.0789723 0.07051142 0.008999407 -0.032984834 -0.031383295 0.009269327 0.0112910345 0.021938935 -0.06322056 -0.040098894 -0.027569126 -0.0036139786 0.028094836 -0.018981624 0.02700866 0.051628463 0.042714633 -0.0050416663 0.07635691 -0.032681726 -0.062099013 0.045394145 0.0044813976 -0.048211195 0.03825885 0.05703122 -0.003136173 -0.07875283 0.03388256 0.07433949 0.059556298 0.051860772 0.0064554885 -0.0246895 -0.02845712 0.07054681 0.07421283 -0.054598033 -0.025838539 -0.01335787 0.065012656 0.0052192137 -0.023744572 -0.06211783 -0.049731184 0.033431664 0.008479267 -0.0497716 -0.020494305 -0.07183364 0.027041554 0.047503047 0.059279762 -0.05807384 0.04088022 -0.04487725 0.07951259 0.011576429 0.043162003 0.018046789
-0.07910399 0.010597639 -0.032466512 0.051489808 0.021129899 0.024398781 -0.050032437 0.031214647 0.043843463 -0.046353035 0.05001048 0.060099594 0.0010009706 -0.050089404 -0.040948 -0.03625009 0.054550804 -0.060022503 -0.011350982 0.00044439733 -0.022238407 0.054055266 -0.05094561 0.03996925 0.013951652 0.06861878 0.06592836 0.03918322 0.036076702 0.04123059 -0.03561999 0.02975563 0.07937496 -0.07824028 -0.06812674 -0.015470773 -0.0334149 -0.026820712 -0.07861116 -0.06351986 0.020547926 0.04751005 -0.074558735 -0.0559171 -0.03684975 0.044903867 -0.048241362 0.024097517 0.007781014 0.03636813 0.040706925 0.047030307 0.01864075 0.022238038 0.022996195 0.07227469 -0.07526321 0.03174293 0.00537879 -0.06696551 -0.06616464 0.07186095 0.06159351 0.07059286 -0.009471245 0.033997044 0.043331712 -0.028375495 0.019343384 -0.03198468 0.013636768 -0.010147542 0.05973666 0.033601128 0.0042171255 0.011861786 0.061308406 -0.024159685 0.06819486 0.016362429 0.052152745 0.018292077 0.030155659 -0.0014709681 -0.0704518 0.020012379 -0.07872721 -0.0073965937 -0.031933837 0.029202111 0.0039008632 -0.05459945 0.03405349 -0.0021569952 -0.029709354 0.056866787 0.00641264 -0.06712738 0.040122718 -0.047419194 -0.055611342 0.045096166 0.07628145 -0.023751494 0.05191978 -0.022057846 -0.02246194 0.07616272 -0.020875946 0.019890562 0.018504262 -0.0424764 0.06458894 -0.07404519 0.05427181 -0.03967401 0.027743652 -0.055868194 -0.07052769 -0.027469106 -0.02194665 -0.06292157 -0.030441675 -0.00073197484 -0.055423662 -0.027992848 -0.043167572 -0.014958061
0.045095257 -0.008475587 0.03034512 0.015841506 -0.0013799444 0.058192275 -0.024233442 -0.005383201 0.04857769 0.07046162 0.075830884 0.05863262 0.02420751 -0.06922419 0.04422102 0.0199069 0.0490715 -0.031816512 -0.017106637 -0.075552434 0.0739686 0.041146256 -0.0046695247 -0.009429216 0.0038669854 -0.03316408 0.052510984 0.059730954 0.0023758262 0.06910636 -0.03696452 0.021699525 0.080157794 0.0778793 -0.07000035 -0.07439837 0.05947397 0.047836535 0.060442917 -0.05603779 -0.05271112 0.054891266 0.0347856 -0.07517764 0.0049910024 0.008082867 -0.079950295 -0.049101975 -0.06366122 -0.058832698 -0.0036805794 -0.031857897 0.025313817 -0.0015448034 -0.07169011 0.07944582 0.07194204 0.0041860864 0.042026803 -0.00931938 0.033361994 -0.015498735 0.02046822 -0.06606104 -0.062070005 -0.04196817 0.037824012 -0.051734865 0.054737486 -0.025650203 -0.022486672 -0.015422717 0.02751612 0.014652438 -0.050283562 -0.014579028 -0.034725416 0.023108996 -0.03779106 0.04737123 -0.044571728 0.003036961 0.06435562 -0.021743502 0.052779697 -0.031914014 0.06484964 -0.04890484 -0.049886297 0.03899079 0.018546045 -0.06578942 0.056189112 0.027543537 -0.017314315 -0.005993247 0.025052823 -0.058345005 -0.06372446 -0.0016221926 -0.0026630983 -0.0420516 0.00294213 -0.061235152 -0.028592605 -0.012862466 0.020548068 0.037278153 0.039597973 0.03084685 0.034582123 0.07115019 0.024548791 -0.06990037 -0.008863248 0.025615223 -0.0006994456 0.05643838 0.06969071 -0.0155162215 -0.06757403 0.06436912 0.0058503374 0.03180539 0.03413593 0.07170417 -0.012860954 -0.072447404
-0.05989491 0.0034255928 0.058898754 0.08090102 0.007009569 -0.0065881163 -0.06344418 0.07872956 -0.03959847 0.054777008 0.046779487 0.06176462 0.06867868 0.037568092 -0.031564943 0.0014294088 0.009561853 -0.018419906 0.020098051 0.05014323 0.007157563 -0.03696432 0.023405626 0.0765262 0.0032594597 0.03142021 -0.06928429 -0.016607404 0.073938064 0.06452422 0.10443002 -0.07281756 -0.019584011 0.008255869 -0.045829043 -0.04261674 -0.066626236 0.07129631 -0.08882938 0.100049056 0.08063651 -0.062181626 -0.097894736 -0.040891666 -0.07232731 -0.010686265 0.047847964 0.013842443 -0.014055312 -0.010983715 0.07125474 0.05263669 -0.040271398 0.07975777 0.012251355 0.0787982 -0.018760473 0.035591193 -0.04670246 -0.02986876 -0.018074833 0.015039027 0.08158003 0.07284642 0.018433636 -0.023067387 0.024352312 0.024384148 -0.01462625 -0.05022498 -0.045860138 0.00060159713 -0.0689739 0.04068529 -0.052778605 -0.038459934 -0.009839676 -0.023936326 0.057537206 -0.07169315 -0.020803388 -0.037234902 -0.012071065 0.07165937 0.07491357 0.06360554 -0.060005546 0.011625953 -0.0453375 0.053578533 -0.039835893 0.07460495 0.015789047 0.049426414 0.051441573 -0.09840514 -0.035958245 0.053361613 -0.0053946674 -0.017510079 -0.04274768 -0.0269989 -0.008719191 -0.03260913 0.09305175 -0.0016232291 0.03401924 0.022798732 -0.02526987 -0.015234088 -0.00932033 -0.044799436 0.067311175 -0.07652275 0.09418389 0.11214243 -0.07935921 -0.05252451 0.052465733 0.002530761 0.036302343 -0.028909799 0.010794565 -0.055501927 0.090085685 -0.020054396 0.058341864 0.018419132
0.036684718 -0.025370697 -0.018863082 -0.07855748 0.041708887 -0.0023399144 0.07629766 0.06534483 0.07646622 -0.014976938 -0.07654794 0.004550919 -0.027568331 -0.062292494 0.11666608 0.07423272 0.072343946 0.08612522 0.032973196 0.096866824 -0.014442815 -0.076079786 0.07333838 0.03771871 -0.05884286 -0.005098656 0.0779726 -0.037391532 0.009057236 -0.049594495 0.028694803 -0.0024454445 0.053384192 -0.03329029 0.048595034 0.042720646 -0.05617043 -0.014331751 -0.044761594 0.07490638 -0.008053034 0.0027500018 -0.044888757 -0.024914633 -0.051994577 0.05815759 0.020581424 -0.039065666 0.06432425 -0.060964823 -0.07530635 0.0098131355 0.045118578 0.03253458 -0.006800778 -0.03650431 0.017672807 0.017464314 0.030115578 0.06500902 0.0068744044 0.07449519 0.12309907 -0.0032393364 0.021607535 0.07066417 -0.017228395 -0.04467683 -0.05081233 0.060095083 -0.01687754 -0.007811853 0.033627614 0.0591382 -0.0146187125 -0.009344299 0.04805184 0.063254446 0.012642063 0.032978453 -0.021142045 0.047321722 0.09988593 0.012674608 0.040548936 -0.0060178046 0.0032630265 0.07008793 -0.025505977 -0.009112418 -0.037572697 0.07011057 0.054533295 -0.024401378 0.009287142 -0.06659454 0.1063125 0.033647742 -0.0071273637 0.06474731 0.02546329 -0.049320918 0.035608575 -0.021093927 0.026081596 -0.04183351 -0.06716699 0.06272725 -0.03960556 0.047748618 0.0048922626 0.036279112 0.05240383 0.05474659 -0.016529663 -0.029588219 -0.0575662 0.092841804 0.0846099 -0.03346597 0.021846205 0.056293085 0.06806754 -0.015074454 -0.012171065 0.012373164 0.06886043 0.021258393
0.0077321786 0.04869918 -0.04412359 0.04559549 0.1442958 -0.025168989 -0.047891513 0.065832086 0.053767182 0.028222866 0.11154396 -0.019325355 -0.020219509 0.021004044 0.16336451 0.06264434 -0.005913155 0.11997834 -0.16705893 -0.021631334 0.0069883387 -0.014145562 0.01584333 0.054602947 -0.0024112265 -0.06779613 -0.07473387 -0.07913766 -0.0811879 -0.06788623 0.14985317 -0.113454506 0.005665891 -0.1788003 -0.01437702 -0.06966946 -0.14517193 -0.025010262 -0.104221314 0.13659936 -0.21371248 0.010294837 0.017311357 -0.00094185176 -0.06600502 0.07018567 -0.03387227 0.1698044 0.0731159 0.04183991 -0.14474888 0.0737473 -0.10595455 0.16189203 -0.008890122 0.033540905 0.030945411 0.18251362 -0.1387135 -0.026266612 -0.004811072 -0.05886615 0.1226279 -0.09594948 0.20524167 0.02552563 0.06511662 -0.07102243 -0.0635484 -0.14245737 -0.15229955 -0.11363534 0.1727906 0.07333979 -0.10951059 -0.112789445 0.0061761583 0.08916789 -0.010494191 0.077321045 -0.10032976 -0.019013945 0.10578459 -0.13411897 0.062617816 0.04906542 -0.032633033 0.004830338 0.1505441 0.04457845 -0.06737214 0.06421477 -0.021605154 -0.05932584 0.09209567 -0.028534569 0.102583595 0.16820541 -0.1266963 0.0062891957 -0.07349556 -0.113732435 -0.0067946827 -0.07050806 0.04821541 -0.03127884 -0.17237619 0.072691195 -0.0782651 0.0049842084 0.10176972 -0.027536608 0.17463306 -0.042022187 0.093086384 0.14049648 0.035554454 -0.00412667 0.1029996 -0.034020074 -0.014116555 0.048122235 0.023572229 0.065335624 0.1680827 -0.044394784 0.11580042 -0.17412105
-0.029549355 0.02652962 0.006201076 0.064533025 0.13563727 -0.077048525 0.068738975 -0.0018575191 -0.07995379 -0.028552482 0.07946433 -0.07162684 -0.052254323 0.034554735 0.15011133 -0.04547591 -0.00073587644 0.10305088 -0.03802543 -0.019299677 0.057297926 0.13111162 0.009885866 -0.005055925 -0.08376715 -0.059305415 0.04679387 0.0336755 0.028668376 0.05053201 0.082440026 0.03175721 0.022459136 -0.10650272 0.048713647 -0.11091023 -0.17058736 0.018317603 0.025123922 0.181737 -0.16069807 -0.04434041 0.037071723 -0.099696554 0.00023698244 0.06472682 -0.09922249 0.18117984 0.038073737 -0.06430275 -0.13537042 0.15503109 -0.018097777 0.060381703 0.055025898 0.013089031 0.06577317 0.13549161 -0.10805226 0.060305417 0.056175623 0.04512392 0.14475945 -0.13782215 0.13176708 -0.012833106 -0.019737858 -0.08129503 -0.0660934 -0.062115006 -0.10597106 -0.017267114 0.10793722 0.018634297 -0.072052725 -0.08920327 0.024814669 0.18691924 0.042771816 0.08818159 -0.12586296 -0.053260952 0.0439221 -0.10740888 -0.020136684 0.11908379 -0.029134963 0.039473593 0.14513811 -0.03938217 -0.116107106 0.027373996 -0.04298958 0.099220164 0.09432267 -0.10820386 0.21049039 0.19129315 -0.13495703 0.06935154 -0.13890411 -0.06067006 0.024185907 -0.014266737 0.09668288 -0.088180564 -0.030859414 0.062996246 0.07541008 0.063247524 0.06101202 -0.03131946 0.10523669 -0.051164158 0.08010745 0.008567351 -0.04272323 0.027940137 0.1253236 -0.07276549 -0.06693578 -0.0776092 -0.04980374 -0.0013802871 0.068084344 -0.09894273 0.07120235 -0.13820241
-0.10294255 0.104406826 0.0110648805 0.058026124 0.06832721 0.0713234 0.05316436 -0.024915608 -0.017708855 0.030818393 0.11312237 0.06011217 0.05342949 0.013547912 0.12795684 0.13102221 0.051783744 0.14587621 -0.11630513 0.053690862 0.1163705 0.12378833 0.059529394 0.07468963 0.076762445 0.044340905 -0.00013095886 -0.0791328 0.048180576 0.03277022 0.05828225 0.021348204 0.05540086 -0.07377823 0.065515645 -0.012414787 -0.101723365 -0.037166122 0.01937058 0.13350825 -0.13921359 0.07468062 -0.039485555 -0.029071605 -0.033250667 -0.07421258 0.01142668 0.14611875 -0.056377687 0.122604035 0.017892007 0.087912954 0.017619759 0.14937381 -0.04159796 0.054163642 0.059428442 0.045864854 -0.078331545 -0.02401461 -0.028052056 0.03433927 0.10145036 -0.015104559 0.13570067 0.009400293 0.04935466 0.035320543 -0.026690891 0.016777491 -0.14871916 -0.13115387 0.088983476 -0.033034157 -0.020695966 -0.09330617 0.064975046 0.012844339 0.039189674 0.056259844 -0.1526717 -0.07856613 0.16404545 -0.02791269 -0.036720138 0.13714199 0.06708261 -0.046462413 0.08053714 0.04102462 -0.029706791 -0.10745576 -0.098371424 0.0072629694 0.059130546 0.047173977 0.14389218 0.008061145 -0.08779676 -0.0057989885 -0.081712335 -0.059423696 -0.031557586 0.08022339 0.023076838 -0.08265493 -0.05411865 0.025603892 0.104239754 0.10778668 0.011975274 -0.05064266 -0.007418848 -0.11835854 0.008573408 -0.018093212 -0.00972901 -0.017683001 0.055764884 -0.03731646 -0.015334639 -0.015514441 0.03374937 0.052635707 0.16605036 -0.11479633 0.12402517 -0.094701424
-0.109211594 0.09255997 -0.073436335 -0.03988447 0.006714002 0.012473844 0.046869002 -0.10751173 0.0069723492 -0.029419897 0.14208193 -0.06872236 0.0575562 -0.032524563 0.1058671 0.011216777 -0.04193613 0.08309532 0.031379394 0.0068412493 0.22172868 0.15455715 -0.031195594 0.032591086 -0.031504698 -0.017352829 -0.069850735 -0.022291394 0.049929764 -0.023023294 0.16645284 -0.0056116697 -0.04384663 0.00076987484 -0.06670677 -0.022861091 -0.08551542 -0.057730757 -0.009114078 0.09464997 -0.045974582 0.020038173 0.0036457304 0.026875565 -0.0627012 0.038751677 -0.0129887285 0.15160641 0.057722874 0.13717583 0.035034057 0.038217183 -0.024050923 0.12070031 -0.051435012 -0.060979865 0.03144477 0.118382394 -0.15562767 0.07233081 0.084748335 0.07357515 0.060619693 -0.09073055 0.10235148 0.0633705 0.024373902 -0.081741765 -0.012347414 0.047286753 -0.06328806 -0.04463816 0.07574237 -0.08225894 -0.15206814 -0.045772754 -0.015388076 0.15542074 -0.025437234 0.023243254 -0.1533269 -0.08215293 0.10582607 -0.15225218 -0.10905953 0.14170602 0.038805716 -0.061335225 0.12327683 -0.017059295 -0.055375963 0.00249656 0.013779468 0.053035904 0.07687936 -0.109845266 0.17018297 0.005562432 -0.055517863 -0.058104906 0.08232831 -0.033343565 -0.030449409 -0.05103875 0.10283708 0.03968788 0.04563562 -0.036447305 0.05836984 0.029957926 0.1211388 -0.05660517 0.009107398 -0.114624195 0.021570504 -0.036316466 0.053857323 0.04107141 0.091264606 -0.047236416 0.059897736 0.053231876 -0.0925943 0.032575615 0.20292857 -0.029743591 0.056469806 -0.033316985
0.0009564074 0.13734144 -0.052473202 -0.02450157 0.05963493 0.060062386 -0.06443959 0.009000781 -0.010982545 -0.09578347 0.08103984 -0.02780048 0.057819284 -0.037793264 0.08209611 -0.0069239177 0.039178338 0.011610505 -0.020142227 0.03435688 0.077295095 0.102979295 0.056002725 0.1714954 0.07620512 -0.08117197 -0.014459283 0.008365884 0.030535655 0.06870293 0.07961321 0.02450731 0.0041342685 -0.008764254 0.04068439 -0.068201706 -0.04322151 0.025875323 -0.07880309 0.0070411037 -0.005826412 -0.05431289 -0.10292355 -0.06512855 -0.0010751485 0.011494732 -0.014157969 0.04026339 -0.023796726 0.12673633 -0.078987874 0.096160345 -0.06374498 0.12947476 -0.034270365 -0.029332895 -0.011259437 0.088897035 -0.0010513151 -0.0002422014 -0.0006516203 0.035865124 0.062951334 -0.010620997 0.12215202 -0.046927188 0.04741682 0.0100881215 -0.043535057 -0.029069584 -0.13781203 -0.050445866 0.025152866 -0.08931157 -0.1292797 -0.13598768 0.03556572 0.03669061 -0.06963973 0.022520993 -0.062077347 0.012684468 0.046521634 -0.010642884 -0.028394159 0.07780807 0.04140624 0.0499209 -0.0006712032 -0.026768863 -0.004118036 -0.043254275 0.024918 -0.050689343 0.019279346 -0.11962465 0.0825427 -0.009020889 -0.027137218 0.058573093 0.08174405 -0.074052766 0.0552956 0.09647738 0.1598811 -0.08354366 0.08750733 -0.06297301 -0.052159842 0.034895185 0.011133541 -0.0485437 0.046706922 -0.025820658 0.04850981 0.0935887 -0.03465372 0.13073486 0.037354223 -0.0057048597 0.003961559 -0.034899265 -0.063712634 -0.02944287 0.036840048 0.0050808145 -0.025998069 -0.13444425
-0.05171713 0.11411902 -0.13176103 0.024381679 -0.043870993 -0.063289054 0.07329963 -0.039344605 0.0075980853 0.12500077 0.15642874 -0.06331085 0.08277656 -0.022937719 0.1311183 0.09797546 0.04223823 -0.00909191 -0.118597366 0.019140303 -0.09199261 0.11068056 -0.087662764 0.19209972 -0.12375857 0.013879598 -0.14907783 0.002800653 -0.0052823084 -0.008583945 0.11351169 -0.027679915 -0.11340445 -0.049002785 0.07373008 0.0046598595 -0.10757731 0.18112502 0.0054367827 0.09758892 0.06993333 0.013293264 -0.112988345 0.025157783 0.14327577 0.05066518 -0.046148807 0.20580481 0.07868551 -0.08215701 -0.035803176 0.06445022 -0.070182785 0.075860776 0.036169942 -0.07588591 0.08103522 0.1846857 -0.10690151 -0.048850752 0.19301969 -0.08810855 0.100499325 -0.007907475 0.049532205 0.010657903 0.03142721 -0.0764129 0.026818477 -0.08361028 -0.22327441 -0.050998814 0.08098446 0.041060388 -0.14742373 0.005107771 0.008326502 0.06709557 -0.09434175 0.13157591 -0.15381281 -0.050251137 0.13661759 0.005530147 0.08459869 0.10639619 0.047588564 0.07153622 0.11353616 -0.0508097 -0.03276432 0.04437835 -0.045755673 -0.06807342 0.1064426 -0.10683828 0.11108034 -0.005203277 -0.061832875 -0.09720058 -0.12569092 -0.094909966 -0.04457267 0.017563881 0.023871 -0.10442247 0.10514924 0.06594756 -0.11047137 0.010421964 0.07038694 -0.14751361 0.010888223 0.007058684 0.035480395 -0.05611803 0.030231358 0.1419499 -0.0011422338 0.027219623 -0.0026556028 0.04059925 -0.052321833 0.023760447 0.087727495 -0.041462623 0.02696262 -0.08793062
-0.083561555 0.13411137 -0.18733478 0.06246025 0.039200727 0.05146844 -0.03274748 -0.03685295 0.056003436 0.10898002 0.028552635 -0.047477815 0.04018171 -0.0002225861 0.077183746 0.10443778 0.15665841 0.11135521 -0.07172685 0.03455569 0.06922662 0.1742167 0.052456252 0.20497465 -0.1299413 -0.10033718 -0.040644947 -0.03479758 -0.07186971 -0.09660946 0.20926642 -0.10729447 -0.08810501 -0.17699844 0.066509366 -0.11629289 -0.11797124 0.039132908 -0.1415724 0.10118522 -0.014697875 -0.03558069 -0.09348803 -0.14705227 0.10798842 0.06944954 -0.043504246 0.11763854 0.02206346 -0.0047671073 -0.030480817 0.019738847 -0.03545199 0.036240473 -0.03910224 0.05077683 0.049553096 0.14765494 -0.19956492 0.08039912 0.1745455 0.06553082 0.15105125 -0.021526303 0.15204564 0.05535251 0.013876423 -0.0098391455 0.030737264 0.033518415 -0.07998966 0.03434396 0.10180906 7.58744e-05 -0.14866966 -0.018401746 -0.07283874 0.034867067 -0.026801273 0.21429203 -0.10711387 0.03935953 0.10351254 -0.092311636 -0.019625176 0.15634449 -0.0021250753 -0.026788088 0.1765949 0.06934749 -0.19068418 -0.05408383 -0.17245185 -0.05975492 0.14837176 -0.10650621 0.113571055 -0.09502182 -0.06510217 -0.07815373 -0.08326697 -0.1400339 -0.011482292 0.09664225 0.081466034 -0.074954025 0.0056934673 0.063892744 0.02151157 0.047897004 0.14557928 -0.13606423 0.09019768 -0.08217995 0.15798481 0.027043715 -0.053068474 0.14496027 0.19606057 -0.0342908 -0.0012958616 -0.005192683 -0.015178119 -0.119171716 0.22292009 -0.06265586 0.17714645 -0.05262208
-0.03935678 0.14391436 -0.16583623 0.03382306 0.090768464 0.03944221 -0.010061492 -0.037469488 -0.06000052 0.11997879 0.16632901 -0.05613562 0.12238166 -0.015299976 0.1555505 0.13839129 0.12583242 0.056416824 -0.010264165 0.11553804 0.10393662 0.03322435 -0.020703081 0.20742911 -0.027842795 -0.048935767 0.0070884824 -0.077967964 -0.0902002 -0.09290519 0.28896663 -0.08093704 -0.13394915 -0.14679879 0.0052525653 -0.0760468 -0.03136379 0.038919136 -0.005673432 0.08888018 0.044391368 0.032374952 -0.05542193 -0.030472664 0.09149774 0.0018937197 -0.045275368 0.07291229 0.08214102 -0.07895959 -0.11962994 0.06426873 -0.17695686 0.16175649 0.021323845 0.07896074 0.07910322 0.1745155 -0.19878557 0.0996827 0.118349716 -0.11067861 0.18974268 -0.07199638 0.12065537 0.13815245 0.08806634 0.019763827 -0.0005724483 0.005967348 -0.08448578 0.09507139 0.0657245 0.03628741 -0.24965343 0.040486693 -0.09673767 0.0069162026 -0.056858383 0.12569062 -0.19745009 -0.15902723 0.12131623 -0.14746875 -0.052732896 0.16587916 -0.09197819 0.018073 0.109068446 -0.010443864 -0.13869631 -0.008924321 -0.1787534 -0.023326866 0.1614883 -0.104976825 0.20423631 -0.07863672 -0.111277625 -0.031385448 -0.018111864 -0.052988272 0.03680013 0.14913556 0.011754047 -0.033419717 -0.023706198 0.024554033 -0.040374737 0.170471 0.21571898 -0.19823825 0.16509062 -0.099044144 0.18211214 0.035862558 -0.04070866 0.08156329 0.1201352 0.032696173 -0.030616064 -0.05755127 0.026366945 0.028491106 0.19931482 -0.0820673 0.012390337 -0.043629244
0.075987734 0.06358442 -0.07194167 -0.0634648 0.0045327162 -0.0023590862 -0.053874437 0.075628504 -0.031704046 0.091494 -0.05584893 0.07546265 0.1267004 0.0729345 0.14073947 -0.09493269 0.08937144 -0.058690745 0.011683843 -0.042071838 0.031072548 0.21007869 0.07129404 -0.015413226 0.0024681245 0.026011162 0.087398246 0.011534017 -0.05807427 -0.08941752 0.15038376 -0.1852624 -0.12824628 -0.19454642 0.14122267 -0.1438665 -0.032917187 -0.06813676 0.031520613 -0.055377334 0.072457105 0.08584104 0.17077942 -0.12519255 -0.03488232 -0.056477014 -0.010252568 0.13735925 0.027800655 -0.032048453 -0.099056326 -0.038685117 -0.08726023 -0.058831234 -0.039118696 0.050496534 0.043673743 -0.041746087 -0.22130784 -0.09075729 0.002927573 -0.02704794 -0.0018323897 0.07127772 0.03754938 0.17334642 -0.026143795 0.0609731 -0.052427065 0.03443902 0.14414914 0.09019223 0.047007628 -0.13417383 -0.046804048 -0.008225394 0.052674677 0.021322424 0.048588738 0.13485594 -0.018286865 -0.19019806 0.105842434 -0.03348089 0.14212935 -0.009905185 -0.056749497 -0.027865537 -0.035929315 -0.033329908 -0.11701238 -0.08964956 0.029239094 0.077356085 0.009686731 0.031956997 -0.093201034 -0.027822234 0.08826845 0.07001653 0.092551194 -0.03827583 0.057832945 0.017501745 -0.033769533 0.097509764 -0.020423034 0.048439894 -0.036351305 0.095046215 -0.024783393 0.1300155 0.22811006 0.0012427884 -0.005893314 0.16185705 -0.09006091 0.08036727 -0.033037677 -0.12190611 0.09022205 0.026165158 0.06418859 -0.036210306 -0.06489054 -0.15168332 -0.07930688 0.078771
0.0024093888 0.052188795 -0.00669929 0.056434102 0.0026792637 0.151361 -0.073838785 -0.043665946 0.16674069 -0.06359257 0.014473266 0.14420632 0.17100614 -0.071491376 0.06224937 -0.07904497 0.026475763 0.0083278995 0.070638806 -0.033923045 0.12206499 0.11433454 -0.014271026 0.1490853 -0.04177147 0.041795522 0.086763725 -0.030688768 -0.006616475 0.0750007 0.12783787 -0.14513849 -0.08850721 -0.09100032 0.05490668 -0.099081725 -0.13718191 0.0007818066 0.00257648 0.044476513 -0.31932977 0.08194209 -0.012824936 -0.08307069 -0.031762242 -0.0115907155 0.047294617 0.16932192 0.045848507 -0.11872216 0.049550116 0.08651973 -0.18111141 -0.049229044 0.005758614 -0.06191908 -0.0705985 -0.03377665 -0.061947722 0.013772085 0.057341617 -0.011682936 -0.07304797 -0.12258532 0.052730147 0.19164124 0.13926885 0.085896574 -0.03318651 -0.06614521 0.006880047 0.013680931 0.29328904 -0.115289375 0.05162987 0.112656355 0.08775402 0.11544929 -0.046757817 0.24422072 -0.121033065 -0.12298778 0.09532021 -0.09170324 0.03878985 -0.06773137 -0.108379416 -0.17148098 0.033435028 -0.04742673 -0.08511038 -0.055562247 -0.12357301 -0.027135016 0.040536202 0.09261587 -0.028232766 -0.022701075 0.0039434163 -0.06465955 -0.04242737 -0.13461445 -0.019202784 -0.033971656 -0.05711472 0.05696652 -0.13249762 0.043807328 0.050139636 0.017010145 0.007124508 0.03743439 0.26423365 -0.07739032 -0.10282253 0.09007294 -0.03228836 0.30157351 0.15789276 -0.0693537 0.019105516 0.0053140367 0.04041256 -0.05669055 -0.08710779 -0.21613987 0.096249014 -0.06853443
-0.0710359 0.12564558 -0.16804124 0.054548565 -0.112787314 0.1370256 -0.060572736 0.08054242 -0.0026252368 0.11713509 -0.07624574 0.10523284 0.21227133 0.059258066 0.11394047 0.0050261007 0.008324492 0.0117903 -0.05506398 0.118074626 0.10415837 0.13925548 -0.019252446 0.16192083 -0.15336832 0.08595677 -0.105488256 -0.11056742 -0.0332401 0.1100672 0.17329587 -0.18279882 -0.04168855 -0.06159823 -0.022128925 -0.027994856 -0.1636268 0.012299751 0.1732562 0.14243306 -0.0943416 0.13435166 -0.09526911 0.013872758 -0.016005736 0.07236327 -0.09341608 0.1053387 0.16481283 0.08155305 0.06543696 -0.050124206 -0.08726648 0.13300037 -0.051304426 0.02552262 0.074411854 0.10842614 -0.080550134 -0.0967303 0.19910102 -0.065791845 0.22883931 -0.08705449 0.006099315 0.10427391 0.04132777 0.06862631 0.014383113 -0.04400505 -0.123759076 -0.071984954 0.15200005 -0.068622544 0.08683027 0.0298812 -0.018534167 0.16667433 -0.03741281 0.15743007 0.0026656392 -0.07740456 0.0344379 -0.046029016 0.0008081037 -0.055164665 -0.15486446 -0.051320422 0.08784231 -0.13101003 -0.013155722 0.07873852 -0.20571297 -0.03922088 -0.04697924 -0.03695443 0.12406102 0.0025488765 0.07787206 -0.13247135 -0.04351841 -0.039879963 0.024536297 0.023972994 0.05353191 0.0289044 -0.21052119 0.034349997 0.0063374583 -0.1014085 0.030431217 -0.06649432 0.16295455 -0.06511615 0.031349648 -0.107909776 0.12383532 0.32189152 0.13058665 -0.17883366 0.035523716 -0.015959594 -0.1344375 -0.10805164 0.16304104 -0.20985074 0.0020146149 0.02100931
-0.086295396 0.12037204 -0.06786033 -0.08173971 -0.07753571 0.0010023323 -0.01241437 0.0073446706 0.0010688148 0.088495955 0.10587343 0.08690023 0.073119804 0.012460828 0.20115846 0.04823884 0.10077749 0.08461752 0.07908019 -0.002375227 0.1785098 0.22901589 0.012035224 0.22814861 -0.051166233 -0.063166305 -0.18672447 0.0108188195 0.037260775 0.04142733 0.18824062 -0.073386505 -0.048748046 -0.1586128 -0.042268377 0.07354171 -0.13874733 -0.05489598 0.040324498 0.18506554 -0.20194359 0.07816586 -0.049741995 -0.14839432 0.008329121 -0.06995159 -0.03422354 0.20223263 0.05497608 0.12562054 0.08981116 0.06891954 0.034079134 0.3286701 -0.03910219 0.046892025 0.03666089 0.14980577 -0.025982352 -0.07138379 0.202772 -0.057039753 0.14936312 -0.1682689 0.14471065 0.0019000615 0.021570154 -0.0075850813 0.020288631 0.040949255 -0.06439626 -0.0060439254 0.14653656 0.03777737 -0.021055995 -0.031051723 -0.118990645 0.15076105 -0.08283548 0.14736898 -0.075127475 -0.00720441 0.04479472 -0.16689 -0.012244118 0.118095666 -0.07074514 -0.03839086 0.08377088 -0.045352783 0.01534699 0.11818773 -0.16795492 -0.008876381 0.03651058 -0.052663866 0.16777028 0.08614372 0.045118053 -0.054718982 0.09701857 -0.13045192 0.06988871 -0.03653546 0.09441927 0.073513255 -0.15923351 0.062428124 0.018902015 -0.079190925 0.09740169 -0.20605502 0.12425975 -0.055149633 0.18475889 -0.12740786 -0.044297088 0.20493093 0.14552152 -0.13090251 -0.10804019 0.12439397 0.014794526 -0.052351903 0.22058502 -0.03756566 0.044958103 -0.038932543
-0.084806345 0.09669024 -0.0751645 0.029389275 0.17747109 -0.011253871 -0.015197743 -0.064056724 0.19958994 -0.06212569 0.15676206 -0.038050894 0.14014626 -0.031882167 0.17171873 0.03183823 0.056120727 0.09506265 -0.114253275 -0.020953475 0.20031047 0.09723615 -0.03334654 0.09953834 0.110405155 -0.15301876 -0.00042002508 -0.03745413 0.026569556 -0.034988776 0.20902352 -0.027644947 -0.13572687 -0.14566323 -0.055507854 0.028460328 -0.12896429 -0.08317478 -0.040531397 0.20176117 -0.037804686 0.033569973 -0.06598436 -0.16849555 -0.06925518 0.029082451 -0.12065983 0.178415 -0.008131239 0.11905111 -0.023249766 0.026922192 -0.1497477 0.15879177 0.0768888 0.03541278 -0.077654056 -0.0028486 -0.04331149 -0.103911184 0.10778084 0.016714811 0.037451666 -0.001152488 0.120203145 0.113350295 -0.0031437709 0.03324022 -0.03388448 0.01575016 -0.03304657 -0.040997185 0.14496173 -0.043612868 -0.04680227 -0.05887576 -0.09929023 0.24038164 0.044712767 0.20200388 -0.049624868 -0.07167299 0.088919654 -0.08057549 0.068373784 0.13211024 -0.08320844 0.11290965 0.23933348 0.038468212 -0.013080312 -0.044844314 -0.14689574 -0.011644785 0.0675013 -0.050443165 0.24028206 0.016417386 -0.0116369575 0.009659361 0.10362287 -0.015350233 -0.07360939 0.006524588 0.06233413 -0.02498147 -0.15206262 0.0119894175 -0.05399868 0.076868 0.23374353 -0.09146894 0.17336342 -0.08787748 0.16117606 0.12452621 -0.0182929 0.2308727 0.1461646 0.028444028 -0.057670936 0.02798497 0.12668276 -0.031660814 0.12371464 -0.042962603 0.15182425 -0.08053095
-0.16627136 0.3363036 -0.05650384 -0.073948644 0.17456545 -0.014451586 0.061195515 -0.07816324 0.25957808 -0.055270694 0.23645906 -0.09544875 0.25915858 0.0025975034 0.18143028 0.15357451 -0.045922913 -0.021139571 -0.07241415 -0.0077983066 0.1531264 0.016712395 -0.07740597 0.19191645 0.21426564 -0.02444537 -0.015186186 -0.023875643 -0.13167664 -0.03556071 0.20697008 -0.06517982 0.019113278 -0.08449965 -0.037717074 -0.0834531 -0.092101045 0.018784598 0.008516182 0.25417307 -0.15819016 -0.11409652 -0.18523133 -0.006584903 -0.04046489 -0.10540547 -0.012595811 0.0036179523 -0.07992549 0.25795305 -0.020901239 0.0593536 -0.07521192 0.34734845 -0.044682283 -0.012883425 -0.008738608 0.12725273 -0.009044767 -0.014265138 0.16451895 -0.060499284 0.15620326 -0.11254849 0.13284865 0.12126906 -0.061483126 -0.07179835 -0.09836468 -0.06981071 -0.12866148 0.03858613 0.28800327 -0.050610088 -0.1338749 -0.08495737 -0.13307899 0.25689673 0.05794272 0.2848206 -0.22090858 -0.13670422 0.110356525 -0.24239388 0.052262124 0.10382053 0.02592948 0.015411911 0.27456048 -0.061707318 -0.083435066 -0.06884545 -0.14406784 -0.0195946 -0.00606706 -0.102491125 0.3286954 0.036551923 -0.17720248 0.064655446 0.079963274 -0.15922442 0.0097703785 0.049027838 0.07214192 -0.084287874 -0.015760638 0.0042889984 0.005494251 0.19401293 0.28783664 -0.13071989 0.14500146 -0.060507372 0.1782047 0.12281394 -0.01827441 0.21386921 0.17884673 -0.06674378 -0.04120236 -0.050096545 0.24035749 0.05822077 0.2405135 -0.11255924 0.12735003 -0.08005848
-0.04881918 0.22877483 -0.08310734 -0.033819534 0.21487807 0.06334179 -0.048018776 0.033350773 0.118150905 -0.003115405 0.20010076 -0.070603676 0.19564888 0.0023067892 0.15148984 0.07984647 0.008352779 0.019740555 -0.18232106 0.067006014 0.22601998 -0.048331827 0.03472801 0.15248512 0.1177144 0.031109896 -0.030840104 -0.10004213 0.014043082 -0.040326882 0.14087066 -0.12910314 -0.007865915 -0.01882144 -0.10330593 -0.055475518 -0.12167004 0.07271645 0.013845607 0.23287912 -0.1604249 -0.066836424 -0.050065868 -0.00788144 -0.1101841 -0.14944425 0.025676426 0.11010651 -0.057294473 0.1722653 -0.054210093 -0.047385186 -0.000628338 0.2665788 0.010632582 -0.07638949 0.06325378 0.21750216 0.070910476 0.10191895 0.086714275 -0.07541476 0.077486195 0.019231748 0.08444893 -0.013640587 0.00059258763 -0.017402552 -0.14551929 0.048260964 -0.096828096 -0.102595486 0.22545591 -0.041534703 -0.122212335 -0.11805603 -0.108294 0.20268214 -0.0691514 0.23233745 -0.16188887 -0.22494483 0.23628604 -0.24760081 -0.039041143 0.13044316 0.049849134 0.023439895 0.18350661 0.060578875 -0.027661698 0.051676944 -0.18606694 0.042648528 0.1460447 -0.12872203 0.20942068 0.1712611 -0.13977991 0.009152113 0.019870829 -0.2385088 -0.0171966 -0.03679887 -0.0279668 -0.014687414 -0.0015313817 -0.03836097 -0.11490645 0.072610036 0.22214395 -0.10484664 0.025333399 -0.073292255 0.24037038 0.18796296 -0.03408845 0.13994391 0.20632626 -0.12358604 -0.058165457 -0.031003155 0.16254883 -0.04761111 0.21182945 -0.0036742084 0.30223662 -0.16237444
-0.11240417 0.17339915 0.019998545 -0.028374776 0.109435126 0.016388863 0.04600589 -0.057811037 0.11687837 -0.0150722675 0.26631764 0.0027915016 0.088043295 0.023809582 0.10304489 -0.050670512 0.043814216 0.015028972 -0.054816533 -0.028157061 0.0565391 0.06183348 -0.026016038 0.06436992 0.068839714 -0.018421646 0.057324164 0.0021687727 0.032823306 -0.14580247 0.039480757 -0.09737112 0.00067475886 0.014527059 -0.055511314 -0.082615726 -0.084865525 0.049614053 -0.102189675 0.19875312 -0.114994146 -0.06889163 -0.14058891 -0.06532792 -0.06091283 -0.029607993 -0.03584233 0.14777127 -0.06241103 0.088881634 0.07870995 -0.004189393 -0.037827414 0.22808325 0.061963536 -0.020131074 0.0625605 0.1328196 -0.08103502 -0.013155326 -0.0064200745 -0.0324849 0.19045028 -0.10976194 0.023840915 0.01743805 -0.098061025 -0.020114884 -0.09167109 -0.028052034 -0.19261043 -0.052869607 0.048826 0.03439506 -0.16025572 0.0068208864 -0.030999804 0.108302385 -0.036056112 0.07916442 -0.14248958 -0.054616027 -0.0011845623 -0.25278535 -0.026027683 0.09243853 0.07441327 0.0549396 0.07874182 0.032796733 0.0012247913 -0.008711863 -0.054700173 -0.026025763 0.01934599 -0.11510817 0.24334687 0.17308247 -0.019069409 -0.06223526 -0.009830746 -0.15731579 -0.059634235 -0.071022 0.11355708 0.007710696 0.026219832 0.029249948 -0.097173184 0.1676463 0.18553215 -0.1116188 -0.054474037 -0.04427914 0.2062968 0.17378205 -0.02340055 0.049952544 0.190625 -0.0050576166 -0.042927545 0.04841045 0.12282618 -0.009183716 0.1219758 0.032096222 0.01524648 -0.17169009
-0.025112752 0.07790386 -0.039564192 0.054725297 0.12433893 -0.0635827 0.076829694 0.034657225 0.030996975 0.07216004 0.1660919 0.025758535 0.045704145 0.07182451 0.116838664 -0.064954534 -0.010937679 0.1145649 -0.037120987 -0.04148524 0.013180683 0.06702835 -0.004076265 0.04558544 -0.046395384 -0.07234251 -0.023598673 0.09399933 0.059938937 -0.09192489 0.08919219 -0.0943957 -0.00869558 0.020426393 0.046449494 -0.02873701 -0.09801537 0.07768622 0.019671634 0.19963345 0.045302328 0.046171825 -0.11985191 -0.061916094 0.048353933 0.08380816 0.023526862 0.022996893 0.04917471 -0.00852858 0.080368154 0.03563898 0.0030657302 0.15595315 -0.07853382 0.07527021 0.045078587 0.08930028 -0.07821582 0.06102682 -0.049125392 -0.10065593 -0.007886537 -0.095709115 0.05685935 -0.012603394 0.0035343915 0.019889873 0.03254895 0.06043867 -0.20233957 -0.04619186 0.11933277 0.059178837 0.010936228 -0.020425508 0.026885796 0.14514071 -0.042107582 0.013178124 -0.11160818 -0.05432076 0.04599812 -0.063946314 -0.028237365 0.16005735 0.032945674 0.02729687 0.15198974 -0.030594852 -0.06269223 -0.059058648 0.04881459 -0.06825596 0.14526246 0.0091621885 0.18123338 0.0022774993 0.006407483 0.00371643 -0.0652704 -0.065064654 -0.014769703 0.055352904 0.11057151 0.01999013 0.02930184 -0.01589158 -0.08944702 0.035940684 0.12193408 -0.103338294 -0.0277493 -0.02227689 0.11380411 0.10012567 -0.008602319 0.11790217 0.09366256 -0.070288494 -0.08330453 0.046509154 0.073575154 0.0005407557 0.1543156 -0.059439592 0.061950874 -0.024842897
-0.14047346 0.111963175 -0.06117833 -0.018668033 0.11251247 -0.013177991 0.0018305853 0.021778619 0.033969183 0.053986408 0.04748398 -0.016335025 -0.0022032417 -0.044444576 0.0650307 -0.0041914806 -0.010562383 0.06663201 -0.031619545 -0.06422872 0.011023447 -0.06740658 0.04062315 0.019086361 -0.051294703 0.019756861 0.07352597 0.040971085 -0.027481364 -0.07351787 -0.002501115 -0.09208598 0.03434225 -0.09680209 0.0769658 0.018105678 -0.08861381 0.08459434 -0.078063786 0.11982916 0.057307348 0.046885855 0.00019901707 -0.13908188 0.07995782 -0.03242174 -0.057095654 0.1161289 -0.0023158193 0.010757266 -0.042513665 -0.032665193 -0.058279034 0.056967128 0.03536909 -0.03457309 0.022878699 0.09710402 0.058569856 0.08064351 0.0020340383 -0.048738472 0.088634714 -0.028105164 0.021314891 0.0131607205 -0.015469812 0.045370556 -0.044489596 -0.1468877 -0.111459985 -0.081517145 0.12845728 -0.010226019 -0.075654194 -0.06288113 -0.06620167 0.17190906 -0.03260975 -0.01910855 -0.023805333 -0.11909432 0.10592091 -0.012580816 -0.08415201 0.016492281 0.0033580912 -0.021632422 0.059888173 0.06986638 0.00061809854 0.045173634 -0.029334491 -0.06599518 0.13400519 -0.12707122 0.12534723 0.13397813 -0.12950921 -0.10594337 -0.0268558 -0.02077417 -0.06771573 -0.011874817 -0.031390525 -0.10229031 -0.10122325 -0.06385572 0.018190231 0.0671166 0.01015225 -0.007175982 -0.05267463 -0.04076827 0.11511922 0.109848015 0.017010778 0.10850961 0.006110335 -0.09050692 -0.07124926 0.0399332 -0.04554833 -0.0038350374 0.13454609 0.063644625 0.10293574 -0.01053799
0.06308975 0.05915133 0.07842042 -0.06525363 0.01225166 -0.012128867 0.029847391 -0.0800459 0.0028813258 0.06350499 0.007518925 -0.015169486 -0.07631597 0.05999539 0.06776563 0.041820697 0.03987865 -0.055952102 -0.052173533 0.05912312 0.0035360083 0.07456792 -0.014334105 -0.07400044 0.022100195 -0.020539477 0.047983162 -0.0016361773 0.05406045 0.059687085 -0.05930958 -0.056336798 -0.0125172585 0.021012224 -0.0631955 -0.054534838 -0.06582775 -0.035941314 0.044932716 -0.04430391 0.020617954 0.0797311 0.02305992 -0.030076355 0.011021167 0.06416101 -0.0201823 0.07499906 -0.03988563 0.05757024 -0.047896422 -0.0037355796 -0.063293986 -0.07692547 -0.0008905679 0.07542843 -0.03488701 -0.016826198 0.041497633 0.02664373 -0.045718275 -0.03536012 0.019199394 0.005302042 -0.021463558 0.028277777 -0.07284954 -0.03596164 0.010920204 0.066843145 0.080821596 -0.04066651 0.044901244 -0.027277734 0.057132326 0.013315737 0.026663207 0.07127138 0.045354925 0.06394861 0.03147962 0.047275014 -0.07812333 -0.074954145 -0.0018328428 -0.0142125115 -0.013901353 -0.07349285 -0.078876905 0.071255855 -0.03597264 0.07390205 0.06880752 -0.06853534 -0.027735725 -0.022336181 -0.06291275 0.06734543 0.025755621 0.030657932 0.03139329 0.019860126 -0.00705231 -0.063300095 -0.0032626837 0.057297505 0.053744636 -0.04809592 -0.06759912 -0.07812468 -0.07935301 0.06644351 -0.0015072674 -0.00078014284 -0.059703097 -0.0122068 0.044182055 0.027074993 -0.035409976 0.036068037 0.02964513 0.07963494 0.028389923 0.051802523 0.008612737 0.06905887 -0.03789454 0.057308175
0.015413724 -0.041201755 0.061930068 0.06915786 0.014869951 0.026458487 0.037892528 0.0033338815 0.05893614 0.06438211 0.014729403 0.043417886 0.053358473 -0.035119995 0.0789692 -0.009322822 -0.034628164 -0.061190076 -0.057588182 0.012330219 -0.05113957 -0.040185645 -0.039397936 -0.011837207 0.005158916 -0.019258432 0.08045175 0.0388939 -0.003111124 -0.07395136 0.012719229 -0.046388965 0.030033037 0.014592528 -0.0017200261 0.06783313 -0.057943463 -0.01393684 0.077936165 0.038029537 0.06007623 0.025051706 0.013518803 0.07533222 0.023205243 -0.04461953 -0.07006558 0.020407766 0.0658275 -0.021789815 -0.05196938 0.07065331 0.07891437 -0.015353121 0.0054403245 -0.057159856 0.044994675 -0.074149035 0.07563799 0.0011703148 -0.058793962 -0.04145799 0.05403813 0.02821976 -0.04469667 -0.065167844 -0.0708465 0.012830824 -0.051511236 -0.0009108111 -0.04614569 -0.06069155 0.0004041493 0.05019132 0.011817478 0.0046988428 -0.062240317 0.023043014 -0.034663517 -0.055558432 -0.007861853 -0.03535335 -0.048845258 -0.04937855 0.01715234 0.049084567 0.045044996 0.060371928 -0.0070500076 0.028477967 0.042255655 0.0018461123 0.019481711 -0.057581604 -0.013020247 0.045822598 -0.0045846254 0.004359238 -0.024551943 0.057117604 -0.03983044 0.02616673 -0.0395101 0.05048447 -0.07823371 -0.035788655 0.062104695 -0.0052269474 0.047035135 0.011788897 0.054132275 -0.042471897 0.059505425 0.009634264 0.038975723 -0.06393097 -0.016859688 -0.0068685412 -0.031465773 -0.058202595 0.067146845 0.021012917 -0.01609964 0.042600594 0.079359956 -0.04969477 0.07236373 -0.08092819
-0.0721208 -0.045329865 0.06883774 -0.010449663 0.038514987 -0.06602244 0.034333877 -0.014816403 0.07123149 0.06595818 -0.032393914 -0.042599373 0.027456574 0.035794668 -0.037103254 -0.016374283 -0.0583053 0.058312096 -0.0072963014 -0.009488024 -0.06865263 -0.07602079 0.008006789 0.024225943 -0.029870152 0.070135824 0.020933516 0.04907555 0.07384849 0.018736742 -0.007759705 0.06486467 0.0036393926 -0.07757 -0.06827429 -0.048152134 0.032149613 0.017760195 -0.036227133 -0.0033432022 -0.0058916286 0.062218793 0.046092592 0.0022735074 0.026193164 0.02108702 0.024937011 -0.00069372356 0.031907767 0.067772694 0.049588256 0.04878006 0.026072145 -0.0729401 -0.0052598417 0.052135848 0.024352297 -0.029103696 0.013997547 0.06638875 -0.012949273 -0.048924044 -0.00025791675 -0.045339998 -0.006615944 0.07467619 0.01938384 -0.021274604 0.054178633 -0.021182805 0.0655543 0.023304202 0.052783273 0.025608703 -0.06589965 0.031265832 0.013469458 -0.01422146 -0.011218943 0.03801357 -0.02487209 0.072451554 0.077399455 0.054993324 0.06061054 0.04070335 0.022946186 -0.06557689 0.016537093 -0.003489077 0.009702802 0.0706952 -0.007937349 0.015832849 -0.017764106 0.050154053 0.03275618 0.057777427 0.0647952 -0.054591518 -0.034059234 -0.07211308 -0.05821321 0.07190613 -0.07715001 -0.03722642 -0.030180551 -0.021322776 0.011910535 -0.0032244101 -0.06185129 -0.049463157 0.053599946 0.01886592 0.047624715 0.017361522 -0.0637482 -0.00838799 0.05440504 0.011126481 -0.061500996 -0.06801545 -0.050216246 -0.071716666 0.03384599 -0.02831427 0.08043655 -0.012465566
-0.0017718524 0.0327076 -0.00040356815 0.061861716 -0.03444573 0.013694786 -0.0003644079 -0.013067067 -0.07129136 -0.04804316 -0.03801115 -0.052363224 -0.03071829 -0.009320907 -0.0144659355 -0.053614333 0.025077157 0.057212748 -0.06277104 0.011965767 0.06263118 0.07616603 -0.022193756 -0.055703893 0.05804097 0.056546323 -0.07169091 0.05505825 -0.016439624 -0.006946221 -0.028160356 0.02301488 0.013748795 0.034372993 -0.07607915 -0.062622346 0.048020177 -0.023177862 0.034402758 -0.048038464 0.0028231367 -0.07881256 -0.059430618 -0.07486902 0.0725377 -0.018149905 -0.06790286 0.019784205 0.03091678 0.06828139 0.018278077 0.0133468285 -0.024031743 -0.05524931 0.06083087 0.029940486 0.0021834895 0.04285702 0.072043814 -0.019646727 -0.04355482 0.07026393 0.017851785 0.07477146 0.005812183 0.053346448 -0.012566954 0.06642754 -0.06592121 0.039642394 0.00808084 0.016719274 -0.028100658 0.02774845 -0.039897755 -0.008483186 0.06343577 0.056664564 -0.013008818 0.017299905 0.047459684 0.05067613 -0.03080456 0.02435711 -0.05752237 0.03497465 0.06653268 -0.07636783 0.07756277 -0.07321345 -0.013394885 -0.04667057 0.035806157 -0.024473082 0.0138903335 -0.07051113 0.060781576 -0.0021429956 -0.0027245507 -0.01364851 -0.03137521 -0.028677866 -0.0010719225 0.054940008 0.03531821 -0.04281699 0.0044013783 -0.057555385 -0.028578836 0.038258195 0.0670779 -0.012781784 -0.07779657 -0.028406706 0.0058020875 -0.0604803 -0.053138107 -0.026493471 0.06285902 0.0131748915 0.0678603 -0.042144112 -0.068212815 -0.07026807 0.07811656 -0.039571248 0.029809773 0.04310584
0.0494396 -0.047025736 0.075217076 0.033245474 0.04350485 -0.015054479 -0.017586231 -0.07851957 -0.006377153 -0.05486881 -0.05738333 0.03493104 0.009486787 0.038340867 -0.0048453286 -0.08010334 0.053785734 0.052272372 -0.058437556 0.075871475 -0.004273936 -0.02175023 -0.016291589 0.032347016 -0.054090306 -0.028740466 -0.012510642 0.05218751 -0.013815455 0.06381378 0.062489934 -0.036554202 -0.066718064 0.04621897 0.05770787 0.031199463 0.0026949495 0.03522756 0.030456081 -0.05877766 -0.06542769 0.015523009 0.075304545 -0.060360134 0.014181159 0.036128856 -0.035519276 -0.061522655 0.047902443 0.07573254 0.026608147 -0.052208614 -0.02378489 0.046823747 0.08004006 -0.03431676 0.028022803 -0.06633663 0.06469058 -0.023845129 -0.020135771 -0.047086846 0.018480435 0.014202453 0.071094476 0.05869574 0.06378432 0.013443984 -0.023530167 -0.03645107 -0.016256511 0.033378676 0.071769364 0.025306895 0.00038591772 -0.026267212 -0.05046782 0.019597821 -0.004413463 0.046231546 -0.04801406 0.013092071 -0.053117707 0.06258907 -0.06579257 0.048590653 0.031860508 0.041835785 0.054604553 0.067565344 -0.06252755 0.071636446 0.04923614 0.031403966 0.030147538 0.04739798 0.0021078587 0.0021661222 -0.017213464 -0.022789355 -0.04997289 0.006511435 0.019270115 -0.051419497 0.033305675 -0.0045562014 0.075566955 -0.05723945 0.027186707 -0.07056422 -0.0023000762 -0.060216643 0.061212637 -0.027288489 -0.024839561 -0.054027323 0.046702303 -0.05448301 0.051093824 -0.03295252 -0.020660285 -0.006618649 -0.0031563789 -0.059907965 0.07753297 0.07111012 -0.018032677 -0.049572513
0.013186805 -0.0004976317 0.06169664 0.004001133 0.069540106 -0.005951926 0.03323906 -0.019670494 -0.05009049 0.005848907 -0.02641726 0.057304002 0.022192381 0.065654315 0.0009221062 0.022164054 -0.018797465 0.056471504 0.047097884 0.015733466 -0.036917686 -0.07119968 -0.07214371 -0.0620637 0.037743896 -0.0386047 0.023619875 0.015294932 -0.03499691 -0.072062686 0.0335225 -0.06998751 -0.029975485 -0.011890732 0.016044468 -0.01567731 -0.06699501 0.022156373 0.04225722 -0.069446236 -0.005228512 -0.07731008 0.06482608 -0.015219338 -0.0352643 -0.013737753 -0.029467084 0.021903604 0.07322181 -0.004453495 -0.044055644 0.0018651411 -0.0037712604 -0.07120238 0.0033934042 0.029366061 0.073251896 -0.07855527 -0.024972804 0.021255635 0.005730577 0.012474477 0.05187317 -0.0009969696 0.019423619 0.03023988 0.05528017 0.07221114 -0.044523418 -0.04159649 0.06759509 0.029032528 -0.0121142045 -0.0410976 -0.0020947084 0.013614804 0.062455557 0.07795284 0.051684044 0.058256604 -0.033707682 0.079850234 -0.056529872 -0.07129271 0.037852578 -0.07824255 0.027786255 -0.053715337 0.06351072 -0.06994514 -0.036305126 -0.047287192 0.03747022 0.07655861 -0.012796305 0.021563694 0.010842465 0.038592868 -0.03782906 0.05017755 0.035290636 -0.060578518 -0.026887275 0.055653535 0.06676554 -0.009125106 -0.064530976 0.0402968 -0.0043701306 0.010061681 0.07240141 0.054313533 -0.062452458 -0.028631765 -0.040418245 0.051099934 -0.052586965 0.07604384 0.021289743 0.0010777041 0.01637952 -0.045685552 0.070598714 0.06581529 0.03942766 0.06238731 0.058477335 -0.034324072
-0.014847727 0.07360925 0.043731652 0.07591166 0.035550393 -0.06606743 -0.055834852 -0.013259664 0.031080574 -0.039226018 -0.036034755 -0.08065984 -0.07879141 0.05621331 -0.035955302 -0.06766989 0.039891995 0.011512108 -0.06490855 0.019753827 0.014020925 -0.021991435 0.07125794 0.024501588 0.05403692 -0.053821735 0.028853707 0.03129293 -0.022871336 0.06273903 -0.04147106 0.008028835 -0.06106942 0.052106984 0.039175853 -0.068116605 0.07962313 0.035375245 0.008653268 0.018705701 -0.053187035 0.03236301 0.04463 -0.013709426 0.07847565 -0.053553782 -0.021583863 0.025351908 -0.037272677 -0.015573892 -0.05201626 -0.03586824 -0.070295066 0.0388955 -0.061493397 -0.05304432 -0.027428746 0.050740756 -0.061967805 0.015435174 -0.06124782 0.023937061 -0.0006737274 -0.050151315 0.009029922 0.05331385 -0.022086736 0.048681818 -0.056368105 0.05349645 0.06944897 -0.0177845 -0.014883004 -0.00738924 -0.017583832 -0.01592619 -0.06162861 0.008272582 -0.01255025 -0.043161087 -0.077476285 -0.006720108 -0.018532058 0.04249504 -0.080926955 -0.030159334 -0.045216117 -0.077784054 0.05344374 0.052693658 0.05989528 -0.052692287 -0.07323998 -0.042945895 -0.04230582 0.02364865 -0.004933066 0.03235054 -0.07222762 0.07900875 -0.02303883 0.037589535 -0.042355016 0.05290293 -0.014304822 0.050772894 -0.018493526 0.009538114 -0.06284309 0.015876932 0.058894426 -0.021556053 -0.047583926 0.010098286 0.021892235 0.07781696 -0.07177816 -0.027914776 0.02233735 -0.08006207 0.008346297 0.020486608 -0.037383568 -0.0031581149 -0.022977024 0.033811837 -0.06422789 0.04043577
-0.08548678 0.054464508 -0.08301649 -0.060315326 -0.045565747 0.00027754158 -0.02398396 0.029427655 -0.067804314 0.07003334 0.04711618 0.020377383 0.0745777 -0.06823523 0.017455295 0.12872042 0.11514542 -0.021712832 -0.15792209 0.093467444 -0.0033256263 0.01739426 0.005363092 0.009355841 0.117888935 0.053960178 0.023315646 0.0067207855 -0.039453395 0.0042730323 -0.0821745 0.024387337 -0.16632333 -0.062033564 -0.011763812 -0.013934604 -0.17406477 0.044902176 -0.057211608 -0.039266612 -0.03474095 0.007402085 -0.10481488 -0.013717352 -0.020493126 0.03364855 -0.018600427 0.013309205 0.037250303 -0.104358576 -0.06417144 -0.01782191 -0.08058398 0.06881885 -0.06651321 -0.012035906 0.0064259022 0.032411378 -0.074740134 -0.07872777 0.12690778 -0.035898596 0.1662368 -0.013182198 0.088705786 0.036899403 0.07577209 -0.08858484 0.018492414 -0.099700406 -0.08259234 0.038692072 0.080201775 -0.033048347 0.062028132 -0.0054991916 -0.10381597 0.090194196 -0.044794966 0.0588958 -0.12308595 0.097896986 0.005398907 -0.10180781 0.072607 0.047195245 0.06448964 0.068389736 0.04144472 -0.0679655 0.0774068 -0.05605088 -0.03984927 -0.022583306 -0.03715303 -0.07117823 0.104144625 0.12171432 -0.036926832 0.009171595 -0.16869862 -0.049249835 0.08962051 -0.053860493 -0.019944428 0.04015205 0.051459335 0.033511207 0.012036681 0.01411393 0.11787637 -0.01787151 0.01426458 -0.0050366595 0.08948594 0.048006754 0.01685892 -0.008337739 0.059192065 0.031902947 0.04026656 0.01961971 0.04993071 -0.04418745 0.07737378 -0.065637164 -0.012382783 -0.16737884
-0.13877133 0.05742003 -0.12039429 -0.031684726 0.039191723 -0.032220993 0.04176493 -0.012527994 -0.036587484 0.033759996 0.06655911 0.044058044 -0.0077719605 0.059022717 0.11636872 0.071170814 0.059180744 -0.041854914 -0.039550256 0.046549637 0.092024095 0.0192007 0.05903089 0.0736178 0.09116492 0.010255317 0.029620938 -0.03667215 -0.0067503303 0.04170256 -0.044706583 -0.052021805 -0.064361885 -0.10349842 -0.0173858 -0.020863513 -0.14523812 0.052633666 -0.04719104 0.05199692 -0.056012504 -0.023742707 -0.06048797 -0.10757487 0.012279581 0.017525923 -0.055331595 0.0522275 0.010747585 0.032095052 0.01003048 0.057396665 -0.21717662 0.0757244 0.03182005 -0.056726 -0.01562392 0.050295554 0.050394233 0.07485331 0.026098711 0.006572855 0.18817435 -0.093409926 0.049237497 0.10065997 0.10731839 -0.09598179 0.02719967 -0.10279438 -0.087559864 0.10424905 0.04652333 0.057786576 -0.0040985374 -0.082392454 -0.045497756 0.011634107 -0.005227335 0.115982115 -0.20652811 0.010547866 -0.018423133 -0.15761442 0.052534163 0.01600092 0.037695758 0.036534775 0.036428332 -0.04910825 0.024703383 -0.022804428 -0.028720593 -0.070224114 0.040429536 -0.061176695 0.11928264 0.12668715 -0.09466937 -0.11224691 -0.0010750171 -0.14070201 -0.016657 0.04956483 0.05925797 -0.029889572 0.032979317 0.07698873 0.041521527 -0.0071755066 0.036797546 -0.113042824 0.08764111 -0.00083904713 0.113693245 0.05618126 0.025059868 -0.0037330622 0.12861204 0.02816968 -0.047054704 0.0012431158 0.019653426 0.0015055477 0.07599957 -0.0041327085 0.06354451 -0.074498914
0.0039520534 0.09477056 0.025122054 -0.06423509 0.1282524 -0.05249834 -0.041018505 -0.035298396 0.059612688 0.07292083 0.14283994 0.05911316 -0.025737341 -0.008754373 0.16241771 -0.01682253 0.066497885 0.03865703 0.0055521578 0.10442189 -0.044971317 -0.06301084 0.014306119 0.022215089 0.07308526 -0.062214013 -0.036393683 -0.013769931 0.09473766 0.058328215 0.15524948 0.06488586 -0.044849947 -0.07700798 0.057084627 -0.036763042 0.0046984665 0.06366571 -0.049419828 0.19287574 -0.052314676 -0.0579864 -0.00078895583 -0.05445901 0.023243992 -0.017439384 -0.033700984 0.0206758 0.0026536724 -0.036642343 -0.10049472 0.024366597 0.03891099 0.037064042 0.044510804 0.076687 0.017580336 0.105018586 -0.0549252 -0.0663048 -0.034060407 -0.04356009 0.08862689 0.024431257 0.014540554 0.09415052 -0.0592766 0.028159063 0.054573204 0.080633804 0.009184646 -0.019251222 0.0033027541 0.062382814 0.008076863 -0.040973447 -0.045432657 0.0490306 -0.09583161 0.049332313 -0.08554747 -0.08522382 0.011570234 -0.07393606 -0.05118075 -0.0028047161 -0.06737276 0.03961499 0.12115809 0.024048105 -0.093745425 0.01650829 -0.110590234 -0.061835773 0.10132356 0.01717988 0.07187755 0.090616025 0.02697099 0.03933731 0.043421287 -0.112766586 -0.051858455 0.05278068 0.11726131 -0.0789188 -0.0052650766 0.049279667 0.045063756 0.122728616 -0.00015860773 -0.067139216 0.094648845 -0.033966936 0.076885216 -0.046827096 0.007509258 0.077781074 0.06709478 0.06815487 -0.06460919 -0.013362701 0.06461687 -0.0051681763 0.14003058 -0.13330431 0.009936548 0.008071379
-0.011634468 0.0066619366 0.044387523 -0.081496656 0.10036494 0.0502837 0.00067299797 0.0024096232 -0.013558454 -0.0031567 0.050888736 0.03603733 0.061922327 0.010545641 0.20824145 -0.18815328 -0.035222184 0.06903374 -0.087686494 0.078629196 0.0577331 -0.17705545 0.008312388 0.02955018 0.11109487 0.0013634888 -0.08293591 0.020648627 0.09101216 -0.01814031 0.16192071 -0.07150275 -0.042824715 -0.17735884 0.013795507 -0.09160641 -0.09994849 0.08442153 -0.101725064 0.1863282 -0.24194267 0.038165957 -0.05682306 -0.07190941 0.02144203 -0.0665826 -0.034905918 0.19589785 -0.080772646 -0.021406805 -0.08057914 0.029345123 -0.02193387 0.12231177 0.008780636 -0.054249577 0.15406422 -0.00809377 -0.10269124 0.07680723 0.044941522 0.052378956 0.10575068 -0.05825564 0.08390348 -0.0035855852 0.11101142 -0.010782234 0.034617506 -0.095013194 -0.1007393 -0.18992603 0.21937926 -0.09472773 -0.050123576 -0.15028489 0.019708252 0.07880599 -0.051897287 0.12616372 -0.025845299 -0.044863444 0.21349347 -0.08959669 0.052390914 0.032223977 0.06777327 0.04193659 0.088177785 0.040442485 -0.016453026 -0.06521678 -0.11467456 0.060148336 0.18853663 -0.043703545 0.21278466 0.16441818 -0.10667032 -0.010719438 -0.013981175 -0.12887812 -0.028511167 0.02021902 0.06667423 0.044248343 -0.15226398 0.0155359935 -0.01776936 0.09007852 0.061947968 -0.047015827 0.16017781 -0.00090807455 0.13675918 -0.012597308 -0.03796111 0.0567348 0.1820808 0.02574129 0.031571183 0.043144457 0.070740156 -0.013910155 0.117385514 -0.06958534 0.06875877 -0.09096497
0.017788528 0.03421378 -0.13412422 0.032112487 0.10787075 0.06123103 -0.11201718 -0.05402527 -0.035548966 0.11782913 0.14103779 -0.030203743 -0.040145047 0.07873734 0.15929222 0.0141064115 0.05885109 0.17452012 -0.15922862 0.041334152 0.019122306 0.0031578583 -0.099527925 -0.00070275186 0.098867476 0.04414154 -0.03635937 -0.101852626 -0.006399037 -0.05702567 0.22012238 -0.006381533 -0.05342668 -0.1924297 -0.018193401 0.011713661 -0.07429685 0.023288017 0.06727925 0.23710096 -0.1269931 -0.040623296 0.04911045 -0.04256145 0.050513476 -0.0062290006 -0.014598482 0.26334587 -0.02801818 0.13295841 0.0036720394 0.15823117 -0.042898517 0.1442989 0.062257685 0.05747407 0.10537371 0.05718365 -0.20998806 0.027420728 -0.045547426 -0.07067524 0.21439297 -0.019150898 0.11254434 -0.025649026 0.052911468 -0.00609897 0.04226851 -0.14536545 -0.1416134 -0.13334754 0.19654307 -0.08191652 -0.09972984 -0.1277883 -0.118344545 0.26143622 -0.09534074 0.089086756 -0.15762286 -0.091967635 0.10687448 -0.06758498 0.0333652 0.10500587 0.04095246 -0.051894814 0.11585691 0.046618402 -0.06377887 0.0059968 -0.0316023 -0.039925836 0.14123423 -0.02657137 0.27766323 0.15268588 -0.08101728 0.04523912 -0.056034006 -0.15011387 -0.0017924894 0.0026694387 0.21590543 -0.0012843147 -0.2059659 0.020114927 0.052947573 0.04332764 0.08795519 -0.1530097 0.065626524 -0.123117305 0.07633924 0.1196227 -0.04619431 0.091982305 0.2351283 0.054285455 0.04091546 0.042344626 -0.07065815 -0.06928031 0.14290503 -0.06045395 0.2152341 -0.062942475
